{"input_weights": [[-0.3388728201389313, 0.23854348063468933, 0.48171567916870117, 0.3703910708427429, -0.1965111792087555, -0.3373798131942749, 0.10929077118635178, -0.38520365953445435, -0.15736788511276245, 0.12273967266082764, 0.36947259306907654, 0.6570678353309631, 0.15374332666397095, 0.11188399791717529, 0.24274206161499023, -0.4343305230140686, 0.06657396256923676, 0.21300853788852692, -0.4307432174682617, 0.37372469902038574, -0.35262709856033325, 0.03222872316837311, -0.4097883999347687, -0.6337453722953796, -0.13759779930114746, -0.24325478076934814, -0.2621394395828247, 0.05411137640476227, 0.42280659079551697, -0.01828521490097046, -0.05489605665206909, 0.21498817205429077, -0.48228371143341064, 0.12679359316825867, -0.2063583880662918, -0.014881066977977753, 0.7236461639404297, 0.46531832218170166, 0.49686145782470703, -0.113807313144207, -0.033746831119060516, -0.31294018030166626, -0.029329869896173477, -0.07048232853412628, 0.31481078267097473, 0.06710653752088547, 0.39421945810317993, 0.20775268971920013, -0.05370140075683594, -0.11100137233734131, 0.10543161630630493, -0.08405854552984238, -0.16940607130527496, 0.5577930212020874, -0.04040384292602539, 0.27254220843315125, -0.042135000228881836, -0.1619899868965149, 0.04077953100204468, -0.10165715217590332, -0.01447916030883789, 0.437267005443573, 0.45313847064971924, -0.25914669036865234, -0.5908727645874023, 0.4836515784263611, 0.36075958609580994, -0.40328580141067505, -0.32445693016052246, -0.3936172127723694, 0.5057535767555237, 0.1542888879776001, 0.16847699880599976, -0.004555881023406982, -0.47157227993011475, -0.45051366090774536, 0.07940693199634552, 0.2870938777923584, 0.28298667073249817, -0.07337552309036255, 0.3691459596157074, 0.16277667880058289, -0.4712468385696411, 0.27354001998901367, -0.4721450209617615, -0.25468534231185913, 0.2072129249572754, -0.20207738876342773, 0.48531609773635864, 0.3115588426589966, 0.22358043491840363, -0.4561536908149719, 0.27335676550865173, -0.25625139474868774, -0.17139624059200287, 0.36959683895111084, 0.07999122887849808, -0.3114193081855774, -0.137006938457489, -0.34807997941970825, -0.08595156669616699, 0.4158966541290283, -0.3652111291885376, -0.27775251865386963, -0.0796968936920166, -0.33574455976486206, 0.011135123670101166, -0.03655195236206055, -0.45138514041900635, -0.2613047659397125, 0.2471996545791626, -0.2864032983779907, 0.07400095462799072, -0.27181315422058105, 0.42635607719421387, 0.08943873643875122, 0.36061394214630127, -0.22993230819702148, -0.11878855526447296, -0.16509011387825012, 0.34896019101142883, 0.09075886011123657, -0.1962561011314392, 0.45661067962646484, 0.3638154864311218, -0.0502648800611496, -0.2874864339828491, -0.1154864951968193], [-0.36087125539779663, -0.09707389771938324, -0.11973404884338379, -0.017424404621124268, 0.6716341972351074, -0.2822546064853668, 0.010761156678199768, -0.06690740585327148, -0.16659487783908844, -0.30956733226776123, -0.2931699752807617, 0.22892534732818604, -0.26727139949798584, 0.3350692689418793, 0.37179863452911377, 0.45345956087112427, 0.0037622451782226562, -0.02523648738861084, -0.24026715755462646, -0.33740851283073425, -0.07277172803878784, -0.06377092003822327, -0.24046315252780914, -0.4215678572654724, -0.16954708099365234, 0.5141252279281616, -0.2956065535545349, -0.4803912043571472, -0.47350215911865234, 0.00838702917098999, 0.337446928024292, 0.2149772047996521, 0.04804372787475586, -0.022210702300071716, 0.37443989515304565, -0.5371281504631042, -0.4947407841682434, 0.22946667671203613, -0.3858967423439026, 0.2876133918762207, -0.38500601053237915, 0.41583070158958435, 0.2499537467956543, 0.49019134044647217, 0.08401727676391602, -0.07789653539657593, -0.34896135330200195, -0.24645957350730896, 0.09915828704833984, -0.4277009963989258, 0.2748756408691406, -0.1619611382484436, -0.2450135350227356, 0.20894354581832886, 0.25737351179122925, -0.14748847484588623, -0.1506776660680771, -0.2065529227256775, 0.21051213145256042, 0.23139244318008423, 0.17742007970809937, 0.5615881085395813, 0.3466600179672241, 0.45329731702804565, 0.3198738098144531, -0.4888642430305481, -0.02808736264705658, 0.008970022201538086, 0.018188774585723877, -0.22938764095306396, -0.7252901792526245, 0.12152445316314697, -0.28834328055381775, 0.17865701019763947, 0.46970099210739136, 0.05856463313102722, -0.15411950647830963, -0.30152368545532227, -0.03103739023208618, 0.15889950096607208, -0.2535916566848755, -0.17285683751106262, 0.14574335515499115, -0.018496692180633545, 0.24741661548614502, 0.21632301807403564, 0.14255189895629883, -0.16459132730960846, -0.12084954977035522, 0.14245007932186127, -0.2991504371166229, 0.08022850751876831, 0.10093860328197479, 0.2772153317928314, 0.1018800139427185, -0.157173752784729, 0.04240316152572632, -0.543766438961029, 0.08572864532470703, 0.05524122714996338, 0.2661188840866089, 0.15222227573394775, -0.5036906003952026, 0.29802975058555603, 0.2399301528930664, 0.03421542048454285, -0.21997952461242676, 0.13844257593154907, -0.11082838475704193, -0.4089720547199249, 0.007357537746429443, 0.03595203161239624, -0.13189548254013062, -0.37187206745147705, -0.20979511737823486, -0.13036465644836426, 0.43390560150146484, 0.36695823073387146, -0.034033119678497314, 0.13212960958480835, 0.3748692274093628, 0.20915007591247559, -0.04540984332561493, 0.07078903913497925, 0.28424832224845886, 0.09162092208862305, 0.39407578110694885, 0.10675829648971558], [-0.36094558238983154, 0.2702023983001709, 0.5192559957504272, 0.38465845584869385, 0.48103463649749756, -0.046566274017095566, -0.05250096321105957, -0.41116446256637573, -0.3469840884208679, 0.4337077736854553, 0.1328173577785492, 0.7933664917945862, 0.10636339336633682, -0.3217387795448303, 0.03741568326950073, 0.4196552038192749, 0.20172902941703796, -0.37870341539382935, -0.24635183811187744, -0.5595001578330994, -0.35777005553245544, 0.6442869901657104, 0.04937458038330078, 0.3987402319908142, 0.18482810258865356, -0.3663737177848816, -0.6610970497131348, -6.068125367164612e-05, 0.14818498492240906, 0.48157650232315063, 0.24644827842712402, 0.1742989420890808, -0.3625947833061218, -0.6134634613990784, -0.1508389115333557, -0.21888306736946106, -0.1017618179321289, 0.12755095958709717, 0.2657318711280823, -0.32296502590179443, -0.10523116588592529, -0.18766149878501892, -0.3297233581542969, -0.314203143119812, 0.6568414568901062, -0.304372102022171, 0.6529015898704529, -0.004482463002204895, 0.2347699999809265, 0.1761535406112671, -0.03088071197271347, -0.11090600490570068, -0.322995126247406, -0.41511330008506775, 0.6861857175827026, 0.0463537871837616, -0.04174739122390747, -0.03737573325634003, -0.48695307970046997, 0.13094663619995117, -0.4263728857040405, -0.07918517291545868, -0.29908400774002075, -0.04368481785058975, 0.6016707420349121, -0.5926053524017334, 0.053926825523376465, -0.12530016899108887, -0.2856370806694031, 0.055845294147729874, -0.044533222913742065, -0.16824549436569214, 0.3713178038597107, 0.1628217101097107, -0.11182093620300293, -0.3810018301010132, -0.40807998180389404, -0.3565414547920227, 0.44837021827697754, 0.07471847534179688, 0.2898101210594177, -0.38363397121429443, 0.0696626529097557, 0.004782393574714661, 0.007687747478485107, 0.34682923555374146, 0.3930568993091583, 0.4040776491165161, -0.12574222683906555, -0.5046816468238831, -0.2898957133293152, -0.09194069355726242, -0.2459709495306015, 0.2937976121902466, 0.09052890539169312, -0.21534329652786255, 0.6352119445800781, 0.11109369993209839, -0.28046301007270813, -0.35843271017074585, -0.2583029568195343, 0.000366993248462677, 0.5248085260391235, -0.49018293619155884, 0.4535455107688904, 0.02592325210571289, 0.06964898854494095, -0.36082035303115845, 0.28378385305404663, -0.10063236951828003, 0.4426824450492859, 0.46046632528305054, -0.1662566363811493, -0.04717272147536278, -0.6508033871650696, -0.2869567275047302, -0.07810282707214355, -0.25369811058044434, -0.031574547290802, 0.4166066646575928, 0.2548348903656006, -0.02585318684577942, 0.25556185841560364, 0.040760695934295654, 0.26342785358428955, 0.45895862579345703, 0.2181401252746582, 0.016682744026184082], [-0.11045336723327637, 0.5138838887214661, -0.1263216733932495, -0.035067200660705566, -0.38912296295166016, 0.5645700693130493, -0.11826968193054199, 0.5077642202377319, 0.3138146698474884, -0.050830960273742676, -0.02422642707824707, -0.12357206642627716, -0.4271688461303711, 0.39282435178756714, 0.520253598690033, -0.07841725647449493, -0.27411603927612305, 0.003913223743438721, 0.05427055060863495, 0.036158740520477295, 0.4396158456802368, 0.4645432233810425, -0.38224294781684875, -0.13301998376846313, -0.3221912384033203, -0.25398558378219604, -0.5585117340087891, -0.46734619140625, -0.31639400124549866, -0.15737129747867584, 0.020908087491989136, 0.6694029569625854, -0.15505166351795197, -0.4445223808288574, 0.6087034344673157, 0.36956197023391724, -0.27614694833755493, 0.5447456240653992, -0.44883474707603455, -0.39158517122268677, 0.012909840792417526, -0.0352858304977417, 0.06507265567779541, -0.3794947862625122, -0.2508033215999603, -0.3544813394546509, -0.2454635500907898, 0.05952578783035278, -0.44218549132347107, 0.4205087423324585, -0.2061690390110016, 0.6954744458198547, 0.43366771936416626, -0.2422076016664505, -0.27147093415260315, 0.3001728951931, 0.06813949346542358, -0.12450416386127472, 0.08951234817504883, -0.14205656945705414, -0.4800265431404114, 0.0002499818801879883, 0.012773215770721436, 0.3736388683319092, 0.12268134951591492, -0.18238726258277893, 0.03235280513763428, -0.11887289583683014, 0.33185821771621704, 0.05569034442305565, 0.7196936011314392, 0.09272897243499756, 0.01099628210067749, -0.2275983691215515, 0.566787600517273, -0.36841362714767456, -0.09104418754577637, -0.4101935029029846, -0.05735407769680023, 0.14804482460021973, 0.37144050002098083, 0.1968318372964859, -0.0009142756462097168, -0.6812957525253296, -0.2618398666381836, 0.14749759435653687, -0.13633272051811218, -0.3472822904586792, -0.3456128239631653, -0.3154679536819458, -0.39301812648773193, -0.1341017335653305, -0.2649015784263611, 0.3451284170150757, 0.3937106728553772, 0.09933006763458252, -0.4367932081222534, -0.37643277645111084, -0.17356936633586884, -0.15118618309497833, -0.3565270006656647, 0.4222557544708252, 0.02373439073562622, 0.3814969062805176, -0.11579625308513641, 0.06662297248840332, 0.11243189871311188, 0.12455976009368896, 0.2009003460407257, -0.2793465256690979, -0.06295144557952881, -0.40033668279647827, -0.3495441973209381, 0.16786766052246094, -0.04846644401550293, 0.2752065658569336, 0.19238978624343872, -0.07407790422439575, 0.5613429546356201, 0.0697430968284607, -0.1782715916633606, 0.1395883560180664, -0.13234813511371613, 0.37451279163360596, 0.1984865665435791, 0.4802546203136444, 0.08874479681253433, -0.09183740615844727], [0.037399888038635254, 0.201360285282135, 0.37003999948501587, 0.18164967000484467, -0.0295138917863369, 0.17421963810920715, 0.6044281721115112, -0.08766603469848633, 0.2976585030555725, -0.2579748034477234, -0.09546172618865967, 0.3083590567111969, 0.3175906538963318, -0.17585423588752747, -0.3734084963798523, -0.6105864644050598, 0.0652010440826416, -0.3317517638206482, 0.12718451023101807, 0.17813336849212646, -0.3079993724822998, 0.45007747411727905, 0.42106208205223083, 0.04711651802062988, -0.3704834580421448, 0.06929963827133179, 0.01913541555404663, 0.14085063338279724, -0.02599266916513443, 0.3513825833797455, -0.4708600640296936, -0.44177401065826416, 0.5261958241462708, -0.05178706720471382, -0.3144896626472473, -0.2800554037094116, -0.40306809544563293, 0.09774688631296158, 0.028127416968345642, 0.2564086318016052, 0.23321285843849182, 0.2591623067855835, -0.3886409401893616, -0.16919010877609253, -0.0226893350481987, 0.41360437870025635, -0.32685890793800354, 0.36580711603164673, -0.2128864824771881, -0.2529861330986023, 0.2630987763404846, -0.07775522768497467, -0.33830130100250244, -0.15830227732658386, 0.27159422636032104, -0.04988939315080643, -0.18008539080619812, 0.05825468897819519, -0.47488391399383545, 0.3217540979385376, -0.07176631689071655, -0.5696054697036743, 0.7899479269981384, 0.3276885151863098, 0.005634427070617676, -0.44840186834335327, 0.21469759941101074, 0.27852773666381836, -0.4469486176967621, -0.45136189460754395, 0.1604030281305313, 0.009150996804237366, -0.3698316216468811, -0.34973061084747314, 0.12912988662719727, -0.17749017477035522, -0.41091006994247437, 0.2907615303993225, -0.06894484162330627, -0.25281375646591187, 0.25407642126083374, -0.14231616258621216, 0.018664896488189697, 0.3397124707698822, 0.00028686225414276123, -0.05902952700853348, 0.3182597756385803, 0.20922482013702393, 0.2066839337348938, -0.05882475525140762, -0.6349797248840332, 0.509113073348999, -0.45743584632873535, 0.12677717208862305, -0.30106061697006226, -0.3180828094482422, -0.42408692836761475, -0.22842609882354736, 0.3087359070777893, -0.18669360876083374, -0.3906724154949188, -0.3426322042942047, -0.13720127940177917, -0.3404574990272522, -0.08419065177440643, 0.4968814253807068, 0.2703767418861389, -0.04658595472574234, 0.05702081322669983, -0.10781431198120117, 0.031397223472595215, 0.22380223870277405, -0.48457103967666626, -0.0871543288230896, -0.23172976076602936, 0.04498358070850372, -0.17193834483623505, 0.02829575538635254, -0.32279300689697266, 0.34614163637161255, 0.1952958106994629, -0.46975213289260864, 0.0028585493564605713, -0.050558626651763916, -0.008997917175292969, -0.494234561920166, -0.26878052949905396, -0.31845399737358093], [-0.23976127803325653, -0.10692304372787476, 0.30859434604644775, 0.4200361967086792, 0.5015294551849365, -0.4911618232727051, 0.06281423568725586, 0.0556635782122612, 0.33333802223205566, 0.3178711533546448, -0.22857695817947388, 0.22319751977920532, 0.13157302141189575, -0.016835689544677734, 0.09767019748687744, -0.22457855939865112, -0.6283056139945984, 0.24622932076454163, -0.1920652985572815, 0.2591945230960846, -0.2947736084461212, -0.23059293627738953, -0.28163814544677734, 0.004483044147491455, 0.6333312392234802, 0.02448168396949768, -0.49554675817489624, -0.2118523120880127, 0.0658821165561676, -0.20620906352996826, 0.27252477407455444, -0.1121176928281784, -0.20033836364746094, -0.47183531522750854, -0.35062652826309204, -0.2916448414325714, 0.3717195391654968, 0.3313445448875427, -0.12813353538513184, -0.07090838253498077, -0.3962176442146301, -0.39017611742019653, 0.26558101177215576, -0.09279495477676392, -0.3720971345901489, -0.019174396991729736, 0.40541183948516846, 0.027143239974975586, 0.5086387395858765, 0.44063934683799744, 0.3388509750366211, -0.607490062713623, 0.06463086605072021, 0.026336565613746643, -0.3697506785392761, 0.17993569374084473, 0.07694120705127716, -0.14084696769714355, -0.00047819316387176514, 0.2604832053184509, -0.10348504781723022, 0.20045334100723267, 0.4744446873664856, 0.298656702041626, -0.4352567791938782, 0.16089916229248047, 0.43477970361709595, -0.2856660485267639, 0.49145299196243286, -0.2552414536476135, 0.10770702362060547, 0.4652032256126404, 0.017419278621673584, 0.41733497381210327, -0.27079063653945923, -0.1587294340133667, 0.2584073543548584, 0.41202056407928467, 0.6581143736839294, 0.026461482048034668, -0.2085988074541092, 0.006980180740356445, -0.6915024518966675, -0.4487167000770569, -0.4372636675834656, 0.47111374139785767, -0.17868129909038544, 0.4023682773113251, 0.2143356204032898, -0.33997949957847595, 0.13733068108558655, 0.011456310749053955, 0.20080792903900146, 0.10111850500106812, -0.30263441801071167, -0.3932795524597168, -0.11102018505334854, -0.30465203523635864, -0.31017404794692993, -0.19203050434589386, -0.4121384620666504, -0.30905401706695557, 0.16694068908691406, 0.09091537445783615, -0.16905492544174194, -0.04789349436759949, -0.3015627861022949, 0.4434189200401306, 0.17419511079788208, 0.1646830439567566, 0.1967853307723999, 0.4956669807434082, -0.2302684783935547, -0.3825811743736267, 0.07047073543071747, -0.49729394912719727, -0.28691697120666504, -0.07524499297142029, -0.18837881088256836, -0.41276711225509644, 0.4000777006149292, -0.0686485767364502, -0.24692121148109436, 0.2075156569480896, 0.08890759944915771, -0.07116281241178513, -0.23491615056991577, 0.4657061696052551], [-0.48553699254989624, -0.11803042888641357, 0.1527097076177597, 0.07202941179275513, 0.16447913646697998, 0.0853232741355896, 0.078571617603302, 0.03414870798587799, 0.3790854215621948, -0.025019191205501556, -0.07213956117630005, -0.13579848408699036, -0.0007484555244445801, 0.3866562247276306, 0.2737850546836853, -0.09895849227905273, 0.11181885749101639, 0.4463488459587097, -0.31352025270462036, 0.14069832861423492, -0.12832768261432648, -0.022512614727020264, -0.2266715168952942, -0.421494722366333, 0.23969298601150513, -0.06578242778778076, 0.33165714144706726, -0.3034855127334595, -0.28475135564804077, -0.26792919635772705, -0.3823630213737488, -0.14000116288661957, 0.1719498634338379, -0.008089885115623474, 0.5853356122970581, 0.31601855158805847, -0.2792932391166687, -0.45173412561416626, -0.2968869209289551, -0.22217126190662384, 0.46001875400543213, -0.6169328093528748, 0.3895625174045563, 0.48624730110168457, 0.03712564706802368, -0.20098254084587097, 0.2988354563713074, 0.2724072337150574, -0.22160033881664276, -0.3281710743904114, -0.18527039885520935, -0.25127774477005005, 0.260888934135437, -0.06616775691509247, 0.16430294513702393, -0.4612405300140381, 0.2807193994522095, 0.291601300239563, -0.6067268252372742, -0.08978760242462158, -0.376237690448761, 0.3290470838546753, -0.5085689425468445, 0.13959938287734985, -0.14595669507980347, 0.005660973489284515, 0.2676655352115631, 0.8343217372894287, 0.06764674186706543, -0.2478654980659485, -0.27845850586891174, -0.26439598202705383, 0.6439893841743469, -0.0283735990524292, 0.18280547857284546, -0.22911915183067322, 0.13588571548461914, 0.624191403388977, 0.39531758427619934, -0.22208291292190552, -0.492520272731781, 0.01635265350341797, -0.40972936153411865, 0.14623165130615234, -0.24010199308395386, 0.14330726861953735, -0.25797152519226074, 0.15021249651908875, -0.4378693401813507, -0.3898041844367981, -0.49277687072753906, -0.17721521854400635, -0.23109561204910278, 0.27345818281173706, -0.4567354917526245, -0.24145697057247162, 0.4889692962169647, -0.3638366460800171, 0.08253252506256104, -0.12061738967895508, -0.4124303162097931, 0.11574918031692505, 0.5881428718566895, -0.17420130968093872, 0.07596886157989502, -0.03750710189342499, -0.03929516300559044, -0.25246912240982056, 0.3437160849571228, 0.20329809188842773, -0.0011047124862670898, 0.32921916246414185, -0.3440919518470764, 0.6040061116218567, -0.35915854573249817, 0.44771066308021545, 0.07115209102630615, 0.1072760671377182, 0.14389154314994812, -0.024152349680662155, 0.042423367500305176, -0.21593698859214783, -0.4687163233757019, 0.37883925437927246, -0.30094173550605774, 0.3593432903289795, 0.45884549617767334, -0.35396891832351685], [-0.17642644047737122, 0.19199514389038086, -0.26037073135375977, 0.3077126145362854, 0.2204403281211853, 0.14156615734100342, -0.22353267669677734, 0.4483489394187927, -0.04996490478515625, 0.10461416840553284, 0.014892272651195526, 0.0711328387260437, 0.06025424972176552, -0.33061206340789795, 0.19330397248268127, -0.5599693059921265, -0.7507516145706177, -0.05809575319290161, -0.00418710894882679, 0.3438342213630676, 0.09029851853847504, 0.4949277937412262, 0.4720280170440674, -0.41479992866516113, 0.3044935464859009, 0.46659696102142334, 0.6501434445381165, 0.1373421549797058, -0.4236637055873871, 0.0662856325507164, -0.31518614292144775, -0.2198898196220398, 0.047149717807769775, 0.34508800506591797, -0.5366533994674683, 0.49214816093444824, 0.4055141508579254, 0.3738163709640503, -0.06541615724563599, -0.2652488648891449, 0.1044192910194397, 0.04483841732144356, 0.22572368383407593, -0.21085768938064575, 0.0006735920906066895, 0.3533474802970886, -0.6793808937072754, 0.38862448930740356, 0.4343845844268799, -0.2716454267501831, 0.3618631362915039, 0.05039316415786743, -0.4791678190231323, 0.2758321166038513, -0.5014864206314087, -0.3645995259284973, -0.6554027795791626, -0.1353926807641983, 0.12044209241867065, -0.07235116511583328, 0.36626875400543213, 0.02067387104034424, 0.3286672532558441, -0.042111337184906006, 0.05575108528137207, 0.08004021644592285, 0.36300137639045715, 0.1294425129890442, 0.15505993366241455, 0.3130853772163391, -0.11189275979995728, -0.6691574454307556, 0.22231650352478027, -0.4178270101547241, 0.4773986339569092, -0.2110019326210022, 0.5667646527290344, -0.11769784241914749, -0.20389169454574585, -0.46719709038734436, -0.03462153300642967, 0.4123568534851074, -0.13077491521835327, 0.4499264359474182, -0.37782883644104004, 0.149221733212471, 0.3167787790298462, 0.2765123248100281, -0.024772226810455322, -0.5629255175590515, 0.35660314559936523, 0.020129680633544922, 0.26562070846557617, -0.13949799537658691, -0.0412495881319046, -0.31058943271636963, 0.41410890221595764, 0.23881500959396362, -0.43666815757751465, -0.31346988677978516, -0.19093340635299683, 0.23453885316848755, 0.16511428356170654, -0.1507319211959839, -0.037600889801979065, 0.03169649839401245, 0.18036437034606934, -0.2369781732559204, 0.41643857955932617, -0.4571118652820587, 0.47581368684768677, -0.2786470949649811, -0.302082896232605, -0.2378571629524231, 0.04697716236114502, -0.4054248332977295, 0.1108664721250534, 0.19473856687545776, -0.23519909381866455, 0.24496512115001678, -0.2985857129096985, 0.16001510620117188, -0.16954296827316284, 0.21358895301818848, 0.4473004937171936, 0.18971164524555206, 0.20359504222869873, 0.4849429726600647], [-0.26750171184539795, 0.25310441851615906, -0.0028620660305023193, 0.4750797748565674, -0.43356239795684814, -0.2536059021949768, -0.5310198664665222, 0.3829503357410431, 0.4030361771583557, 0.2783988416194916, -0.3252730369567871, -0.41600823402404785, 0.38238954544067383, -0.49928003549575806, -0.36771324276924133, -0.5942058563232422, -0.012889713048934937, -0.07841458171606064, -0.25407081842422485, 0.4704466462135315, -0.13991719484329224, 0.22364398837089539, -0.6226094365119934, -0.3625643253326416, 0.12054507434368134, -0.47134649753570557, -0.32659029960632324, -0.34050068259239197, 0.31052616238594055, 0.4457077980041504, -0.07867687940597534, 0.06978808343410492, 0.49439460039138794, -0.15007901191711426, -0.4815051555633545, 0.34068211913108826, 0.3538288474082947, -0.5460371971130371, 0.10659871995449066, -0.01044114213436842, 0.05270659923553467, -0.10695207118988037, -0.09290671348571777, -0.37487465143203735, -0.3888191878795624, -0.4766235947608948, 0.27730703353881836, -0.06405174732208252, -0.2890545725822449, -0.3909827172756195, -0.029811501502990723, 0.33151495456695557, -0.3768214285373688, -0.629160463809967, -0.470260351896286, 0.42364591360092163, -0.46251818537712097, -0.3185241222381592, 0.5050138831138611, 0.2670702040195465, 0.29083651304244995, -0.22701787948608398, 0.036964595317840576, -0.4641738533973694, 0.06347815692424774, 0.45602941513061523, -0.03746182471513748, 0.13838782906532288, 0.11228340864181519, 0.12351810932159424, -0.3401976227760315, 0.34563004970550537, 0.4660719037055969, -0.3347588777542114, -0.25488197803497314, -0.03856515884399414, 0.36334627866744995, 0.0035941600799560547, -0.05024915933609009, 0.26800721883773804, -0.41559848189353943, 0.09629055112600327, -0.646228015422821, 0.10389332473278046, 0.32427841424942017, 0.32918596267700195, -0.010764293372631073, -0.4887072443962097, 0.3513532280921936, 0.005163200199604034, 0.288912296295166, 0.43759411573410034, -0.2724950313568115, 0.24812115728855133, 0.14647120237350464, -0.05482149124145508, 0.49534034729003906, 0.5526571273803711, -0.49225085973739624, -0.4007972478866577, -0.45340290665626526, -0.19260680675506592, 0.367340087890625, 0.0486447811126709, 0.3501785397529602, 0.44645294547080994, 0.07158023118972778, 0.36928844451904297, 0.027351975440979004, -0.5620120167732239, -0.036458298563957214, -0.18078291416168213, 0.8932305574417114, 0.04659062623977661, -0.2685898542404175, 0.272827684879303, 0.3592512011528015, 0.028073251247406006, -0.36969929933547974, -0.19168275594711304, 0.1773407757282257, -0.26868051290512085, 0.4566841423511505, -0.09820482134819031, 0.5123165249824524, 0.42530256509780884, 0.2708137035369873, -0.39779794216156006], [0.15764597058296204, 0.04648798704147339, -0.004728894680738449, -0.2841743230819702, -0.359063982963562, -0.12603944540023804, 0.04924994707107544, -0.34081387519836426, 0.3401597738265991, -0.012271016836166382, -0.06263118982315063, 0.6227849125862122, -0.09492504596710205, -0.136574387550354, -0.13773947954177856, -0.2804936170578003, -0.44982779026031494, -0.3601880669593811, 0.24845126271247864, 0.25035834312438965, -0.229066863656044, -0.08300584554672241, -0.09054166823625565, 0.12642008066177368, -0.6669204235076904, 0.26031583547592163, 0.1357635259628296, 0.23746657371520996, 0.3997154235839844, 0.07401779294013977, 0.27877146005630493, 0.4856458306312561, 0.007930636405944824, 0.3070641756057739, -0.43729454278945923, -0.2728331685066223, -0.46163952350616455, -0.2833518981933594, -0.24384036660194397, 0.08042934536933899, -0.132551372051239, 0.206259623169899, -0.4202062487602234, 0.07042942941188812, -0.1698770821094513, -0.1532645970582962, -0.8385209441184998, 0.3950769901275635, 0.5474339723587036, -0.4629092216491699, 0.11130213737487793, 0.24630743265151978, -0.3514465093612671, -0.09733276069164276, -0.24054396152496338, 0.20383241772651672, 0.07997222989797592, 0.04045497626066208, -0.1456996202468872, -0.17623275518417358, 0.41197794675827026, -0.2912876605987549, 0.45901960134506226, -0.21580982208251953, 0.3506949543952942, -0.18707787990570068, 0.4907030463218689, 0.05158805847167969, 0.23496270179748535, -0.11966592073440552, -0.006099581718444824, -0.0966263860464096, 0.48769599199295044, 0.4604586362838745, 0.31949448585510254, -0.013893917202949524, 0.31976819038391113, -0.28249281644821167, -0.162872776389122, 0.1822604537010193, 0.08528652787208557, 0.07133644819259644, 0.25738078355789185, -0.007131695747375488, -0.2237117886543274, -0.5266091823577881, -0.4859052896499634, 0.45791369676589966, -0.20797432959079742, 0.3888434171676636, 0.305353045463562, -0.06351733207702637, 0.12086325883865356, 0.24320054054260254, -0.46245360374450684, -0.3128804564476013, -0.3197926878929138, 0.2349705696105957, 0.3784717917442322, 0.4115920066833496, -0.24025598168373108, -0.21262317895889282, -0.3917006254196167, 0.461672842502594, -0.18496271967887878, 0.3585893511772156, -0.3666868209838867, -0.42620307207107544, -0.14036190509796143, 0.4919060468673706, 0.037265241146087646, 0.06707662343978882, 0.6130654811859131, 0.3690475821495056, -0.3874972462654114, -0.1221117377281189, -0.638232946395874, 0.1938474476337433, 0.4839703440666199, -0.37870919704437256, 0.039112985134124756, -0.12688422203063965, -0.3644004464149475, -0.13135752081871033, 0.23154693841934204, -0.21393463015556335, -0.3028910756111145, 0.01811995357275009], [-0.17229735851287842, 0.45287877321243286, -0.03281160444021225, -0.4872930347919464, 0.3519487977027893, 0.12440615892410278, -0.29907023906707764, 0.029517143964767456, -0.31805866956710815, -0.6735530495643616, 0.425398588180542, 0.46168944239616394, 0.2783867120742798, 0.12617748975753784, 0.20319253206253052, 0.41903015971183777, -0.30383265018463135, -0.12055027484893799, -0.41811853647232056, 0.3929736018180847, -0.4866951107978821, 0.1188802421092987, -0.5222288370132446, -0.8181484341621399, -0.5383096933364868, 0.18375593423843384, 0.7368516325950623, 0.5921629071235657, 0.025914326310157776, 0.4543766379356384, -0.47294163703918457, 0.1377277821302414, 0.29662296175956726, 0.33120548725128174, -0.26346510648727417, -0.3691851794719696, -0.145925372838974, 0.24690915644168854, 0.02839653193950653, -0.05156189203262329, -0.05307149887084961, -0.29154157638549805, -0.17971956729888916, -0.18418088555335999, -0.02296474203467369, 0.03244280070066452, -0.3340809643268585, -0.28170767426490784, -0.10583433508872986, -0.19803929328918457, 0.33848780393600464, -0.3451474905014038, -0.4159809947013855, -0.394442081451416, 0.2617488205432892, -0.08696204423904419, -0.27373772859573364, 0.047100603580474854, 0.3039398789405823, -0.3100871443748474, 0.4932338297367096, 0.2945009469985962, 0.6152523756027222, -0.006921261548995972, 0.5301637649536133, -0.24042701721191406, -0.059660084545612335, 0.4362442195415497, -0.0801275372505188, -0.2800554633140564, -0.5479798913002014, -0.43031030893325806, 0.26493388414382935, -0.37483054399490356, 0.18704642355442047, 0.5650705099105835, -0.03886742889881134, -0.49378299713134766, -0.1210404634475708, -0.28713303804397583, -0.42659518122673035, 0.1130535751581192, -0.29307228326797485, -0.24126100540161133, -0.0539737343788147, -0.072853684425354, 0.30822592973709106, -0.3639645576477051, -0.48129719495773315, 0.19941550493240356, 0.2225869745016098, -0.17458026111125946, 0.0006386712193489075, 0.4693911075592041, 0.2696288824081421, -0.2978266477584839, 0.23293644189834595, 0.10371175408363342, -0.2922776937484741, -0.047341227531433105, -0.3769427537918091, 0.30987751483917236, -0.25613558292388916, -0.12292230129241943, 0.21893274784088135, -0.45108985900878906, -0.2128545045852661, 0.4486290514469147, -0.3143694996833801, -0.09810443222522736, -0.4855242967605591, -0.09609842300415039, -0.44396746158599854, -0.21165716648101807, 0.4597422480583191, -0.46593648195266724, 0.2692309021949768, 0.42079710960388184, 0.047766655683517456, 0.42416518926620483, -0.017168596386909485, -0.19207161664962769, 0.6273456811904907, 0.04977311193943024, 0.26232773065567017, -0.37797796726226807, 0.24830609560012817, -0.34844717383384705], [-0.5120013356208801, -0.18183964490890503, -0.31772541999816895, 0.13890182971954346, 0.21228528022766113, 0.48975369334220886, -0.053532540798187256, -0.3712496757507324, 0.28835615515708923, 0.29664796590805054, -0.08034063130617142, -0.016913577914237976, 0.44759923219680786, -0.158461332321167, -0.25426632165908813, -0.11967584490776062, -0.22967620193958282, 0.014920033514499664, 0.4925297796726227, 0.33999985456466675, 0.1880323886871338, -0.46175187826156616, 0.6187176704406738, 0.07170921564102173, 0.6302552223205566, 0.47780877351760864, -0.35519731044769287, -0.4858475923538208, 0.04943615198135376, 0.210687518119812, 0.24187691509723663, -0.33048906922340393, -0.21516062319278717, 0.3919019103050232, 0.097598135471344, 0.4068647623062134, 0.3098120093345642, 0.009021524339914322, 0.4246569573879242, -0.3040465712547302, -0.12142521142959595, -0.03410156071186066, -0.23102115094661713, 0.683442234992981, 0.14403045177459717, 0.3352088928222656, -0.42019134759902954, -0.022406235337257385, 0.10068455338478088, -0.5148178935050964, 0.4528636336326599, -0.4131777286529541, -0.22360828518867493, 0.4288003444671631, 0.3975209593772888, 0.5120070576667786, -0.44542479515075684, -0.19445312023162842, 0.1879003643989563, -0.38215088844299316, -0.3487205505371094, -0.1466735601425171, 0.184334397315979, 0.21979451179504395, -0.388283371925354, 0.35071489214897156, 0.3656219244003296, 0.15575814247131348, 0.051397904753685, 0.041113950312137604, -0.23070693016052246, -0.2743520736694336, 0.0024351775646209717, -0.013288378715515137, -0.3260055184364319, -0.2755813002586365, -0.4143977761268616, 0.5188598036766052, -0.42119064927101135, 0.15357926487922668, -0.55116206407547, -0.37436172366142273, 0.016583621501922607, 0.2719043493270874, -0.05662548542022705, -0.17496854066848755, -0.007615208625793457, 0.08507601916790009, -0.0653809905052185, 0.32232314348220825, 0.14318889379501343, -0.28917962312698364, -0.12746575474739075, 0.4188159704208374, -0.2541108727455139, -0.13601630926132202, -0.08419233560562134, -0.11318284273147583, 0.27273982763290405, -0.15223824977874756, 0.02508680522441864, -0.10514706373214722, -0.12638336420059204, 0.15394389629364014, 0.2326948642730713, 0.4783139228820801, 0.06260059028863907, -0.4181925058364868, 0.018967583775520325, -0.009450197219848633, -0.15481442213058472, -0.34258267283439636, 0.38357847929000854, -0.2515358328819275, -0.039522357285022736, -0.1504577398300171, -0.058671846985816956, 0.460909366607666, 0.3730294406414032, -0.7112423777580261, 0.4513615071773529, 0.11918792873620987, -0.42014044523239136, -0.3702852725982666, 0.380836546421051, 0.15680795907974243, 0.549670398235321, -0.4203263819217682], [0.31554943323135376, 0.1367807686328888, 0.2952640652656555, 0.4557054042816162, -0.11924669146537781, 0.44427400827407837, 0.04407459497451782, 0.39385491609573364, 0.32011789083480835, -0.3739491105079651, 0.02456287294626236, -0.14925748109817505, 0.5236728191375732, -0.019051432609558105, -0.8102350831031799, 0.4725867509841919, -0.48851215839385986, 0.1299886405467987, -0.4582921862602234, 0.1236431896686554, -0.4035906493663788, 0.2861190438270569, 0.038556069135665894, -0.6006344556808472, 0.3540223240852356, 0.12304265797138214, -0.24608159065246582, 0.14454813301563263, 0.21950992941856384, -0.3016791343688965, 0.42044925689697266, 0.034378375858068466, 0.47388410568237305, -0.37723952531814575, 0.056289225816726685, 0.03545469045639038, -0.2586655616760254, 0.4763321876525879, 0.3451005220413208, 0.056852445006370544, -0.5059012174606323, 0.25101929903030396, 0.17541754245758057, -0.284885048866272, 0.18745964765548706, -0.19287610054016113, 0.3047419786453247, -0.14174847304821014, -0.1895837038755417, -0.3703177273273468, -0.30246371030807495, 0.07960180938243866, -0.2607307434082031, -0.037956953048706055, 0.23286420106887817, 0.3566664457321167, 0.2064574658870697, 0.09915953874588013, -0.06696963310241699, -0.14307142794132233, 0.11415081471204758, 0.25741684436798096, 0.30773991346359253, -0.33847635984420776, 0.48152804374694824, -0.06740838289260864, 0.08058583736419678, -0.13711296021938324, 0.35237979888916016, 0.17162925004959106, 0.4012993574142456, 0.20074498653411865, -0.0978708267211914, 0.5610982775688171, 0.3725029230117798, 0.27022695541381836, -0.05479854345321655, 0.4673517942428589, -0.6414636373519897, -0.251223623752594, 0.24069744348526, 0.16186684370040894, -0.2761412262916565, 0.467504620552063, -0.3881199359893799, -0.4313170611858368, 0.11322146654129028, 0.2895635664463043, -0.29112890362739563, -0.33152592182159424, -0.36359265446662903, -0.28700828552246094, -0.10557320713996887, 0.4610785245895386, -0.41446298360824585, 0.19554373621940613, 0.4655938148498535, 0.2523534297943115, 0.22059321403503418, -0.3137390613555908, -0.10668045282363892, 0.2844200134277344, 0.02110821008682251, -0.07611238956451416, -0.25527819991111755, 0.14802765846252441, 0.28833043575286865, -0.16386070847511292, -0.09953264147043228, -0.07146137952804565, -0.6716794371604919, 0.30573582649230957, 0.33348971605300903, 0.5809893608093262, -0.04291325807571411, -0.2013557106256485, -0.09526747465133667, -0.3339012861251831, -0.5410210490226746, 0.27314311265945435, 0.7391786575317383, -0.4548802375793457, -0.08319319784641266, -0.08017349243164062, -0.13432680070400238, -0.3714199960231781, 0.4133802056312561, 0.5667035579681396], [-0.4959307909011841, -0.4694233536720276, -0.30658411979675293, 0.1168367862701416, -0.06007945537567139, 0.04487347602844238, -0.2944849133491516, 0.2735309898853302, 0.2809678316116333, -0.2951872944831848, -0.4051700234413147, -0.10221679508686066, 0.19929972290992737, 0.25341248512268066, 0.45687782764434814, -0.01589667797088623, -0.4899711012840271, 0.47221243381500244, -0.30764031410217285, 0.31086811423301697, -0.1174151599407196, -0.1284954845905304, -0.3064098358154297, -0.2753840684890747, -0.19473835825920105, -0.3334476351737976, 0.10485941171646118, -0.32839661836624146, -0.4684891104698181, 0.5954859852790833, 0.0015561580657958984, 0.14252115786075592, 0.16489219665527344, -0.4428353011608124, -0.6880924701690674, -0.3812105655670166, -0.05312652140855789, -0.2800435721874237, -0.31237655878067017, -0.1735745668411255, -0.08456587791442871, 0.006822921335697174, 0.40807104110717773, 0.08614546060562134, 0.13013535737991333, -0.5153012275695801, -0.1828051209449768, -0.0039559006690979, -0.16017085313796997, -0.15285331010818481, -0.49523019790649414, 0.40261560678482056, -0.1198149025440216, 0.19405969977378845, -0.4898100793361664, 0.14811035990715027, 0.4640718996524811, 0.22297382354736328, -0.2231692671775818, -0.19346539676189423, -0.5776729583740234, 0.27000606060028076, 0.17822018265724182, -0.13171757757663727, 0.1602734923362732, 0.01455593854188919, 0.4021199941635132, 0.031756699085235596, -0.6180662512779236, 0.08420011401176453, -0.35424792766571045, -0.445884108543396, 0.08674999326467514, -0.3302377462387085, -0.11660774052143097, 0.49608874320983887, 0.45325803756713867, 0.08927956968545914, 0.06415513902902603, 0.0992712527513504, 0.4434112310409546, 0.4033859372138977, -0.29945674538612366, -0.15478521585464478, 0.05948996543884277, 0.35328030586242676, 0.3246867060661316, 0.17226296663284302, 0.08624701201915741, -0.3577641248703003, 0.49814194440841675, 0.4459763169288635, -0.04512469470500946, -0.41519272327423096, -0.020316019654273987, -0.21938425302505493, -0.34848952293395996, 0.4239518344402313, 0.28008192777633667, -0.05119921267032623, 0.4246097803115845, 0.13675320148468018, 0.4647866487503052, 0.4682997465133667, 0.2715599834918976, -0.3360360264778137, 0.10598808526992798, -0.5426907539367676, -0.34575825929641724, 0.07660536468029022, -0.11894702911376953, 0.0905318409204483, -0.2914005517959595, -0.09410473704338074, 0.0534137487411499, -0.10391074419021606, -0.1909579634666443, -0.35284602642059326, 0.06930947303771973, 0.256181538105011, -0.24419495463371277, -0.539492130279541, -0.3968204855918884, -0.14550521969795227, 0.4780953526496887, 0.19037586450576782, -0.4456539750099182, 0.020131587982177734], [0.20513498783111572, -0.05413627624511719, -0.10901124775409698, 0.17632132768630981, -0.004062354564666748, -0.4293530583381653, -0.6765197515487671, -0.2560567557811737, 0.272045373916626, 0.27650147676467896, -0.24256354570388794, 0.10302364826202393, 0.19794346392154694, -0.1286531686782837, -0.1485758125782013, -0.35674166679382324, -0.30349719524383545, -0.4045144319534302, -0.09356828033924103, -0.20805969834327698, -0.34949830174446106, -0.17248454689979553, 0.4419558048248291, 0.4928274154663086, 0.30231529474258423, -0.31147801876068115, -0.17389065027236938, 0.3480401039123535, 0.2690580189228058, 0.43562206625938416, 0.3713451623916626, -0.10780894756317139, -0.49697238206863403, 0.510972261428833, 0.2940604090690613, -0.3611530065536499, 0.2862793207168579, -0.06680423021316528, -0.008693482726812363, 0.4792047441005707, 0.10950624942779541, -0.07199764251708984, -0.49976688623428345, 0.24032080173492432, 0.0974041074514389, -0.30650442838668823, -0.44239431619644165, -0.43323540687561035, -0.49288251996040344, 0.6336482167243958, 0.47073882818222046, -0.4057813286781311, 0.24377267062664032, -0.49562495946884155, -0.041682615876197815, 0.19949740171432495, -0.4805862307548523, -0.2412351369857788, -0.27708035707473755, 0.1532275229692459, -0.7436963319778442, 0.4382697343826294, -0.2016136646270752, -0.47664546966552734, -0.23981642723083496, 0.5949382185935974, -0.3933708667755127, 0.1704382300376892, -0.14543616771697998, -0.3341044783592224, 0.30803829431533813, -0.3745555877685547, 0.04605672508478165, -0.020375721156597137, 0.021794438362121582, -0.3184037208557129, -0.48020684719085693, 0.36495789885520935, 0.04795050621032715, 0.17711560428142548, 0.347755491733551, 0.010479509830474854, 0.32249653339385986, -0.07712864130735397, -0.1828383207321167, -0.14869248867034912, 0.34514081478118896, -0.43914562463760376, -0.36802637577056885, -0.36612606048583984, -0.515180230140686, -0.05907373130321503, 0.4190058708190918, 0.7235644459724426, -0.36497360467910767, -0.1741792857646942, 0.39314767718315125, 0.32967767119407654, -0.16360493004322052, -0.45078328251838684, -0.2899254560470581, 0.11667174100875854, 0.3864026367664337, 0.4117843508720398, 0.3860000967979431, 0.23884719610214233, -0.006308019161224365, 0.29911482334136963, 0.35009002685546875, 0.39913469552993774, 0.4686116576194763, 0.07075396180152893, -0.033335037529468536, -0.3728675842285156, 0.1776389479637146, 0.245775043964386, -0.16759613156318665, -0.5374695062637329, 0.12040448188781738, 0.015011072158813477, 0.004635751247406006, 0.2164594531059265, 0.27100396156311035, 0.18589931726455688, 0.17521335184574127, -0.3546951711177826, 0.4741378426551819, 0.11552309989929199], [0.010280176997184753, -0.06332617998123169, 0.09828633069992065, 0.3348013162612915, 0.09922902286052704, -0.3401262164115906, -0.16372239589691162, -0.37382030487060547, 0.39845454692840576, 0.8710323572158813, -0.4309452176094055, -0.16810771822929382, -0.4130597412586212, -0.32168442010879517, -0.2658099830150604, 0.4113646447658539, -0.30620068311691284, 0.12687304615974426, -0.4117084741592407, 0.38952961564064026, 0.3801669478416443, -0.08432245254516602, -0.1545598953962326, 0.35956448316574097, -0.5105170607566833, -0.3260319232940674, -0.6034383177757263, -0.9745211601257324, -0.24223852157592773, -0.239235520362854, 0.10924670100212097, 0.4512757658958435, 0.1607528030872345, -0.3572329580783844, -0.01453060656785965, -0.13934631645679474, -0.20676547288894653, 0.4277177155017853, 0.2702757716178894, -0.2683190107345581, 0.34329307079315186, -0.3405700922012329, 0.007721841335296631, -0.6775164604187012, -0.0029758214950561523, 0.3401384949684143, 0.11040687561035156, -0.2698121666908264, -0.38957861065864563, 0.13461928069591522, -0.5077202320098877, -0.02298116683959961, -0.49152809381484985, 0.7221168875694275, 0.4535869359970093, 0.2070734202861786, 0.11110758781433105, -0.013230293989181519, -0.00979691743850708, 0.26876747608184814, -0.25784939527511597, -0.4524562358856201, -0.2072143852710724, 0.4345804452896118, -0.5243712663650513, -0.02726288139820099, -0.3215540647506714, -0.06278121471405029, -0.2510595917701721, -0.24891120195388794, 0.020641349256038666, 0.3460511863231659, 0.040202558040618896, 0.48911505937576294, -0.40758439898490906, -0.04029296338558197, 0.001712217926979065, -0.3430365025997162, 0.04566943645477295, 0.21748042106628418, 0.2847442924976349, -0.06500213593244553, 0.40511709451675415, 0.6786165237426758, -0.3827579617500305, 0.04660631716251373, 0.03372460603713989, -0.3814907670021057, -0.0019441843032836914, -0.4727441370487213, 0.3809518814086914, 0.4236305356025696, 0.23639555275440216, 0.5241190791130066, -0.1899782419204712, 0.3284289538860321, 0.046326130628585815, -0.10516752302646637, 0.14563080668449402, 0.1569097340106964, -0.105843186378479, -0.09104979038238525, 0.06713339686393738, 0.28525587916374207, -0.11502905189990997, 0.004854023456573486, -0.2528644800186157, -0.2344362735748291, 0.3627035617828369, -0.22253024578094482, 0.3389005661010742, -0.38693106174468994, -0.15169821679592133, -0.16120630502700806, -0.3082026243209839, -0.05161052942276001, 0.1475510448217392, 0.3972926139831543, 0.48923546075820923, -0.4737030267715454, -0.41392993927001953, 0.42017245292663574, -0.3415381610393524, 0.48160380125045776, -0.440265953540802, -0.16935855150222778, -0.11831396818161011, -0.21198110282421112], [0.34923508763313293, -0.3416109085083008, -0.18226808309555054, 0.5135763883590698, -0.38160353899002075, 0.20721971988677979, 0.3193916082382202, 0.1870502382516861, 0.25784873962402344, 0.145504891872406, -0.09720960259437561, 0.12502212822437286, 0.21688607335090637, 0.3480108976364136, -0.03892475366592407, 0.040833890438079834, 0.10579901933670044, 0.4803634285926819, 0.3770895004272461, 0.7706870436668396, -0.2849879264831543, 0.13178372383117676, -0.32006412744522095, -0.4502110481262207, 0.04686287045478821, -0.35590827465057373, 0.40744853019714355, 0.39118486642837524, 0.08702730387449265, 0.09192149341106415, -0.5302276015281677, 0.48929905891418457, -0.1409497857093811, 0.07725119590759277, -0.4350389838218689, 0.19200319051742554, 0.4802520275115967, 0.02371363714337349, 0.3426605463027954, -0.30866318941116333, -0.07981663942337036, -0.37581807374954224, -0.003484010696411133, 0.3604670763015747, -0.2873294949531555, 0.47770291566848755, 0.32008370757102966, 0.1898922622203827, 0.4410679042339325, 0.16255396604537964, 0.02806251496076584, -0.2281082719564438, 0.07481920719146729, -0.005134165287017822, 0.1240534782409668, 0.158746138215065, 0.2568233609199524, 0.30915433168411255, -0.20447136461734772, 0.657884955406189, -0.38316088914871216, 0.024860426783561707, 0.3918457627296448, -0.14661741256713867, 0.5386124849319458, -0.045710623264312744, 0.09621547162532806, -0.4011111855506897, -0.4573458433151245, -0.4042448401451111, 0.1292230486869812, -0.00035119056701660156, 0.4888037443161011, -0.23364660143852234, -0.06420856714248657, 0.035584449768066406, -0.19281291961669922, 0.3103507459163666, 0.1914016604423523, -0.45079129934310913, 0.46993350982666016, -0.1550655961036682, 0.19228559732437134, -0.142579585313797, -0.42883777618408203, -0.5185143351554871, 0.38976556062698364, 0.19467055797576904, -0.28988713026046753, 0.4388923645019531, -0.7326020002365112, -0.22455120086669922, -0.20089612901210785, 0.31373459100723267, -0.07268141210079193, -0.19222989678382874, -0.43977445363998413, -0.02692505717277527, -0.40499240159988403, -0.34927356243133545, 0.6498323082923889, 0.42182815074920654, -0.2604738473892212, 0.3314833641052246, 0.4665147066116333, 0.03627040982246399, 0.18233779072761536, 0.15853983163833618, -0.21042001247406006, -0.27530544996261597, 0.4241124987602234, 0.33815139532089233, 0.4258732795715332, 0.11070561408996582, 0.08167034387588501, 0.020844101905822754, -0.07256835699081421, -0.656266450881958, 0.2255231738090515, -0.1942296028137207, -0.3155321180820465, -0.0974951982498169, 0.12439876794815063, -0.15770024061203003, -0.08800054341554642, -0.1157180592417717, -0.25900983810424805, -0.4490983784198761]], "hidden_weights": [[0.2407500445842743, -0.022458255290985107, 0.12895485758781433, 0.5900426506996155, 0.12111049890518188, -0.37101608514785767, 0.34487366676330566, 0.3416459262371063, 0.19260162115097046, -0.28594738245010376, 0.3127801716327667, 0.08447740972042084, 0.043097250163555145, -0.413246214389801, -0.18367505073547363, 0.38480937480926514, 0.02898869477212429, 0.23569366335868835, 0.4411792755126953, -0.029154956340789795, 0.18384745717048645, -0.41945570707321167, -0.38657015562057495, -0.006960153579711914, -0.3492901921272278, 0.20191532373428345, -0.005345627665519714, -0.21889489889144897, 0.028689637780189514, -0.10046207904815674, -0.009252980351448059, -0.34767091274261475, 0.1404140591621399, 0.4073455333709717, 0.044907256960868835, 0.3448200225830078, -0.3506324291229248, 0.27865326404571533, 0.3664643168449402, -0.33310365676879883, -0.11965304613113403, 0.09366458654403687, 0.09136831760406494, 0.40280526876449585, 0.40968066453933716, 0.03532424569129944, 0.009412705898284912, -0.24836188554763794, -0.2546538710594177, 0.25256335735321045, 0.5247597098350525, 0.3157569169998169, 0.39120328426361084, -0.2548081874847412, 0.6762900352478027, -0.22064578533172607, -0.019070938229560852, -0.07800214737653732, 0.5076030492782593, -0.17702412605285645, -0.4981023073196411, -0.6855666637420654, -0.1232791543006897, -0.45464658737182617], [0.10334908962249756, 0.3507835268974304, 1.0711244344711304, -0.32514023780822754, 0.16182410717010498, 0.06485223770141602, 0.38224703073501587, -0.7245618104934692, 0.05052751302719116, -0.31552934646606445, -0.24843907356262207, 0.38968122005462646, -0.37852954864501953, 0.6262676119804382, -0.24379931390285492, -0.30589377880096436, 0.0431903600692749, -0.2524031400680542, -0.44696998596191406, -0.3488038182258606, -0.3431941270828247, 0.021215051412582397, -0.1086241602897644, 0.41746145486831665, -0.26709747314453125, -0.3740305006504059, 0.051320143043994904, 0.39139050245285034, -0.10901808738708496, 0.5496259331703186, -0.2372974455356598, 0.0475073903799057, -0.46109211444854736, 0.4887925982475281, -0.37437230348587036, 0.4820113182067871, 0.035213105380535126, 0.11017853766679764, 0.23187655210494995, 0.5789933204650879, 0.012246787548065186, 0.33546751737594604, 0.33075955510139465, 0.6026624441146851, -0.4112241268157959, 0.09882456064224243, -0.08397585153579712, -0.15807147324085236, 0.3731401860713959, 0.06107030808925629, -0.3326343297958374, -0.25316762924194336, 0.3128535747528076, 0.09337595105171204, 0.15904666483402252, 0.3373250365257263, 0.6002766489982605, 0.18661248683929443, 0.46305733919143677, 0.38653767108917236, 0.24590736627578735, -0.13148564100265503, -0.0823972225189209, 0.691074788570404], [0.20849043130874634, -0.050332531332969666, -0.4051250219345093, -0.09098419547080994, -0.09058582037687302, -0.6599075198173523, -0.15801510214805603, -0.18841399252414703, -0.19953157007694244, -0.2443007230758667, 0.5256438255310059, 0.0042373910546302795, -0.10284423828125, -0.25021010637283325, -0.05399361252784729, 0.46520715951919556, -0.37507814168930054, -0.082355797290802, 0.28584590554237366, 0.08927899599075317, 0.4726257622241974, -0.18101727962493896, 0.02856314182281494, 0.09827776253223419, 0.22647425532341003, 0.14160430431365967, -0.564997673034668, -0.48718130588531494, 0.13392630219459534, -0.17853158712387085, -0.09488261491060257, -0.32726776599884033, -0.18023358285427094, 0.6359081268310547, 0.07299573719501495, -0.3498963713645935, -0.1260583996772766, 0.43865805864334106, 0.2441791296005249, 0.3413628339767456, -0.44283950328826904, 0.0718751922249794, 0.25264567136764526, -0.17417192459106445, -0.013212621212005615, -0.0389358252286911, 0.044093742966651917, 0.28856027126312256, -0.3162240982055664, 0.13824082911014557, -0.4068467915058136, -0.19112449884414673, -0.2566310167312622, 0.09952819347381592, -0.27354252338409424, -0.3020174503326416, 0.3504073917865753, -0.17729151248931885, -0.14668777585029602, 0.4252682328224182, 0.2135353684425354, -0.42177242040634155, 0.256390243768692, -0.0593840628862381], [-0.30279529094696045, -0.4303702116012573, -0.2883022427558899, -0.12553654611110687, -0.1917816698551178, -0.33353185653686523, 0.12398241460323334, 0.010939523577690125, 0.29046639800071716, 0.03885708749294281, 0.1057986170053482, 0.17309710383415222, -0.458318293094635, 0.22786922752857208, -0.29799360036849976, 0.27850914001464844, -0.12830886244773865, 0.2928582429885864, -0.13501901924610138, -0.28551918268203735, -0.2516760230064392, 0.13517381250858307, -0.38004225492477417, 0.2215278148651123, -0.3999781608581543, -0.4898329973220825, -0.32715320587158203, -0.1660044640302658, -0.29791712760925293, 0.20496174693107605, -0.3168078064918518, 0.17541497945785522, -0.28124240040779114, 0.415862500667572, 0.3636036515235901, -0.07237762212753296, 0.10999679565429688, -0.02565521001815796, 0.8552744388580322, -0.4468036890029907, 0.04620242118835449, 0.031082451343536377, 0.24532681703567505, 0.16997891664505005, -0.43120118975639343, 0.46629804372787476, 0.23793929815292358, -0.15322241187095642, 0.18504783511161804, 0.0886496901512146, 0.3931613862514496, 0.04977104067802429, -0.1493690013885498, 0.3869149684906006, 0.2856208086013794, 0.0436018705368042, 0.28426384925842285, 0.6689434051513672, -0.38893944025039673, 0.0428675040602684, -0.49595850706100464, 0.23111718893051147, -0.40762919187545776, -0.28454118967056274], [-0.023278091102838516, -0.13176071643829346, -0.1018366813659668, -0.11516545712947845, 0.4062614440917969, -0.2674373388290405, -0.21130704879760742, 0.054938435554504395, -0.499296098947525, 0.02398362010717392, -0.14727286994457245, 0.30671703815460205, -0.3985616862773895, 0.4640749990940094, -0.43510502576828003, -0.3784472942352295, 0.43924543261528015, 0.34143728017807007, 0.3273342251777649, -0.18916118144989014, 0.1147911325097084, -0.2628662884235382, 0.1285296082496643, 0.1887645721435547, -0.38011640310287476, 0.12694410979747772, -0.5208085775375366, 0.13123542070388794, -0.07015010714530945, -0.20969629287719727, -0.024092495441436768, -0.17915143072605133, -0.17745257914066315, 0.1421719789505005, -0.1947007179260254, -0.2360156774520874, -0.3447071313858032, -0.06551289558410645, -0.35130468010902405, -0.319195955991745, 0.4044892191886902, -0.18811899423599243, 0.2829139232635498, -0.19683250784873962, 0.09178070724010468, -0.47295814752578735, 0.05735667049884796, 0.14956697821617126, 0.32996147871017456, -0.09717090427875519, -0.199557825922966, 0.1829410195350647, 0.09045964479446411, -0.024069979786872864, 0.11299222707748413, -0.0508735328912735, -0.23810972273349762, 0.13105250895023346, 0.11206585168838501, -0.3890290856361389, 0.46450287103652954, 0.2017865777015686, -0.24302273988723755, 0.019644588232040405], [-0.2589713931083679, -0.7826173901557922, 0.04259621351957321, 0.30637675523757935, 0.4436236619949341, 0.30792516469955444, -0.10145854949951172, 0.6513916254043579, -0.32239532470703125, -0.19166624546051025, 0.004216458648443222, -0.0046563297510147095, 0.03490632772445679, 0.14801248908042908, 0.01788884401321411, 0.4194287359714508, 0.22920352220535278, -0.242140531539917, 0.3377479612827301, -0.12470245361328125, 0.05724099278450012, 0.24834313988685608, 0.47417569160461426, -0.1808634102344513, 0.4565568268299103, -0.30796390771865845, -0.1588737666606903, -0.10082405805587769, 0.341740220785141, -0.01848369836807251, 0.00420818105340004, -0.42033690214157104, -0.1629825383424759, 0.18938618898391724, 0.30131083726882935, -0.45401066541671753, 0.3942103087902069, -0.27268731594085693, 0.2203478217124939, -0.156169593334198, -0.0074342042207717896, -0.1864597201347351, -0.4993319511413574, 0.003552734851837158, 0.4687953591346741, 0.332827627658844, -0.3336178958415985, -0.04739825800061226, -0.3792445659637451, 0.3505600690841675, 0.00452461838722229, -0.020728707313537598, 0.3834083080291748, 0.27020442485809326, 0.07885782420635223, 0.311018705368042, 0.29339858889579773, -0.16744065284729004, 0.4169723391532898, -0.43374812602996826, 0.16843481361865997, 0.36104100942611694, -0.08378899097442627, 0.04210004210472107], [0.49523594975471497, -0.2391587197780609, 0.24119222164154053, 0.13308238983154297, 0.06174600124359131, 0.19858694076538086, -0.2207828164100647, -0.11209659278392792, 0.24522405862808228, -0.10209327936172485, -0.2988792359828949, -0.35903167724609375, -0.062052011489868164, 0.2743319869041443, -0.20817404985427856, 0.3297460973262787, 0.2914581000804901, -0.01974177360534668, -0.0017150789499282837, 0.7146111726760864, -0.05611860752105713, -0.3942447900772095, 0.18088579177856445, -0.011235058307647705, 0.16388684511184692, 0.07121676206588745, -0.23485730588436127, -0.34759098291397095, 0.10743215680122375, 0.6555102467536926, -0.2854804992675781, -0.17909787595272064, 0.04797719791531563, -0.36807772517204285, -0.33091288805007935, -0.5957036018371582, 0.05817568302154541, -0.024939894676208496, -0.20021671056747437, 0.379888117313385, 0.09457723051309586, -0.3785831034183502, -0.7209298014640808, 0.015442192554473877, -0.4359623193740845, 0.2979830503463745, -0.1291513442993164, 0.02870217151939869, -0.5131801962852478, 0.21270957589149475, -0.08331209421157837, -0.29512184858322144, 0.4904208481311798, 0.061300575733184814, -0.12667347490787506, 0.21161052584648132, -0.46705377101898193, 0.5366017818450928, -0.09937000274658203, 0.3626730442047119, -0.6797924041748047, 0.6066170930862427, -0.32105734944343567, -0.2630365490913391], [-0.5000133514404297, 0.15290220081806183, 0.4954453706741333, -0.009867578744888306, -0.2951611876487732, 0.31373053789138794, -0.15920677781105042, 0.28777599334716797, -0.13117294013500214, 0.08748525381088257, -0.48806434869766235, -0.07958626747131348, -0.056780338287353516, -0.39024728536605835, 0.3554397225379944, -0.07766032218933105, -0.285515695810318, -0.568242073059082, 0.2714253067970276, 0.36173707246780396, -0.389093279838562, 0.24263298511505127, 0.11072015017271042, -0.031533896923065186, -0.4686007499694824, -0.2446081042289734, 0.002801358699798584, 0.30071496963500977, 0.22819095849990845, 0.42944902181625366, 0.45536893606185913, 0.1112525463104248, -0.2639150023460388, -0.021179206669330597, -0.2271915078163147, 0.3654346466064453, -0.34366464614868164, 0.399270236492157, 0.1890023946762085, -0.17690938711166382, 0.5241267681121826, -0.33695799112319946, 0.01921534538269043, -0.2437341809272766, -0.10010898113250732, 0.16889071464538574, -0.27331429719924927, -0.062285441905260086, 0.07656879723072052, 0.0598759651184082, -0.32458147406578064, 0.2537027597427368, -0.4881434440612793, 0.08609741926193237, -0.41166532039642334, -0.1645655632019043, -0.44311225414276123, 0.5144736766815186, -0.15990284085273743, -0.40978723764419556, -0.41871941089630127, 0.3398096561431885, 0.017116248607635498, 0.3444625735282898], [0.47667643427848816, 0.06019783020019531, -0.4936171770095825, 0.4602833390235901, 0.4616699814796448, -0.029200956225395203, -0.1912500262260437, 0.42322248220443726, -0.24969756603240967, -0.3617973327636719, -0.2552931308746338, -0.3809977173805237, 0.14736050367355347, -0.3091183304786682, 0.5703567862510681, 0.008917376399040222, -0.18485009670257568, 0.5101913213729858, 0.026392042636871338, -0.41997259855270386, -0.20081309974193573, -0.35561084747314453, -0.37195196747779846, -0.06391426920890808, 0.4751134514808655, 0.34973669052124023, -0.36663395166397095, -0.1758236587047577, -0.13880792260169983, -0.35539454221725464, 0.14939634501934052, -0.36763107776641846, 0.40382909774780273, -0.03926600515842438, 0.22435219585895538, -0.13612258434295654, 0.12773221731185913, 0.09489274024963379, 0.2547977566719055, 0.3151025176048279, 0.5915871262550354, -0.46952152252197266, 0.7047609686851501, -0.2309638261795044, 0.3029874861240387, 0.08690857142210007, 0.4165591895580292, -0.6411103010177612, -0.10172146558761597, 0.15368247032165527, 0.5530552864074707, -0.42837297916412354, 0.012742467224597931, -0.489655464887619, -0.43724608421325684, 0.1930456906557083, -0.4590277671813965, 0.14085502922534943, -0.11133390665054321, -0.37722429633140564, 0.04445916414260864, -0.09914447367191315, 0.19209647178649902, 0.08924737572669983], [0.30026498436927795, -0.13959652185440063, 0.21029549837112427, 0.11793625354766846, -0.4104045033454895, -0.004609331488609314, 0.5384840965270996, -0.12907572090625763, 0.597817599773407, -0.06068853288888931, 0.4739578366279602, 0.1354568898677826, -0.4261960983276367, -0.27837449312210083, -0.08976881206035614, -0.5491133332252502, 0.19772905111312866, -0.4218156337738037, 0.1435888707637787, 0.3325433135032654, 0.07525686174631119, 0.4172440767288208, 0.013810038566589355, -0.24456679821014404, 0.335523784160614, 0.014075994491577148, 0.20741355419158936, 0.19904205203056335, 0.21765530109405518, 0.5002070665359497, -0.4832687973976135, -0.4483354091644287, -0.13908708095550537, 0.19664853811264038, -0.5710645318031311, 0.26282036304473877, 0.047646526247262955, -0.12407460063695908, 0.29547423124313354, 0.15633255243301392, -0.13744395971298218, -0.133836567401886, 0.49456673860549927, -0.3574889302253723, -0.09112173318862915, 0.13048911094665527, 0.37390637397766113, 0.4459570050239563, 0.018908992409706116, 0.3241577446460724, 0.26696479320526123, -0.0999068021774292, -0.29224538803100586, -0.026971101760864258, 0.5071497559547424, 0.5228208303451538, 0.038675785064697266, 0.20677721500396729, -0.16379624605178833, -0.4086899161338806, -0.1503506749868393, 0.20819008350372314, -0.2913389205932617, -0.42466914653778076], [0.11923903971910477, 0.3047267198562622, -0.0951852798461914, -0.0789726972579956, 0.15961913764476776, -0.13375499844551086, 0.05409419536590576, -0.26644593477249146, -0.21304413676261902, 0.11177325248718262, 0.48056262731552124, 0.23864084482192993, 0.27092981338500977, 0.08988559246063232, -0.02033768594264984, 0.3909333348274231, 0.48668599128723145, 0.13590095937252045, 0.20130765438079834, -0.075260229408741, -0.33942079544067383, 0.19639655947685242, 0.28994396328926086, 0.26397258043289185, -0.2947588860988617, 0.18268173933029175, -0.42809006571769714, 0.09471048414707184, -0.11313623189926147, 0.2482699155807495, -0.04377782344818115, 0.10289889574050903, -0.388886421918869, 0.4442386329174042, -0.03526264429092407, -0.5744218826293945, 0.3123239576816559, -0.28939568996429443, -0.35896992683410645, 0.19876956939697266, -0.08470745384693146, 0.2813485264778137, -0.0659695714712143, 0.2499803900718689, -0.10668319463729858, 0.46562665700912476, -0.46768414974212646, -0.34220945835113525, 0.44930070638656616, 0.2613506317138672, -0.1664816439151764, -0.1720181107521057, -0.35139918327331543, 0.3684963583946228, 0.19183197617530823, 0.25271087884902954, 0.27299052476882935, -0.2846946716308594, 0.48064154386520386, -0.42248862981796265, 0.10341436415910721, -0.12829069793224335, 0.39325469732284546, 0.14947611093521118], [0.07118675112724304, 0.15474718809127808, 0.3673705458641052, -0.23148226737976074, 0.07500651478767395, -0.011645859107375145, 0.4593275785446167, 0.37654340267181396, 0.2874407172203064, 0.28043246269226074, 0.5203759074211121, -0.21154242753982544, -0.24803608655929565, 0.17194336652755737, -0.08901363611221313, 0.24170491099357605, 0.4569043517112732, 0.014743983745574951, -0.2319536805152893, 0.22610440850257874, -0.3868787884712219, -0.1037941575050354, -0.08231973648071289, 0.3567807376384735, -0.3744032382965088, 0.29951825737953186, -0.35339927673339844, 0.09514987468719482, 0.1303429901599884, 0.2929806709289551, -0.37916597723960876, -0.33731609582901, -0.3730555772781372, -0.3537953495979309, 0.057009756565093994, 0.14400413632392883, -0.3561680316925049, -0.03437924385070801, -0.449368417263031, 0.2714621424674988, -0.19995705783367157, -0.6819024682044983, -0.15142986178398132, 0.170845627784729, 0.4124871492385864, 0.24089711904525757, 0.3255087733268738, -0.14005357027053833, -0.027566969394683838, 0.6687711477279663, 0.4107673764228821, -0.22134798765182495, 0.017009735107421875, -0.36058932542800903, -0.25721168518066406, -0.23526248335838318, -0.008327126502990723, -0.08366246521472931, 0.0764312744140625, 0.18930146098136902, -0.27319279313087463, 0.025194242596626282, 0.40648674964904785, -0.05517810583114624], [-0.35002484917640686, 0.12949824333190918, 0.00415802001953125, -0.4390978217124939, -0.2225462794303894, -0.45075178146362305, -0.5345088243484497, -0.18436068296432495, -0.21321460604667664, 0.06602209806442261, 0.6931180953979492, 0.256003201007843, 0.26981061697006226, -0.48176464438438416, -0.20343297719955444, -0.19514894485473633, 0.2866469621658325, 0.2917247414588928, -0.2577018141746521, 0.47120290994644165, -0.11369985342025757, -0.08620652556419373, 0.0005222111940383911, 0.004139840602874756, 0.2913779020309448, -0.014214545488357544, 0.20763474702835083, 0.2979150414466858, -0.11664441227912903, -0.4099249243736267, -0.14858794212341309, 0.4564249515533447, -0.8303905725479126, -0.36558836698532104, -0.395542711019516, 0.4285411238670349, -0.3583798110485077, -0.2712927460670471, 0.24440640211105347, -0.0532076358795166, 0.029559463262557983, 0.06468284130096436, 0.4058220386505127, 0.11513203382492065, 0.1915285289287567, 0.07561522722244263, -0.16156429052352905, 0.48765379190444946, -0.05596552789211273, 0.013890057802200317, 0.16570909321308136, 0.050255656242370605, -0.5679816007614136, 0.24105799198150635, -0.45746636390686035, -0.21750697493553162, 0.3960868716239929, 0.038236141204833984, -0.24008098244667053, 0.14810603857040405, 0.027975767850875854, 0.7474100589752197, -0.3232298791408539, 0.1662343144416809], [0.13866053521633148, 0.4539640247821808, -0.11539828777313232, 0.6674525737762451, 0.01463925838470459, 0.3701452910900116, 0.4999029040336609, 0.057321786880493164, -0.13611461222171783, 0.19495677947998047, 0.49413198232650757, -0.4328705668449402, 0.3906479775905609, -0.19790685176849365, 0.40892475843429565, -0.39545273780822754, -0.3186434507369995, 0.4215542674064636, -0.3432655930519104, -0.037864506244659424, 0.21638327836990356, -0.1370825171470642, 0.5634050965309143, 0.20223510265350342, -0.05487286299467087, 0.3360787332057953, 0.28921377658843994, 0.253182590007782, -0.1325640082359314, -0.6668356657028198, 0.5526050925254822, 0.05794137716293335, -0.22211548686027527, 0.39305105805397034, 0.512372612953186, -0.12096816301345825, -0.5527801513671875, 0.08131629228591919, -0.254730224609375, -0.5234137177467346, 0.011978890746831894, -0.6843395233154297, -0.2784948945045471, 0.0020799636840820312, 0.33289140462875366, -0.7080926895141602, -0.09840432554483414, 0.3657810091972351, 0.01919730007648468, -0.23221269249916077, 0.34398937225341797, 0.2551153302192688, -0.24998368322849274, 0.4835519790649414, -0.06793498992919922, -0.03772418946027756, 0.4235685467720032, 0.14259850978851318, -0.1571040153503418, -0.2108922302722931, 0.2533542513847351, 0.08465617895126343, -0.36155229806900024, 0.04693728685379028], [0.012747764587402344, 0.06081879138946533, -0.4940541386604309, 0.1365455687046051, -0.2146749496459961, -0.0625687688589096, 0.34574681520462036, -0.11129724979400635, 0.20702104270458221, -0.3217310309410095, -0.4454241394996643, 0.4678747057914734, -0.18186348676681519, 0.27708202600479126, -0.26058661937713623, 0.18132519721984863, 0.36049139499664307, 0.6822464466094971, 0.49024832248687744, -0.054120779037475586, 0.021483518183231354, 0.12790709733963013, 0.037878334522247314, -0.6879099011421204, 0.3699489235877991, 0.2893140912055969, -0.17791765928268433, -0.25100064277648926, -0.021267801523208618, 0.5484513640403748, 0.2466992884874344, 0.2307635247707367, -0.008384959772229195, 0.49800124764442444, 0.43730872869491577, -0.22282953560352325, 0.2271525263786316, 0.5555728077888489, -0.5974206328392029, 0.8221316337585449, -0.38218674063682556, 0.37085407972335815, -0.10110903531312943, -0.6109006404876709, 0.05879750847816467, 0.24972933530807495, -0.3680053949356079, 0.43591833114624023, 0.46282362937927246, 0.08640819787979126, -0.24469611048698425, 0.289827823638916, 0.41306251287460327, -0.09555608034133911, -0.18702435493469238, -0.001952052116394043, -0.15064799785614014, 0.1652657389640808, -0.17392230033874512, 0.4913232624530792, -0.24146384000778198, -0.07345432043075562, -0.10411649942398071, 0.08524473011493683], [0.31224775314331055, 0.46434664726257324, -0.4914736747741699, 0.21843796968460083, -0.2902628779411316, -0.2585383653640747, -0.48007702827453613, -0.36777788400650024, -0.42859503626823425, -0.33150792121887207, 0.05936911702156067, -0.07556045055389404, 0.046252407133579254, 0.6223466396331787, 0.017380952835083008, -0.1102023720741272, -0.16108068823814392, 0.0800638496875763, 0.01837146282196045, -0.057953596115112305, -0.16664904356002808, 0.03837406635284424, -0.2758049964904785, -0.1555730700492859, -0.5090030431747437, -0.22859415411949158, -0.03254902362823486, 0.3662978410720825, -0.13720443844795227, 0.2112659513950348, -0.18704187870025635, -0.23446452617645264, 0.3440054953098297, 0.33039993047714233, 0.030590787529945374, -0.19468611478805542, -0.14162182807922363, 0.013663634657859802, -0.23834216594696045, 0.31437933444976807, 0.42399394512176514, -0.22667641937732697, -0.32819080352783203, -0.01587086170911789, -0.15093237161636353, -0.24539661407470703, 0.3750576972961426, -0.2917274534702301, 0.2798440456390381, -0.18614500761032104, -0.5431198477745056, 0.25078707933425903, -0.4194204807281494, 0.439580500125885, -0.21928399801254272, 0.46285775303840637, -0.22759589552879333, 0.05665165185928345, -0.4376012682914734, -0.3295472264289856, 0.08695703744888306, -0.4700709879398346, 0.5502756834030151, 0.27760809659957886], [-0.11216817051172256, -0.19962339103221893, 0.4866306185722351, -0.3388230800628662, 0.5653138160705566, -0.5320698022842407, -0.1969008445739746, -0.26877111196517944, 0.29998695850372314, 0.5670375823974609, -0.3957957625389099, 0.4917367696762085, 0.3173966407775879, -0.3217768669128418, -0.37538015842437744, -0.1861865520477295, 0.18527990579605103, 0.29878151416778564, 0.3176805377006531, 0.04121978208422661, -0.28410768508911133, 0.12275108695030212, 0.2744624614715576, -0.06329703330993652, -0.1470535397529602, -0.4830262064933777, 0.4474620819091797, -0.14408007264137268, -0.14416098594665527, -0.24929356575012207, 0.06218373775482178, -0.03346603736281395, 0.04891926050186157, 0.06078636646270752, 0.10372811555862427, -0.4878693222999573, -0.019104599952697754, 0.45767179131507874, 0.07365530729293823, 0.28612715005874634, -0.16819745302200317, 0.37489813566207886, 0.42054271697998047, -0.5765172839164734, -0.21585097908973694, -0.2963901460170746, 0.4917649030685425, 0.019768215715885162, -0.05143424868583679, -0.35673826932907104, -0.22279997169971466, -0.10653515160083771, -0.32722207903862, 0.1823420524597168, 0.45844727754592896, 0.2408772110939026, 0.3992478847503662, 0.09353713691234589, -0.033147551119327545, 0.2981421649456024, -0.48011332750320435, 0.14013487100601196, -0.07834590971469879, 0.5432395339012146], [0.3483765721321106, -0.223901629447937, -0.09673464298248291, -0.11942118406295776, 0.5177536010742188, 0.07378201931715012, 0.24503552913665771, 0.2815680503845215, 0.10216987878084183, -0.20239844918251038, -0.17988741397857666, 0.3284568786621094, -0.1483268141746521, 0.1868157684803009, 0.05054128170013428, 0.4179474413394928, -0.023574337363243103, 0.23165476322174072, 0.011692941188812256, 0.08482784032821655, 0.15307945013046265, -0.24089479446411133, -0.05041602626442909, -0.16432705521583557, 0.38571780920028687, -0.2551494836807251, 0.35108545422554016, -0.2414880096912384, 0.08408524096012115, -0.06676983833312988, -0.34430620074272156, 0.10287968069314957, -0.10992717742919922, -0.20389431715011597, 0.07056993246078491, 0.27381086349487305, 0.17979788780212402, 0.18766295909881592, -0.12482623755931854, 0.3013506829738617, 0.1287110149860382, -0.04748815298080444, 0.07193654775619507, 0.26562976837158203, -0.1837683916091919, -0.4238068461418152, -0.2039072960615158, -0.2148442268371582, 0.3522174656391144, 0.12370431423187256, -0.23274368047714233, -0.3978344798088074, 0.42384427785873413, 0.3843318223953247, -0.4421820640563965, 0.25008484721183777, 0.23855698108673096, -0.09524328261613846, -0.07117307186126709, 0.5948126316070557, 0.17497867345809937, -0.09203195571899414, 0.14997321367263794, 0.1912142038345337], [-0.6621949076652527, -0.5260361433029175, 0.18884208798408508, 0.30366724729537964, -0.05328571796417236, -0.020137399435043335, 0.36936670541763306, -0.28362998366355896, 0.6461812257766724, -0.2813059687614441, 0.06397569179534912, -0.17298239469528198, -0.1911785900592804, 0.269270658493042, 0.27215951681137085, -0.11897319555282593, 0.21595148742198944, -0.22206038236618042, 0.29836225509643555, 0.020047694444656372, -0.3008109927177429, -0.4705042839050293, -0.3498200476169586, 0.2802431583404541, 0.2931666970252991, 0.14217239618301392, 0.098629891872406, -0.30637383460998535, 0.179884135723114, 0.18933337926864624, -0.05104506015777588, -0.23613864183425903, -0.3883601427078247, -0.40180695056915283, 0.08438676595687866, 0.2579827308654785, 0.6346534490585327, -0.28277459740638733, -0.5994164943695068, 0.33977848291397095, -0.26755744218826294, 0.0101395845413208, -0.4389585852622986, 0.03276180848479271, -0.5791498422622681, -0.3256518840789795, -0.09330124408006668, 0.38280630111694336, -0.04543966054916382, -0.3118867576122284, -0.4620986580848694, -0.4532977342605591, -0.3973569869995117, 0.33608847856521606, 0.3197231888771057, -0.22175902128219604, -0.11734789609909058, 0.10247153043746948, 0.19446280598640442, 0.478087842464447, -0.10800227522850037, 0.024318337440490723, -0.3324320912361145, -0.33013832569122314], [0.4428633451461792, -0.39249473810195923, 0.020619451999664307, 0.1942594051361084, -0.006101875565946102, 0.42893481254577637, -0.30193182826042175, 0.25404131412506104, 0.21043163537979126, 0.44026118516921997, 0.22852399945259094, 0.4011760652065277, 0.0286405086517334, -0.14326512813568115, -0.3798791170120239, 0.2505583167076111, 0.018655836582183838, -0.46666115522384644, 0.21790766716003418, 0.41392791271209717, -0.31700998544692993, 0.019893795251846313, -0.27322983741760254, 0.44112515449523926, 0.46919167041778564, 0.4241563081741333, 0.22183948755264282, 0.4238418936729431, -0.1055145263671875, 0.2102639526128769, 0.013453364372253418, -0.015101909637451172, -0.4868154525756836, 0.4977566599845886, -0.49207788705825806, -0.3800784945487976, -0.1996617317199707, -0.35795682668685913, -0.3326626420021057, -0.44961339235305786, -0.309425413608551, -0.3453649878501892, 0.14763593673706055, -0.48537614941596985, -0.5336503982543945, -0.3600970208644867, 0.05356013774871826, 0.5148693919181824, 0.40967804193496704, 0.07901763916015625, 0.2067110538482666, -0.21684429049491882, -0.5126538872718811, 0.26100578904151917, -0.2500789165496826, -0.05210694670677185, 0.5121051669120789, 0.41069865226745605, 0.45465028285980225, -0.004605606198310852, -1.0495390892028809, -0.38807469606399536, -0.20709532499313354, -0.3733486533164978], [0.5319366455078125, -0.36702847480773926, -0.07345575094223022, 0.1956961750984192, -0.6754674911499023, -0.2098025679588318, 0.5209352970123291, -0.6221106052398682, 0.09518808126449585, 0.4229438304901123, -0.3208208680152893, 0.3698855936527252, 0.358410120010376, 0.15076875686645508, -0.47115665674209595, 0.02118512988090515, -0.07562315464019775, 0.3583778142929077, 0.45244699716567993, 0.2579188346862793, -0.18652468919754028, -0.43998146057128906, -0.26020294427871704, -0.1823478490114212, -0.5004183053970337, 0.10570091009140015, 0.023049235343933105, -0.38602620363235474, 0.5275933742523193, 0.11622658371925354, -0.19751465320587158, -0.07239758968353271, -0.3421189486980438, -0.40182363986968994, 0.10615755617618561, -0.2922857403755188, 0.2933434844017029, 0.6162230968475342, -0.4449395537376404, 0.3517270088195801, 0.5256348848342896, -0.2840927839279175, -0.08286535739898682, -0.4242626428604126, -0.24084073305130005, 0.448186457157135, -0.2729918956756592, 0.12892678380012512, -0.014030586928129196, 0.007429361343383789, 0.06084606051445007, -0.42441514134407043, 0.08230119943618774, -0.14259998500347137, -0.4173869490623474, -0.2560359835624695, 0.5133557319641113, 0.2029893398284912, -0.17327341437339783, -0.6447332501411438, 0.22227224707603455, 0.19960305094718933, 0.11185921728610992, 0.23256652057170868], [-0.7962259650230408, 0.04150819033384323, -0.40526485443115234, -0.4657689332962036, 0.2388763725757599, -0.039632007479667664, 0.48330068588256836, 0.13200891017913818, -0.32158148288726807, -0.35346925258636475, -0.4083808958530426, -0.11501996219158173, -0.35134226083755493, -0.4697098731994629, -0.037416279315948486, -0.4392071068286896, 0.4949142634868622, 0.4844277501106262, 0.3690328299999237, 0.4130374789237976, -0.5568203330039978, -0.3482409119606018, -0.26785701513290405, -0.4827272593975067, -0.09583234786987305, 0.42340201139450073, -0.02151065692305565, 0.48227521777153015, -0.3104751408100128, 0.43081802129745483, -0.0158725306391716, 0.004477798938751221, -0.7718104124069214, 0.0006615966558456421, -0.34717434644699097, -0.25377196073532104, -0.46854105591773987, -0.21055948734283447, -0.18011488020420074, -0.00027407705783843994, -0.20233803987503052, -0.39985495805740356, -0.33548110723495483, 0.3232676088809967, -0.15425099432468414, 0.19317930936813354, -0.15154922008514404, 0.4385030269622803, -0.4978233575820923, 0.5379153490066528, 0.029568910598754883, -0.559234619140625, 0.4880926012992859, 0.09634803980588913, 0.1365463137626648, -0.028550852090120316, 0.12943035364151, -0.3595897853374481, 0.21041490137577057, 0.4684411287307739, 0.06731270998716354, 0.053716979920864105, 0.3059800863265991, 0.4765550196170807], [-0.4923213720321655, -0.1693057417869568, 0.39552998542785645, -0.5368624925613403, 0.3722712993621826, 0.10465770959854126, -0.052216410636901855, -0.3770488500595093, 0.24856531620025635, -0.18460071086883545, -0.08554990589618683, 0.730377733707428, 0.22842371463775635, -0.06541585922241211, -0.22237634658813477, 0.5639048218727112, 0.39481619000434875, 0.44979289174079895, -0.728190541267395, 0.40836286544799805, 0.4526219964027405, 0.31416094303131104, -0.3961871862411499, -0.22878992557525635, -0.0933484137058258, -0.356741726398468, -0.3641566038131714, 0.43562501668930054, -0.38333064317703247, 0.4284117817878723, -0.16332396864891052, 0.2969430685043335, -0.20209649205207825, 0.410231351852417, -0.08726304769515991, -0.3470458388328552, -0.013821795582771301, 0.409534215927124, 0.1084136962890625, 0.1646256148815155, -0.0647076964378357, 0.19817514717578888, 0.6190832257270813, -0.21751689910888672, -0.4325387179851532, 0.5821518898010254, 0.35784393548965454, 0.3037489652633667, 0.005589976906776428, 0.3385264277458191, 0.39695072174072266, 0.4723159670829773, -0.3623204529285431, 0.2794957160949707, -0.1754022240638733, -0.15165704488754272, -0.31377142667770386, 0.07316231727600098, 0.411541223526001, 0.08377151191234589, 0.37310904264450073, -0.12815946340560913, -0.4060731530189514, -0.20331770181655884], [-0.07707536220550537, -0.1017175167798996, 0.33052772283554077, -0.07833532989025116, 0.31110918521881104, 0.14673078060150146, 0.5896959900856018, 0.39822864532470703, 0.07513201236724854, -0.11450248956680298, -0.16022798418998718, 0.47931957244873047, 0.29535067081451416, 0.19159364700317383, -0.01296158879995346, -0.28648942708969116, -0.007071979343891144, -0.2596084475517273, 0.09156519174575806, 0.05278360843658447, 0.16531096398830414, 0.007893666625022888, 0.07849347591400146, -0.26244649291038513, -0.644027054309845, -0.18504422903060913, 0.17514008283615112, 0.3223729729652405, 0.037390921264886856, 0.3793511986732483, 0.06877262890338898, -0.484406054019928, -0.12435854971408844, -0.12560981512069702, 0.1392335593700409, -0.2063966989517212, -0.47107091546058655, -0.11454789340496063, 0.5530201196670532, 0.3500303328037262, -0.06609588861465454, 0.2642328143119812, 0.17950743436813354, -0.43688130378723145, 0.06980371475219727, 0.4559422731399536, 0.33573591709136963, 0.25977879762649536, -0.12880241870880127, 0.79432213306427, -0.026575684547424316, -0.4287390112876892, 0.3109629154205322, -0.059092603623867035, -0.34289705753326416, 0.4093885123729706, 0.2953329086303711, 0.18980801105499268, 0.3879808783531189, -0.45893532037734985, 0.3837609887123108, 0.48238781094551086, -0.15411972999572754, 0.2475835084915161], [-0.33243727684020996, -0.08293271064758301, 0.7011929750442505, 0.19819602370262146, 0.45909351110458374, -0.6970250010490417, -0.19312357902526855, 0.038699373602867126, 0.3968793749809265, -0.34041038155555725, 0.23071494698524475, 1.0682393312454224, -0.11630468815565109, -0.04973214864730835, -0.18823228776454926, 0.2083548903465271, 0.4006556272506714, 0.26774102449417114, -0.21921300888061523, 0.47539228200912476, 0.4972122311592102, 0.1062314435839653, 0.459872305393219, 0.022843601182103157, 0.4344131648540497, -0.4041033983230591, 0.3713213801383972, 0.14664199948310852, 0.016874711960554123, 0.039255112409591675, -0.48787081241607666, -0.3480607867240906, 0.2896410822868347, 0.02586919069290161, -0.046160608530044556, -0.05053424462676048, -0.49421393871307373, 0.24398833513259888, -0.36803656816482544, 0.2393060326576233, -0.3846849799156189, -0.38965749740600586, -0.7493789792060852, 0.6536164879798889, 0.1463944911956787, -0.3338279128074646, 0.4606574773788452, -0.40161895751953125, -0.0020919442176818848, 0.13297168910503387, 0.1298275589942932, 0.36879003047943115, -0.45784252882003784, -0.06836342811584473, -0.5949143767356873, 0.317129909992218, 0.2511666417121887, -0.26971274614334106, 0.17973151803016663, -0.012935694307088852, 0.0167352557182312, -0.3804371953010559, 0.23212623596191406, -0.04777359962463379], [0.29404374957084656, -0.05621296167373657, 0.18063563108444214, -0.34453898668289185, -0.13861221075057983, -0.7934064269065857, -0.33996695280075073, -0.1118972897529602, -0.04671807587146759, 0.40183335542678833, -0.04891645908355713, -0.0749167799949646, -0.4409698247909546, 0.26677292585372925, 0.1442137360572815, 0.03026050329208374, 0.32443225383758545, 0.5923690795898438, -0.03701011836528778, -0.3881516456604004, 0.471347451210022, -0.3496464192867279, 0.17570531368255615, -0.031182676553726196, -0.18427151441574097, -0.7990432381629944, -0.2335820198059082, -0.462532639503479, 0.10668686032295227, -0.19687220454216003, -0.02930772304534912, 0.42061132192611694, 0.17200371623039246, -0.4121129512786865, 0.7857388854026794, -0.373840868473053, 0.07995601743459702, 0.4713723063468933, -0.3956379294395447, 0.2773836553096771, -0.4540719985961914, -0.09176350384950638, -0.37246420979499817, 0.013228178024291992, 0.3647332489490509, 0.2975548505783081, -0.12665194272994995, -0.4265848994255066, 0.27583611011505127, -0.4156443476676941, -0.7286658883094788, 0.31906360387802124, -0.14331650733947754, 0.22151875495910645, -0.044051870703697205, -0.005708903074264526, 0.3682916462421417, -0.1618102788925171, -0.3689616322517395, -0.3975418210029602, 0.3356766104698181, -0.4877051115036011, 0.4047008752822876, -0.18329033255577087], [-0.3101821541786194, 0.07511276006698608, 0.007673680782318115, -0.5583896636962891, 0.10164064168930054, 0.12597966194152832, 0.2812093496322632, 0.24046333134174347, -0.13935601711273193, -0.479977548122406, 0.020377084612846375, -0.35128092765808105, 0.24139025807380676, 0.20551389455795288, -0.34207606315612793, -0.32509925961494446, -0.03861524164676666, 0.34916865825653076, 0.20111936330795288, 0.48665177822113037, -0.3169248104095459, 0.4577988386154175, -0.23890310525894165, 0.20741337537765503, -0.42774271965026855, 0.6091781854629517, -0.4471619129180908, 0.3167799711227417, -0.1873663067817688, 0.060008883476257324, -0.09854873269796371, -0.15179336071014404, -0.052755795419216156, -0.1669732928276062, 0.5748357176780701, -0.19904333353042603, 0.12065540254116058, -0.34857630729675293, -0.03354942798614502, -0.46058425307273865, 0.29669690132141113, 0.5301632285118103, -0.09179973602294922, -0.2017630934715271, -0.313578337430954, 0.006420254707336426, 0.5260156989097595, 0.44079774618148804, 0.34115368127822876, 0.3641752600669861, -0.11351090669631958, -0.23316070437431335, -0.38250672817230225, -0.3973982632160187, 0.04064004123210907, -0.27609503269195557, -0.1133265495300293, 0.49993249773979187, -0.15983456373214722, -0.7216853499412537, -0.23321285843849182, 0.3338592052459717, 0.23973602056503296, 0.11195039749145508], [-0.05060863494873047, -0.12183767557144165, 0.06718811392784119, -0.39689573645591736, 0.017029419541358948, -0.3120384216308594, -0.22181826829910278, -0.15540948510169983, -0.575035810470581, -0.497650146484375, 0.3795875906944275, 0.1591174602508545, -0.019367069005966187, -0.4491432309150696, 0.17084462940692902, -0.3593835234642029, 0.2728373110294342, 0.8738883137702942, 0.08612662553787231, -0.15881115198135376, 0.5044153332710266, 0.20835989713668823, 0.2250274419784546, 0.3007645010948181, 0.0028563737869262695, -0.3412056565284729, 0.526376485824585, -0.3132188320159912, 0.17521262168884277, 0.29645806550979614, -0.049046218395233154, -0.08451154828071594, -0.1721331626176834, 0.29353028535842896, 0.49040186405181885, 0.5942572355270386, -0.3821254372596741, -0.21431812644004822, 0.1137952208518982, 0.13090544939041138, -0.0896700769662857, 0.4741533398628235, -0.002114713191986084, -0.09327751398086548, 0.5831108093261719, 0.00455474853515625, 0.190976083278656, -0.39309248328208923, -0.1934165358543396, 0.46581220626831055, 0.27973049879074097, 0.10385267436504364, 0.11737239360809326, -0.04632952809333801, -0.4702991247177124, 0.3763548731803894, 0.32450538873672485, 0.1454492211341858, -0.035963237285614014, -0.3448408842086792, 0.4152432680130005, -0.32402682304382324, -0.18091356754302979, -0.2591749131679535], [0.0473349392414093, -0.4723484516143799, 0.0895853042602539, -0.18670785427093506, -0.36653512716293335, 0.33758383989334106, -0.38493698835372925, -0.4604218006134033, -0.14209622144699097, -0.06376218050718307, -0.46637290716171265, -0.33014658093452454, 0.0431971549987793, 0.3758562207221985, -0.5661755800247192, -0.39977455139160156, -0.15336811542510986, -0.32701051235198975, 0.23230700194835663, 0.2738683819770813, -0.22983890771865845, -0.31418532133102417, -0.42822712659835815, -0.08957166969776154, 0.3830462694168091, -0.13923496007919312, -0.33934229612350464, 0.4441542327404022, 0.3581702709197998, -0.3140985369682312, 0.564632773399353, -0.2931908369064331, -0.49664223194122314, 0.19984915852546692, -0.25058311223983765, 0.12080830335617065, -0.12487006187438965, -0.10075322538614273, -0.380212664604187, 0.4869860112667084, 0.30139821767807007, -0.41764843463897705, 0.41276371479034424, 0.22375351190567017, -0.07147139310836792, 0.4943418502807617, 0.19499880075454712, -0.6028003096580505, -0.15014180541038513, -0.13299190998077393, -0.23380309343338013, 0.03502064198255539, 0.02087414637207985, -0.02111934870481491, -0.3988339304924011, -0.25086694955825806, 0.2718862295150757, 0.3024446368217468, 0.09378695487976074, 0.03875565528869629, -0.30269116163253784, 0.3390883207321167, -0.4744001030921936, 0.3882318139076233], [-0.34158629179000854, -0.08682756125926971, 0.37012016773223877, -0.155900776386261, -0.29207393527030945, -0.46124207973480225, 0.13118058443069458, 0.3019958734512329, -0.41675251722335815, -0.4222707748413086, -0.3834499716758728, -0.20795029401779175, 0.1680012345314026, 0.030705541372299194, -0.12352949380874634, 0.48320549726486206, 0.1615513265132904, 0.04086308926343918, -0.1849839687347412, -0.270205020904541, 0.4544692933559418, -0.7367675304412842, 0.2971314787864685, -0.3098055124282837, 0.47184664011001587, 0.46793919801712036, -0.3834192156791687, 0.1992892175912857, 0.12722742557525635, 0.414367139339447, 0.482247531414032, -0.0848841667175293, 0.10136449337005615, 0.4643875062465668, -0.396991491317749, -0.17671465873718262, -0.11861483007669449, 0.3903423845767975, -0.15019184350967407, -0.45701488852500916, 0.305404931306839, 0.0578748993575573, -0.31469789147377014, 0.40456581115722656, -0.29924094676971436, 0.03478696942329407, -0.365997314453125, 0.24164825677871704, 0.11920684576034546, 0.2161523997783661, -0.29844337701797485, -0.3491284251213074, 0.0932348370552063, 0.08489245176315308, 0.1385289430618286, 0.44317567348480225, 0.00964275747537613, -0.15961599349975586, -0.15015089511871338, -0.250711590051651, 0.0704757571220398, -0.13660046458244324, -0.3758782148361206, 0.43961453437805176], [-0.11247420310974121, -0.05586542189121246, 0.08879801630973816, 0.49944639205932617, 0.47996073961257935, -0.2706899642944336, -0.7173649668693542, -0.23342067003250122, 0.2524815797805786, 0.369729220867157, 0.06709909439086914, -0.0012960731983184814, -0.34170442819595337, 0.2861168384552002, -0.2469691038131714, 0.12340861558914185, -0.21187499165534973, -0.07756185531616211, -0.20882368087768555, 0.7357372045516968, 0.07428944110870361, 0.28262975811958313, -0.3848738670349121, 0.3779141902923584, -0.3735271096229553, 0.31005167961120605, 0.08764946460723877, -0.3018825054168701, 0.24903430044651031, 0.3616415858268738, 0.3536703586578369, -0.004493643995374441, 0.13746346533298492, 0.40337833762168884, -0.07261264324188232, -0.21094991266727448, 0.5668495893478394, 0.1679285764694214, 0.06397376954555511, -0.23696927726268768, -0.24809569120407104, 0.2220669388771057, -0.4708741307258606, 0.3720213770866394, 0.1510227471590042, -0.1322118639945984, 0.2012520581483841, -0.08446834981441498, -0.05291103571653366, 0.1486130952835083, 0.366243451833725, 0.44444578886032104, -0.39847660064697266, 0.12906774878501892, 0.09159547090530396, 0.31236037611961365, -0.1595999002456665, 0.04543708264827728, -0.1625484824180603, -0.029017075896263123, 0.23723280429840088, -0.015234872698783875, 0.0362125039100647, 0.4839985966682434], [-0.0011429041624069214, 0.27649834752082825, 0.26221856474876404, -0.504723072052002, 0.1299574375152588, -0.5789541006088257, 0.3407967686653137, 0.3848488926887512, -0.17468976974487305, 0.48310184478759766, 0.5774054527282715, 0.04771101474761963, 0.340332567691803, 0.35907047986984253, -0.4361928701400757, 0.13364866375923157, -0.14138513803482056, 0.47076308727264404, -0.07586705684661865, 0.25706321001052856, 0.6858795881271362, -0.06942099332809448, -0.24463528394699097, -0.3449329733848572, 0.5697073340415955, 0.3947983980178833, 0.5637476444244385, -0.4561150074005127, -0.08813455700874329, -0.22093002498149872, 0.40586650371551514, -0.07830147445201874, 0.3856375813484192, 0.6231569647789001, -0.46902287006378174, -0.31688955426216125, -0.2854304611682892, 0.15968942642211914, 0.3476024866104126, -0.10552358627319336, -0.4018673300743103, -0.39051955938339233, 0.2149749994277954, 0.36939626932144165, 0.472529798746109, 0.660824179649353, -0.41854745149612427, 0.3492783010005951, -0.09618677198886871, 0.2912690043449402, -0.4839511513710022, 0.2650751769542694, 0.023515641689300537, -0.5207650065422058, -0.0726715624332428, 0.09388299286365509, 0.5746461153030396, 0.0913626030087471, 0.2373136281967163, -0.2603176236152649, -0.3269989490509033, 0.13545265793800354, -0.10540054738521576, 0.48385316133499146], [0.4750285744667053, -0.040829598903656006, -0.014430336654186249, -0.09846711158752441, 0.059657759964466095, -0.16757601499557495, 0.28435903787612915, 0.528799295425415, 0.15430104732513428, -0.1545153260231018, -0.39966249465942383, 0.3382476568222046, -0.027623429894447327, 0.4661213755607605, 0.500259280204773, -0.02228798344731331, 0.38491755723953247, -0.12407007813453674, -0.7622820138931274, -0.4906412363052368, -0.17643749713897705, 0.22989323735237122, 0.4407908022403717, -0.4408467411994934, -0.311270147562027, 0.4040800929069519, -0.9838987588882446, 0.11599653959274292, 0.22013412415981293, -0.21055617928504944, -0.005899563431739807, -0.22389616072177887, -0.3621789216995239, 0.42071253061294556, -0.23184698820114136, -0.22457599639892578, -0.4013683795928955, -0.37826836109161377, -0.48973244428634644, 0.20720535516738892, 0.01878291368484497, 0.24422386288642883, 0.26581448316574097, -0.1532144397497177, -0.0024209022521972656, 0.11790966987609863, -0.6655858755111694, -0.4809735417366028, 0.4111626148223877, -0.38136792182922363, -0.018537774682044983, 0.296891987323761, -0.19274784624576569, 0.26989537477493286, -0.40738171339035034, -0.04914003610610962, -0.15362223982810974, 0.39311864972114563, 0.3348958492279053, 0.5522372722625732, -0.34151721000671387, 0.05286349356174469, 0.3801192045211792, -0.15820825099945068], [0.33225157856941223, 0.3243239223957062, -0.36287128925323486, 0.28386807441711426, -0.26571810245513916, -0.37495124340057373, -0.7056515216827393, -0.061628684401512146, -0.1888115108013153, -0.2329135537147522, -0.18607789278030396, -0.23768597841262817, -0.503208339214325, 0.04768437147140503, 0.06980016827583313, -0.0532110333442688, -0.5315131545066833, -0.03232014179229736, 0.3470291495323181, 0.6687133312225342, -0.5101397037506104, -0.13729432225227356, 0.06243261694908142, 0.1686394214630127, 0.0846053957939148, 0.31765785813331604, -0.3059217929840088, -0.10177356004714966, 0.27230513095855713, 0.26480329036712646, -0.09338229894638062, 0.05576044321060181, -0.5394341349601746, -0.35207271575927734, 0.027120202779769897, -0.2713816165924072, 0.5007327795028687, 0.4639497995376587, 0.12133175134658813, 0.018783509731292725, 0.023797713220119476, 0.23069900274276733, 0.3899393677711487, 0.16215595602989197, 0.03382836654782295, 0.42146310210227966, 0.0468742661178112, -0.2347813993692398, 0.24803119897842407, -0.4354321360588074, 0.4663771390914917, -0.09357008337974548, -0.14560753107070923, -0.18829871714115143, -0.2716125249862671, 0.06079912185668945, -0.16163301467895508, -0.0013688821345567703, 0.1714208722114563, 0.06995320320129395, 0.040682271122932434, -0.12286749482154846, -0.5964286923408508, 0.11441737413406372], [-0.5751504898071289, -0.5914558172225952, 0.04234051704406738, -0.23478086292743683, -0.17133617401123047, 0.2989913523197174, -0.6733553409576416, -0.42986005544662476, 0.3814438581466675, 0.06717205047607422, 0.06326413154602051, 0.13057906925678253, -0.5112524032592773, 0.6520877480506897, -0.14088040590286255, 0.5254909992218018, 0.008843660354614258, -0.28455671668052673, 0.11976038664579391, -0.46431779861450195, 0.1064600944519043, 0.0066648125648498535, -0.13124729692935944, 0.28877002000808716, 0.020564541220664978, 0.32030999660491943, 0.31832998991012573, 0.060950785875320435, -0.35298195481300354, -0.3478145897388458, 0.06425990909337997, -0.41749024391174316, -0.4903738498687744, 0.03552307188510895, 0.02262592315673828, -0.01711636781692505, -0.41163158416748047, -0.3547213673591614, 0.6037391424179077, -0.41115278005599976, -0.41711896657943726, -0.14254941046237946, 0.2861717641353607, -0.14955875277519226, -0.04513934254646301, -0.2479165494441986, -0.14523756504058838, -0.24465185403823853, -0.4800545871257782, 0.3225359320640564, 0.4939689636230469, -0.017538249492645264, -0.44680675864219666, -0.6346724629402161, 0.17933857440948486, -0.3947758078575134, -0.1167181134223938, 0.20328693091869354, 0.027136899530887604, 0.16086441278457642, 0.4045342803001404, 0.3028210997581482, -0.2591317296028137, 0.016087830066680908], [0.27905145287513733, -0.3875890374183655, 0.018440350890159607, -0.2706422805786133, -0.3901306986808777, -0.09660762548446655, 0.1521245241165161, 0.14101961255073547, 0.25048768520355225, 0.3412553369998932, 0.34095945954322815, 0.11085568368434906, 0.30241507291793823, -0.22462046146392822, -0.3099960684776306, -0.43647170066833496, -0.24239593744277954, -0.5982413291931152, -0.2206646203994751, 0.5502310991287231, -0.10665982961654663, -0.21001870930194855, 0.2144341915845871, 0.6267383098602295, -0.18276119232177734, -0.06738990545272827, 0.13977718353271484, -0.3831498622894287, 0.4582788944244385, 0.37098419666290283, 0.15174895524978638, 0.025546491146087646, 0.46943700313568115, -0.19718173146247864, -0.06468194723129272, -0.38876545429229736, -0.21075838804244995, -0.43050694465637207, -0.7730460166931152, 0.03164583444595337, 0.027771830558776855, -0.4496971368789673, 0.13107699155807495, 0.03645920753479004, 0.13964366912841797, 0.1370144486427307, 0.43584591150283813, 0.05626338720321655, -0.14491218328475952, 0.17070582509040833, -0.553414523601532, 0.1841711401939392, 0.3431929349899292, -0.44815993309020996, -0.11668971180915833, 0.2402338683605194, 0.5055754780769348, 0.3287603259086609, -0.28677457571029663, 0.2879074215888977, 0.2835536003112793, 0.21909348666667938, 0.608353316783905, 0.11146807670593262], [-0.26417428255081177, 0.08102995157241821, -0.39023518562316895, 0.07613886892795563, -0.11407452821731567, 0.5451403856277466, 0.4725301265716553, 0.10050755739212036, -0.26671481132507324, -0.09976959228515625, 0.3272733688354492, 0.10773921012878418, 0.47679442167282104, -0.5675881505012512, -0.10990995168685913, -0.2893868088722229, 0.3889850676059723, 0.1260378360748291, -0.12438830733299255, -0.3686850070953369, 0.05100336670875549, -0.38003721833229065, 0.2524929642677307, 0.4784683585166931, -0.1806827187538147, 0.4896279275417328, 0.08825814723968506, -0.4847339689731598, -0.0481453537940979, -0.25009602308273315, -0.4714747667312622, 0.27898162603378296, -0.667925238609314, 0.05109884589910507, -0.21739724278450012, 0.2995191216468811, -0.09220299124717712, 0.32679566740989685, 0.11554545164108276, -0.31143537163734436, 0.2455156445503235, -0.03365057706832886, -0.3076823949813843, 0.0693659782409668, -0.17439013719558716, -0.30362725257873535, -0.40952837467193604, -0.3317692279815674, -0.007691100239753723, -0.43084782361984253, -0.48747146129608154, 0.4738464951515198, -0.4062068462371826, -0.26151448488235474, -0.14733153581619263, -0.4914339780807495, -0.4630787670612335, -0.08841592073440552, 0.3202987611293793, -0.23141443729400635, -0.2070000171661377, -0.4937935471534729, 0.2318633794784546, -0.059862665832042694], [0.37499696016311646, -0.48093920946121216, 0.32899612188339233, 0.3378916382789612, 0.1380184292793274, 0.04188940301537514, -0.0901789665222168, -0.22631467878818512, 0.3047037124633789, -0.07874564826488495, 0.4592455327510834, 0.07235714048147202, 0.1090463399887085, -0.1881900429725647, -0.3871292471885681, 0.028485536575317383, 0.3667317032814026, -0.5672594308853149, -0.46419674158096313, -0.049668632447719574, 0.18585360050201416, 0.08694905042648315, -0.11492592096328735, 0.06751444935798645, 0.286214679479599, -0.12259918451309204, 0.13501673936843872, 0.1458544135093689, 0.0973157286643982, -0.17370790243148804, -0.37118232250213623, 0.20121730864048004, -0.35808947682380676, -0.14370867609977722, -0.250416100025177, 0.4473639726638794, -0.150171160697937, -0.046004146337509155, 0.5899316072463989, -0.4808909595012665, -0.26183634996414185, -0.40526658296585083, 0.4289761781692505, -0.35387879610061646, 0.3021624684333801, -0.42454516887664795, 0.3721598982810974, 0.5641905665397644, 0.11297494918107986, -0.6611940860748291, 0.2929550111293793, 0.08163046836853027, 0.18873289227485657, -0.1172286868095398, -0.0834265947341919, 0.1034509539604187, 0.3382927179336548, -0.03707847744226456, -0.16235655546188354, 0.15300816297531128, 0.33616453409194946, 0.1422482132911682, -0.41146135330200195, -0.06235352158546448], [0.4317585229873657, -0.4975966215133667, 0.3564692437648773, -0.1066441535949707, -0.015743792057037354, -0.12248578667640686, -0.28361940383911133, 0.01584867388010025, -0.11569327116012573, -0.2691926956176758, -0.3759663701057434, 0.012804031372070312, -0.08892630785703659, 0.48025065660476685, -0.14440441131591797, 0.17518223822116852, -0.5597901940345764, -0.24400416016578674, -0.28432536125183105, 0.12336444854736328, -0.5794907808303833, 0.37075501680374146, 0.5084845423698425, -0.2106645703315735, 0.27177757024765015, 0.22593463957309723, 0.05156129598617554, 0.1477910429239273, 0.08490030467510223, -0.18805930018424988, 0.34644263982772827, 0.17631679773330688, 0.5762175917625427, 0.9128390550613403, -0.4493751525878906, -0.4219481348991394, 0.26628378033638, -0.23694585263729095, -0.012271225452423096, -0.6404309272766113, -0.3128843903541565, -0.20409628748893738, 0.20405153930187225, 0.530046820640564, 0.171147421002388, -0.0938183069229126, -0.08680152893066406, 0.01928948611021042, -0.09489981830120087, 0.17170774936676025, -0.1669745147228241, 0.10851354897022247, -0.19077104330062866, 0.2253270149230957, 0.06599283218383789, -0.2867007851600647, -0.12319415807723999, 0.4589582085609436, -0.36275818943977356, 0.33873677253723145, 0.3915736675262451, -0.8773572444915771, -0.11285537481307983, -0.10918563604354858], [-0.6328064203262329, 0.03959878906607628, 0.45048952102661133, -0.4965236783027649, -0.009314000606536865, -0.44465404748916626, 0.5197417736053467, 0.654348611831665, 0.35772448778152466, -0.20117896795272827, 0.172136127948761, 0.005472540855407715, 0.43060171604156494, -0.6074845790863037, -0.11704117059707642, -0.08377909660339355, 0.07936239242553711, -0.3683234453201294, 0.09370497614145279, -0.2525695562362671, 0.39904677867889404, -0.3444424867630005, 0.07222351431846619, 0.0322500541806221, 0.219425767660141, -0.18331825733184814, 0.13880497217178345, -0.3854238986968994, 0.28396105766296387, -0.40864765644073486, 0.2313212901353836, 0.13920176029205322, -0.07698619365692139, 0.42874062061309814, -0.208020880818367, 0.36352476477622986, 0.05158543586730957, -0.1691177487373352, 0.330594003200531, -0.4384220838546753, 0.24194814264774323, 0.3276132345199585, 0.17327576875686646, -0.4370231032371521, -0.02522134780883789, 0.2770944833755493, 0.17066198587417603, 0.20099958777427673, -0.3074139952659607, -0.2677764892578125, 0.09792464971542358, -0.027598857879638672, 