{"input_weights": [[-0.34738752245903015, -0.31515568494796753, -0.2602119743824005, -0.07886481285095215, -0.353717565536499, 0.11996889114379883, 0.33520248532295227, 0.3853648900985718, 0.48424017429351807, 0.3152690529823303, -0.4109560251235962, 0.25873488187789917, -0.44780027866363525, -0.47520315647125244, -0.33189111948013306, -0.41255444288253784, -0.03214895725250244, 0.28726619482040405, -0.05568492412567139, 0.5308822393417358, -0.2308034896850586, -0.42246371507644653, -0.08502480387687683, -0.42164915800094604, 0.73984295129776, 0.3755704164505005, 0.22130805253982544, -0.10215060412883759, 0.2855040431022644, 0.07273697853088379, 0.32709288597106934, -0.239297553896904, -0.406402587890625, 0.2532251477241516, -0.3753608465194702, -0.06445860862731934, 0.09282553195953369, -0.2832556962966919, -0.3873768448829651, -0.39190006256103516, 0.32142508029937744, -0.3509822487831116, 0.25461775064468384, -0.24256139993667603, -0.4665830135345459, -0.4646713137626648, -0.11082625389099121, 0.3307819962501526, -0.330199658870697, -0.056003034114837646, 0.37197232246398926, -0.3129182457923889, -0.46891337633132935, 0.29857271909713745, -0.37611234188079834, 0.24923986196517944, 0.32577288150787354, -0.07778239250183105, 0.15123885869979858, 0.2726901173591614, 0.3199395537376404, -0.5012418031692505, -0.22040945291519165, -0.1296914964914322, 0.21982872486114502, -0.1402159184217453, -0.0955396294593811, -0.4419324994087219, -0.17076164484024048, -0.09738093614578247, -0.43684089183807373, 0.3857705593109131, 0.22815126180648804, -0.08530700206756592, 0.28993988037109375, -0.38464391231536865, 0.34750765562057495, 0.363253116607666, -0.4878741502761841, -0.13285911083221436, 0.21717333793640137, 0.008097052574157715, 0.19878387451171875, 0.19769471883773804, 0.325405478477478, -0.2643370032310486, 0.12404827773571014, -0.363492488861084, 0.01565229892730713, 0.4367281496524811, -0.15271878242492676, 0.29687613248825073, 0.44823014736175537, -0.21344077587127686, 0.44279101490974426, 0.31819719076156616, 0.309781551361084, 0.06345862150192261, 0.22998440265655518, 0.21972417831420898, 0.055393099784851074, -0.22284811735153198, -0.4545009732246399, 0.44523072242736816, -0.19632208347320557, 0.4632628560066223, 0.28652095794677734, -0.4270235300064087, 0.678961992263794, 0.3585442900657654, 0.12397578358650208, 0.11068218946456909, -0.07223647832870483, 0.17225104570388794, 0.04980212450027466, -0.44122207164764404, 0.3416023254394531, 0.4978712797164917, 0.5553067326545715, 0.05841469764709473, -0.13212430477142334, 0.27004754543304443, -0.20771461725234985, -0.2735357880592346, -0.08233527094125748, 0.46729087829589844, 0.39657747745513916, -0.05110973119735718], [-0.22884221374988556, -0.2214270830154419, 0.051095545291900635, -0.31885844469070435, 0.7048544883728027, 0.24530814588069916, 0.7245376110076904, 0.37351787090301514, 0.4043221175670624, -0.2729211449623108, 0.6038155555725098, 0.24300025403499603, -0.009224675595760345, 0.045533597469329834, -0.1533869206905365, 0.025803228840231895, 0.32930606603622437, 0.1864992380142212, -0.12829524278640747, -0.533133327960968, -0.4436337351799011, -0.29527944326400757, -0.43586617708206177, -0.6324508786201477, 0.41129523515701294, -0.17428803443908691, 0.29673004150390625, 0.397671639919281, 0.12712013721466064, -0.12019171565771103, -0.3175393342971802, 0.27411437034606934, -0.20485416054725647, 0.17892074584960938, -0.021423280239105225, -0.49571865797042847, 0.3669784367084503, -0.2099006175994873, -0.23194169998168945, 0.009379565715789795, -0.3394205570220947, 0.39970189332962036, -0.6437532305717468, 0.03347384184598923, 0.07030487805604935, -0.1567503809928894, 0.03667879104614258, 0.04231828451156616, 0.002757549285888672, 0.3352166712284088, 0.4595768451690674, -0.39508700370788574, 0.00780409574508667, 0.371779203414917, 0.03848916292190552, 0.46985924243927, 0.44195836782455444, 0.40206724405288696, -0.26339811086654663, 0.40632307529449463, 0.2768977880477905, -0.333379864692688, 0.319765567779541, -0.1923767328262329, -0.11442738771438599, 0.06480884552001953, -0.4595690369606018, -0.228510320186615, 0.39061927795410156, 0.44548332691192627, -0.02182590961456299, 0.43363505601882935, -0.14709800481796265, 0.3169323801994324, -0.04634392261505127, 0.3076496720314026, -0.14733994007110596, 0.39805442094802856, 0.042585015296936035, -0.04021251201629639, -0.1349695324897766, 0.13924485445022583, 0.019003629684448242, 0.05753445625305176, -0.38203710317611694, -0.45991629362106323, -0.08783626556396484, 0.2972846031188965, 0.4108487367630005, 0.11612558364868164, -0.35352855920791626, 0.2229871302843094, 0.14138978719711304, -0.24341072142124176, 0.4037899971008301, -0.29334646463394165, -0.24423298239707947, 0.003382444381713867, 0.6072638630867004, -0.6931211948394775, -0.19823607802391052, 0.18279284238815308, 0.280123233795166, 0.0052304863929748535, -0.23204737901687622, 0.01728975772857666, 0.42180174589157104, -0.07039928436279297, 0.26529961824417114, 0.05687832832336426, -0.34641337394714355, -0.22259151935577393, 0.1232030987739563, -0.4603719711303711, 0.17394083738327026, 0.13634037971496582, 0.027995429933071136, -0.37374967336654663, -0.18656319379806519, 0.4427352547645569, 0.16583651304244995, 0.47155386209487915, 0.12488007545471191, 0.06861144304275513, 0.35093575716018677, 0.38426804542541504, -0.45657968521118164, 0.1390443742275238], [-0.17525547742843628, 0.028390944004058838, -0.47888606786727905, -0.4991697072982788, -0.33550429344177246, -0.08601856231689453, 0.016432423144578934, 0.18494278192520142, -0.42889487743377686, -0.31523042917251587, 0.19831326603889465, 0.16527801752090454, 0.10435962677001953, -0.2878202199935913, 0.08538606762886047, -0.3602488040924072, 0.05981183052062988, 0.39901119470596313, -0.1940176784992218, 0.48272931575775146, 0.41928714513778687, -0.18089443445205688, 0.7456119656562805, -0.2800601124763489, 0.48066234588623047, 0.11046183109283447, -0.02289620041847229, -0.42531460523605347, -0.1329435557126999, 0.4236152768135071, 0.083432137966156, 0.1341978907585144, -0.08352574706077576, -0.3186473250389099, -0.3271920680999756, -0.04879128932952881, -0.1502184271812439, -0.5374753475189209, 0.011498600244522095, -0.009037613868713379, -0.28828227519989014, -0.061237335205078125, -0.07894307374954224, -0.29272037744522095, 0.10069990158081055, 0.19619137048721313, 0.09412997961044312, 0.07878261804580688, -0.25208836793899536, 0.19767236709594727, -0.4248132109642029, 0.02864520251750946, 0.06069894880056381, 0.05060267448425293, -0.2925378084182739, 0.40956777334213257, -0.11032754182815552, -0.40080881118774414, -0.13315200805664062, 0.12135779857635498, 0.1295669674873352, -0.3471858501434326, 0.37368810176849365, 0.0755578875541687, -0.25533437728881836, 0.4176768660545349, 0.025101840496063232, -0.1974579095840454, -0.3242863416671753, 0.30885326862335205, 0.33530664443969727, -0.039655208587646484, 0.22857743501663208, -0.14438264071941376, -0.038495659828186035, 0.4497869610786438, 0.3723129630088806, -0.382385790348053, 0.36625200510025024, -0.2719716727733612, -0.07132939994335175, 0.08105875551700592, -0.05352243781089783, -0.46598732471466064, 0.1662198007106781, -0.36309361457824707, 0.11723494529724121, -0.06678123772144318, 0.03536597639322281, -0.17820808291435242, -0.3624981641769409, -0.2680843472480774, -0.3217240571975708, -0.2218780815601349, -0.22922906279563904, -0.23991340398788452, -0.38426774740219116, -0.026993095874786377, 0.04687154293060303, -0.0839889645576477, -0.46622830629348755, -0.4661319851875305, 0.4990587830543518, 0.27593687176704407, -0.19961678981781006, -0.3873870372772217, 0.44257551431655884, 0.4132581949234009, 0.3768022060394287, -0.17354871332645416, -0.10718798637390137, 0.5456007719039917, -0.11769115924835205, 0.22576779127120972, -0.08209645748138428, -0.3213918209075928, -0.13655513525009155, 0.06451243162155151, -0.39335930347442627, -0.3821985125541687, -0.40918272733688354, 0.43201208114624023, 0.38439881801605225, 0.006856195628643036, 0.13800588250160217, -0.016159653663635254, -0.009533107280731201, 0.29264146089553833], [-0.20641833543777466, -0.42310047149658203, 0.39449331164360046, -0.22900766134262085, -0.5619565844535828, 0.42770320177078247, 0.12383604049682617, 0.18510131537914276, 0.00919407606124878, 0.3994811177253723, -0.3009659945964813, 0.11270040273666382, -0.01860937289893627, 0.22242522239685059, 0.30800020694732666, 0.10956740379333496, -0.21198832988739014, -0.4392540454864502, -0.052308738231658936, -0.4704679846763611, 0.14702767133712769, -0.2578046917915344, 0.39257633686065674, -0.49793314933776855, 0.15066713094711304, -0.014835953712463379, -0.1083289384841919, 0.47627443075180054, -0.1488628387451172, -0.5027047395706177, -0.1242871880531311, -0.2577437162399292, 0.22739046812057495, -0.045237064361572266, -0.4276171028614044, -0.03424643725156784, -0.6569673418998718, 0.592720627784729, 0.24198544025421143, -0.47389358282089233, 0.3576226234436035, -0.25384050607681274, -0.24919363856315613, -0.031179845333099365, 0.16427958011627197, 0.5559815764427185, 0.047748029232025146, -0.31383591890335083, 0.0271875262260437, 0.12246144562959671, -0.0070531368255615234, 0.2876914143562317, 0.429606556892395, 0.06930159032344818, 0.3342195153236389, -0.39356425404548645, -0.05346357822418213, 0.27711424231529236, -0.011591494083404541, -0.0801011323928833, 0.16081976890563965, 0.38095420598983765, -0.3119767904281616, -0.05446124076843262, 0.054180264472961426, -0.4873606264591217, 0.21232330799102783, -0.3852700889110565, -0.04308038949966431, -0.13410627841949463, 0.17599880695343018, 0.25318586826324463, 0.3684101700782776, -0.49345386028289795, -0.32052338123321533, -0.3559507727622986, 0.08188951015472412, -0.250469446182251, -0.12858468294143677, 0.023189246654510498, -0.21249455213546753, 0.41993457078933716, 0.5049687623977661, 0.5492537021636963, 0.09623020887374878, 0.3839053511619568, 0.4550701379776001, -0.2268967479467392, 0.38336843252182007, -0.4192291498184204, 0.02939838171005249, -0.43711602687835693, 0.40167659521102905, -0.1508697271347046, -0.3196662664413452, -0.46089887619018555, -0.334893137216568, -0.1428496241569519, -0.06027412414550781, 0.31112170219421387, 0.028930246829986572, -0.2597581744194031, 0.07088321447372437, -0.07476604729890823, 0.04598096013069153, -0.3169547915458679, -0.4376083016395569, 0.111430823802948, -0.1296837329864502, 0.2681478261947632, -0.47591280937194824, -0.02197153866291046, -0.3023534417152405, 0.23294448852539062, 0.45633628964424133, 0.0643400251865387, 0.4428706169128418, 0.13058853149414062, -0.0031104087829589844, 0.3962169885635376, -0.32135307788848877, -0.34737324714660645, 0.008793309330940247, -0.22067052125930786, -0.48454147577285767, -0.30047860741615295, -0.4124906659126282, -0.3807540535926819], [0.055967748165130615, -0.2704154849052429, -0.42839616537094116, -0.007375776767730713, -0.5574508905410767, -0.18597030639648438, -0.4105297923088074, -0.48670142889022827, 0.06717079877853394, -0.3123267889022827, 0.17725272476673126, 0.21213620901107788, 0.4817928671836853, 0.3669701814651489, 0.07106679677963257, 0.27579253911972046, -0.023495376110076904, 0.05990120768547058, 0.36995750665664673, 0.20034699141979218, -0.34478843212127686, -0.469642698764801, -0.3272024989128113, 0.057836100459098816, -0.23145300149917603, 0.3350529670715332, -0.47413498163223267, -0.10335284471511841, -0.33267515897750854, -0.25554925203323364, -0.24430537223815918, -0.14460937678813934, 0.12111890316009521, -0.2781422734260559, 0.2276242971420288, 0.17371541261672974, -0.4314758777618408, -0.2735087275505066, -0.6842975616455078, -0.4836512804031372, 0.2026655077934265, -0.27116137742996216, 0.19909554719924927, 0.43825018405914307, 0.40826982259750366, -0.24876707792282104, -0.004709996283054352, 0.5938670039176941, 0.4971016049385071, -0.4597451090812683, -0.04081273078918457, -0.40575140714645386, 0.5379276871681213, -0.43170252442359924, 0.03194767236709595, -0.10422524809837341, -0.25127696990966797, -0.2799645662307739, 0.30681824684143066, 0.14592617750167847, -0.20243436098098755, -0.19729501008987427, -0.265266478061676, 0.33749157190322876, 0.052570641040802, -0.3503527045249939, -0.0393247976899147, 0.05884653329849243, 0.3479164242744446, -0.46334952116012573, -0.21979880332946777, 0.3287767767906189, -0.30542904138565063, 0.4239569306373596, -0.1339215636253357, -0.018580913543701172, -0.39168912172317505, 0.534133791923523, -0.27626293897628784, 0.36142492294311523, -0.2908775806427002, 0.0596081018447876, -0.0021067261695861816, 0.36271023750305176, -0.3526827096939087, 0.5012964606285095, 0.27033531665802, 0.24884635210037231, 0.4583597779273987, -0.0916319191455841, 0.32045334577560425, 0.18718141317367554, -0.349937379360199, 0.450832724571228, 0.12073534727096558, -0.3895992040634155, -0.2530844211578369, 0.719497561454773, -0.014070257544517517, 0.42784857749938965, -0.3565678596496582, 0.2990306615829468, -0.3956425189971924, 0.0961645245552063, -0.4350762367248535, -0.1819649338722229, 0.35966813564300537, -0.21331270039081573, -0.06492424011230469, -0.10654402524232864, -0.11800235509872437, -0.18297213315963745, 0.4463053345680237, 0.19671785831451416, -0.16040223836898804, 0.2189822793006897, 0.3626614212989807, 0.004128620028495789, -0.021858006715774536, 0.44759827852249146, -0.06499189138412476, -0.00635933130979538, -0.05658978223800659, 0.050719261169433594, -0.2803223133087158, 0.41739267110824585, -0.08565747737884521, -0.2802497148513794], [0.1558457612991333, 0.09568971395492554, 0.2611665725708008, -0.42717522382736206, -0.3791491389274597, -0.047868430614471436, -0.4331693649291992, 0.20235824584960938, -0.07685773819684982, -0.22421640157699585, -0.2051951289176941, -0.12408989667892456, 0.3099176287651062, 0.4147246479988098, 0.4143500328063965, 0.293076753616333, -0.2857184410095215, -0.3852534294128418, 0.2804875671863556, 0.08555875718593597, -0.236572265625, -0.44258010387420654, 0.023813307285308838, 0.36228716373443604, -0.19275778532028198, -0.3186571002006531, 0.5793383121490479, -0.2781935930252075, -0.39135313034057617, 0.6360494494438171, 0.01056891679763794, 0.48624688386917114, 0.4437284469604492, 0.17375344038009644, -0.4643861651420593, -0.000734373927116394, -0.4483066201210022, 0.3366127610206604, -0.2550196647644043, -0.28099918365478516, -0.31571269035339355, 0.34869247674942017, -0.17384034395217896, -0.28978270292282104, 0.044464051723480225, -0.13454830646514893, 0.05530518293380737, 0.12151610851287842, 0.43938982486724854, -0.11018651723861694, 0.08930130302906036, -0.48620104789733887, -0.11683803796768188, 0.17777815461158752, 0.028612732887268066, 0.3391445279121399, 0.2845034599304199, 0.23884926736354828, -0.4289184808731079, -0.21953696012496948, 0.6119399070739746, 0.00924062728881836, -0.01123887300491333, -0.09591597318649292, 0.322273850440979, -0.03209388256072998, 0.17713642120361328, 0.36164945363998413, 0.18996204435825348, 0.01971656084060669, 0.48145627975463867, -0.4127209186553955, 0.44477206468582153, -0.36885693669319153, -0.04948371648788452, -0.09429126977920532, -0.09588700532913208, -0.3906586766242981, -0.04694917052984238, 0.2811264991760254, 0.17654354870319366, 0.44685813784599304, -0.029316458851099014, 0.2975432872772217, 0.2280992865562439, 0.3535553812980652, -0.5635174512863159, 0.280173659324646, -0.26807618141174316, 0.17872768640518188, -0.3032962679862976, -0.2633934020996094, 0.48210608959198, -0.23714131116867065, 0.01703500747680664, -0.08947443962097168, -0.030575275421142578, -0.24889913201332092, 0.0538058876991272, 0.32351934909820557, 0.3562124967575073, 0.06542672216892242, -0.15713244676589966, 0.275882750749588, -0.2921018600463867, -0.3891485333442688, 0.15647757053375244, -0.32743972539901733, -0.005591928958892822, -0.41342300176620483, -0.7570979595184326, -0.2539745569229126, 0.09300494194030762, 0.3167617917060852, 0.10278379917144775, -0.21354305744171143, 0.29188090562820435, 0.16151387989521027, 0.1380072832107544, -0.03709030896425247, 0.24972862005233765, 0.4752582907676697, 0.2893942892551422, -0.13672184944152832, 0.4746403694152832, 0.16288405656814575, -0.39908772706985474, -0.2748008370399475], [0.4173694849014282, 0.03452301025390625, 0.3025449514389038, -0.29691654443740845, 0.3099623918533325, -0.19095230102539062, 0.0390629768371582, -0.32743775844573975, -0.5658814311027527, 0.17421585321426392, 0.4063211679458618, 0.20302923023700714, 0.17932862043380737, -0.47129136323928833, -0.34194016456604004, 0.24819165468215942, 0.11102622747421265, 0.2242394983768463, 0.27504366636276245, -0.10873532295227051, -0.3743027448654175, 0.11230820417404175, -0.4723341464996338, 0.23814332485198975, 0.4478793144226074, 0.15633726119995117, 0.4200226068496704, -0.29269731044769287, -0.03651052713394165, 0.3925221562385559, 0.2286003828048706, 0.13930249214172363, -0.3715779185295105, -0.39971059560775757, -0.49709630012512207, -0.29478371143341064, 0.4864159822463989, 0.15048354864120483, 0.14485758543014526, 0.4782707691192627, 0.3496530055999756, -0.023720331490039825, -0.2556356191635132, -0.09768851101398468, 0.33233192563056946, -0.3260149359703064, -0.40799832344055176, -0.03467071056365967, 0.08515340089797974, -0.253229022026062, 0.34998977184295654, -0.264775812625885, 0.3697134852409363, -0.48957788944244385, 0.31013810634613037, 0.039595961570739746, -0.16469407081604004, -0.2869960069656372, 0.3671587109565735, 0.27418142557144165, 0.3413196802139282, 0.2240055352449417, 0.8717944622039795, -0.14637798070907593, 0.3752332329750061, 0.4434695243835449, 0.42462092638015747, -0.08360320329666138, -0.1868920922279358, 0.3361966013908386, -0.24120277166366577, 0.1920516937971115, -0.405974805355072, 0.06806427240371704, -0.08164811134338379, -0.2897294759750366, -0.05959033966064453, -0.05034102872014046, -0.3552342653274536, -0.1080273985862732, 0.20235788822174072, -0.2893293499946594, -0.012660741806030273, -0.1349019855260849, 0.05694222450256348, 0.2208227515220642, -0.06624311208724976, 0.020482130348682404, -0.01862436532974243, 0.4622429609298706, -0.21274107694625854, -0.38335132598876953, 0.08966857194900513, 0.4704490303993225, -0.14863616228103638, -0.1278402954339981, 0.2258499264717102, -0.06425690650939941, 0.2878468632698059, -0.05815154314041138, 0.24754881858825684, 0.3585931658744812, 0.07070598751306534, -0.011812332086265087, -0.405309796333313, 0.5596986413002014, -0.009995579719543457, -0.40999120473861694, 0.021904120221734047, -0.21981127560138702, -0.10300910472869873, -0.21067720651626587, 0.4844796657562256, 0.4634689688682556, 0.18597835302352905, -0.3728600740432739, 0.1547744870185852, 0.22303301095962524, -0.16288846731185913, -0.47111833095550537, -0.730888843536377, 0.06837731599807739, 0.4462347626686096, -0.36645591259002686, 0.1267966628074646, -0.035286903381347656, -0.3723219633102417, -0.43669605255126953], [0.2390594482421875, 0.13436710834503174, -0.3698346018791199, 0.19482356309890747, -0.13790690898895264, -0.5535573363304138, 0.43988102674484253, -0.10462945699691772, 0.1898307204246521, 0.022402912378311157, 0.2448735237121582, 0.27197265625, -0.24046015739440918, 0.336578905582428, -0.2275543212890625, -0.2676975131034851, 0.07237386703491211, -0.07909221947193146, -0.3617344796657562, -0.2151457667350769, 0.2631568908691406, 0.16538166999816895, 0.6575039029121399, 0.023088455200195312, 0.4632416367530823, -0.37994861602783203, -0.07226806879043579, -0.29102200269699097, -0.18570536375045776, -0.0963888168334961, 0.4230663776397705, -0.15304780006408691, -0.26820117235183716, 0.21289601922035217, 0.12022668868303299, -0.03145486116409302, 0.3199225068092346, 0.4844086170196533, 0.2860678434371948, -0.3746556043624878, -0.13686776161193848, 0.013632774353027344, -0.11221814155578613, 0.11630755662918091, -0.3641853928565979, -0.14649832248687744, 0.3956894278526306, 0.5231882333755493, -0.3740946054458618, 0.3062742352485657, 0.05731022357940674, -0.36594563722610474, -0.7807053327560425, -0.1283503770828247, -0.22598052024841309, -0.01897794008255005, 0.043512165546417236, 0.5040935277938843, 0.13437402248382568, 0.4986133575439453, 0.3098161220550537, 0.34401005506515503, -0.34103018045425415, 0.4000715911388397, 0.43514615297317505, 0.06571686267852783, 0.39789891242980957, -0.19249308109283447, 0.1260489523410797, -0.2007131576538086, -0.036499738693237305, -0.5471488237380981, -0.6282248497009277, -0.10563813149929047, -0.21811461448669434, -0.4906842112541199, 0.3379530906677246, 0.4468335509300232, -0.0507473349571228, 0.4332132339477539, 0.12296402454376221, 0.06905466318130493, 0.28697681427001953, 0.09423601627349854, -0.2395188808441162, -0.37446218729019165, 0.18791013956069946, -0.29454490542411804, 0.29173755645751953, -0.23694533109664917, -0.25519949197769165, 0.23776966333389282, 0.5713507533073425, 0.38236504793167114, -0.30756086111068726, 0.7048706412315369, -0.6024804711341858, -0.3085145950317383, -0.4056832194328308, 0.04539006948471069, -0.39700794219970703, -0.2484557032585144, 0.3399893045425415, -0.19214975833892822, 0.33435046672821045, 0.04749166965484619, 0.2864062190055847, -0.18717890977859497, 0.12953031063079834, -0.052876055240631104, -0.471160352230072, -0.33724695444107056, -0.249531090259552, 0.12274515628814697, -0.16686497628688812, -0.21835744380950928, -0.3995550870895386, 0.10965090990066528, 0.3466953635215759, 0.3385363221168518, -0.11932975053787231, -0.027911901473999023, 0.2732323408126831, 0.2852684259414673, 0.34449827671051025, 0.5373376607894897, 0.2224157452583313, -0.1943792700767517], [0.3789566159248352, -0.40604859590530396, -0.20322242379188538, -0.45170336961746216, 0.0466693639755249, -0.3616218566894531, -0.07359236478805542, -0.3048197627067566, -0.38257843255996704, 0.24859189987182617, 0.23702079057693481, 0.4008476734161377, 0.42342209815979004, -0.40640324354171753, -0.1608959436416626, -0.47097790241241455, -0.012603245675563812, 0.2869706153869629, -0.10765093564987183, -0.05209237337112427, 0.007818490266799927, -0.18045872449874878, 0.4626320004463196, 0.04174100607633591, 0.3837044835090637, 0.21284613013267517, 0.28644251823425293, 0.25799059867858887, 0.02489250898361206, -0.46139687299728394, -0.16369353234767914, -0.030506938695907593, 0.12400239706039429, 0.28495460748672485, 0.30615463852882385, 0.17851324379444122, -0.40748023986816406, 0.06065655127167702, 0.009742915630340576, 0.16320094466209412, 0.17883184552192688, -0.006513357162475586, 0.018861539661884308, -0.06951195001602173, -0.4642186164855957, 0.19356238842010498, -0.007066011428833008, 0.1133916825056076, 0.16205626726150513, -0.5829173922538757, 0.41454392671585083, 0.3441629409790039, 0.027213871479034424, 0.23060622811317444, 0.5820766091346741, 0.09914416074752808, 0.4812775254249573, 0.43129682540893555, 0.4388362169265747, 0.21614092588424683, -0.39770859479904175, 0.43421393632888794, -0.35790908336639404, 0.08022379875183105, 0.02556508034467697, -0.4909577965736389, -0.01919955015182495, -0.44212019443511963, 0.289425790309906, -0.6881056427955627, 0.41304177045822144, -0.1070547103881836, -0.6465328931808472, -0.2866445779800415, -0.14494770765304565, 0.2017308473587036, -0.11923565715551376, -0.22489309310913086, 0.4818003177642822, 0.4489399194717407, -0.43351954221725464, 0.33650290966033936, -0.10918489098548889, 0.08269566297531128, 0.19440078735351562, 0.025788068771362305, 0.018204927444458008, -0.340442419052124, -0.2527964115142822, 0.07384669780731201, -0.1679639220237732, 0.39149925112724304, 0.3550119996070862, -0.11830531805753708, 0.35959434509277344, 0.2510072886943817, -0.03820696473121643, 0.27048593759536743, 0.24144986271858215, 0.14432531595230103, 0.4163668155670166, -0.43123847246170044, -0.5223785042762756, -0.4495251178741455, -0.05983084440231323, 0.27784964442253113, -0.3849644958972931, 0.20722085237503052, 0.15586674213409424, -0.15807873010635376, 0.3367490768432617, -0.11063873767852783, 0.190691739320755, 0.45882147550582886, -0.27582570910453796, -0.30431389808654785, 0.21406808495521545, -0.4682491421699524, 0.2622310519218445, 0.009373068809509277, -0.18465185165405273, -0.4858972728252411, 0.16123121976852417, -0.190534770488739, -0.33982473611831665, 0.46273159980773926, 0.48700666427612305, -0.48475825786590576], [-0.44373559951782227, 0.2263219952583313, 0.016763389110565186, 0.37032216787338257, 0.15175902843475342, -0.1907525658607483, -0.4316590428352356, -0.054507628083229065, 0.07447075843811035, -0.45441073179244995, -0.18628424406051636, -0.39225172996520996, 0.3378670811653137, 0.3587648868560791, 0.49591100215911865, -0.4457893371582031, -0.08305725455284119, -0.2410597801208496, -0.5509041547775269, -0.3262566924095154, -0.34608376026153564, 0.4077761769294739, -0.1003493070602417, 0.3536282181739807, -0.12207245826721191, 0.12833142280578613, 0.008005976676940918, -0.2949921488761902, -0.1985989212989807, 0.36130934953689575, 0.42697492241859436, 0.04615670442581177, 0.17321616411209106, 0.3381836414337158, -0.07395941019058228, 0.13401591777801514, 0.040181029587984085, -0.0320398211479187, -0.31137606501579285, -0.29808759689331055, 0.4094064235687256, -0.060621798038482666, 0.2165890336036682, -0.10155390202999115, 0.22417420148849487, -0.45315343141555786, -0.06596560776233673, 0.006211757659912109, -0.428634911775589, -0.4500585198402405, -0.48134803771972656, 0.03419315814971924, 0.23344473540782928, 0.4712710678577423, -0.1420191526412964, 0.32879018783569336, -0.24689632654190063, 0.32504981756210327, 0.29933470487594604, 0.44835180044174194, -0.44087183475494385, 0.19194716215133667, 0.16877993941307068, 0.24323970079421997, -0.2603275775909424, 0.05337750166654587, 0.0735890120267868, -0.2343350648880005, 0.35161590576171875, 0.006019711494445801, -0.3778992295265198, 0.5158997178077698, 0.23663067817687988, -0.3806309700012207, -0.40478670597076416, -0.4319097399711609, 0.11587315797805786, -0.3000171184539795, -0.26779717206954956, -0.14654701948165894, 0.20734091103076935, -0.07454341650009155, -0.8823932409286499, 0.1391494870185852, 0.34986448287963867, 0.3248065114021301, 0.06653934717178345, -0.16956788301467896, -0.5200797319412231, 0.09459535032510757, -0.3965088725090027, -0.29157865047454834, -0.17017081379890442, -0.45420438051223755, -0.49803799390792847, 0.2927812933921814, -0.17343652248382568, 0.08881640434265137, 0.5961788892745972, 0.1101306676864624, 0.26738959550857544, 0.333801805973053, -0.28851163387298584, -0.16162005066871643, 0.34971219301223755, 0.5636033415794373, 0.4136871099472046, -0.2806800901889801, -0.23361700773239136, -0.20304816961288452, -0.019746065139770508, -0.15752892196178436, -0.5072077512741089, 0.42398422956466675, 0.10745048522949219, -0.07561743259429932, -0.2747418284416199, 0.06331700086593628, 0.49732619524002075, -0.046170078217983246, -0.31818950176239014, 0.027496039867401123, -0.023899123072624207, 0.208360493183136, 0.28165364265441895, 0.39757877588272095, -0.46046966314315796, -0.2573447823524475], [0.13498489558696747, -0.11777885258197784, -0.4791872501373291, 0.4683634042739868, -0.4479711651802063, 0.38144487142562866, -0.14655059576034546, -0.21023553609848022, -0.34250012040138245, 0.2288234531879425, 0.220858633518219, 0.03767015039920807, 0.21662050485610962, -0.3095366358757019, -0.23729956150054932, -0.03886783868074417, -0.6966817378997803, -0.012172959744930267, 0.204889714717865, 0.03416478633880615, -0.156546950340271, 0.31545722484588623, 0.41896945238113403, -0.15019959211349487, -0.29469984769821167, -0.026226460933685303, -0.26624804735183716, 0.49507325887680054, 0.24360257387161255, -0.2400844842195511, -0.034355223178863525, -0.34570738673210144, -0.2962539792060852, -0.10495513677597046, 0.1416792869567871, -0.163821280002594, -0.008877359330654144, -0.46742093563079834, -0.5440663695335388, -0.2884369194507599, 0.19305413961410522, -0.3725659251213074, 0.17232146859169006, 0.4550759494304657, -0.3718816041946411, -0.40533941984176636, -0.2361903190612793, -0.20966243743896484, -0.4084663987159729, 0.1619536280632019, -0.1708318591117859, 0.35629385709762573, -0.08524665236473083, -0.16323424875736237, 0.09714680910110474, 0.2853257656097412, -0.06931018829345703, -0.30723387002944946, -0.4841341972351074, 0.13095511496067047, 0.45910218358039856, -0.005921125411987305, 0.05014139413833618, -0.2596812844276428, 0.17138993740081787, 0.3187561631202698, 0.1947486400604248, 0.1551680564880371, 0.48260697722435, 0.045615047216415405, 0.08058774471282959, 0.3121795654296875, -0.4868929386138916, 0.16620802879333496, 0.27926236391067505, 0.3714296519756317, 0.25740036368370056, -0.36492133140563965, 0.20987820625305176, 0.46475455164909363, 0.4645616412162781, 0.2560657262802124, 0.14821606874465942, -0.012594044208526611, 0.027920126914978027, 0.3728739619255066, 0.3802735209465027, -0.3908090591430664, -0.21245954930782318, 0.1908496618270874, -0.17704921960830688, -0.17061352729797363, -0.46388500928878784, 0.013040799647569656, -0.06427240371704102, 0.2836229205131531, -0.31327641010284424, -0.18203449249267578, -0.3693716526031494, -0.40353068709373474, -0.6177270412445068, 0.20184487104415894, 0.26790517568588257, -0.7392058372497559, -0.24196654558181763, -0.3128085732460022, -0.4472018778324127, 0.10862153768539429, -0.46518027782440186, -0.1876593828201294, 0.48394209146499634, 0.40009504556655884, 0.21516376733779907, -0.2737433910369873, 0.33093565702438354, -0.05450236797332764, -0.30944791436195374, 0.10989230871200562, -0.24092267453670502, 0.4674227237701416, 0.3360735774040222, -0.04175390303134918, -0.41570261120796204, 0.12491245567798615, -0.2067064642906189, 0.23405462503433228, -0.36557579040527344, -0.49194061756134033], [0.2565482258796692, -0.4800631105899811, -0.05045744776725769, 0.4135957956314087, 0.18815672397613525, -0.3597310185432434, -0.1051323264837265, 0.2797701954841614, 0.4227796196937561, 0.3070219159126282, -0.07177609205245972, 0.46802765130996704, 0.3042406439781189, -0.4031919836997986, 0.32849544286727905, -0.27107322216033936, -0.33702942728996277, -0.07454276084899902, 0.32747727632522583, -0.31917765736579895, 0.0027167201042175293, 0.3180661201477051, -0.20425373315811157, -0.3500897288322449, -0.14897745847702026, 0.06412407755851746, -0.053696513175964355, -0.1917933225631714, -0.3485710024833679, 0.25103968381881714, -0.12202185392379761, -0.01370016485452652, -0.24492287635803223, -0.7722321152687073, 0.11220882833003998, -0.21039867401123047, 0.4767841696739197, -0.20153802633285522, 0.4335981011390686, -0.29966846108436584, -0.14604157209396362, -0.2746294140815735, 0.3769541382789612, 0.1409333348274231, 0.22002637386322021, 0.2782794237136841, -0.3547295928001404, -0.47681695222854614, -0.22287112474441528, -0.17964839935302734, -0.4264899492263794, -0.08858543634414673, 0.39485347270965576, 0.29890957474708557, 0.46586841344833374, 0.27064210176467896, -0.2843940854072571, -0.04605776071548462, -0.03617437183856964, 0.46101081371307373, -0.052704572677612305, -0.23902851343154907, 0.39761483669281006, -0.3931179642677307, -0.09780889749526978, -0.34352564811706543, 0.3099311590194702, 0.4440051317214966, 0.0349082350730896, 0.09718436002731323, 0.1892879605293274, -0.37891918420791626, -0.18751311302185059, 0.17083540558815002, -0.4722512364387512, -0.30619311332702637, -0.14469468593597412, -0.183243989944458, -0.2190936952829361, 0.39593470096588135, 0.12183419615030289, -0.2567670941352844, -0.07975693047046661, -0.45937585830688477, -0.15389545261859894, -0.30001240968704224, -0.049766987562179565, -0.12240137159824371, 0.4344770312309265, 0.39306116104125977, 0.16286474466323853, -0.39124470949172974, 0.0178566575050354, -0.18192869424819946, -0.317493736743927, 0.09058421850204468, -0.15675032138824463, -0.08175742626190186, 0.2722160816192627, -0.06681662797927856, 0.09367959201335907, -0.016412734985351562, 0.3758086860179901, 0.08097392320632935, -0.11783367395401001, 0.4601750373840332, -0.17721576988697052, -0.10036355257034302, -0.39944061636924744, 0.1247599720954895, -0.22184151411056519, 0.43621009588241577, -0.20840734243392944, 0.4538324475288391, 0.5187550783157349, -0.5027389526367188, 0.1687597632408142, 0.3976248502731323, 0.2585516571998596, 0.254230260848999, 0.1662493348121643, 0.020357251167297363, 0.14881503582000732, -0.06963378190994263, -0.22667241096496582, 0.31496357917785645, 0.11634692549705505, -0.03907442092895508], [0.25604307651519775, 0.407537043094635, -0.25211870670318604, -0.4446445107460022, -0.20767951011657715, -0.3422356843948364, 0.3621235191822052, 0.010312676429748535, 0.412788987159729, -0.36113113164901733, 0.5011919736862183, -0.28615838289260864, 0.055545464158058167, -0.4065738320350647, 0.46592116355895996, -0.4657810926437378, 0.36409181356430054, -0.397103488445282, 0.07603645324707031, 0.4548211097717285, 0.06489837169647217, 0.03846430778503418, 0.3282698392868042, -0.20231419801712036, 0.38046425580978394, -0.07422906160354614, -0.022831469774246216, -0.08748722076416016, 0.4878760576248169, -0.39072978496551514, -0.17899659276008606, 0.16280144453048706, 0.46992027759552, -0.20499801635742188, -0.1820095181465149, -0.5128870010375977, 0.4670560956001282, -0.4046124815940857, 0.05958724021911621, 0.34659266471862793, 0.14750534296035767, 0.024783670902252197, 0.5123404860496521, -0.32134291529655457, 0.10385924577713013, -0.47998934984207153, 0.1211467981338501, -0.25674140453338623, 0.2678444981575012, -0.33786940574645996, -0.2512285113334656, -0.030416369438171387, 0.05733382701873779, -0.4186531901359558, 0.3974636197090149, -0.334031879901886, -0.1616765856742859, 0.3411901593208313, -0.6243959665298462, -0.21981114149093628, 0.17264294624328613, 0.14437001943588257, -0.028085995465517044, -0.3044204115867615, -0.3088572025299072, 0.45549094676971436, -0.041119277477264404, -0.1368923783302307, 0.2497696876525879, 0.10608096420764923, -0.10034387558698654, 0.17441803216934204, 0.44431889057159424, 0.23877936601638794, -0.3776789903640747, -0.0781516432762146, 0.2878871560096741, -0.09271985292434692, -0.2877829968929291, -0.24691474437713623, -0.2175387740135193, 0.09374111890792847, 0.37492305040359497, -0.03133976459503174, 0.6618659496307373, -0.04681625962257385, -0.0745537281036377, 0.29256725311279297, -0.6329443454742432, -0.5854367613792419, -0.09129253774881363, -0.3786141872406006, -0.14221905171871185, -0.22055813670158386, 0.04622204601764679, -0.0351107195019722, 0.1606605052947998, 0.2835578918457031, -0.21246175467967987, 0.08101506531238556, 0.1975046992301941, 0.11248832941055298, 0.2706345021724701, 0.17806756496429443, -0.27911242842674255, -0.21159180998802185, -0.4397696256637573, -0.2916640639305115, 0.41423940658569336, 0.4443718194961548, 0.2917633056640625, -0.4386565685272217, 0.4730185568332672, -0.3218727707862854, 0.18079066276550293, -0.11461994796991348, 0.30943745374679565, -0.25133204460144043, 0.3741292357444763, -0.10017610341310501, 0.11641031503677368, 0.07537955045700073, 0.45695194602012634, -0.11413852870464325, -0.3168794512748718, 0.2393675446510315, 0.4746057391166687, -0.1993200182914734], [0.2221851944923401, 0.48374325037002563, -0.005707919597625732, 0.3484596014022827, -0.4018688201904297, 0.32050973176956177, 0.0978507399559021, 0.4236081838607788, 0.1493312120437622, 0.11867368221282959, 0.16937822103500366, 0.0015484094619750977, 0.49968868494033813, -0.20813250541687012, 0.4198780655860901, -0.41033679246902466, -0.4781739115715027, -0.2975858449935913, 0.02036893367767334, 0.24034005403518677, 0.0020618848502635956, 0.07851377129554749, -0.19590669870376587, 0.18772321939468384, -0.24089205265045166, 0.2128937840461731, 0.2847171723842621, 0.09589838981628418, 0.3022748827934265, 0.14142227172851562, 0.7614550590515137, 0.7632758617401123, 0.381622314453125, 0.37384963035583496, -0.36843442916870117, -0.37737637758255005, -0.13438153266906738, -0.23431813716888428, 0.029466092586517334, 0.3018110990524292, 0.42089563608169556, -0.3465791344642639, -0.20357120037078857, -0.050239741802215576, -0.3768581748008728, -0.14440053701400757, 0.3415752053260803, -0.28477388620376587, -0.36655324697494507, -0.01571965217590332, 0.020857766270637512, 0.34621548652648926, 0.36102259159088135, 0.4106229543685913, 0.38571634888648987, -0.33684441447257996, -0.39402520656585693, 0.3678264617919922, -0.2846284508705139, 0.3567773103713989, -0.1601186990737915, -0.43349748849868774, -0.45588088035583496, 0.08581885695457458, 0.03396189212799072, 0.08909255266189575, -0.030736982822418213, 0.46510249376296997, -0.14546120166778564, 0.39213845133781433, 0.3544093370437622, -0.0571439266204834, 0.31337082386016846, 0.23371505737304688, -0.023398995399475098, -0.11368072032928467, -0.407945454120636, 0.4160306453704834, -0.4849616289138794, -0.36253267526626587, 0.5858488082885742, 0.18819576501846313, 0.3203929662704468, -0.3565937280654907, 0.12928026914596558, 0.43458878993988037, 0.0017718672752380371, -0.42539161443710327, -0.17649024724960327, 0.36374080181121826, -0.030189812183380127, 0.3812946677207947, 0.27744436264038086, -0.2875388264656067, 0.2797810435295105, -0.041906438767910004, 0.3375948369503021, -0.027196072041988373, 0.496038019657135, -0.3125484585762024, 0.22097617387771606, 0.22082749009132385, -0.1447772979736328, 0.19009995460510254, -0.486200749874115, 0.09563478827476501, 0.5447114706039429, -0.12363690137863159, 0.15814703702926636, 0.11380863189697266, -0.027479171752929688, -0.42042112350463867, -0.3094416856765747, 0.380535364151001, 0.4110645651817322, -0.15602213144302368, -0.4839879274368286, 0.30632495880126953, -0.3263246417045593, 0.14612196385860443, -0.052713118493556976, -0.14871129393577576, 0.3304446339607239, -0.11560770869255066, 0.42719337344169617, 0.3223447799682617, 0.33343905210494995, 0.41084885597229004], [-0.05895504355430603, -0.09067700803279877, -0.35280972719192505, 0.11856848001480103, -0.10092224925756454, -0.07442540675401688, -0.40828436613082886, -0.2638719081878662, -0.10983860492706299, -0.47172969579696655, 0.35645240545272827, 0.3935251235961914, -0.38846367597579956, 0.07723760604858398, 0.15942347049713135, 0.09930843114852905, -0.05949747562408447, -0.0982123613357544, -0.09559708833694458, -0.4047648310661316, -0.09254325926303864, -0.1644812822341919, 0.2829075753688812, -0.15577079355716705, 0.2929743528366089, 0.08254188299179077, -0.09545373916625977, 0.5177224278450012, 0.34435850381851196, -0.4187122583389282, -0.03369826078414917, -0.4709550142288208, -0.09517014026641846, -0.18639886379241943, 0.14797531068325043, 0.4924476146697998, -0.07699555158615112, -0.03861720487475395, -0.06703639030456543, -0.02321547269821167, 0.20769643783569336, 0.42497390508651733, -0.24614322185516357, -0.4202226400375366, -0.23851077258586884, 0.4844159483909607, 0.2338535040616989, 0.06634801626205444, 0.03311944007873535, -0.2807154059410095, 0.26633793115615845, -0.02256488800048828, 0.343550443649292, -0.0584445595741272, 0.04862987995147705, 0.05185282230377197, -0.2955596446990967, 0.29244548082351685, -0.2774348258972168, 0.26198798418045044, -0.5445230603218079, -0.2400273084640503, -0.4155735373497009, 0.1898316740989685, 0.15392088890075684, -0.003436446189880371, 0.3913281559944153, -0.3870311975479126, 0.2781335115432739, -0.05096966028213501, -0.23261845111846924, 0.06719404458999634, -0.030883073806762695, 0.22941261529922485, 0.11960834264755249, 0.49967190623283386, -0.3985501527786255, 0.15174219012260437, 0.4616830348968506, -0.058366596698760986, -0.39284950494766235, -0.2941049635410309, -0.14504116773605347, -0.26159441471099854, -0.3807106614112854, -0.5282230973243713, -0.3791506290435791, -0.39978963136672974, -0.22117100656032562, -0.334231436252594, -0.35007697343826294, 0.46898579597473145, 0.4498027563095093, 0.41789108514785767, 0.11759495735168457, -0.49626392126083374, 0.2401989996433258, -0.4635578393936157, 0.49935880303382874, -0.10115575790405273, 0.012594342231750488, 0.033093273639678955, -0.15284037590026855, 0.10786420106887817, -0.05382372438907623, -0.4584721326828003, 0.21661287546157837, 0.30856990814208984, 0.18710142374038696, -0.14814090728759766, 0.37288445234298706, 0.05051659792661667, 0.4854487180709839, -0.28199154138565063, 0.48404574394226074, -0.12958920001983643, -0.19571831822395325, 0.3238612711429596, -0.35250967741012573, 0.3267417550086975, -0.14897722005844116, -0.4150121212005615, 0.08464503288269043, -0.9560951590538025, -0.13483640551567078, -0.11628913879394531, 0.23118597269058228, 0.3297526240348816], [0.1396816074848175, 0.48815256357192993, 0.4780550003051758, 0.3306722640991211, -0.34391725063323975, 0.16626286506652832, -0.12333321571350098, 0.35394197702407837, 0.17370402812957764, -0.4218893349170685, -0.4936710596084595, 0.3197367489337921, -0.4610893726348877, -0.47221839427948, 0.4115414619445801, 0.41203606128692627, 0.19553148746490479, 0.15090103447437286, 0.015594065189361572, -0.003691215068101883, 0.3029811978340149, 0.10251426696777344, -0.49098941683769226, 0.11873400211334229, -0.18049943447113037, -0.32196927070617676, 0.29938167333602905, -0.3452908396720886, -0.45276254415512085, 0.1714017391204834, 0.10449688136577606, 0.005474398843944073, 0.40748727321624756, -0.3909943103790283, -0.8253735303878784, 0.12429461628198624, 0.23646971583366394, -0.4179195761680603, -0.07323640584945679, -0.3362583816051483, -0.2813606858253479, 0.47330063581466675, -0.5367329716682434, -0.31330418586730957, -0.3432464599609375, -0.38903361558914185, -0.25646698474884033, -0.005632117390632629, 0.3929481506347656, -0.2880949378013611, 0.2872547507286072, -0.14131122827529907, 0.3243679404258728, -0.19843065738677979, -0.04937124252319336, -0.49780285358428955, 0.19195079803466797, -0.45333218574523926, -0.11146813631057739, -0.2857537865638733, -0.16190385818481445, 0.2000522017478943, 0.37917351722717285, 0.05560070276260376, -0.43547341227531433, -0.23958921432495117, 0.07539594173431396, 0.36104708909988403, -0.23076051473617554, 0.4645662307739258, -0.03813502565026283, -0.28807806968688965, 0.26225635409355164, 0.04014134407043457, -0.09747446328401566, -0.3413679003715515, -0.20072752237319946, 0.33326494693756104, -0.19530194997787476, -0.4343000054359436, 0.48134279251098633, 0.5752675533294678, -0.08138617128133774, 0.47218775749206543, 0.3110802173614502, 0.06110602617263794, 0.4880121946334839, -0.1331951916217804, 0.2120215743780136, 0.3138604760169983, 0.22201421856880188, -0.2015497386455536, 0.43568235635757446, 0.37225914001464844, 0.3280754089355469, -0.17898213863372803, 0.35529303550720215, 0.40380430221557617, 0.07304000854492188, 0.42642539739608765, 0.40469980239868164, -0.4229285717010498, -0.10992991924285889, -0.07276601344347, 0.3580799698829651, 0.4871531128883362, -0.03896576166152954, 0.07395967096090317, -0.4329378604888916, -0.39572298526763916, 0.17478877305984497, 0.45089268684387207, 0.18319165706634521, 0.2003214955329895, 0.3837595582008362, -0.31860458850860596, 0.0035013556480407715, 0.2968621850013733, -0.4757465124130249, -0.19018486142158508, 0.4708872437477112, -0.19350393116474152, -0.17957910895347595, 0.5735663771629333, 0.3847719132900238, 0.3906727433204651, 0.36874479055404663, -0.4730072021484375], [-0.020255088806152344, 0.0029278993606567383, 0.31850409507751465, -0.05311828851699829, 0.0643591582775116, -0.2932097315788269, 0.4340088963508606, 0.23864728212356567, -0.1317993402481079, -0.06766533851623535, 0.2088557928800583, 0.26658695936203003, -0.06586891412734985, -0.11956501007080078, -0.29840087890625, 0.4785901606082916, -0.4176226258277893, -0.3881811499595642, -0.08424657583236694, 0.3201253414154053, -0.08627951145172119, -0.2939000725746155, -0.012579262256622314, -0.17764770984649658, 0.47887200117111206, 0.14398157596588135, -0.021367967128753662, 0.023774027824401855, 0.04443114995956421, -0.04788912832736969, -0.11173447966575623, -0.29788583517074585, 0.011216700077056885, -0.3770126402378082, 0.09608995914459229, -0.04185573011636734, -0.06945055723190308, 0.2810494005680084, -0.20131628215312958, 0.11879191547632217, 0.20651257038116455, -0.37566113471984863, -0.12415885925292969, -0.2729247212409973, 0.3820893168449402, 0.2402118444442749, -0.1580389142036438, -0.3040744662284851, 0.3497309684753418, -0.19090628623962402, 0.09946763515472412, 0.29086190462112427, 0.6253483891487122, 0.2666923999786377, -0.026496421545743942, 0.4517282247543335, 0.23774921894073486, 0.4183295965194702, -0.4220442771911621, -0.031625896692276, -0.0960155576467514, -0.4608437418937683, 0.1560150384902954, 0.028137803077697754, 0.2636096477508545, 0.18756036460399628, -0.055477023124694824, 0.28022080659866333, -0.023669421672821045, 0.24660205841064453, 0.01535719633102417, -0.024842679500579834, -0.19721487164497375, -0.4516202211380005, -0.3297622799873352, 0.28357362747192383, 0.3832024931907654, 0.47696900367736816, 0.07664408534765244, 0.45856839418411255, 0.17425638437271118, 0.004499480128288269, -0.35261422395706177, -0.35635465383529663, 0.44264596700668335, 0.20317727327346802, -0.457200825214386, -0.03178441524505615, -0.2760276794433594, -0.3350204825401306, -0.2337232232093811, 0.2120743989944458, 0.2279215306043625, 0.2236841320991516, -0.1865168809890747, -0.15147674083709717, 0.4662126898765564, 0.13310617208480835, -0.3817351460456848, -0.2553356885910034, 0.2851060628890991, 0.038784511387348175, -0.4481487274169922, 0.5968242287635803, -0.3466170132160187, -0.17188099026679993, 0.3654617667198181, 0.016862094402313232, -0.3038969933986664, -0.16811352968215942, 0.48721134662628174, -0.22233295440673828, 0.21761995553970337, -0.47382470965385437, 0.44606906175613403, -0.040362775325775146, 0.06505489349365234, 0.0847482681274414, 0.47078242897987366, -0.35678529739379883, -0.3376067280769348, 0.06868894398212433, -0.009767149575054646, -0.20800814032554626, -0.016504842787981033, 0.10744369029998779, 0.2099100947380066, 0.6354902386665344]], "hidden_weights": [[-0.3988427221775055, -0.31223636865615845, -0.25149136781692505, 0.06919382512569427, -0.41835349798202515, 0.24140377342700958, -0.34420809149742126, -0.08413314819335938, 0.25574684143066406, 0.22310808300971985, -0.2601126432418823, 0.4065805673599243, -0.0899922251701355, 0.4003051519393921, -0.019404053688049316, -0.1908436417579651, 0.2694472074508667, 0.05394458770751953, -0.193243145942688, 0.15917551517486572, -0.2583203911781311, -0.1174439787864685, 0.6867101192474365, -0.20812773704528809, -0.39750486612319946, 0.4495844841003418, -0.14937099814414978, 0.23661518096923828, 0.4022410213947296, -0.36012205481529236, 0.43813174962997437, 0.48297178745269775, -0.2505265474319458, 0.2777523398399353, 0.3042944669723511, -0.24820250272750854, -0.1533568948507309, -0.027154982089996338, 0.47902631759643555, 0.04317343235015869, 0.45473289489746094, -0.10949122905731201, -0.432167649269104, -0.26656997203826904, -0.22482329607009888, -0.11850130558013916, -0.4801735281944275, -0.4518003463745117, 0.30878716707229614, -0.4345394968986511, -0.4766392111778259, -0.18877756595611572, 0.39661186933517456, -0.3120989203453064, -0.4664052128791809, -0.2345503568649292, -0.30668413639068604, -0.44174623489379883, -0.29052674770355225, 0.17595446109771729, 0.09959709644317627, 0.3574371933937073, 0.4443449378013611, -0.2777538001537323], [0.3171389698982239, 0.337324321269989, 0.3977547287940979, 0.125660240650177, 0.062057673931121826, 0.08942173421382904, -0.0954248309135437, -0.07727795839309692, 0.3782002925872803, 0.6007094383239746, 0.2842056155204773, 0.40034061670303345, -0.3353123068809509, 0.16459348797798157, -0.4453696012496948, 0.5388184189796448, 0.17487990856170654, -0.4703260064125061, 0.22072935104370117, 0.24604040384292603, -0.3630930483341217, 0.20572662353515625, -0.12453591823577881, 0.17426276206970215, 0.39419394731521606, -0.3055272698402405, -0.31075096130371094, 0.40121006965637207, -0.21794140338897705, -0.16713225841522217, 0.4191064238548279, -0.458221435546875, 0.024734437465667725, 0.4377531409263611, -0.21192872524261475, -0.4971271753311157, -0.13052713871002197, -0.4404556453227997, 0.39320141077041626, -0.5983040928840637, 0.0665939450263977, 0.1251124143600464, 0.30888932943344116, 0.18111389875411987, -0.37834256887435913, -0.12090134620666504, 0.05006927251815796, 0.314323365688324, -0.23024265468120575, 0.26196742057800293, -0.31314557790756226, -0.11377137899398804, -0.4840971827507019, -0.29044604301452637, 0.11314350366592407, -0.3832176923751831, -0.2646130621433258, -0.1815924048423767, 0.4030739367008209, -0.32978010177612305, 0.5856491327285767, -0.011907637119293213, 0.3274577260017395, -0.3404686450958252], [0.49115580320358276, -0.08536535501480103, 0.013986997306346893, -0.43241000175476074, -0.48693251609802246, 0.12040257453918457, 0.20096546411514282, -0.002137601375579834, -0.1425657868385315, -0.00574105978012085, 0.10326898097991943, 0.4621052145957947, -0.1611567735671997, 0.23774850368499756, 0.08130639791488647, -0.25340938568115234, -0.1349620372056961, -0.10561801493167877, 0.4576542377471924, 0.1432773470878601, -0.7180487513542175, -0.05152800679206848, 0.046128980815410614, 0.38978755474090576, 0.2078564167022705, 0.458767831325531, 0.7599721550941467, 0.32222360372543335, 0.10566889494657516, 0.3017943501472473, -0.2147316336631775, 0.37634050846099854, 0.48404598236083984, -0.03889232873916626, -0.27473172545433044, -0.27976155281066895, 0.36516273021698, -0.4189186692237854, -0.3551315665245056, 0.2325555384159088, -0.5503491163253784, -0.2966412305831909, 0.14148616790771484, -0.20614661276340485, 0.19658148288726807, -0.34535545110702515, 0.00894579105079174, 0.14768940210342407, 0.20100247859954834, -0.37643375992774963, 0.09790104627609253, 0.3162234425544739, 0.3616616725921631, 0.43983250856399536, -0.2993895411491394, -0.05550652742385864, 0.09615236520767212, -0.09058612585067749, 0.22061705589294434, 0.3141532838344574, -0.3934707045555115, -0.12475377321243286, 0.005748644936829805, 0.03964734077453613], [-0.06259274482727051, 0.01267927885055542, 0.07016429305076599, 0.2439001202583313, -0.1797533631324768, -0.11724375188350677, 0.29565101861953735, 0.26926547288894653, 0.10205590724945068, -0.4068261981010437, -0.18018430471420288, 0.04921466112136841, 0.05218694359064102, -0.06258660554885864, -0.3330909013748169, -0.5668924450874329, -0.32664334774017334, -0.35702353715896606, 0.13885772228240967, -0.5222333669662476, 0.21965140104293823, -0.08079454302787781, -0.3170154094696045, 0.35684990882873535, -0.05432971194386482, 0.27196046710014343, -0.3144400119781494, -0.26666250824928284, 0.22462671995162964, 0.5311998724937439, -0.389346718788147, 0.17563775181770325, 0.4532553553581238, -0.036266207695007324, 0.2605043351650238, 0.5761626958847046, 0.23770774900913239, -0.04549151659011841, -0.4341775178909302, -0.4472309947013855, -0.09341287612915039, -0.3963637948036194, 0.15343749523162842, 0.04392277076840401, 0.2333119511604309, -0.27767395973205566, 0.24841801822185516, -0.18980014324188232, 0.2277545928955078, -0.16553863883018494, -0.34069228172302246, -0.4293801188468933, 0.3115314245223999, -0.5607999563217163, -0.3808140754699707, 0.03891921043395996, 0.4297837018966675, -0.47491949796676636, -0.45826083421707153, -0.11764949560165405, -0.03931146860122681, -0.19154275953769684, -0.4473420977592468, -0.3479064106941223], [0.014883160591125488, -0.04806399345397949, 0.2750188708305359, 0.39804089069366455, -0.37039506435394287, -0.16487783193588257, -0.3569225072860718, 0.4633338451385498, -0.23706156015396118, 0.3036870062351227, 0.3181679844856262, 0.42381399869918823, -0.42519980669021606, 0.2468005120754242, -0.06784559786319733, -0.21240836381912231, 0.29994767904281616, 0.09412264823913574, -0.22751998901367188, 0.03772890567779541, -0.40686333179473877, 0.3655092120170593, -0.44355541467666626, -0.6500082015991211, 0.5421332716941833, -0.33228015899658203, 0.07798413932323456, -0.13126140832901, -0.028531372547149658, -0.061452627182006836, 0.10522812604904175, -0.23670578002929688, -0.43361663818359375, 0.11069361865520477, -0.31608134508132935, -0.47920650243759155, -0.05564701557159424, -0.4057164788246155, 0.1537172794342041, -0.10362127423286438, -0.24754470586776733, 0.2580689787864685, 0.31117457151412964, 0.22517366707324982, -0.42115557193756104, -0.2227548211812973, 0.5938620567321777, -0.2685226798057556, -0.45401710271835327, -0.013244152069091797, 0.1417657732963562, -0.3943065404891968, -0.12823402881622314, 0.15569937229156494, -0.04710686206817627, -0.22676122188568115, 0.32830286026000977, 0.48858964443206787, 0.30640774965286255, -0.46177685260772705, -0.24163633584976196, -0.503735363483429, -0.28379130363464355, -0.13192880153656006], [-0.18654972314834595, 0.4245300889015198, 0.2482920140028, -0.1460733562707901, -0.00581388920545578, 0.12553739547729492, 0.25628840923309326, 0.2671305537223816, 0.5612624883651733, 0.016065657138824463, 0.2939912676811218, -0.26917344331741333, 0.21941471099853516, 0.3772040903568268, 0.19556522369384766, -0.26201683282852173, 0.4145195484161377, -0.2122122049331665, 0.25342226028442383, -0.39888858795166016, -0.2823116183280945, 0.08544042706489563, 0.45630931854248047, 0.4282369017601013, 0.1517401933670044, 0.44507718086242676, -0.39608848094940186, 0.3819321393966675, 0.021699262782931328, 0.3281481862068176, -0.3118833303451538, 0.026318252086639404, 0.17302006483078003, 0.6750036478042603, -0.17642253637313843, 0.5878922343254089, 0.0047263503074646, 0.25806307792663574, -0.17074239253997803, -0.4445877969264984, 0.14007866382598877, -0.2535513639450073, 0.2598644495010376, 0.3773142397403717, -0.0004162788391113281, -0.2979322671890259, -0.10607308149337769, 0.479084849357605, 0.3224453926086426, -0.46405255794525146, 0.5128864049911499, -0.17090219259262085, -0.0896720290184021, -0.4766796827316284, -0.46406078338623047, -0.33198413252830505, 0.06088721752166748, 0.013813614845275879, 0.004918813705444336, -0.4552319645881653, 0.47671031951904297, -0.30727553367614746, -0.3224033713340759, 0.4452980160713196], [-0.7858483791351318, 0.4746624827384949, 0.20796489715576172, -0.2123018503189087, 0.4062047600746155, 0.11340108513832092, 0.0556720495223999, -0.591011106967926, 0.10619306564331055, -0.35834819078445435, 0.08209729194641113, 0.5199868083000183, -0.4687312841415405, -0.02697455883026123, -0.4845092296600342, 0.4787411093711853, 0.12346917390823364, 0.12748892605304718, -0.35153716802597046, 0.06185263395309448, -0.2509590983390808, 0.444441556930542, 0.2310388684272766, 0.13209420442581177, 0.6242153644561768, 0.039524853229522705, 0.42424190044403076, 0.3752439618110657, -0.2551981210708618, 0.2357170581817627, 0.33041244745254517, 0.3699876666069031, -0.06999653577804565, -0.22569434344768524, -0.0399167537689209, -0.16362500190734863, 0.1896842122077942, 0.3558463752269745, 0.35661518573760986, 0.06981801986694336, -0.3025725483894348, -0.30115389823913574, -0.2772524356842041, 0.49379849433898926, 0.05390805006027222, -0.05961307883262634, 0.39068329334259033, -0.18876193463802338, 0.3089865446090698, 0.18337291479110718, -0.7959988117218018, 0.4964534044265747, -0.036642491817474365, 0.25792163610458374, -0.11295545101165771, 0.4978794455528259, 0.09320193529129028, -0.10502537339925766, -0.2688789963722229, -0.24034786224365234, 0.39797839522361755, 0.3362211585044861, 0.4683187007904053, 0.2588891386985779], [0.20226889848709106, 0.34102898836135864, 0.24335600435733795, 0.3475572466850281, 0.5150602459907532, -0.24488401412963867, -0.41838228702545166, 0.2075245976448059, 0.1979614496231079, -0.2915630340576172, -0.38175374269485474, -0.548896849155426, -0.20758700370788574, -0.32501572370529175, 0.22914783656597137, 0.024471640586853027, -0.23457765579223633, -0.5624744296073914, 0.4390738010406494, -0.18886631727218628, -0.43356770277023315, -0.33449065685272217, 0.5156466960906982, 0.23101043701171875, -0.7042826414108276, -0.20810958743095398, 0.4848628640174866, 0.32185184955596924, -0.24614973366260529, -0.019560709595680237, -0.22698764503002167, 0.09518986195325851, 0.24274270236492157, 0.2365618646144867, 0.5168629288673401, -0.13243842124938965, 0.33680880069732666, 0.0028693154454231262, -0.4972384572029114, -0.14786970615386963, -0.4380505084991455, 0.5771691203117371, -0.07818450033664703, 0.33361294865608215, 0.20828551054000854, 0.4093164801597595, -0.16333943605422974, 0.49830758571624756, 0.06553059816360474, -0.014738202095031738, 0.16151148080825806, -0.24176321923732758, 0.007166624069213867, -0.3768026828765869, 0.4563121795654297, 0.29523545503616333, -0.11535876989364624, -0.6166335940361023, -0.2917676568031311, -0.4230227470397949, -0.2576363980770111, 0.27518364787101746, 0.31218117475509644, 0.33811259269714355], [0.12946882843971252, -0.1514543890953064, -0.314126193523407, -0.32291358709335327, -0.3282615840435028, -0.16413062810897827, -0.3361949920654297, 0.2504696249961853, 0.2151714414358139, 0.176889568567276, 0.3406192660331726, -0.4833686947822571, -0.0199928879737854, -0.25090038776397705, 0.10081877559423447, -0.32299095392227173, 0.43453073501586914, -0.404019832611084, -0.37143784761428833, 0.191884845495224, 0.11531466990709305, 0.35911858081817627, -0.03508579730987549, 0.12625417113304138, -0.23237794637680054, -0.3951902389526367, 0.5002562999725342, -0.04668170213699341, -0.3307645320892334, -0.31199753284454346, -0.47003310918807983, -0.09988707304000854, 0.07390934228897095, 0.10855405032634735, 0.3510025143623352, -0.12081760168075562, 0.358519971370697, 0.03279310464859009, 0.20200508832931519, -0.27011340856552124, 0.27862393856048584, -0.6011847257614136, 0.19435876607894897, 0.43955230712890625, 0.3502853512763977, 0.18618673086166382, -0.32625439763069153, 0.1675911694765091, 0.27715617418289185, 0.7375205755233765, -0.10148060321807861, 0.15199095010757446, 0.1389932632446289, 0.4797118902206421, 0.3439156413078308, -0.20221580564975739, -0.33774030208587646, -0.3788283169269562, 0.42824095487594604, 0.30290764570236206, 0.29267066717147827, 0.1860443353652954, -0.2780502140522003, -0.14170891046524048], [-0.3435768187046051, 0.26004379987716675, 0.11062979698181152, -0.08403974771499634, 0.07264792919158936, -0.30153465270996094, -0.35841137170791626, -0.15191799402236938, -0.010119259357452393, 0.16189467906951904, 0.5616672039031982, -0.2841070294380188, -0.32033681869506836, -0.5780312418937683, -0.6706171035766602, 0.17953704297542572, 0.09789388626813889, 0.0881085991859436, -0.058485984802246094, 0.25437861680984497, -0.38300377130508423, -0.4276442527770996, 0.31849366426467896, -0.28968435525894165, -0.47068488597869873, 0.4082956910133362, 0.0798913836479187, -0.162065327167511, -0.1880471110343933, 0.35500335693359375, 0.325556218624115, -0.12260928004980087, -0.4992126524448395, 0.29862338304519653, 0.507889986038208, -0.07182824611663818, 0.33530765771865845, 0.12792514264583588, -0.029591858386993408, -0.23083919286727905, -0.02984023094177246, -0.26635032892227173, -0.25498276948928833, -0.31755876541137695, 0.031342558562755585, -0.5899217128753662, -0.1200113296508789, -0.810653567314148, -0.428896963596344, -0.2807820737361908, -0.39987611770629883, -0.468655526638031, 0.30265945196151733, -0.09671922773122787, -0.4155311584472656, -0.7107931971549988, -0.297152578830719, -0.2641451954841614, -0.14226937294006348, -0.15665042400360107, -0.44453030824661255, 0.026936262845993042, -0.6830417513847351, 0.28533822298049927], [0.27173465490341187, 0.2929883897304535, -0.3536266088485718, 0.16522681713104248, -0.4793792963027954, 0.41188597679138184, 0.038984835147857666, 0.2112637162208557, -0.2757583260536194, 0.13587790727615356, -0.043454527854919434, -0.27517110109329224, 0.48079460859298706, -0.3941052556037903, -0.4587886929512024, -0.32669246196746826, -0.23136121034622192, -0.15125519037246704, -0.22490531206130981, 0.052758634090423584, 0.2535695433616638, -0.23141920566558838, 0.24146628379821777, 0.2654995918273926, 0.020283520221710205, 0.4711185097694397, 0.05001270771026611, 0.15040647983551025, 0.19060355424880981, -0.41117727756500244, -0.21226143836975098, -0.29828357696533203, 0.4336683750152588, 0.08099761605262756, -0.05911269783973694, 0.6196425557136536, 0.08794528245925903, -0.009672999382019043, 0.479482501745224, 0.03515775501728058, 0.47373825311660767, 0.036150380969047546, -0.32618945837020874, 0.3368722200393677, -0.21313130855560303, -0.06396913528442383, 0.44169723987579346, -0.16806817054748535, -0.009958207607269287, 0.400470495223999, 0.46443045139312744, -0.14158883690834045, 0.6585509777069092, -0.39117780327796936, -0.18663650751113892, 0.714003324508667, 0.33074522018432617, -0.6922538876533508, -0.3535159230232239, 0.4117582440376282, 0.3001185655593872, -0.19850564002990723, -0.3194970488548279, -0.18689580261707306], [-0.3194795846939087, -0.418512225151062, 0.2928594946861267, -0.36360251903533936, -0.20538541674613953, 0.1299535483121872, 0.01365932822227478, 0.28686732053756714, -0.37910133600234985, -0.15622150897979736, 0.3206974267959595, 0.1431363821029663, -0.28128379583358765, -0.23977088928222656, 0.0936826691031456, 0.09248888492584229, -0.2446696162223816, -0.2593461573123932, -0.28992003202438354, -0.30816972255706787, 0.031388409435749054, -0.2956371307373047, 0.030127882957458496, -0.14315330982208252, 0.42442452907562256, 0.28752684593200684, 0.31374138593673706, 0.3683892488479614, -0.10924708098173141, -0.2582128643989563, 0.306926429271698, -0.1623537540435791, -0.495059072971344, 0.38714301586151123, 0.4363035559654236, 0.26404356956481934, 0.3105373680591583, -0.3606511354446411, -0.001532137393951416, 0.2343507707118988, -0.2182455062866211, 0.2408401370048523, -0.42907172441482544, -0.3515656888484955, 0.4377182722091675, -0.42729032039642334, 0.3492172956466675, 0.3022732138633728, -0.47660285234451294, -0.04051405191421509, 0.4698530435562134, 0.05135023593902588, -0.38094234466552734, 0.41599953174591064, 0.1964869499206543, 0.46057629585266113, 0.014803111553192139, -0.47547125816345215, 0.18110644817352295, -0.25063270330429077, -0.0820666179060936, -0.14251470565795898, -0.3032575845718384, 0.4543973207473755], [0.6332004070281982, -0.29202747344970703, -0.12601077556610107, 0.22576242685317993, -0.15293800830841064, 0.26549142599105835, -0.14491242170333862, -0.19997331500053406, -0.4880416989326477, 0.4197452664375305, -0.002976462244987488, 0.2452845573425293, 0.2730252742767334, 0.06175761669874191, 0.2126157134771347, -0.04970353841781616, -0.14176607131958008, -0.24789085984230042, 0.18779945373535156, -0.4537399411201477, 0.13776399195194244, 0.15529745817184448, 0.34889930486679077, -0.34770289063453674, -0.31854549050331116, 0.06945335865020752, 0.2876630425453186, -0.3191335201263428, 0.18805044889450073, -0.13796043395996094, 0.03115120530128479, -0.18146562576293945, -0.37398356199264526, -0.19341117143630981, 0.2981764078140259, 0.42758941650390625, 0.22115832567214966, -0.453258216381073, 0.05769845470786095, 0.27485424280166626, -0.18082395195960999, 0.08247814327478409, -0.32586902379989624, 0.4678614139556885, -0.36181867122650146, 0.3289704918861389, -0.3122246265411377, -0.29015976190567017, -0.18117552995681763, 0.2641363739967346, 0.3589196503162384, -0.10818885266780853, 0.022934697568416595, 0.3087767958641052, -0.291603147983551, -0.07242292165756226, -0.20011110603809357, 0.3367777466773987, 0.25210267305374146, -0.07550644874572754, 0.15790605545043945, -0.1005869060754776, -0.3884623944759369, -0.22945576906204224], [0.07680261135101318, 0.08905279636383057, 0.0030633211135864258, -0.4309367537498474, 0.12972605228424072, -0.11169624328613281, 0.31224513053894043, -0.14692912995815277, -0.33260780572891235, -0.3247220516204834, -0.2852916717529297, -0.3784458041191101, 0.19294148683547974, -0.2713726758956909, -0.4363667368888855, -0.18514585494995117, 0.08336454629898071, -0.40570181608200073, 0.28322654962539673, 0.02862640470266342, 0.5972959995269775, 0.47442662715911865, 0.3721027672290802, 0.465585857629776, -0.18640048801898956, -0.16883528232574463, 0.2793560028076172, 0.11803272366523743, 0.306052565574646, -0.344992995262146, 0.29833686351776123, 0.18894833326339722, 0.4038856029510498, 0.20342737436294556, -0.23190069198608398, 0.2013413906097412, 0.27868539094924927, 0.2788546681404114, 0.024754762649536133, -0.6311103105545044, 0.299227237701416, -0.1514286994934082, -0.36662793159484863, -0.10906746238470078, 0.25353050231933594, 0.6180540323257446, -0.35019344091415405, -0.1829422116279602, -0.045327067375183105, 0.4213011860847473, -0.34538352489471436, -0.1693739891052246, -0.43821144104003906, -0.4166690409183502, 0.2706605792045593, -0.3327706456184387, 0.3525061309337616, -0.40649688243865967, 0.08429111540317535, 0.32464873790740967, -0.5148615837097168, -0.34190720319747925, -0.14578872919082642, 0.08964544534683228], [-0.2327512502670288, 0.3776974081993103, 0.22724395990371704, -0.07406136393547058, 0.33271023631095886, -0.45241302251815796, 0.07438631355762482, 0.13650625944137573, 0.2101285457611084, -0.25564348697662354, -0.47624629735946655, 0.4686703681945801, -0.0821690559387207, -0.2644738256931305, -0.0064220428466796875, 0.11288678646087646, -0.09107068181037903, 0.005344271659851074, 0.27370989322662354, -0.16734957695007324, 0.4699099063873291, 0.13829579949378967, -0.3047631084918976, 0.42370909452438354, -0.4155893921852112, 0.45735931396484375, 0.10087913274765015, -0.2374851107597351, -0.37193453311920166, -0.06177759915590286, -0.5689687132835388, 0.2057807445526123, -0.44678163528442383, 0.37633442878723145, -0.3777850270271301, 0.18696939945220947, 0.3555760383605957, 0.38693132996559143, 0.1941247284412384, 0.16646426916122437, 0.3937529921531677, 0.339277446269989, -0.3537636995315552, -0.272067666053772, 0.40971261262893677, -0.15110379457473755, -0.3071763515472412, 0.28565049171447754, -0.08187777549028397, -0.5133249759674072, 0.16201533377170563, 0.13265030086040497, 0.20947599411010742, -0.22656691074371338, 0.33800816535949707, -0.10801752656698227, -0.2478991150856018, -0.35977646708488464, -0.18733906745910645, 0.44459807872772217, 0.26309382915496826, -0.1686098575592041, -0.2602117955684662, -0.0725177526473999], [-0.14462512731552124, -0.26836979389190674, -0.4183400273323059, 0.31504637002944946, -0.43243858218193054, -0.1621066927909851, -0.25958508253097534, -0.056182265281677246, 0.4107527732849121, 0.013348281383514404, 0.39588701725006104, 0.4412381052970886, 7.925322279334068e-05, 0.25865858793258667, -0.06551176309585571, -0.4300394654273987, 0.01235315203666687, -0.004707813262939453, 0.47762948274612427, 0.210757315158844, 0.00219881534576416, -0.2541400194168091, -0.4355199933052063, 0.042930349707603455, 0.014416038990020752, -0.26460540294647217, -0.31652820110321045, 0.2467382550239563, -0.1599217653274536, 0.4952487349510193, 0.2355988621711731, 0.17666691541671753, 0.3245929479598999, 0.2654203176498413, 0.012159943580627441, -0.271727979183197, 0.38961100578308105, -0.33873212337493896, -0.10722988843917847, 0.4501756429672241, 0.38322269916534424, 0.28050678968429565, 0.11190956830978394, -0.34166204929351807, -0.13431954383850098, 0.45096927881240845, 0.07707825303077698, 0.4970904588699341, 0.2290157675743103, -0.05367159843444824, -0.0009664297103881836, -0.4768804907798767, 0.04350072145462036, -0.30613863468170166, -0.021567106246948242, -0.4267130494117737, 0.10947084426879883, 0.10659536719322205, 0.31685754656791687, -0.35105183720588684, -0.49949151277542114, 0.2101697325706482, 0.37698692083358765, -0.4443435072898865], [0.2944048047065735, -0.09052586555480957, -0.29199695587158203, 0.03350510448217392, -0.227827787399292, -0.3120025098323822, 0.11172378063201904, -0.25312769412994385, -0.6160405874252319, -0.0987006425857544, 0.400407612323761, -0.009687542915344238, -0.05437028408050537, -0.4686611294746399, 0.06325995922088623, -0.30018121004104614, 0.19529396295547485, 0.29731833934783936, 0.07479017972946167, 0.2600634694099426, -0.22125056385993958, 0.1655380129814148, -0.12485837936401367, -0.43318021297454834, -0.2716073989868164, 0.253470778465271, 0.2773653566837311, -0.14233195781707764, -0.21914273500442505, 0.09256738424301147, 0.35605841875076294, -0.11860726773738861, -0.5415967702865601, -0.29646438360214233, 0.12938350439071655, 0.46678388118743896, 0.4622615575790405, 0.06033904477953911, 0.21135663986206055, -0.07596486806869507, -0.21494874358177185, 0.19898003339767456, 0.0767340213060379, 0.09649519622325897, -0.4253072142601013, -0.12866055965423584, -0.2057832032442093, 0.0966835618019104, 0.32897770404815674, -0.29088008403778076, 0.1437414288520813, -0.3135201334953308, -0.019501060247421265, -0.34642764925956726, -0.5620299577713013, -0.2659200429916382, -0.3235810399055481, 0.4495980739593506, 0.29360997676849365, 0.11685854196548462, 0.0074999332427978516, -0.4936152696609497, 0.5082640647888184, 0.015987813472747803], [-0.18112868070602417, 0.022534072399139404, 0.27549201250076294, -0.029667198657989502, -0.041818853467702866, 0.05245661735534668, -0.14619159698486328, 0.38303959369659424, 0.07375133037567139, 0.03745222091674805, 0.3164578676223755, 0.06917667388916016, 0.09912435710430145, -0.37697887420654297, 0.03462570905685425, -0.24244993925094604, 0.4041007161140442, 0.09054765105247498, 0.39498215913772583, -0.2594611644744873, 0.36799466609954834, -0.11679422855377197, 0.4276609420776367, -0.06818169355392456, 0.06114852428436279, 0.13703763484954834, -0.3524817228317261, -0.06904196739196777, -0.06035727262496948, -0.15151667594909668, -0.3077126741409302, -0.270280659198761, -0.0029165148735046387, -0.16136759519577026, -0.42744630575180054, -0.2745521068572998, 0.3565756678581238, 0.29244786500930786, 0.12169909477233887, -0.3417452573776245, 0.1674247831106186, 0.46517983078956604, -0.13695436716079712, -0.4722518026828766, -0.15153135359287262, -0.15306633710861206, 0.4157847762107849, 0.2977328896522522, 0.2708582282066345, 0.25862711668014526, -0.04046130180358887, -0.3882759213447571, 0.08198100328445435, 0.3917798399925232, -0.3578777611255646, -0.07246506214141846, 0.0445285439491272, 0.06568954885005951, -0.5530475378036499, 0.6529858112335205, 0.14467395842075348, 0.4889351725578308, -0.24053287506103516, -0.29290491342544556], [-0.15774548053741455, 0.37782958149909973, 0.11155617237091064, 0.1804060935974121, 0.03883028030395508, 0.3645364046096802, -0.01013326644897461, -0.10172755271196365, -0.13121911883354187, 0.000798344612121582, 0.09480422735214233, 0.1805967092514038, 0.4471461772918701, -0.10979552567005157, 0.49765753746032715, 0.49679723381996155, 0.4045063257217407, 0.106670081615448, 0.13597089052200317, -0.02091526985168457, 0.23076432943344116, 0.21159374713897705, -0.18260562419891357, 0.45212042331695557, -0.650255024433136, -0.3098086714744568, 0.5180382132530212, -0.12895679473876953, 0.4726857841014862, -0.3810428977012634, -0.3947634696960449, -0.40110844373703003, 0.3589542508125305, -0.2954173684120178, 0.12974822521209717, 0.23391538858413696, -0.06177520751953125, 0.5725184679031372, 0.5638319253921509, 0.40711015462875366, 0.46257296204566956, 0.17727582156658173, -0.29760998487472534, -0.3771052956581116, 0.10649192333221436, -0.361974835395813, -0.1590174436569214, -0.352164626121521, -0.4937702417373657, 0.3004288673400879, -0.4312727451324463, 0.2667809724807739, 0.47919005155563354, 0.14476990699768066, -0.2944070100784302, -0.18199144303798676, -0.30769234895706177, -0.3410760760307312, 0.4283040761947632, -0.2595292925834656, 0.050391554832458496, -0.2622169256210327, -0.20458829402923584, -0.24787670373916626], [-0.3169652819633484, -0.28521502017974854, -0.27908557653427124, -0.34054625034332275, 0.03320342302322388, -0.18195247650146484, 0.4613999128341675, 0.14941781759262085, -0.0810135006904602, -0.350177526473999, -0.3539903163909912, 0.4058637320995331, 0.37236014008522034, -0.17071354389190674, 0.02470254898071289, 0.19844025373458862, 0.3312235474586487, -0.24425777792930603, 0.06402504444122314, 0.8423241376876831, -0.4837683439254761, 0.21776938438415527, 0.0742865651845932, 0.2739543616771698, -0.1824401617050171, 0.13823670148849487, -0.44902294874191284, -0.47782832384109497, -0.18757498264312744, -0.034994930028915405, 0.47478121519088745, 0.3172295093536377, 0.4546334743499756, 0.18217194080352783, 0.47194015979766846, -0.07834792137145996, -0.20913076400756836, -0.06978340446949005, 0.2031729817390442, 0.15078800916671753, -0.458493173122406, 0.12215250730514526, 0.1957864761352539, 0.4624074697494507, 0.3150113821029663, 0.09279841184616089, -0.2654561400413513, 0.20315396785736084, 0.5379958152770996, -0.15903770923614502, -0.11181259155273438, 0.3728482127189636, -0.23295752704143524, 0.29596710205078125, -0.3523571491241455, 0.4403577446937561, 0.37429624795913696, -0.33489489555358887, -0.4006114602088928, -0.49308347702026367, 0.2748051881790161, -0.055959414690732956, -0.17731887102127075, -0.15033984184265137], [0.2795478105545044, 0.033796995878219604, 0.24256044626235962, -0.06609970331192017, 0.3827648162841797, -0.32918477058410645, -0.06919533014297485, -0.16626933217048645, 0.30610865354537964, 0.3702571988105774, 0.010787725448608398, 0.14193858206272125, 0.40529531240463257, -0.40525567531585693, -0.3346453309059143, 0.6482206583023071, -0.3746086061000824, -0.04241663217544556, 0.020079873502254486, 0.39873433113098145, 0.4445406198501587, -0.18867582082748413, 0.3394097685813904, -0.4389949440956116, 0.19618237018585205, -0.2407657504081726, -0.2819094657897949, 0.4482458233833313, -0.36477234959602356, -0.39170217514038086, 0.24076926708221436, 0.01154029369354248, -0.08920740336179733, -0.57559734582901, 0.004172861576080322, -0.24289560317993164, 0.22253961861133575, -0.362227201461792, -0.1592615246772766, 0.4803224205970764, -0.31680816411972046, -0.33604562282562256, -0.1382126808166504, -0.5821778774261475, -0.2442893087863922, 0.0919155478477478, -0.02788415551185608, 0.4158838391304016, -0.20275169610977173, -0.11380243301391602, 0.2311706840991974, -0.2539236545562744, -0.4064849615097046, -0.5359240770339966, 0.09585238993167877, 0.30247271060943604, 0.17239472270011902, -0.010142147541046143, -0.10839742422103882, 0.27575159072875977, -0.7611093521118164, -0.058262377977371216, 0.1105349063873291, -0.11316096782684326], [-0.23702603578567505, 0.2871413230895996, 0.07178366184234619, -0.44095832109451294, -0.4314063787460327, 0.13691595196723938, -0.21013498306274414, 0.13901841640472412, 0.04460986703634262, -0.18056021630764008, -0.16040676832199097, -0.5774247646331787, 0.39337483048439026, -0.7974150776863098, 0.3735886812210083, -0.32488274574279785, 0.15030133724212646, -0.39209723472595215, -0.4572502374649048, -0.32781171798706055, -0.3800315856933594, -0.007217526435852051, -0.1705000400543213, 0.4354516863822937, -0.3494420051574707, -0.4863780736923218, 0.1083381175994873, -0.23867636919021606, 0.33706772327423096, 0.44704222679138184, -0.42159056663513184, -0.4771205186843872, -0.4370243549346924, -0.32839012145996094, -0.015439987182617188, -0.4907965660095215, 0.4645869731903076, 0.2855446934700012, 0.4263967275619507, -0.24061745405197144, -0.028540849685668945, -0.04692602902650833, 0.04241520166397095, -0.11676139384508133, -0.23713915050029755, -0.1042085587978363, 0.09835129976272583, -0.04639369249343872, 0.49824258685112, -0.03165796399116516, 0.42484837770462036, -0.3136339485645294, 0.10812091827392578, 0.32016420364379883, 0.2551126480102539, -0.057073771953582764, -0.09149007499217987, -0.38442593812942505, -0.31068843603134155, -0.26202601194381714, 0.3519352972507477, -0.22656553983688354, -0.23268401622772217, 0.14033633470535278], [0.24302679300308228, -0.013946294784545898, 0.18436941504478455, -0.24016326665878296, 0.010539233684539795, 0.3607041835784912, 0.3753398656845093, -0.4498847723007202, 0.48045873641967773, -0.13155460357666016, -0.4231463074684143, 0.3918113708496094, 0.3397061824798584, 0.13306103646755219, 0.11669790744781494, 0.025876056402921677, -0.13997536897659302, -0.38691312074661255, 0.10519236326217651, 0.7828410267829895, 0.17548513412475586, 0.2256859689950943, 0.03524184226989746, 0.47898930311203003, -0.4393523931503296, -0.510787308216095, -0.3532940745353699, -0.24673432111740112, 0.07148108631372452, -0.11667293310165405, 0.18690983951091766, 0.05900953710079193, 0.02257245033979416, -0.2736806869506836, 0.22621318697929382, -0.21693921089172363, -0.028857827186584473, 0.37407225370407104, -0.3834655284881592, 0.4895186424255371, -0.20211166143417358, -0.1419060230255127, 0.4857404828071594, -0.037329599261283875, 0.3137621283531189, 0.009730279445648193, 0.45992034673690796, -0.4487180709838867, 0.5089302062988281, -0.39027178287506104, -0.42978042364120483, 0.2911936044692993, 0.45795196294784546, 0.13779108226299286, -0.15856865048408508, 0.16371722519397736, 0.19633924961090088, 0.29916316270828247, -0.055148646235466, -0.4638800621032715, 0.24113935232162476, -0.20344924926757812, 0.12549905478954315, -0.29792773723602295], [0.3267802596092224, -0.023539721965789795, -0.5576478838920593, -0.04626947641372681, -0.23430132865905762, 0.3738940358161926, -0.48714596033096313, 0.43770742416381836, 0.4541941285133362, -0.3566766381263733, -0.02565479278564453, 0.1901928335428238, -0.39832019805908203, 0.6027257442474365, -0.42062193155288696, 0.12834954261779785, -0.27704471349716187, -0.36616837978363037, 0.16273275017738342, -0.35041505098342896, 0.36556363105773926, -0.059024564921855927, -0.024934768676757812, 0.5938549041748047, 0.18835854530334473, -0.10707130283117294, 0.7321237921714783, 0.07722806930541992, -0.2322072684764862, 0.42416810989379883, -0.47513359785079956, -0.3955586552619934, -0.3098927140235901, 0.4058515429496765, 0.1389467865228653, 0.024936556816101074, 0.17689508199691772, 0.18728673458099365, -0.1717778444290161, 0.36987292766571045, 0.19985979795455933, 0.06528837978839874, 0.2774500250816345, 0.3174211382865906, 0.48721885681152344, -0.08574068546295166, 0.6576021313667297, 0.40589678287506104, -0.09975061565637589, 0.29614800214767456, -0.37907475233078003, -0.09572000801563263, 0.257814884185791, 0.3636934757232666, 0.4818727672100067, 0.008090376853942871, -0.3835415840148926, -0.12550479173660278, 0.22717446088790894, -0.05348905920982361, -0.24514424800872803, -0.1757827252149582, 0.11048012971878052, 0.4635385274887085], [0.05661976337432861, -0.3941691517829895, 0.05632203817367554, 0.21276986598968506, -0.6273792386054993, 0.2029721736907959, 0.16621185839176178, -0.0007177740335464478, -0.2766793370246887, 0.19750219583511353, 0.31914591789245605, 0.49313783645629883, -0.1963273286819458, 0.4509246349334717, -0.5088793635368347, -0.19767874479293823, 0.04915493726730347, 0.098269522190094, -0.014151513576507568, 0.46494680643081665, -0.24639946222305298, 0.06796354055404663, 0.3859604001045227, 0.4309866428375244, -0.12266695499420166, -0.11335036158561707, 0.13682842254638672, 0.42117756605148315, 0.6349307298660278, -0.12641268968582153, 0.34825730323791504, -0.22355306148529053, -0.332098126411438, -0.03677999973297119, 0.023062586784362793, 0.1769128441810608, -0.16027235984802246, 0.011002004146575928, 0.42521601915359497, -0.4127185344696045, 0.07853643596172333, 0.21118761599063873, 0.16912926733493805, -0.18678951263427734, -0.053296275436878204, -0.15375715494155884, 0.033869385719299316, 0.4121119976043701, -0.33117616176605225, -0.35237404704093933, -0.011127650737762451, 0.3103352189064026, -0.31071484088897705, 0.0773584246635437, -0.12855428457260132, -0.39686107635498047, -0.11638379096984863, 0.0031890273094177246, 0.3726170063018799, -0.011282071471214294, -0.2724387049674988, -0.4161044955253601, 0.04044455289840698, -0.15819281339645386], [0.1606963872909546, -0.4581945538520813, 0.15951496362686157, 0.23223277926445007, 0.10751310735940933, -0.09914723038673401, -0.09558981657028198, -0.061591923236846924, 0.08823544532060623, -0.211558997631073, 0.08714950084686279, -0.11711597442626953, -0.2350931167602539, 0.4027409553527832, 0.22951579093933105, 0.392139732837677, -0.2115015983581543, -0.4248562455177307, -0.023041486740112305, -0.34792760014533997, -0.20004194974899292, -0.49779367446899414, -0.08153486251831055, -0.3674565553665161, 0.031374819576740265, 0.22278857231140137, -0.1826898455619812, 0.13623225688934326, 0.3415939211845398, -0.236883282661438, 0.23139989376068115, -0.4009793996810913, 0.1120118722319603, -0.9210759401321411, -0.4904382824897766, 0.2556312084197998, 0.0647241473197937, 0.3712765872478485, 0.019847556948661804, 0.43171805143356323, 0.08440065383911133, 0.06630486249923706, -0.3125179409980774, 0.07826478034257889, 0.2902671694755554, 0.6159277558326721, 0.2879441976547241, 0.038158923387527466, -0.6583573818206787, -0.4554252624511719, 0.07108217477798462, 0.37668555974960327, 0.1469411849975586, -0.3891754746437073, -0.4675856828689575, -0.37315040826797485, 0.15028780698776245, 0.11931580305099487, 0.17628180980682373, -0.055319905281066895, -0.3178451657295227, -0.07488233596086502, 0.03494614362716675, -0.021037817001342773], [-0.03866065293550491, 0.09714335203170776, -0.4560664892196655, -0.499927282333374, 0.3873153328895569, -0.030815422534942627, -0.3758705258369446, 0.09877856075763702, 0.16153520345687866, 0.5267672538757324, 0.3516496419906616, -0.48357611894607544, 0.38232648372650146, -0.3848884701728821, -0.08421677350997925, 0.15895962715148926, 0.4454577565193176, 0.1065182089805603, 0.48116594552993774, 0.42691999673843384, -0.08636564016342163, 0.37834036350250244, 0.23638266324996948, -0.2969471216201782, -0.4982564449310303, -0.33461683988571167, -0.01076728105545044, 0.4087580442428589, 0.030559241771697998, -0.40000760555267334, 0.40730470418930054, 0.1680978685617447, -0.04259401559829712, -0.544990062713623, 0.26144081354141235, -0.14445334672927856, 0.06861799955368042, -0.3417994976043701, 0.23814398050308228, -0.06976372003555298, 0.173781618475914, 0.09110362827777863, 0.0911981463432312, -0.3588241934776306, -0.6843442320823669, -0.2443663477897644, -0.4819777011871338, -0.3650222420692444, -0.7523080110549927, -0.1869828701019287, 0.29640674591064453, -0.4031224250793457, -0.062236785888671875, -0.4379175305366516, 0.4676395058631897, -0.3740490674972534, -0.29000324010849, -0.08945697546005249, 0.12414237856864929, -0.36826092004776, -0.34067314863204956, 0.49888527393341064, 0.3364531099796295, -0.18624338507652283], [-0.2978346645832062, -0.20813405513763428, 0.4954378008842468, -0.20124521851539612, -0.3238828778266907, 0.05212579667568207, -0.31829923391342163, 0.03595205023884773, 0.2541150450706482, -0.254356324672699, -0.008871138095855713, -0.18150120973587036, -0.36014533042907715, -0.5485571622848511, -0.10764729976654053, 0.24357426166534424, 0.3352900445461273, -0.4748932123184204, -0.7685661315917969, 0.265661358833313, 0.23840224742889404, 0.29902225732803345, -0.27485406398773193, 0.09042179584503174, 0.33988893032073975, 0.2916916608810425, 0.5679219961166382, 0.47757840156555176, 0.37340104579925537, -0.11056581884622574, -0.17376405000686646, 0.03819239139556885, 0.060416579246520996, -0.29500073194503784, 0.40622758865356445, -0.4839937090873718, -0.4302733540534973, -0.3253776431083679, -0.36282914876937866, -0.3457481265068054, 0.44343215227127075, 0.33079659938812256, 0.32758021354675293, 0.12516272068023682, 0.1517961621284485, -0.4964143633842468, 0.22268611192703247, 0.184778094291687, -0.4136672019958496, 0.10584035515785217, 0.04448765516281128, 0.07074931263923645, -0.4877222776412964, -0.0005874782800674438, 0.4378429651260376, -0.2816923260688782, -0.0357784628868103, -0.33809271454811096, 0.18014967441558838, -0.04840724170207977, 0.3720972537994385, 0.07307553291320801, -0.3680737018585205, 0.3960742950439453], [-0.31453555822372437, 0.26427263021469116, 0.4496883749961853, -0.22387003898620605, 0.022564589977264404, -0.08704477548599243, -0.11319172382354736, 0.014910101890563965, 0.1533229947090149, -0.16524115204811096, 0.00350189208984375, -0.3988339900970459, 0.36182016134262085, -0.25230878591537476, 0.20876461267471313, -0.48239386081695557, 0.104134202003479, -0.01343417726457119, 0.06445556879043579, -0.0461416095495224, -0.3209109902381897, 0.02044999599456787, -0.415976881980896, -0.34251582622528076, -0.009311258792877197, 0.37783920764923096, 0.21710938215255737, 0.2465888112783432, 0.34961193799972534, -0.18029332160949707, -0.02156388759613037, 0.05794644355773926, -0.023335754871368408, 0.24538785219192505, -0.3797999620437622, 0.3962833285331726, -0.4202619194984436, -0.0008086562156677246, 0.13256987929344177, 0.4182824492454529, 0.29987633228302, -0.37218689918518066, -0.18195879459381104, -0.18852084875106812, 0.4873688817024231, 0.17084532976150513, 0.17718887329101562, 0.412797749042511, 0.5006250143051147, -0.2379027009010315, 0.16903932392597198, -0.035020094364881516, 0.3187357485294342, 0.28111040592193604, -0.2786586284637451, 0.37452805042266846, -0.4255684018135071, 0.10425704717636108, -0.28637805581092834, 0.281538724899292, -0.14076220989227295, 0.09345042705535889, 0.09220290184020996, 0.13583603501319885], [0.011980384588241577, 0.11767053604125977, -0.31127840280532837, -0.4117245078086853, -0.02669692039489746, -0.3182417154312134, 0.13265995681285858, -0.21935522556304932, 0.11821162700653076, -0.2783663272857666, 0.4708265960216522, -0.45401686429977417, -0.1691495180130005, 0.042549967765808105, -0.196985125541687, 0.04928410053253174, -0.5767715573310852, 0.17028462886810303, -0.18960079550743103, -0.0026157498359680176, -0.10735565423965454, -0.43596750497817993, 0.49463212490081787, 0.3852875828742981, -0.07390165328979492, 0.06698137521743774, 0.1502555012702942, 0.1733407974243164, 0.0005544424057006836, -0.22090351581573486, 0.01563817262649536, 0.04557007551193237, 0.6748756170272827, -0.45979738235473633, -0.35503947734832764, 0.4928939640522003, 0.46049314737319946, 0.2864574193954468, -0.12548500299453735, 0.46485447883605957, -0.40637069940567017, -0.6957708597183228, -0.0459313690662384, -0.002382993698120117, 0.30896610021591187, -0.0906531810760498, -0.15927082300186157, -0.29046693444252014, 0.13704699277877808, 0.16963452100753784, -0.1846158653497696, -0.39679813385009766, -0.36112844944000244, 0.5439596176147461, 0.4493602514266968, 0.2136247158050537, -0.12067174911499023, 0.4410113990306854, -0.3172307312488556, 0.20758689939975739, -0.4338724613189697, -0.16837745904922485, -0.28128308057785034, 0.017008543014526367], [-0.20171737670898438, 0.09302067756652832, -0.04791003465652466, 0.40371376276016235, -0.04343050718307495, -0.2416936755180359, 0.5840080976486206, 0.06274503469467163, -0.15693864226341248, 0.31250375509262085, 0.46126455068588257, 0.08448106050491333, 0.06448978185653687, -0.047240614891052246, 0.10569411516189575, -0.16423064470291138, -0.4922744631767273, -0.3568505048751831, 0.12389850616455078, 0.4850066900253296, 0.1440584510564804, 0.0029573440551757812, -0.21115773916244507, 0.4571834206581116, -0.4107344150543213, -0.3916194438934326, 0.16676759719848633, -0.37532347440719604, -0.5181446075439453, -0.3544371724128723, -0.09857353568077087, -0.0946258082985878, 0.2487853318452835, 0.36460813879966736, -0.09490466117858887, 0.17635858058929443, 0.2162398248910904, -0.17941012978553772, 0.370564341545105, -0.26543670892715454, -0.4725932776927948, 0.1886950135231018, -0.21809345483779907, 0.20066167414188385, 0.3927727937698364, 0.385443776845932, 0.20030957460403442, -0.2929201126098633, -0.3712383508682251, 0.49789196252822876, -0.6464395523071289, -0.2835629880428314, -0.00033408403396606445, 0.13331377506256104, 0.2065579742193222, -0.46190106868743896, -0.04069364070892334, 0.1777268648147583, -0.3230900764465332, -0.12170648574829102, 0.207305908203125, -0.23461365699768066, 0.08539775013923645, -0.23061275482177734], [0.2731126546859741, 0.47768083214759827, 0.2616465091705322, -0.3743796944618225, 0.17257559299468994, -0.2686493992805481, 0.008343115448951721, 0.025455832481384277, -0.5302585959434509, -0.03081679344177246, 0.06234922632575035, 0.07706642150878906, 0.07004189491271973, -0.39554059505462646, -0.5938777923583984, -0.41184931993484497, -0.30780696868896484, 0.20032161474227905, -0.36186134815216064, 0.3666747212409973, 0.3497498631477356, -0.4301726222038269, 0.26114869117736816, 0.646382749080658, 0.20960772037506104, 0.477014422416687, -0.14275604486465454, -0.49674296379089355, 0.12678486108779907, -0.022882819175720215, -0.04228717088699341, 0.3272881507873535, -0.37945157289505005, 0.15613096952438354, -0.2575903534889221, -0.37488317489624023, 0.08377677202224731, 0.31922125816345215, 0.4938274621963501, 0.24352025985717773, -0.05772359296679497, -0.43350082635879517, 0.2477462887763977, -0.057730257511138916, 0.26267510652542114, -0.5264204740524292, -0.19762486219406128, -0.12209824472665787, 0.2567634582519531, 0.20993000268936157, 0.30626553297042847, 0.46093302965164185, 0.48575085401535034, 0.0015532374382019043, -0.09131240844726562, -0.4690989851951599, 0.25214308500289917, -0.18058961629867554, 0.5243517160415649, -0.3655220866203308, 0.26845216751098633, -0.06477449834346771, -0.21673494577407837, 0.6122533082962036], [-0.3718993067741394, 0.15916359424591064, -0.17672580480575562, -0.0037949085235595703, 0.22353357076644897, -0.1338929533958435, -0.31609052419662476, -0.3556678295135498, -0.26444703340530396, 0.4748762845993042, 0.35361212491989136, 0.14159345626831055, 0.09860605001449585, 0.23885595798492432, -0.28137704730033875, -0.4739454984664917, 0.2994183301925659, -0.1745140552520752, 0.47520381212234497, 0.48538777232170105, -0.28066861629486084, 0.088004469871521, -0.4651387929916382, 0.21408087015151978, 0.28855767846107483, 0.0066024065017700195, 0.28272706270217896, -0.4594395160675049, -0.12084703147411346, 0.5343708992004395, -0.1195974349975586, -0.1767435073852539, 0.15545886754989624, 0.32583701610565186, -0.35223162174224854, 0.3423330783843994, 0.0201147198677063, -0.3009633421897888, 0.3099125027656555, -0.13752228021621704, 0.26718640327453613, 0.060292840003967285, -0.29817521572113037, 0.3644992709159851, -0.1337345391511917, 0.180447518825531, 0.27827969193458557, 0.38064152002334595, 0.37148988246917725, -0.08143830299377441, 0.062406234443187714, 0.16053694486618042, 0.1489294171333313, 0.23651158809661865, 0.2117282748222351, 0.40055787563323975, -0.19249796867370605, -0.3747597634792328, -0.15602776408195496, 0.29734665155410767, -0.2226657271385193, -0.40432488918304443, -0.11513543128967285, 0.14711982011795044], [0.39602071046829224, 0.4659808278083801, 0.3491453528404236, 0.014838695526123047, -0.2989168167114258, 0.1842634081840515, 0.05635172128677368, -0.3063691258430481, 0.36444294452667236, 0.2079375982284546, 0.42452937364578247, -0.4614439606666565, 0.3851016163825989, -0.34815549850463867, -0.13245457410812378, -0.1228833794593811, -0.015776336193084717, -0.1391705870628357, 0.2714947462081909, 0.18196231126785278, 0.4487221837043762, -0.4782158136367798, -0.17882269620895386, -0.12329427897930145, 0.2617320418357849, 0.04967302083969116, 0.23744851350784302, -0.3259519934654236, 0.37068498134613037, 0.4391571879386902, -0.32388168573379517, -0.14025837182998657, -0.37914222478866577, 0.32760804891586304, 0.33630430698394775, -0.01906675100326538, 0.04566448926925659, -0.33410030603408813, -0.3373648226261139, -0.39554405212402344, 0.45860522985458374, -0.4716535806655884, 0.2196059226989746, -0.595826268196106, 0.5412331819534302, -0.3470901548862457, 0.4932391345500946, -0.0013012290000915527, 0.454162061214447, -0.22646474838256836, -0.44125473499298096, 0.18535929918289185, -0.03977608680725098, -0.16143983602523804, -0.15701216459274292, 0.12637200951576233, 0.1247870922088623, -0.30297356843948364, -0.058806777000427246, 0.6820709705352783, 0.3093094825744629, -0.26754030585289, -0.5651842355728149, -0.45595377683639526], [-0.20674866437911987, -0.35553282499313354, 0.4706152081489563, -0.47635310888290405, 0.269753098487854, 0.4646446108818054, -0.6514720916748047, -0.23748882114887238, -0.007516026496887207, 0.32703930139541626, -0.29901304841041565, 0.14346231520175934, -0.3808588683605194, 0.22864606976509094, -0.4371799826622009, -0.6692834496498108, -0.4922863841056824, -0.042913325130939484, 0.15375575423240662, -0.3045852780342102, 0.40445536375045776, 0.2114385962486267, -0.36163341999053955, 0.376883864402771, 0.41949379444122314, -0.19338613748550415, 0.2894655466079712, 0.14514291286468506, 0.09272527694702148, -0.09946399927139282, 0.3279561996459961, 0.4677051305770874, 0.1260407567024231, 0.45054084062576294, -0.32826077938079834, -0.44482478499412537, 0.31431347131729126, 0.0872035026550293, -0.15903103351593018, 0.3122309446334839, 0.27669286727905273, -0.1249585896730423, 0.29516586661338806, 0.06668668985366821, 0.22152304649353027, 0.47843146324157715, 0.12143433094024658, 0.3220517039299011, -0.460266649723053, -0.15717101097106934, 0.5849846601486206, 0.0016860365867614746, -0.5525864362716675, -0.48925912380218506, -0.06937652826309204, 0.11791771650314331, -0.27859580516815186, 0.4267118573188782, 0.2837771773338318, -0.03816521167755127, 0.40284138917922974, -0.14236325025558472, -0.23936378955841064, 0.43378913402557373], [0.3703319728374481, 0.19880926609039307, 0.0483013391494751, 0.21898657083511353, -0.3291410803794861, -0.2193411886692047, 0.462834894657135, -0.17590144276618958, 0.3843281865119934, -0.021398067474365234, 0.3647090792655945, -0.12450939416885376, 0.38967013359069824, 0.05204826593399048, -0.17798662185668945, 0.2781408429145813, 0.013825595378875732, 0.07823213934898376, 0.0827680230140686, 0.17317688465118408, -0.05998319387435913, 0.15030725300312042, 0.38042259216308594, 0.14323800802230835, -0.36766281723976135, 0.4692004323005676, 0.1943504810333252, 0.06199920177459717, 0.011789046227931976, 0.529297411441803, -0.20351386070251465, 0.03645545244216919, 0.3068981170654297, 0.3373456597328186, 0.30199241638183594, 0.34986770153045654, 0.13100498914718628, -0.520485520362854, -0.3597015142440796, -0.39943036437034607, 0.40210920572280884, 0.5484514832496643, 0.5795186758041382, -0.4129405617713928, -0.41700002551078796, -0.25520581007003784, -0.5972018837928772, -0.3611244559288025, -0.12202136218547821, 0.16193731129169464, -0.42843174934387207, -0.07554543018341064, 0.12404179573059082, -0.2601807415485382, -0.16511327028274536, 0.3891862630844116, -0.21397536993026733, -0.46875202655792236, -0.3894375264644623, 0.35416653752326965, 0.11729049682617188, -0.34614938497543335, -0.40108466148376465, -0.3945881724357605], [0.2107750028371811, -0.3378846347332001, -0.005342423915863037, -0.018710792064666748, 0.01493106596171856, -0.4423717260360718, 0.171514630317688, -0.28044265508651733, -0.0038709044456481934, 0.4095218777656555, -0.45451831817626953, 0.2760358452796936, 0.0354611873626709, -0.44492119550704956, -0.47371959686279297, 0.35223445296287537, 0.4004365801811218, 0.020661115646362305, 0.22037920355796814, -0.43929463624954224, -0.19973565638065338, 0.38016775250434875, 0.2368343025445938, 0.3744557499885559, -0.1367390751838684, -0.23489755392074585, 0.3278747797012329, 0.32199275493621826, 0.011290311813354492, -0.4247426986694336, -0.14944341778755188, -0.44748395681381226, 0.5809509754180908, -0.4348255395889282, 0.08105256408452988, -0.025799870491027832, 0.03997159004211426, -0.3224598169326782, 0.09258711338043213, 0.006064958870410919, -0.13203102350234985, 0.3586679697036743, -0.6270737051963806, -0.270855188369751, 0.4453304409980774, 0.26269835233688354, 0.20622903108596802, 0.010590970516204834, 0.484200656414032, 0.06235301494598389, -0.39532986283302307, -0.11179417371749878, -0.03241682052612305, 0.3486904203891754, -0.11874920129776001, -0.029759705066680908, -0.16178618371486664, 0.2721945643424988, 0.3348633050918579, 0.3201482892036438, 0.0451665073633194, 0.007624387741088867, -0.3215084671974182, -0.5274377465248108], [-0.39079004526138306, -0.13636434078216553, -0.032523803412914276, 0.1791740208864212, -0.5296663641929626, 0.18249279260635376, -0.5765358209609985, -0.21115881204605103, 0.4913981556892395, -0.47184062004089355, -0.4656146168708801, -0.1582043170928955, 0.0015538334846496582, 0.3087558150291443, 0.5878090262413025, -0.4210418462753296, 0.04689905047416687, -0.4676148593425751, 0.028586149215698242, -0.3392674922943115, 0.27858150005340576, 0.019582509994506836, -0.14571821689605713, -0.3358275294303894, -0.18182611465454102, -0.2528929114341736, -0.44706279039382935, 0.40961527824401855, -0.1921241730451584, -0.07216081023216248, -0.34146833419799805, 0.4287770092487335, 0.187864750623703, 0.49703359603881836, -0.4833524227142334, -0.015721917152404785, -0.15751206874847412, 0.13684457540512085, -0.023283056914806366, 0.16254101693630219, -0.12306499481201172, -0.03999960422515869, 0.09247754514217377, -0.4906873106956482, -0.12873856723308563, -0.3670978546142578, -0.12866175174713135, 0.24913275241851807, 0.416084349155426, -0.07372000813484192, 0.09694701433181763, -0.1941181868314743, -0.16635102033615112, -0.04274940490722656, 0.37472230195999146, -0.38780009746551514, -0.6348761320114136, 0.2716200053691864, 0.23169755935668945, -0.1744120717048645, 0.04054754972457886, -0.48325270414352417, -0.185313880443573, 0.18607330322265625], [0.4444558024406433, -0.1557215303182602, 0.00030291080474853516, -0.09650105237960815, 0.25442570447921753, 0.2807301878929138, 0.3396584987640381, 0.147602379322052, 0.014240503311157227, 0.30487966537475586, -0.45549869537353516, 0.0025295019149780273, 0.12975043058395386, -0.18020421266555786, 0.1436949372291565, 0.15476644039154053, -0.10094578564167023, 0.3815714716911316, 0.5739457011222839, 0.37605035305023193, 0.46795687079429626, -0.5262640714645386, 0.15271860361099243, 0.12215828895568848, 0.005866825580596924, -0.1450411081314087, -0.10118299722671509, 0.24173825979232788, -0.13095957040786743, -0.1389513611793518, -0.17869162559509277, 0.00043827295303344727, 0.03059375286102295, 0.4967506527900696, -0.12592874467372894, 0.24209199845790863, -0.3648229241371155, 0.03518843650817871, 0.42667126655578613, 0.26014435291290283, 0.33085405826568604, -0.5356797575950623, 0.3612244129180908, 0.09877781569957733, 0.37277525663375854, 0.25348538160324097, 0.08333539962768555, 0.3059607744216919, -0.05483824014663696, -0.36158961057662964, -0.035828590393066406, 0.1001858115196228, 0.33588075637817383, 0.04837775230407715, 0.03503072261810303, -0.19445252418518066, 0.4497694969177246, 0.02061748504638672, -0.12551599740982056, 0.04547607898712158, -0.4573730230331421, -0.05949766933917999, 0.5494658350944519, 0.32317325472831726], [-0.31839197874069214, 0.09831830859184265, -0.19457000494003296, -0.2920832335948944, 0.14977073669433594, 0.11002635955810547, -0.43068158626556396, 0.3893432021141052, -0.42523759603500366, -0.39752161502838135, -0.550487756729126, -0.2664981484413147, -0.14557582139968872, 0.15780404210090637, -0.1686687469482422, -0.012276828289031982, 0.5456541180610657, -0.1444128155708313, -0.22376760840415955, 0.3084452152252197, -0.2719889283180237, -0.1388610601425171, 0.30596649646759033, 0.23127970099449158, 0.5497589111328125, -0.07878750562667847, 0.45464468002319336, 0.14403438568115234, -0.39934107661247253, -0.3161047101020813, -0.3158619999885559, 0.2794276475906372, -0.3388039469718933, 0.13611871004104614, 0.052373290061950684, -0.46692994236946106, 0.10198311507701874, 0.10063546895980835, -0.30225807428359985, -0.22185130417346954, -0.4278980493545532, 0.3623943328857422, -0.4307202696800232, 0.16100645065307617, 0.1921023726463318, 0.2191045880317688, -0.314949631690979, 0.055834054946899414, -0.44197744131088257, -0.061394333839416504, 