{"input_weights": [[-0.0732617974281311, -0.24535971879959106, 0.18833403289318085, -0.29161232709884644, -0.028178751468658447, 0.4288350045681, 0.2427923083305359, -0.2618793249130249, -0.06600910425186157, 0.28005409240722656, -0.13995176553726196, -0.15384387969970703, 0.14568012952804565, -0.474778413772583, -0.15115797519683838, 0.028279036283493042, -0.20651274919509888, 0.38184940814971924, 0.4127032160758972, 0.20261967182159424, 0.35305407643318176, 0.06972905993461609, 0.3543577194213867, -0.17578136920928955, -0.4913487434387207, 0.475944459438324, -0.42247456312179565, -0.06395423412322998, 0.4801332950592041, 0.34663960337638855, -0.06569415330886841, 0.33035776019096375, 0.17435848712921143, 0.11029339581727982, -0.28396403789520264, -0.18752014636993408, -0.14128494262695312, 0.19747060537338257, -0.22602981328964233, -0.05252718925476074, 0.4543040990829468, 0.39243531227111816, -0.1655559092760086, -0.4090392589569092, -0.7082785367965698, -0.033976078033447266, -0.3212123513221741, 0.31252437829971313, 0.3055140972137451, 0.05536144971847534, 0.18514972925186157, 0.2107740044593811, -0.10643410682678223, -0.22341394424438477, -0.29132282733917236, -0.05965167284011841, 0.07729983329772949, 0.4144439101219177, -0.15769195556640625, 0.39376431703567505, -0.3290247321128845, -0.15701937675476074, 0.4500502943992615, -0.07043522596359253, 0.34394776821136475, -0.183424174785614, 0.4412262439727783, 0.04036928713321686, 0.17164230346679688, -0.06442290544509888, -0.28483933210372925, -0.3417661190032959, 0.2882779836654663, -0.32562416791915894, 0.4848408102989197, -0.13546983897686005, -0.01125078834593296, 0.4493614435195923, 0.23660778999328613, -0.06125199794769287, 0.11960309743881226, -0.11127011477947235, -0.1693875789642334, 0.3887256383895874, -0.19713032245635986, 0.2702716290950775, -0.4580097198486328, 0.33395838737487793, -0.19472169876098633, -0.11924201250076294, 0.14858853816986084, -0.20270036160945892, -0.3375106453895569, -0.028882980346679688, 0.05818533897399902, -0.11265230178833008, -0.18769073486328125, 0.2776787281036377, 0.34585094451904297, 0.0648801326751709, 0.08424568176269531, 0.3569808006286621, -0.36296361684799194, 0.4670867919921875, 0.4854896068572998, -0.029481947422027588, -0.15152734518051147, -0.2361520528793335, 0.09002494812011719, 0.37986743450164795, -0.06784147024154663, 0.09141367673873901, 0.139076828956604, 0.0786028504371643, -0.28265464305877686, -0.45873886346817017, -0.388935923576355, -0.07476752996444702, -0.03758460283279419, 0.022381305694580078, 0.49522364139556885, 0.10536456108093262, 0.45992904901504517, 0.27929258346557617, -0.6174137592315674, -0.10261327028274536, 0.5777335166931152, -0.4165871739387512], [0.4839208722114563, -0.02265230193734169, -0.18366821110248566, 0.3957424759864807, -0.4933907985687256, 0.15591686964035034, -0.34439462423324585, 0.23985791206359863, 0.0946388840675354, 0.008203387260437012, -0.3536009192466736, -0.2975851893424988, 0.6164560317993164, -0.36401301622390747, -0.0942334532737732, 0.3867266774177551, 0.4206445813179016, -0.3823471665382385, 0.285641610622406, 0.14469927549362183, -0.42961400747299194, 0.24437707662582397, 0.17870554327964783, -0.23469224572181702, 0.20508593320846558, -0.4785348176956177, 0.2779220938682556, -0.21675336360931396, 0.41497570276260376, 0.4245089888572693, -0.27513885498046875, -0.1350867748260498, 0.08830797672271729, 0.2640986442565918, -0.4968368411064148, 0.12765038013458252, -0.25474146008491516, -0.04837536811828613, 0.32208019495010376, -0.3738440275192261, -0.4491007924079895, -0.13425040245056152, -0.25767868757247925, 0.3386434316635132, -0.40673112869262695, -0.3236062526702881, 0.02067255973815918, 0.2556971311569214, 0.3484530448913574, -0.4486319422721863, 0.3219458758831024, -0.20684278011322021, -0.29907143115997314, -0.41919296979904175, -0.13561087846755981, 0.06543594598770142, -0.45894455909729004, 0.23038405179977417, -0.2946654260158539, -0.03469216823577881, -0.39143651723861694, -0.2824072241783142, 0.3888418674468994, 0.004887223243713379, 0.014817893505096436, -0.041510164737701416, -0.45604053139686584, 0.49256157875061035, 0.42364364862442017, -0.41421806812286377, 0.0670815110206604, -0.09415465593338013, 0.049155354499816895, 0.4521617293357849, 0.0996941328048706, -0.03559887409210205, 0.19907760620117188, 0.34094834327697754, -0.4966740012168884, -0.22768403589725494, 0.14793485403060913, -0.3451073169708252, 0.2500739097595215, 0.3060796856880188, 0.16260673105716705, 0.08647608757019043, -0.03091365098953247, -0.4310961365699768, -0.1418270766735077, -0.26864534616470337, -0.23489885032176971, 0.3245667517185211, -0.06495821475982666, -0.04353013634681702, 0.09416711330413818, -0.4804809093475342, -0.27027052640914917, -0.44398385286331177, 0.11249607801437378, -0.22585749626159668, 0.030022382736206055, -0.03256777301430702, 0.1714821457862854, -0.1457335352897644, -0.37244993448257446, 0.21580201387405396, 0.19004398584365845, 0.024661242961883545, -0.30339938402175903, 0.44513070583343506, -0.18686187267303467, -0.00625842809677124, 0.39798104763031006, -0.02000725269317627, 0.43636012077331543, 0.2711230516433716, -0.3269449472427368, -0.4117218255996704, 0.05921870470046997, 0.28416895866394043, -0.4690595865249634, -0.17360776662826538, 0.11060275137424469, -0.12032240629196167, 0.02484077215194702, 0.43426811695098877, 0.3190073072910309, -0.16794836521148682], [0.30185097455978394, -0.20072513818740845, 0.26975101232528687, 0.321666955947876, -0.05935746431350708, 0.19167548418045044, -0.23437732458114624, -0.17288970947265625, 0.4265143871307373, -0.1606850028038025, 0.46666455268859863, 0.2841891646385193, 0.35243117809295654, -0.3158198595046997, 0.20435881614685059, -0.16791784763336182, -0.36298078298568726, 0.2605951428413391, -0.04403628408908844, -0.4431806206703186, 0.1641855388879776, -0.22945165634155273, 0.20787692070007324, 0.08222454786300659, 0.1110372543334961, 0.03908419609069824, 0.24432402849197388, -0.12405550479888916, -0.010050296783447266, -0.06383484601974487, 0.23583853244781494, -0.5082191228866577, 0.29171568155288696, 0.20260851085186005, -0.3686455488204956, -0.3970998525619507, -0.4372411370277405, 0.23218074440956116, 0.4547727704048157, -0.25808292627334595, 0.013606145977973938, -0.45233601331710815, -0.1738099753856659, -0.0114554762840271, -0.49368053674697876, -0.22449171543121338, -0.31408774852752686, -0.18862712383270264, -0.35325032472610474, 0.28234970569610596, 0.06460356712341309, 0.08285951614379883, 0.48140060901641846, 0.4019008278846741, 0.18828639388084412, -0.5078983306884766, -0.6292775869369507, 0.30948972702026367, 0.25507813692092896, -0.544569194316864, 0.04779963567852974, 0.4785526990890503, 0.11648231744766235, -0.2815436124801636, -0.0898851752281189, 0.2200382947921753, 0.6660410165786743, 0.04447300732135773, 0.39678746461868286, 0.04788871109485626, -0.1585208773612976, 0.12111914157867432, -0.3671382665634155, 0.4860382676124573, 0.29510653018951416, -0.07904580235481262, 0.10161817073822021, -0.2959231734275818, -0.22253209352493286, -0.29828202724456787, 0.3457919657230377, -0.13297176361083984, 0.034578800201416016, -0.4413885474205017, 0.04731100797653198, -0.20693159103393555, -0.20552903413772583, -0.0207289457321167, -0.41998475790023804, 0.1977206915616989, -0.09550902247428894, 0.4661230444908142, -0.10949265956878662, -0.19593632221221924, -0.15818005800247192, -0.45492953062057495, 0.33510977029800415, -0.34281814098358154, -0.4265490174293518, -0.20336848497390747, -0.2641381621360779, 0.03559356927871704, -0.2204805612564087, 0.13883909583091736, 0.36927175521850586, 0.19377607107162476, -0.5754538774490356, 0.3079911172389984, 0.3159298300743103, -0.3714004158973694, -0.13101227581501007, 0.37813448905944824, 0.5375616550445557, -0.23803438246250153, -0.27202123403549194, -0.0787951648235321, -0.048620522022247314, 0.2141095995903015, -0.3759912848472595, -0.17025411128997803, -0.09889888763427734, 0.27420783042907715, 0.12154585123062134, 0.09073340892791748, -0.4858075976371765, -0.03323531150817871, 0.07120722532272339, -0.03873783349990845], [-0.10082614421844482, 0.19379806518554688, 0.03553354740142822, 0.05645442008972168, -0.3429575562477112, 0.32748258113861084, 0.3474743366241455, -0.025351107120513916, -0.18115484714508057, 0.057482391595840454, 0.33261388540267944, -0.3934406042098999, -0.3976876735687256, -0.32463183999061584, -0.023075342178344727, -0.0747455358505249, 0.33890748023986816, 0.0774005651473999, -0.37022650241851807, 0.17710435390472412, 0.498166561126709, 0.45112884044647217, 0.22587168216705322, -0.11556446552276611, 0.31641143560409546, -0.43216997385025024, -0.23468124866485596, 0.1309325098991394, -0.36219000816345215, -0.2082369327545166, -0.20161181688308716, 0.2865203619003296, 0.3380991220474243, 0.34469443559646606, -0.45207202434539795, 0.5538554191589355, -0.02745610475540161, 0.4380766749382019, 0.14413094520568848, -0.48641711473464966, 0.19843971729278564, 0.2478172779083252, 0.23399466276168823, -0.09999954700469971, 0.07265007495880127, -0.2815138101577759, 0.025687813758850098, 0.06040787696838379, -0.0163242369890213, 0.3753146529197693, -0.09475439786911011, 0.410020649433136, -0.12706130743026733, 0.1893123984336853, 0.09099316596984863, 0.31873804330825806, 0.15858346223831177, -0.3917592167854309, 0.21511000394821167, -0.24602651596069336, 0.004020035266876221, -0.7570902109146118, -0.13246911764144897, -0.14764052629470825, -0.2618129849433899, 0.44475942850112915, -0.057090818881988525, 0.22196078300476074, -0.10644286870956421, -0.10231395065784454, -0.38364726305007935, -0.06420405209064484, 0.03703707456588745, 0.03627070039510727, -0.037191636860370636, -0.4763186573982239, 0.21864134073257446, 0.3344637155532837, 0.01865851879119873, 0.2538885474205017, 0.10227066278457642, 0.22865283489227295, 0.2794771194458008, -0.42115968465805054, -0.37115544080734253, 0.0530620813369751, 0.4822564721107483, 0.16399389505386353, -0.2511492371559143, -0.038209378719329834, 0.032771408557891846, 0.12900984287261963, 0.26281875371932983, 0.09774768352508545, -0.16772465407848358, 0.28955692052841187, -0.2748298645019531, -0.2602781653404236, -0.39968734979629517, 0.14332324266433716, -0.46713587641716003, 0.6352837085723877, -0.21102693676948547, 0.14679807424545288, -0.46915072202682495, 0.048502758145332336, -0.4656899571418762, 0.4721199870109558, -0.16915082931518555, 0.030741631984710693, 0.5904430747032166, 0.01498866081237793, -0.22289758920669556, -0.11510813236236572, -0.04821676015853882, -0.055759310722351074, 0.33283817768096924, -0.20550255477428436, 0.13055288791656494, -0.08243823051452637, -0.07386577129364014, -0.5131292939186096, -0.3363538980484009, 0.3182651400566101, -0.35532957315444946, 0.2420024871826172, 0.16926820576190948, -0.20084917545318604], [-0.012969419360160828, -0.10189907252788544, 0.22527974843978882, -0.42315953969955444, -0.03667497634887695, -0.13874809443950653, -0.3118809461593628, -0.2210383415222168, -0.4894424080848694, 0.4448258876800537, 0.22734642028808594, 0.15213227272033691, -0.15839821100234985, 0.13055789470672607, 0.21485811471939087, 0.41404879093170166, 0.13187313079833984, 0.03944295644760132, 0.4422134757041931, -0.21535098552703857, -0.4197431802749634, 0.29234910011291504, 0.31840980052948, -0.016109958291053772, 0.28579726815223694, 0.2224453091621399, -0.21004652976989746, -0.11190921068191528, 0.07782706618309021, 0.3452742099761963, 0.7398473620414734, -0.49088138341903687, -0.06406903266906738, -0.05368530750274658, 0.48511528968811035, -0.2290019392967224, 0.24316364526748657, 0.3960684537887573, 0.4655151069164276, 0.2877635359764099, -0.1977318823337555, 0.12679898738861084, 0.1018419861793518, -0.2478591799736023, -0.44047480821609497, 0.3632458448410034, 0.3586312532424927, 0.2404332160949707, 0.014822542667388916, 0.3651217222213745, -0.23345571756362915, -0.15696722269058228, -0.2744489312171936, -0.43319666385650635, 0.33341777324676514, -0.4371526539325714, 0.3745118975639343, 0.2781732678413391, -0.26714545488357544, 0.27094101905822754, -0.4954034686088562, -0.30751174688339233, 0.019032776355743408, -0.1995958685874939, 0.05708908289670944, -0.37675362825393677, 0.2898176908493042, 0.3179858922958374, 0.04741722345352173, 0.03747844696044922, -0.03443711996078491, -0.17293745279312134, -0.3591395616531372, 0.1820010542869568, -0.09734980762004852, -0.16891789436340332, -0.36510103940963745, -0.10083973407745361, -0.06705846637487411, -0.2799927592277527, -0.3764628767967224, 0.2998577356338501, 0.4755595922470093, -0.1768067479133606, 0.11722418665885925, 0.03555339574813843, 0.08885031938552856, -0.2246032953262329, 0.24084651470184326, 0.11961078643798828, 0.49098438024520874, 0.518484354019165, -0.454043984413147, -0.49053120613098145, -0.1872882843017578, -0.4848439693450928, -0.3226962089538574, -0.03975492715835571, 0.037621259689331055, 0.3009018898010254, 0.22779138386249542, -0.1714409589767456, 0.41583073139190674, -0.21248769760131836, 0.003985345363616943, 0.20310622453689575, -0.28684675693511963, -0.31571730971336365, 0.36570489406585693, -0.22434484958648682, -0.011610865592956543, -0.10990601778030396, 0.47932592034339905, -0.2251715064048767, -0.13874423503875732, 0.07811349630355835, 0.418484628200531, -0.21865415573120117, 0.21706581115722656, 0.4580070972442627, 0.14293402433395386, 0.3670772910118103, 0.16338270902633667, -0.04534494876861572, 0.2281610369682312, 0.0034873485565185547, -0.010062098503112793, -0.07935260236263275], [0.39067113399505615, -0.04803675413131714, -0.015376746654510498, -0.053473711013793945, -0.17405861616134644, 0.750981330871582, 0.09782648086547852, -0.4026378393173218, -0.20904095470905304, -0.03191351890563965, -0.005548536777496338, -0.19060009717941284, -0.08537733554840088, 0.2505863904953003, -0.011174976825714111, -0.08050626516342163, -0.09060877561569214, -0.13930654525756836, -0.24694442749023438, 0.3177298307418823, 0.4114648103713989, -0.07342755794525146, -0.40194618701934814, -0.013249099254608154, -0.2030574083328247, 0.09913444519042969, 0.06514811515808105, 0.4552444815635681, 0.3009733557701111, -0.02081376314163208, 0.10282963514328003, -0.41816771030426025, -0.23268269002437592, -0.13922178745269775, 0.1360393762588501, -0.3449168801307678, -0.15423032641410828, 0.2928040027618408, -0.18916070461273193, 0.4175792932510376, -0.32189440727233887, 0.1311938762664795, 0.03582507371902466, -0.15135008096694946, 0.024738848209381104, 0.48667067289352417, 0.49726611375808716, 0.14334803819656372, 0.4059443473815918, 0.17605987191200256, 0.16752465069293976, 0.4711875319480896, -0.247938334941864, 0.19620800018310547, -0.47960418462753296, -0.2593502402305603, 0.027485787868499756, -0.4380032420158386, -0.23976345360279083, 0.20666265487670898, 0.14396131038665771, 0.5071853399276733, 0.0656965970993042, 0.4047819972038269, 0.3724589943885803, 0.12179207801818848, -0.019424617290496826, -0.31922322511672974, -0.018205344676971436, 0.12706536054611206, 0.22986716032028198, 0.42439424991607666, 0.4941764175891876, 0.01780456304550171, 0.444232702255249, 0.09252768754959106, 0.39044785499572754, 0.48602819442749023, -0.02620786428451538, 0.3567642569541931, -0.40686196088790894, 0.3834612965583801, 0.18339118361473083, -0.26527881622314453, 0.03553265333175659, 0.27373218536376953, 0.2828364372253418, 0.29151442646980286, 0.2123398780822754, 0.10859310626983643, -0.3626331686973572, -0.3943331241607666, -0.03722269460558891, -0.11844850331544876, 0.4433913230895996, 0.13885921239852905, -0.3118135929107666, 0.11387479305267334, 0.12875902652740479, 0.13681715726852417, 0.2849704623222351, 0.2662597894668579, -0.4682018756866455, 0.07890689373016357, 0.10391682386398315, -0.3517457842826843, 0.45426589250564575, 0.39394670724868774, 0.3550896644592285, -0.16205379366874695, -0.12118750810623169, -0.015083372592926025, 0.2933112680912018, -0.2294824719429016, 0.12267697602510452, -0.49945199489593506, 0.43216127157211304, -0.054000794887542725, -0.46688294410705566, 0.16058743000030518, 0.08636188507080078, 0.22915580868721008, -0.4093308448791504, 0.339239239692688, -0.3996308445930481, 0.12239420413970947, -0.1380414366722107, 0.48408180475234985], [0.3561396598815918, -0.4550034999847412, -0.25334298610687256, -0.23506659269332886, 0.18248891830444336, 0.6429895758628845, -0.17202794551849365, 0.06795734167098999, 0.0888717770576477, 0.18077045679092407, -0.2941345274448395, -0.26520222425460815, -0.37245434522628784, 0.38239961862564087, -0.4625430703163147, 0.2883719801902771, -0.057167064398527145, -0.3108457922935486, 0.07826012372970581, 0.4201414883136749, 0.34985917806625366, 0.3605080246925354, -0.17425036430358887, -0.43099743127822876, -0.3054591417312622, 0.13857132196426392, 0.1680845022201538, 0.31188100576400757, -0.3708032965660095, 0.18732833862304688, -0.16301530599594116, -0.49573785066604614, -0.37427932024002075, -0.2050660252571106, -0.12131711095571518, 0.43349283933639526, 0.20849215984344482, 0.12047304213047028, 0.4269653558731079, 0.08702296018600464, -0.4641168713569641, -0.43389731645584106, -0.4713887572288513, -0.08543741703033447, 0.24187719821929932, 0.1878224015235901, 0.28217607736587524, -0.4662836790084839, 0.11541905254125595, 0.27509963512420654, -0.4832635521888733, 0.04550594091415405, -0.46291735768318176, -0.35052692890167236, -0.42480790615081787, -0.44050586223602295, 0.05966019630432129, -0.3670203685760498, 0.3412056863307953, -0.1444992870092392, 0.4911126494407654, -0.023906588554382324, -0.35591429471969604, 0.055266961455345154, 0.2703378200531006, 0.18495780229568481, 0.7533755898475647, -0.15493233501911163, 0.09723825752735138, 0.2814701795578003, 0.134518563747406, -0.0879250168800354, -0.29632940888404846, 0.5883063077926636, -0.3691936433315277, 0.17979544401168823, 0.3276597261428833, -0.48473960161209106, -0.22127893567085266, -0.46702420711517334, 0.12446695566177368, -0.4636303186416626, -0.027948737144470215, 0.08812278509140015, 0.41442322731018066, 0.2667536735534668, 0.06522142887115479, -0.5536869168281555, 0.12665528059005737, 0.00031328946352005005, 0.14019745588302612, -0.1537482738494873, -0.4590524435043335, 0.22063374519348145, 0.33159691095352173, -0.12893515825271606, -0.3809560537338257, -0.031748831272125244, -0.01858443021774292, -0.051417186856269836, -0.2699335813522339, -0.1995009183883667, -0.009675025939941406, -0.19048947095870972, 0.4374123215675354, -0.516956627368927, -0.09043359756469727, 0.4123256802558899, 0.32820528745651245, 0.2562296986579895, -0.3602035641670227, 0.09322059154510498, 0.5388898849487305, -0.5314311981201172, 0.5969294905662537, -0.4121267795562744, 0.34525471925735474, -0.34438949823379517, 0.4716810882091522, 0.27888327836990356, 0.08133330941200256, -0.1839747428894043, -0.1793149709701538, 0.014928817749023438, 0.03606858849525452, 0.3284004330635071, -0.42655038833618164, -0.48972922563552856], [0.3011370301246643, -0.1087830662727356, -0.713087797164917, 0.2028576135635376, 0.44819456338882446, -0.5117913484573364, 0.44846439361572266, 0.28581702709198, -0.08920943737030029, -0.42571526765823364, -0.059622764587402344, -0.09227526187896729, 0.009456485509872437, 0.38924264907836914, -0.12167352437973022, 0.12222129106521606, 0.041294023394584656, 0.24129968881607056, 0.0300445556640625, -0.3361457586288452, -0.1766332983970642, 0.07922212034463882, -0.07358455657958984, -0.2598198652267456, -0.10722213983535767, -0.18352407217025757, 0.3273323178291321, 0.380842924118042, -0.0545806884765625, -0.20123958587646484, -0.09520655125379562, -0.41713935136795044, 0.3913499712944031, 0.11507326364517212, 0.06031447649002075, -0.1665247082710266, 0.2089492678642273, -0.3420194983482361, 0.014062166213989258, 0.3122572898864746, -0.44145622849464417, 0.2607628107070923, 0.17424863576889038, -0.20614378154277802, 0.2285783290863037, 0.4605279564857483, 0.37476685643196106, -0.21475327014923096, -0.26878660917282104, -0.43879997730255127, -0.0053493063896894455, 0.0660979151725769, -0.08196938037872314, 0.2998831272125244, 0.39199399948120117, -0.12931013107299805, 0.37004268169403076, 0.07165449857711792, -0.10213404893875122, 0.45058590173721313, 0.43127572536468506, -0.27713727951049805, -0.40810275077819824, -0.27816706895828247, -0.3579329252243042, 0.31389594078063965, 0.2771974802017212, -0.08623570203781128, -0.2495666742324829, -0.3433033227920532, 0.059287071228027344, -0.3534957766532898, 0.16607755422592163, 0.09046263992786407, -0.28918248414993286, -0.6513988971710205, 0.4060736298561096, 0.009533154778182507, -0.46788960695266724, -0.2119746208190918, -0.012273311614990234, -0.41243207454681396, 0.4604235291481018, -0.45304620265960693, 0.08361482620239258, -0.07103228569030762, 0.2965528964996338, -0.38107889890670776, -0.7787944674491882, 0.4528089165687561, 0.08468204736709595, 0.3703809976577759, -0.32098478078842163, -0.03919532895088196, 0.34143978357315063, 0.15144532918930054, 0.3100563883781433, -0.17154793441295624, 0.23617619276046753, -0.1281932294368744, 0.23499703407287598, -0.00748896598815918, -0.18153148889541626, 0.5484046339988708, -0.13090652227401733, 0.4957311749458313, 0.27629947662353516, 0.19386976957321167, 0.14700666069984436, 0.4359903931617737, 0.2699933648109436, 0.10627061128616333, -0.43396663665771484, 0.057786062359809875, -0.3984406590461731, -0.05238930881023407, 0.4485100507736206, -0.7156565189361572, -0.18998348712921143, 0.1297168731689453, 0.2166082262992859, 0.45453232526779175, -0.30070966482162476, 0.3792325258255005, 0.14386755228042603, 0.06618672609329224, -0.019682958722114563, 0.3178098797798157], [-0.5147258639335632, -0.29874876141548157, -0.16888004541397095, -0.1388118863105774, -0.007866501808166504, 0.06971883773803711, -0.49659544229507446, 0.247841477394104, -0.24422085285186768, -0.37747132778167725, 0.48118746280670166, -0.38674867153167725, 0.14055472612380981, 0.3491605520248413, -0.13332363963127136, 0.27919602394104004, -0.38261544704437256, -0.3809315264225006, 0.3490561842918396, 0.050237059593200684, 0.05044853687286377, -0.0423700213432312, -0.21415205299854279, 0.35054534673690796, -0.3830476403236389, -0.014678597450256348, -0.24322503805160522, -0.1634466052055359, 0.23587006330490112, 0.38546764850616455, 0.09405696392059326, 0.49273818731307983, -0.8616214990615845, -0.4919396638870239, 0.28353387117385864, -0.13940906524658203, 0.1283794641494751, 0.2966204881668091, 0.30103588104248047, 0.14799948036670685, 0.4645819067955017, -0.2635379433631897, -0.12410116195678711, 0.49350130558013916, 0.32090526819229126, -0.4457555115222931, -0.041725099086761475, -0.06009840965270996, -0.40368854999542236, -0.09024594724178314, -0.17328310012817383, -0.05011039972305298, -0.265408456325531, 0.11428284645080566, -0.45828890800476074, 0.21091434359550476, 0.2291957139968872, 0.47265368700027466, 0.48296016454696655, 0.1304694414138794, -0.2745683193206787, -0.487285315990448, 0.3498043417930603, 0.45098674297332764, 0.19838793575763702, 0.2818832993507385, -0.31423312425613403, -0.4742282032966614, -0.24943995475769043, 0.2987692952156067, -0.07798254489898682, 0.5674887895584106, 0.3416857123374939, 0.13827484846115112, -0.49876052141189575, 0.4580528736114502, -0.21279257535934448, 0.3954619765281677, -0.4229666590690613, -0.2689197063446045, 0.02441638708114624, 0.3907444477081299, -0.2643154263496399, 0.2453327625989914, -0.46921026706695557, -0.47086042165756226, -0.46053117513656616, 0.4128302335739136, -0.42415302991867065, 0.324886292219162, -0.3186674118041992, 0.415749728679657, 0.30486124753952026, -0.1196974515914917, -0.2720627188682556, 0.20587283372879028, -0.22050952911376953, 0.3967081904411316, 0.07469994574785233, 0.3321889042854309, 0.22446149587631226, -0.04651099443435669, -0.4787103533744812, 0.345131516456604, -0.3243247866630554, -0.3648679554462433, -0.4348570704460144, -0.013752162456512451, 0.0812564492225647, -0.32394421100616455, -0.37226396799087524, 0.29841113090515137, 0.288288950920105, -0.4060438275337219, -0.25794386863708496, -0.3911593556404114, -0.7949572205543518, -0.3764083981513977, -0.49867480993270874, -0.3993772864341736, 0.25666022300720215, 0.4622008204460144, 0.3848673105239868, 0.11374235153198242, 0.4805827736854553, -0.022020548582077026, -0.4986984133720398, 0.056177496910095215], [0.06678104400634766, 0.01715618371963501, -0.37101733684539795, -0.4909396767616272, -0.1529524326324463, -0.31874698400497437, 0.31813716888427734, -0.2099180817604065, 0.4353349208831787, -0.14730530977249146, -0.6082351207733154, 0.19497781991958618, 0.4722593426704407, -0.052053987979888916, 0.5546391606330872, -0.18203282356262207, 0.22141164541244507, -0.044637441635131836, 0.19280362129211426, -0.34403860569000244, 0.07662028074264526, -0.1457844227552414, 0.25439292192459106, -0.40002232789993286, -0.6470369100570679, -0.26434755325317383, -0.22018742561340332, 0.3124818205833435, 0.4155598282814026, -0.25446617603302, 0.08552819490432739, -0.45556163787841797, 0.21244853734970093, -0.2458958625793457, -0.08920228481292725, -0.4497866630554199, -0.08134686946868896, 0.3860514760017395, -0.23592974245548248, -0.01308673620223999, -0.4419432282447815, -0.28558671474456787, -0.11084920167922974, -0.22316193580627441, -0.2593197822570801, 0.10700750350952148, -0.4335973262786865, -0.14125555753707886, 0.466911256313324, -0.2609506845474243, -0.23012053966522217, -0.1535061001777649, 0.13263177871704102, 0.15223067998886108, 0.4819263815879822, -0.4594957232475281, 0.46270784735679626, -0.030141077935695648, -0.47748059034347534, 0.327589213848114, -0.34570154547691345, 0.4886816740036011, -0.3428944945335388, -0.44618743658065796, 0.2077541947364807, -0.17201870679855347, -0.3762016296386719, 0.06133323907852173, -0.01817309856414795, 0.07435530424118042, -0.33129364252090454, 0.4345204830169678, -0.06515169143676758, -0.21090388298034668, 0.009642958641052246, 0.18907690048217773, -0.4520360827445984, 0.22982248663902283, -0.11124908924102783, -0.18455588817596436, -0.3712667226791382, -0.19051045179367065, -0.49358224868774414, -0.43886369466781616, -0.17038869857788086, -0.10860133171081543, 0.4585613012313843, -0.41318339109420776, 0.2870523929595947, -0.1693618893623352, -0.26920193433761597, -0.2824936509132385, 0.3935251235961914, -0.31569504737854004, -0.8680832982063293, -0.23652470111846924, -0.2234472632408142, 0.2606394290924072, 0.23750978708267212, -0.020482003688812256, -0.13735872507095337, 0.4754447042942047, -0.28636524081230164, 0.1527036428451538, -0.31610822677612305, -0.24812108278274536, 0.12145811319351196, -0.16451215744018555, 0.3605773448944092, 0.18292206525802612, 0.3360344171524048, 0.050295889377593994, 0.21543556451797485, 0.38159579038619995, 0.012549221515655518, 0.13303613662719727, 0.18760472536087036, 0.3619151711463928, 0.43193328380584717, -0.312197208404541, 0.3911357522010803, 0.2018982172012329, -0.46424567699432373, 0.13874709606170654, 0.3273943066596985, -0.0708429217338562, -0.1207004189491272, 0.48823362588882446], [-0.4358627200126648, -0.36897939443588257, -0.4644385576248169, 0.29119497537612915, 0.19234436750411987, 0.046291470527648926, -0.22616201639175415, -0.3255680799484253, -0.45572996139526367, -0.47814446687698364, -0.17475378513336182, 0.3961979150772095, 0.3633018732070923, 0.03883248567581177, -0.49342870712280273, -0.047485217452049255, 0.05800718069076538, 0.3954738974571228, 0.6783264875411987, -0.13138766586780548, -0.23734857141971588, -0.3302808403968811, 0.42819660902023315, -0.40073829889297485, 0.2632632255554199, 0.4728592038154602, 0.19668996334075928, -0.09221380949020386, -0.06245577335357666, -0.11252480745315552, 0.12988609075546265, 0.4865334630012512, 0.38492351770401, -0.10871577262878418, -0.3838738203048706, -0.5889600515365601, -0.13854551315307617, 0.02687399834394455, 0.37973499298095703, 0.06428933143615723, -0.13119405508041382, 0.2056971788406372, -0.1328660249710083, -0.042544424533843994, 0.05906999111175537, -0.43793201446533203, -0.6178506016731262, 0.157148540019989, -0.03166991472244263, -0.2332276701927185, 0.1816624402999878, -0.29353612661361694, 0.14912685751914978, -0.014438807964324951, -0.1070588231086731, -0.27377909421920776, -0.036711156368255615, 0.49764376878738403, -0.35617363452911377, -0.17246252298355103, -0.060656845569610596, -0.20284435153007507, -0.09474730491638184, 0.06032687425613403, 0.09918594360351562, -0.16478806734085083, -0.007891178131103516, -0.02276986837387085, -0.0965111255645752, -0.12248373031616211, 0.28487640619277954, 0.04382830858230591, -0.16144633293151855, 0.2622116208076477, -0.3298524022102356, 0.2390756607055664, -0.44115734100341797, -0.41762369871139526, -0.4455338716506958, 0.21731092035770416, 0.3680369257926941, -0.4651607573032379, 0.022033333778381348, -0.2586178779602051, 0.24341820180416107, -0.39884495735168457, 0.17557503283023834, -0.1636480689048767, -0.37561988830566406, 0.3012472987174988, 0.37800514698028564, -0.19463777542114258, -0.019929587841033936, 0.3264951705932617, 0.4963671565055847, 0.09247469902038574, -0.004205584526062012, 0.2626849412918091, -0.44006264209747314, -0.28229743242263794, 0.0053550004959106445, 0.545198917388916, -0.16162645816802979, -0.33118516206741333, -0.0786694884300232, 0.5155168175697327, -0.20412981510162354, -0.49880167841911316, 0.31912678480148315, -0.333954393863678, -0.4254493713378906, -0.2519654631614685, 0.43701058626174927, -0.22135110199451447, -0.31092727184295654, -0.07778957486152649, 0.3664292097091675, 0.4653538465499878, -0.08052593469619751, -0.5861830115318298, -0.0003879666328430176, -0.08465149998664856, 0.35232478380203247, -0.17113101482391357, 0.42886102199554443, -0.3624003529548645, 0.2164553999900818, 0.27852538228034973], [-0.32522422075271606, 0.3211534023284912, -0.15840870141983032, 0.12822258472442627, -0.46709394454956055, -0.18989694118499756, -0.45207178592681885, 0.1950719952583313, -0.3699619770050049, -0.15310239791870117, -0.22105759382247925, -0.2562512755393982, 0.15833209455013275, 0.0972297191619873, -0.19550800323486328, -0.0043441057205200195, 0.28363579511642456, 0.48131197690963745, -0.36733490228652954, 0.7472900748252869, 0.40860021114349365, -0.4192660450935364, -0.31088608503341675, 0.0742383599281311, 0.11435621976852417, 0.3767791986465454, 0.4831814169883728, 0.4708326458930969, -0.07405954599380493, 0.2918555736541748, -0.009453237056732178, -0.02159726619720459, 0.0769432783126831, 0.40105170011520386, 0.24173855781555176, -0.4224807024002075, -0.4695502519607544, -0.07774919271469116, 0.11793118715286255, -0.3301960527896881, 0.46863478422164917, -0.44944608211517334, -0.2933502197265625, 0.3527590036392212, -0.2550860643386841, 0.025714635848999023, 0.3869709372520447, 0.45570987462997437, -0.16647475957870483, -0.2340298295021057, 0.025246620178222656, -0.2925853729248047, 0.03108796291053295, -0.4046688675880432, -0.5197628140449524, -0.4072810411453247, 0.4485061764717102, 0.4183182120323181, 0.11576884984970093, 0.43941640853881836, 0.03647667169570923, -0.28941935300827026, 0.16833192110061646, 0.19109439849853516, 0.2057163268327713, -0.26160603761672974, 0.2874008119106293, -0.38388288021087646, -0.435306191444397, 0.2645180821418762, 0.2308487594127655, 0.3938654065132141, 0.35241150856018066, 0.33485570549964905, -0.1212807297706604, 0.016754150390625, 0.017720937728881836, 0.05006144940853119, -0.10091644525527954, -0.08593040704727173, -0.15142542123794556, 0.16435980796813965, -0.15219151973724365, 0.490075945854187, 0.2660967707633972, -0.15074318647384644, 0.23536527156829834, -0.3725130259990692, -0.033167243003845215, -0.3789333701133728, 0.34533828496932983, 0.34182190895080566, -0.050999224185943604, -0.3803914785385132, -0.4599999785423279, -0.16502845287322998, -0.370208203792572, -0.24788492918014526, -0.028894364833831787, -0.4756261706352234, 0.4507654905319214, 0.004142940044403076, 0.4438536465167999, 0.49164074659347534, 0.0814177393913269, -0.009051978588104248, 0.11657524108886719, 0.1640607714653015, 0.04839897155761719, -0.03611332178115845, 0.4794542193412781, -0.057315364480018616, -0.35083162784576416, 0.19287854433059692, 0.24532395601272583, 0.018371285870671272, 0.252887487411499, 0.07271385192871094, -0.06869751214981079, 0.3791669011116028, -0.2385815978050232, -0.11209940910339355, 0.4954957962036133, 0.20964795351028442, -0.3007088899612427, 0.33628833293914795, -0.30759477615356445, -0.030525267124176025], [0.1978355050086975, -0.2592429518699646, 0.37422794103622437, 0.44231754541397095, 0.13169503211975098, -0.04905819892883301, -0.13577520847320557, 0.2478085160255432, -0.39254385232925415, -0.31981736421585083, -0.3141610622406006, 0.3768339157104492, -0.2765277028083801, -0.01510685682296753, -0.402601957321167, 0.08063912391662598, -0.03979133069515228, -0.11940670013427734, -0.1574653685092926, 0.27655547857284546, -0.062467314302921295, -0.03191715478897095, -0.1339084506034851, 0.18493425846099854, -0.3667507767677307, -0.17618072032928467, 0.07717080414295197, -0.2269808053970337, 0.08262515068054199, 0.027298688888549805, -0.44555002450942993, -0.20833557844161987, 0.46656477451324463, -0.3286268711090088, 0.3216311037540436, 0.3900463581085205, 0.418842613697052, 0.3952791094779968, 0.14473706483840942, 0.28036612272262573, 0.33132827281951904, 0.06809955835342407, 0.3606507182121277, -0.04602062702178955, 0.17542773485183716, 0.11768233776092529, -0.3461877107620239, 0.47115904092788696, 0.03207528591156006, 0.15174216032028198, 0.17843660712242126, -0.008099794387817383, 0.030685842037200928, 0.022253990173339844, -0.48120713233947754, 0.19109588861465454, -0.29588010907173157, -0.4048808813095093, 0.11030200123786926, -0.48017722368240356, -0.31822580099105835, -0.343447744846344, 0.3197377920150757, -0.3642808198928833, 0.3304339051246643, -0.12148469686508179, -0.100078284740448, 0.4713858962059021, -0.3478672504425049, 0.21097630262374878, -0.29453450441360474, -0.26153236627578735, 0.29860860109329224, -0.3866932988166809, 0.32466810941696167, 0.4981992244720459, 0.4733436703681946, 0.4788045883178711, -0.24112915992736816, -0.468932569026947, 0.43308454751968384, 0.2876461148262024, -0.11669921875, -0.07860416173934937, 0.30814242362976074, -0.14821308851242065, 0.26281195878982544, 0.2198338508605957, -0.4027620553970337, -0.21543031930923462, -0.2855237126350403, -0.07877957820892334, 0.05605936050415039, -0.17306727170944214, -0.1902502179145813, 0.35701143741607666, -0.023177780210971832, 0.40996336936950684, 0.3541548252105713, -0.2570715546607971, 0.2758910655975342, 0.42258965969085693, 0.37018072605133057, -0.24759840965270996, 0.16081339120864868, 0.48045021295547485, -0.11299648880958557, 0.5751158595085144, 0.20482753217220306, 0.17920446395874023, -0.265311062335968, 0.46722763776779175, 0.4249963164329529, -0.2868637144565582, -0.3548852801322937, -0.07753908634185791, -0.15763354301452637, 0.4535922408103943, -0.17318964004516602, 0.07851417362689972, 0.21688437461853027, -0.11487400531768799, -0.6243431568145752, -0.18066436052322388, 0.062473952770233154, 0.20884793996810913, -0.040525615215301514, 0.022991418838500977], [-0.3702539801597595, -0.2931438088417053, 0.37441152334213257, -0.3169362545013428, -0.21325278282165527, -0.08478754758834839, -0.053136467933654785, -0.34620895981788635, 0.49064183235168457, -0.2740987539291382, 0.26683855056762695, 0.03479570150375366, -0.21897804737091064, -0.16645783185958862, 0.2663140296936035, -0.09824162721633911, 0.26109838485717773, 0.35065972805023193, 0.4750642776489258, 0.03415374457836151, -0.35876983404159546, 0.23359519243240356, -0.38543328642845154, -0.2561430335044861, -0.5219771862030029, 0.24034380912780762, 0.4971063733100891, -0.23564749956130981, -0.008218824863433838, -0.12356632947921753, 0.34643369913101196, -0.3944644331932068, 0.0358707457780838, -0.458143413066864, 0.10649323463439941, 0.21949166059494019, 0.27919119596481323, 0.1591283679008484, 0.6034754514694214, 0.45836305618286133, -0.22605256736278534, 0.14579717814922333, -0.3230692148208618, 0.23793259263038635, -0.23403015732765198, 0.04385879635810852, 0.39700520038604736, -0.3579505681991577, -0.36292585730552673, -0.4125998020172119, -0.1966220736503601, 0.4562823176383972, -0.38167452812194824, 0.36392658948898315, -0.42067623138427734, 0.3232404589653015, 0.2972260117530823, 0.5858374834060669, 0.17113065719604492, 0.183252215385437, -0.1691911816596985, 0.3058638870716095, 0.15525411069393158, -0.24384677410125732, -0.038215190172195435, 0.15067273378372192, -0.35891300439834595, -0.04457232356071472, -0.07376205921173096, 0.45155102014541626, 0.11358433961868286, 0.10196223855018616, -0.09094782173633575, -0.10761916637420654, 0.08499343693256378, -0.21888595819473267, -0.41177552938461304, 0.36414748430252075, -0.07048523426055908, 0.4277113080024719, -0.4834514856338501, -0.48141294717788696, 0.08748894929885864, 0.03874915838241577, -0.20569145679473877, -0.47406840324401855, 0.22467148303985596, 0.3314303159713745, 0.14832305908203125, -0.11411714553833008, -0.08986937999725342, -0.18146270513534546, 0.2719793915748596, 0.19567161798477173, -0.10806567966938019, -0.3895965814590454, -0.16037791967391968, -0.07788950204849243, 0.41559672355651855, 0.2623324990272522, -0.2201978713274002, 0.26607346534729004, -0.1682901382446289, -0.35796815156936646, -0.332541823387146, 0.39808034896850586, 0.004715442657470703, -0.3571598529815674, -0.318489134311676, 0.4559336304664612, 0.22274672985076904, 0.3669719099998474, 0.13523715734481812, -0.4003652334213257, -0.10632544755935669, 0.06593626737594604, -0.004191339015960693, 0.25521939992904663, -0.15689802169799805, -0.122788205742836, -0.20052507519721985, -0.2319149374961853, -0.22203755378723145, -0.13741445541381836, 0.256184458732605, -0.4149501919746399, -0.46300017833709717, 0.45022326707839966], [-0.15180081129074097, 0.4504573345184326, -0.4302622675895691, -0.226695716381073, 0.2465907335281372, 0.13845258951187134, 0.4174776077270508, -0.28002578020095825, -0.3913813829421997, -0.24340885877609253, 0.041910409927368164, 0.4292648434638977, 0.36636435985565186, -0.4196273684501648, -0.22153174877166748, -0.47129952907562256, -0.1264890730381012, 0.0012944936752319336, -0.014802202582359314, 0.13025128841400146, -0.339909166097641, -0.10499763488769531, -0.43962132930755615, 0.39790230989456177, -0.3968855142593384, 0.45728349685668945, -0.3197040557861328, 0.2679111361503601, 0.18010485172271729, 0.18595075607299805, -0.3511422872543335, 0.03988128900527954, -0.27306410670280457, -0.33069366216659546, -0.007260024547576904, -0.4597893953323364, 0.04795253276824951, 0.16600105166435242, 0.40273845195770264, 0.3474993109703064, -0.19787415862083435, -0.4678539037704468, 0.045790255069732666, 0.3467816114425659, 0.14392316341400146, 0.4868139624595642, -0.20422475039958954, 0.3550041913986206, -0.42492997646331787, 0.28633588552474976, 0.13138622045516968, 0.1852920651435852, -0.0733843445777893, 0.37804114818573, 0.49057793617248535, -0.015871325507760048, -0.12015074491500854, 0.13932785391807556, 0.4575977921485901, 0.4837934374809265, -0.16827070713043213, 0.25892579555511475, -0.45768678188323975, 0.2992900013923645, -0.35236412286758423, 0.5610283613204956, 0.4878201484680176, 0.17155182361602783, 0.014473438262939453, -0.24568426609039307, -0.3352630138397217, 0.08009666204452515, 0.10417038202285767, -0.3502510190010071, -0.41500598192214966, -0.036897704005241394, -0.4878164529800415, 0.31203287839889526, -0.07703880220651627, -0.479372501373291, -0.2754659652709961, -0.3098398447036743, -0.3498677611351013, 0.2988663911819458, 0.25668537616729736, -0.42174798250198364, -0.14296814799308777, 0.4449065923690796, 0.05182093381881714, -0.42089566588401794, -0.2527086138725281, -0.3217594027519226, -0.044273197650909424, -0.19752728939056396, -0.12683218717575073, 0.3557703197002411, 0.226290762424469, -0.3467589020729065, 0.20292891561985016, 0.12900888919830322, -0.24203073978424072, -0.15188205242156982, -0.3904145359992981, -0.37468796968460083, -0.4337969422340393, -0.020344018936157227, 0.48885422945022583, -0.45327603816986084, 0.3813709020614624, 0.413479208946228, -0.42159855365753174, -0.11957752704620361, -0.17833274602890015, 0.15931275486946106, -0.0807996392250061, -0.029314100742340088, -0.27418190240859985, 0.46271854639053345, -0.11340193450450897, 0.13733017444610596, -0.2281895875930786, 0.2639049291610718, -0.096285879611969, 0.23270487785339355, 0.09311515092849731, -0.08232717216014862, 0.36583688855171204, -0.05976390838623047], [-0.3050062656402588, 0.07039374113082886, -0.4768061637878418, 0.4130193591117859, -0.17237013578414917, -0.31115496158599854, 0.008874177932739258, 0.3271128535270691, -0.3069058060646057, 0.2497515082359314, 0.20733439922332764, 0.3432731628417969, -0.10667312145233154, 0.1422111988067627, -0.08019854128360748, -0.31997108459472656, 0.4204134941101074, -0.49327659606933594, 0.13772130012512207, 0.14902913570404053, 0.4244574308395386, -0.13708242774009705, 0.1437196135520935, -0.03154730796813965, -0.12648028135299683, 0.23896831274032593, 0.36857789754867554, 0.2797934412956238, 0.06594672054052353, 0.38764309883117676, -0.15486228466033936, -0.1106569766998291, 0.20423848927021027, -0.4475281834602356, 0.3618304133415222, -0.079012930393219, 0.432037889957428, 0.3317904770374298, -0.3532105088233948, -0.14558935165405273, 0.4149813652038574, 0.43643516302108765, -0.2714076638221741, -0.22351086139678955, -0.24522793292999268, 0.13005954027175903, 0.3441845178604126, -0.36931198835372925, -0.04032742977142334, 0.03218960762023926, 0.319955050945282, -0.039155662059783936, 0.13425815105438232, -0.4756872057914734, -0.39267873764038086, 0.03999584913253784, -0.15644925832748413, 0.04644721746444702, -0.7016691565513611, 0.2258417010307312, -0.4299219846725464, 0.19785982370376587, -0.1582522988319397, -0.4529774785041809, 0.15503358840942383, 0.23046588897705078, 0.3217257261276245, -0.16065388917922974, -0.18271172046661377, 0.22573184967041016, -0.08333539962768555, -0.25527334213256836, 0.09995094686746597, -0.1457090973854065, -0.11209142208099365, 0.45391571521759033, -0.28036054968833923, 0.5517623424530029, 0.26628780364990234, 0.08700191974639893, -0.24327236413955688, -0.3885643482208252, -0.48095667362213135, -0.035431571304798126, -0.22397595643997192, 0.17970424890518188, -0.07595066726207733, -0.24991101026535034, -0.22017550468444824, 0.49486470222473145, 0.36901628971099854, -0.4748154878616333, 0.20825649797916412, -0.1588868498802185, -0.38593971729278564, -0.050761640071868896, -0.06437897682189941, 0.3898838758468628, 0.236223042011261, 0.4185220003128052, 0.1158677339553833, 0.1432870626449585, 0.27278774976730347, -0.4307192862033844, -0.13744527101516724, 0.356040358543396, 0.1615809202194214, 0.32264095544815063, -0.8692164421081543, 0.22839659452438354, -0.5070537328720093, 0.33478569984436035, -0.18611901998519897, -0.20116394758224487, 0.4087570905685425, -0.017011046409606934, 0.5925737619400024, -0.22792237997055054, -0.15742188692092896, 0.21698880195617676, -0.14294922351837158, 0.5799404382705688, -0.45718997716903687, 0.09932214021682739, -0.24910447001457214, -0.07511186599731445, -0.5737357139587402, -0.22359022498130798], [0.03864390403032303, -0.11109614372253418, -0.4456023573875427, -0.35505861043930054, 0.4619293808937073, 0.36794811487197876, 0.4396432042121887, -0.22968924045562744, -0.21389466524124146, -0.11075599491596222, -0.36509525775909424, 0.2892467975616455, 0.009651601314544678, 0.2590706944465637, 0.4944308400154114, -0.4340919256210327, 0.3226977288722992, -0.46230649948120117, -0.11280924081802368, -0.14713019132614136, 0.0914054587483406, -0.047296762466430664, -0.1693132072687149, -0.49367988109588623, -0.05125391483306885, -0.25184059143066406, 0.20610475540161133, -0.2988266944885254, 0.19999247789382935, 0.2976909279823303, -0.01190425455570221, 0.5564007759094238, -0.04925757646560669, -0.3485811948776245, 0.16358990967273712, -0.2199932336807251, 0.34495991468429565, -0.5477741360664368, -0.3684843182563782, -0.06795530021190643, 0.13846778869628906, 0.4954100251197815, -0.08510476350784302, 0.042718783020973206, -0.3731902837753296, 0.39834654331207275, 0.34415221214294434, 0.24108338356018066, -0.2243800312280655, 0.23812226951122284, 0.1053970456123352, 0.1883142590522766, -0.20616722106933594, 0.10016471147537231, -0.5237023234367371, 0.34713470935821533, -0.0902743935585022, 0.1746487319469452, 0.4036814570426941, 0.017751574516296387, -0.05749332904815674, -0.23709136247634888, 0.013625681400299072, -0.31574416160583496, 0.3661147952079773, -0.2095813751220703, 0.01648533344268799, -0.028296291828155518, -0.003947019577026367, 0.20912805199623108, -0.02311784029006958, 0.2951958179473877, 0.23820161819458008, -0.09524965286254883, 0.2699528932571411, 0.13872939348220825, -0.391335129737854, -0.2656376361846924, 0.44639283418655396, 0.002989061176776886, -0.12604263424873352, -0.10751456022262573, 0.36517518758773804, 0.1700754165649414, -0.3130521774291992, -0.11709918826818466, 0.16930389404296875, -0.03849232196807861, 0.4293143153190613, -0.4632960557937622, 0.2639211416244507, 0.38261860609054565, -0.2565464377403259, 0.07628089189529419, -0.5143552422523499, 0.39768874645233154, -0.06922191381454468, 0.08016502857208252, 0.4670817255973816, -0.4618932008743286, -0.10429859161376953, 0.1075635552406311, 0.11547094583511353, -0.011288702487945557, 0.13926124572753906, 0.026318252086639404, 0.03787350654602051, 0.47329503297805786, 0.30965399742126465, 0.21210575103759766, 0.0019278526306152344, -0.10052019357681274, -0.04054945707321167, -0.29534900188446045, -0.26484423875808716, 0.06933296471834183, 0.007344305515289307, -0.3704923987388611, -0.20983874797821045, 0.4304158091545105, 0.0871543288230896, 0.07095897197723389, 0.4262111186981201, 0.3979092836380005, -0.067782461643219, 0.0489276647567749, -0.3582928776741028, 0.2538231611251831]], "hidden_weights": [[0.2992623448371887, 0.08371955156326294, -0.2889297604560852, 0.16945922374725342, -0.0055504292249679565, 0.4789533019065857, 0.39194798469543457, 0.42971324920654297, -0.36435550451278687, -0.2568531632423401, -0.35027438402175903, -0.1414584219455719, 0.06361615657806396, 0.355981707572937, -0.2594274878501892, 0.2320728898048401, -0.1250990629196167, -0.36101365089416504, 0.32665926218032837, -0.0386233925819397, 0.23730111122131348, -0.12503200769424438, -0.5385710000991821, -0.5621070265769958, 0.1448962539434433, 0.24682337045669556, 0.48729074001312256, -0.2998296022415161, 0.3577471077442169, -0.2902718484401703, -0.3101400136947632, -0.2356899380683899, -0.13169683516025543, -0.4880777597427368, -0.10610342025756836, 0.4124683141708374, -0.18389293551445007, 0.49002063274383545, -0.10396221280097961, 0.40551048517227173, -0.12680462002754211, 0.02602662891149521, 0.036438703536987305, 0.3418208956718445, -0.12565934658050537, 0.44488322734832764, -0.3033890724182129, 0.1689940094947815, 0.04568678140640259, 0.49783188104629517, 0.3521624207496643, 0.25309503078460693, -0.4492715001106262, -0.258453905582428, 0.47806107997894287, -0.5036700963973999, 0.2833601236343384, -0.20633602142333984, -0.00828009843826294, 0.2803918719291687, -0.25702422857284546, 0.3374422788619995, 0.15846246480941772, 0.17253655195236206], [0.48693013191223145, 0.33023056387901306, 0.15190106630325317, 0.2641732692718506, 0.19288837909698486, 0.3572670817375183, -0.29700809717178345, -0.321475625038147, -0.27928468585014343, 0.0957232117652893, 0.49747782945632935, -0.23003733158111572, -0.35692882537841797, -0.26860296726226807, 0.3541627526283264, 0.328593373298645, 0.2028464674949646, 0.28992652893066406, 0.2608051896095276, 0.1325829029083252, -0.1861870288848877, -0.45756667852401733, 0.17729803919792175, 0.1065416932106018, 0.07304275035858154, 0.002059042453765869, 0.0403975248336792, 0.2939240336418152, -0.4873782992362976, -0.28712934255599976, -0.4921359419822693, 0.2804901599884033, -0.18510779738426208, -0.2399657964706421, -0.206183522939682, 0.02272491343319416, 0.007416397333145142, 0.35117143392562866, 0.13399603962898254, 0.07696819305419922, -0.17303884029388428, -0.1194385290145874, 0.002301812171936035, 0.21409940719604492, -0.1610446572303772, 0.11634016036987305, -0.3611948490142822, -0.2561865448951721, 0.07118821144104004, -0.3973122835159302, 0.47383010387420654, 0.19057804346084595, 0.21471986174583435, -0.10829412937164307, 0.0293692946434021, 0.35726070404052734, 0.1727042943239212, -0.33996206521987915, 0.3509392738342285, -0.3707682490348816, 0.10600560903549194, -0.034316301345825195, 0.3897995948791504, 1.0705394744873047], [0.0191994309425354, 0.44435614347457886, 0.11848960816860199, -0.37293684482574463, 0.3451264500617981, 0.01666790246963501, 0.15314465761184692, -0.4791152775287628, 0.1327744722366333, -0.28567010164260864, -0.272849440574646, 0.1410093903541565, -0.2940586507320404, -0.26887381076812744, -0.19065409898757935, 0.18374359607696533, -0.44131141901016235, 0.2515966296195984, -0.16180169582366943, -0.21632148325443268, 0.018203318119049072, 0.46093255281448364, 0.4902828335762024, 0.2522374391555786, -0.23655225336551666, 0.20172536373138428, -0.24895596504211426, -0.4512273073196411, -0.42220091819763184, -0.01802140474319458, -0.03155035525560379, -0.2857394814491272, 0.2424936294555664, -0.0599445104598999, 0.1333167552947998, 0.43689191341400146, -0.46174025535583496, 0.47635704278945923, 0.07251560688018799, 0.28590765595436096, -0.1749587059020996, 0.2749326229095459, -0.4403241276741028, -0.28550100326538086, -0.017734110355377197, 0.23482686281204224, -0.22058911621570587, 0.4754265546798706, 0.4613937437534332, 0.05804610252380371, -0.2776045799255371, 0.3252708911895752, -0.348471999168396, -0.42739856243133545, 0.44277119636535645, -0.378435343503952, 0.11694230139255524, -0.2051641345024109, 0.028584301471710205, 0.36447572708129883, -0.36213332414627075, -0.11837643384933472, 0.12215256690979004, -0.12671756744384766], [-0.057661354541778564, -0.233255535364151, -0.4372439384460449, -0.10322803258895874, -0.06820851564407349, 0.2248365879058838, 0.16592180728912354, 0.2787090539932251, -0.20985329151153564, 0.2954205870628357, 0.09670010209083557, -0.14623898267745972, 0.23002630472183228, 0.21227747201919556, 0.3770219087600708, -0.12433671206235886, -0.029276788234710693, -0.23303759098052979, 0.40298834443092346, 0.4964008033275604, 0.5491220951080322, -0.4834849238395691, -0.08882850408554077, 0.12033689022064209, 0.35435789823532104, -0.2464175820350647, -0.40269654989242554, -0.21398717164993286, -0.25155460834503174, -0.2166835367679596, -0.32968154549598694, 0.15973162651062012, -0.3397507071495056, -0.4516812562942505, 0.006721317768096924, -0.35899490118026733, 0.12642544507980347, -0.19032227993011475, -0.25518089532852173, 0.38165611028671265, -0.02123597264289856, -0.44316500425338745, 0.10941773653030396, 0.17571163177490234, 0.28901535272598267, -0.27363282442092896, 0.21751224994659424, 0.13784503936767578, 0.17791984975337982, 0.2990151047706604, -0.28365081548690796, 0.07606899738311768, -0.32922986149787903, -0.010859966278076172, 0.4407876133918762, 0.18318329751491547, -0.5823431015014648, 0.42856472730636597, 0.0537114143371582, 0.2664092779159546, 0.34963053464889526, -0.09802645444869995, 0.6821088194847107, -0.05534946918487549], [-0.5472388863563538, 0.33475396037101746, 0.3168950080871582, -0.12136399745941162, -0.4347213804721832, -0.10130059719085693, -0.4696492552757263, 0.31449753046035767, 0.15957456827163696, -0.3054323196411133, -0.43160098791122437, -0.2449169158935547, 0.0809069275856018, -0.16462594270706177, -0.4821089506149292, -0.1793428659439087, 0.04353219270706177, -0.09283764660358429, -0.4421103596687317, -0.12739163637161255, 0.19330847263336182, -0.45583492517471313, 0.06642788648605347, -0.2135910987854004, 0.3127642273902893, 0.37649065256118774, 0.07668381929397583, 0.02393043041229248, 0.33545905351638794, -0.2164170742034912, 0.4917749762535095, 0.35029852390289307, -0.437136173248291, 0.22201794385910034, 0.08162164688110352, -0.4496755003929138, -0.7595142722129822, -0.0383855402469635, 0.3772546648979187, 0.15089112520217896, 0.14511185884475708, 0.49222490191459656, -0.45705944299697876, -0.07380658388137817, 0.13040691614151, -0.08961242437362671, -0.13231289386749268, 0.33822405338287354, 0.16401547193527222, -0.08155131340026855, 0.4849468767642975, 0.019483456388115883, -0.4629782438278198, 0.34454625844955444, 0.03123021125793457, 0.3594479560852051, 0.46868008375167847, 0.34481924772262573, 0.06881624460220337, 0.467648446559906, -0.015913963317871094, 0.2251240760087967, 0.35175859928131104, -0.2071743607521057], [0.043530166149139404, 0.3561330735683441, -0.5396105647087097, 0.39338219165802, -0.1993998885154724, 0.06736540794372559, -0.17453783750534058, 0.38602590560913086, -0.2388913631439209, -0.008246421813964844, -0.6519943475723267, 0.2767407298088074, 0.06653684377670288, -0.3549318313598633, 0.4880213737487793, -0.4913303852081299, 0.37795335054397583, 0.4412335157394409, -0.09307414293289185, -0.326615571975708, 0.2657485604286194, -0.6111232042312622, -0.2567959427833557, -0.45997291803359985, -0.30560874938964844, -0.43464601039886475, 0.4161996841430664, -0.17052549123764038, -0.004966914653778076, -0.46527087688446045, -0.27171868085861206, 0.36386358737945557, 0.35416823625564575, 0.4290493130683899, 0.36592531204223633, 0.15810465812683105, 0.211345374584198, 0.4556664824485779, 0.12195407599210739, -0.1685207337141037, 0.15808898210525513, -0.16297131776809692, 0.39091330766677856, -0.03834611177444458, -0.28755325078964233, -0.44560515880584717, -0.3890891969203949, -0.41133421659469604, -0.3789021968841553, 0.4456544518470764, 0.07490690052509308, 0.12190502882003784, -0.34491026401519775, 0.02793281525373459, 0.11552691459655762, -0.008029520511627197, -0.32202309370040894, -0.23520295321941376, -0.12577569484710693, -0.22631186246871948, 0.22107088565826416, -0.05024099349975586, 0.36189210414886475, -0.48785167932510376], [0.3456171154975891, 0.39951276779174805, -0.38046157360076904, -0.11735928058624268, 0.39365506172180176, 0.3448246717453003, -0.45692235231399536, 0.2878934144973755, 0.4695974588394165, -0.08070772886276245, -0.38692015409469604, -0.17156337201595306, 0.076011061668396, 0.17192620038986206, -0.27511119842529297, 0.4539094567298889, 0.06507470458745956, 0.6026337146759033, -0.1600082516670227, -0.35483795404434204, -0.08913344144821167, 0.045233726501464844, -0.43281394243240356, -0.07139170169830322, -0.14090925455093384, 0.20255491137504578, 0.33387917280197144, -0.44885432720184326, 0.28792035579681396, -0.32113945484161377, -0.03738224506378174, -0.40217530727386475, -0.1450653076171875, -0.0808362066745758, -0.4739270806312561, -0.10796648263931274, 0.5583807229995728, 0.10235083103179932, -0.2695937156677246, -0.344232976436615, 0.3560441732406616, -0.21402573585510254, 0.5443758368492126, -0.05089974403381348, -0.08402346819639206, 0.43106669187545776, 0.014680147171020508, 0.5149421691894531, 0.3073827624320984, -0.17269927263259888, -0.43267279863357544, 0.23596882820129395, 0.04123717546463013, 0.3554990291595459, 0.09069117903709412, -0.43947452306747437, 0.31791985034942627, 0.15819507837295532, 0.07696878910064697, -0.4612547755241394, -0.6131683588027954, 0.316109836101532, -0.44031649827957153, 0.09901705384254456], [-0.29271000623703003, -0.34759679436683655, 0.14591747522354126, -0.5083272457122803, -0.4576897621154785, 0.4731571674346924, -0.19242368638515472, -0.3438166379928589, 0.36624622344970703, -0.08334803581237793, 0.3100040555000305, 0.40739989280700684, 0.07095259428024292, 0.21136194467544556, -0.272010862827301, -0.4268786311149597, 0.09029734134674072, 0.12564986944198608, 0.12538671493530273, -0.20523099601268768, 0.4809340238571167, -0.09020441770553589, -0.4425732493400574, 0.3361050486564636, 0.0130196213722229, -0.6438133120536804, -0.04037976264953613, -0.4081515669822693, -0.3357965350151062, 0.4556846022605896, -0.5801489949226379, 0.4113891124725342, 0.8977926969528198, -0.09423020482063293, 0.3871593475341797, -0.1376224160194397, -0.10146939754486084, -0.3225374221801758, 0.06585711240768433, 0.30917418003082275, -0.3727339506149292, -0.0737869143486023, 0.13099753856658936, 0.20513194799423218, -0.23253695666790009, -0.35611844062805176, -0.2930731177330017, -0.010383248329162598, 0.2003488540649414, 0.22936731576919556, -0.4028487205505371, -0.07798081636428833, -0.22739797830581665, 0.38060837984085083, -0.42409712076187134, 0.07340143620967865, -0.47325366735458374, 0.10058654844760895, 0.22169587016105652, 0.027740955352783203, 0.09208929538726807, 0.4874480366706848, -0.18045499920845032, -0.18610133230686188], [-0.41211187839508057, 0.19406920671463013, 0.4975879192352295, 0.43147021532058716, 0.08456474542617798, 0.40925437211990356, 0.23544394969940186, 0.15504218637943268, 0.1635776162147522, 0.43184059858322144, -0.448665589094162, 0.4078935384750366, -0.20084241032600403, 0.28940349817276, 0.2333073616027832, 0.09192365407943726, -0.2510261535644531, -0.31634610891342163, -0.23641544580459595, -0.3585764765739441, -0.14351963996887207, 0.04996210336685181, 0.08305484056472778, 0.4735977053642273, 0.0437852144241333, 0.09665817022323608, 0.12028264999389648, 0.4386369287967682, -0.35344815254211426, 0.5855315923690796, -0.13594043254852295, -0.515716016292572, -0.32154083251953125, 0.22265863418579102, -0.3895515203475952, -0.4386574625968933, 0.037445664405822754, -0.4564852714538574, 0.33522194623947144, 0.4048846364021301, -0.11451216042041779, -0.005277693271636963, -0.23586952686309814, -0.07645058631896973, 0.3171085715293884, -0.6331638097763062, 0.1849043369293213, 0.2861548662185669, -0.08484136313199997, 0.3282938599586487, -0.23819184303283691, -0.411171019077301, -0.013627290725708008, 0.4779846668243408, -0.23702466487884521, 0.11699104309082031, -0.4199015498161316, 0.1830054521560669, 0.27040982246398926, -0.23371416330337524, 0.42122721672058105, -0.08809612691402435, -0.5377466678619385, -0.26004737615585327], [-0.3624520003795624, -0.04837775230407715, 0.4458833932876587, 0.5794874429702759, -0.21037904918193817, 0.3186858892440796, 0.2148606777191162, -0.34696197509765625, -0.40878570079803467, 0.042305439710617065, 0.32723313570022583, -0.1913037896156311, -0.24848026037216187, -0.2417164444923401, 0.12408655881881714, 0.38652706146240234, 0.0855870246887207, -0.28915613889694214, -0.3466387391090393, 0.03995871543884277, 0.06275659799575806, -0.09388792514801025, 9.709596633911133e-05, 0.3115807771682739, -0.5204218626022339, 0.4613803029060364, -0.15094763040542603, -0.21280419826507568, -0.49619007110595703, 0.17539113759994507, -0.43856048583984375, -0.42586833238601685, 0.030836641788482666, 0.33760160207748413, 0.30831390619277954, 0.055455148220062256, -0.43285071849823, 0.43514859676361084, 0.29005205631256104, -0.01669323444366455, -0.21952366828918457, -0.1879224181175232, -0.36955803632736206, 0.014071881771087646, -0.49560660123825073, -0.07613945007324219, -0.2611498236656189, -0.09029489755630493, 0.14187705516815186, 0.12162125110626221, -0.4661189317703247, 0.24407365918159485, 0.16102612018585205, 0.41474950313568115, -0.003651842474937439, -0.445423424243927, -0.35922396183013916, -0.46555596590042114, -0.438288152217865, -0.10005910694599152, -0.49761688709259033, -0.011029362678527832, -0.35029375553131104, 0.38632655143737793], [0.0070934295654296875, 0.5513843894004822, 0.1393020749092102, -0.25298380851745605, -0.3034029006958008, -0.07115095853805542, -0.25982969999313354, 0.2724100351333618, 0.4371569752693176, 0.3731120228767395, -0.3614216446876526, -0.28589558601379395, -0.03188604116439819, 0.25436824560165405, -0.08581280708312988, -0.31640636920928955, 0.48964494466781616, 0.08656322956085205, 0.294677197933197, 0.3053898215293884, -0.2977917790412903, 0.41503703594207764, 0.7950836420059204, -0.013011336326599121, -0.1328045129776001, -0.476608008146286, -0.08819118142127991, -0.2907114624977112, -0.40291571617126465, -0.08018876612186432, 0.5810858011245728, -0.12934473156929016, -0.47717785835266113, 0.4278135895729065, -0.23582889139652252, 0.2884414792060852, 0.4830031991004944, -0.0637749433517456, -0.42603859305381775, 0.24770766496658325, -0.4007244110107422, 0.16971421241760254, -0.36122673749923706, -0.2609850764274597, 0.43054062128067017, 0.41007447242736816, 0.11544513702392578, 0.08755618333816528, -0.15419414639472961, -0.13956570625305176, -0.2187168002128601, -0.28825169801712036, 0.46462345123291016, 0.35959547758102417, 0.13402247428894043, -0.39940959215164185, 0.6818447113037109, -0.3310980200767517, 0.17566493153572083, -0.011782646179199219, -0.45545005798339844, -0.06166011095046997, 0.31308513879776, -0.0029266104102134705], [0.31033849716186523, 0.4105832576751709, -0.4501650929450989, -0.2453707456588745, -0.33796215057373047, 0.14173763990402222, -0.36226022243499756, 0.2529184818267822, -0.3847081661224365, 0.44826632738113403, 0.47267335653305054, 0.15617156028747559, 0.49452388286590576, 0.3458329439163208, -0.06538581848144531, -0.015829920768737793, -0.3878527879714966, -0.3351738452911377, 0.22576838731765747, -0.5652803182601929, 0.09015035629272461, -0.33052128553390503, -0.1368238925933838, -0.22897157073020935, 0.1575162410736084, 0.21526974439620972, -0.055389404296875, -0.2237197756767273, -0.5045827627182007, -0.04630333185195923, 0.3396838903427124, 0.2200724482536316, -0.4162736237049103, -0.28853726387023926, 0.26441216468811035, -0.36105117201805115, -0.551777720451355, -0.39460819959640503, 0.05097609758377075, 0.19025111198425293, -0.2108517736196518, 0.13600856065750122, 0.1296679973602295, 0.14768928289413452, 0.48896336555480957, 0.06981223821640015, 0.030971519649028778, 0.08153563737869263, -0.25683778524398804, -0.09865283966064453, 0.11141073703765869, -0.01193314790725708, 0.2200492024421692, 0.35281187295913696, 0.3634217381477356, 0.33686280250549316, -0.36372697353363037, -0.042588114738464355, 0.24176326394081116, 0.26014530658721924, 0.2804265022277832, -0.4055434465408325, -0.13994735479354858, 0.42740780115127563], [0.056210219860076904, 0.05999267101287842, -0.3288244605064392, 0.29682856798171997, 0.10604864358901978, -0.4009097218513489, -0.30992811918258667, -0.33883875608444214, 0.24168190360069275, -0.48101580142974854, 0.4504398703575134, 0.20323854684829712, 0.22570788860321045, -0.41723203659057617, 0.39600253105163574, 0.4843870997428894, 0.18500560522079468, 0.17351853847503662, 0.3199409246444702, 0.42975878715515137, 0.24811279773712158, -0.3870951235294342, 0.43367069959640503, 0.2895016670227051, -0.29869627952575684, -0.09193849563598633, -0.21729284524917603, -0.27720171213150024, 0.1127762496471405, -0.3728906512260437, -0.4368218779563904, -0.16373062133789062, -0.4061952233314514, -0.42401766777038574, 0.4104073643684387, -0.30207353830337524, -0.4817497730255127, 0.21504533290863037, 0.2670026421546936, -0.10643482208251953, -0.4004313349723816, 0.30563271045684814, -0.44970768690109253, 0.1685408353805542, 0.13668936491012573, -0.4498293399810791, -0.3282319903373718, 0.18681171536445618, -0.02464592456817627, 0.09410935640335083, -0.2682458460330963, 0.3077947199344635, -0.31660324335098267, -0.45284223556518555, 0.4447022080421448, 0.16439729928970337, 0.4342147409915924, -0.20650219917297363, -0.30004560947418213, -0.0704350471496582, -0.11415362358093262, 0.47603607177734375, -0.14092934131622314, 0.3450798988342285], [0.05900001525878906, -0.0816110372543335, 0.22192102670669556, -0.40972089767456055, 0.4329543113708496, -0.3832957148551941, 0.2654954791069031, 0.466431200504303, 0.2173835039138794, 0.061775267124176025, -0.3451380133628845, 0.36016666889190674, -0.1097213625907898, -0.24219167232513428, 0.2954375147819519, -0.38128355145454407, 0.21969002485275269, 0.08005648851394653, -0.5053781270980835, -0.27589696645736694, 0.5200456380844116, -0.1820933073759079, 0.20740371942520142, -0.1923450231552124, 0.06369239091873169, 0.0674741268157959, 0.15658891201019287, -0.40522801876068115, -0.03288774937391281, -0.04255259037017822, -0.39543211460113525, -0.47710007429122925, -0.42855721712112427, -0.06960642337799072, -0.3052421510219574, 0.44626325368881226, 0.2562371492385864, 0.2354387640953064, 0.5134338140487671, 0.03461108356714249, 0.10980331897735596, 0.40628859400749207, 0.47882163524627686, -0.059224843978881836, 0.3423493504524231, 0.4465354084968567, 0.27529627084732056, -0.7984080910682678, 0.5333379507064819, -0.11260954290628433, 0.5597476363182068, -0.2757366895675659, -0.01365572214126587, 0.16021645069122314, -0.20819145441055298, -0.0917975902557373, 0.1486150026321411, -0.110798180103302, 0.29092592000961304, -0.4959169626235962, 0.36921513080596924, -0.1452973335981369, -0.021123051643371582, 0.4477028250694275], [-0.3266577124595642, -0.5459468364715576, -0.17156469821929932, 0.06981295347213745, -0.4265543222427368, -0.26469677686691284, 0.3537115454673767, 0.09124523401260376, 0.15081703662872314, -0.31964024901390076, 0.19824934005737305, 0.10560888051986694, -0.23591887950897217, -0.23204761743545532, 0.49473637342453003, 0.29953229427337646, -0.2166205644607544, -0.4347628355026245, 0.3920936584472656, 0.7947431206703186, -0.35313090682029724, -0.2024640440940857, 0.3396872878074646, -0.4101547598838806, -0.32016801834106445, -0.29521769285202026, 0.557795524597168, -0.40756046772003174, -0.0767207145690918, -0.4801844358444214, -0.01908975839614868, 0.2373967170715332, -0.3699435591697693, 0.1800175905227661, 0.37462300062179565, -0.013054370880126953, 0.0777164101600647, -0.48806512355804443, -0.22307193279266357, 0.42921772599220276, -0.013720899820327759, -0.4438745975494385, -0.3097667098045349, -0.4170261025428772, 0.413091778755188, 0.373736709356308, -0.328397274017334, -0.27161937952041626, 0.34642595052719116, 0.4457125663757324, -0.05593746900558472, 0.3486871123313904, 0.18645846843719482, 0.01014244556427002, 0.07440400123596191, 0.7659982442855835, -0.05277663469314575, -0.3938679099082947, -0.3051576018333435, 0.03434187173843384, -0.47134506702423096, 0.39968395233154297, 0.41187816858291626, -0.23321306705474854], [-0.4321468472480774, 0.2704108953475952, -0.33461034297943115, -0.2924346327781677, 0.341971755027771, 0.3553674817085266, -0.20537462830543518, -0.41310882568359375, -0.20774900913238525, -0.2194952368736267, -0.44787901639938354, 0.2999354600906372, -0.430813729763031, 0.13717246055603027, 0.3639933466911316, 0.2265164852142334, -0.33473289012908936, -0.2005559653043747, 0.42893195152282715, 0.2799396514892578, 0.06686151027679443, 0.44942277669906616, -0.15137767791748047, -0.33025211095809937, 0.29997286200523376, 0.04480862617492676, 0.24778729677200317, 0.054622769355773926, 0.4770994186401367, 0.3405246436595917, 0.10671877861022949, 0.44935280084609985, -0.2241518348455429, 0.1046762615442276, 0.33966946601867676, 0.21424901485443115, 0.14746004343032837, 0.16131502389907837, -0.107105553150177, 0.2852356433868408, -0.1660643219947815, 0.45633649826049805, -0.30668407678604126, -0.3156666159629822, 0.10607832670211792, 0.036962032318115234, 0.43167614936828613, -0.16083687543869019, -0.04808855056762695, 0.4816877841949463, -0.1307007074356079, -0.05374881625175476, -0.4147939085960388, -0.6443707346916199, -0.2990509867668152, -0.4274858832359314, 0.36325421929359436, -0.3629724383354187, -0.17857152223587036, 0.2019197940826416, -0.11574111878871918, -0.18367189168930054, -0.14876055717468262, -0.2673110365867615], [-0.4115028381347656, 0.46440547704696655, 0.3270905017852783, 0.07158759236335754, -0.10188958048820496, 0.24568456411361694, -0.30967843532562256, -0.013553764671087265, -0.21210569143295288, 0.4079244136810303, -0.07185870409011841, 0.3774605393409729, -0.288429856300354, 0.32169002294540405, -0.05632847547531128, 0.2818748354911804, -0.3415095806121826, 0.4328305125236511, 0.36654192209243774, 0.09148049354553223, -0.4726213216781616, 0.11563217639923096, 0.48798662424087524, 0.38710659742355347, 0.3760192394256592, 0.3777177929878235, 0.17493680119514465, 0.42596548795700073, 0.17638403177261353, 0.48490840196609497, 0.13546597957611084, -0.319428026676178, -0.4386157989501953, -0.42455968260765076, 0.3467615246772766, -0.6116751432418823, -0.2955018877983093, -0.19811689853668213, 0.4662555158138275, -0.2527562975883484, 0.15699148178100586, -0.45774537324905396, -0.3479725122451782, 0.1932922601699829, -0.045439183712005615, -0.07148712873458862, 0.08904814720153809, -0.47307485342025757, 0.10918015241622925, 0.2940866947174072, -0.4349343776702881, -0.27762335538864136, -0.17573493719100952, -0.302166223526001, -0.48587995767593384, 0.08056867122650146, 0.25926387310028076, 0.13451063632965088, 0.4545544385910034, 0.4430132508277893, 0.30907756090164185, 0.18278539180755615, 0.11395376920700073, -0.16968774795532227], [0.3655582666397095, -0.1989574432373047, 0.3404931426048279, -0.4416095018386841, -0.37922781705856323, 0.1269349455833435, -0.16902846097946167, -0.0034151077270507812, 0.48223429918289185, -0.33266568183898926, -0.2930101752281189, -0.46930044889450073, 0.27966779470443726, 0.4348071217536926, 0.03024885058403015, -0.30245399475097656, 0.20254677534103394, 0.08765983581542969, -0.1911911964416504, -0.4701475501060486, -0.0711069107055664, -0.08784520626068115, 0.4907069802284241, -0.4503847360610962, -0.1842227578163147, -0.01896810531616211, 0.2808542251586914, 0.07747828960418701, 0.27674320340156555, 0.3204236626625061, -0.35729098320007324, -0.4052343964576721, 0.4590838551521301, -0.2533719539642334, 0.21097874641418457, -0.49166321754455566, -0.06479750573635101, 0.16404366493225098, -0.2727166414260864, 0.24667400121688843, 0.47326892614364624, -0.0010706186294555664, -0.005635321140289307, -0.39690834283828735, -0.04351323843002319, -0.1455078125, -0.24262148141860962, 0.4280695915222168, -0.05006551742553711, 0.014666497707366943, -0.078711599111557, 0.1564536690711975, 0.0016140341758728027, 0.21687322854995728, -0.34385037422180176, -0.20936650037765503, -0.49107325077056885, 0.008813142776489258, 0.3475068211555481, 0.08072257041931152, -0.1567884087562561, -0.4678940176963806, -0.38063687086105347, 0.1132885217666626], [-0.1636553406715393, -0.3986782431602478, 0.37670230865478516, -0.01558774709701538, -0.6678435802459717, -0.3768848776817322, 0.12106490135192871, 0.3682457208633423, 0.41728562116622925, -0.22211498022079468, -0.24587947130203247, 0.2808911204338074, -0.2907518148422241, -0.4082866907119751, 0.24030813574790955, 0.4794503450393677, -0.28189218044281006, 0.02026963233947754, 0.17890846729278564, -0.4751760959625244, -0.13143736124038696, 0.34855735301971436, 0.3424699604511261, -0.021504104137420654, 0.06746178865432739, -0.4520808756351471, -0.15731137990951538, 0.38394391536712646, -0.4726504683494568, -0.1973070502281189, -0.07955265045166016, -0.40080979466438293, -0.2969179153442383, -0.41851159930229187, 0.04314078390598297, 0.480857789516449, -0.33701616525650024, -0.3895263075828552, 0.2711310088634491, -0.003594517707824707, -0.09317908436059952, -0.30175232887268066, -0.3458331227302551, 0.4728761315345764, -0.19906717538833618, 0.07404577732086182, 0.17465782165527344, -0.09452575445175171, 0.22528395056724548, -0.15962040424346924, -0.0064413100481033325, -0.015393197536468506, 0.3226402997970581, -0.09189194440841675, -0.23572546243667603, 0.419955313205719, 0.4052503705024719, -0.34404128789901733, 0.19500738382339478, 0.5387817025184631, -0.2821916937828064, -0.01649010181427002, 0.19626915454864502, -0.19005733728408813], [-0.3321356773376465, 0.29037004709243774, 0.36273980140686035, 0.3802259564399719, 0.06072342395782471, -0.1437661051750183, -0.44769734144210815, -0.33724188804626465, -0.4627673029899597, 0.3233327269554138, 0.22145289182662964, -0.08251684904098511, -0.34078580141067505, 0.46727514266967773, 0.2711355686187744, -0.01349690556526184, 0.05426287651062012, 0.3232555389404297, 0.09032124280929565, 0.4556455612182617, 0.038260817527770996, 0.821195125579834, -0.0008764266967773438, 0.20650851726531982, 0.18974661827087402, -0.12315990030765533, -0.21355420351028442, 0.1589767336845398, -0.28142184019088745, -0.0065222978591918945, 0.43894028663635254, -0.4816378951072693, -0.3045194745063782, 0.14752137660980225, 0.45959341526031494, 0.2901994585990906, 0.38124269247055054, 0.1876516342163086, -0.4070277214050293, 0.3876636028289795, -0.46801918745040894, -0.3376275897026062, -0.3568565249443054, 0.02698063850402832, 0.2647625803947449, -0.17107723653316498, 0.1589081883430481, -0.013278722763061523, 0.015676498413085938, 0.1387593150138855, 0.2917057275772095, -0.4001086354255676, -0.3020583391189575, -0.41986244916915894, -0.4516568183898926, -0.45463496446609497, 0.06789426505565643, -0.4029000401496887, -0.15790748596191406, -0.5101529359817505, -0.4241708517074585, -0.4641984701156616, -0.24065180122852325, 0.013576865196228027], [-0.10782623291015625, 0.48507994413375854, -0.17912006378173828, 0.4100419878959656, 0.04368652403354645, -0.4918655753135681, 0.17453640699386597, -0.4109748601913452, 0.010920345783233643, 0.09304207563400269, -0.34424370527267456, -0.14143207669258118, 0.11718565225601196, 0.016641676425933838, 0.4538995027542114, -0.384796142578125, -0.6581848859786987, 0.27098435163497925, -0.4928940534591675, -0.4233933091163635, 0.14000922441482544, -0.22110915184020996, 0.09668117761611938, -0.355255126953125, -0.09208905696868896, -0.0532856285572052, 0.3266231417655945, -0.12570258975028992, -0.42502158880233765, -0.19691121578216553, 0.21764510869979858, 0.22685909271240234, 0.22499418258666992, -0.24381881952285767, -0.013632357120513916, -0.2900034189224243, 0.29162657260894775, 0.28649061918258667, 0.1369447112083435, 0.26712217926979065, -0.24989992380142212, 0.39905792474746704, -0.4415321350097656, -0.2264123558998108, -0.14651483297348022, 0.47497236728668213, 0.10207700729370117, 0.14193105697631836, -0.4853935241699219, -0.3067587614059448, -0.12277927994728088, -0.29361802339553833, -0.3897436261177063, 0.12732142210006714, 0.3881961703300476, -0.45017433166503906, 0.04351240396499634, -0.4637746810913086, 0.29375165700912476, -0.30718928575515747, 0.04896635189652443, 0.27769172191619873, 0.08222657442092896, -0.2695391774177551], [-0.4597208499908447, 0.2277936339378357, 0.49949926137924194, 0.12891662120819092, -0.20245695114135742, 0.08070611953735352, -0.39437174797058105, -0.36682671308517456, 0.3822590708732605, 0.6913187503814697, -0.3875997066497803, -0.26349884271621704, 0.03098660707473755, 0.32835930585861206, 0.45715779066085815, 0.0005431175231933594, 0.38868647813796997, 0.45140373706817627, -0.16828441619873047, -0.22317427396774292, 0.38601574301719666, 0.8928600549697876, 0.07107245922088623, 0.37482500076293945, 0.24858680367469788, -0.14910173416137695, 0.32635170221328735, -0.21285849809646606, -0.3259831666946411, -0.07416045665740967, 0.46731841564178467, 0.5177194476127625, -0.0023009702563285828, 0.2464371919631958, -0.015027880668640137, -0.3276490569114685, 0.3918483257293701, 0.34776628017425537, 0.1171230673789978, 0.30670762062072754, -0.30611228942871094, -0.217401921749115, -0.42794376611709595, 0.3312445282936096, 0.44665688276290894, -0.06932303309440613, -0.23228055238723755, 0.16716508567333221, -0.14157944917678833, 0.42671719193458557, 0.07564639300107956, -0.2768137454986572, -0.44253015518188477, 0.15720903873443604, 0.11150377988815308, -0.3890673518180847, -0.3534863591194153, -0.3525432348251343, 0.00844663381576538, -0.10230648517608643, -0.10942316055297852, -0.0476377010345459, 0.39865946769714355, 0.47880303859710693], [0.3348701000213623, 0.2994092106819153, 0.3139249384403229, -0.0883793830871582, -0.18309879302978516, -0.40290576219558716, 0.3301926255226135, -0.16296857595443726, -0.06418389081954956, 0.2919313907623291, -0.3533463776111603, -0.2527913451194763, 0.02883751690387726, -0.4076974391937256, 0.29228416085243225, 0.41384369134902954, 0.18607020378112793, -0.34865307807922363, 0.37614887952804565, -0.1066979393362999, -0.3349515199661255, -0.0792778730392456, 0.21562474966049194, 0.37216633558273315, 0.2803376317024231, -0.4903082251548767, 0.40606486797332764, -0.2564767003059387, -0.5104436278343201, -0.379681259393692, 0.1607399582862854, -0.5890189409255981, 0.4005863666534424, 0.48007386922836304, -0.30997729301452637, 0.08390998840332031, -0.4797831177711487, -0.06553047895431519, -0.35630667209625244, -0.08730077743530273, -0.45402443408966064, 0.42482221126556396, -0.20436567068099976, 0.4383167624473572, 0.20955833792686462, 0.16886967420578003, 0.46167445182800293, 0.10400432348251343, 0.06676095724105835, -0.027144551277160645, -0.22372037172317505, -0.19162976741790771, -0.34260421991348267, -0.05918121337890625, 0.305597186088562, -0.27823853492736816, 0.04486526548862457, 0.1629212498664856, -0.04015326499938965, 0.2073214054107666, -0.49236053228378296, 0.0969969630241394, 0.5629382133483887, 0.12826520204544067], [-0.4697512984275818, 0.2886285185813904, -0.5866574048995972, 0.25865858793258667, -0.1740681529045105, 0.1493241786956787, -0.3072035014629364, 0.15184663236141205, 0.19284731149673462, -0.4281410574913025, 0.3978155255317688, 0.6140772700309753, 0.1595744490623474, 0.28109002113342285, 0.462525337934494, 0.21378850936889648, 0.42603927850723267, 0.3334198594093323, 0.3994443416595459, -0.44946837425231934, 0.6767969131469727, 0.020278707146644592, -0.48212599754333496, 0.3468773663043976, 0.17444592714309692, 0.22768712043762207, 0.39973533153533936, -0.09408634901046753, 0.2122671902179718, 0.11210453510284424, 0.3442037105560303, 0.44914716482162476, 0.002243518829345703, 0.40482425689697266, 0.041094422340393066, -0.39233583211898804, 0.013304293155670166, 0.3826565146446228, -0.22893700003623962, -0.052421048283576965, 0.2963215112686157, -0.020202159881591797, 0.4653555154800415, -0.06926357746124268, -0.4177953004837036, -0.49648863077163696, 0.2676471471786499, -0.4380735158920288, -0.5300233364105225, -0.41499972343444824, -0.030248403549194336, -0.4685280919075012, -0.3471919298171997, -0.1688886284828186, -0.03382158279418945, 0.5494205951690674, -0.3588626980781555, 0.3815705180168152, 0.13504725694656372, -0.05187082290649414, 0.28155410289764404, -0.05659552663564682, -0.3761061429977417, -0.14719581604003906], [0.21886706352233887, 0.5844412446022034, 0.25134313106536865, 0.1579420566558838, -0.11471748352050781, 0.4393782615661621, -0.6362860202789307, 0.13418710231781006, 0.19480642676353455, 0.03906893730163574, 0.2340031862258911, -0.2729783058166504, 0.2231905609369278, -0.3900948762893677, -0.3280438184738159, -0.3978900909423828, -0.3165290355682373, -0.07262162119150162, -0.00485605001449585, 0.1849415898323059, -0.26616644859313965, -0.06081610918045044, 0.01480255275964737, 0.38123399019241333, -0.17434930801391602, -0.09486502408981323, 0.3580091595649719, 0.4158332943916321, 0.3391285538673401, 0.06581524014472961, 0.2720005512237549, 0.33654099702835083, 0.34873074293136597, 0.16950830817222595, -0.18819314241409302, 0.150926411151886, -0.44142815470695496, 0.4301266074180603, 0.01635962724685669, -0.14723169803619385, 0.051445722579956055, -0.40539151430130005, 0.04350876808166504, 0.26702624559402466, -0.37000858783721924, -0.13249851763248444, 0.24461716413497925, -0.22553014755249023, -0.29751425981521606, -0.11436405777931213, 0.2867046594619751, -0.15799617767333984, 0.055220842361450195, 0.40664273500442505, -0.4144687056541443, 0.17735075950622559, -0.375029057264328, -0.2063111662864685, 0.2431207299232483, -0.08541005849838257, 0.2874069809913635, -0.6179247498512268, 0.3565934896469116, -0.2549751400947571], [0.3167608380317688, 0.1351545751094818, 0.0659530758857727, 0.4919804334640503, -0.08277136087417603, -0.2681618928909302, -0.15813535451889038, 0.1515650451183319, 0.35940390825271606, -0.45390498638153076, 0.12195071578025818, -0.4293571710586548, -0.35685455799102783, 0.2398807406425476, 0.47107797861099243, 0.0875353217124939, 0.4804929494857788, 0.16836589574813843, 0.35113680362701416, -0.16423875093460083, -0.4639900326728821, -0.25162070989608765, 0.20113539695739746, -0.06425648927688599, -0.1684180498123169, -0.5154520869255066, -0.18878412246704102, -0.18563611805438995, 0.0573030486702919, 0.32346808910369873, -0.04650658369064331, 0.08834796398878098, -0.15687429904937744, -0.5233120918273926, -0.2785753607749939, -0.0841936469078064, -0.49857866764068604, -0.1503129005432129, -0.23716795444488525, 0.48987042903900146, 0.1492902636528015, 0.3321351408958435, -0.10612219572067261, 0.45273005962371826, 0.1428368091583252, 0.15391498804092407, -0.02182525396347046, 0.2977914810180664, -0.286592036485672, -0.4081953465938568, 0.06993420422077179, -0.24355393648147583, 0.45261532068252563, -0.4008079767227173, -0.3438621163368225, 0.23776346445083618, -0.2412845492362976, 0.0846518874168396, -0.14028024673461914, 0.22499096393585205, 0.05085080862045288, -0.49742692708969116, -0.37251633405685425, 0.13295084238052368], [-0.22842010855674744, 0.17752563953399658, -0.4688071608543396, -0.479003369808197, -0.11116772890090942, 0.1482575386762619, 0.2046559453010559, 0.16202962398529053, -0.4107314944267273, -0.05126023292541504, 0.341966450214386, -0.2018841803073883, 0.4622710943222046, -0.28787922859191895, 0.25885188579559326, -0.39807701110839844, -0.21994787454605103, -0.21868574619293213, -0.2564750909805298, -0.3540147542953491, -0.10628151893615723, 0.19746840000152588, 0.2960190773010254, 0.12333858013153076, -0.14191901683807373, 0.08847606182098389, 0.3944256901741028, -0.17617464065551758, 0.37840133905410767, 0.16664975881576538, 0.29994410276412964, -0.09013891220092773, -0.2860718071460724, -0.282745897769928, -0.323103666305542, 0.2857052981853485, 0.30755555629730225, 0.17807036638259888, -0.021641016006469727, -0.3179306983947754, 0.03440755605697632, 0.33332371711730957, 0.16862785816192627, -0.30017703771591187, -0.0687265396118164, 0.1595247983932495, -0.3539610505104065, -0.18896281719207764, -0.09633436799049377, 0.042800724506378174, 0.47137898206710815, -0.5221140384674072, 0.4467615485191345, 0.00591665506362915, 0.22777637839317322, 0.35286635160446167, -0.19910800457000732, 0.4149974584579468, 0.1429351568222046, -0.05169492959976196, -0.21824878454208374, 0.26494884490966797, 0.4295254349708557, -0.3046945333480835], [0.2140626609325409, -0.27164602279663086, 0.3180057406425476, 0.1216428279876709, -0.31471461057662964, -0.024991929531097412, 0.06468445062637329, -0.21745604276657104, 0.1608971357345581, -0.4146110415458679, 0.28601402044296265, 0.33401089906692505, -0.1364985704421997, 0.6489576101303101, 0.14593112468719482, 0.3287579417228699, 0.3851591944694519, -0.16533473134040833, 0.3802109956741333, 0.3616250157356262, -0.288216769695282, 0.4556286931037903, 0.13897597789764404, 0.3220571279525757, 0.10539914667606354, 0.4123968482017517, -0.26433122158050537, -0.40930700302124023, -0.014528453350067139, -0.1651948094367981, 0.48547327518463135, 0.31726235151290894, -0.38382720947265625, 0.3950890898704529, -0.08509701490402222, -0.31304532289505005, 0.14587615430355072, -0.2600322961807251, 0.010250687599182129, 0.1149628758430481, 0.18285375833511353, 0.12950670719146729, -0.2897709608078003, -0.0015016868710517883, -0.16645345091819763, -0.386400043964386, -0.4507046937942505, 0.2535741329193115, 0.010952949523925781, 0.4594324231147766, 0.6122084856033325, 0.20467358827590942, 0.4768732786178589, -0.23536956310272217, 0.40219831466674805, 0.13923591375350952, 0.09692323207855225, -0.09847962856292725, 0.4136738181114197, -0.38524091243743896, 0.07875919342041016, 0.44065481424331665, -0.1544436812400818, -0.2067960500717163], [0.023644328117370605, 0.2257063388824463, -0.0928337574005127, -0.4577754735946655, 0.4550824761390686, 0.648897647857666, -0.3229440450668335, -0.2115378975868225, -0.03296858072280884, 0.06706398725509644, -0.7154078483581543, 0.2689230144023895, -0.14467936754226685, -0.31745588779449463, 0.09722554683685303, 0.08792193233966827, 0.2824481725692749, -0.4831809401512146, -0.4297143816947937, 0.07903575897216797, 0.19317281246185303, 0.07980871200561523, -0.14192378520965576, -0.26242688298225403, 0.022154025733470917, -0.14713793992996216, 0.2223196029663086, -0.028753936290740967, -0.15899014472961426, 0.17495198547840118, -0.13059169054031372, 0.3316805362701416, 0.2812232971191406, -0.44681650400161743, -0.09770190715789795, -0.4244059920310974, 0.4102115333080292, 0.3710871636867523, 0.48067402839660645, 0.33322590589523315, -0.23519353568553925, -0.0470682829618454, 0.42152565717697144, -0.02434706687927246, 0.1558934897184372, -0.06643414497375488, 0.19435423612594604, 0.22939522564411163, 0.049369633197784424, 0.10312354564666748, 0.3185994029045105, -0.061039626598358154, -0.40873420238494873, -0.3206717371940613, 0.19394683837890625, -0.0544581413269043, -0.34763824939727783, -0.21119803190231323, 0.18230414390563965, 0.3928568959236145, 0.41686177253723145, 0.10199016332626343, -0.4113650918006897, 0.13031291961669922], [-0.4501674771308899, -0.06775450706481934, 0.09434229135513306, -0.08350867033004761, 0.3378880023956299, 0.05499384179711342, 0.26437968015670776, -0.1703510880470276, 0.1364155411720276, 0.03938877582550049, 0.48280131816864014, 0.7919182181358337, -0.2888128161430359, 0.06980033218860626, -0.4544374942779541, -0.49942445755004883, 0.19550657272338867, -0.32272040843963623, 0.0792805552482605, -0.3670903444290161, 0.31535786390304565, 0.3936634063720703, 0.063715860247612, 0.06089681386947632, -0.2938157916069031, -0.3207394480705261, -0.006569862365722656, -0.26689136028289795, 0.2734336256980896, 0.3025142550468445, -0.278836727142334, 0.28914856910705566, -0.49119871854782104, -0.16281592845916748, 0.15015676617622375, 0.23271620273590088, -0.05883216857910156, -0.1936284601688385, 0.058431290090084076, -0.15505415201187134, 0.43247824907302856, 0.09195023775100708, -0.06939756870269775, -0.314058780670166, -0.41555267572402954, -0.42882049083709717, -0.24771440029144287, -0.13069945573806763, 0.46516650915145874, -0.09044837951660156, -0.10591626167297363, 0.4478892683982849, 0.2761324644088745, -0.2581084072589874, -0.16606050729751587, -0.21540570259094238, -0.16755998134613037, 0.0361328125, -0.06838542222976685, -0.28069058060646057, -0.07883942127227783, 0.3568194508552551, 0.2225651741027832, -0.11188715696334839], [-0.09841477870941162, -0.35264915227890015, -0.18204832077026367, -0.451831579208374, -0.40491124987602234, -0.5297973155975342, -0.1249910295009613, -0.22274404764175415, -0.46164923906326294, 0.2792905569076538, -0.46932071447372437, -0.4704778790473938, -0.09504714608192444, -0.49568629264831543, 0.39002525806427, 0.28188905119895935, -0.14341652393341064, 0.11940264701843262, -0.02579653263092041, -0.17765632271766663, -0.38591158390045166, 0.013881243765354156, -0.006487846374511719, 0.25002849102020264, 0.1794651746749878, -0.044388800859451294, -0.051412880420684814, 0.12707096338272095, 0.14369124174118042, 0.44497445225715637, 0.12474292516708374, -0.3517831563949585, 0.33820241689682007, -0.38007503747940063, -0.2148900032043457, -0.1423061490058899, -0.4742608070373535, 0.45878714323043823, -0.4151744842529297, -0.30038362741470337, -0.16710489988327026, 0.0038799643516540527, -0.3603500723838806, 0.6236886978149414, 0.443676233291626, 0.26149410009384155, -0.21187657117843628, -0.23803597688674927, -0.04237741231918335, 0.26228898763656616, 0.31311893463134766, -0.3359147012233734, -0.5421031713485718, 0.24374938011169434, 0.36782729625701904, 0.3496416211128235, 0.17792677879333496, 0.13838957250118256, 0.35164976119995117, -0.4361039102077484, -0.2843620181083679, -0.4925309419631958, 0.09791330993175507, -0.3944256901741028], [-0.2738322615623474, -0.19779086112976074, -0.19550293684005737, 0.17535144090652466, 0.3321812152862549, -0.29480642080307007, -0.1675749123096466, -0.01885586977005005, 0.27940547466278076, -0.18058019876480103, -0.31405091285705566, -0.06643950939178467, 0.17705637216567993, 0.2963992953300476, -0.2305465191602707, -0.15747976303100586, 0.13395684957504272, -0.59130859375, 0.15937289595603943, 0.128558948636055, -0.14468759298324585, -0.3547411561012268, 0.3532407879829407, 0.08988159894943237, -0.03812485933303833, -0.49134010076522827, -0.12673944234848022, -0.569362461566925, 0.16336706280708313, 0.4017636179924011, -0.06472262740135193, -0.008877992630004883, 0.19735944271087646, 0.06016665697097778, -0.008415549993515015, 0.20888304710388184, -0.49543988704681396, 0.2333717942237854, 0.4173685908317566, 0.39315807819366455, 0.2428932785987854, 0.03411322832107544, -0.09008342027664185, -0.44028252363204956, -0.13856101036071777, -0.23500987887382507, -0.22927844524383545, -0.43073123693466187, -0.44227296113967896, -0.35121268033981323, 0.36031395196914673, 0.3730931878089905, 0.35818028450012207, -0.45676857233047485, -0.1291140764951706, 0.42319798469543457, -0.058666348457336426, -0.37523508071899414, -0.05589991807937622, 0.4696168899536133, -0.2681235671043396, -0.43584883213043213, 0.3110651969909668, -0.21173906326293945], [-0.2715492844581604, -0.4817737340927124, -0.36379873752593994, 0.01735508441925049, -0.3501357436180115, -0.18845850229263306, 0.3814402222633362, -0.48094719648361206, -0.2658647298812866, 0.24805337190628052, 0.4190444350242615, -0.28461313247680664, -0.04425102472305298, 0.06986552476882935, -0.6387100219726562, -0.21056866645812988, -0.3041148781776428, 0.348655104637146, 0.0851893424987793, 0.3844261169433594, 0.2616715431213379, 0.4142076373100281, 0.45009845495224, 0.43475013971328735, -0.06074631214141846, -0.22654539346694946, -0.16118621826171875, -0.34167444705963135, -0.2686869502067566, 0.2567595839500427, 0.18604302406311035, 0.2878152132034302, -0.30198681354522705, 0.36211150884628296, 0.1745229959487915, -0.3769555687904358, 0.2568628191947937, -0.46350574493408203, 0.40423357486724854, -0.3622988164424896, -0.11553394794464111, -0.2899742126464844, -0.22569262981414795, -0.2304118275642395, -0.2080356478691101, 0.3557914197444916, -0.11426961421966553, -0.3082679510116577, 0.011192858219146729, -0.3456164002418518, -0.35677570104599, -0.35758668184280396, -0.21251463890075684, -0.34035801887512207, 0.2230115532875061, -0.0925113707780838, -0.1528148055076599, 0.0266878604888916, 0.325994610786438, 0.3038594722747803, 0.34773457050323486, -0.4433945119380951, 0.2632192373275757, -0.26397937536239624], [-0.40908873081207275, 0.2608635425567627, 0.3680422902107239, -0.4296686053276062, 0.1352994441986084, 0.128770649433136, 0.24195784330368042, 0.33780163526535034, 0.4952244162559509, -0.06978696584701538, 0.3781304955482483, -0.2212691456079483, -0.22950255870819092, 0.3581089377403259, 0.3193439245223999, -0.221901535987854, 0.1312931776046753, 0.31897950172424316, -0.017771601676940918, -0.3504548668861389, -0.18856334686279297, -0.08266724646091461, 0.3514515459537506, 0.4738612174987793, -0.4553754925727844, -0.47054481506347656, -0.2841495871543884, 0.038100242614746094, 0.17822378873825073, -0.10624343156814575, -0.1428198218345642, 0.41945528984069824, -0.3209145963191986, 0.25719600915908813, 0.3241307735443115, -0.1381523609161377, 0.3114968538284302, 0.47738051414489746, -0.11647313833236694, -0.22233986854553223, -0.34831225872039795, -0.0880940705537796, -0.5000441670417786, -0.2172086238861084, 0.27014216780662537, 0.5963612198829651, 0.015046656131744385, 0.0225142240524292, 0.37505903840065, -0.37284064292907715, -0.4940330386161804, 0.42986392974853516, -0.04798714816570282, -0.17394424974918365, -0.28640609979629517, -0.09856557846069336, 0.09822958707809448, -0.08672672510147095, -0.004368484020233154, -0.43718838691711426, 0.2499852180480957, -0.26523882150650024, 0.29396969079971313, -0.28483957052230835], [-0.06084102392196655, 0.3614465594291687, 0.5767251253128052, 0.30294907093048096, 0.2656583786010742, 0.1887083649635315, 0.06974029541015625, -0.1797756552696228, -0.1734781265258789, 0.21195024251937866, 0.016945799812674522, -0.2384929656982422, 0.4848896265029907, 0.22928017377853394, -0.3376274108886719, 0.1898687779903412, -0.016795098781585693, -0.1686650514602661, 0.2996894121170044, -0.055456653237342834, -0.1464223861694336, 0.23529016971588135, 0.16360975801944733, 0.021011944860219955, -0.4427855610847473, -0.16471576690673828, 0.37727683782577515, -0.25573843717575073, 0.12596236169338226, -0.35497796535491943, -0.32243216037750244, 0.4840462803840637, -0.4962826371192932, 0.39298486709594727, 0.17311638593673706, 0.42944276332855225, 0.2187148928642273, 0.1651623249053955, -0.3401600122451782, 0.048017553985118866, 0.2236640453338623, 0.036267638206481934, 0.16306722164154053, 0.09398680925369263, 0.4433329105377197, 0.29835158586502075, -0.47580671310424805, -0.0949283242225647, 0.47894901037216187, -0.07879531383514404, 0.058466970920562744, -0.35944461822509766, 0.20791864395141602, -0.17023718357086182, -0.12740010023117065, -0.3489794135093689, -0.3931763768196106, -0.21187984943389893, 0.32296788692474365, -0.48914217948913574, -0.37547504901885986, -0.07790011167526245, 0.12773901224136353, -0.6915037631988525], [-0.1824861764907837, -0.04367029666900635, 0.2398228645324707, -0.21143531799316406, 0.017104055732488632, -0.07762134075164795, 0.08715736865997314, -0.07679398357868195, -0.27182120084762573, -0.4708639979362488, -0.8135422468185425, 0.012508749961853027, 0.25127875804901123, 0.45008039474487305, 0.15534049272537231, 0.24044790863990784, -0.02513408660888672, -0.38306379318237305, -0.04261970520019531, -0.013734221458435059, -0.1725354790687561, -0.1810857057571411, 0.49208033084869385, 0.08054739236831665, 0.027218163013458252, 0.12671935558319092, -0.014936506748199463, 0.49491333961486816, -0.17767877876758575, -0.10180789232254028, -0.3995673656463623, -0.3615037798881531, -0.09615534543991089, 0.028288424015045166, 0.07207223027944565, 0.23079192638397217, 0.462130069732666, 0.1183321475982666, -0.14408212900161743, 0.20747271180152893, 0.49343979358673096, -0.2821095585823059, 0.4356892704963684, 0.011419236660003662, 0.48010581731796265, 0.2984132766723633, -0.4428245425224304, -0.41483932733535767, -0.12438657879829407, -0.3720914125442505, -0.03413689136505127, -0.38662320375442505, 0.12453050166368484, 0.10728202760219574, 0.156150221824646, 0.11507199704647064, 0.4165486693382263, -0.1124793291091919, 0.4569668769836426, -0.18129169940948486, 0.4569318890571594, -0.057188570499420166, -0.052862346172332764, 0.275818407535553], [-0.026008762419223785, -0.05470210313796997, -0.4551061987876892, 0.07752060890197754, 0.1438540816307068, 0.4501887559890747, 0.12782803177833557, 0.6030260324478149, -0.28750863671302795, 0.08818930387496948, -0.3918497562408447, -0.4827623963356018, -0.4334673285484314, -0.0971900224685669, -0.05991184711456299, -0.26951515674591064, 0.004571754485368729, -0.055271707475185394, 0.015091001987457275, 0.10306441783905029, -0.10686832666397095, -0.10783284902572632, -0.153001070022583, 0.005370676517486572, 0.12051206827163696, 0.5063033103942871, -0.2540515661239624, 0.4847305417060852, -0.12790189683437347, 0.4458189010620117, -0.03816092014312744, 0.27824079990386963, -0.015643298625946045, -0.20210285484790802, -0.30607369542121887, -0.3264926075935364, 0.07841336727142334, -0.3924958109855652, -0.35400909185409546, -0.04144066572189331, 0.26975393295288086, -0.028372585773468018, -0.108653724193573, 0.011382386088371277, 0.46328622102737427, 0.4601817727088928, -0.2541049122810364, -0.05014694854617119, 0.1482664942741394, -0.05663198232650757, -0.1541317105293274, -0.08163505792617798, 0.030949115753173828, 0.21709653735160828, 0.010700881481170654, -0.34218817949295044, 0.10251682996749878, 0.4330902099609375, 0.1386689394712448, 0.01641136407852173, 0.19928127527236938, -0.2848075032234192, -0.15080907940864563, -0.4518038034439087], [0.43499237298965454, 0.41830530762672424, 0.044212400913238525, 0.10238511860370636, 0.16258686780929565, -0.3977506160736084, -0.09696631133556366, -0.4811139702796936, 0.0786893218755722, -0.152846097946167, -0.010278657078742981, -0.31424248218536377, 0.4180951714515686, -0.15251439809799194, 0.4067782759666443, -0.17894019186496735, -0.2231132984161377, -0.48683667182922363, -0.44393256306648254, -0.20284056663513184, -0.06285542249679565, -0.2855744957923889, -0.22445565462112427, 0.0067555904388427734, -0.1163405179977417, 0.3331824839115143, -0.39392995834350586, -0.28018802404403687, -0.32298099994659424, -0.4424717426300049, 0.36975574493408203, 0.16883248090744019, -0.38014402985572815, 0.31677907705307007, 0.5237838625907898, 0.011423230171203613, 0.10595691204071045, 0.27447205781936646, 0.419572114944458, -0.029365479946136475, 0.3337898850440979, 0.4340507686138153, 0.15325891971588135, 0.20728228986263275, -0.3416913151741028, 0.09206581115722656, 0.30824029445648193, -0.30222761631011963, -0.09093588590621948, -0.12262958288192749, 0.46038535237312317, -0.16614603996276855, -0.4955686926841736, 0.1057429313659668, 0.2892674207687378, -0.33795487880706787, -0.4809098243713379, 0.4666028320789337, 0.39854103326797485, -0.059417903423309326, 0.07769244909286499, -0.04978370666503906, -0.06781935691833496, 0.15189601480960846], [0.4799232482910156, -0.35742753744125366, 0.09863698482513428, 0.31945812702178955, 0.44981062412261963, 0.3786521255970001, -0.2498476505279541, -0.25341272354125977, 0.1673169732093811, -0.12226319313049316, -0.48957544565200806, 0.04815256595611572, 0.4061889946460724, -0.32174599170684814, 0.33749473094940186, -0.2556639313697815, -0.007708191871643066, -0.4854993224143982, 0.10084013640880585, -0.1370972990989685, 0.2999798655509949, -0.3273025155067444, 0.47743481397628784, 0.28410518169403076, 0.2071661353111267, 0.17750072479248047, -0.2560960054397583, 0.4375859498977661, -0.4224613308906555, -0.3594135046005249, 0.02100837230682373, -0.26114481687545776, 0.07636672258377075, 0.17482638359069824, -0.17125576734542847, -0.1348351240158081, -0.3725746273994446, 0.3177058696746826, 0.36026594042778015, 0.6961162686347961, 0.3526992201805115, -0.39835530519485474, 0.3664957284927368, -0.47819995880126953, -0.45207512378692627, 0.2568724751472473, 0.10113751888275146, 0.009715735912322998, -0.2609373927116394, -0.4566633105278015, 0.04158496856689453, 0.4837219715118408, -0.0011901259422302246, 0.25419965386390686, 0.1700393557548523, -0.17562779784202576, 0.44375890493392944, 0.3626853823661804, 0.31964001059532166, 0.18587976694107056, -0.25040286779403687, -0.4819626808166504, 0.1457202434539795, 0.012756586074829102], [-0.2665497660636902, -0.040263473987579346, 0.018139302730560303, 0.4509255886077881, -0.1774563193321228, 0.5717577934265137, -0.4524112939834595, 0.42106175422668457, -0.31440770626068115, 0.22544997930526733, 0.328732430934906, 0.34922105073928833, 0.3707815408706665, 0.10387963056564331, -0.3123217821121216, 0.3727007508277893, 0.0232924222946167, -0.313740611076355, 0.028973877429962158, -0.3700906038284302, 0.10635149478912354, 0.13037417829036713, -0.08262461423873901, 0.3381957411766052, 0.17004990577697754, 0.0797160267829895, -0.20013080537319183, 0.3462705910205841, 0.11369478702545166, 0.41417986154556274, -0.021554291248321533, 0.27906131744384766, 0.035184502601623535, 0.90669846534729, -0.317882239818573, 0.3703225255012512, 0.03490477800369263, 0.22014263272285461, -0.5903173089027405, -0.39014971256256104, 0.29446184635162354, -0.162538543343544, -0.4322165250778198, 0.0148007832467556, 0.293501079082489, -0.3618464469909668, -0.3944090008735657, 0.30547088384628296, 0.27752023935317993, 0.26362764835357666, 0.3879002630710602, 