{"input_weights": [[0.001393049955368042, 0.3239883780479431, -0.38383862376213074, -0.5933828949928284, -0.5367221236228943, -0.6435808539390564, -0.1969413161277771, 0.39566394686698914, 0.2716429531574249, 0.519217848777771, 0.12207961082458496, 0.1282823085784912, -0.0291423499584198, -0.26815879344940186, 0.33404630422592163, 0.3531531095504761, -0.42717891931533813, 0.09528884291648865, -0.33681416511535645, -0.20188391208648682, 0.4336175322532654, -0.10115373134613037, -0.3128872513771057, -0.46805405616760254, 0.08823221176862717, 0.23237627744674683, -0.2347121238708496, -0.3781673014163971, -0.1406443566083908, -0.11590169370174408, -0.03728775307536125, -0.2826789617538452, 0.21597546339035034, -0.1458107829093933, 0.29509177803993225, -0.18331104516983032, 0.4776207208633423, 0.2924259901046753, -0.25339430570602417, -0.08986538648605347, 0.43211954832077026, -0.17636634409427643, 0.3567656874656677, 0.08476020395755768, 0.1734185814857483, 0.2522957921028137, 0.34950053691864014, -0.3828338384628296, -0.148298442363739, 0.4332282543182373, -0.04348962754011154, 0.37899458408355713, -0.20328839123249054, -0.2535647749900818, -0.016068220138549805, 0.40571707487106323, 0.0845145434141159, -0.32496362924575806, -0.09188110381364822, -0.013103649020195007, 0.3677673935890198, -0.4956488609313965, -0.5405075550079346, -0.21056246757507324, -0.10313927382230759, -0.07015343010425568, 0.3634797930717468, 0.039277076721191406, -0.2650807499885559, -0.12287292629480362, 0.13733577728271484, 0.4180401563644409, 0.24044424295425415, 0.04269003868103027, -0.2951620817184448, 0.13550452888011932, 0.1069314181804657, 0.4514860510826111, -0.18262892961502075, -0.09414288401603699, 0.16366928815841675, -0.18433871865272522, -0.04765947535634041, 0.12838196754455566, 0.17887717485427856, 0.3432537913322449, 0.3162177503108978, -0.28841114044189453, 0.13690516352653503, 0.4952647089958191, 0.3902822434902191, -0.20296704769134521, 0.4921204447746277, 0.18258550763130188, -0.3311340808868408, -0.05926463007926941, -0.10244505107402802, 0.21522681415081024, -0.39453813433647156, 0.23835405707359314, 0.22628450393676758, -0.16547012329101562, 0.08295523375272751, -0.3420218825340271, 0.15697503089904785, -0.39601969718933105, 0.1848273128271103, -0.38666027784347534, -0.07362504303455353, -0.16301652789115906, 0.3631494641304016, -0.11774271726608276, 0.382681280374527, 0.14152687788009644, -0.337266206741333, 0.5879217386245728, 0.0846664309501648, -0.12349870800971985, 0.26075297594070435, -0.18314921855926514, 0.10916312783956528, -0.4877600073814392, -0.4112470746040344, 0.2532063126564026, -0.12174288928508759, 0.36560961604118347, -0.23132304847240448, 0.12907183170318604], [-0.12035826593637466, 0.7617950439453125, -0.6262788772583008, 0.5490379929542542, 0.26818156242370605, 0.3789752721786499, 0.08935904502868652, -0.0760454535484314, -0.20997434854507446, -0.029023826122283936, -0.2893405556678772, -0.5605893731117249, -0.1485152542591095, -0.008895069360733032, -0.11576642841100693, -0.3521578311920166, -0.11730837821960449, -0.3571135401725769, -0.4994516968727112, -0.05856717377901077, 0.1284671425819397, -0.21736299991607666, 0.44069045782089233, 0.2089831382036209, 0.143049418926239, 0.4758198857307434, 0.032095491886138916, 0.05233711004257202, -0.47031930088996887, -0.6845335364341736, 0.198754221200943, -0.4503096342086792, -0.14196258783340454, -0.060027122497558594, 0.16307777166366577, 0.1521589756011963, -0.19211533665657043, -0.05958765745162964, 0.412689745426178, -0.23824483156204224, -0.3482694625854492, -0.7795767784118652, 0.09049873799085617, 0.2927001118659973, 0.27874091267585754, 0.36809656023979187, 0.6714770793914795, 0.39162880182266235, 0.0772709846496582, -0.5761919021606445, 0.321040540933609, 0.37041738629341125, 0.2745856046676636, 0.3518977165222168, 0.6591967940330505, -0.40466970205307007, -0.00026232004165649414, -0.062102049589157104, 0.13876593112945557, 0.2523689270019531, 0.6325462460517883, 0.18110844492912292, 0.014529943466186523, -0.001627795398235321, 0.2494630664587021, -0.08885318040847778, 0.18378853797912598, 0.094570592045784, 0.15514642000198364, 0.26951178908348083, 0.116452157497406, -0.23967349529266357, 0.35220420360565186, 0.19050627946853638, -0.4157713055610657, -0.023229971528053284, 0.47925135493278503, -0.32093703746795654, -0.28359079360961914, 0.07345270365476608, 0.3086869418621063, 0.11594337970018387, -0.06689462065696716, -0.1492709517478943, -0.6099552512168884, -0.46881359815597534, -0.40948009490966797, 0.18864381313323975, 0.495474636554718, 0.12146669626235962, -0.1680932492017746, -0.2885039150714874, -0.46341395378112793, -0.06796719133853912, -0.46562084555625916, 0.46527764201164246, -0.03950600326061249, 0.4171084761619568, 0.08194166421890259, -0.14552634954452515, -0.3479989171028137, 0.4991336762905121, -0.10916806757450104, 0.2174580842256546, -0.15802070498466492, 0.6640433073043823, 0.16304221749305725, -0.32583218812942505, -0.6165726184844971, -0.9658328890800476, 0.3368490934371948, 0.0037575960159301758, -0.6554046869277954, -0.18284952640533447, 0.36419880390167236, 0.24975909292697906, -0.38175368309020996, 0.39693790674209595, -0.41183584928512573, 0.3892201781272888, 0.5786707997322083, -0.2743990421295166, -0.47021663188934326, -0.11876550316810608, -0.37744444608688354, -0.13612022995948792, -0.6381394267082214, -0.0048119425773620605], [0.2170267552137375, -0.1331818699836731, -0.24840259552001953, -0.08266377449035645, 0.22500836849212646, -0.3270649313926697, 0.32358598709106445, -0.1114467978477478, -0.49802613258361816, -0.26117920875549316, 0.49081939458847046, 0.2248305082321167, -0.3441051244735718, 0.14302699267864227, 0.40153855085372925, -0.06488366425037384, -0.09906657040119171, 0.48049473762512207, -0.4962107539176941, -0.18635588884353638, 0.1505735069513321, -0.1143195778131485, -0.2459862381219864, -0.35409560799598694, 0.5694859027862549, 0.13506466150283813, 0.37430328130722046, 0.43581199645996094, -0.03932693228125572, 0.3295520544052124, 0.15961326658725739, 0.15406370162963867, 0.559051513671875, 0.3785414695739746, 0.014477729797363281, -0.4909052848815918, -0.4556797742843628, 0.07588426768779755, 0.4777348041534424, 0.4809646010398865, -0.3953292965888977, -0.21691668033599854, -0.16635382175445557, 0.10627996921539307, 0.8328470587730408, 0.2307426631450653, -0.2802569568157196, 0.26405802369117737, -0.006294220685958862, -0.1632213592529297, 0.17911690473556519, -0.16952604055404663, -0.0343400239944458, 0.05460178852081299, 0.49701517820358276, -0.4430274963378906, -0.12546971440315247, 0.5068873763084412, 0.318459153175354, -0.4916180372238159, -0.24950850009918213, -0.3570628762245178, -0.482153058052063, -0.396625280380249, 0.3612145781517029, 0.3098459243774414, 0.40192756056785583, 0.16761954128742218, -0.2639862895011902, 0.013452231884002686, -0.33990800380706787, -0.15287315845489502, 0.549872636795044, 0.3685808777809143, -0.03454427421092987, 0.07717704772949219, -0.18563702702522278, -0.7841892838478088, -0.4723694622516632, 0.10613955557346344, -0.603996992111206, 0.29330411553382874, -0.27491435408592224, 0.2821998596191406, 0.6881166696548462, 0.3158092796802521, 0.1557915210723877, -0.1591259241104126, 0.27185624837875366, -0.4470973610877991, 0.1087721511721611, -0.3099575638771057, -0.13114213943481445, 0.4743453860282898, 0.5333296060562134, 0.39318597316741943, -0.4032759666442871, 0.3733636736869812, -0.040916621685028076, -0.19766005873680115, -0.1821776032447815, 0.7027472257614136, -0.45919322967529297, -0.1590350866317749, 0.39857184886932373, -0.06620460748672485, 0.22933810949325562, -0.3504531979560852, 0.4120207130908966, -0.5988664031028748, -0.15056461095809937, -0.4014866352081299, 0.1704532504081726, -0.3880254626274109, -0.3494068384170532, 0.18593378365039825, -0.04845043271780014, -0.360127329826355, -0.42680084705352783, -0.17744985222816467, 0.1008947342634201, 0.02343279868364334, -0.010183955542743206, 0.1986624002456665, 0.03799815475940704, -0.2839767336845398, -0.04453460872173309, 0.05487962067127228], [-0.04993196204304695, -0.13722273707389832, 0.5618607401847839, 0.12729999423027039, 0.1097499430179596, -0.3586331605911255, 0.48630401492118835, 0.1643441915512085, -0.3021332621574402, 0.27866968512535095, 0.010836482048034668, -0.19389235973358154, -0.34382936358451843, -0.20903030037879944, -0.4093336760997772, 0.2985861301422119, -0.5065475702285767, -0.3881407082080841, 0.1815529763698578, 0.09025240689516068, -0.4397856593132019, -0.5712031722068787, 0.30468684434890747, -0.03777451068162918, -0.2621768116950989, 0.0017624497413635254, -0.6629510521888733, -0.17037320137023926, -0.35647690296173096, 0.4163781404495239, 0.005068182945251465, 0.015774130821228027, -0.06619790196418762, 0.4187859892845154, -0.33069729804992676, 0.3591161370277405, -0.066667839884758, -0.3184700012207031, -0.1548096090555191, 0.12893086671829224, 0.33870893716812134, 0.0701366662979126, 0.39865827560424805, -0.41246679425239563, 0.09226512908935547, 0.09305185824632645, -0.1071937084197998, -0.677493691444397, 0.18066155910491943, -0.3758998215198517, 0.2180640995502472, 0.06256610155105591, 0.3999393582344055, -0.45109981298446655, -0.09396761655807495, -0.14650428295135498, 0.3045354187488556, -0.8934789896011353, 0.2991780638694763, -0.2865607440471649, -0.4179559350013733, -0.27600741386413574, -0.43296539783477783, 0.34559106826782227, 0.04805468022823334, -0.010362453758716583, -0.3454432487487793, -0.10188077390193939, -0.01509837806224823, 0.2855302095413208, -0.12579387426376343, 0.16087467968463898, 0.3536977767944336, 0.38897815346717834, -0.353272944688797, -0.3041936755180359, -0.03560354560613632, 0.09090274572372437, -0.06759649515151978, 0.04118596017360687, -0.16668829321861267, -0.1788019984960556, 0.20086097717285156, -0.2787993550300598, 0.44228309392929077, 0.30469489097595215, 0.04886174201965332, -0.18480104207992554, -0.2258416712284088, -0.08537955582141876, 0.10742821544408798, 0.299796998500824, 0.29511362314224243, -0.32524341344833374, 0.3282204270362854, 0.14952005445957184, -0.4440404772758484, 0.0866209864616394, 0.03769933432340622, -0.051647722721099854, -0.07015693187713623, -0.4685004651546478, -0.43969011306762695, 0.10277283191680908, 0.2747340202331543, 0.5923460125923157, -0.4320850670337677, -0.29774850606918335, 0.2861593961715698, 0.004150331020355225, 0.4506026804447174, 0.05389317870140076, -0.26369303464889526, -0.02957618236541748, 0.04542136937379837, 0.13876183331012726, 0.06580710411071777, 0.42323464155197144, -0.31734928488731384, 0.22355639934539795, 0.29327887296676636, -0.06521844863891602, -0.2173561155796051, 0.34546589851379395, 0.5318794250488281, 0.1483134627342224, -0.26129478216171265, 0.3285149335861206], [0.7228482961654663, 0.2750912308692932, 0.17009927332401276, -0.21066895127296448, 0.5825235843658447, -0.0019445419311523438, 0.4160805344581604, 0.47663772106170654, -0.23499393463134766, -0.3462449908256531, -0.3892182409763336, 0.031636178493499756, -0.1152699887752533, -0.24262285232543945, -0.5179157853126526, -0.43520233035087585, 0.32300424575805664, -0.2684970200061798, -0.0973886251449585, -0.3456636071205139, -0.19727814197540283, -0.4581313729286194, -0.13337600231170654, 0.2029235064983368, -0.6401858329772949, -0.3977552652359009, -0.3388546109199524, -0.3749057650566101, -0.16742751002311707, -0.43320202827453613, -0.3996846675872803, -0.36572331190109253, 0.24836087226867676, 0.0752873420715332, -0.20330023765563965, 0.3012946844100952, 0.2593653202056885, 0.4135838747024536, 0.24252796173095703, 0.0739646852016449, -0.2791455388069153, 0.5537161827087402, -0.0037674903869628906, 0.43921321630477905, 0.06280341744422913, 0.4059773087501526, 0.4557100534439087, -0.14676706492900848, 0.07403339445590973, -0.0012134313583374023, 0.33889681100845337, 0.41321611404418945, 0.18100909888744354, 0.29625973105430603, 0.46374332904815674, 0.09101587533950806, 0.3766891658306122, -0.5110204815864563, -0.08689799159765244, 0.3841521739959717, -0.11537104845046997, 0.03677868843078613, -0.3800159692764282, 0.33102840185165405, 0.5238180160522461, -0.01282908022403717, 0.15428400039672852, -0.5001880526542664, -0.2912313938140869, 0.47734034061431885, -0.22959557175636292, 0.35657036304473877, 0.1573050171136856, -0.34313952922821045, 0.2172711342573166, -0.26966753602027893, 0.540367066860199, -0.19058650732040405, -0.2216174155473709, -0.319009006023407, -0.02722454071044922, -0.30358514189720154, 0.08087180554866791, -0.14881020784378052, 0.43763798475265503, 0.37007439136505127, 0.20013508200645447, 0.42003780603408813, 0.03153723478317261, -0.09776431322097778, 0.23533427715301514, 0.13477730751037598, 0.3421851396560669, -0.35192736983299255, 0.35346800088882446, -0.09725828468799591, 0.13065814971923828, -0.4331841468811035, 0.13844966888427734, 0.3166557550430298, -0.3371639847755432, 0.10918772220611572, 0.3127761483192444, -0.03591515123844147, -0.4275093078613281, 0.1566467583179474, 0.1719452440738678, 0.4019317626953125, 0.1498907506465912, -0.2739906907081604, -0.795741856098175, -0.2947678565979004, 0.012360014021396637, 0.1067085862159729, 0.268890380859375, 0.2597045302391052, 0.39475756883621216, -0.1859138309955597, 0.3384869694709778, -0.38418835401535034, -0.0034122802317142487, 0.29782915115356445, -0.15790241956710815, 0.4782787263393402, 0.1485373079776764, -0.5012857913970947, -0.4547441899776459, -0.11237165331840515], [0.09577661752700806, 0.15994076430797577, 0.3357051610946655, 0.21105214953422546, 0.24352377653121948, 0.45843708515167236, -0.5567950010299683, 0.3242589831352234, -0.7188682556152344, 0.342623770236969, 0.4012625515460968, -0.3483748435974121, -0.07144024968147278, -0.1477060317993164, -0.036425232887268066, -0.28844499588012695, -0.23162175714969635, -0.12615704536437988, 0.4477706551551819, 0.286912202835083, 0.3475322723388672, 0.06561879813671112, -0.3970523476600647, -0.33376914262771606, -0.3227265775203705, -0.4701034724712372, 0.18538859486579895, -0.15307122468948364, -0.17645765841007233, 0.19434282183647156, -0.2734581232070923, -0.02596426010131836, 0.07149291038513184, 0.1949399709701538, -0.1058213859796524, -0.3117748498916626, -0.22603130340576172, 0.4590129852294922, -0.31211572885513306, -0.3921501040458679, 0.4075934588909149, 0.2876410484313965, -0.06831569224596024, 0.18092060089111328, 0.16129246354103088, 0.35334035754203796, 0.4529728293418884, 0.007872480899095535, 0.6163439750671387, 0.010179124772548676, -0.3472212255001068, 0.1452910453081131, 0.5203512907028198, 0.43239516019821167, -0.31939488649368286, -0.4207824170589447, 0.29153430461883545, 0.03176512196660042, -0.11555644869804382, 0.023595038801431656, -0.13605761528015137, 0.3009621500968933, -0.06793004274368286, 0.3991509675979614, 0.2391604632139206, 0.1334834098815918, 0.011602893471717834, -0.24445027112960815, -0.4283013343811035, 0.4200032353401184, -0.007549077272415161, 0.3485551178455353, -0.02001255750656128, -0.24767321348190308, -0.45432502031326294, -0.5204522609710693, 0.04340745508670807, 0.26485008001327515, 0.3865838348865509, 0.1679084748029709, -0.5220385193824768, -0.45254164934158325, -0.48063230514526367, -0.2689962685108185, -0.21834200620651245, 0.1082228273153305, 0.37486547231674194, -0.06401205062866211, -0.28583359718322754, -0.22443193197250366, -0.4331877827644348, 0.2664712071418762, 0.26609718799591064, -0.5126394033432007, 0.22589528560638428, 0.28434741497039795, 0.07849711179733276, -0.030607864260673523, -0.09131146967411041, -0.3816165328025818, 0.15347561240196228, 0.5685739517211914, 0.2980177402496338, -0.3158106207847595, -0.25074827671051025, -0.5568143129348755, -0.16635102033615112, -0.10176783800125122, -0.12866932153701782, -0.47979724407196045, 0.3988785147666931, 0.02616441249847412, -0.13024869561195374, 0.33947116136550903, -0.2364986538887024, 0.3055240511894226, 0.22135716676712036, -0.0430486798286438, -0.2392468899488449, -0.2839066982269287, -0.10148835182189941, 0.457666277885437, 0.1535254716873169, -0.41121038794517517, 0.08615314960479736, -0.44295477867126465, -0.3106456995010376, -0.20519810914993286], [0.03873438388109207, 0.4127734303474426, 0.33926427364349365, 0.22133919596672058, 0.17433251440525055, 0.25946640968322754, -0.3096236288547516, 0.09692113101482391, 0.3074880540370941, -0.5412558317184448, 0.007918864488601685, -0.004633426666259766, 0.43200063705444336, 0.4488583207130432, -0.14930129051208496, -0.09067102521657944, 0.4710521996021271, 0.017868459224700928, -0.19055034220218658, 0.22795939445495605, -0.34860408306121826, -0.0995071530342102, 0.22226864099502563, 0.5480659604072571, -0.13177281618118286, -0.18268221616744995, 0.07632347196340561, 0.25655823945999146, -0.1619054675102234, -0.011909499764442444, 0.4537067413330078, 0.17319810390472412, 0.062286511063575745, 0.3190857470035553, -0.3570318818092346, 0.20319154858589172, -0.14252302050590515, -0.4623425006866455, 0.6122251749038696, 0.13426512479782104, 0.38847821950912476, -0.20265361666679382, -0.017397582530975342, 0.5487633943557739, 0.3055722415447235, -0.11475585401058197, 0.2836170196533203, 0.48936372995376587, 0.398672878742218, -0.1947062611579895, 0.08153650164604187, 0.06526156514883041, 0.06953135132789612, -0.043386757373809814, -0.29193514585494995, -0.47576144337654114, 0.20707617700099945, 0.2557317018508911, -0.22037845849990845, 0.19665169715881348, 0.19064807891845703, 0.09697461873292923, 0.02928692102432251, 0.12909972667694092, 0.23704999685287476, -0.44180792570114136, -0.35588908195495605, 0.46153563261032104, -0.6640629768371582, 0.07867535203695297, -0.418237566947937, -0.3783673048019409, 0.6603990793228149, 0.20069921016693115, 0.16368500888347626, 0.39437001943588257, -0.704034686088562, 0.3867012858390808, -0.3803793489933014, 0.3503538966178894, -0.040019452571868896, 0.35529211163520813, -0.20602566003799438, -0.05354183912277222, 0.4532701373100281, -0.38472700119018555, 0.36496666073799133, 0.07599866390228271, -0.30839061737060547, 0.098845474421978, 0.3931322693824768, 0.590530276298523, -0.14718805253505707, -0.43497705459594727, 0.2190314680337906, -0.1191861629486084, -0.1388794183731079, -0.060272663831710815, 0.06186613440513611, -0.27332040667533875, 0.10811293125152588, -0.3134482502937317, -0.4410850405693054, 0.2716372013092041, 0.14721167087554932, -0.2545839250087738, 0.19420993328094482, 0.3191758096218109, -0.32221049070358276, -0.49330615997314453, 0.246970996260643, -0.33755213022232056, 0.3465900123119354, 0.007043428719043732, 0.18680933117866516, -0.44701647758483887, -0.2570453882217407, 0.22333312034606934, 0.04883092641830444, -0.23753032088279724, 0.3219413161277771, -0.5537270307540894, -0.21929925680160522, 0.2642621397972107, 0.09876447916030884, -0.7117071747779846, 0.3677789866924286, 0.39687395095825195], [-0.2627846300601959, 0.012712478637695312, -0.4052043557167053, -0.3284430503845215, 0.5113326907157898, -0.2517675757408142, 0.008235618472099304, 0.2895185947418213, -0.44036585092544556, 0.42933130264282227, 0.2928818464279175, -0.09748640656471252, -0.3061927258968353, -0.0345267653465271, 0.42185306549072266, -0.3819437623023987, 1.185084581375122, 0.08595693111419678, -0.114303357899189, -0.5102412104606628, 0.6307029128074646, -0.4292452931404114, -0.5537349581718445, 0.6691242456436157, 0.02837812900543213, 0.1560003161430359, 0.14802151918411255, -0.48005223274230957, -0.7719402313232422, 0.47938358783721924, 0.10980347543954849, 0.1977018415927887, 0.445747435092926, -0.298695832490921, -0.21397078037261963, -0.2802318334579468, 0.4566085934638977, -0.14707529544830322, -0.4960632920265198, 0.3554766774177551, -0.2876328229904175, -0.46332597732543945, 0.23321695625782013, -0.45167434215545654, -0.350547194480896, -0.14489972591400146, 0.378071129322052, -0.13796043395996094, 0.5148473978042603, 0.3817512094974518, -0.382922887802124, 0.3045942187309265, -0.46862173080444336, 0.21598106622695923, -0.06850950419902802, 0.35976678133010864, 0.3891969323158264, 0.40153974294662476, 0.03390079736709595, -0.4745427966117859, -0.3859669268131256, 0.649107813835144, 0.20538246631622314, -0.021414458751678467, 0.14910927414894104, 0.5896140336990356, -0.198228120803833, -0.30577778816223145, 0.13910341262817383, -0.1262311339378357, 0.18427389860153198, -0.4018758535385132, -0.1740725338459015, -0.14920993149280548, 0.2002319097518921, 0.3416611850261688, -0.17626716196537018, -0.23938381671905518, 0.22890165448188782, 0.46173375844955444, 0.06350743770599365, 0.46615299582481384, 0.19151365756988525, -0.33769264817237854, -0.25455594062805176, -0.29957807064056396, -0.2183595597743988, 0.6292954683303833, 0.2508578300476074, -0.11366868019104004, -0.43214237689971924, -0.16675686836242676, 0.4031158983707428, -0.08846813440322876, 0.35021454095840454, -0.009122610092163086, 0.16187983751296997, 0.5001245737075806, -0.1433791071176529, 0.051596879959106445, -0.32832711935043335, 0.26694291830062866, 0.3209887146949768, -0.15664446353912354, -0.20776034891605377, -0.1281643509864807, -0.4778796434402466, -0.04699026793241501, -0.4715890884399414, 0.6673455834388733, 0.3343390226364136, 0.12392440438270569, 0.407062828540802, -0.3394618034362793, 0.52251797914505, 0.13822036981582642, 0.21965138614177704, 0.2393960803747177, 0.22919762134552002, 0.03652172163128853, -0.4773291349411011, -0.3344697058200836, -0.4777350425720215, 0.1339063048362732, -0.4330637753009796, -0.022913098335266113, 0.347625732421875, 0.39964520931243896], [0.20138520002365112, 0.14793235063552856, -0.1687180995941162, 0.3379051983356476, -0.19318971037864685, -0.3101966977119446, 0.3476372957229614, 0.43990981578826904, 0.23361894488334656, -0.036769330501556396, 0.10307791829109192, 0.20846635103225708, -0.30530089139938354, 0.4142199754714966, -0.09144845604896545, -0.32421576976776123, 0.38809916377067566, -0.06709355115890503, 0.29636573791503906, 0.013647317886352539, 0.004806637763977051, 0.25908875465393066, -0.154739111661911, -0.3144354224205017, -0.42686474323272705, -0.23914611339569092, 0.36800241470336914, 0.415626585483551, -0.2811940908432007, -0.2182639241218567, 0.13069656491279602, -0.03076881915330887, -0.16577240824699402, -0.48251259326934814, -0.19804686307907104, -0.06652175635099411, -0.24614405632019043, 0.3354388475418091, -0.28223246335983276, -0.599321186542511, 0.26716122031211853, -0.5073468089103699, 0.2951733469963074, -0.5828810334205627, -0.08187507092952728, 0.27930861711502075, 0.2930595278739929, -0.378545880317688, 0.40168219804763794, -0.7713020443916321, -0.22472929954528809, -0.1626671552658081, 0.03563600778579712, -0.34592416882514954, 0.06906194984912872, 0.621355414390564, -0.12068948149681091, 0.18400442600250244, -0.2972899079322815, -0.25253480672836304, -0.28593114018440247, -0.2387717366218567, 0.17062681913375854, -0.31580179929733276, 0.787881076335907, 0.2400190830230713, 0.27731242775917053, -0.02079620771110058, 0.07097063958644867, 0.06820720434188843, -0.22327250242233276, -0.26738810539245605, -0.11023366451263428, -0.37527596950531006, -0.6123868227005005, 0.33462977409362793, -0.2153102457523346, -0.13690000772476196, -0.28847745060920715, -0.042596884071826935, 0.1940409541130066, -0.022396888583898544, 0.5883293151855469, -0.042763203382492065, -0.5397605299949646, 0.07014675438404083, 0.7171697616577148, 0.007145356386899948, -0.6234936714172363, 0.0022667311131954193, 0.3773488402366638, -0.24219542741775513, -0.008805423974990845, 0.2917879819869995, -0.09232968091964722, -0.14585144817829132, 0.02035895735025406, -0.19494453072547913, 0.3676908314228058, -0.38953617215156555, -0.020392954349517822, 0.45182251930236816, 0.7377443313598633, 0.17460888624191284, -0.07631078362464905, 0.10362081229686737, 0.5464473962783813, -0.2517191171646118, 0.16102764010429382, -0.3859732151031494, 0.1364542692899704, 0.01798427104949951, 0.008450746536254883, -0.045114338397979736, -0.30275455117225647, 0.41653069853782654, -0.1527184247970581, 0.41902804374694824, -0.04003918170928955, 0.30543091893196106, 0.4115864634513855, -0.16016080975532532, -0.05599677562713623, 0.12916630506515503, -0.6516923308372498, 0.6833232641220093, 0.37553510069847107, 0.007693082094192505], [-0.09901699423789978, -0.23880106210708618, -0.35203129053115845, 0.31993621587753296, -0.11997154355049133, 0.13323388993740082, -0.18345093727111816, 0.4493035674095154, -0.22423458099365234, -0.3478429913520813, -0.41975706815719604, -0.2572297155857086, -0.41830140352249146, -0.12279325723648071, 0.42577600479125977, 0.15248064696788788, 0.0008436590433120728, -0.17320480942726135, 0.03360879421234131, -0.4327594041824341, 0.6294933557510376, 0.2807520627975464, 0.04311305284500122, 0.12103557586669922, -0.6659491658210754, -0.35573849081993103, 0.38480085134506226, 0.36701151728630066, -0.1151394248008728, -0.1982915699481964, 0.31682002544403076, -0.10167892277240753, -0.32897770404815674, 0.18540479242801666, -0.11832350492477417, 0.3434850573539734, -0.048195190727710724, 0.09924787282943726, -0.03983968496322632, 0.21460765600204468, -0.014817669987678528, 0.18243415653705597, -0.09175598621368408, 0.6567766070365906, 0.15384799242019653, -0.17001843452453613, -0.40530532598495483, 0.13324278593063354, 0.0985301285982132, 0.12784719467163086, -0.10502418875694275, 0.21532657742500305, -0.01214921846985817, -0.11736834049224854, 0.14233510196208954, -0.32585668563842773, -0.4653281569480896, 0.12021228671073914, 0.5611989498138428, 0.8327829837799072, 0.11663441359996796, 0.2575327157974243, -0.43776679039001465, -0.2757691740989685, -0.3000549077987671, -0.0398411750793457, 0.1302872896194458, -0.021097108721733093, -0.07132882624864578, -0.3544503450393677, 0.17842400074005127, 0.4444074034690857, -0.4921964406967163, -0.05261573940515518, 0.0014770030975341797, 0.45776933431625366, -0.22008025646209717, 0.2911626994609833, -0.15284650027751923, 0.3527872562408447, 0.155036062002182, 0.06340292096138, -0.16550660133361816, 0.5832498669624329, 0.052494049072265625, -0.0909271091222763, 0.36921900510787964, -0.15103863179683685, 0.2368691861629486, -0.18388265371322632, -0.30296438932418823, -0.45948922634124756, 0.0727473795413971, -0.6284613013267517, 0.16784077882766724, 0.3037489652633667, -0.48121458292007446, -0.22581642866134644, -0.26112622022628784, -0.08289836347103119, -0.37287431955337524, -0.3443531394004822, -0.11759594082832336, 0.10431337356567383, -0.6967486143112183, 0.4390464425086975, 0.10380512475967407, -0.055984921753406525, -0.1587536334991455, 0.16529279947280884, -0.17446082830429077, 0.2932247817516327, 0.2104882001876831, 0.34834206104278564, -0.23660068213939667, 0.02854757010936737, -0.4056127667427063, -0.05595046281814575, -0.07298354059457779, 0.2926352620124817, 0.4824749827384949, -0.09253251552581787, -0.36534547805786133, 0.1597616970539093, -0.2683972716331482, -0.2656646966934204, 0.1456155776977539, -0.06347715854644775], [0.2885875105857849, 0.35996389389038086, -0.7368987798690796, -0.017802417278289795, -0.27914273738861084, -0.2953476309776306, 0.046796321868896484, 0.4263352155685425, 0.1493743509054184, -0.1141587346792221, -0.37680816650390625, 0.17610958218574524, -0.019025757908821106, 0.008865676820278168, 0.3335367441177368, -0.15507519245147705, 0.28901463747024536, -0.23935198783874512, 0.24523840844631195, 0.47555387020111084, 0.2805110216140747, 0.24407070875167847, -0.5865510702133179, 0.34634870290756226, -0.4867877960205078, -0.3009408712387085, 0.49155208468437195, -0.26104506850242615, 0.4786827266216278, 0.15032905340194702, -0.39778953790664673, 0.395125150680542, -0.08977681398391724, -0.0742306113243103, -0.05800730735063553, -0.13952648639678955, 0.2831460237503052, -0.21300740540027618, 0.0935097485780716, -0.3125857710838318, 0.16424857079982758, -0.11277012526988983, 0.02377098798751831, -0.24338632822036743, -0.460870623588562, -0.28829318284988403, 0.012795824557542801, -0.38646483421325684, -0.43077027797698975, 0.21874094009399414, 0.47188037633895874, -0.03264479339122772, 0.2522937059402466, -0.1596854329109192, -0.4217493534088135, 0.13729342818260193, -0.4410262107849121, -0.01668226718902588, -0.4696950316429138, -0.38334476947784424, 0.504831075668335, -0.09999820590019226, 0.3098986744880676, 0.1951480507850647, 0.21353481709957123, -0.10551843047142029, 0.5286701917648315, 0.029227446764707565, 0.7054883241653442, 0.578186571598053, 0.4052388072013855, 0.1131899356842041, 0.3465119004249573, 0.02674126625061035, 0.3641672134399414, 0.6356700658798218, 0.2729882001876831, 0.04385392367839813, 0.4983624517917633, 0.4508318305015564, -0.43655019998550415, 0.0027386248111724854, -0.6033130288124084, -0.11370730400085449, 0.01940310001373291, 0.19688445329666138, 0.6815094947814941, -0.22439956665039062, 0.7984573841094971, 0.17475789785385132, 0.12289023399353027, 0.005685761570930481, 0.10853302478790283, 0.6835103631019592, -0.380399614572525, -0.09122628718614578, -0.568436324596405, -0.2705160677433014, -0.18550074100494385, -0.10403633117675781, 0.3116968870162964, 0.05041598156094551, -0.034720174968242645, 0.017154037952423096, 0.31873273849487305, 0.41882646083831787, 0.12293872982263565, -0.24856773018836975, -0.02221677266061306, -0.13714995980262756, 0.24383445084095, 0.26852720975875854, -0.11991500854492188, 0.28960391879081726, 0.33442115783691406, 0.41421881318092346, -0.22494399547576904, -0.4129813611507416, 0.42328545451164246, 0.6229696869850159, 0.060975074768066406, -0.31273001432418823, 0.3012787103652954, -0.1913406252861023, 0.4810067415237427, -0.46701639890670776, 0.2156548649072647, 0.0955747440457344], [0.3045607805252075, 0.06456373631954193, 0.8229778409004211, 0.5144141912460327, 0.0661621242761612, 0.26901915669441223, 0.340501993894577, 0.24627646803855896, 0.23741741478443146, -0.06755439937114716, -0.036174774169921875, 0.04413449764251709, 0.16568556427955627, -0.1461881697177887, 0.31666314601898193, -0.47056442499160767, -0.32384634017944336, 0.4220612645149231, -0.4208236336708069, -0.3158855438232422, -0.41262876987457275, -0.27145153284072876, -0.28047481179237366, 0.27048060297966003, 0.021315202116966248, -0.21808168292045593, 0.19577322900295258, 0.2699887156486511, 0.3947787284851074, -0.308087557554245, 0.16349118947982788, -0.06097763776779175, -0.2806124687194824, -0.2499469816684723, -0.32161635160446167, 0.13712990283966064, 0.05287300422787666, 0.2356400340795517, 0.3935851454734802, -0.15826010704040527, -0.24849390983581543, 0.36428743600845337, -0.31744325160980225, 0.2950221300125122, -0.1879444718360901, -0.10437439382076263, 0.3926405906677246, 0.4053437113761902, -0.06795844435691833, 0.24900516867637634, -0.5942189693450928, -0.057662397623062134, 0.14213968813419342, -0.433269202709198, 0.3288673758506775, 0.12589722871780396, 0.691356360912323, -0.41504162549972534, -0.1055298000574112, 0.1026933491230011, -0.10107588768005371, 0.15673527121543884, -0.6519988179206848, -0.3861919343471527, -0.2774820327758789, 0.7479119896888733, 0.05719955265522003, -0.2618200480937958, -0.10093797743320465, -0.03387560695409775, 0.33914482593536377, -0.036488473415374756, -0.26664161682128906, 0.29452991485595703, 0.20281128585338593, 0.4952020049095154, 0.30766844749450684, 0.2726970911026001, -0.15802709758281708, 0.3818700909614563, -0.2622295618057251, -0.21763479709625244, 0.3453061878681183, 0.5091954469680786, -0.5584745407104492, 0.36324065923690796, 0.08148092776536942, -0.16102616488933563, 0.12662914395332336, 0.367755651473999, -0.24720516800880432, -0.2828635573387146, 0.6061801910400391, 0.16607826948165894, -0.012768745422363281, -0.281305730342865, -0.05191236734390259, 0.8210799098014832, 0.19354838132858276, 0.5346716642379761, -0.15913806855678558, -0.20360684394836426, 0.22593539953231812, -0.4314200282096863, -0.3966531753540039, -0.511175811290741, 0.1709262728691101, -0.34764042496681213, 0.20760053396224976, -0.4349948763847351, 0.10284870862960815, -0.02314281463623047, -0.2861661911010742, 0.3244311213493347, -0.5148375034332275, -0.45366591215133667, 0.024077773094177246, -0.5506089925765991, 0.3579466938972473, 0.8039745688438416, 0.04450643062591553, 0.05487009882926941, 0.3468979001045227, -0.24479711055755615, 0.5259712338447571, 0.4049806594848633, -0.3217090368270874, 0.3559306263923645], [0.2157536745071411, 0.1639506220817566, -0.24617433547973633, 0.27556312084198, 0.1422695517539978, 0.22882097959518433, 0.09229430556297302, -0.12478429079055786, 0.2912360727787018, 0.36406731605529785, -0.14252817630767822, 0.045631468296051025, -0.02783036231994629, 0.3279246985912323, 0.4434252381324768, 0.2763478755950928, -0.5242688655853271, -0.4778619706630707, 0.21082741022109985, -0.26594409346580505, -0.1265866756439209, 0.3158695697784424, 0.243519127368927, -0.5693456530570984, 0.15736103057861328, 0.13951727747917175, -0.41070646047592163, 0.2431047558784485, -0.39147675037384033, -0.6499069929122925, -0.05757957696914673, 0.07550624012947083, 0.5381539463996887, 0.2879866361618042, 0.2888100743293762, -0.026837937533855438, -0.3787629008293152, 0.34152254462242126, 0.3180225193500519, -0.5009983777999878, -0.16774135828018188, 0.46058815717697144, -0.04720257222652435, 0.2089916616678238, 0.04128420352935791, -0.024592697620391846, 0.04783010482788086, 0.06142830848693848, -0.44718050956726074, 0.4332558214664459, 0.18967348337173462, -0.2540079951286316, 0.4532889723777771, 0.3327934145927429, -0.3554112911224365, -0.4683026075363159, 0.15265275537967682, -0.08350582420825958, -0.21368512511253357, -0.4591502547264099, 0.5316872596740723, -0.23411141335964203, -0.48416078090667725, 0.27896663546562195, -0.12488403171300888, -0.1856735348701477, 0.44172197580337524, 0.325215607881546, 0.3339610993862152, 0.18874312937259674, -0.716657280921936, 0.5585613250732422, -0.3306633234024048, -0.22259730100631714, 0.42977291345596313, -0.4065699577331543, 0.3209432363510132, 0.07530736923217773, -0.32009196281433105, 0.437430739402771, 0.039371609687805176, -0.7595916986465454, 0.32442188262939453, -0.38009870052337646, -0.3142985701560974, -0.2823142409324646, 0.4916902780532837, 0.3761720061302185, 0.2772618234157562, -0.4768438935279846, 0.5762162208557129, 0.2691343426704407, -0.1958925575017929, 0.15456055104732513, 0.12066376209259033, 0.26852577924728394, -0.07721951603889465, 0.42415040731430054, 0.21183302998542786, 0.2903849482536316, -0.09747298061847687, 0.16513627767562866, 0.38526058197021484, 0.019444644451141357, 0.41482192277908325, 0.12598472833633423, 0.0858038067817688, -0.4085392653942108, 0.3154545724391937, 0.5504171848297119, -0.5427427291870117, 0.3923993706703186, -0.30465489625930786, -0.3274272084236145, -0.2883506715297699, 0.3722148537635803, 0.3932651877403259, -0.45285114645957947, -0.3776412010192871, 0.09947113692760468, 0.5268058180809021, 0.11406481266021729, -0.5331230163574219, 0.02971470355987549, 0.1691140979528427, 0.4373374581336975, 0.061153724789619446, -0.008679628372192383], [0.22910213470458984, -0.27181804180145264, -0.2910996079444885, 0.5862324237823486, 0.38292208313941956, 0.2961726784706116, 0.4583379924297333, -0.19879049062728882, -0.1374591737985611, 0.4670943021774292, -0.04312300682067871, -0.09731775522232056, -0.4753228724002838, 0.06252437829971313, -0.3441412150859833, 0.17880618572235107, 0.03367507457733154, 0.19864338636398315, -0.2684148848056793, 0.2475477159023285, 0.3587450683116913, 0.2264806032180786, 0.392289936542511, 0.42553144693374634, -0.29569685459136963, -0.31871065497398376, -0.47510337829589844, 0.04736855626106262, -0.270881712436676, 0.18774926662445068, 0.16046684980392456, 0.21851295232772827, 0.03178675100207329, -0.330258309841156, 0.32438230514526367, -0.3783875107765198, -0.1064612865447998, 0.21581929922103882, -0.1814689338207245, -0.083106629550457, -0.4750785231590271, -0.28931015729904175, -0.4600185751914978, -0.4117175042629242, -0.4913173317909241, -0.5256521105766296, -0.3212212920188904, -0.3063753843307495, -0.18219614028930664, -0.07996341586112976, -0.36220553517341614, 0.018370240926742554, -0.5696961283683777, 0.6750258207321167, -0.1360844373703003, -0.26356884837150574, 0.3615705966949463, 0.386015385389328, -0.3366154432296753, -0.09163646399974823, -0.12348422408103943, -0.2459283173084259, -0.6311464905738831, -0.046713829040527344, -0.11851218342781067, -0.43484923243522644, -0.3717384934425354, -0.4265483617782593, 0.06566363573074341, -0.11196893453598022, -0.2335599660873413, -0.30799922347068787, 0.48990413546562195, 0.06075437739491463, -0.2305605411529541, -0.5399032235145569, 0.34887176752090454, 0.05757996439933777, 0.4819457530975342, -0.4555724859237671, 0.49113309383392334, 0.23710626363754272, -0.5882707238197327, -0.4681495428085327, -0.03555649518966675, 0.22096890211105347, -0.05382037162780762, 0.3083497881889343, 0.23642712831497192, 0.14253109693527222, 0.2776976525783539, -0.07198647409677505, 0.40402090549468994, 0.48789340257644653, -0.26108819246292114, 0.2086639404296875, 0.01731899380683899, -0.061144113540649414, 0.121562659740448, -0.5482220649719238, -0.41906288266181946, -0.3782573342323303, -0.22126953303813934, -0.04169926047325134, 0.24370968341827393, 0.038471341133117676, 0.13423055410385132, 0.00475706160068512, -0.30274516344070435, 0.2843821346759796, -0.35995280742645264, 0.4024314284324646, 0.022548258304595947, 0.0014079362154006958, -0.2805289924144745, -0.10899794101715088, -0.3788491487503052, -0.6528308987617493, -0.46169111132621765, -0.21975582838058472, 0.0036009401082992554, 0.44036710262298584, -0.22302913665771484, 0.2462007701396942, -0.2699300944805145, 0.18291684985160828, 0.20462533831596375, 0.15816806256771088], [0.09633475542068481, -0.5386673212051392, -0.5253214836120605, -0.1839318722486496, -0.3430405855178833, -0.017131328582763672, -0.23999373614788055, -0.33114057779312134, -0.11514337360858917, 0.3653267025947571, 0.3146716058254242, 0.5734214186668396, 0.09692460298538208, 0.12127888947725296, -0.3238668739795685, 0.4255724549293518, -0.22434350848197937, -0.27079159021377563, 0.012883305549621582, 0.46548235416412354, -0.49331235885620117, 0.24073690176010132, 0.24102503061294556, -0.2568897604942322, 0.25045114755630493, -0.19680437445640564, -0.36271435022354126, 0.37715595960617065, -0.27445316314697266, -0.09148208796977997, -0.5237253904342651, -0.21536922454833984, 0.14653067290782928, 0.08673590421676636, -0.5065085887908936, -0.27535712718963623, 0.26329725980758667, 0.41014543175697327, 0.23934662342071533, 0.1638297438621521, 0.03161919116973877, -0.1620626151561737, 0.4656098484992981, 0.4243888258934021, -0.04502253979444504, -0.016380906105041504, 0.2574555575847626, -0.38190871477127075, 0.07650469243526459, -0.23809362947940826, 0.04156559705734253, 0.14241661131381989, 0.11854170262813568, -0.46255314350128174, -0.4297042489051819, 0.015522122383117676, 0.1432330310344696, 0.29167717695236206, 0.5493425726890564, -0.00222015380859375, -0.23086607456207275, -0.22557061910629272, -0.26516011357307434, 0.4144518971443176, -0.27459776401519775, 0.6826761960983276, -0.4597555696964264, -0.23133891820907593, -0.11563520133495331, -0.5355878472328186, -0.14614897966384888, 0.17291346192359924, 0.31301388144493103, 0.2637314796447754, 0.27748167514801025, -0.4715724587440491, 0.24162709712982178, -0.22525173425674438, 0.8266801834106445, -0.4197867214679718, -0.22344985604286194, 0.04093143343925476, 0.6475648880004883, 0.07897189259529114, 0.4183717370033264, 0.28593942523002625, -0.08954811096191406, 0.47082453966140747, -0.048399992287158966, -0.043449655175209045, -0.22563762962818146, -0.1704716682434082, -0.3083638846874237, 0.19971564412117004, 0.07443708181381226, 0.14265434443950653, -0.38869941234588623, 0.5176846385002136, -0.05886102840304375, 0.3175225853919983, -0.10077959299087524, -0.24181823432445526, -0.42300257086753845, 0.0173787958920002, 0.29961860179901123, -0.20391981303691864, -0.38901203870773315, 0.4974558353424072, -0.2643679678440094, 0.045247018337249756, -0.062091484665870667, -0.3077870011329651, 0.23319369554519653, -0.4667295217514038, -0.2568843960762024, -0.05549626797437668, 0.036892831325531006, -0.07885872572660446, -0.07384002208709717, 0.1661025881767273, 0.27174848318099976, 0.11249907314777374, -0.7262487411499023, 0.2731742858886719, 0.22844097018241882, -0.3925032615661621, 0.2586691677570343, 0.21552789211273193], [-0.34459733963012695, -0.3301369547843933, -0.4088789224624634, 0.016462385654449463, -0.3331083357334137, -0.19914670288562775, 0.10732647776603699, -0.19255292415618896, 0.09695178270339966, 0.08067841827869415, -0.17854297161102295, 0.39504337310791016, 0.24644878506660461, 0.21983937919139862, -0.3216349482536316, -0.3638809323310852, 0.44663006067276, 0.32994917035102844, 0.2191808819770813, -0.15666601061820984, -0.11559385061264038, 0.39858201146125793, 0.23418927192687988, 0.06303717941045761, 0.3463178873062134, -0.2094360589981079, 0.5833926796913147, 0.07802009582519531, -0.3548424243927002, 0.23323392868041992, 0.31479698419570923, -0.07558836042881012, -0.03430492430925369, 0.3194006085395813, 0.08316642045974731, 0.19310146570205688, -0.3073247969150543, 0.16607090830802917, -0.2549934983253479, -0.06443297863006592, 0.3244638442993164, -0.33884885907173157, -0.19766783714294434, 0.10698845982551575, 0.3123055100440979, -0.024678897112607956, 0.4644656479358673, -0.3821585774421692, -0.4206274747848511, 0.1384308785200119, -0.48155105113983154, 0.46608906984329224, 0.3895164430141449, 0.08802688121795654, -0.15890827775001526, 0.42278364300727844, 0.11469192802906036, 0.512855052947998, 0.7656997442245483, -0.006139636039733887, 0.3628026843070984, -0.17312616109848022, 0.49293482303619385, -0.3825666308403015, -0.49736130237579346, -0.42861008644104004, 0.08508037030696869, 0.42049968242645264, -0.4503909945487976, -0.5450354218482971, 0.021153688430786133, -0.40843671560287476, 0.05645819008350372, -0.296342670917511, 0.3105950951576233, -0.01876451075077057, -0.05432888865470886, -0.41496211290359497, 0.07732951641082764, 0.6610283255577087, 0.33851081132888794, -0.4456688165664673, -0.03743088245391846, 0.3501102924346924, -0.3256475627422333, -0.22839336097240448, 0.6446700096130371, -0.3502708673477173, 0.11899788677692413, -0.2627579867839813, 0.0728217288851738, 0.10419593751430511, 0.04574696719646454, -0.49660372734069824, -0.394420862197876, 0.06158749759197235, 0.09722936153411865, 0.4784810543060303, -0.23186248540878296, -0.13890480995178223, 0.04179805517196655, 0.3574398159980774, -0.4578028917312622, -0.1724720448255539, 0.47193118929862976, -0.28340792655944824, 0.9357351660728455, 0.2059229016304016, 0.060331642627716064, 0.20490503311157227, -0.1715341955423355, 0.502407431602478, 0.19989916682243347, -0.4644715189933777, 0.15034130215644836, 0.0892672911286354, 0.060543760657310486, -0.20031489431858063, -0.17213469743728638, -0.5969129800796509, 0.022047922015190125, -0.10782056301832199, -0.403813898563385, -0.4229464530944824, -0.2498222142457962, -0.24491672217845917, 0.13570237159729004, 0.5412065982818604], [0.2607107162475586, 0.4829522371292114, 0.23400887846946716, -0.07930213212966919, 0.43116670846939087, 0.23607677221298218, 0.3025869131088257, -0.03187111020088196, 0.03468608856201172, 0.3375064730644226, 0.02559751272201538, -0.37805959582328796, -0.2580025792121887, -0.403936505317688, 0.8675819039344788, -0.6597187519073486, 0.17440152168273926, -0.656661331653595, -0.3279160261154175, 0.08485633134841919, -0.14529305696487427, 0.3746131360530853, 0.2339605987071991, -0.30055251717567444, 0.20927277207374573, -0.22789639234542847, 0.5857996344566345, 0.5858770608901978, -0.29078394174575806, 0.0595855712890625, 0.3881816267967224, 0.4563983678817749, -0.2880157232284546, 0.24178238213062286, 0.2188272476196289, -0.3751688599586487, -0.2606355547904968, -0.6328330039978027, -0.12480399012565613, -0.4944295585155487, 0.22520053386688232, 0.1654953956604004, 0.34543395042419434, 0.06502747535705566, -0.18551242351531982, -0.48011577129364014, -0.16525715589523315, -0.5586802959442139, -0.13869154453277588, 0.4521154761314392, -0.3261387348175049, 0.17999541759490967, 0.006182048469781876, 0.16968272626399994, 0.5183097720146179, -0.3051608204841614, 0.3419685959815979, -0.4635130763053894, -0.3886043429374695, 0.3300771117210388, -0.18731731176376343, 0.07606860995292664, 0.053319573402404785, -0.2570999264717102, 0.01861165091395378, -0.27962952852249146, 0.35905691981315613, -0.1451823115348816, 0.13284733891487122, 0.6285021901130676, 0.2982786297798157, -0.27695631980895996, 0.10479023307561874, -0.1074494868516922, 0.2595837712287903, -0.046536803245544434, 0.5064678192138672, 0.348808228969574, -0.037423789501190186, -0.09281128644943237, -0.08780455589294434, 0.5079337358474731, -0.2035195380449295, -0.7065353393554688, 0.3473065197467804, 0.4604082703590393, -0.37253957986831665, -0.03970426321029663, -0.2638072967529297, -0.5106080770492554, 0.3028165102005005, -0.44876962900161743, 0.2473652958869934, -0.0975971668958664, -0.45979762077331543, 0.1276821494102478, 0.15286493301391602, -0.3488754630088806, 0.19945138692855835, -0.33953964710235596, -0.12617605924606323, 0.35706520080566406, -0.18684136867523193, 0.11519594490528107, 0.4225413203239441, 0.2625567317008972, 0.14957445859909058, -0.11214157938957214, -0.1730501651763916, 0.012425482273101807, -0.5816006064414978, 0.18330013751983643, 0.4181189239025116, -0.3345007300376892, -0.3888132572174072, 0.3523087799549103, 0.17050355672836304, 0.444200336933136, -0.07072168588638306, -0.508540689945221, -0.28479111194610596, 0.6705904006958008, -0.39827579259872437, -0.08706154674291611, -0.287087082862854, -0.29038384556770325, -0.2364184856414795, -0.06541717052459717]], "hidden_weights": [[-0.4264042377471924, 0.041598737239837646, -0.10413237661123276, -0.3153535723686218, 0.4598340690135956, -0.35889410972595215, 0.13517647981643677, -0.0013626664876937866, 0.21946388483047485, -0.1378065049648285, -0.02261275053024292, -0.3957219421863556, 0.2555517554283142, -0.4701574444770813, -0.2805151343345642, 0.04035419225692749, -0.24839824438095093, -0.40787774324417114, -0.3467426896095276, 0.44379475712776184, 0.2273821085691452, 0.06868037581443787, -0.48959189653396606, 0.4217400848865509, 0.2988491654396057, 0.38946816325187683, -0.31452056765556335, 0.047357961535453796, 0.5038430690765381, 0.4168574810028076, -0.29997047781944275, 0.021606966853141785, 0.3687083125114441, 0.14013975858688354, -0.2625728249549866, 0.18806928396224976, -0.3905474543571472, -0.47550320625305176, -0.11854793131351471, 0.010055098682641983, 0.08308421075344086, 0.30907970666885376, 0.2560157775878906, 0.04343961179256439, -0.44831299781799316, -0.26644787192344666, -0.5385202765464783, 0.26398375630378723, -0.06318791955709457, 0.4611150622367859, -0.28018325567245483, -0.45405104756355286, -0.22679448127746582, -0.25947436690330505, -0.2364693284034729, 0.028912343084812164, -0.3074222803115845, -0.10020099580287933, -0.18803495168685913, -0.15527749061584473, -0.42124122381210327, -0.09138011932373047, 0.2315972000360489, 0.3259052634239197], [-0.01757471263408661, 0.21686577796936035, -0.09003108739852905, 0.4195674657821655, 0.4493556022644043, 0.19084876775741577, 0.3642525374889374, 0.032891735434532166, 0.23032402992248535, 0.18124976754188538, 0.33622270822525024, -0.1646692007780075, -0.19489361345767975, -0.3806409537792206, -0.2946925163269043, 0.3488796651363373, 0.0924898236989975, 0.37263768911361694, -0.43753141164779663, 0.44069772958755493, -0.3154633641242981, -0.3759419918060303, -0.3533127009868622, 0.37668949365615845, -0.18709616363048553, -0.5392605662345886, -0.014095664024353027, 0.13642162084579468, 0.13344639539718628, 0.05935704708099365, 0.2550235986709595, -0.3603854179382324, -0.44429516792297363, -0.27936768531799316, 0.4839414358139038, 0.7824772596359253, -0.43102172017097473, 0.2046610563993454, 0.37450605630874634, 0.09229385852813721, -0.156755268573761, 0.1706576943397522, -0.21558204293251038, 0.07182395458221436, -0.11836153268814087, 0.15724784135818481, -0.05645444989204407, 0.2535926103591919, 0.03538903594017029, -0.12227099388837814, -0.44639456272125244, -0.768051028251648, 0.4086737036705017, -0.004836447536945343, 0.028148338198661804, 0.3702915906906128, 0.10637933015823364, -0.34599679708480835, 0.27544671297073364, 0.46401017904281616, 0.21128275990486145, 0.3722098469734192, 0.01987326145172119, 0.3423783481121063], [0.38013383746147156, -0.5572537183761597, 0.36024177074432373, 0.029713362455368042, 0.17056898772716522, -0.2751387059688568, 0.5645714402198792, -0.31523066759109497, 0.342171311378479, -0.1645907759666443, -0.48213064670562744, -0.21761929988861084, -0.5114097595214844, -0.5332401990890503, -0.4026602506637573, -0.382490873336792, -0.5598772168159485, -0.22018566727638245, -0.43552374839782715, 0.3115578889846802, -0.2408832162618637, -0.4747084677219391, -0.19304591417312622, -0.20238636434078217, -0.07957920432090759, -0.058090031147003174, -0.018165573477745056, -0.2588828206062317, -0.1872968077659607, -0.1565951555967331, 0.12122559547424316, -0.03823667764663696, -0.15084987878799438, 0.1281115561723709, -0.33584824204444885, -0.4592219293117523, 0.06282129138708115, 0.20475807785987854, -0.40345799922943115, -0.6875017285346985, 0.17115344107151031, -0.41296935081481934, -0.2351248562335968, 0.12307284027338028, 0.05448153614997864, 0.1959119439125061, 0.024664729833602905, -0.35975903272628784, 0.19643020629882812, 0.08673353493213654, 0.15021944046020508, 0.3217705488204956, -0.15250574052333832, -1.0562105178833008, 0.1178128570318222, 0.3959428071975708, -0.02907540649175644, -0.43126267194747925, -0.16272586584091187, -0.11407696455717087, 0.35755234956741333, -0.10117429494857788, 0.5378432273864746, 0.48420628905296326], [0.06055884063243866, 0.32460516691207886, -0.08725506067276001, -0.6076110601425171, -0.24339091777801514, 0.0016931891441345215, 0.34745144844055176, -0.01463329792022705, 0.49462705850601196, -0.13186165690422058, -0.2639254331588745, 0.3818226456642151, 0.15760935842990875, 0.14569427073001862, 0.2808097004890442, -0.4182676076889038, 0.30203938484191895, 0.2518812417984009, -0.4045950770378113, -0.4349682331085205, 0.32703667879104614, -0.0315932035446167, 0.3244445323944092, -0.2275761365890503, 0.2467421293258667, 0.46690237522125244, -0.18525278568267822, 0.38159289956092834, -0.12337149679660797, -0.027907267212867737, -0.17379796504974365, 0.2521331012248993, -0.39998915791511536, -0.09745675325393677, 0.017339646816253662, 0.4151548743247986, -0.166039377450943, 0.42120110988616943, -0.16374842822551727, 0.23501750826835632, -0.3296095132827759, 0.4606913924217224, 0.35086023807525635, -0.3667544722557068, -0.1498895287513733, -0.5585221648216248, -0.3165014088153839, -0.3220473527908325, 0.09885373711585999, 0.17891931533813477, 0.26476460695266724, 0.15885746479034424, -0.10971707105636597, 0.2779552936553955, -0.025681614875793457, 0.03285783529281616, -0.4911329746246338, 0.26512372493743896, -0.10833883285522461, 0.029168426990509033, 0.08557307720184326, -0.37546926736831665, -0.34689146280288696, 0.1808721423149109], [0.27149122953414917, 0.5255568027496338, -0.20450818538665771, -0.45882242918014526, 0.5158554911613464, -0.025615006685256958, 0.2337339222431183, -0.023960769176483154, 0.26685571670532227, -0.1396799087524414, -0.059986650943756104, 0.0705508440732956, -0.18361318111419678, -0.05877561867237091, -0.5649567246437073, -0.2995853126049042, -0.32044607400894165, -0.44341814517974854, 0.7396993637084961, -0.15417927503585815, -0.2837425470352173, -0.1727096438407898, 0.29401153326034546, 0.054334044456481934, -0.6406148076057434, -0.5556614398956299, 0.2870451807975769, 0.24005769193172455, -0.07143324613571167, 0.2502102255821228, -0.4420069754123688, 0.6177852153778076, 0.3607872426509857, 0.17683926224708557, 0.055052101612091064, -0.5782033205032349, 0.1934605836868286, 0.28797948360443115, -0.24879682064056396, 0.4566442370414734, -0.4200533926486969, 0.3063109219074249, -0.10676489770412445, -0.13466112315654755, -0.32974565029144287, 0.7047696113586426, 0.5578935742378235, 0.4807361364364624, 0.4874368906021118, -0.32288026809692383, 0.053619787096977234, -0.6086275577545166, 0.5756555199623108, 0.293240487575531, -0.5634774565696716, -0.16594582796096802, -0.22797739505767822, -0.22061854600906372, -0.45801204442977905, -0.02181902527809143, -0.09662520885467529, 0.22427420318126678, -0.1458246111869812, 0.13262778520584106], [-0.08414479345083237, 0.10385441780090332, 0.472561240196228, -0.18564540147781372, 0.4162479043006897, -0.28395575284957886, 0.3970448076725006, -0.22804969549179077, 0.218167245388031, -0.20722734928131104, 0.4553825259208679, -0.3973320722579956, 0.4369032382965088, -0.0435730516910553, -0.6308566331863403, 0.32829463481903076, -0.4523881673812866, 0.4683416485786438, -0.46622133255004883, 0.4090117812156677, -0.0239143967628479, 0.007602989673614502, -0.2253498136997223, 0.20149224996566772, -0.13570137321949005, -0.20652318000793457, -0.15954679250717163, 0.0609811395406723, 0.46221792697906494, 0.12624526023864746, -0.12717419862747192, -0.5596890449523926, 0.16201816499233246, -0.4893028736114502, -0.042567215859889984, 0.1882438361644745, 0.2685408592224121, 0.30515021085739136, -0.2250794768333435, -0.12010207772254944, 0.09544558823108673, -0.4494639039039612, -0.6143155097961426, -0.3561938405036926, -0.6914480328559875, -0.13640671968460083, -0.07551074773073196, 0.09951155632734299, 0.11789046972990036, -0.1744254231452942, 0.19629907608032227, 0.4361976385116577, -0.4373469352722168, 0.3017999529838562, 0.12299754470586777, -0.006509721279144287, 0.41385000944137573, -0.3093491196632385, -0.29239901900291443, -0.47388163208961487, 0.03153538703918457, 0.09263330698013306, -0.3620055019855499, 0.39783480763435364], [-0.22963371872901917, -0.3776867091655731, -0.42180192470550537, -0.6226069927215576, -0.13070206344127655, 0.0809030532836914, 0.40834110975265503, -0.13365525007247925, -0.07014459371566772, -0.039098262786865234, 0.015464425086975098, 0.45280078053474426, -0.38216662406921387, -0.08300929516553879, 0.28127002716064453, -0.10948735475540161, 0.06310886889696121, -0.40354323387145996, -0.05364948511123657, 0.13888700306415558, 0.196714848279953, -0.3016321063041687, -0.4179387092590332, 0.12896010279655457, 0.18612250685691833, 0.20540958642959595, -0.2818690538406372, -0.06507915258407593, -0.1903085708618164, 0.09710288047790527, 0.26531165838241577, -0.23034706711769104, 0.14519423246383667, 0.09877735376358032, 0.05147875100374222, 0.2894408404827118, -0.2630350887775421, 0.36432576179504395, -0.2369290441274643, 0.5308977365493774, -0.18220895528793335, -0.5347992181777954, 0.4775465130805969, -0.5722212195396423, 0.2912724018096924, 0.21011480689048767, -0.08674676716327667, -0.3140142858028412, -0.4843599200248718, 0.3463859260082245, 0.23323868215084076, 0.4536312520503998, 0.30620288848876953, -0.21832740306854248, -0.6617835164070129, 0.1634068489074707, -0.04805140569806099, -0.04442119598388672, -0.5001559257507324, 0.1816992461681366, -0.004329584538936615, -0.44176217913627625, -1.251554250717163, -0.34495314955711365], [0.13463160395622253, -0.40745609998703003, 0.35953277349472046, -0.3317442834377289, 0.4476696848869324, -0.15169155597686768, 0.2313966453075409, 0.3257480263710022, 0.4712952971458435, -0.3567582070827484, -0.1041184663772583, 0.015826821327209473, 0.3227510452270508, -0.10802218317985535, -0.32749974727630615, -0.45253732800483704, -0.2319284826517105, 0.009875118732452393, -0.10790061950683594, -0.04392034560441971, -0.6157757043838501, 0.6917263269424438, 0.11494329571723938, 0.141636461019516, 0.10813033580780029, 0.5072984099388123, 0.2673637866973877, 0.0415036603808403, -0.5833345055580139, 0.16888779401779175, -0.21437504887580872, 0.5407781600952148, -0.30276837944984436, -0.3260931372642517, 0.486733615398407, -0.10317543894052505, 0.573661208152771, -0.44167134165763855, 0.4199451804161072, 0.1796756386756897, -0.00327146053314209, 0.04700714349746704, 0.31030982732772827, -0.49738872051239014, 0.18622781336307526, 0.39419203996658325, 0.05824951082468033, -0.04053531587123871, -0.3834124803543091, 0.006205104291439056, 0.3012576699256897, 0.46695616841316223, -0.1653243899345398, -0.06914567947387695, 0.0772595927119255, 0.13649219274520874, 0.25564074516296387, 0.004632666707038879, -0.4169447422027588, -0.0021890997886657715, 0.21942804753780365, -0.2678087055683136, -0.10377512872219086, 0.6229695677757263], [-0.41712480783462524, -0.01038302481174469, -0.3110337257385254, -0.3496997356414795, 0.297201007604599, -0.5447915196418762, 0.39444392919540405, -0.08375862240791321, 0.3654923439025879, 0.04134057089686394, 0.33146947622299194, 0.39423832297325134, 0.45514172315597534, 0.3220698833465576, -0.044994182884693146, -0.3687199354171753, -0.4551924467086792, -0.22901856899261475, 0.21257254481315613, -0.18204623460769653, 0.3657999634742737, -0.30226725339889526, -0.05175459384918213, -0.5291162133216858, 0.39023613929748535, -0.4100342094898224, -0.42797595262527466, -0.08804724365472794, -0.4631180167198181, -0.4071478247642517, -0.3207915425300598, 0.4226265549659729, 0.058558374643325806, -0.3344443440437317, 0.439120888710022, -0.19426488876342773, 0.056029483675956726, -0.010361216962337494, -0.3737353980541229, 0.3604854941368103, 0.4217138886451721, 0.5280120372772217, -0.17204567790031433, -0.3697764277458191, -0.23778638243675232, 0.15624654293060303, -0.11358673870563507, 0.47060275077819824, 0.04426856338977814, -0.05910676717758179, -0.403755784034729, -0.3455038070678711, 0.26602014899253845, -0.15433424711227417, -0.148024782538414, -0.2599108815193176, 0.4403638541698456, 0.42076289653778076, 0.2865726351737976, 0.22270455956459045, -0.21913385391235352, -0.24221888184547424, 0.5107566118240356, 0.1503540277481079], [0.35459762811660767, 0.5498610734939575, -0.350163996219635, 0.08763362467288971, 0.27276140451431274, -0.2955254912376404, 0.6824651956558228, 0.11437460780143738, 0.47347623109817505, -0.6740363836288452, -0.4113216996192932, 0.30307698249816895, 0.028857052326202393, 0.31680828332901, 0.030338525772094727, -0.12150424718856812, 0.32603123784065247, -0.21626633405685425, 0.6019394397735596, -0.23701849579811096, -0.02651210129261017, -0.09090367704629898, 0.15830554068088531, 0.27225738763809204, -0.025819391012191772, 0.16081053018569946, 0.4389544129371643, 0.40448999404907227, 0.33782923221588135, -0.06704241037368774, 0.46504291892051697, 0.10861879587173462, 0.25873273611068726, -0.11640962958335876, -0.030812978744506836, -0.40878334641456604, -0.04754146188497543, -0.4684983491897583, 0.4204601049423218, 0.32201480865478516, -0.02066558599472046, 0.1538180112838745, -0.2401687055826187, 0.19217801094055176, -0.43298274278640747, 0.27102038264274597, 0.47346311807632446, 0.4936729669570923, -0.16483378410339355, -0.8311416506767273, -0.44674962759017944, 0.2789207696914673, 0.015347691252827644, -0.24143506586551666, 0.17425286769866943, 0.08735629171133041, -0.09229015558958054, 0.48310983180999756, 0.33584409952163696, -0.4808085560798645, 0.37662407755851746, 0.6834774017333984, -0.20294606685638428, 0.3334923982620239], [0.3113611936569214, -0.04810899496078491, -0.06373107433319092, 0.08861130475997925, -0.014758288860321045, 0.03805816173553467, -0.4184691309928894, -0.4479559659957886, 0.3073117733001709, 0.5627466440200806, -0.005460679531097412, 0.21432945132255554, 0.2913440465927124, 0.36895304918289185, -0.4618414640426636, -0.4753454327583313, -0.26909634470939636, -0.1967376470565796, 0.22186684608459473, 0.48577749729156494, -0.024491705000400543, 0.4890327453613281, -0.3239619731903076, -0.4437631666660309, 0.09053286910057068, 0.36181777715682983, -0.2040870189666748, -0.17580068111419678, -0.42356008291244507, 0.16100899875164032, -0.08248072862625122, 0.05480249971151352, 0.34843385219573975, 0.3002060055732727, 0.1176968663930893, -0.7043266296386719, -0.259224534034729, -0.42886868119239807, -0.25415998697280884, 0.43184247612953186, 0.05190512537956238, 0.16825348138809204, -0.4226897358894348, -0.18926763534545898, 0.41905173659324646, -0.1072884351015091, -0.465584397315979, 0.0901981070637703, 0.33765220642089844, 0.09332369267940521, -0.22614991664886475, -0.39174214005470276, -0.2220395803451538, -0.2547951936721802, -0.1893327236175537, 0.16991335153579712, 0.46432703733444214, 0.0829593688249588, 0.0025314390659332275, 0.2219775915145874, -0.17274858057498932, -0.14189055562019348, -0.11822241544723511, 0.26816660165786743], [0.3782427906990051, 0.49160778522491455, 0.16110539436340332, -0.0750916451215744, -0.08291256427764893, -0.4482809901237488, -0.5109900832176208, 0.31624773144721985, 0.34380510449409485, 0.5265913009643555, -0.49162793159484863, 0.27480536699295044, -0.013115141540765762, 0.03010009229183197, -0.3257408142089844, -0.1606433391571045, -0.08400263637304306, 0.10161703824996948, -0.2570868730545044, -0.36227044463157654, -0.5173313617706299, -0.24953508377075195, -0.11135607957839966, -0.22173146903514862, 0.10562454164028168, 0.13736721873283386, -0.21273702383041382, 0.0785677433013916, -0.43035781383514404, 0.3083351254463196, -0.6448225975036621, -0.2093009203672409, -0.15757030248641968, -0.2328331470489502, 0.2050083875656128, 0.4774637222290039, 0.4799657166004181, 0.06008261442184448, -0.06735330820083618, 0.5821332931518555, -0.3642306923866272, -0.5506582856178284, -0.38213932514190674, -0.07247812300920486, -0.1774296760559082, 0.2853747606277466, -0.2695714831352234, 0.02245420217514038, -0.29608291387557983, -0.36725422739982605, 0.3057849407196045, 0.21605423092842102, -0.04997396469116211, -0.4721113443374634, -0.24257534742355347, -0.48527616262435913, -0.38527199625968933, 0.45942574739456177, 0.4829022288322449, 0.05381851643323898, 0.3011583983898163, 0.25738298892974854, 0.5168899297714233, 0.055185556411743164], [0.5045979619026184, -0.3620647192001343, -0.3231510519981384, -0.3236798942089081, 0.2499762773513794, 0.3703606128692627, -0.061860740184783936, 0.09091359376907349, 0.35838600993156433, -0.41022658348083496, -0.27179640531539917, -0.026849806308746338, 0.3056303858757019, 0.4435984194278717, 0.4768528938293457, 0.253187358379364, 0.2174394130706787, -0.36877313256263733, 0.45734724402427673, -0.4066980481147766, -0.507917582988739, 0.011825025081634521, 0.43304985761642456, -0.260686993598938, -0.08068937063217163, -0.5590962171554565, -0.2187705636024475, -0.034862667322158813, 0.5766698718070984, 0.5316401720046997, -0.2771833539009094, 0.09428385645151138, 0.5425301790237427, -0.019470013678073883, -0.09685805439949036, 0.2603646516799927, 0.2675490975379944, 0.1403752565383911, -0.2755606770515442, 0.0580047070980072, -0.4504551291465759, -0.26024800539016724, -0.5003639459609985, 0.6949532628059387, -0.4697442948818207, 0.30782657861709595, -0.005107469856739044, 0.04258878156542778, -0.2621660530567169, 0.45486414432525635, 0.3926161527633667, -0.41104793548583984, 0.014109790325164795, -0.09747034311294556, -0.39553701877593994, -0.056490249931812286, 0.039861202239990234, -0.27761310338974, -0.07108324021100998, -0.18056653439998627, 0.3844951391220093, -0.16272661089897156, -0.421321302652359, 0.17239966988563538], [0.463556706905365, -0.7784233689308167, -0.10088828206062317, -0.3468589782714844, 0.3606005311012268, -0.22840087115764618, -0.289761483669281, 0.18141132593154907, -0.3629315495491028, -0.2976532578468323, -0.20173189043998718, 0.09539371728897095, 0.10289961099624634, -0.636471152305603, -0.364475280046463, 0.39825743436813354, 0.3688945472240448, -0.027159035205841064, -0.3214368224143982, -0.48194462060928345, 0.2301400899887085, -0.3508191704750061, -0.5297107696533203, -0.13893938064575195, 0.1351909637451172, 0.3388166129589081, -0.3096346855163574, 0.5127445459365845, -0.4725673794746399, 0.3921352028846741, -0.10031794011592865, 0.028722107410430908, 0.09067146480083466, 0.050107717514038086, 0.2894975543022156, 0.47176146507263184, 0.407329797744751, 0.11092197895050049, 0.47825950384140015, -0.1723901778459549, 0.37642961740493774, 0.45562249422073364, 0.45815014839172363, -0.4746425449848175, 0.26765522360801697, -0.33596283197402954, -0.14538788795471191, -0.06901445239782333, 0.05482220649719238, 0.20455986261367798, -0.11589805781841278, 0.33847159147262573, 0.2574889361858368, -0.2893803119659424, 0.028332233428955078, 0.1436663120985031, -0.05714482069015503, -0.1286413073539734, -0.05239027738571167, 0.04884535074234009, -0.3969101309776306, -0.13266682624816895, -0.15067963302135468, -0.4345347285270691], [-0.3376922011375427, -0.4574199914932251, 0.2708129286766052, -0.4980151057243347, -0.10385012626647949, 0.328418493270874, -0.37426111102104187, 0.1847916543483734, 0.344877690076828, 0.4066873788833618, -0.4117153286933899, 0.272500216960907, -0.41546934843063354, -0.2150152325630188, -0.46358853578567505, 0.16561132669448853, -0.3184170722961426, -0.043347958475351334, 0.352081835269928, -0.10785649716854095, 0.11420421302318573, 0.25173425674438477, -0.2854132056236267, 0.9389074444770813, 0.006178557872772217, 0.27108827233314514, 0.14370380342006683, 0.19185876846313477, 0.06397783756256104, 0.38353705406188965, 0.0954340398311615, 0.07294660806655884, -0.2752717137336731, 0.5223817825317383, -0.10439997166395187, -0.3576965928077698, 0.021419644355773926, -0.44926586747169495, -0.17164038121700287, 0.35168737173080444, -0.09765368700027466, -0.02239285409450531, -0.3576574921607971, -0.6482042074203491, 0.253465861082077, 0.12434488534927368, -0.32312729954719543, 0.1528412103652954, 0.31790605187416077, -0.4613876938819885, -0.09988580644130707, 0.3322412669658661, -0.18564936518669128, -0.3828704357147217, -0.09117758274078369, -0.18360918760299683, -0.10606642812490463, -0.13965582847595215, -0.35873714089393616, 0.35645791888237, 0.13742497563362122, 0.4169536828994751, 0.032955169677734375, -0.25868773460388184], [-0.39924874901771545, 0.04244944453239441, 0.4837911128997803, -0.10646748542785645, 0.09554372727870941, -0.4684825539588928, 0.3295682370662689, -0.24832208454608917, 0.13854318857192993, -0.04550963640213013, 0.21890003979206085, -0.05735890567302704, 0.15691149234771729, 0.019517473876476288, 0.07955022156238556, -0.272616982460022, 0.2346724569797516, -0.09207034111022949, -0.033161938190460205, 0.6027728915214539, 0.32804369926452637, 0.4981533885002136, -0.038556382060050964, 0.06255726516246796, 0.425970196723938, 0.032865285873413086, 0.31206703186035156, -0.44494491815567017, 0.6880601644515991, 0.5036211013793945, 0.18254147469997406, 0.5329031944274902, 0.3927654027938843, -0.20109081268310547, 0.2267041653394699, -0.5216311812400818, 0.12551045417785645, 0.06826769560575485, -0.18495731055736542, 0.22808164358139038, 0.25871849060058594, -0.34810346364974976, -0.40349286794662476, 0.5857376456260681, 0.3806142210960388, -0.06446290016174316, 0.45705080032348633, -0.020405471324920654, 0.2470187544822693, -0.26787060499191284, -0.020142018795013428, -0.33048951625823975, -0.3833749294281006, -0.5418874621391296, -0.06268000602722168, -0.03146279230713844, -0.23881584405899048, 0.3555695414543152, 0.008199095726013184, -0.1322011947631836, -0.04689681529998779, -0.2534351348876953, -0.7283823490142822, 0.44631364941596985], [0.37546974420547485, 0.07810741662979126, -0.5389463901519775, -0.28090333938598633, 0.2982203960418701, 0.23819273710250854, 0.06681007146835327, 0.12828928232192993, 0.00827258825302124, 0.16083848476409912, 0.3846921920776367, 0.35695046186447144, -0.25243866443634033, 0.039515770971775055, 0.5006586313247681, -0.41737765073776245, 0.09513717889785767, 0.24810586869716644, -0.2133471667766571, 0.22710318863391876, -0.4359571933746338, -0.2972058951854706, 0.27723026275634766, 0.026945769786834717, -0.44261783361434937, 0.2666257321834564, 0.2603980004787445, -0.12531888484954834, -0.2464941293001175, 0.31404340267181396, 0.3340126872062683, -0.05991238355636597, -0.4799697697162628, -0.2617748975753784, 0.1084088459610939, -0.21855832636356354, -0.4315933287143707, 0.1822197437286377, 0.31379902362823486, 0.10316109657287598, 0.22097602486610413, 0.027815699577331543, -0.426791250705719, -0.15300770103931427, 0.05636388063430786, 0.48228469491004944, -0.04270374774932861, 0.5321247577667236, -0.39678144454956055, 0.3857564926147461, 0.4017450213432312, 0.024058550596237183, 0.6529867649078369, 0.1409779042005539, 0.05194437503814697, -0.1891736388206482, 0.40510520339012146, -0.2299884557723999, 0.3353155255317688, 0.38293448090553284, -0.28515419363975525, 0.48322346806526184, 0.07302968204021454, 0.8399295806884766], [0.08136606216430664, -0.32385551929473877, -0.11704607307910919, 0.034649696201086044, 0.2785888910293579, 0.4663121700286865, -0.25098544359207153, -0.06360670924186707, -0.28478679060935974, 0.09833985567092896, 0.42293959856033325, 0.39890673756599426, -0.3494822382926941, -0.04455379396677017, 0.42589399218559265, 0.21280235052108765, 0.37083184719085693, 0.20977121591567993, -0.39321157336235046, 0.4800252914428711, 0.43822306394577026, -0.4719076454639435, -0.17376410961151123, 0.297823041677475, -0.6966292858123779, 0.23649360239505768, 0.24951988458633423, -0.056960880756378174, 0.013167992234230042, 0.5298529863357544, -0.016193866729736328, 0.011290140450000763, 0.2614680528640747, -0.5783212780952454, 0.08636236935853958, 0.20202702283859253, 0.2576506733894348, 0.2833572030067444, -0.5566689372062683, -0.1252906173467636, 0.4827212989330292, -0.04807078838348389, 0.059016525745391846, -0.2419535517692566, -0.19243410229682922, -0.06880724430084229, 0.3206355571746826, 0.34514063596725464, 0.5717926621437073, 0.11636233329772949, -0.3553583025932312, 0.21924740076065063, -0.28025341033935547, -0.1776437759399414, -0.05004727840423584, -0.02366054058074951, -0.37207895517349243, 0.15128791332244873, 0.3295593857765198, -0.0805620551109314, -0.11489009857177734, -0.3840622901916504, 0.17275208234786987, 0.08589929342269897], [-0.4951019287109375, -0.2831920087337494, 0.044978439807891846, -0.15989148616790771, 0.49777668714523315, 0.38127729296684265, -0.29146671295166016, 0.3497161269187927, -0.5828350782394409, 0.3018141984939575, 0.37909460067749023, 0.06357729434967041, -0.5254762172698975, 0.7009086608886719, 0.038153886795043945, 0.4005316197872162, -0.35925692319869995, -0.7406002283096313, -0.48788854479789734, -0.3504711985588074, 0.36031824350357056, 0.09396329522132874, -0.15626615285873413, -0.016724765300750732, -0.3426731824874878, 0.37319302558898926, 0.5004245042800903, 0.4886612892150879, -0.07404476404190063, 0.40792059898376465, -0.10127991437911987, 0.4681524634361267, -0.1766575127840042, 0.3740631937980652, -0.06681061536073685, -0.14763376116752625, 0.6170722246170044, -0.3583894371986389, -0.4265385866165161, 0.2935326099395752, 0.034870803356170654, 0.11467278003692627, 0.28175127506256104, -0.03327852487564087, 0.1054929718375206, 0.05429704487323761, -0.05543386936187744, 0.036511681973934174, -0.12989479303359985, -0.04054239019751549, 0.13776414096355438, -0.02541434019804001, -0.021461069583892822, 0.3014281988143921, -0.0005828738212585449, -0.31598055362701416, -0.32318949699401855, 0.004037532955408096, 0.02598130702972412, 0.025274336338043213, -0.1311403512954712, 0.19041433930397034, 0.4370134472846985, -0.1049460768699646], [-0.6334413290023804, -0.3034009337425232, 0.15743817389011383, 0.42172718048095703, -0.4059581756591797, 0.404777467250824, 0.23014968633651733, 0.4117082953453064, -0.06413157284259796, 0.23169922828674316, -0.12463617324829102, 0.8021554350852966, -0.5322067737579346, -0.08961176872253418, 0.025388911366462708, 0.3819200098514557, 0.2597742974758148, -0.1181114912033081, 0.3701738119125366, -0.13952526450157166, -0.4998871684074402, 0.1407167613506317, -0.43876391649246216, -0.3694370985031128, 0.11883696168661118, -0.14625850319862366, 0.17587971687316895, 0.43784305453300476, 0.08409342169761658, -0.15521544218063354, -0.3168672025203705, 0.2964686155319214, -0.40021729469299316, -0.2389870285987854, -0.27845731377601624, 0.45748716592788696, -0.05457419157028198, 0.24465909600257874, -0.36650943756103516, 0.3284373879432678, 0.4720144271850586, 0.6903324127197266, 0.3082215189933777, 0.4748775362968445, 0.06855344772338867, -0.39265769720077515, 0.3806270956993103, -0.11877542734146118, -0.35718834400177, -0.2919643819332123, 0.29087021946907043, 0.0005048736929893494, -0.6589772701263428, -0.3382416367530823, -0.16181638836860657, -0.12017232179641724, 0.050368085503578186, -0.4276517629623413, 0.13497397303581238, 0.2832040786743164, 0.06266731023788452, -0.012067779898643494, -0.08746349811553955, -0.5568548440933228], [-0.36028599739074707, -0.10777980089187622, -0.4124327301979065, 0.1338120698928833, -0.2889161705970764, 0.2959737777709961, -0.5179001092910767, 0.08901390433311462, 0.06825298070907593, 0.4116392731666565, -0.022424042224884033, 0.4068584144115448, -0.06941553950309753, 0.09692669659852982, 0.574557363986969, 0.13395249843597412, 0.282419890165329, -0.011588618159294128, 0.5432118773460388, -0.3092341423034668, -0.4318990111351013, -0.1868181824684143, 0.3653254508972168, -0.47506481409072876, 0.5160231590270996, 0.046255216002464294, -0.46203237771987915, 0.5553902983665466, 0.28473252058029175, -0.31666579842567444, -0.18380866944789886, -0.3228204548358917, -0.1695650815963745, 0.12897837162017822, 0.5084810853004456, -0.39673539996147156, -0.3303830623626709, -0.2997671365737915, 0.5236406922340393, -0.5597506165504456, 0.10840533673763275, 0.4846265912055969, -0.04711407423019409, 0.2857394218444824, -0.24367856979370117, -0.1339704394340515, 0.8029066920280457, 0.48325514793395996, 0.11375175416469574, 0.018209777772426605, -1.0211608409881592, 0.4204275608062744, 0.2699071764945984, 0.4973284602165222, 0.3031211495399475, -0.23978358507156372, -0.03597128391265869, 0.1464751958847046, -0.47817081212997437, -0.2275046706199646, -0.28969764709472656, 0.06891059875488281, 0.6005285978317261, 0.24568448960781097], [-0.30517178773880005, -0.18224364519119263, 0.3996995687484741, 0.08096456527709961, 0.05325966328382492, -0.2563379406929016, -0.16906416416168213, -0.05554397404193878, -0.29240870475769043, -0.33695510029792786, -0.32574665546417236, 0.44049426913261414, -0.17077091336250305, 0.13737815618515015, -0.11488807201385498, 0.09641948342323303, 0.28649717569351196, 0.4376757740974426, 0.13331735134124756, 0.036583662033081055, -0.13533717393875122, -0.13618144392967224, 0.40553921461105347, -0.24161094427108765, 0.04725503921508789, 0.5830036401748657, -0.21403664350509644, 0.06502467393875122, -0.12473737448453903, 0.3534967005252838, -0.027514496818184853, -0.23468148708343506, -0.24763506650924683, 0.10875415802001953, -0.4124777317047119, 0.06949974596500397, 0.7769132256507874, 0.09221035242080688, -0.6483869552612305, -0.5235416293144226, 0.28108930587768555, 0.3026610016822815, -0.16883021593093872, -0.07721036672592163, -0.33258700370788574, 0.22856540977954865, -0.25715720653533936, -0.09428149461746216, 0.04374707490205765, 0.2594541907310486, 0.17764943838119507, 0.2619786262512207, -0.6365703344345093, -0.24543282389640808, -0.1384124755859375, -0.34558308124542236, -0.17202512919902802, 0.47656989097595215, -0.013910531997680664, 0.4819999933242798, -0.2531126141548157, 0.14673544466495514, -0.7462441921234131, -0.38783156871795654], [-0.23467040061950684, 0.305391788482666, 0.206665500998497, -0.28050684928894043, 0.4038545489311218, -0.2752631902694702, -0.18535731732845306, -0.7544469833374023, -0.12086522579193115, 0.10677331686019897, -0.0933796763420105, -0.2117096483707428, 0.5243597030639648, 0.301746666431427, -0.2844904661178589, -0.34496137499809265, -0.10000229626893997, 0.42346981167793274, 0.2843190133571625, 0.06133360415697098, 0.151383638381958, -0.45444977283477783, 0.3993809223175049, 0.14803916215896606, -0.1268925666809082, 0.5129876732826233, 0.08697167038917542, 0.3176191449165344, 0.37468641996383667, -0.5455574989318848, 0.06386417150497437, 0.2351716160774231, 0.037227436900138855, 0.13943423330783844, -0.06878754496574402, -0.041017334908246994, 0.3279120922088623, -0.0347631573677063, -0.2164698839187622, -0.7671172618865967, 0.12536296248435974, -0.20124571025371552, 0.25515294075012207, 0.06069666147232056, -0.3485599458217621, -0.3182339072227478, -0.18919923901557922, -0.22868749499320984, -0.5188706517219543, -0.0159749835729599, -0.5598558783531189, -0.43925219774246216, -0.7158060073852539, 0.27012062072753906, -0.09347397089004517, 0.2553703784942627, 0.17945224046707153, 0.4650273621082306, 0.13354313373565674, -0.2751525640487671, -0.06386297941207886, 0.18532973527908325, -0.09003603458404541, -0.5838594436645508], [-0.3716554045677185, 0.31770265102386475, 0.0694989562034607, 0.1551884412765503, -0.1794390231370926, 0.2683963179588318, 0.3839436173439026, -0.06603538244962692, -0.20938630402088165, -0.3742770254611969, 0.3444882035255432, 0.16155385971069336, 0.1774044781923294, 0.20546583831310272, -0.3194756507873535, 0.22923827171325684, 0.37793290615081787, 0.5839106440544128, -0.13473790884017944, -0.4760093092918396, -0.4216737747192383, 0.4438304901123047, -0.26428794860839844, -0.108941949903965, 0.6318071484565735, -0.1124015599489212, 0.4026467800140381, 0.27215081453323364, 0.33556532859802246, 0.4604206681251526, -0.19072777032852173, 0.10647246241569519, 0.18077881634235382, 0.4414621591567993, -0.40070801973342896, -0.6494762897491455, 0.6831628084182739, -0.17250442504882812, 0.43906933069229126, 0.2390885353088379, -0.2657470703125, -0.47242677211761475, -0.200850248336792, -0.1745961308479309, -0.06167477369308472, -0.22709429264068604, 0.4640219807624817, -0.44041305780410767, 0.149072527885437, 0.43482452630996704, 0.4523092210292816, -0.27019113302230835, -0.22013257443904877, -0.413852334022522, 0.2006009817123413, -0.1517910361289978, -0.444860577583313, -0.4965125024318695, 0.23798491060733795, 0.331559956073761, 0.4674752950668335, -0.23243051767349243, -0.0854068398475647, 0.22624501585960388], [0.2775246500968933, -0.2959744930267334, -0.49999919533729553, -0.2167244851589203, -0.031095921993255615, 0.32924124598503113, 0.5584102869033813, 0.1402072310447693, -0.020864665508270264, -0.489322304725647, -0.022853732109069824, 0.02061411738395691, 0.42654579877853394, 0.10341237485408783, -0.31859779357910156, -0.02511298656463623, -0.6258574724197388, -0.22311939299106598, -0.027315139770507812, 0.2824024558067322, 0.11194181442260742, 0.39188653230667114, -0.39655160903930664, 0.19358932971954346, 0.14074766635894775, -0.36590176820755005, -0.4656076729297638, -0.3173099756240845, -0.1439908742904663, 0.022541940212249756, 0.15438461303710938, 0.7245647311210632, -0.27410560846328735, -0.382191002368927, 0.19529668986797333, 0.08287005126476288, 0.3929693102836609, -0.07457190752029419, 0.2729482054710388, 0.25147515535354614, 0.3167709410190582, 0.1548929363489151, 0.43249034881591797, -0.42944425344467163, 0.48348379135131836, -0.308927059173584, -0.16732044517993927, 0.2886512577533722, -0.1990952491760254, 0.17091523110866547, 0.22888612747192383, -0.18470019102096558, 0.2932623624801636, -0.1204625815153122, -0.6164008378982544, 0.32928329706192017, 0.05867655575275421, -0.19591237604618073, -0.17890618741512299, -0.3071252703666687, -0.10920599102973938, -0.6302008032798767, 0.07325902581214905, 0.16348686814308167], [-0.3502230644226074, -0.4472336173057556, 0.17730408906936646, -0.675140380859375, 0.12010473012924194, 0.23039165139198303, -0.39046424627304077, 0.07840301096439362, -0.3395805358886719, -0.4485093951225281, 0.30043262243270874, 0.3886750340461731, 0.3035446107387543, 0.014085054397583008, 0.4094042479991913, -0.540561854839325, -0.517955482006073, 0.3348785638809204, -0.4591824412345886, 0.4050171375274658, -0.404738187789917, 0.10467749834060669, 0.45278069376945496, -0.4213411808013916, 0.02348664402961731, 0.13313066959381104, 0.6119781732559204, -0.43476933240890503, -0.43848079442977905, -0.26368528604507446, -0.4636983573436737, 0.4982215166091919, -0.1258947253227234, -0.06679439544677734, 0.3007502555847168, -0.3161708116531372, 0.22207987308502197, -0.11709582805633545, -0.02094179391860962, 0.4981694221496582, 0.3275367021560669, -0.028832316398620605, 0.01326070912182331, 0.7388461828231812, -0.019327566027641296, -0.06265080720186234, 0.4087250828742981, 0.08909209072589874, 0.5549753904342651, 0.27302539348602295, -0.3163334131240845, -0.2509513199329376, 0.49363815784454346, 0.2711639404296875, 0.08617490530014038, -0.36939817667007446, -0.4857521653175354, -0.189425989985466, -0.44620001316070557, 0.28715306520462036, 1.0051250457763672, 0.015005141496658325, 0.4826807379722595, 0.1433173418045044], [-0.321427583694458, 0.09534627199172974, 0.09745299816131592, 0.5721278190612793, 0.5389696359634399, -0.2564597427845001, 0.14265501499176025, 0.30709153413772583, -0.4124707281589508, -0.17005866765975952, -0.26103460788726807, 0.2764359712600708, 0.2999228239059448, -0.2839203476905823, -0.32951945066452026, -0.06590896844863892, -0.1901138424873352, -0.3456230163574219, 0.35333240032196045, 0.36688685417175293, 0.08985938876867294, -0.19721166789531708, -0.45695456862449646, 0.03295378386974335, 0.523525595664978, 0.12900516390800476, -0.37371712923049927, 0.43680518865585327, 0.4708176851272583, -0.3218112587928772, -0.34769243001937866, -0.351254403591156, 0.39250296354293823, -0.20901334285736084, -0.36081767082214355, 0.34429454803466797, -0.2672345042228699, 0.17035919427871704, -0.022239364683628082, -0.1801217794418335, 0.0916677862405777, -0.3023228645324707, -0.36245718598365784, 0.16958916187286377, -0.039277151226997375, 0.20543579757213593, -0.15344148874282837, 0.054578669369220734, 0.3803126811981201, 0.11554139852523804, 0.20968341827392578, 0.29720667004585266, 0.4142366647720337, 0.4631214141845703, 0.06172604858875275, 0.05599898099899292, -0.08292493224143982, -0.3758946657180786, -0.0002276897430419922, 0.5844008922576904, 0.5136573314666748, -0.02571195363998413, -0.2983812689781189, -0.10537523031234741], [-0.18774043023586273, -0.19763171672821045, -0.4830731749534607, 0.00279100239276886, -0.28719717264175415, -0.31647640466690063, -0.2225378006696701, 0.15485434234142303, 0.12069836258888245, -0.45024365186691284, -0.043801501393318176, -0.002564072608947754, -0.19637972116470337, -0.43735161423683167, 0.0477326363325119, -0.4270061254501343, -0.3122475743293762, 0.4239675998687744, -0.22984564304351807, -0.521372377872467, 0.2683320641517639, -0.17433466017246246, 0.07366615533828735, 0.308735191822052, -0.16654205322265625, -0.2901519238948822, -0.01285010576248169, -0.40278464555740356, -0.266249418258667, -0.02030038833618164, -0.7580247521400452, -0.2523807883262634, -0.29304975271224976, -0.1386823058128357, -0.16235852241516113, -0.391318678855896, -0.2987957000732422, 0.4466962218284607, 0.009002506732940674, 0.4931854009628296, 0.05411309003829956, -0.11657632887363434, -0.1322535127401352, 0.3227536082267761, -0.16133370995521545, 0.21080875396728516, -0.10578656196594238, -0.13979914784431458, 0.14831002056598663, -0.3050423264503479, -0.46469366550445557, 0.45424288511276245, 0.19357874989509583, -0.07464820146560669, 0.03005826473236084, 0.5430140495300293, -0.6293549537658691, 0.29445457458496094, -0.5832708477973938, -0.3713555932044983, -0.27772626280784607, -0.14689885079860687, 0.21169573068618774, -0.049265846610069275], [-0.30492329597473145, 0.19586384296417236, 0.0555729866027832, -0.023392081260681152, -0.11825782060623169, 0.31637176871299744, -0.3256748914718628, -0.016173720359802246, -0.09766370058059692, -0.43554359674453735, 0.24245312809944153, -0.27283865213394165, -0.10878448188304901, 0.43737348914146423, -0.41279345750808716, -0.4971292018890381, 0.5391446352005005, 0.024936914443969727, -0.3598023056983948, 0.07645159959793091, -0.4639875292778015, -0.3215709328651428, 0.31869643926620483, 0.40667036175727844, -0.3551552891731262, 0.41444462537765503, 0.5455341935157776, -0.09176266193389893, -0.06413251906633377, 0.07606102526187897, -0.06891566514968872, 0.44549858570098877, -0.038400888442993164, 0.4903954863548279, 0.03179720789194107, 0.09853994846343994, 0.7160748243331909, 0.5036763548851013, 0.2676527500152588, 0.10592714697122574, -0.19850271940231323, -0.44572824239730835, -0.2493566870689392, -0.06479588150978088, 0.04578326642513275, -0.4348715841770172, -0.3341989815235138, -0.17906448245048523, 0.05109900236129761, 0.08119966089725494, 0.3966856896877289, 0.21058714389801025, 0.20470237731933594, -0.33358216285705566, -0.21618324518203735, -0.29029837250709534, -0.11647429317235947, 0.17407011985778809, 0.14015069603919983, 0.25184130668640137, -0.5527464151382446, 0.19954341650009155, -0.06258314847946167, -0.1456063985824585], [-0.09801789373159409, -0.0011969804763793945, -0.06164335831999779, 0.2772221565246582, -0.36677950620651245, -0.08090151101350784, 0.01286904513835907, -0.32270708680152893, 0.4291679263114929, -0.0995246171951294, 0.11071550846099854, -0.15945473313331604, -0.030707567930221558, -0.28985053300857544, 0.27023524045944214, -0.3633846640586853, 0.8452962040901184, 0.19754832983016968, 0.1426692008972168, 0.046388037502765656, -0.477087140083313, 0.061054110527038574, -0.03744955733418465, 0.6241418719291687, 0.15157467126846313, -0.4302670955657959, 0.5941689014434814, 0.1370120644569397, -0.1863783746957779, 0.17787981033325195, 0.2062889039516449, -0.46959060430526733, -0.28515857458114624, -0.19508332014083862, 0.2793424129486084, 0.26243066787719727, -0.46371275186538696, -0.120004802942276, -0.47063302993774414, -0.36264899373054504, -0.494586706161499, -0.09865313768386841, 0.6043592691421509, 0.1862054318189621, 0.2528074383735657, 0.15396714210510254, 0.16543567180633545, 0.10243403911590576, -0.31919676065444946, 0.40103715658187866, 0.3291614055633545, 0.04581725597381592, 0.008690357208251953, 0.09651124477386475, -0.01491004228591919, -0.35664230585098267, -0.16255611181259155, -0.12332142889499664, 0.43320155143737793, 0.3688698709011078, 0.10779479146003723, 0.5114769339561462, -0.07826465368270874, -0.4373554289340973], [0.011722683906555176, 0.14192728698253632, 0.5876524448394775, -0.002141527831554413, 0.1395409107208252, 0.10495859384536743, 0.2365705519914627, 0.3634032607078552, 0.1279401183128357, 0.3960733413696289, 0.11416420340538025, -0.023195207118988037, -0.24893514811992645, 0.1928166151046753, 0.15422837436199188, -0.24182084202766418, -0.008064091205596924, -0.08470910787582397, 0.19179868698120117, 0.24932098388671875, 0.04239487648010254, 0.30222994089126587, 0.2664226293563843, 0.41098451614379883, 0.4601737856864929, 0.12036968767642975, 0.08054006099700928, -0.12584394216537476, 0.2579483091831207, 0.4315718412399292, 0.29444336891174316, 0.6344099044799805, -0.24289605021476746, 0.13364587724208832, -0.45005232095718384, 0.1059914231300354, 0.48516207933425903, -0.41199609637260437, 0.4217793345451355, 0.17756427824497223, 0.016942225396633148, 0.13203436136245728, 0.3785850405693054, 0.35596486926078796, -0.08311468362808228, -0.03406153619289398, 0.14654743671417236, 0.06885659694671631, 0.45615553855895996, 0.49508607387542725, 0.4048801064491272, -0.2550545036792755, 0.1714942306280136, 0.40469270944595337, -0.08883465826511383, 0.008572570979595184, -0.10435143858194351, -0.017756514251232147, 0.20129404962062836, -0.60042405128479, 0.14816278219223022, -0.39894574880599976, 0.03122738003730774, 0.18476983904838562], [0.12039738893508911, -0.3868420720100403, 0.42156732082366943, 0.26610392332077026, -0.2843688726425171, 0.3355979025363922, 0.004999697208404541, 0.32525962591171265, 0.3363264799118042, 0.53774094581604, 0.2643190026283264, -0.645238995552063, 0.18906144797801971, 0.44749531149864197, 0.5844815969467163, 0.11011789739131927, 0.13527530431747437, 0.0072574615478515625, 0.3538784086704254, -0.576789140701294, -0.04203653335571289, -0.07059401273727417, -0.06769520044326782, 0.2545323371887207, 0.39857396483421326, 0.1480129361152649, -0.2703709602355957, 0.4189811944961548, -0.4519190788269043, -0.30079010128974915, -0.301083505153656, -0.6374102830886841, -0.29169541597366333, -0.35730791091918945, 0.49236756563186646, -0.42077571153640747, 0.25618836283683777, -0.283428430557251, -0.34915125370025635, -0.2807415723800659, 0.31045371294021606, -0.04191136360168457, 0.38067924976348877, -0.2417079210281372, -0.6555481553077698, 0.317150354385376, -0.23219893872737885, -0.13403193652629852, -0.2863820791244507, 0.42717546224594116, 0.49881690740585327, 0.08801868557929993, -0.5539088249206543, 0.3630719780921936, -0.3949986696243286, 0.7011727094650269, 0.4313485026359558, 0.09487598389387131, -0.4494612216949463, 0.23660777509212494, 0.3653644919395447, -0.3688846230506897, -0.3595184087753296, 0.5262888073921204], [-0.30617693066596985, -0.11644448339939117, -0.43692201375961304, 0.009040772914886475, 0.04004955291748047, 0.31982362270355225, 0.19141224026679993, 0.02208477258682251, 0.21555377542972565, 0.3901538550853729, -0.12636101245880127, -0.31435978412628174, -0.25281402468681335, -0.34055209159851074, -0.5453799962997437, -0.4070698916912079, 0.7037545442581177, 0.04723470285534859, -0.357888400554657, -0.39217936992645264, -0.35213035345077515, 0.27031174302101135, 0.020350158214569092, -0.1530390977859497, 0.272153377532959, 0.4059339165687561, 0.36159250140190125, 0.46704089641571045, 0.5017284750938416, -0.2682076096534729, 0.19426077604293823, -0.41063374280929565, -0.27196401357650757, -0.24356985092163086, -0.17729155719280243, 0.6827548146247864, 0.26037830114364624, -0.2288932204246521, -0.016323506832122803, 0.23988789319992065, 0.03130638599395752, 0.27228057384490967, 0.184343159198761, 0.20846736431121826, 0.0802704244852066, -0.7243370413780212, 0.1391681432723999, 0.3401331901550293, -0.05801127851009369, 0.13472118973731995, -0.2878704071044922, 0.03819642961025238, 0.05385267734527588, 0.0504661500453949, -0.06775359809398651, 0.05554455518722534, -0.36108553409576416, 0.6528052091598511, 0.024381577968597412, 0.34996628761291504, 0.29053735733032227, -0.025810852646827698, 0.4616018533706665, 0.10241001844406128], [0.27687355875968933, -0.10255104303359985, 0.06755858659744263, 0.3285868167877197, -0.12363225221633911, 0.14694461226463318, -0.34782469272613525, -0.4553343653678894, 0.3257541060447693, -0.4146099090576172, -0.6036938428878784, 0.08606065809726715, -0.25493085384368896, 0.08274122327566147, 0.4919359087944031, 0.5160930156707764, -0.46231192350387573, 0.2814635932445526, -0.30702126026153564, 0.6629064679145813, 0.12644630670547485, -0.27855801582336426, -0.02172064781188965, -0.0599677637219429, -0.09409473091363907, 0.2156868577003479, 0.3357446789741516, 0.07973431795835495, -0.4841046631336212, 0.3876156508922577, -0.11202013492584229, -0.319771945476532, 0.4838969111442566, 0.12789011001586914, 0.3408381938934326, 0.0538296103477478, 0.36392009258270264, 0.30549657344818115, 0.1944037675857544, -0.31953907012939453, -0.48486989736557007, 0.29892653226852417, -0.35746830701828003, 0.8271453380584717, 0.3865094482898712, -0.07657250761985779, 0.539640486240387, 0.06014833599328995, -0.3248796761035919, -0.03375081717967987, 0.3243753910064697, 0.050046663731336594, 0.2990301847457886, -0.41519325971603394, -0.4900060296058655, 0.2537931799888611, 0.40463948249816895, -0.12701690196990967, 0.4732360243797302, -0.44735097885131836, -0.04760932922363281, -0.007581949234008789, 0.1493980586528778, -0.2495240420103073], [-0.10341718792915344, -0.2874082922935486, 0.1939568966627121, 0.46707621216773987, -0.3272061347961426, -0.334872841835022, 0.5276646614074707, 0.3577830195426941, 0.31802958250045776, 0.2858186364173889, 0.07131362706422806, -0.012934386730194092, -0.3157585859298706, -0.04614868760108948, -0.26534193754196167, -0.24869877099990845, -0.28073179721832275, 0.14903420209884644, 0.11075448989868164, -0.16333216428756714, 0.5091705322265625, 0.3358451724052429, -0.07499214261770248, -0.433169960975647, -0.19258716702461243, 0.20064711570739746, -0.2855929136276245, -0.07918071746826172, -0.031186982989311218, -0.7132259011268616, 0.09051358699798584, 0.5511499047279358, 0.03610807657241821, -0.2844739854335785, 0.13116736710071564, 0.21145135164260864, -0.4180492162704468, -0.013940569013357162, 0.40947288274765015, 0.46681374311447144, -0.1110917329788208, 0.43301206827163696, -0.4292428493499756, -0.5093706846237183, 0.44952455163002014, 0.0017879009246826172, 0.03586453199386597, -0.28912001848220825, 0.4452607333660126, -0.2558813691139221, -0.21620036661624908, 0.2056874930858612, 0.3222811818122864, -0.8389064073562622, -0.30460870265960693, 0.39561915397644043, -0.5249456167221069, 0.29162636399269104, 0.27475589513778687, -0.10732239484786987, 0.26161909103393555, -0.024452626705169678, -0.4009479284286499, -0.4403676390647888], [0.5555546879768372, -0.34391361474990845, -0.0031789541244506836, 0.47164782881736755, -0.5250138640403748, 0.43772149085998535, 0.2216019481420517, -0.11420634388923645, -0.3592188060283661, 0.5429893136024475, -0.05343455448746681, 0.4007585644721985, -0.041707418859004974, -0.639693021774292, 0.09614216536283493, -0.08634501695632935, -0.49845612049102783, 0.24914595484733582, 0.24579748511314392, -0.47447192668914795, 0.22139087319374084, -0.07848182320594788, 0.14812108874320984, -0.6531044840812683, -0.17433606088161469, 0.14714866876602173, -0.2176404595375061, -0.07013846933841705, 0.11275067925453186, -0.20336684584617615, 0.06650751829147339, -0.008610904216766357, -0.2827942371368408, 0.4760817289352417, -0.26415854692459106, -0.0009563080966472626, 0.3065091073513031, 0.007977262139320374, 0.5199989080429077, -0.2786666750907898, -0.10135084390640259, -0.05724693089723587, -0.38313883543014526, -0.36160874366760254, -0.04463496804237366, -0.0544038750231266, -0.3475090265274048, 0.19839522242546082, -0.3227235674858093, -0.4277538061141968, -0.4888796806335449, 0.09496694803237915, 0.11034049093723297, -0.4282740354537964, 0.27152037620544434, -0.22914546728134155, -0.05739825963973999, -0.39962276816368103, 0.06904400885105133, 0.07336608320474625, -0.3744070529937744, -0.21231810748577118, 0.4873284101486206, -0.5678690075874329], [-0.18367919325828552, -0.09899139404296875, -0.10259921848773956, 0.022139132022857666, -0.5499320030212402, 0.4720422625541687, -0.2440999150276184, 0.0055672526359558105, 0.39743614196777344, 0.35218772292137146, -0.1683376282453537, -0.010381326079368591, -0.4889758229255676, -0.014679089188575745, 0.3227294981479645, 0.4061339497566223, 0.18785837292671204, -0.30985185503959656, 0.3159753978252411, 0.5983859300613403, -0.22372525930404663, -0.013691067695617676, -0.4539671242237091, 0.06976824998855591, 0.44040626287460327, 0.053481221199035645, 0.4672597050666809, 0.17292627692222595, -0.25670844316482544, 0.35681092739105225, -0.49234968423843384, -0.2529714107513428, -0.1093747615814209, -0.3673228621482849, -0.6504266262054443, -0.5885347723960876, 0.06847405433654785, -0.2745019495487213, 0.37221479415893555, -0.2641800045967102, -0.24931807816028595, 0.41318023204803467, -0.5474548935890198, -0.5268450379371643, 0.5822032690048218, 0.0055152177810668945, -0.2794210910797119, 0.14713351428508759, -0.283353328704834, 0.0983523577451706, -0.4480096995830536, 0.4113219380378723, -0.1479497253894806, 0.39931821823120117, -0.39383506774902344, -0.1654304713010788, 0.49580127000808716, -0.3887885808944702, 0.18628931045532227, -0.20189329981803894, -0.4402845501899719, -0.16755671799182892, -0.2356991171836853, 0.12860560417175293], [0.0679783746600151, 0.4042775630950928, -0.2294236421585083, 0.24673014879226685, -0.09971946477890015, -0.557135820388794, -0.5765730738639832, 0.4535524845123291, -0.32846927642822266, -0.2760661244392395, 0.051185011863708496, -0.11662459373474121, 0.01351521909236908, 0.3909572958946228, -0.571768581867218, 0.09860952198505402, -0.12765203416347504, 0.06553922593593597, 0.0770145058631897, 0.061713650822639465, -0.31180238723754883, -0.06566596776247025, -0.39967530965805054, -0.2416244000196457, -0.17811353504657745, 0.552287220954895, 0.19521000981330872, 0.20296907424926758, 0.492951363325119, 0.0977325588464737, 0.043951213359832764, 0.16186365485191345, -0.10758429765701294, -0.4502268433570862, -0.20664703845977783, -0.2853745222091675, -0.36275219917297363, -0.14666342735290527, -0.1997293084859848, 0.12097132205963135, 0.20513203740119934, 0.32182037830352783, -0.09741069376468658, 0.2094692587852478, 0.3395293354988098, 0.16886074841022491, -0.05585057660937309, 0.2735820710659027, 0.37616443634033203, 0.17174723744392395, -0.38247066736221313, -0.398653119802475, -0.07647491991519928, 0.13243114948272705, 8.791685104370117e-05, 0.2976394295692444, -0.430042564868927, -0.08656550943851471, 0.2745424509048462, 0.35010433197021484, 0.45347124338150024, 0.2324153184890747, 0.40681636333465576, 0.10299694538116455], [-0.060971975326538086, -0.053821541368961334, -0.02968621999025345, -0.37989670038223267, 0.22494888305664062, 0.14222607016563416, -0.5626852512359619, -0.09583193063735962, -0.31020230054855347, 0.33838769793510437, -0.5035848617553711, 0.39613014459609985, 0.05634823441505432, -0.4472575783729553, 1.2040138244628906e-05, -0.16638579964637756, -0.42080676555633545, 0.43814265727996826, -0.08174669742584229, -0.35247957706451416, -0.11827246099710464, 0.2339279055595398, 0.08683687448501587, -0.2761176824569702, 0.08973336219787598, 0.4501389265060425, -0.3049811124801636, -0.18815027177333832, 0.5269454717636108, 0.24250376224517822, -0.29553911089897156, -0.1521514356136322, -0.2874762713909149, -0.3515617847442627, 0.18984578549861908, -0.2119227647781372, 0.0015444159507751465, 0.03823411464691162, -0.032451331615448, 0.03527116775512695, 0.12955135107040405, 0.27895551919937134, -0.099558025598526, 0.38269007205963135, -0.21925072371959686, 0.4251614809036255, -0.1610756516456604, 0.031084135174751282, 0.173028826713562, -0.01630045473575592, -0.6754940152168274, -0.23305994272232056, 0.09795743227005005, 0.1456225961446762, 0.35773229598999023, 0.4528734087944031, 0.12903621792793274, 0.3578723073005676, -0.3257941007614136, -0.2255786508321762, -0.26991894841194153, -0.15761210024356842, 0.30711039900779724, 0.12452863156795502], [-0.3855469226837158, 0.4576529562473297, 0.3121784031391144, -0.30293509364128113, 0.18303179740905762, -0.45087820291519165, 0.6413288116455078, 0.5647335052490234, -0.45132482051849365, 0.1265614926815033, -0.5841509699821472, 0.33891561627388, 0.11726211756467819, 0.5388578176498413, 0.25723889470100403, 0.1405254453420639, -0.3936306834220886, 0.42155787348747253, 0.4808676838874817, 0.20054036378860474, -0.12543435394763947, -0.6103419661521912, -0.09036964178085327, 0.47237056493759155, -0.017031770199537277, -0.375127375125885, 0.08771902322769165, 0.10275870561599731, -0.05433155596256256, 0.21037007868289948, -0.4459577798843384, 0.673760712146759, 0.13353902101516724, 0.4765574038028717, -0.24720680713653564, -0.3828362822532654, -0.15471917390823364, -0.3444956839084625, -0.16670066118240356, -0.022436007857322693, 0.5225802659988403, 0.26997464895248413, 0.32365769147872925, -0.5034191012382507, 0.10471294820308685, -0.3360205292701721, -0.15124726295471191, 0.3184247612953186, 0.09943750500679016, 0.3200474977493286, 0.4028773307800293, 0.4817007780075073, -0.29357218742370605, 0.5325046181678772, -0.1753595918416977, -0.19749462604522705, -0.05744315683841705, -0.11183780431747437, -0.05646407604217529, -0.21364693343639374, -0.24011938273906708, 