{"input_weights": [[0.3554772138595581, -0.4062102437019348, -0.1518000364303589, 0.487102746963501, -0.30042070150375366, -0.05681324005126953, -0.08570694923400879, 0.46522629261016846, 0.3641326427459717, 0.21308958530426025, 0.30945420265197754, 0.31870752573013306, -0.3781599998474121, -0.16490334272384644, -0.1031503677368164, 0.05445528030395508, 0.4710509181022644, -0.046650052070617676, 0.006274163722991943, 0.16076773405075073, -0.38044363260269165, -0.1967971920967102, -0.10851860046386719, 0.06877315044403076, 0.08670544624328613, -0.14885765314102173, -0.2639927864074707, -0.36411720514297485, -0.3562470078468323, -0.21983098983764648, 0.4256259799003601, 0.17648249864578247, 0.13083487749099731, -0.19485366344451904, -0.4753033518791199, -0.43085867166519165, 0.45578211545944214, -0.2910217046737671, 0.29830801486968994, 0.17519503831863403, -0.4058709144592285, 0.2704083323478699, 0.47814255952835083, -0.28979790210723877, -0.41065216064453125, 0.22324830293655396, 0.4309844970703125, -0.49743741750717163, 0.35913658142089844, 0.4765952229499817, 0.35241299867630005, -0.045819103717803955, 0.425400972366333, 0.33217400312423706, -0.11696618795394897, 0.40666377544403076, -0.3175703287124634, -0.04394090175628662, -0.19954991340637207, 0.4130963087081909, 0.3030821681022644, -0.11907261610031128, -0.16298097372055054, -0.23566025495529175, 0.14276337623596191, 0.2807406187057495, -0.3631187081336975, -0.38351011276245117, -0.16956520080566406, -0.43147027492523193, -0.050411880016326904, -0.08054995536804199, 0.34283918142318726, 0.31807446479797363, -0.0007994174957275391, -0.3194044828414917, 0.4073672890663147, -0.352483868598938, 0.49848800897598267, 0.40128886699676514, 0.11104154586791992, -0.363112211227417, -0.17850488424301147, -0.2983006238937378, -0.07360398769378662, -0.49194419384002686, 0.2860680818557739, 0.2858406901359558, -0.35206639766693115, 0.12991541624069214, -0.1772700548171997, 0.08287036418914795, -0.42661112546920776, -0.47043275833129883, -0.2076980471611023, -0.3849967122077942, 0.37533771991729736, -0.01718449592590332, -0.013193845748901367, -0.02697122097015381, 0.07849043607711792, -0.07602208852767944, -0.11149770021438599, 0.25508713722229004, 0.08651584386825562, 0.4151983857154846, -0.4956134557723999, -0.36682260036468506, 0.49071788787841797, -0.4106746315956116, -0.4300410747528076, -0.4331647753715515, 0.46068519353866577, -0.15823739767074585, 0.015877246856689453, -0.49142205715179443, -0.39082664251327515, -0.3904542922973633, 0.09967184066772461, -0.23014134168624878, -0.38363438844680786, -0.39893919229507446, 0.056245267391204834, -0.32309091091156006, -0.44850707054138184, -0.2827775478363037, -0.2702940106391907, -0.24640512466430664], [0.1952163577079773, 0.46767282485961914, -0.48053181171417236, -0.24855726957321167, 0.47937387228012085, -0.08547639846801758, 0.3240315318107605, -0.0803292989730835, -0.21762466430664062, 0.36710280179977417, 0.38667845726013184, 0.4229509234428406, 0.49874722957611084, -0.37885797023773193, -0.26836061477661133, -0.17221873998641968, 0.09085947275161743, -0.125416100025177, 0.17686736583709717, 0.21031177043914795, 0.26115649938583374, 0.02504676580429077, 0.10184335708618164, 0.11494123935699463, -0.14687353372573853, 0.06908679008483887, -0.03248143196105957, 0.060674428939819336, -0.12151837348937988, -0.2784269452095032, 0.18866419792175293, 0.30596262216567993, 0.3258541226387024, -0.31793081760406494, 0.26058006286621094, 0.08487391471862793, -8.118152618408203e-05, -0.3982909321784973, 0.4185176491737366, 0.21251899003982544, 0.15673118829727173, 0.3998083472251892, -0.16887718439102173, -0.06297463178634644, 0.2391718626022339, 0.2061951756477356, 0.26881253719329834, 0.3202636241912842, -0.24236661195755005, -0.27172577381134033, 0.3031192421913147, 0.06643325090408325, 0.3946583867073059, -0.4937213063240051, -0.046967923641204834, -0.008643925189971924, -0.08337944746017456, -0.005904495716094971, 0.29315894842147827, 0.4714067578315735, -0.05877631902694702, -0.49015361070632935, 0.20556849241256714, -0.4098414182662964, -0.14306402206420898, -0.0437624454498291, 0.16425907611846924, 0.10855185985565186, 0.3430219888687134, 0.43090808391571045, 0.19436639547348022, 0.2320215106010437, -0.2522708773612976, -0.05813252925872803, -0.23895835876464844, -0.39185667037963867, 0.46897536516189575, -0.025716125965118408, 0.3317345976829529, -0.4284771680831909, -0.4704973101615906, -0.4774587154388428, 0.04625195264816284, 0.022105753421783447, -0.283896267414093, 0.2361849546432495, -0.47530895471572876, -0.37784677743911743, 0.09210604429244995, 0.47722625732421875, 0.2667332887649536, 0.2501105070114136, 0.4606080651283264, 0.23009437322616577, -0.498817503452301, 0.03851395845413208, -0.24144995212554932, 0.26262015104293823, 0.4604361057281494, 0.47476959228515625, 0.2454373836517334, -0.22268235683441162, 0.0732305645942688, -0.0644572377204895, 0.16435033082962036, -0.22639167308807373, 0.16371667385101318, -0.3378117084503174, -0.47939884662628174, 0.024477362632751465, 0.011463701725006104, 0.08266091346740723, -0.20977294445037842, -0.1660352349281311, -0.3457118272781372, -0.037422895431518555, 0.09037113189697266, 0.16847217082977295, -0.24880099296569824, -0.06721299886703491, -0.36120855808258057, 0.2999153137207031, 0.19200164079666138, 0.11934500932693481, -0.44290685653686523, 0.18442213535308838, 0.31136518716812134, 0.42270350456237793], [-0.28820496797561646, 0.20448994636535645, 0.19273453950881958, -0.08642131090164185, 0.3491695523262024, -0.30500996112823486, -0.004998385906219482, -0.04100126028060913, 0.4414849877357483, 0.16333281993865967, -0.16541790962219238, 0.2408471703529358, 0.24094915390014648, -0.29864293336868286, 0.238256573677063, -0.11311507225036621, -0.29217618703842163, -0.17792987823486328, -0.4366941452026367, -0.11764073371887207, -0.17650383710861206, -0.48442310094833374, 0.05857723951339722, -0.026597142219543457, 0.35883569717407227, -0.4302341341972351, -0.0460929274559021, -0.48576128482818604, -0.29368120431900024, -0.3870711326599121, 0.3037068247795105, 0.2695695757865906, -0.07704514265060425, -0.22098928689956665, -0.06397825479507446, 0.06826430559158325, -0.41136330366134644, -0.345120370388031, -0.2265881896018982, 0.39323633909225464, 0.4349416494369507, -0.06045973300933838, -0.07319241762161255, -0.3929803967475891, -0.436331570148468, 0.3963945508003235, -0.2541213035583496, -0.3655845522880554, 0.31549888849258423, 0.16390365362167358, -0.3090587854385376, 0.2512597441673279, -0.0717666745185852, -0.002932310104370117, -0.015634596347808838, 0.03988009691238403, 0.28212738037109375, -0.0035037994384765625, -0.4040296673774719, 0.44655030965805054, -0.06860554218292236, -0.17282533645629883, -0.39795053005218506, -0.04226863384246826, 0.014571428298950195, -0.07960116863250732, -0.010516881942749023, -0.10600054264068604, -0.4091549515724182, -0.20823484659194946, 0.10967659950256348, -0.19540053606033325, 0.16268080472946167, 0.09374243021011353, -0.15964818000793457, 0.3086986541748047, 0.38586103916168213, 0.21021419763565063, -0.4391763210296631, -0.11812520027160645, -0.15061479806900024, -0.40099531412124634, -0.041951894760131836, -0.19493502378463745, 0.23562031984329224, 0.44777512550354004, 0.3910514712333679, 0.49235081672668457, 0.3329394459724426, -0.17781561613082886, 0.27063775062561035, -0.195684552192688, -0.08668839931488037, -0.41482728719711304, -0.23840105533599854, 0.3076167106628418, -0.08142334222793579, 0.1875549554824829, 0.20275676250457764, 0.15687888860702515, -0.4012855887413025, 0.46334922313690186, 0.08541035652160645, 0.07781481742858887, -0.05936819314956665, 0.08720147609710693, -0.14975345134735107, -0.2589969038963318, 0.3825491666793823, 0.26928436756134033, 0.15978360176086426, -0.43174707889556885, -0.4847557544708252, 0.2582176923751831, 0.29220324754714966, 0.2705473303794861, -0.1522977352142334, 0.10370379686355591, 0.13034653663635254, -0.07639431953430176, 0.038567423820495605, 0.15638768672943115, -0.33137422800064087, -0.10513293743133545, 0.4560098648071289, 0.13975048065185547, -0.09623020887374878, 0.30896610021591187], [-0.2915969491004944, 0.15635967254638672, 0.3235071301460266, 0.005261778831481934, -0.32583820819854736, 0.2151350975036621, -0.3344542980194092, 0.12828117609024048, -0.2990584969520569, -0.41153937578201294, -0.27421826124191284, 0.4630672335624695, -0.10156857967376709, 0.19141709804534912, 0.4910774230957031, -0.24208760261535645, 0.17321747541427612, -0.043664515018463135, -0.17545926570892334, 0.3841761350631714, 0.09880483150482178, 0.3457128405570984, 0.21499866247177124, -0.35764628648757935, 0.1914592981338501, -0.33109545707702637, 0.16621887683868408, 0.3756413459777832, 0.17448872327804565, -0.058460235595703125, -0.46928489208221436, -0.19262325763702393, 0.19950729608535767, -0.10375738143920898, 0.1487221121788025, -0.2522011995315552, 0.32828986644744873, 0.37793630361557007, 0.46883273124694824, 0.4622281789779663, -0.2612387537956238, 0.3354020118713379, -0.3276689052581787, -0.29670417308807373, 0.3796197772026062, -0.10681957006454468, -0.09814625978469849, 0.2652076482772827, 0.15172278881072998, -0.4315944314002991, -0.4457353949546814, -0.48543208837509155, 0.03733992576599121, -0.1814194917678833, 0.11097174882888794, 0.49892324209213257, -0.08003592491149902, 0.1447587013244629, -0.4751642346382141, -0.13070189952850342, -0.28700292110443115, -0.24505853652954102, 0.19645798206329346, 0.39062201976776123, 0.3166521191596985, 0.49540334939956665, 0.4755851626396179, -0.16508513689041138, 0.24273687601089478, -0.31497979164123535, -0.2603687047958374, 0.41257166862487793, -0.341866672039032, 0.10903465747833252, -0.39501452445983887, 0.48061031103134155, 0.22972840070724487, -0.2595057487487793, -0.39405322074890137, -0.014269888401031494, 0.3791103959083557, -0.25982171297073364, 0.44919681549072266, 0.13207536935806274, 0.02345108985900879, -0.14269119501113892, -0.4651533365249634, -0.2924354672431946, -0.17854690551757812, -0.21634918451309204, -0.3979111909866333, 0.24014884233474731, 0.46331554651260376, -0.24301820993423462, -0.18392717838287354, 0.4080886244773865, -0.2848581075668335, -0.12523525953292847, -0.2450312376022339, 0.20941931009292603, -0.3929818868637085, -0.20248204469680786, -0.37648409605026245, 0.47614431381225586, -0.34203583002090454, -0.2748481035232544, -0.20441532135009766, 0.4218776822090149, -0.3213474750518799, 0.0313069224357605, -0.393172025680542, 0.08336520195007324, 0.028762638568878174, 0.2741778492927551, 0.28026819229125977, -0.41531121730804443, -0.05165332555770874, 0.4077257513999939, -0.39788585901260376, -0.23497527837753296, -0.006115972995758057, 0.35788214206695557, 0.07674509286880493, 0.4938337802886963, 0.0803375244140625, -0.37263333797454834, -0.16052353382110596, -0.19487297534942627], [0.35310834646224976, 0.16712361574172974, 0.07001912593841553, 0.00946730375289917, -0.13673365116119385, -0.36569178104400635, 0.17716282606124878, -0.10323202610015869, -0.06779706478118896, -0.17517739534378052, -0.32234829664230347, -0.19921505451202393, -0.2504656910896301, -0.3731205463409424, -0.07997816801071167, 0.2698649764060974, -0.17643100023269653, 0.25525861978530884, -0.4930546283721924, -0.4414288401603699, -0.05696982145309448, 0.2625254988670349, 0.4461761713027954, 0.32762736082077026, 0.20053362846374512, -0.23144996166229248, -0.3795984983444214, 0.16756772994995117, -0.3674304485321045, 0.0012857913970947266, -0.0018564462661743164, -0.15977460145950317, -0.37380385398864746, 0.13843470811843872, -0.38165682554244995, 0.3319002389907837, 0.39700961112976074, 0.25750964879989624, -0.26767152547836304, -0.4589546322822571, -0.19707447290420532, 0.46872270107269287, 0.273389995098114, 0.3539276123046875, 0.216946542263031, -0.0910043716430664, 0.024399936199188232, 0.00892031192779541, -0.3423823118209839, 0.04241836071014404, -0.1916300654411316, -0.4701389670372009, -0.10214930772781372, 0.1394507884979248, 0.1061665415763855, 0.06334191560745239, -0.4457303285598755, -0.19641494750976562, -0.022598087787628174, 0.40778231620788574, -0.23516154289245605, 0.0018988251686096191, 0.4572734832763672, 0.22251665592193604, 0.053064942359924316, 0.3331682085990906, -0.21684116125106812, 0.41755878925323486, 0.11664819717407227, -0.2810903787612915, -0.14528536796569824, -0.27933037281036377, -0.48336368799209595, -0.11102122068405151, 0.32964444160461426, 0.15907853841781616, -0.44686561822891235, -0.31411969661712646, -0.47645634412765503, -0.1972522735595703, 0.059949398040771484, -0.05667394399642944, 0.05694395303726196, 0.10864412784576416, 0.25583940744400024, -0.33374202251434326, 0.20817047357559204, 0.26411861181259155, -0.45870667695999146, 0.40564894676208496, 0.36889827251434326, -0.4573173522949219, -0.34865647554397583, 0.15181756019592285, -0.10190713405609131, 0.31595706939697266, -0.35897159576416016, -0.16976004838943481, -0.4996134638786316, -0.1593911051750183, 0.36722928285598755, 0.1991574764251709, 0.3396945595741272, -0.008943378925323486, 0.24128222465515137, -0.3599644899368286, 0.1813104748725891, 0.3395845890045166, 0.14283251762390137, -0.10027146339416504, 0.023510634899139404, -0.44483208656311035, -0.2828969955444336, 0.42309749126434326, -0.16469401121139526, 0.03602105379104614, -0.12792617082595825, 0.0417712926864624, -0.05107229948043823, -0.42996639013290405, 0.4258873462677002, -0.25189316272735596, -0.09205228090286255, 0.34297871589660645, -0.44635170698165894, -0.3742387294769287, 0.300528883934021, -0.029635608196258545], [0.1290019154548645, -0.47489994764328003, 0.06986021995544434, -0.2504006028175354, 0.3061310648918152, 0.1871652603149414, 0.20327043533325195, -0.38757818937301636, 0.3682527542114258, 0.07490617036819458, -0.34497714042663574, 0.3218281865119934, -0.06094568967819214, 0.28044337034225464, -0.4144732356071472, 0.11468237638473511, -0.013867020606994629, -0.08917361497879028, 0.16008424758911133, -0.31896722316741943, 0.4621785283088684, -0.09537512063980103, 0.20898067951202393, -0.0645177960395813, 0.29322606325149536, 0.22164511680603027, -0.37296009063720703, -0.13251864910125732, -0.4827580451965332, -0.3405764102935791, -0.19102054834365845, -0.30525821447372437, -0.009150326251983643, 0.10459637641906738, -0.37786585092544556, 0.30582886934280396, -0.12726223468780518, 0.4329582452774048, -0.25233304500579834, 0.08610469102859497, -0.2404015064239502, -0.23255473375320435, 0.24806177616119385, -0.1217992901802063, 0.061983585357666016, -0.38814836740493774, 0.4779951572418213, 0.3279098868370056, -0.4485481381416321, -0.18087095022201538, -0.25592702627182007, -0.10966575145721436, 0.3620927333831787, -0.08934199810028076, 0.32306116819381714, -0.29633545875549316, -0.26543670892715454, -0.12711703777313232, 0.1248009204864502, -0.17000961303710938, -0.3953685164451599, 0.14587897062301636, 0.16772615909576416, 0.4149928092956543, 0.28345930576324463, 0.3083159327507019, 0.2007245421409607, -0.3143937587738037, -0.4263325333595276, 0.10009455680847168, 0.331768274307251, 0.4050624370574951, -0.129938006401062, -0.0024594664573669434, -0.12807869911193848, -0.39477741718292236, 0.13970357179641724, -0.32685762643814087, 0.27191978693008423, 0.13270390033721924, -0.013988137245178223, -0.0211639404296875, -0.3481200933456421, 0.22728115320205688, 0.060670554637908936, 0.15600991249084473, -0.08522230386734009, 0.44379186630249023, -0.06602555513381958, -0.07539325952529907, -0.42746853828430176, 0.3925632834434509, -0.37259167432785034, 0.19827032089233398, -0.1761491894721985, 0.1800639033317566, -0.3906117081642151, 0.16056513786315918, 0.05903118848800659, -0.2945430874824524, 0.43096911907196045, -0.3122395873069763, -0.2879273295402527, 0.3875252604484558, 0.19899070262908936, -0.19742339849472046, -0.1614111065864563, -0.4189797639846802, 0.2529222369194031, -0.4248964786529541, 0.2928363084793091, 0.18572384119033813, -0.16827422380447388, 0.10661071538925171, -0.008434891700744629, -0.3528848886489868, 0.21209412813186646, -0.46266502141952515, -0.27893775701522827, 0.22349679470062256, -0.4109816551208496, 0.18832159042358398, 0.18059974908828735, -0.05943775177001953, -0.085879385471344, -0.16286784410476685, 0.13344073295593262, 0.46647995710372925], [0.23169070482254028, -0.3655775189399719, 0.26715511083602905, 0.013953089714050293, 0.15924197435379028, -0.4377160668373108, -0.28631705045700073, -0.09697622060775757, 0.10619288682937622, -0.4420907497406006, 0.18604731559753418, -0.2384740114212036, 0.38485270738601685, 0.24904710054397583, 0.4361875057220459, 0.4608093500137329, -0.06581556797027588, -0.06771612167358398, -0.13658428192138672, 0.007409095764160156, 0.06494557857513428, -0.08049219846725464, 0.41852468252182007, -0.006973922252655029, 0.08604806661605835, 0.47282135486602783, -0.003841400146484375, 0.34664690494537354, 0.24285846948623657, 0.3549352288246155, 0.1688104271888733, 0.23949825763702393, 0.09599959850311279, -0.16282248497009277, 0.3450995683670044, 0.3270665407180786, -0.28733354806900024, -0.24477910995483398, -0.00469970703125, 0.4355704188346863, -0.4773639440536499, -0.4202420115470886, 0.10797107219696045, -0.4334101676940918, 0.06489205360412598, 0.44751280546188354, -0.15728604793548584, 0.3853336572647095, 0.15739452838897705, -0.012488961219787598, 0.12338882684707642, -0.42007970809936523, -0.3718806505203247, 0.009113967418670654, 0.49615222215652466, 0.16166990995407104, 0.49541932344436646, -0.33575308322906494, 0.08237200975418091, 0.16781270503997803, -0.05509316921234131, 0.43927431106567383, -0.05803322792053223, -0.4683014154434204, 0.12791526317596436, 0.04075747728347778, -0.28766220808029175, 0.30269503593444824, 0.018556058406829834, 0.32160484790802, -0.24736475944519043, -0.04342818260192871, 0.003502786159515381, 0.2925371527671814, -0.10733592510223389, -0.031157076358795166, -0.1846381425857544, 0.3259351849555969, -0.0750892162322998, -0.12018448114395142, -0.12627583742141724, -0.19802498817443848, 0.08459693193435669, -0.39419203996658325, -0.4328758716583252, -0.33349716663360596, 0.013453841209411621, 0.3646221160888672, -0.1630205512046814, -0.3386799693107605, 0.3672404885292053, -0.4708247184753418, 0.09424477815628052, 0.17494100332260132, 0.07239127159118652, 0.1845552921295166, -0.033549726009368896, -0.349922239780426, -0.20680111646652222, 0.32212889194488525, -0.07471626996994019, -0.33375072479248047, -0.2315351963043213, 0.08298367261886597, 0.1791558861732483, -0.03660893440246582, 0.007067382335662842, -0.25582003593444824, -0.16054081916809082, 0.17993158102035522, -0.02645277976989746, -0.3192679286003113, -0.33727526664733887, -0.1760064959526062, 0.06431680917739868, 0.48135870695114136, 0.0628235936164856, 0.476185142993927, 0.021977782249450684, 0.10829949378967285, 0.14682793617248535, -0.3601287007331848, -0.0034801363945007324, -0.11364102363586426, 0.459933340549469, -0.24989086389541626, 0.3547876477241516, 0.203901469707489], [-0.44106781482696533, 0.3432236909866333, -0.4837533235549927, -0.20735704898834229, -0.2602185606956482, 0.37677693367004395, -0.17571097612380981, 0.4675995707511902, -0.18133306503295898, -0.4902575612068176, 0.49480223655700684, 0.0712772011756897, -0.2618630528450012, 0.2860051989555359, -0.15013521909713745, -0.21362310647964478, -0.10865557193756104, -0.0666998028755188, 0.09780150651931763, 0.2014201283454895, -0.21101176738739014, -0.2694382071495056, 0.272818922996521, 0.021495163440704346, 0.15156632661819458, -0.24807673692703247, -0.2699558138847351, -0.01779860258102417, -0.36311495304107666, 0.31997227668762207, 0.4140322208404541, -0.1580822467803955, 0.2939605116844177, -0.1288350224494934, 0.3550034761428833, -0.10127896070480347, -0.44161659479141235, 0.23140358924865723, -0.25855857133865356, -0.31021416187286377, -0.13820010423660278, -0.03870159387588501, 0.2941054701805115, -0.041992008686065674, 0.28931063413619995, 0.4120926260948181, 0.40862011909484863, 0.35416221618652344, -0.2506709694862366, 0.09720385074615479, -0.08187830448150635, -0.3295785188674927, 0.2540016770362854, 0.03365898132324219, 0.18169832229614258, -0.0588950514793396, -0.021377086639404297, -0.24931049346923828, -0.030024349689483643, 0.3765626549720764, 0.19321119785308838, -0.017209291458129883, 0.4930821657180786, -0.49923795461654663, 0.17962801456451416, -0.0781106948852539, -0.1566975712776184, -0.3063027858734131, -0.1813245415687561, -0.33341705799102783, -0.29592710733413696, 0.09141641855239868, 0.11405026912689209, -0.23422181606292725, 0.4429616928100586, 0.03990030288696289, 0.41867417097091675, -0.3163633942604065, -0.41274917125701904, -0.16362762451171875, -0.3683661222457886, 0.43540966510772705, 0.4732958674430847, -0.37779200077056885, 0.00631338357925415, 0.0986904501914978, 0.2566109895706177, 0.431343674659729, -0.432045042514801, -0.3871038556098938, 0.4565497636795044, -0.38514846563339233, -0.2726643681526184, 0.0726613998413086, -0.42860549688339233, 0.323358952999115, 0.37387651205062866, -0.26648616790771484, -0.1932007074356079, 0.26737844944000244, -0.285164475440979, 0.09457582235336304, -0.12890368700027466, 0.47991931438446045, -0.08993005752563477, 0.0404205322265625, -0.29833167791366577, 0.4684038758277893, -0.1816883683204651, 0.029038429260253906, 0.16574561595916748, 0.10160243511199951, 0.0012763738632202148, -0.46428537368774414, -0.21912360191345215, -0.14178895950317383, -0.2514658570289612, 0.18420332670211792, 0.28902924060821533, -0.02619117498397827, 0.16717785596847534, -0.36110591888427734, 0.4827638864517212, 0.4645942449569702, -0.061821699142456055, 0.3790903687477112, -0.23093491792678833, -0.22622591257095337], [-0.32439178228378296, 0.3597904443740845, 0.19090241193771362, 0.3893762230873108, 0.23909878730773926, 0.44519978761672974, -0.4525224566459656, 0.17014139890670776, -0.3605538010597229, 0.030948758125305176, 0.21110796928405762, -0.21263355016708374, 0.1403716802597046, 0.3891420364379883, 0.05862385034561157, 0.37637102603912354, 0.29723572731018066, -0.1863200068473816, 0.28694581985473633, -0.41252613067626953, 0.3817507028579712, 0.03984713554382324, 0.11392778158187866, 0.47825270891189575, -0.15494763851165771, -0.27286988496780396, -0.0769922137260437, -0.1777384877204895, -0.2725733518600464, -0.15581732988357544, -0.3922419548034668, 0.3989918828010559, 0.18994289636611938, 0.10247290134429932, 0.021783411502838135, -0.4643576741218567, 0.333734393119812, -0.29023855924606323, 0.005269885063171387, 0.44391894340515137, 0.027979731559753418, -0.39153939485549927, 0.302192747592926, -0.02631169557571411, 0.43925267457962036, 0.4585409164428711, 0.26930636167526245, -0.3435361385345459, -0.11973297595977783, 0.13019567728042603, 0.2383211851119995, 0.3298186659812927, 0.00025731325149536133, -0.2880616784095764, 0.08325827121734619, -0.14235663414001465, 0.40770459175109863, -0.13330453634262085, -0.42571985721588135, 0.08626669645309448, -0.08067327737808228, 0.14740264415740967, -0.49736738204956055, 0.48749303817749023, -0.31593698263168335, -0.003361225128173828, -0.2026180624961853, 0.18499547243118286, 0.1946045160293579, -0.05455392599105835, -0.2511187791824341, 0.3239574432373047, 0.06351214647293091, 0.49882590770721436, -0.3686369061470032, 0.35257047414779663, 0.23136234283447266, -0.06062275171279907, -0.20414096117019653, 0.22487813234329224, 0.40024787187576294, -0.4692476987838745, -0.06438523530960083, -0.43993788957595825, 0.44782525300979614, -0.017235398292541504, -0.11934763193130493, -0.3255273699760437, 0.41712045669555664, 0.46957921981811523, -0.48002809286117554, -0.05313098430633545, -0.07676428556442261, -0.3175077438354492, -0.4060884714126587, -0.36168038845062256, 0.117958664894104, 0.1675112247467041, 0.41458189487457275, 0.1454223394393921, 0.21516352891921997, -0.29480868577957153, 0.45774203538894653, 0.11098295450210571, -0.4345775842666626, -0.46082890033721924, -0.005366086959838867, 0.1597731113433838, -0.03711038827896118, 0.14242541790008545, -0.42800194025039673, -0.13292604684829712, -0.09848058223724365, 0.4562290906906128, -0.013706505298614502, 0.4529954195022583, 0.11327314376831055, -0.10255753993988037, 0.4391528367996216, -0.143832266330719, -0.10928702354431152, -0.4757971167564392, 0.08573997020721436, 0.10043245553970337, -0.09850353002548218, 0.2823692560195923, 0.3778531551361084, -0.021167397499084473], [0.10484737157821655, -0.18747925758361816, -0.47492682933807373, -0.08406603336334229, -0.05333912372589111, -0.14550870656967163, 0.46509474515914917, -0.14529162645339966, 0.35682374238967896, 0.016510844230651855, -0.28733354806900024, -0.05680572986602783, -0.3463134169578552, -0.004364609718322754, -0.3599473834037781, 0.4424588084220886, 0.21834933757781982, -0.31864064931869507, -0.06380832195281982, -0.12507843971252441, -0.3008202314376831, 0.06148195266723633, -0.4338850975036621, -0.0517612099647522, -0.26294130086898804, -0.46816396713256836, -0.05099904537200928, 0.4015650153160095, -0.3809612989425659, -0.19829708337783813, -0.175839364528656, -0.4720218777656555, 0.24180573225021362, -0.44681811332702637, 0.08563089370727539, 0.3792381286621094, 0.036154866218566895, -0.3650292754173279, -0.2029787302017212, 0.374520480632782, -0.07190710306167603, 0.14958125352859497, -0.2958916425704956, 0.10326552391052246, 0.14758795499801636, -0.38048142194747925, -0.005666375160217285, 0.17872130870819092, -0.2606510519981384, 0.4458245038986206, 0.03504288196563721, -0.3596203327178955, 0.3864567279815674, 0.20258241891860962, 0.20579558610916138, -0.042742371559143066, -0.48283320665359497, 0.06854665279388428, -0.4348369836807251, 0.18394488096237183, 0.12847787141799927, -0.21655040979385376, 0.4071638584136963, 0.007258892059326172, 0.0490870475769043, -0.47174566984176636, 0.05385059118270874, -0.47916358709335327, -0.3936440348625183, 0.052047014236450195, -0.0027490854263305664, 0.13385212421417236, 0.2913890480995178, -0.3752647638320923, 0.07097315788269043, 0.178422212600708, 0.4051554203033447, 0.29291194677352905, 0.11921077966690063, -0.0511244535446167, -0.17310839891433716, 0.2398281693458557, -0.40589433908462524, -0.27821898460388184, 0.4223828911781311, 0.09277284145355225, -0.12608063220977783, 0.12027448415756226, 0.4224396347999573, -0.16393810510635376, -0.45119595527648926, -0.055015623569488525, -0.3300600051879883, 0.2607946991920471, -0.2999724745750427, -0.018216073513031006, -0.3064805269241333, -0.09974294900894165, -0.006012976169586182, 0.1645907163619995, 0.14788049459457397, -0.3214128017425537, 0.2972981929779053, 0.10426676273345947, -0.1707761287689209, -0.2952137589454651, 0.4078819155693054, 0.3194003701210022, 0.1925210952758789, 0.42525774240493774, 0.17264175415039062, 0.2801952362060547, -0.008410632610321045, 0.4312927722930908, -0.20322561264038086, -0.2757408022880554, 0.4547543525695801, -0.2720104455947876, -0.1239628791809082, -0.12378215789794922, 0.26741230487823486, -0.381105899810791, -0.2940073609352112, -0.17952394485473633, -0.4987184405326843, 0.3092625141143799, 0.0795169472694397, 0.06852465867996216], [0.47144192457199097, -0.282490611076355, -0.09842610359191895, -0.037876784801483154, 0.43970316648483276, -0.29801881313323975, -0.4411354660987854, -0.17348432540893555, -0.3345292806625366, -0.39461249113082886, 0.4224972724914551, -0.35583192110061646, 0.40322673320770264, 0.290876567363739, -0.14296293258666992, 0.37361812591552734, -0.2016196846961975, 0.48767948150634766, 0.133916437625885, -0.22354775667190552, -0.1797959804534912, 0.21986174583435059, 0.16040277481079102, 0.14022552967071533, -0.10346943140029907, -0.12308001518249512, 0.24153423309326172, 0.3839203119277954, 0.4301719665527344, 0.17822152376174927, -0.4765363335609436, -0.14164668321609497, 0.20315313339233398, -0.23883873224258423, -0.4792507290840149, 0.08795851469039917, -0.19555234909057617, -0.11553806066513062, -0.4497706890106201, -0.4515409469604492, 0.3465309739112854, 0.17346781492233276, 0.3109138607978821, -0.2332809567451477, 0.26284003257751465, -0.16646486520767212, -0.15898436307907104, -0.05781567096710205, -0.3928641676902771, -0.11649703979492188, 0.44919878244400024, -0.31704217195510864, 0.05012869834899902, 0.10796868801116943, 0.28723907470703125, -0.1903180480003357, -0.40916574001312256, -0.48670703172683716, 0.15504378080368042, -0.4202415347099304, 0.3472668528556824, 0.45127296447753906, 0.4099178910255432, -0.1314193606376648, -0.0886722207069397, 0.2609291076660156, -0.2942964434623718, -0.09260547161102295, -0.1882838010787964, 0.41377073526382446, 0.29893195629119873, -0.45864975452423096, -0.3123924136161804, -0.04698699712753296, -0.4117686152458191, 0.05289357900619507, -0.04687577486038208, -0.3866921663284302, -0.0008191466331481934, -0.11750513315200806, -0.27525269985198975, -0.13385772705078125, -0.40260785818099976, -0.44775325059890747, 0.3298836350440979, 0.49740880727767944, -0.1882292628288269, -0.25799936056137085, 0.23032623529434204, 0.10809957981109619, 0.1975727677345276, 0.427909255027771, 0.11771547794342041, -0.15936428308486938, -0.365237832069397, -0.2826331853866577, -0.32797324657440186, 0.26681333780288696, 0.011297106742858887, -0.1484408974647522, -0.4638286828994751, 0.35553205013275146, 0.15291976928710938, -0.18834412097930908, -0.4292726516723633, 0.49032264947891235, -0.007009685039520264, 0.2859956622123718, -0.2409048080444336, 0.2564712166786194, 0.3506092429161072, 0.12895703315734863, -0.28087741136550903, -0.2761206030845642, 0.38909101486206055, -0.481484591960907, -0.4198290705680847, -0.04994606971740723, -0.1004568338394165, -0.47273069620132446, 0.3905506134033203, 0.10901737213134766, 0.07400655746459961, -0.22339099645614624, 0.0019026994705200195, 0.27463841438293457, -0.1907588243484497, 0.19038289785385132], [0.13266253471374512, -0.27849000692367554, -0.10141026973724365, 0.03307235240936279, -0.10589003562927246, -0.009884357452392578, -0.2658895254135132, -0.44462788105010986, -0.06527972221374512, -0.26886099576950073, -0.3646587133407593, 0.4981222152709961, -0.461362361907959, 0.10946178436279297, 0.2811124920845032, -0.015886306762695312, 0.1722397804260254, -0.4935935139656067, -0.3619457483291626, 0.46232855319976807, -0.23208433389663696, -0.17707186937332153, -0.05457305908203125, 0.023451805114746094, 0.1316559910774231, 0.4024561047554016, -0.22302460670471191, 0.4221401810646057, -0.2567518353462219, 0.2596352696418762, 0.23536527156829834, 0.36924588680267334, 0.37719541788101196, -0.043096303939819336, -0.49771225452423096, 0.3978624939918518, -0.48328447341918945, 0.2192344069480896, 0.39821797609329224, -0.2592298984527588, -0.4976778030395508, -0.4849786162376404, 0.4852277636528015, -0.28390711545944214, -0.23855525255203247, -0.395361065864563, -0.29233497381210327, -0.07429379224777222, 0.36452198028564453, -0.4992683529853821, 0.3486465811729431, 0.33890825510025024, 0.05943000316619873, 0.16016489267349243, -0.4194667935371399, -0.04291391372680664, 0.4533866047859192, -0.2562521696090698, 0.19809341430664062, 0.06370657682418823, 0.09519726037979126, 0.30721867084503174, -0.2814140319824219, -0.4018188714981079, -0.30888253450393677, 0.26663142442703247, 0.4131438136100769, -0.2760281562805176, -0.04016876220703125, 0.3015652298927307, 0.037345707416534424, 0.2438257932662964, 0.250516414642334, 0.3114405870437622, -0.33937346935272217, -0.12556779384613037, -0.22278165817260742, -0.4787290096282959, -0.06532663106918335, 0.11686807870864868, 0.0651429295539856, -0.11440372467041016, -0.16258704662322998, 0.20609474182128906, 0.17600494623184204, 0.4163268804550171, 0.19855737686157227, 0.35464489459991455, -0.4722747206687927, -0.15936893224716187, 0.19989639520645142, 0.42527467012405396, 0.492928147315979, 0.38174712657928467, 0.0632585883140564, -0.10858714580535889, -0.04653656482696533, -0.17389380931854248, 0.3227115869522095, -0.3874095678329468, 0.2289298176765442, -0.19198870658874512, -0.14083391427993774, -0.28665465116500854, 0.29785895347595215, 0.2681152820587158, -0.1659114956855774, -0.01722574234008789, -0.1652962565422058, -0.044655680656433105, 0.09422600269317627, 0.39905935525894165, 0.3869931101799011, -0.4444807767868042, 0.4681396484375, -0.3743213415145874, -0.4069645404815674, 0.3774937391281128, -0.023467659950256348, -0.16388732194900513, -0.08337807655334473, -0.4940589666366577, 0.3105759024620056, 0.34041786193847656, -0.2537287473678589, -0.0893411636352539, 0.4064182639122009, -0.30047178268432617], [0.12027245759963989, 0.1348981261253357, 0.12304919958114624, -0.41944456100463867, 0.2270890474319458, -0.33956801891326904, 0.39273524284362793, -0.27172768115997314, -0.4437475800514221, 0.4825129508972168, 0.2812449336051941, 0.032283902168273926, 0.3480619788169861, 0.29712021350860596, -0.014750957489013672, 0.00030916929244995117, -0.03941768407821655, -0.47973042726516724, -0.01802670955657959, -0.3943637013435364, 0.4990779161453247, -0.03687173128128052, 0.39348411560058594, -0.25049889087677, 0.4497199058532715, 0.12146490812301636, 0.019773781299591064, 0.25768744945526123, 0.36333054304122925, -0.35373038053512573, 0.14103758335113525, -0.08224523067474365, 0.12228274345397949, -0.12459486722946167, -0.09949153661727905, 0.033036112785339355, -0.24527311325073242, -0.36035674810409546, -0.22219997644424438, 0.15493887662887573, 0.33699172735214233, 0.29578644037246704, -0.19976288080215454, -0.32759761810302734, 0.12657570838928223, -0.013292253017425537, -0.26524436473846436, -0.3257243037223816, -0.06766903400421143, 0.049356162548065186, 0.2688271403312683, 0.4570179581642151, 0.3820837140083313, -0.012449204921722412, 0.41404199600219727, -0.26954686641693115, -0.463966429233551, 0.11738628149032593, -0.3234800696372986, 0.3411456346511841, -0.447671115398407, -0.03692084550857544, 0.27534860372543335, 0.4804925322532654, -0.30694323778152466, -0.10770297050476074, 0.03153926134109497, 0.39397144317626953, -0.3780261278152466, 0.1010289192199707, 0.1678411364555359, 0.27982187271118164, 0.4228673577308655, 0.05509072542190552, 0.05367851257324219, -0.39049142599105835, -0.2575610876083374, -0.04675239324569702, 0.4215056300163269, 0.030659973621368408, 0.10577964782714844, 0.29515987634658813, -0.47171878814697266, -0.11362403631210327, 0.3173932433128357, 0.4417153596878052, 0.29618823528289795, -0.14598232507705688, 0.45287537574768066, 0.3872067928314209, -0.1940940022468567, -0.2771976590156555, -0.13234752416610718, 0.4428479075431824, -0.42796558141708374, -0.36220210790634155, 0.23802036046981812, 0.43108969926834106, 0.42070239782333374, -0.38277894258499146, 0.318358838558197, -0.45871633291244507, -0.10782867670059204, -0.3360353112220764, -0.24658042192459106, 0.4115746021270752, 0.16801035404205322, 0.4351215362548828, -0.015029847621917725, 0.4026595950126648, 0.024492740631103516, -0.13440823554992676, -0.23181098699569702, -0.07408589124679565, 0.24369198083877563, -0.30673056840896606, -0.11205178499221802, 0.4597247242927551, -0.39880436658859253, -0.25133782625198364, 0.3311511278152466, -0.4647713899612427, -0.1762847900390625, -0.38712573051452637, -0.3700074553489685, -0.15389639139175415, -0.014479398727416992, 0.16676545143127441], [-0.19655615091323853, 0.23695534467697144, -0.22193223237991333, 0.39043623208999634, -0.15832507610321045, 0.34199416637420654, -0.09868168830871582, 0.2011539340019226, -0.38310807943344116, 0.03438693284988403, -0.24856775999069214, -0.347842276096344, 0.06711924076080322, -0.3644741177558899, -0.08992069959640503, -0.3111093044281006, -0.23780781030654907, 0.38134765625, -0.23368912935256958, -0.19702142477035522, 0.0820569396018982, 0.2686251997947693, -0.30274391174316406, -0.4590529799461365, -0.3586530089378357, 0.04556107521057129, -0.15188002586364746, -0.2569766640663147, 0.2721782922744751, -0.46378910541534424, -0.003317892551422119, 0.3440319895744324, -0.297637939453125, 0.38551926612854004, 0.238233745098114, -0.24882745742797852, 0.14414840936660767, 0.3751133680343628, 0.4480287432670593, 0.40903377532958984, -0.4645432233810425, 0.36679649353027344, 0.008112549781799316, 0.37898892164230347, 0.40025871992111206, 0.15204977989196777, 0.40422236919403076, -0.33082830905914307, 0.3901127576828003, 0.14375203847885132, -0.37750184535980225, 0.06045776605606079, 0.3557296395301819, 0.287189781665802, 0.41717129945755005, -0.004407167434692383, -0.424072265625, -0.1158260703086853, -0.26685869693756104, 0.18855822086334229, 0.06687575578689575, 0.02093607187271118, 0.3050858974456787, -0.3740852475166321, -0.2726415991783142, -0.4059176445007324, -0.22778570652008057, 0.22418338060379028, 0.46353811025619507, -0.38566482067108154, 0.4771929383277893, 0.14090359210968018, -0.024205565452575684, -0.15105444192886353, -0.22924286127090454, 0.0916319489479065, 0.18920594453811646, -0.09457641839981079, -0.4681231379508972, 0.18057465553283691, -0.15289223194122314, -0.08147680759429932, -0.16462457180023193, -0.4253653287887573, 0.32228177785873413, 0.1279282569885254, 0.02055835723876953, 0.4984888434410095, -0.17611241340637207, -0.28585338592529297, 0.4020839333534241, 0.07196533679962158, -0.2686372995376587, 0.11459749937057495, 0.32042717933654785, -0.20358234643936157, -0.11431968212127686, -0.1529703140258789, 0.15638113021850586, -0.3344932794570923, -0.13108676671981812, -0.3703809976577759, -0.2775474786758423, -0.2713887095451355, 0.06391763687133789, -0.17970293760299683, -0.26581352949142456, -0.2925061583518982, 0.09526044130325317, -0.268165647983551, 0.16168630123138428, -0.36012744903564453, 0.4528512954711914, -0.4880000352859497, -0.28201907873153687, 0.17422759532928467, -0.18319100141525269, 0.26535528898239136, 0.10674697160720825, -0.07717067003250122, 0.4462916851043701, 0.11683648824691772, -0.08083713054656982, -0.20792853832244873, -0.41559720039367676, 0.18133330345153809, -0.07158952951431274, 0.309532105922699], [-0.24373722076416016, -0.3829188346862793, -0.354172945022583, 0.3631178140640259, -0.13286453485488892, -0.20923346281051636, -0.08218848705291748, 0.2438068389892578, -0.13425427675247192, -0.25231873989105225, 0.08476018905639648, 0.47496408224105835, -0.15586334466934204, 0.41894179582595825, 0.2673231363296509, 0.263755202293396, 0.13547444343566895, 0.4059563875198364, -0.14771723747253418, 0.06988334655761719, 0.06977081298828125, 0.36070191860198975, 0.07165586948394775, 0.3262087106704712, 0.18491089344024658, 0.12914538383483887, -0.36117929220199585, 0.15610939264297485, -0.026090681552886963, 0.1487554907798767, -0.36471861600875854, -0.012519240379333496, -0.21148031949996948, -0.48281532526016235, -0.17196136713027954, -0.16827315092086792, 0.15831810235977173, 0.25053709745407104, 0.13121110200881958, 0.27135831117630005, 0.173845112323761, -0.10487985610961914, -0.2815069556236267, -0.45778876543045044, 0.12135618925094604, -0.2547224164009094, 0.40973377227783203, 0.07735759019851685, 0.3172854781150818, -0.26708292961120605, 0.22939246892929077, -0.20042014122009277, 0.4279986619949341, -0.4099411368370056, -0.2330009937286377, 0.2986019253730774, 0.4495026469230652, 0.04157602787017822, 0.33017075061798096, -0.44035881757736206, -0.48236334323883057, -0.07760357856750488, -0.0031215548515319824, 0.09048444032669067, 0.34801095724105835, 0.2128593921661377, 0.4086737036705017, 0.06818366050720215, -0.08704107999801636, -0.07116776704788208, 0.3791537284851074, 0.48764848709106445, 0.4045364260673523, 0.07485562562942505, -0.027001261711120605, 0.14365899562835693, 0.15719056129455566, -0.3377096652984619, 0.1092458963394165, 0.03464728593826294, -0.2616831064224243, -0.3854261636734009, -0.47837066650390625, 0.4943583607673645, 0.0030952095985412598, -0.26832014322280884, -0.11163896322250366, 0.30167484283447266, -0.4623573422431946, -0.06126201152801514, -0.10968905687332153, -0.48079389333724976, -0.40353262424468994, -0.2366013526916504, -0.16038280725479126, -0.19381463527679443, -0.24567848443984985, 0.227541983127594, -0.08677506446838379, 0.18550419807434082, -0.38221943378448486, -0.0739092230796814, -0.10069769620895386, -0.1295795440673828, -0.31228917837142944, 0.1817120909690857, 0.2135055661201477, -0.3399151563644409, -0.4527354836463928, -0.3087669610977173, 0.27273595333099365, -0.1161949634552002, -0.11903637647628784, 0.3481060266494751, -0.43262338638305664, -0.19483691453933716, -0.3319177031517029, -0.19274812936782837, 0.39377665519714355, 0.24912714958190918, -0.25700968503952026, 0.09550589323043823, -0.10796314477920532, -0.2624318599700928, -0.0033059120178222656, 0.14042216539382935, 0.07274717092514038, 0.48793303966522217], [0.0872887372970581, -0.39770805835723877, -0.2691000699996948, 0.010419666767120361, -0.11392039060592651, -0.4700924754142761, -0.24139904975891113, 0.4738646149635315, 0.2933884859085083, -0.07470881938934326, -0.16317135095596313, 0.023098289966583252, -0.0010470151901245117, -0.17981457710266113, -0.20365053415298462, 0.09774386882781982, 0.33162230253219604, 0.08779537677764893, -0.4346507787704468, -0.42409712076187134, 0.03285485506057739, -0.17994147539138794, 0.3236502408981323, -0.12652909755706787, -0.46952903270721436, 0.2729511260986328, -0.3940688967704773, -0.22555577754974365, 0.04380077123641968, -0.3363681435585022, -0.15978461503982544, -0.24124938249588013, -0.2729252576828003, -0.4850425720214844, -0.4114401936531067, -0.44166553020477295, 0.3686203956604004, 0.40865594148635864, -0.03625065088272095, 0.06909608840942383, 0.39376407861709595, -0.03219038248062134, -0.4310816526412964, -0.2939816117286682, -0.37339937686920166, 0.2834138870239258, 0.25722503662109375, 0.10943609476089478, 0.010075926780700684, 0.24318885803222656, 0.04704475402832031, -0.1754157543182373, -0.01600271463394165, 0.07471728324890137, -0.44862252473831177, 0.38487643003463745, -0.3359913229942322, -0.28191012144088745, 0.13475072383880615, -0.37650102376937866, -0.49277639389038086, -0.3665362000465393, 0.40631091594696045, 0.12944000959396362, 0.4106442928314209, -0.3243040442466736, 0.3324739933013916, -0.32079917192459106, 0.22295761108398438, 0.4874609708786011, 0.3440544605255127, -0.04005664587020874, 0.27285629510879517, -0.09023165702819824, 0.37877821922302246, 0.25038158893585205, 0.05494612455368042, 0.48426353931427, 0.2968776822090149, -0.4461643099784851, 0.3773026466369629, 0.15320360660552979, 0.16964876651763916, -0.06894177198410034, -0.08993363380432129, 0.4203788638114929, 0.11005949974060059, 0.4490774869918823, 0.31172192096710205, -0.13922184705734253, -0.4635027050971985, -0.169144868850708, 0.4980117678642273, 0.24244534969329834, -0.4584586024284363, -0.26108187437057495, -0.023485541343688965, 0.10022705793380737, -0.05503183603286743, 0.25162988901138306, -0.3900761604309082, 0.2917943596839905, -0.40297389030456543, -0.3429657220840454, 0.363864541053772, 0.013626039028167725, 0.18453407287597656, -0.06860071420669556, -0.09651577472686768, -0.27129149436950684, -0.14098608493804932, -0.41257959604263306, -0.4308125376701355, 0.082180917263031, -0.32572489976882935, 0.24065476655960083, -0.3347548246383667, 0.3165310025215149, -0.29861605167388916, -0.09630429744720459, -0.3375629186630249, 0.2845923900604248, 0.36509597301483154, -0.08684027194976807, 0.12401968240737915, 0.4326704144477844, 0.2922651767730713, 0.3536052107810974], [-0.18405300378799438, 0.46857964992523193, -0.23923218250274658, 0.003810405731201172, 0.30287283658981323, -0.10167384147644043, 0.07949423789978027, -0.22076630592346191, 0.17646902799606323, -0.35980159044265747, -0.09097373485565186, 0.1361842155456543, 0.020229458808898926, -0.07820355892181396, 0.46131736040115356, 0.4565608501434326, 0.10528314113616943, -0.26597291231155396, 0.37934285402297974, 0.4473458528518677, -0.2353609800338745, 0.36141711473464966, -0.4136832356452942, -0.01625734567642212, -0.4572941064834595, 0.10400176048278809, 0.422435998916626, 0.048666536808013916, 0.006322145462036133, 0.355350136756897, -0.24153989553451538, 0.06759834289550781, 0.033066511154174805, 0.14788168668746948, -0.011386573314666748, 0.21683037281036377, -0.29475539922714233, 0.15663176774978638, -0.31625986099243164, -0.31345081329345703, -0.025261878967285156, 0.16839957237243652, -0.1699228286743164, 0.4250878095626831, -0.09535974264144897, -0.2115330696105957, -0.3970617651939392, 0.37249696254730225, 0.4657630920410156, 0.33960771560668945, 0.480962872505188, -0.26960986852645874, -0.2580628991127014, -0.4310682415962219, 0.0008150935173034668, 0.30254119634628296, -0.130226731300354, 0.3600756525993347, -0.22028183937072754, 0.20558452606201172, 0.3370819091796875, -0.3530179262161255, 0.16634798049926758, 0.4509609341621399, 0.4685959815979004, -0.44252002239227295, 0.06470596790313721, -0.2415066361427307, -0.008033335208892822, -0.31869471073150635, 0.4578680992126465, 0.19714140892028809, 0.31287819147109985, 0.14386361837387085, -0.06217998266220093, -0.1783798336982727, 0.04332238435745239, -0.29106634855270386, 0.37971043586730957, -0.03143829107284546, -0.10218948125839233, 0.40672701597213745, 0.3710014820098877, 0.307140052318573, 0.011505484580993652, -0.448330283164978, -0.01069408655166626, 0.0692015290260315, -0.31370800733566284, -0.30990105867385864, 0.355948805809021, -0.34737908840179443, -0.11920583248138428, 0.041885316371917725, -0.2114827036857605, -0.23725897073745728, -0.2863454818725586, -0.006177306175231934, 0.05927097797393799, 0.24937725067138672, -0.3323707580566406, -0.30535435676574707, 0.3009023666381836, -0.4239981770515442, -0.08009415864944458, -0.377138614654541, 0.06061208248138428, -0.18860691785812378, 0.061182379722595215, -0.2524736523628235, 0.11367422342300415, 0.2535672187805176, -0.24382716417312622, 0.04668557643890381, 0.24158048629760742, -0.26988422870635986, 0.1301332712173462, -0.2406274676322937, -0.358906626701355, -0.27424347400665283, 0.2782495617866516, -0.042627692222595215, 0.08628088235855103, -0.213009774684906, -0.38975054025650024, -0.125738263130188, -0.016255557537078857, -0.3772892355918884]], "hidden_weights": [[-0.1514219045639038, 0.2951544523239136, 0.31611448526382446, 0.474260151386261, 0.4545223116874695, 0.38578665256500244, -0.4632185101509094, -0.41106176376342773, 0.09478253126144409, -0.2919241786003113, 0.10900282859802246, 0.18355584144592285, 0.30620020627975464, 0.10072237253189087, -0.2976142168045044, -0.3113929033279419, -0.24100202322006226, 0.4167591333389282, -0.09842491149902344, -0.45335668325424194, -0.384157657623291, 0.3779277801513672, 0.3381810188293457, -0.07421290874481201, 0.010944664478302002, 0.09424901008605957, 0.05084967613220215, 0.4582701325416565, 0.4815707206726074, -0.3311847448348999, 0.33936095237731934, -0.29093796014785767, -0.13408249616622925, -0.24127191305160522, 0.33650827407836914, -0.45750582218170166, -0.20994913578033447, 0.37352079153060913, -0.36689502000808716, 0.16786539554595947, 0.07964688539505005, -0.26247620582580566, 0.3728981018066406, 0.15690642595291138, 0.17636388540267944, 0.34620600938796997, -0.42323410511016846, 0.44638192653656006, -0.06502771377563477, -0.12737643718719482, -0.1267501711845398, 0.31026214361190796, 0.028078794479370117, -0.24226301908493042, -0.3053961992263794, -0.1670282483100891, 0.42936640977859497, 0.23955321311950684, 0.07189059257507324, -0.179634690284729, -0.2238607406616211, -0.15341287851333618, 0.09524375200271606, -0.24375921487808228], [-0.2572978734970093, -0.2778658866882324, 0.062483787536621094, 0.33341383934020996, -0.46179717779159546, -0.3019857406616211, 0.4185182452201843, -0.1944097876548767, 0.09333735704421997, -0.32187288999557495, 0.10128998756408691, 0.2227318286895752, 0.002645254135131836, -0.42573732137680054, -0.10799431800842285, 0.0361519455909729, -0.29182809591293335, 0.20564329624176025, 0.23271507024765015, 0.012765884399414062, 0.399356484413147, 0.4986872673034668, -0.2956199049949646, 0.41583389043807983, -0.11316782236099243, -0.15552020072937012, -0.21402233839035034, 0.2698597311973572, 0.4739859700202942, 0.18061959743499756, -0.318014919757843, 0.0769280195236206, 0.07607966661453247, -0.24725550413131714, -0.4800909161567688, -0.29466712474823, 0.06779593229293823, 0.10174566507339478, 0.08530962467193604, -0.14281392097473145, 0.39110052585601807, -0.35183411836624146, -0.3010100722312927, -0.420773983001709, 0.09401655197143555, -0.4107184410095215, 0.2234334945678711, 0.11348122358322144, -0.4042952060699463, 0.12489211559295654, 0.10613411664962769, -0.17301905155181885, 0.14158207178115845, 0.25328385829925537, 0.33735013008117676, -0.42284321784973145, -0.0008236169815063477, 0.2461962103843689, 0.04704618453979492, 0.20840489864349365, -0.14738225936889648, -0.35614728927612305, -0.2877815365791321, -0.2207576036453247], [0.24410241842269897, -0.44558751583099365, -0.03827899694442749, 0.19097179174423218, -0.36949658393859863, 0.48886221647262573, -0.027545928955078125, -0.2530299425125122, -0.3619357943534851, 0.46692222356796265, -0.45752352476119995, -0.1819172501564026, 0.003444194793701172, -0.12509381771087646, -0.25775402784347534, 0.37843412160873413, 0.039555490016937256, -0.010599732398986816, 0.34061145782470703, 0.18504655361175537, 0.38233840465545654, -0.003282785415649414, -0.4104962944984436, -0.4395139813423157, 0.0620654821395874, -0.29956042766571045, -0.0861402153968811, -0.0009699463844299316, 0.12553203105926514, -0.1454886794090271, -0.33623409271240234, 0.30217576026916504, -0.2947010397911072, 0.00688248872756958, 0.3387032151222229, 0.37017035484313965, -0.35409241914749146, -0.4502149820327759, -0.43302619457244873, -0.02870100736618042, 0.14565587043762207, -0.02007395029067993, 0.21542203426361084, -0.32248979806900024, 0.2507208585739136, -0.19472497701644897, 0.11119252443313599, -0.002803623676300049, -0.029447972774505615, -0.41781407594680786, 0.44055724143981934, -0.12883716821670532, -0.19444411993026733, 0.4348644018173218, -0.12075924873352051, 0.1826094388961792, 0.20437103509902954, -0.28592169284820557, -0.01049041748046875, -0.1778591275215149, -0.21017396450042725, 0.0015856623649597168, 0.09856808185577393, -0.01814746856689453], [0.05486631393432617, 0.07725745439529419, -0.3580315113067627, 0.07028794288635254, 0.2047438621520996, -0.10800307989120483, -0.18658548593521118, -0.3435913920402527, 0.023068368434906006, -0.3290138244628906, 0.027851402759552002, -0.09671849012374878, 0.43459123373031616, -0.12197273969650269, 0.3545028567314148, -0.06755572557449341, 0.4592120051383972, -0.2850445508956909, 0.38682740926742554, -0.2899407744407654, 0.3914386034011841, -0.4828255772590637, 0.33498382568359375, 0.4296029806137085, -0.15856331586837769, -0.08777117729187012, 0.0788237452507019, 0.31619811058044434, -0.168479323387146, 0.4861452579498291, 0.39268529415130615, -0.07527703046798706, 0.011443555355072021, -0.06496798992156982, -0.06327736377716064, -0.21025854349136353, 0.2894734740257263, 0.339877188205719, 0.3620217442512512, -0.474528431892395, -0.28289830684661865, 0.13552123308181763, 0.006299793720245361, -0.42589014768600464, 0.09019696712493896, 0.14813709259033203, 0.258733332157135, -0.23164647817611694, -0.04528158903121948, -0.36693239212036133, -0.21394073963165283, 0.33838582038879395, 0.09026259183883667, -0.08683258295059204, -0.40780729055404663, -0.26609885692596436, 0.2743346095085144, -0.449675977230072, 0.10877984762191772, 0.16954076290130615, -0.45760828256607056, 0.1694951057434082, -0.00027561187744140625, -0.3715052008628845], [-0.2624605894088745, 0.08786511421203613, 0.389343798160553, -0.30655449628829956, 0.22651422023773193, -0.14090412855148315, -0.4304920434951782, -0.39216911792755127, -0.368427574634552, 0.20158261060714722, 0.40187549591064453, 0.1584845781326294, 0.1347658634185791, -0.09098589420318604, 0.23183125257492065, 0.44273650646209717, 0.21005183458328247, -0.09253019094467163, -0.17024117708206177, 0.43308067321777344, 0.3335762619972229, -0.47606605291366577, -0.449912965297699, -0.36881500482559204, 0.3875468373298645, -0.4415992498397827, -0.0800737738609314, -0.497628390789032, -0.42442792654037476, 0.20267057418823242, 0.24130278825759888, 0.4614759087562561, 0.02689814567565918, 0.36176782846450806, -0.47179532051086426, 0.47113603353500366, 0.24410098791122437, -0.3960574269294739, 0.3919200301170349, -0.44227683544158936, -0.08775460720062256, 0.42800474166870117, 0.16676729917526245, -0.15310591459274292, -0.043740272521972656, -0.17918497323989868, -0.1507524847984314, 0.3824983239173889, 0.4541618824005127, -0.2943006157875061, 0.3358341455459595, 0.4556928873062134, 0.22021085023880005, -0.21353274583816528, 0.248887836933136, -0.15621989965438843, 0.06100660562515259, -0.4130045175552368, -0.10459643602371216, 0.4208337664604187, -0.4452703595161438, 0.10228908061981201, -0.2282535433769226, -0.2347598671913147], [0.08131790161132812, 0.014681875705718994, 0.14590781927108765, 0.3097323179244995, -0.08979612588882446, 0.04268622398376465, -0.35206520557403564, -0.25613731145858765, 0.4900287985801697, 0.36542844772338867, -0.12803906202316284, 0.4614166021347046, -0.35882049798965454, -0.021995365619659424, -0.3324059247970581, 0.27511340379714966, 0.1379339098930359, -0.11235737800598145, 0.06434810161590576, -0.26645517349243164, 0.44814997911453247, -0.46503376960754395, -0.3603896498680115, -0.3622347116470337, 0.06753402948379517, -0.4896512031555176, -0.46140825748443604, 0.4714053273200989, 0.39583516120910645, 0.014886856079101562, 0.16125744581222534, -0.17247319221496582, -0.07497662305831909, -0.3202770948410034, 0.28827619552612305, -0.2202150821685791, -0.3665090799331665, -0.36999380588531494, -0.3329548239707947, -0.06422048807144165, -0.4003834128379822, -0.3833872079849243, 0.2932027578353882, -0.19583576917648315, -0.3000979423522949, 0.04596376419067383, -0.3797847628593445, 0.20160681009292603, 0.4095699191093445, 0.051207900047302246, -0.4106132984161377, 0.06127959489822388, 0.4383753538131714, 0.2935243248939514, -0.37272727489471436, 0.04084467887878418, -0.10433351993560791, -0.21128123998641968, -0.013096988201141357, -0.43498289585113525, 0.17890697717666626, 0.3795754313468933, 0.06572061777114868, 0.17507880926132202], [0.45861339569091797, 0.3006376028060913, -0.45837831497192383, 0.2339971661567688, 0.250583291053772, -0.08403384685516357, -0.07917654514312744, 0.2851133942604065, -0.06104463338851929, 0.4103851318359375, 0.2043668031692505, 0.4522830843925476, 0.49762773513793945, 0.3966439366340637, -0.016637444496154785, -0.187086820602417, 0.3033180832862854, -0.053500592708587646, -0.04033994674682617, -0.00901806354522705, 0.11007177829742432, -0.3205944299697876, 0.01819080114364624, 0.07784408330917358, -0.49602192640304565, 0.03353339433670044, -0.003280043601989746, 0.45727622509002686, 0.1216280460357666, 0.04698830842971802, -0.0647764801979065, -0.2120213508605957, -0.42060035467147827, -0.3333221673965454, -0.23011744022369385, -0.47556477785110474, -0.09312635660171509, -0.3169208765029907, -0.2692321538925171, 0.32465463876724243, -0.10782289505004883, -0.03141069412231445, -0.22268980741500854, -0.4413532614707947, 0.41259974241256714, -0.029785633087158203, -0.015248119831085205, -0.1137886643409729, 0.02622300386428833, 0.014088869094848633, 0.34981197118759155, -0.21896785497665405, 0.41033583879470825, 0.4967799782752991, -0.35804611444473267, -0.48972851037979126, 0.39335232973098755, 0.1922208070755005, -0.02536141872406006, 0.07859784364700317, 0.23015683889389038, 0.2081153392791748, 0.08358919620513916, 0.22145038843154907], [0.4223470687866211, -0.4587891101837158, 0.22988837957382202, -0.08449894189834595, 0.06555706262588501, 0.31313449144363403, 0.48172104358673096, 0.23346012830734253, -0.48236483335494995, -0.18928289413452148, 0.09591609239578247, 0.3075701594352722, -0.1338406801223755, 0.3990854024887085, -0.1341172456741333, 0.02092224359512329, 0.4446221590042114, 0.14345508813858032, -0.4873794913291931, 0.12209749221801758, 0.11314219236373901, -0.45643383264541626, -0.20507782697677612, 0.40976202487945557, -0.06479877233505249, -0.4291216731071472, -0.3916358947753906, 0.05847799777984619, -0.05486088991165161, -0.39861929416656494, 0.37312740087509155, -0.2796247601509094, -0.26512426137924194, -0.17052918672561646, 0.08646517992019653, -0.4137856364250183, 0.34761112928390503, -0.3967055082321167, -0.10307741165161133, -0.3876906633377075, -0.06598198413848877, 0.2868764400482178, 0.03736907243728638, 0.23998922109603882, -0.3345676064491272, 0.41197115182876587, -0.21929949522018433, -0.1685657501220703, 0.2540889382362366, -0.20845407247543335, -0.40257924795150757, -0.1301943063735962, 0.3290405869483948, 0.06383979320526123, 0.42170798778533936, -0.42956703901290894, 0.32045483589172363, 0.07287514209747314, 0.38754117488861084, -0.047333717346191406, 0.03625267744064331, -0.3559023141860962, 0.29379069805145264, 0.3040556311607361], [-0.34789788722991943, 0.28843897581100464, 0.32042115926742554, -0.06720125675201416, 0.3863210082054138, -0.24445807933807373, 0.4103385806083679, 0.040888309478759766, -0.42069172859191895, 0.3234751224517822, -0.47858452796936035, -0.42980343103408813, -0.29688209295272827, -0.44469910860061646, 0.15153461694717407, 0.3061180114746094, -0.08889645338058472, 0.23524212837219238, -0.183976948261261, -0.011573553085327148, -0.49315375089645386, 0.10939794778823853, -0.28470760583877563, 0.2826537489891052, 0.38940489292144775, 0.20088225603103638, 0.17445892095565796, -0.25852346420288086, 0.3323303461074829, -0.4010313153266907, 0.16998255252838135, 0.488344669342041, -0.015643060207366943, -0.4343586564064026, -0.4130105972290039, 0.2425159215927124, 0.37314677238464355, -0.28448736667633057, 0.228549063205719, -0.20122873783111572, -0.1489788293838501, 0.24751555919647217, -0.04448342323303223, -0.263080358505249, -0.49100661277770996, -0.22683840990066528, -0.4534749388694763, -0.1662764549255371, 0.3094242811203003, 0.24144625663757324, 0.09962916374206543, -0.4843016266822815, 0.4970272183418274, 0.40012121200561523, 0.349062979221344, 0.21000444889068604, -0.31402885913848877, 0.22203761339187622, -0.05757993459701538, -0.34217971563339233, 0.08589959144592285, 0.4046374559402466, -0.14224064350128174, -0.1737174391746521], [0.46167993545532227, 0.03712528944015503, 0.12021607160568237, 0.40110230445861816, 0.24468672275543213, -0.1744784116744995, -0.375640332698822, 0.270996630191803, -0.2263813018798828, 0.27028095722198486, -0.3513205051422119, -0.21484017372131348, -0.06330466270446777, -0.4576541781425476, 0.04165804386138916, 0.0411873459815979, 0.08704543113708496, 0.4728844165802002, 0.12011027336120605, -0.28165048360824585, 0.040553927421569824, -0.3734607696533203, 0.4814123511314392, -0.22721058130264282, -0.4127488136291504, -0.17128390073776245, -0.1429232358932495, -0.28889888525009155, 0.2789638042449951, 0.3320081830024719, 0.4879656434059143, 0.37101560831069946, -0.3987465500831604, 0.12999475002288818, 0.022921860218048096, 0.3750341534614563, 0.3691542148590088, 0.411790132522583, -0.3545774221420288, 0.029221773147583008, -0.4210076928138733, 0.2361006736755371, 0.22466784715652466, -0.20182740688323975, -0.04914790391921997, -0.2414141297340393, -0.47423601150512695, 0.40148067474365234, -0.4508342742919922, -0.3301209807395935, 0.29370367527008057, -0.07587635517120361, -0.09165292978286743, 0.4005759358406067, 0.404560923576355, 0.3796073794364929, 0.01930767297744751, -0.39493632316589355, 0.0003975033760070801, -0.2108336091041565, 0.24537527561187744, -0.3071889281272888, -0.2927113175392151, -0.4842308759689331], [0.41098904609680176, 0.2597537040710449, 0.06317752599716187, 0.43920648097991943, 0.48765748739242554, -0.4739188551902771, 0.04415827989578247, 0.04053241014480591, 0.005858242511749268, -0.4024202227592468, -0.4977644085884094, -0.23932921886444092, 0.3988325595855713, -0.282939612865448, -0.20445793867111206, -0.262093186378479, -0.1986066699028015, 0.22008776664733887, 0.44152069091796875, -0.39286941289901733, -0.07222974300384521, -0.37152624130249023, 0.18231266736984253, 0.06492602825164795, 0.12888991832733154, -0.47422003746032715, 0.2171972393989563, 0.11142778396606445, 0.1226658821105957, -0.2819973826408386, 0.09682667255401611, 0.4978312849998474, -0.3759453296661377, -0.06716102361679077, 0.26671528816223145, -0.4414740800857544, 0.20793992280960083, -0.21990203857421875, 0.06079894304275513, -0.30207639932632446, 0.47960126399993896, -0.47752952575683594, -0.0838690996170044, 0.18909412622451782, -0.2101137638092041, -0.4878886342048645, -0.409324049949646, 0.25158751010894775, -0.4566260576248169, -0.22594159841537476, 0.2831386923789978, 0.12241816520690918, 0.05259251594543457, 0.3476402163505554, 0.29749876260757446, -0.18355989456176758, 0.39605796337127686, -0.19874924421310425, -0.2408553957939148, -0.40819454193115234, -0.4163981080055237, -0.42619800567626953, 0.0004553794860839844, -0.24829047918319702], [0.041656553745269775, 0.07699304819107056, -0.11834019422531128, 0.1228327751159668, -0.04143422842025757, 0.1148558259010315, 0.30354952812194824, 0.10830932855606079, -0.11848330497741699, 0.09536004066467285, -0.27609848976135254, 0.37360090017318726, -0.4951162338256836, -0.3149828314781189, 0.11263763904571533, 0.28923022747039795, -0.07137686014175415, -0.4337482452392578, -0.27519774436950684, 0.30735594034194946, 0.28621453046798706, -0.34040385484695435, 0.12137860059738159, -0.09457892179489136, 0.3884643316268921, -0.23261582851409912, -0.47304731607437134, 0.3069623112678528, 0.22948920726776123, 0.3645734190940857, 0.21950507164001465, 0.48658955097198486, -0.018607795238494873, 0.047315120697021484, -0.40710824728012085, -0.028164565563201904, 0.37797796726226807, -0.48710280656814575, 0.3951873779296875, 0.39317578077316284, 0.02818143367767334, -0.10727190971374512, 0.2082650065422058, -0.24395281076431274, -0.03509688377380371, -0.12972092628479004, -0.0027521252632141113, -0.158383309841156, 0.11308354139328003, 0.14380234479904175, -0.01487201452255249, -0.17658179998397827, 0.36105650663375854, -0.47556018829345703, 0.47138720750808716, 0.1606190800666809, 0.16562652587890625, 0.4788304567337036, -0.34144580364227295, 0.039950668811798096, 0.07088291645050049, 0.3454960584640503, -0.2612670660018921, 0.19268923997879028], [0.19545388221740723, -0.20108270645141602, 0.14823246002197266, -0.04563945531845093, 0.3470519185066223, 0.3565307855606079, 0.13130003213882446, -0.41934555768966675, 0.41549772024154663, 0.08274340629577637, 0.384021520614624, 0.31683099269866943, 0.34676486253738403, -0.31975704431533813, -0.4576447606086731, -0.3950890898704529, 0.0372280478477478, -0.14780867099761963, 0.3751811981201172, 0.20197558403015137, 0.21329808235168457, -0.07018983364105225, 0.4622093439102173, 0.1357872486114502, -0.0023266077041625977, -0.03352224826812744, -0.4986044764518738, -0.36231786012649536, 0.31964147090911865, 0.4947932958602905, -0.31539446115493774, 0.32399117946624756, 0.04669874906539917, -0.32951819896698, -0.1646537184715271, -0.32235127687454224, -0.21298950910568237, 0.12910163402557373, 0.058432817459106445, -0.040781378746032715, 0.202569842338562, -0.10887765884399414, 0.22257590293884277, 0.3950541019439697, 0.35543304681777954, 0.26630204916000366, -0.2726212739944458, 0.3880693316459656, 0.35606151819229126, 0.1309443712234497, 0.28229814767837524, -0.23757439851760864, -0.0646929144859314, 0.38564956188201904, -0.07282203435897827, 0.226429283618927, 0.49924004077911377, 0.01551598310470581, 0.40888136625289917, 0.3322898745536804, 0.4818844795227051, -0.27856916189193726, 0.0020392537117004395, -0.14543533325195312], [-0.44697874784469604, -0.06939852237701416, -0.16042780876159668, 0.18054091930389404, -0.018897712230682373, -0.2095797061920166, -0.4358721971511841, -0.18267446756362915, -0.45077264308929443, -0.29797834157943726, 0.3337433338165283, -0.08914905786514282, -0.47613078355789185, -0.25533992052078247, 0.03483086824417114, -0.1356385350227356, 0.3915368914604187, 0.1800246238708496, 0.32309597730636597, -0.19157040119171143, -0.20431452989578247, -0.09131753444671631, 0.036421358585357666, -0.32956618070602417, -0.28527408838272095, -0.3346155285835266, 0.3053276538848877, 0.1526784896850586, -0.14019626379013062, 0.4730686545372009, 0.39817506074905396, -0.44001060724258423, -0.3582165241241455, -0.4868561625480652, -0.07283544540405273, 0.2824820280075073, -0.12601321935653687, -0.4335925579071045, 0.46598243713378906, -0.20249706506729126, 0.2609570622444153, 0.2776643633842468, -0.08935058116912842, 0.034712791442871094, 0.18421941995620728, 0.39202576875686646, 0.4718911647796631, -0.12000924348831177, 0.3331897258758545, 0.2040177583694458, -0.4122328758239746, 0.18830245733261108, -0.039298176765441895, 0.0373496413230896, -0.3627732992172241, -0.37975752353668213, 0.12461549043655396, -0.09241634607315063, -0.0903007984161377, -0.11362791061401367, -0.3141202926635742, -0.22366559505462646, -0.4982219934463501, -0.20348066091537476], [0.3673669695854187, 0.45370596647262573, 0.4434847831726074, -0.15545803308486938, -0.07194632291793823, 0.18731343746185303, -0.1198810338973999, -0.20140624046325684, -0.049115657806396484, 0.32768166065216064, -0.2662099003791809, -0.11766892671585083, -0.0433235764503479, 0.39061641693115234, -0.18148314952850342, -0.36690235137939453, 0.23497051000595093, -0.28957629203796387, -0.2571389079093933, -0.23383945226669312, -0.013997972011566162, -0.04353225231170654, -0.25651001930236816, 0.17954659461975098, 0.33758074045181274, -0.28660571575164795, 0.16869229078292847, 0.3899202346801758, -0.4068465828895569, 0.10135197639465332, 0.2626102566719055, 0.2528490424156189, 0.3941488265991211, -0.4845638871192932, 0.309268057346344, 0.21596038341522217, -0.30026787519454956, -0.21970105171203613, 0.3032599687576294, 0.3552700877189636, 0.38431018590927124, 0.14420735836029053, 0.37614697217941284, -0.13685065507888794, 0.29973626136779785, -0.42546647787094116, 0.05727344751358032, -0.18892526626586914, -0.01974177360534668, 0.058272361755371094, -0.3555019497871399, -0.16508710384368896, 0.0589333176612854, -0.09443515539169312, -0.38541609048843384, 0.23564833402633667, -0.28388530015945435, 0.33274179697036743, 0.44901496171951294, -0.47566890716552734, 0.30550992488861084, 0.116138756275177, 0.09869736433029175, 0.2057991623878479], [-0.038541436195373535, -0.4135373830795288, -0.2981613278388977, 0.2267504334449768, 0.4727898836135864, -0.295113742351532, 0.10910671949386597, 0.01888251304626465, -0.29829585552215576, 0.30100542306900024, 0.3393017053604126, -0.19294250011444092, -0.31521761417388916, -0.23416626453399658, -0.20374822616577148, 0.0012491941452026367, -0.1261129379272461, 0.35916608572006226, 0.4686574339866638, 0.28373342752456665, -0.1749243140220642, 0.12888705730438232, 0.35768985748291016, -0.414831280708313, -0.49571704864501953, -0.48486804962158203, 0.41125863790512085, -0.34594106674194336, 0.3786177635192871, 0.2583029270172119, -0.011143267154693604, -0.11783963441848755, -0.4202347993850708, 0.15013837814331055, -0.32173722982406616, 0.19640284776687622, -0.12271934747695923, -0.23270249366760254, 0.4064546227455139, -0.46584469079971313, 0.09217429161071777, 0.42230236530303955, 0.3950658440589905, -0.06520283222198486, -0.398132860660553, 0.05257779359817505, -0.3040447235107422, -0.4820186495780945, -0.1428084373474121, -0.07860672473907471, 0.02611100673675537, -0.36078977584838867, 0.4742804765701294, -0.0046195387840271, -0.4773082733154297, 0.17370444536209106, -0.06758362054824829, 0.4799322485923767, -0.30313640832901, -0.00027865171432495117, -0.3166443109512329, -0.4220115542411804, 0.23211127519607544, -0.08117002248764038], [-0.15863901376724243, 0.15990281105041504, -0.2109941840171814, -0.057659029960632324, -0.30563193559646606, 0.46383726596832275, -0.3772316575050354, 0.4247220754623413, 0.013857603073120117, -0.3821014165878296, 0.3572506904602051, -0.3506711721420288, -0.2315770387649536, -0.250249981880188, 0.017192840576171875, -0.04786461591720581, 0.25937318801879883, -0.18680155277252197, 0.12395691871643066, -0.11098694801330566, -0.2733843922615051, 0.46566373109817505, -0.2981035113334656, 0.4799569249153137, 0.37388765811920166, -0.20671379566192627, 0.4768185615539551, 0.05179417133331299, 0.44257909059524536, -0.21831107139587402, -0.4342503547668457, -0.40057146549224854, -0.016444087028503418, -0.11553162336349487, -0.10630691051483154, 0.014562129974365234, 0.3541741371154785, 0.06990301609039307, 0.48270612955093384, 0.16425055265426636, -0.1184491515159607, 0.22543132305145264, 0.04181551933288574, 0.39933639764785767, -0.08163505792617798, 0.31582891941070557, -0.030286312103271484, 0.030395925045013428, -0.01047581434249878, -0.01675814390182495, -0.12886017560958862, 0.14295601844787598, -0.16227591037750244, -0.42307066917419434, -0.37516874074935913, 0.4255044460296631, -0.299064576625824, 0.005581021308898926, 0.46678537130355835, -0.4284738302230835, 0.08494198322296143, 0.3857390284538269, 0.46056175231933594, 0.3814263939857483], [0.07312560081481934, -0.022504448890686035, -0.3576543927192688, -0.22450262308120728, 0.11620044708251953, 0.062326133251190186, 0.04076230525970459, 0.00021833181381225586, 0.10824722051620483, -0.39177751541137695, 0.20522427558898926, 0.2216222882270813, -0.15510720014572144, 0.12882757186889648, 0.03924363851547241, -0.08658850193023682, -0.3027247190475464, 0.022159278392791748, 0.3455074429512024, -0.26738739013671875, -0.3741700053215027, -0.4955432415008545, 0.03749966621398926, 0.25986289978027344, -0.25773686170578003, 0.004889965057373047, 0.38422828912734985, 0.11022770404815674, -0.0996055006980896, -0.03040897846221924, -0.06233793497085571, -0.027423381805419922, 0.1886391043663025, -0.18347018957138062, 0.33134210109710693, -0.4181574583053589, 0.44336020946502686, 0.11135387420654297, 0.42563360929489136, 0.16054946184158325, 0.08626043796539307, -0.24126315116882324, -0.14389240741729736, -0.45331132411956787, -0.4944419860839844, 0.4354424476623535, -0.36888742446899414, -0.4782818555831909, -0.25427210330963135, 0.4584774374961853, -0.4597337245941162, 0.24126654863357544, -0.04165142774581909, -0.14580774307250977, -0.0056784749031066895, 0.3816344141960144, 0.17022496461868286, -0.35113829374313354, -0.22074991464614868, -0.10663801431655884, 0.06148076057434082, 0.3503774404525757, 0.2844774127006531, 0.4359411597251892], [0.06898945569992065, 0.1317543387413025, -0.4770087003707886, -0.1901562213897705, 0.09768885374069214, 0.11220073699951172, 0.32209497690200806, 0.19238978624343872, -0.42000889778137207, -0.40176868438720703, -0.4168418049812317, 0.46158385276794434, 0.21419388055801392, -0.3985750079154968, -0.034677863121032715, -0.3665299415588379, 0.355071485042572, -0.3230513334274292, -0.35491758584976196, -0.19177359342575073, -0.1609877347946167, -0.33874762058258057, 0.41854608058929443, -0.3445661664009094, -0.3144491910934448, -0.31027334928512573, -0.18591231107711792, -0.38477975130081177, -0.35006183385849, 0.019519329071044922, 0.23598533868789673, 0.10718274116516113, 0.025715529918670654, -0.25928837060928345, 0.3450291156768799, -0.1474887728691101, 0.39523160457611084, 0.11727112531661987, -0.3741070628166199, 0.4055561423301697, -0.2651633024215698, -0.2514802813529968, -0.04236650466918945, 0.32572805881500244, 0.2759002447128296, -0.11208230257034302, -0.040176451206207275, -0.01854175329208374, -0.3857190012931824, -0.3811744451522827, 0.2753506302833557, -0.3186536431312561, 0.011038482189178467, 0.08124500513076782, 0.16314959526062012, -0.10857415199279785, -0.454024076461792, 0.4280523657798767, -0.09481453895568848, -0.2254520058631897, 0.2892873287200928, -0.2722230553627014, 0.053212761878967285, -0.3213964104652405], [0.3250606060028076, 0.40539056062698364, 0.44285207986831665, -0.03789472579956055, 0.14993739128112793, -0.24887192249298096, -0.022414863109588623, -0.1299654245376587, -0.13213646411895752, -0.04108637571334839, 0.08844530582427979, 0.4736829400062561, -0.42310237884521484, 0.49079614877700806, -0.0031117796897888184, -0.3784025311470032, 0.0338098406791687, -0.0015529990196228027, -0.062040627002716064, 0.33511418104171753, -0.037174344062805176, 0.4130738377571106, -0.06520646810531616, 0.0514758825302124, -0.02216041088104248, -0.31564193964004517, 0.1622048020362854, -0.4389488101005554, -0.4251769185066223, 0.2388300895690918, 0.01235288381576538, -0.22154974937438965, -0.023206114768981934, -0.11428266763687134, 0.39131641387939453, 0.26472049951553345, -0.2239026427268982, -0.0905197262763977, 0.42080503702163696, -0.21885335445404053, 0.10176283121109009, 0.2971571087837219, 0.40109407901763916, 0.3829898238182068, -0.26746195554733276, -0.36549246311187744, -0.09493768215179443, -0.06808984279632568, -0.18183088302612305, 0.19444304704666138, 0.29740846157073975, -0.3673071265220642, 0.4807136058807373, -0.4973716139793396, -0.11806827783584595, 0.2651979327201843, 0.1988215446472168, -0.2121638059616089, -0.4129520654678345, -0.27391737699508667, -0.20761048793792725, 0.13622885942459106, -0.3962754011154175, -0.3176071047782898], [0.4216291904449463, -0.24692755937576294, -0.15629374980926514, 0.3228922486305237, 0.39657193422317505, 0.13089293241500854, -0.2732952833175659, 0.4305562376976013, 0.23584997653961182, -0.48326361179351807, 0.18987149000167847, -0.10544735193252563, -0.3737452030181885, -0.22838610410690308, -0.2746821641921997, -0.4740251898765564, -0.4828720688819885, 0.058444857597351074, -0.2871816158294678, 0.18660646677017212, 0.39205658435821533, 0.2652197480201721, -0.023479819297790527, -0.3859381675720215, -0.34815120697021484, -0.28133291006088257, 0.10948199033737183, 0.33226484060287476, 0.3928474187850952, 0.15536952018737793, -0.38244128227233887, 0.048847854137420654, -0.07811254262924194, -0.3001307249069214, 0.2644975781440735, 0.20590537786483765, -0.43447166681289673, -0.3294105529785156, 0.39600950479507446, -0.334293007850647, 0.3295692205429077, 0.006340205669403076, 0.16067159175872803, 0.2855294942855835, 0.0007770657539367676, 0.472453773021698, 0.1817162036895752, -0.02087467908859253, -0.23504334688186646, 0.19471973180770874, 0.45540183782577515, -0.4419630765914917, -0.38151609897613525, -0.1310514211654663, 0.06487679481506348, -0.3895947337150574, -0.3862570524215698, -0.0979509949684143, -0.2772921323776245, 0.21539819240570068, -0.01173555850982666, 0.14407414197921753, 0.4771154522895813, -0.09872472286224365], [0.330952525138855, 0.21437615156173706, 0.4755707383155823, -0.16867005825042725, -0.02132260799407959, 0.12534219026565552, -0.47749394178390503, 0.44092416763305664, -0.2474130392074585, 0.12745755910873413, 0.0906253457069397, -0.23149830102920532, 0.03355848789215088, 0.3939371705055237, -0.052042365074157715, -0.19007354974746704, -0.08261126279830933, 0.23650288581848145, 0.3192187547683716, 0.19124293327331543, -0.4177582859992981, -0.2369421124458313, 0.025128066539764404, 0.3420809507369995, 0.2664308547973633, 0.3385698199272156, 0.07769113779067993, 0.14049780368804932, 0.4866613745689392, -0.16477078199386597, 0.4313763976097107, -0.1277332901954651, -0.11666536331176758, -0.3967992663383484, -0.20170831680297852, -0.05791521072387695, -0.30699622631073, 0.14886987209320068, -0.004884779453277588, 0.037334144115448, 0.4561159610748291, -0.01600325107574463, -0.36249005794525146, 0.2341182827949524, -0.0818634033203125, 0.2320510745048523, 0.23952072858810425, 0.4784016013145447, -0.009422242641448975, 0.22491198778152466, 0.14387524127960205, -0.09028136730194092, -0.11742931604385376, 0.491934597492218, -0.12973731756210327, -0.38699090480804443, -0.05561041831970215, -0.38842010498046875, 0.05105924606323242, -0.45168769359588623, 0.03563094139099121, -0.19735252857208252, 0.3157416582107544, 0.3513214588165283], [-0.4524896740913391, 0.4698669910430908, 0.46586644649505615, -0.14923954010009766, -0.3257191777229309, -0.0013213753700256348, 0.048476576805114746, -0.07547712326049805, 0.47009551525115967, 0.1150197982788086, -0.38156628608703613, 0.1673983335494995, -0.1915857195854187, -0.09968429803848267, 0.4472629427909851, 0.12141752243041992, 0.27870267629623413, 0.31169426441192627, 0.2803593873977661, -0.08796346187591553, 0.07188433408737183, -0.015647172927856445, -0.10308802127838135, 0.15270394086837769, 0.1372087597846985, -0.46115225553512573, -0.3810088038444519, 0.1948578953742981, 0.3173450231552124, 0.3874213695526123, 0.42998653650283813, -0.19949090480804443, 0.12951499223709106, 0.20380377769470215, 0.4312347173690796, 0.18531912565231323, -0.07796400785446167, -0.3294621706008911, -0.020511746406555176, -0.0292322039604187, -0.2185959815979004, 0.17153334617614746, -0.2290847897529602, 0.3259391188621521, -0.45429301261901855, 0.4282001256942749, -0.3629329204559326, -0.04641067981719971, -0.24189895391464233, 0.45472925901412964, -0.19269967079162598, -0.04304361343383789, -0.4211980700492859, 0.06243085861206055, 0.19055449962615967, 0.25911945104599, -0.12159156799316406, 0.24904567003250122, -0.3792870044708252, 0.14315086603164673, -0.45078539848327637, 0.025578320026397705, -0.2882511019706726, -0.41604000329971313], [0.20369738340377808, 0.04163616895675659, 0.43207651376724243, -0.1103973388671875, -0.07263106107711792, 0.46596288681030273, -0.40939241647720337, -0.37608325481414795, -0.19627678394317627, -0.16429632902145386, 0.008261144161224365, 0.41656988859176636, -0.2754160761833191, 0.24509233236312866, 0.26126939058303833, 0.09634250402450562, 0.05972135066986084, 0.03458791971206665, 0.13959115743637085, -0.3830225467681885, -0.4274914264678955, -0.34629184007644653, -0.3851611018180847, 0.1113518476486206, -0.37719351053237915, -0.23900210857391357, -0.1702495813369751, -0.49011754989624023, 0.12087327241897583, 0.21792733669281006, -0.16952931880950928, 0.04636949300765991, 0.04721546173095703, -0.4262481927871704, -0.39618510007858276, -0.47255003452301025, -0.41919463872909546, -0.3367411494255066, -0.13940411806106567, 0.32060080766677856, 0.020373165607452393, -0.10576397180557251, -0.1756606101989746, 0.47744935750961304, -0.05886608362197876, -0.1936742067337036, -0.4411141276359558, 0.3345385789871216, -0.044820427894592285, -0.22802197933197021, -0.43308085203170776, -0.09451508522033691, -0.13419979810714722, -0.24501031637191772, -0.23116779327392578, 0.3955574631690979, -0.004225492477416992, 0.489990770816803, -0.03261905908584595, 0.4510725140571594, 0.30653828382492065, 0.4281117916107178, -0.022503376007080078, 0.003271758556365967], [0.1307087540626526, 0.4820742607116699, -0.27592211961746216, -0.2842240333557129, -0.14744192361831665, -0.44007980823516846, -0.463931143283844, 0.2791658043861389, -0.07803159952163696, 0.2471522092819214, 0.3825836181640625, -0.3037257790565491, 0.14306128025054932, -0.06355136632919312, 0.3139945864677429, -0.0090828537940979, -0.35833340883255005, 0.013410449028015137, 0.2689734697341919, -0.21844452619552612, -0.47909045219421387, 0.06380927562713623, 0.29261523485183716, -0.4364532232284546, 0.33331865072250366, 0.22326934337615967, -0.4192996025085449, 0.025323808193206787, 0.45458751916885376, -0.4392731785774231, -0.2213512659072876, 0.1801670789718628, -0.2506062984466553, -0.2980244755744934, 0.10481518507003784, 0.2771559953689575, 0.06491249799728394, 0.2995801568031311, -0.35343217849731445, 0.2199445366859436, -0.04817324876785278, 0.3860054016113281, -0.12610560655593872, -0.3013632297515869, -0.36743026971817017, -0.06669372320175171, -0.4373123049736023, -0.16454505920410156, 0.2065669298171997, 0.0796964168548584, -0.18387377262115479, -0.40188413858413696, 0.2456667423248291, -0.2525549530982971, 0.4456879496574402, -0.07097995281219482, -0.1642490029335022, -0.45129311084747314, 0.4339290261268616, -0.19815558195114136, -0.4751529097557068, -0.1330629587173462, -0.2542942762374878, 0.054382383823394775], [-0.35040539503097534, -0.038218915462493896, 0.45780444145202637, 0.26251453161239624, -0.4790753722190857, 0.2920137643814087, 0.0328446626663208, -0.47061687707901, -0.337533175945282, 0.14327824115753174, 0.24852079153060913, -0.48221540451049805, -0.31432288885116577, -0.40641385316848755, -0.0513346791267395, 0.0035446882247924805, 0.36029255390167236, 0.44445401430130005, 0.1776331663131714, 0.10705220699310303, -0.4710013270378113, -0.3304747939109802, 0.25899142026901245, 0.07961785793304443, -0.3769201636314392, -0.3662787675857544, 0.13440555334091187, -0.002129197120666504, -0.2916714549064636, -0.3154064416885376, 0.08308804035186768, 0.287331759929657, 0.375266432762146, 0.33928442001342773, 0.3529961109161377, -0.07912278175354004, 0.09233909845352173, -0.031032800674438477, -0.07489240169525146, 0.1772463321685791, 0.21564531326293945, -0.07332450151443481, -0.2627904415130615, -0.11094909906387329, -0.2551863193511963, 0.07902729511260986, -0.0909661054611206, 0.08174318075180054, -0.10588687658309937, -0.3856194019317627, -0.19120919704437256, -0.4092182517051697, 0.2880711555480957, -0.13948297500610352, -0.4930897355079651, -0.1363888382911682, 0.3184075355529785, -0.1591746211051941, -0.048309922218322754, 0.43896377086639404, 0.12305694818496704, 0.3688214421272278, -0.36832213401794434, 0.20141857862472534], [0.0645761489868164, 0.4128871560096741, -0.20343399047851562, 0.049890339374542236, 0.30387890338897705, -0.10140103101730347, -0.3841255307197571, 0.15401840209960938, -0.2691676616668701, -0.0967896580696106, 0.0563507080078125, 0.0426173210144043, -0.019975483417510986, 0.3748685121536255, 0.28024542331695557, 0.21609097719192505, -0.14944618940353394, 0.4728016257286072, -0.4304555058479309, 0.47831010818481445, 0.46856141090393066, 0.48459047079086304, 0.05382692813873291, -0.49602001905441284, 0.30229663848876953, 0.15098834037780762, -0.2835320234298706, 0.4213159680366516, 0.15834039449691772, -0.24036163091659546, -0.3058687448501587, -0.03952658176422119, 0.2937459349632263, -0.10167217254638672, 0.27366286516189575, 0.44032061100006104, -0.45081788301467896, 0.15006017684936523, 0.3790794610977173, 0.31399232149124146, -0.09556311368942261, 0.1376882791519165, -0.146681010723114, 0.38231462240219116, 0.3853145241737366, 0.4049043655395508, 0.14862871170043945, 0.32858383655548096, -0.3352118134498596, -0.3462967872619629, 0.27001655101776123, 0.24501138925552368, -0.05035954713821411, 0.38437676429748535, -0.33906275033950806, 0.3807492256164551, 0.4607524871826172, 0.4427233934402466, 0.09932607412338257, -0.0033704042434692383, 0.1833057999610901, 0.23509609699249268, -0.4338739514350891, -0.09871459007263184], [-0.4510385990142822, 0.41159921884536743, -0.0029923319816589355, 0.23963797092437744, -0.3553141951560974, 0.08185839653015137, 0.47782713174819946, -0.14704430103302002, 0.32346808910369873, 0.02692246437072754, -0.43969249725341797, 0.06354355812072754, 0.35477304458618164, -0.31643110513687134, 0.08918416500091553, -0.15375661849975586, -0.0014598369598388672, -0.47920477390289307, -0.3700949549674988, -0.0018870830535888672, 0.30810660123825073, 0.4795929193496704, 0.490734338760376, -0.03173112869262695, 0.2680785059928894, -0.15079957246780396, 0.4172900915145874, -0.06920337677001953, 0.456731915473938, -0.2051544189453125, 0.2096598744392395, 0.25544238090515137, -0.16892778873443604, 0.007463216781616211, -0.46170395612716675, 0.10948771238327026, 0.07272791862487793, -0.3234875202178955, -0.4213371276855469, -0.20873069763183594, -0.41656625270843506, -0.09200471639633179, 0.22589468955993652, 0.48122549057006836, 0.421914279460907, 0.07644295692443848, -0.13705003261566162, 0.011283695697784424, -0.20159780979156494, -0.37729406356811523, -0.3782925605773926, 0.48348748683929443, 0.11634796857833862, -0.45533597469329834, 0.1197354793548584, 0.1354532241821289, 0.49230045080184937, -0.4661939740180969, -0.017836570739746094, -0.3642095923423767, -0.046548306941986084, -0.10993200540542603, -0.4745694398880005, 0.14439988136291504], [0.026872873306274414, -0.4345269203186035, -0.17982441186904907, 0.33664488792419434, 0.22796672582626343, -0.07759284973144531, -0.3223373293876648, 0.059140682220458984, -0.018034160137176514, -0.2982911467552185, -0.25610095262527466, 0.27609145641326904, 0.05792754888534546, 0.4970012307167053, 0.1698266863822937, -0.48974549770355225, 0.3032252788543701, 0.14866548776626587, 0.04470270872116089, 0.07526707649230957, 0.44444286823272705, -0.11867642402648926, -0.3836497664451599, 0.007315456867218018, -0.15107500553131104, 0.32030683755874634, 0.3564910888671875, -0.07751971483230591, -0.17944210767745972, -0.47722136974334717, 0.1413286328315735, -0.2304481863975525, 0.36638784408569336, 0.4449506402015686, -0.4689790606498718, 0.1662975549697876, 0.15144503116607666, 0.466335654258728, 0.4907485842704773, -0.1477200984954834, -0.3787950873374939, -0.35417449474334717, -0.24254244565963745, 0.158125102519989, 0.21769392490386963, -0.0899229645729065, 0.2480006217956543, 0.4059504270553589, -0.14428365230560303, 0.23887765407562256, -0.4497542977333069, 0.21239721775054932, 0.026578843593597412, 0.43156641721725464, -0.36091989278793335, -0.3922296166419983, -0.3054519295692444, -0.006441891193389893, 0.09185677766799927, -0.26861894130706787, -0.4455040693283081, 0.3935595154762268, -0.10889846086502075, 0.47281110286712646], [0.4315497875213623, 0.4548049569129944, 0.32989948987960815, -0.44327229261398315, -0.013340234756469727, -0.3502426743507385, 0.1704363226890564, -0.41351187229156494, 0.4661898612976074, 0.47007620334625244, 0.36853158473968506, -0.17301952838897705, -0.23729979991912842, -0.4218563437461853, -0.1853775978088379, 0.04936087131500244, 0.43121713399887085, -0.48915696144104004, 0.4482657313346863, -0.24164623022079468, 0.11258608102798462, 0.30678790807724, -0.24557209014892578, 0.46894538402557373, 0.37014520168304443, -0.2775554656982422, -0.1905074119567871, 0.116252601146698, -0.4420544505119324, 0.23589873313903809, -0.04923880100250244, 0.12518930435180664, 0.19309920072555542, -0.23667961359024048, -0.4957166314125061, -0.4021199345588684, 0.4122481942176819, -0.48527026176452637, 0.004911839962005615, -0.2959824204444885, -0.23741263151168823, 0.285298228263855, 0.4203845262527466, -0.427815318107605, 0.033599793910980225, -0.29802918434143066, 0.3243372440338135, 0.3983689546585083, 0.09254199266433716, -0.31700313091278076, -0.09728461503982544, -0.2730866074562073, 0.34214407205581665, 0.20142632722854614, -0.4915792942047119, 0.09609967470169067, -0.4567961096763611, -0.3489425778388977, -0.19183391332626343, 0.4471285939216614, 0.15353167057037354, 0.046330273151397705, -0.05095487833023071, 0.27156227827072144], [0.022743165493011475, -0.4412086009979248, 0.2965582013130188, 0.3929286003112793, -0.358978271484375, -0.14058351516723633, -0.4587901830673218, -0.27353179454803467, 0.0349004864692688, 0.17998665571212769, -0.17501300573349, 0.4579095244407654, -0.045560598373413086, -0.38083767890930176, -0.259716272354126, -0.4555826783180237, 0.09723764657974243, -0.11299097537994385, 0.38427841663360596, 0.2666805386543274, 0.3544846773147583, 0.07722800970077515, 0.19788479804992676, 0.4352748990058899, 0.31500011682510376, -0.1742030382156372, -0.2620851397514343, 0.08175837993621826, -0.412810742855072, 0.12009859085083008, -0.31274473667144775, -0.06485366821289062, 0.12952286005020142, 0.1538010835647583, -0.20445924997329712, 0.0946049690246582, -0.10683983564376831, 0.14506930112838745, 0.49604523181915283, -0.32254934310913086, -0.18484079837799072, -0.06394851207733154, -0.10265183448791504, -0.2163550853729248, -0.3799293637275696, -0.25040316581726074, -0.14335399866104126, 0.3484532833099365, 0.15373891592025757, -0.457855761051178, 0.14833784103393555, -0.04648035764694214, 0.453188419342041, 0.04336428642272949, 0.09055787324905396, -0.4651060700416565, 0.3193284869194031, -0.2996906638145447, 0.002852320671081543, 0.05965828895568848, 0.05021446943283081, -0.41006165742874146, 0.27860361337661743, 0.0275270938873291], [0.41900092363357544, -0.4825214147567749, 0.07477998733520508, -0.27758485078811646, 0.47532856464385986, -0.4261842966079712, -0.4392956495285034, -0.22169876098632812, -0.2621806859970093, 0.36472707986831665, -0.15183228254318237, -0.09894305467605591, -0.02758568525314331, -0.2341327667236328, -0.19219869375228882, -0.02915102243423462, 0.3866322636604309, 0.18492662906646729, 0.044674694538116455, -0.4924987554550171, 0.20649456977844238, -0.4594346880912781, 0.03635060787200928, 0.4441525936126709, -0.254472553730011, 0.33938682079315186, 0.1531057357788086, -0.3351179361343384, -0.03965979814529419, -0.3094820976257324, 0.4548974633216858, -0.3105870485305786, 0.432497501373291, -0.33073943853378296, 0.1674463152885437, 0.3080902099609375, -0.44538313150405884, 0.11019241809844971, 0.3302099108695984, 0.12929368019104004, 0.21407485008239746, -0.259540319442749, -0.292460560798645, 0.28343284130096436, -0.4460377097129822, -0.37847900390625, 0.344454288482666, -0.4179244041442871, 0.4942944645881653, 0.03621095418930054, 0.33287692070007324, -0.047001659870147705, -0.40493327379226685, -0.06148773431777954, 0.29932039976119995, -0.3919858932495117, -0.008332669734954834, 0.46643298864364624, -0.015211045742034912, 0.06495535373687744, 0.17285823822021484, -0.03603428602218628, 0.3793286085128784, -0.16982775926589966], [0.259443461894989, 0.17047065496444702, 0.3895111083984375, -0.12539416551589966, -0.3440878391265869, 0.4771793484687805, 0.15940725803375244, -0.1879909634590149, 0.13659882545471191, 0.2305213212966919, -0.3806137442588806, 0.22491222620010376, -0.19481498003005981, 0.4569740891456604, 0.02268010377883911, 0.4845503568649292, -0.41019487380981445, 0.30241644382476807, 0.1939600706100464, -0.3666086792945862, 0.13404762744903564, -0.44351208209991455, -0.24993669986724854, 0.37816256284713745, -0.08935260772705078, 0.45525240898132324, 0.18687570095062256, 0.4190164804458618, -0.4379720091819763, 0.08921492099761963, 0.2849773168563843, 0.2224523425102234, 0.4842124581336975, -0.4151119589805603, 0.38411152362823486, 0.45950406789779663, 0.43674957752227783, -0.11878311634063721, -0.448975145816803, -0.020538270473480225, -0.4371896982192993, -0.044780433177948, 0.44479691982269287, -0.4445297122001648, 0.2105487585067749, 0.3457077741622925, 0.18302875757217407, 0.313026487827301, -0.08108508586883545, -0.0011459589004516602, -0.2948893904685974, -0.4389774799346924, 0.2597254514694214, -0.3067361116409302, 0.3004584312438965, -0.4089757800102234, 0.3532370328903198, -0.012156188488006592, 0.10418957471847534, -0.32978349924087524, -0.055837035179138184, 0.013519585132598877, -0.14929139614105225, 0.43921422958374023], [0.20909535884857178, 0.28192293643951416, 0.28436940908432007, 0.0532265305519104, -0.4966627359390259, -0.08696532249450684, 0.37121856212615967, -0.24907022714614868, 0.40106987953186035, -0.16772490739822388, 0.18380814790725708, -0.1172146201133728, 0.32459425926208496, -0.355354368686676, 0.39501333236694336, -0.28341102600097656, -0.060430705547332764, 0.12504512071609497, 0.012996673583984375, 0.056690514087677, 0.4490196108818054, -0.02486807107925415, 0.3784489631652832, 0.14910286664962769, 0.2695149779319763, 0.044455111026763916, -0.1477057933807373, 0.3414289355278015, -0.3018312454223633, -0.3838544487953186, 0.32798755168914795, -0.17529141902923584, 0.29970645904541016, 0.444339394569397, 0.4268733859062195, -0.13808053731918335, 0.01740783452987671, 0.43012696504592896, 0.15449506044387817, -0.1384037733078003, -0.22018593549728394, -0.07308685779571533, 0.4058215618133545, 0.2655135989189148, -0.36887580156326294, 0.12145954370498657, 0.42727160453796387, 0.23049700260162354, -0.35292577743530273, -0.47659629583358765, 0.21071302890777588, 0.15743255615234375, -0.2187240719795227, 0.46018511056900024, -0.381384015083313, 0.33551424741744995, 0.34369415044784546, 0.30632537603378296, -0.4122530221939087, 0.3727065324783325, 0.20570504665374756, -0.41582751274108887, -0.3139166235923767, -0.06903159618377686], [-0.279302716255188, 0.09240108728408813, 0.1734749674797058, 0.17467498779296875, -0.4798737168312073, 0.375663697719574, -0.11342716217041016, -0.04696297645568848, -0.16405928134918213, -0.039444565773010254, -0.4647465944290161, -0.3049137592315674, -0.0629311203956604, 0.1433647871017456, -0.43224281072616577, 0.348078191280365, 0.4034910798072815, 0.23938512802124023, 0.376382052898407, -0.44712716341018677, -0.32289254665374756, 0.11165851354598999, 0.3870226740837097, -0.48904526233673096, 0.4204559922218323, 0.12398344278335571, 0.04075515270233154, 0.17987555265426636, 0.2512223720550537, -0.26134610176086426, 0.15258198976516724, -0.45387619733810425, -0.17435753345489502, 0.06738454103469849, -0.41485142707824707, -0.10871392488479614, 0.142406165599823, 0.1515635848045349, 0.13464123010635376, 0.011348485946655273, -0.4601021409034729, 0.22689998149871826, -0.4321344494819641, 0.08469581604003906, 0.35869598388671875, 0.4552045464515686, -0.032286226749420166, -0.23179411888122559, -0.061646997928619385, -0.4700678586959839, 0.35013991594314575, -0.17235040664672852, -0.015590548515319824, -0.10508310794830322, -0.18274706602096558, 0.3570096492767334, 0.022009968757629395, 0.29974979162216187, 0.4311574697494507, 0.28621476888656616, 0.015139639377593994, -0.08306163549423218, -0.473405659198761, -0.442019522190094], [-0.039803504943847656, 0.04059058427810669, 0.46976786851882935, 0.3746580481529236, 0.4554879069328308, 0.1033591628074646, 0.427274227142334, 0.29999643564224243, -0.07961243391036987, 0.48724639415740967, -0.32593613862991333, 0.0771327018737793, -0.4253019690513611, -0.3385379910469055, -0.46241527795791626, 0.04957759380340576, 0.40245866775512695, 0.2851221561431885, -0.1633080244064331, 0.14913493394851685, 0.31585222482681274, 0.44329482316970825, 0.25645071268081665, 0.38517993688583374, -0.004664182662963867, 0.05914109945297241, 0.4561827778816223, 0.03586125373840332, 0.4527251720428467, -0.22773826122283936, -0.3495410680770874, -0.48465240001678467, 0.0010097622871398926, 0.30867862701416016, -0.1238560676574707, -0.05171668529510498, -0.18303829431533813, 0.10143423080444336, 0.330913782119751, -0.1881389021873474, -0.05595117807388306, 0.45032745599746704, -0.014040052890777588, -0.45164060592651367, 0.02500605583190918, -0.3463820815086365, -0.370769739151001, 0.1680159568786621, -0.030748188495635986, 0.3909919261932373, -0.17708569765090942, -0.21252644062042236, 0.2778977155685425, -0.4692726135253906, -0.2431352734565735, 0.2577309012413025, 0.39919304847717285, 0.3466639518737793, -0.0060329437255859375, 0.4244121313095093, -0.4312502145767212, 0.008738517761230469, -0.3800831437110901, 0.4399622678756714], [-0.07930564880371094, -0.33096641302108765, -0.34005188941955566, 0.08750426769256592, 0.3065847158432007, 0.01068723201751709, 0.4671142101287842, -0.16814780235290527, 0.14884114265441895, -0.1098983883857727, 0.25670939683914185, -0.21382272243499756, -0.03866863250732422, 0.24774789810180664, -0.049808621406555176, -0.08372175693511963, 0.28915297985076904, 0.42641985416412354, -0.23676741123199463, 0.2851763963699341, 0.24623149633407593, -0.4758932590484619, 0.3496707081794739, -0.026748478412628174, -0.3416857123374939, -0.26548337936401367, 0.20640408992767334, -0.26344597339630127, 0.24718958139419556, -0.17221015691757202, -0.2519960403442383, -0.11602944135665894, -0.3805631399154663, -0.10010182857513428, 0.34318965673446655, -0.08083450794219971, 0.20251959562301636, 0.40871596336364746, -0.08089637756347656, -0.15849226713180542, -0.21002036333084106, 0.2111240029335022, 0.2501929998397827, 0.2885385751724243, -0.43635010719299316, 0.3505464792251587, -0.2497955560684204, 0.05344754457473755, 0.2128414511680603, 0.15110522508621216, 0.4664685130119324, 0.3834388852119446, 0.3358996510505676, -0.4629928469657898, 0.15776687860488892, 0.4378971457481384, -0.43010860681533813, -0.3697461485862732, 0.3510788083076477, -0.027038216590881348, 0.1603953242301941, -0.13809126615524292, 0.11009681224822998, -0.12271451950073242], [0.49995309114456177, 0.46168190240859985, 0.004842877388000488, 0.2113775610923767, -0.44622284173965454, 0.4460296630859375, -0.19361358880996704, -0.27240532636642456, -0.1082618236541748, -0.06223684549331665, 0.0693809986114502, 0.3151177763938904, -0.3079189658164978, 0.03415548801422119, -0.36857151985168457, 0.2511093020439148, -0.0020357370376586914, 0.010030031204223633, -0.11884266138076782, 0.31677675247192383, -0.02298516035079956, 0.14432787895202637, -0.15191811323165894, -0.2672257423400879, -0.2828695774078369, -0.28594034910202026, -0.03561681509017944, -0.4513437747955322, -0.4671936631202698, 0.19890737533569336, 0.08837169408798218, 0.024081289768218994, 0.4193723201751709, 0.41617095470428467, 0.023648560047149658, 0.2955920696258545, 0.02456575632095337, -0.27000463008880615, -0.179704487323761, -0.014805972576141357, 0.264459490776062, 0.17084002494812012, 0.435430645942688, 0.4957532286643982, -0.32418519258499146, 0.30881309509277344, -0.214979887008667, 0.15737372636795044, 0.06921654939651489, -0.21867376565933228, -0.4777213931083679, 0.17800891399383545, 0.4396457076072693, 0.08581048250198364, -0.3191753625869751, -0.22938966751098633, -0.27205944061279297, 0.34172558784484863, 0.2001802921295166, -0.45165377855300903, 0.24425143003463745, 0.33543282747268677, -0.04243659973144531, 0.3051829934120178], [-0.00023502111434936523, -0.18948280811309814, -0.203139066696167, 0.4009568691253662, -0.29414093494415283, 0.3456084728240967, -0.3732253909111023, 0.11975747346878052, 0.26922059059143066, -0.33280372619628906, 0.1144338846206665, -0.41899579763412476, -0.07538783550262451, -0.14101016521453857, -0.2923157215118408, 0.2571597099304199, 0.23732805252075195, 0.48071348667144775, 0.0609205961227417, -0.08373349905014038, 0.03934454917907715, 0.17055070400238037, 0.1228148341178894, 0.23035168647766113, 0.014281392097473145, -0.08229225873947144, -0.36494165658950806, 0.12146991491317749, -0.1345323920249939, 0.3182942271232605, 0.35893678665161133, 0.09131252765655518, -0.44646328687667847, -0.35831546783447266, -0.27622175216674805, -0.10878360271453857, -0.08121007680892944, 0.4532753825187683, 0.33730489015579224, 0.055113792419433594, -0.3281996250152588, 0.20653975009918213, 0.3036266565322876, 0.262328565120697, -0.33876192569732666, -0.09785175323486328, -0.14407885074615479, 0.1299647092819214, -0.09452086687088013, 0.057366907596588135, 0.25574296712875366, -0.4420369863510132, -0.3379603624343872, -0.39436113834381104, 0.4819609522819519, 0.05444985628128052, -0.29084640741348267, -0.3000295162200928, 0.129491925239563, -0.4034706950187683, 0.0018273591995239258, 0.49842649698257446, -0.09057801961898804, -0.28058499097824097], [0.3910444378852844, 0.19730019569396973, 0.1524718999862671, 0.004120230674743652, -0.47225332260131836, 0.3414161205291748, -0.31562113761901855, 0.08712995052337646, 0.45584607124328613, -0.30272048711776733, -0.4445686936378479, 0.24046891927719116, -0.19963133335113525, -0.3525364398956299, -0.24316680431365967, -0.4831193685531616, -0.21990907192230225, 0.4960622787475586, 0.026661217212677002, -0.22319811582565308, 0.3473058342933655, -0.1817951202392578, -0.2801464796066284, 0.3295896649360657, 0.47551393508911133, -0.4140108823776245, 0.15502959489822388, 0.00246584415435791, -0.207166850566864, -0.35947519540786743, 0.3658636808395386, -0.0799679160118103, 0.05078357458114624, -0.24622154235839844, 0.4531024694442749, 0.18400448560714722, 0.4476775527000427, -0.35611242055892944, -0.30621129274368286, 0.06926846504211426, 0.31071901321411133, -0.33313286304473877, 