{"input_weights": [[0.3765307366847992, 0.3376677334308624, 0.3736305236816406, 0.09482540190219879, -0.44776058197021484, -0.3022172152996063, 0.07886204123497009, 0.49441587924957275, 0.48161131143569946, -0.10370194911956787, 0.14809650182724, -0.03245139122009277, 0.3604854941368103, 0.20416192710399628, -0.19337338209152222, -0.15567290782928467, 0.2010900378227234, -0.36321085691452026, 0.26628193259239197, 0.6755499839782715, -0.2723471522331238, -0.22826671600341797, -0.007182225584983826, 0.1565937101840973, 0.07859857380390167, 0.08087652921676636, -0.24332362413406372, 0.052997708320617676, -0.7274364233016968, -0.020906928926706314, -0.6620645523071289, -0.2735004425048828, -0.3436102569103241, 0.5529895424842834, -0.27013713121414185, -0.1513485461473465, -0.6635417342185974, 0.0909687951207161, 0.1856236308813095, -0.14917945861816406, -0.45320814847946167, -0.061025284230709076, -0.3188967704772949, -0.025901809334754944, -0.1685943603515625, 0.07211186736822128, 0.4710913896560669, 0.3971492648124695, -0.27523273229599, -0.2637472450733185, -0.4339032471179962, -0.13819240033626556, 0.12775634229183197, -0.20537160336971283, -0.12495964765548706, -0.6376018524169922, -0.38660433888435364, -0.20699375867843628, -0.32120922207832336, -0.03521162271499634, 0.22205884754657745, -0.37554600834846497, 0.17406989634037018, -0.5094590187072754, -0.00537484884262085, 0.36459672451019287, 0.017220743000507355, -0.06898082047700882, -0.21473181247711182, -0.42190274596214294, 0.13666704297065735, -0.0016243383288383484, 0.47354382276535034, -0.4789349436759949, -0.16701674461364746, -0.16807875037193298, 0.3283390402793884, -0.18024036288261414, 0.4171457886695862, -0.0827322006225586, 0.00887862965464592, 0.261588990688324, -0.43411463499069214, -0.03540889918804169, 0.40338134765625, 0.1316448450088501, 0.09074205160140991, -0.05593441426753998, 0.11259639263153076, -0.4955828785896301, 0.3747318387031555, 0.37505054473876953, 0.5307907462120056, 0.4169551134109497, -0.6074289679527283, 0.41023242473602295, 0.22902433574199677, -0.0413551852107048, 0.13718780875205994, 0.4017537832260132, 0.23501445353031158, -0.31990617513656616, 0.014421142637729645, -0.41691797971725464, -0.0710335299372673, -0.7300469279289246, -0.32750624418258667, -0.49043476581573486, 0.19511210918426514, 0.21397995948791504, -0.2008390724658966, 0.3241642117500305, 0.35056811571121216, 0.13900819420814514, 0.06549341976642609, -0.5454621315002441, -0.29106321930885315, -0.05979436635971069, 0.3323225975036621, -0.0964200496673584, -0.3857905864715576, 0.17815741896629333, -0.4998283386230469, -0.4536353051662445, -0.034853801131248474, 0.3834567666053772, -0.20276647806167603, 0.5215302109718323], [0.020441565662622452, -0.2035011649131775, 0.4828989505767822, 0.5197334289550781, -0.4962838590145111, -0.45745137333869934, -0.15609079599380493, -0.12766754627227783, 0.27973029017448425, -0.11522144079208374, 0.26651525497436523, 0.21690376102924347, -0.15180066227912903, -0.4361984133720398, 0.5405935049057007, 0.4022258520126343, 0.12594814598560333, 0.5649558901786804, -0.34852123260498047, 0.07522246241569519, 0.13117164373397827, -0.20848673582077026, -0.2521268427371979, -0.24819529056549072, 0.4502480924129486, -0.1771717518568039, 0.003878265619277954, 0.138068288564682, -0.3637101650238037, 0.06494784355163574, -0.06327396631240845, 0.15609288215637207, 0.1145372986793518, -0.4709968566894531, -0.11611483246088028, -0.21973800659179688, 0.5075384974479675, -0.38221415877342224, -0.33314716815948486, -0.08531518280506134, -0.6113167405128479, 0.3237649202346802, -0.3793356418609619, -0.5640356540679932, 0.626196563243866, 0.22553801536560059, -0.19745880365371704, 0.49548661708831787, -0.32774603366851807, 0.34749770164489746, 0.0002933517098426819, -0.05149073526263237, 0.5840473175048828, 0.02151966094970703, -0.38885629177093506, 0.1665143072605133, -0.27853691577911377, 0.23451681435108185, -0.25945544242858887, -0.35143840312957764, 0.3084360361099243, -0.19552651047706604, -0.36091360449790955, -0.1926243156194687, 0.013862669467926025, 0.3419836759567261, -0.002613842487335205, -0.5155950784683228, 0.479213148355484, -0.5012950897216797, 0.6168373227119446, -0.27955162525177, 0.49697619676589966, 0.3682783842086792, 0.1029382050037384, 0.13921688497066498, -0.05622977018356323, -0.07136636972427368, 0.475629597902298, -0.09263908118009567, -0.0003586951643228531, 0.2504742443561554, 0.8841756582260132, -0.7943854928016663, -0.6926687955856323, -0.3061991035938263, 0.3656436502933502, -0.3663060963153839, 0.13353973627090454, 0.061042770743370056, -0.47685861587524414, -0.5020983219146729, 0.031818270683288574, 0.21756169199943542, 0.3755236864089966, 0.25866228342056274, 0.45641010999679565, 0.32563820481300354, -0.2553381323814392, 0.052044838666915894, -0.05448240041732788, -0.29597651958465576, 0.1325402855873108, 0.2912319600582123, 0.14403454959392548, 0.2019611895084381, 0.23524028062820435, 0.24200570583343506, 0.044762276113033295, -0.33611243963241577, -0.346224308013916, 0.275557279586792, 0.462235689163208, 0.8119193315505981, -0.08424107730388641, -0.6064090728759766, -0.10036680102348328, 0.05922508239746094, -0.18790185451507568, -0.22156210243701935, -0.13055092096328735, 0.5655813813209534, 0.36551380157470703, 0.07759582251310349, -0.446172833442688, -0.03718208521604538, 0.28412213921546936, -0.47236260771751404], [-0.19856756925582886, 0.37553870677948, 0.11420439183712006, -0.3533596396446228, -0.09487569332122803, 0.08424847573041916, 0.4696376323699951, -0.07154923677444458, 0.11074608564376831, 0.33820831775665283, -0.12968313694000244, 0.2904905378818512, 0.09765474498271942, 0.5969765782356262, 0.22303441166877747, 0.8496564626693726, 0.09681281447410583, -0.22571957111358643, 0.364920437335968, -0.36454689502716064, -0.42406165599823, 0.031450606882572174, 0.36650794744491577, -0.3366098999977112, 0.042957305908203125, -0.21818649768829346, 0.13704733550548553, 0.4133690595626831, 0.001883678138256073, -0.1788981556892395, 0.04834194481372833, -0.16654467582702637, -0.39477086067199707, -0.17606675624847412, -0.6307026743888855, 0.2973247766494751, -0.04515477269887924, 0.3948819935321808, -0.3482808768749237, -0.1158435046672821, -0.4086092710494995, 0.054773084819316864, 0.7855675220489502, 0.5312604308128357, -0.6627265810966492, -0.4615964889526367, -0.08494798839092255, 0.31965401768684387, 0.5450915098190308, -0.12996548414230347, -0.2377065271139145, -0.18716251850128174, -0.005453884601593018, 0.36829811334609985, -0.43161439895629883, 0.35715368390083313, -0.011634230613708496, 0.28308165073394775, -0.3502628803253174, 0.16128584742546082, 0.5051158666610718, 0.19963163137435913, -0.40294113755226135, -0.2336725890636444, -0.5079572200775146, -0.22168652713298798, 0.001889832317829132, -0.4562218189239502, 0.3674607276916504, 0.3799382150173187, 0.28801220655441284, 0.0844745934009552, -0.12736506760120392, -0.26300114393234253, 0.14638781547546387, -0.14440420269966125, 0.09774746000766754, 0.08922308683395386, -0.08064357191324234, -0.12707561254501343, -0.003871999680995941, -0.5868444442749023, -0.18210357427597046, -0.06185268610715866, 0.10703389346599579, -0.22215630114078522, 0.6882128715515137, -0.00845402479171753, -0.18295539915561676, 0.07932648807764053, -0.4314013719558716, -0.15876157581806183, -0.43613046407699585, 0.38777604699134827, -0.054894737899303436, -0.006272096186876297, 0.4196949005126953, 0.46978455781936646, -0.1950656771659851, -0.0861792117357254, 0.5294758081436157, 0.09163746237754822, 0.6364132165908813, 0.11085349321365356, -0.41388392448425293, -0.25620076060295105, 0.3591420352458954, -0.14206457138061523, 0.33623379468917847, 0.49583664536476135, 0.3254079818725586, 0.2911038398742676, -0.43108633160591125, 0.32739347219467163, 0.2558417320251465, 0.406991571187973, 0.5167113542556763, 0.052067674696445465, 0.23174597322940826, 0.29970479011535645, -0.3413577973842621, -0.4282945394515991, -0.1336888074874878, -0.008732739835977554, 0.3414417505264282, -0.46995511651039124, -0.2512873113155365, -0.22154812514781952], [-0.3730444610118866, -0.3244546353816986, 0.016470149159431458, -0.32491934299468994, -0.6539086103439331, 0.4207203984260559, -0.15985047817230225, -0.16524213552474976, 0.7429511547088623, -0.5085576772689819, 0.1539837121963501, 0.04608336091041565, -0.5184789896011353, -0.002256155014038086, -0.4026048183441162, 0.04006243869662285, 0.21173200011253357, -0.43273353576660156, -0.2515857517719269, -0.010776251554489136, 0.6558322310447693, -0.33523300290107727, 0.38023585081100464, -0.5191497802734375, -0.35093551874160767, 0.25036829710006714, 0.38856786489486694, 0.33150357007980347, 0.12126617133617401, 0.5436206459999084, 0.5427121520042419, 0.3533461093902588, 0.4801930785179138, 0.25996243953704834, 0.48220574855804443, -0.0015903115272521973, -0.33474066853523254, 0.2813567519187927, -0.2719622254371643, 0.13310843706130981, -0.49636226892471313, -0.5135836601257324, -0.4146462678909302, -0.5565190315246582, 0.4379163980484009, 0.1243581771850586, 0.23670074343681335, 0.10871928930282593, -0.07607519626617432, -0.17948532104492188, -0.41631758213043213, 0.3179299235343933, 0.20070286095142365, 0.2005530148744583, -0.34779638051986694, -0.36330366134643555, -0.5474160313606262, 0.009427851997315884, 0.23197400569915771, -0.6023296117782593, 0.16041304171085358, -0.20023135840892792, 0.4363167881965637, 0.24808631837368011, 0.1058030053973198, -0.1532076895236969, -0.384690523147583, -0.38173240423202515, -0.6800826787948608, 0.5649738311767578, -0.15577346086502075, -0.3871529698371887, -0.3602261543273926, 0.0019888803362846375, -0.1721271276473999, -0.2431008517742157, -0.2166980504989624, 0.0314444899559021, -0.025984585285186768, 0.07054930180311203, -0.3467344343662262, -0.35849136114120483, -0.5711090564727783, 0.09587442874908447, 0.29886266589164734, 0.15429647266864777, 0.4627506136894226, -0.4229416847229004, -0.10837378352880478, -0.05947186052799225, -0.24354073405265808, 0.3471609950065613, 0.4261632561683655, 0.52163165807724, -0.27354609966278076, -0.44171684980392456, 0.041156668215990067, -0.2636662423610687, -0.006150297820568085, 0.45401930809020996, -0.3662782311439514, -0.0996125191450119, -0.23105186223983765, 0.4031055271625519, 0.9358522295951843, 0.062028687447309494, 0.09976661950349808, 0.5194460153579712, 0.42026472091674805, -0.4604654014110565, 0.6521919965744019, -0.0950387716293335, -0.46277743577957153, 0.15643765032291412, -0.026861391961574554, -0.015372097492218018, -0.24939517676830292, -0.5762354135513306, -0.0596163272857666, 0.002251952886581421, -0.19388915598392487, -0.668663740158081, -0.40670472383499146, -0.09758399426937103, -0.197117418050766, -0.44160890579223633, -0.04391144961118698, 0.7118973135948181], [-0.033165574073791504, -0.0804932489991188, -0.13900071382522583, 0.47493624687194824, -0.2456945776939392, 0.38700780272483826, -0.25855064392089844, -0.3897973895072937, -0.3547013998031616, 0.2895004153251648, 0.23955003917217255, 0.4750633239746094, 0.07551787793636322, 0.1506059318780899, -0.009011104702949524, -0.04344567656517029, -0.43851882219314575, 0.20789822936058044, -0.353640615940094, -0.014134138822555542, 0.6054912209510803, -0.7293645739555359, 0.019069932401180267, -0.4141348600387573, 0.2432348132133484, 0.6036320328712463, -0.2714289426803589, 0.29543039202690125, 0.2779468894004822, -0.15303665399551392, 0.5172394514083862, -0.06526929140090942, 0.4850965142250061, 0.22707529366016388, -0.3604351282119751, -0.4257061779499054, -0.21314167976379395, -0.5746561288833618, 0.4151694178581238, -0.2559283673763275, -0.1676669716835022, -0.05241852253675461, 0.6518064737319946, -0.18606340885162354, -0.39767181873321533, 0.09984398633241653, -0.3871912956237793, -0.2576195001602173, 0.2997913062572479, -0.2835105359554291, -0.17759360373020172, -0.33925873041152954, -0.3985278308391571, 0.3984318971633911, 0.04547950625419617, -0.5764062404632568, 0.09326052665710449, 0.36426299810409546, -0.3009187579154968, 0.055060047656297684, -0.3129298686981201, -0.21801471710205078, 0.09272070974111557, 0.00041675567626953125, -0.13078737258911133, -0.00013914704322814941, 0.2780976891517639, -0.22135889530181885, -0.08620840311050415, 0.06071627140045166, -0.0835467278957367, 0.051480311900377274, 0.13136203587055206, -0.10573861747980118, -0.10721343755722046, 0.1807357370853424, -0.6040966510772705, -0.15119364857673645, 0.08562801778316498, 0.8178353309631348, -0.44880571961402893, 0.49891775846481323, 0.3078455328941345, 0.394281804561615, 0.27814579010009766, 0.13104885816574097, -0.45776402950286865, -0.2569403052330017, 0.6707531809806824, 0.31661686301231384, 0.2957964837551117, 0.6741752624511719, -0.2515793442726135, -0.2791469991207123, 0.0690101906657219, -0.3898018002510071, -0.37066859006881714, -0.056519463658332825, -0.032763078808784485, -0.22849208116531372, -0.23015812039375305, 0.39665487408638, -0.8458863496780396, 0.004222597926855087, -0.2974667251110077, -0.06860893964767456, 0.4295365512371063, 0.42175742983818054, 0.09178511798381805, -0.11815427988767624, -0.30200210213661194, -0.25082162022590637, 0.45068973302841187, -0.1316824108362198, 0.3036123514175415, -0.059967041015625, -0.4705241322517395, 0.29249700903892517, -0.3324654698371887, 0.22026222944259644, 0.26963192224502563, 0.37879711389541626, -0.1649978905916214, 0.30616307258605957, 0.5220990777015686, 0.40183401107788086, -0.20183983445167542, -0.35273677110671997], [0.3210723400115967, -0.4301401972770691, 0.22085949778556824, -0.19598890841007233, -0.010230600833892822, -0.040356770157814026, -0.06270456314086914, 0.04481501132249832, -0.12029026448726654, 0.16049602627754211, -0.34018397331237793, 0.24937967956066132, -0.010340392589569092, 0.16946470737457275, -0.3790569007396698, 0.34278690814971924, 0.1815539449453354, 0.24524974822998047, -0.08222558349370956, -0.3687937259674072, -0.2772285044193268, 0.006331995129585266, 0.3526760935783386, -0.022824406623840332, 0.4017934203147888, -0.4409136176109314, 0.2771456241607666, -0.11520463228225708, -0.23572611808776855, -0.35566797852516174, -0.48980993032455444, -0.7035585641860962, -0.26924800872802734, 0.7900818586349487, -0.20172280073165894, 0.212642103433609, -0.15277566015720367, -0.09014271199703217, 0.21153099834918976, -0.09261202812194824, -0.49693578481674194, -0.08402034640312195, -0.353076696395874, -0.26307815313339233, 0.6274707913398743, -0.010219931602478027, -0.08455996215343475, 0.024287104606628418, -0.5797338485717773, 0.3608858585357666, 0.5658331513404846, -0.05165952444076538, 0.41891399025917053, 0.2508276104927063, 0.40686631202697754, -0.3245517611503601, -0.4301157593727112, 0.007574737071990967, -0.3457394242286682, 0.4225756824016571, 0.15047872066497803, -0.49188345670700073, -0.49429723620414734, 0.14442993700504303, -0.14947210252285004, 0.030092351138591766, -0.4330540895462036, -0.4022526443004608, 0.036877453327178955, 0.036519333720207214, 0.12475952506065369, 0.05502235144376755, -0.10531461238861084, -0.48808836936950684, 0.02678287774324417, 0.11943498998880386, 0.44030940532684326, 0.9610280394554138, 0.4401243031024933, 0.41693592071533203, 0.177077516913414, -0.3118498921394348, 0.1820286363363266, 0.6470580697059631, -0.3872643709182739, -0.46654319763183594, -0.09354399144649506, 0.4351468086242676, -0.21412158012390137, 0.20502786338329315, -0.09976816177368164, -0.47733908891677856, -0.3465118110179901, -0.21826614439487457, 0.43139371275901794, 0.5008096694946289, -0.34477588534355164, -0.5707948803901672, 0.0035682693123817444, -0.284307599067688, 0.5574203133583069, 0.18910759687423706, 0.2321767807006836, -0.4921751618385315, 0.16320660710334778, -0.20258741080760956, 0.48675549030303955, 0.0550420768558979, 0.15479110181331635, 0.29994040727615356, -0.21722131967544556, 0.1212228536605835, 0.33751899003982544, 0.07438790053129196, -0.28740668296813965, -0.13205203413963318, -0.21367165446281433, -0.46652501821517944, 0.38874438405036926, -0.7314687371253967, 0.37073007225990295, 0.4365932047367096, -0.05039888620376587, 0.3504348397254944, 0.14339448511600494, 0.5113056898117065, -0.20602494478225708, -0.24003273248672485], [0.4907475411891937, -0.3516096770763397, 0.024291478097438812, -0.5299699902534485, -0.4262502193450928, -0.08375948667526245, 0.12982775270938873, 0.6238551139831543, -0.24522367119789124, -0.5990426540374756, 0.1776638925075531, 0.04335224628448486, -0.06040728837251663, 0.2623831629753113, 0.2872302830219269, -0.12927788496017456, 0.34808897972106934, 0.1837652325630188, -0.15704718232154846, 0.128017857670784, 0.13435684144496918, 0.25125235319137573, -0.18270614743232727, 0.032992586493492126, 0.21909329295158386, 0.21755260229110718, -0.045802921056747437, -0.44576629996299744, -0.6356936097145081, 0.170538529753685, -0.07886944711208344, -0.37503761053085327, -0.018099144101142883, 0.1484687328338623, 0.4813576638698578, -0.053290002048015594, -0.389067143201828, 0.42881372570991516, -0.12583214044570923, -0.398523211479187, 0.9283994436264038, -0.15492887794971466, 0.2994171380996704, 0.2573031485080719, -0.26377156376838684, -0.5341752767562866, 0.1271192729473114, 0.021813377737998962, -0.35457906126976013, 0.3757733702659607, -0.11296544969081879, 0.03409149497747421, 0.34365805983543396, -0.32455116510391235, 0.27568188309669495, 0.6207926273345947, -0.15009737014770508, -0.3293742537498474, -0.4747249186038971, 0.24884653091430664, 0.31016427278518677, -0.17771902680397034, -0.10228073596954346, 0.5701577663421631, -0.5292232036590576, 0.3313591480255127, -0.07455208152532578, 0.002617381513118744, 0.27162325382232666, -0.253417432308197, 0.23080742359161377, 0.49504590034484863, -0.7362412214279175, 0.40053123235702515, -0.22152918577194214, 0.053531013429164886, -0.5369921326637268, -0.015032663941383362, 0.47337764501571655, -0.30956754088401794, -0.30293071269989014, -0.11273115873336792, -0.13152574002742767, 0.2168196439743042, 0.22260013222694397, -0.445595383644104, 0.22481386363506317, -0.04058873653411865, -0.24535125494003296, 0.11496955156326294, 0.16088780760765076, -0.289741575717926, -0.411693274974823, -0.15567992627620697, -0.2875797748565674, -0.37178200483322144, -0.377841055393219, -0.5429543852806091, -0.44763830304145813, -0.24423837661743164, -0.549523115158081, 0.17259114980697632, 0.39475053548812866, -0.31754112243652344, 0.3371625542640686, -0.7236226797103882, 0.23822534084320068, -0.12886428833007812, -0.06082463264465332, -0.20649738609790802, -0.06195760518312454, -0.062194257974624634, 0.4245911240577698, -0.3757157027721405, -0.11022734642028809, 0.1293623298406601, 0.042461320757865906, 0.30865389108657837, -0.4647044241428375, 0.4058229625225067, -0.39872896671295166, -0.4306449294090271, 0.3823806941509247, -0.44124436378479004, 0.113755963742733, 0.0014355182647705078, -0.31664130091667175, 0.5953682065010071], [0.4023086428642273, -0.05530453473329544, -0.37423038482666016, 0.5113668441772461, 0.49850010871887207, 0.46270203590393066, -0.4182739853858948, -0.2569645345211029, -0.28773361444473267, 0.33949416875839233, 0.30216991901397705, -0.1041630357503891, -0.29376906156539917, 0.374137282371521, 0.23377415537834167, -0.01464400440454483, 0.050754547119140625, 0.38591450452804565, -0.061718761920928955, -0.4848955273628235, -0.20019662380218506, 0.41829049587249756, 0.18517369031906128, -0.06435242295265198, 0.2738911509513855, 0.02662760019302368, -0.5460847020149231, -0.23695194721221924, -0.5635465979576111, -0.05694174766540527, -0.18941248953342438, -0.21207433938980103, -0.30929458141326904, -0.32626426219940186, -0.4002717435359955, 0.4948781430721283, 0.39698177576065063, 0.2680544853210449, -0.19352620840072632, 0.22935165464878082, -0.0389237254858017, 0.26568931341171265, -0.0754098892211914, -0.289864182472229, -0.22162282466888428, -0.2586212456226349, -0.15072274208068848, 0.18798881769180298, 0.2889360189437866, -0.3977241516113281, 0.16521918773651123, 0.2968054413795471, 0.02943430095911026, 0.26075083017349243, -0.03585079312324524, -0.14565294981002808, 0.058569855988025665, 0.1552712321281433, -0.515943169593811, -0.4647621810436249, 0.13598552346229553, -0.36553817987442017, -0.3080931007862091, 0.3055848479270935, 0.08845844864845276, 0.2941165864467621, 0.4716998338699341, -0.017252154648303986, -0.4371677041053772, -0.19298581779003143, 0.45304396748542786, 0.45977550745010376, 0.46371132135391235, -0.50334632396698, 0.4578596353530884, -0.3130950927734375, 0.09880900382995605, 0.4194846451282501, 0.22030732035636902, -0.22929756343364716, -0.6908155083656311, -0.14647823572158813, 0.034823618829250336, 0.052334949374198914, 0.46157944202423096, -0.20254185795783997, -0.22087174654006958, 0.13104352355003357, -0.008893847465515137, -0.23002144694328308, 0.22533448040485382, 0.23903793096542358, 0.6292874217033386, 0.02984987199306488, 0.009705133736133575, -0.31105607748031616, 0.43135321140289307, 0.2462204098701477, 0.14575541019439697, 0.24576705694198608, -0.34081071615219116, 0.11217723786830902, -0.41487881541252136, 0.5994752049446106, 0.28528082370758057, -0.2578519582748413, -0.15911650657653809, 0.30821773409843445, 0.4335181713104248, -0.2915586829185486, 0.4614064693450928, 0.3429996371269226, 0.20799100399017334, 0.1760803908109665, -0.2513260841369629, -0.8481736183166504, -0.3637794256210327, -0.005195014178752899, -0.22827494144439697, -0.25546568632125854, 0.07248207181692123, 0.23675593733787537, 0.035490695387125015, 0.46224111318588257, -0.336417555809021, -0.3485965132713318, 0.05293235182762146, -0.5444980263710022], [-0.0200808048248291, -0.2915569543838501, 0.4907618761062622, 0.35108792781829834, 0.1781458705663681, -0.24400284886360168, 0.40365836024284363, -0.3546903431415558, 0.16408175230026245, 0.07050159573554993, 0.005729377269744873, 0.03018467128276825, 0.28192365169525146, -0.30751001834869385, -0.14142900705337524, 0.4973573386669159, -0.3549770712852478, 0.4241907298564911, -0.07872962951660156, 0.26463136076927185, -0.045796141028404236, -0.43955981731414795, -0.22033940255641937, 0.38452112674713135, -0.09655217826366425, 0.08889757096767426, 0.1276015043258667, -0.4625839591026306, 0.42580103874206543, -0.23941954970359802, 0.7700690627098083, -0.8558279871940613, -0.22735314071178436, 0.36593103408813477, -0.2644607126712799, 0.6044197082519531, -0.0755978375673294, -0.11616282910108566, -0.1601533442735672, 0.255192369222641, -0.1342596411705017, 0.3167089819908142, -0.24689079821109772, 0.8829421401023865, -0.08248436450958252, -0.35585150122642517, -0.33596599102020264, -0.507124662399292, 0.16591492295265198, -0.04170810431241989, 0.3890261650085449, 0.4389300048351288, 0.24988937377929688, 0.2333223819732666, -0.07102867215871811, -0.4828203618526459, -0.5629765391349792, -0.24031512439250946, -0.19504418969154358, -0.15657773613929749, -0.2570478022098541, -0.4875760078430176, 0.6612676978111267, 0.4503851532936096, 0.13960318267345428, -0.09377168118953705, -0.38394176959991455, 0.21154296398162842, 0.27768880128860474, -0.25820207595825195, -0.2508482336997986, 0.5509524941444397, 0.3914147913455963, -0.08894921839237213, 0.35927966237068176, -0.3638654351234436, 0.13730669021606445, 0.12104935944080353, -0.27130597829818726, 0.00019224174320697784, 0.10334419459104538, -0.04205067455768585, 0.49423760175704956, 0.135259747505188, 0.36279118061065674, 0.6014518141746521, -0.004457354545593262, -0.061972782015800476, 0.2768239378929138, -0.3719848096370697, -0.14114579558372498, 0.39509373903274536, 0.29813483357429504, 0.27014803886413574, -0.10743685811758041, -0.46563369035720825, -0.0033002495765686035, -0.35549306869506836, 0.14585357904434204, -0.4744042158126831, -0.23309575021266937, -0.6640608310699463, -0.3507324755191803, 0.7731640338897705, -0.3077678084373474, -0.18095999956130981, -0.04454529285430908, -0.06771114468574524, 0.20029330253601074, 0.369790643453598, -0.3810805678367615, 0.0956692099571228, -0.49169206619262695, 0.3955272138118744, 0.2577468752861023, 0.4584149718284607, -0.26433244347572327, -0.2752600908279419, 0.025803565979003906, -0.20660525560379028, 0.3098736107349396, 0.38650745153427124, -0.22516414523124695, -0.01648096740245819, 0.4663514196872711, -0.2022886574268341, 0.13323408365249634, -0.40318626165390015], [-0.3496982455253601, 0.3913566768169403, -0.6132925748825073, 0.10572360455989838, -0.37185150384902954, 0.21813678741455078, 0.4496522545814514, -0.18111872673034668, -0.18204724788665771, -0.021849453449249268, -0.13384880125522614, -0.4141799807548523, 0.25535848736763, -0.07908842712640762, -0.03037741780281067, -0.5215197205543518, 0.38733208179473877, -0.19251412153244019, 0.4685216546058655, -0.43441134691238403, 0.024875223636627197, 0.044762879610061646, 0.48306888341903687, -0.33902642130851746, -0.3219074308872223, 0.1667342334985733, -0.17961111664772034, 0.4895108938217163, 0.4532974362373352, 0.11772790551185608, -0.08308099210262299, 0.2398991584777832, -0.0035755038261413574, -0.041625287383794785, -0.02284081280231476, 0.7052321434020996, -0.1251029223203659, 0.1891477257013321, -0.12467513978481293, 0.41176778078079224, 0.2502751350402832, -0.07769696414470673, 0.34889212250709534, 0.08579984307289124, 0.26661357283592224, -0.33084410429000854, -0.28485414385795593, -0.3841085731983185, -0.38217276334762573, -0.19366127252578735, 0.055138468742370605, 0.3270896375179291, -0.5533126592636108, -0.5176138877868652, 0.5079880952835083, -0.20768225193023682, -0.049721285700798035, 0.10347014665603638, 0.04250150918960571, 0.19252949953079224, 0.3978971242904663, 0.09718072414398193, -0.4493902921676636, -0.4309365153312683, 0.23049785196781158, -0.15835687518119812, -0.3975975513458252, 0.255515992641449, 0.20462225377559662, -0.2858121693134308, 0.09192311763763428, 0.34754180908203125, -0.06545794010162354, 0.09819906949996948, -0.4998309016227722, 0.20475256443023682, 0.39685025811195374, -0.2910974621772766, 0.28041407465934753, 0.11168549954891205, -0.28060290217399597, -0.43699008226394653, 0.49919581413269043, -0.22968986630439758, 0.020995989441871643, 0.05765129253268242, 0.2941941022872925, 0.10746468603610992, 0.25635889172554016, -0.2163042426109314, -0.04308289289474487, 0.5923285484313965, 0.3121948540210724, 0.3867308795452118, -0.6427132487297058, -0.10336107015609741, -0.015265047550201416, -0.056302398443222046, -0.09311041235923767, -0.21104341745376587, -0.1872553825378418, 0.3282923400402069, -0.5481923818588257, -0.07572871446609497, -0.31966468691825867, -0.15137648582458496, 0.30654847621917725, 0.01855025812983513, 0.0915864109992981, 0.06764788925647736, 0.33185112476348877, -0.09755373001098633, 0.3282458186149597, -0.22752442955970764, 0.36235296726226807, -0.22625839710235596, 0.13537998497486115, -0.21312804520130157, 0.42223885655403137, -0.05051982402801514, 0.7514339685440063, 0.33459168672561646, 0.26493197679519653, 0.2748512923717499, -0.41611188650131226, 0.036490023136138916, 0.34235674142837524, -0.06388705968856812], [0.7051701545715332, -0.42163369059562683, -0.20192833244800568, -0.32655277848243713, -0.43922746181488037, -0.51761394739151, -0.07378345727920532, -0.43508803844451904, 0.2730339765548706, 0.13109952211380005, -0.030945606529712677, -0.2998583912849426, 0.2854505181312561, -0.2029021978378296, -0.6484161019325256, 0.2159237265586853, 0.8342294692993164, -0.41453176736831665, 0.36868685483932495, 0.4056856632232666, 0.08033302426338196, 0.4635889530181885, -0.5422695279121399, -0.014798223972320557, 0.06765195727348328, -0.5269802212715149, -0.535086989402771, -0.3627527952194214, -0.4452440142631531, 0.43187379837036133, 0.8024457693099976, -0.10958939790725708, 0.12320315837860107, 0.1367012858390808, 0.17686307430267334, -0.21736103296279907, -0.10247816890478134, 0.13946479558944702, 0.32594001293182373, 0.17570319771766663, 0.03608819842338562, 0.12640607357025146, 0.3845568299293518, 0.35194531083106995, 0.248581200838089, 0.1745283305644989, 0.04571761190891266, -0.18684634566307068, 0.4363202750682831, -0.30448153614997864, 0.06934434175491333, -0.3870871663093567, 0.49854427576065063, 0.1519266963005066, 0.48686933517456055, 0.21786463260650635, -0.449878454208374, 0.5237351655960083, -0.4954535961151123, -0.40424054861068726, -0.20130746066570282, -0.7256412506103516, 0.1236097440123558, 0.46258997917175293, -0.19655834138393402, -0.06740610301494598, 0.38275575637817383, 0.05273190140724182, -0.3823896646499634, -0.6100493669509888, -0.3610439896583557, 0.15109628438949585, 0.16189628839492798, 0.334198921918869, 0.059701740741729736, 0.10264275968074799, 0.2779867351055145, -0.3877149820327759, 0.030316583812236786, -0.8945178389549255, 0.5128815770149231, 0.1736137866973877, 0.10644062608480453, -0.2366778552532196, -0.47839123010635376, 0.0745619684457779, -0.15251058340072632, -0.06654564291238785, -0.5110356211662292, 0.38103556632995605, -0.3543720841407776, -0.13817894458770752, 0.11715781688690186, -0.16373884677886963, -0.18758755922317505, 0.015278652310371399, -0.027780119329690933, 0.0740320086479187, 0.1367192417383194, 0.022011587396264076, 0.2681830823421478, 0.13078619539737701, 0.12782011926174164, -0.2130332589149475, 0.1581110954284668, 0.6039138436317444, -0.5875363349914551, -0.08918710052967072, 0.09272639453411102, 0.29506343603134155, -0.03847417235374451, -0.033112913370132446, -0.46882861852645874, 0.3349353075027466, 0.08265545964241028, 0.0567111074924469, -0.19342952966690063, 0.025371670722961426, -1.0497517585754395, 0.08280819654464722, -0.21681439876556396, 0.24689878523349762, -0.04387260973453522, -0.10020318627357483, 0.36496442556381226, -0.609348475933075, -0.0395137220621109, -0.059603989124298096], [-0.2881191372871399, -0.2018568515777588, -0.17262378334999084, -0.2752887010574341, -0.1313350349664688, 0.09795355796813965, -0.19865655899047852, -0.06670225411653519, 0.12802954018115997, 0.11633080244064331, 0.1842367947101593, 0.4506683051586151, 0.29996514320373535, 0.15288765728473663, -0.08642362058162689, 0.08417713642120361, -0.11857402324676514, -0.24410414695739746, -0.19107353687286377, 0.4734027683734894, -0.24396468698978424, -0.22034801542758942, 0.2873660922050476, 0.7602719664573669, -0.36499109864234924, -0.3522706627845764, 0.23424170911312103, -0.24293018877506256, -0.32733163237571716, 0.0007894635200500488, 0.2299937605857849, 0.6958345174789429, -0.1349671483039856, 0.3782894015312195, -0.06974057853221893, 0.2162579894065857, -0.08629131317138672, 0.11882826685905457, -0.05741702392697334, 0.21273204684257507, -0.24360136687755585, 0.2052343189716339, 0.08912675082683563, -0.21273180842399597, 0.1750488579273224, 0.3703291416168213, -0.14092224836349487, 0.004633903503417969, 0.7181241512298584, -0.4342052638530731, 0.3610821068286896, -0.31589633226394653, 0.7597957849502563, 0.27727046608924866, -0.28969860076904297, -0.11608511209487915, 0.20299410820007324, -0.09777665138244629, -0.27477172017097473, 0.2366880178451538, 0.3008795380592346, 0.2286183387041092, 0.49989619851112366, -0.22714775800704956, -0.27005961537361145, -0.39498192071914673, -0.24266012012958527, -0.4717097282409668, -0.251503050327301, -0.2829631567001343, -0.36388760805130005, 0.2809368371963501, -0.12732826173305511, 0.155429869890213, -0.31334179639816284, -0.09433338046073914, -0.38236287236213684, -0.033341825008392334, 0.25155404210090637, -0.02389700710773468, 0.6811718940734863, 0.019962482154369354, -0.18136221170425415, -0.31319862604141235, 0.10685718059539795, 0.262773722410202, -0.05254068970680237, -0.3397318720817566, -0.2039942741394043, 0.30043667554855347, -0.31658393144607544, 0.3600207567214966, 0.29666072130203247, 0.3849356770515442, 0.2335820496082306, -0.18635883927345276, 0.5830913782119751, 0.05921727418899536, 0.375140905380249, 0.2542714476585388, 0.1765071451663971, -0.2239343523979187, 0.17814554274082184, 0.44144368171691895, -0.6221271753311157, 0.23306530714035034, -0.07238970696926117, 0.4881986379623413, -0.3140704035758972, -0.084675133228302, -0.7410147190093994, 0.06959453970193863, 0.1268063485622406, -0.15154778957366943, -0.2223263382911682, -0.12179969996213913, -0.02413516491651535, 0.15454654395580292, 0.15141382813453674, -0.32658329606056213, 0.18977664411067963, -0.4929834008216858, -0.29909080266952515, -0.10214833915233612, -0.3498119115829468, 0.5524604320526123, 0.20814305543899536, -0.42036667466163635], [0.28496822714805603, 0.1352291852235794, 0.18016831576824188, -0.4559316337108612, -0.4031980633735657, -0.47107723355293274, -0.34105461835861206, -0.14888951182365417, 0.07376061379909515, 0.10760742425918579, -0.043167054653167725, 0.5001007318496704, -0.3521703779697418, 0.39319470524787903, 0.5296576023101807, -0.43611449003219604, -0.1627488136291504, 0.4213603436946869, -0.2719935178756714, -0.026168543845415115, 0.1761331409215927, -0.4773080348968506, 0.307394802570343, 0.24632880091667175, -0.0679200291633606, -0.13522881269454956, 0.10776366293430328, 0.41050904989242554, -0.13070893287658691, -0.17481198906898499, 0.43457287549972534, 0.10728615522384644, -0.07023712992668152, 0.4422244131565094, 0.3586295247077942, -0.029301166534423828, -0.3465923070907593, -0.4491269588470459, 0.021362483501434326, 0.5704831480979919, 0.7168251872062683, 0.29538556933403015, -0.12444368004798889, -0.2807222008705139, -0.28133243322372437, 0.22404895722866058, 0.43559446930885315, -0.15399599075317383, 0.13783493638038635, 0.3838658332824707, 0.05104878544807434, -0.4391063153743744, 0.2327825278043747, -0.2815287113189697, 0.3334178626537323, -0.5409313440322876, 0.08559881150722504, 0.12958191335201263, -0.7757150530815125, 0.4390931725502014, 0.09492660313844681, 0.216902494430542, 0.563312292098999, -0.2804175019264221, -0.3357357084751129, 0.14773660898208618, -0.19191651046276093, -0.137483611702919, 0.4031156897544861, 0.1425877809524536, 0.3899618089199066, -0.19825151562690735, 0.4765700697898865, 0.22249113023281097, 0.027367405593395233, 0.29808172583580017, 0.37233150005340576, -0.3153533637523651, -0.0927809327840805, -0.7498289942741394, -0.3647703230381012, -0.3064907193183899, 0.6339983940124512, -0.49466803669929504, -0.08419348299503326, 0.47258585691452026, -0.2308221310377121, 0.20807184278964996, -0.28116166591644287, 0.2762530744075775, 0.3075052797794342, -0.0594354048371315, 0.10168207436800003, 0.6056616306304932, -0.17906373739242554, 0.07438939064741135, -0.11042363941669464, 0.3903174102306366, -0.48171502351760864, -0.4736331105232239, -0.2157360315322876, -0.3153753876686096, -0.182152658700943, -0.10137344896793365, 0.10095514357089996, 0.12842150032520294, 0.3477521240711212, 0.369472861289978, 0.11497282981872559, -0.012982577085494995, 0.5308369994163513, -0.1215570718050003, 0.4394679665565491, -0.11028232425451279, 0.13518886268138885, -0.4703265428543091, -0.28126388788223267, -0.46110183000564575, -0.3248949646949768, 0.31146571040153503, 0.3549885153770447, 0.21155253052711487, -0.29718074202537537, -0.4344404339790344, 0.2554267346858978, -0.04084344208240509, -0.5205405354499817, 0.3782823383808136], [0.34573787450790405, 0.41951265931129456, 0.47327643632888794, 0.34888118505477905, -0.19299882650375366, 0.16805323958396912, 0.08256696909666061, 0.40443894267082214, -0.3116169571876526, 0.03659236431121826, -0.1351647824048996, 0.07375378906726837, 0.1798437237739563, 0.008845627307891846, -0.3217623233795166, 0.5239498019218445, -0.5593929290771484, 0.7334901094436646, 0.06588494777679443, 0.4421706199645996, 0.317935973405838, 0.14671653509140015, -0.08654792606830597, 0.013522692024707794, 0.061583638191223145, -0.15690544247627258, -0.12418492883443832, 0.18764281272888184, -0.4224904477596283, -0.4684867262840271, -0.33375388383865356, 0.018686026334762573, 0.17782950401306152, -0.47881460189819336, 0.0005142539739608765, 0.25149595737457275, -0.297325074672699, 0.30229878425598145, 0.2679901123046875, -0.35708004236221313, -0.08416581898927689, -0.5327340364456177, 0.11466556787490845, 0.16567568480968475, 0.03739345073699951, -0.5948315262794495, 0.11544784903526306, 0.7100006341934204, 0.273112416267395, 0.5378561615943909, 0.005437284708023071, 0.11374148726463318, -0.42162686586380005, -0.2927560806274414, -0.2532036006450653, 0.21074867248535156, 0.26940640807151794, -0.22338014841079712, -0.16088470816612244, -0.38168859481811523, -0.3986431956291199, 0.14722101390361786, 0.21221326291561127, -0.5757057070732117, -0.1945689171552658, -0.08789990842342377, -0.48154911398887634, -0.4527127742767334, 0.4582977890968323, 0.03080620989203453, 0.1959395408630371, 0.18715733289718628, 0.4230422377586365, 0.09997588396072388, -0.3243638277053833, 0.24762564897537231, 0.4455541968345642, -0.2555226683616638, -0.3915925920009613, 0.411379337310791, 0.28801506757736206, -0.4881386160850525, -0.02242352068424225, 0.7089802622795105, -0.016754701733589172, -0.10992461442947388, 0.6506513953208923, -0.21340051293373108, 0.4664618670940399, -0.18959712982177734, 0.2850207984447479, -0.32827284932136536, 0.048267245292663574, 0.34472641348838806, -0.00989658385515213, -0.3882646858692169, 0.31353840231895447, -0.24004307389259338, 0.3004574477672577, 0.1658654659986496, 0.27798280119895935, 0.3599935472011566, -0.3318854570388794, 0.5111792683601379, -0.47216862440109253, 0.5723026990890503, 0.5097307562828064, -0.34929144382476807, 0.37417536973953247, -0.32265913486480713, -0.08887001872062683, -0.6591764688491821, -0.1279856413602829, 0.5271424055099487, 0.1915203034877777, -0.7266099452972412, 0.21138404309749603, 0.22434990108013153, 0.4909217655658722, -0.13710449635982513, -0.3313150405883789, 0.15948671102523804, -0.21637989580631256, 0.2664569914340973, 0.35764530301094055, -0.9939305782318115, 0.39397773146629333, 0.2524430751800537], [-0.6809601783752441, -0.1916642189025879, -0.23953890800476074, 0.01149728149175644, -0.4261142313480377, -0.07280310988426208, 0.20354819297790527, -0.2288721203804016, 0.15729521214962006, -0.03876177966594696, 0.6897032260894775, -0.008058086037635803, -0.3817495107650757, -0.22506195306777954, 0.41932910680770874, 0.18941698968410492, -0.025587312877178192, 0.3139355182647705, -0.26837068796157837, -0.11414337158203125, 0.2596495449542999, 0.3217032551765442, 0.4137204587459564, 0.09426015615463257, 0.22956712543964386, -0.33202511072158813, -0.1088893711566925, -0.564076840877533, -0.23878008127212524, -0.27794623374938965, -0.6141588091850281, 0.1629989743232727, -0.022277474403381348, -0.5279322862625122, 0.3361026644706726, -0.32547807693481445, 0.24842429161071777, 0.5375863313674927, 0.04947442188858986, 0.0848311334848404, -0.06453022360801697, 0.20918826758861542, -0.2852189242839813, -0.1924491673707962, 0.17811879515647888, 0.15902534127235413, 0.3838336169719696, 0.04083782434463501, 0.1006428450345993, 0.23679639399051666, 0.2032850980758667, -0.3912684917449951, 0.3835676610469818, -0.34943586587905884, 0.41561758518218994, -0.1907118558883667, 0.06884068250656128, -0.10962733626365662, 0.5820370316505432, 0.6109205484390259, -0.11306798458099365, -0.0889354944229126, -0.3956790864467621, 0.2773151695728302, 0.0785740315914154, -0.5346330404281616, -0.20526222884655, 0.37872713804244995, 0.10216856002807617, -0.4022655487060547, 0.24421346187591553, 0.35843032598495483, -0.16315004229545593, 0.36152559518814087, -0.054521769285202026, 0.12345235049724579, 0.1488262414932251, 0.09697242081165314, -0.06314140558242798, 0.31573328375816345, -0.31505632400512695, 0.02802252769470215, -0.08566728234291077, -0.07987427711486816, 0.35051989555358887, 0.06480200588703156, 0.14047682285308838, -0.10143058747053146, -0.24645410478115082, 0.15947970747947693, -0.7008460760116577, -0.2914748191833496, 0.3963296413421631, 0.5180774927139282, 0.23455508053302765, -0.12764832377433777, 0.34963029623031616, -0.1075914055109024, 0.04535038024187088, -0.43786048889160156, -0.06585603952407837, -0.4607202410697937, 0.08347189426422119, -0.22996926307678223, 0.4964001178741455, -0.0964777022600174, -0.05945408344268799, 0.12492058426141739, 0.31933653354644775, -0.5600050091743469, 0.1369149088859558, -0.1987607777118683, 0.14117781817913055, -0.3369799852371216, 0.5147753953933716, 0.36327821016311646, -0.2959669232368469, 0.3580498695373535, 0.14094765484333038, 0.2045227587223053, 0.37440168857574463, 0.46464407444000244, -0.08188903331756592, -0.3766416907310486, -0.6873114109039307, -0.3941042423248291, -0.0621771365404129, 0.07528799772262573], [0.5843443870544434, -0.005454719066619873, -0.26236435770988464, 0.2529895305633545, -0.039937809109687805, -0.1730322241783142, -0.027657002210617065, 0.19974303245544434, 0.0567106157541275, -0.3672447204589844, 0.015657231211662292, 0.041332170367240906, -0.3264757990837097, -0.463581383228302, -0.1970071792602539, 0.17296099662780762, -0.4192189574241638, 0.3353332281112671, 0.5524735450744629, -0.22603023052215576, 0.31121131777763367, 0.43284761905670166, -0.053052350878715515, -0.425362229347229, 0.2237747311592102, 0.4364025592803955, -0.1123708188533783, 0.5275629162788391, -0.38423752784729004, 0.24855101108551025, 0.3112313151359558, 0.4242238998413086, -0.5965460538864136, -0.2665410041809082, -0.0540522038936615, 0.38691240549087524, -0.11720985174179077, -0.05279117822647095, 0.47875386476516724, 0.2360551655292511, -0.34004759788513184, 0.42678117752075195, -0.2825351357460022, 0.5289354920387268, 0.32599395513534546, -0.4213724732398987, 0.32348987460136414, -0.22537344694137573, 0.16946564614772797, -0.30788254737854004, -0.10040289163589478, 0.06213448941707611, -0.422041654586792, 0.43741679191589355, -0.7997751832008362, 0.038972944021224976, -0.31423676013946533, -0.06558088958263397, -0.022580809891223907, -0.0957176685333252, 0.535370945930481, 0.3840557336807251, 0.29577046632766724, 0.1975724697113037, -0.0833040103316307, 0.011596977710723877, -0.017670821398496628, 0.3497254252433777, -0.17433303594589233, 0.12471902370452881, -0.4523940086364746, -0.035976290702819824, 0.1353195309638977, -0.39850616455078125, 0.2820036709308624, -0.21913760900497437, -0.44400542974472046, 0.33493921160697937, -0.5175825357437134, 0.07164385914802551, -0.12319797277450562, -0.0860176682472229, 0.5892083048820496, 0.23514752089977264, -0.17449243366718292, -0.37083250284194946, -0.21656674146652222, 0.17193123698234558, 0.20903681218624115, 0.5028782486915588, 0.31983107328414917, -0.3163074851036072, 0.35771238803863525, -0.19597849249839783, -0.13853977620601654, -0.2835260033607483, -0.3488008379936218, 0.11365295946598053, -0.49232786893844604, 0.47304242849349976, 0.1306343376636505, 0.37867921590805054, -0.29782992601394653, -0.2626558542251587, 0.5444220304489136, -0.05830502510070801, 0.5394640564918518, 0.5335844159126282, -0.3754934072494507, 0.4416373372077942, 0.5231274366378784, 0.4802853465080261, 0.12104575335979462, 0.3184201121330261, -0.2750076353549957, -0.4343346059322357, 0.3645055890083313, 0.20949338376522064, 0.003094930201768875, 0.17541611194610596, -0.012689530849456787, 0.1822228878736496, 0.46680861711502075, 0.4966447353363037, -0.20509642362594604, 0.22844994068145752, -0.4366207420825958, 0.08286511898040771], [-0.33858996629714966, 0.10332933068275452, -0.14336645603179932, -0.026524469256401062, -0.017825305461883545, -0.06420240551233292, 0.1852746158838272, 0.09749831259250641, 0.03966027498245239, 0.010969176888465881, -0.1013566106557846, -0.01153339073061943, 0.017956554889678955, -0.5269928574562073, -0.1552201509475708, -0.09969747066497803, 0.3973596692085266, -0.6357614398002625, -0.10079248249530792, 0.2657463252544403, -0.09829845279455185, 0.11791587620973587, 0.524917483329773, -0.46624240279197693, -0.5378497838973999, 0.3889147937297821, 0.6137997508049011, 0.17787553369998932, -0.2884064316749573, -0.048093974590301514, 0.07692402601242065, -0.44165754318237305, -0.9276044964790344, 0.41993609070777893, -0.21607109904289246, 0.3907163143157959, -0.00840073823928833, 0.15045222640037537, -0.5862157344818115, -0.008402258157730103, -0.365174800157547, -0.4937102496623993, -0.32459843158721924, -0.11847229301929474, -0.19154495000839233, 0.6392817497253418, 0.06244140863418579, -0.314953088760376, 0.4911962151527405, 0.3855434060096741, 0.24055583775043488, -0.633819580078125, 0.04491216689348221, -0.10714191198348999, -0.5406642556190491, 0.5851849317550659, -0.257408082485199, -0.6390553116798401, 0.2702012062072754, -0.3006855249404907, -0.3755539655685425, -0.07672417163848877, -0.39008140563964844, 0.1355232298374176, 0.5339524745941162, 0.1822141408920288, -0.38122421503067017, -0.022383958101272583, 0.4369150400161743, 0.01065913587808609, 0.3359506130218506, 0.10913330316543579, 0.5911359786987305, 0.4574100971221924, 0.17086952924728394, 0.3623533248901367, 0.641577422618866, -0.29964613914489746, 0.7467378973960876, 0.30363866686820984, -0.04928687959909439, 0.48816221952438354, 0.4277803897857666, 0.5357155799865723, -0.4186541438102722, 0.36307644844055176, 0.016893649473786354, 0.2434222549200058, 0.5084361433982849, 0.05784720182418823, -0.1448899507522583, 0.28483396768569946, -0.2377418428659439, -0.5459665656089783, 0.05636722967028618, 0.09427428245544434, 0.386147141456604, -0.0009737759828567505, -0.0839754045009613, 0.3800709843635559, -0.21227812767028809, -0.1707238405942917, -0.6643537878990173, 0.4439471960067749, 0.42271164059638977, 0.16939933598041534, 0.035810306668281555, -0.1375240683555603, 0.704703688621521, 0.18485672771930695, 0.24480155110359192, 0.10405679792165756, -0.3502349257469177, 0.11374591290950775, -0.6673305034637451, 0.31581050157546997, 0.6557786464691162, 0.44617241621017456, 0.0774422287940979, -0.11340491473674774, -0.43625208735466003, -0.08953645825386047, 0.23135972023010254, -0.39506059885025024, -0.5356417894363403, -0.02996978908777237, 0.018450245261192322, 0.01645519956946373]], "hidden_weights": [[-0.32221290469169617, -0.5832675695419312, 0.10113247483968735, 0.37278497219085693, 0.42566898465156555, 0.3840697407722473, -0.21884971857070923, 0.7301869988441467, 0.006493721157312393, 0.2564036548137665, -0.5038471221923828, 0.29318857192993164, 0.634777307510376, 0.09834374487400055, -0.03306591510772705, 0.08916544914245605, -0.015577688813209534, 0.42662978172302246, -0.06357431411743164, -0.28385573625564575, 0.27736786007881165, -0.4585684835910797, 0.14384233951568604, 0.3571074604988098, 0.024934828281402588, -0.3300335109233856, -0.6486790776252747, 0.3234894275665283, -0.4419114291667938, -0.44745147228240967, 0.2417128086090088, 0.3654438555240631, 0.2000238597393036, -0.5376243591308594, -0.571381688117981, -0.2478005290031433, -0.14035916328430176, 0.0725908949971199, 0.12432152032852173, 0.3790866434574127, -0.14252936840057373, -0.33219581842422485, 0.28023988008499146, 0.25007501244544983, 0.3323456943035126, -0.2823522686958313, -0.4454551637172699, 0.2337529957294464, 0.17805832624435425, 0.16113586723804474, -0.16303664445877075, 0.7574469447135925, -0.04229731112718582, -0.4621512293815613, 0.24067416787147522, 0.022608458995819092, 0.13011857867240906, -0.19808802008628845, -0.06717842817306519, -0.11935076117515564, 0.49493110179901123, -0.4994787275791168, 0.2260807752609253, -0.12886673212051392], [0.8696101307868958, 0.037870846688747406, -0.3643120527267456, 0.1718771606683731, -0.16350901126861572, 0.4589061439037323, -0.8238769173622131, -0.22558677196502686, 0.8228745460510254, 0.4500473737716675, -0.29268941283226013, 0.2155124843120575, 0.06456806510686874, 0.06430848687887192, 0.2156451791524887, 0.34888243675231934, 0.40722617506980896, 0.03545951843261719, 0.4631960093975067, -0.31815746426582336, 0.35000473260879517, -0.5559724569320679, 0.36066362261772156, 0.20842795073986053, -0.21624156832695007, -0.10106432437896729, -0.14144770801067352, 0.0006896406412124634, -0.772037923336029, 0.07402586936950684, -0.30440014600753784, -0.12689143419265747, 0.3808057904243469, 0.2232125699520111, -0.5284271836280823, -0.2242673635482788, 0.040382564067840576, -0.7524338960647583, 0.25722968578338623, 0.08094251155853271, -0.8076369762420654, -0.11025786399841309, -0.30159497261047363, 0.25254687666893005, 0.1860428750514984, -0.41874194145202637, 0.3425102233886719, -0.012701837345957756, -0.21676695346832275, -0.25614944100379944, -0.3253253400325775, -0.14043188095092773, -0.047365546226501465, -0.636789858341217, -0.25025489926338196, 0.09481105208396912, 0.23519647121429443, 0.4896225929260254, 0.18552187085151672, -0.04164695739746094, -0.005616012029349804, 0.4390852451324463, -0.19006875157356262, 0.692377507686615], [-0.28366339206695557, -0.0696820393204689, 0.09574544429779053, 0.6814696788787842, -0.3234958350658417, 0.15508386492729187, 0.17083227634429932, 0.35463517904281616, 0.11757183074951172, 0.2512565851211548, -0.7378705143928528, -0.4522077441215515, -0.3706265091896057, -0.22529160976409912, -0.1328974962234497, -0.24544712901115417, 0.2776169776916504, -0.13391974568367004, -0.4281775951385498, 0.14224378764629364, -0.3135751485824585, -0.1527176797389984, 0.46304792165756226, 0.2144375443458557, -0.9505383968353271, -0.13603082299232483, -0.5406311750411987, -0.18652011454105377, -0.15923874080181122, 0.3964017629623413, 0.33478254079818726, -0.20943346619606018, -0.49928605556488037, 0.5294355154037476, 0.11867814511060715, -0.4649730324745178, -0.36458009481430054, 0.12058161944150925, -0.43977421522140503, 0.5005266666412354, -0.2276773452758789, 0.4733654856681824, 0.45621567964553833, -0.48646438121795654, -0.20832166075706482, -0.062090978026390076, -0.11901074647903442, 0.022491931915283203, 0.14945612847805023, -0.36257418990135193, -0.39933323860168457, -0.15371491014957428, 0.008630156517028809, 0.047147490084171295, -0.05080576241016388, -0.4644051194190979, -0.22041790187358856, 0.5067777633666992, 0.3326735496520996, -0.2523532509803772, -0.47779518365859985, -0.8405038118362427, 0.013683527708053589, -0.11219483613967896], [-0.21276408433914185, -0.3130599856376648, -0.14145278930664062, -0.2824326455593109, -0.41789352893829346, 0.06763657927513123, 0.37484002113342285, -0.07597584277391434, -0.16716022789478302, -0.16256462037563324, 0.28187131881713867, 0.33233562111854553, 0.13854265213012695, -0.24953243136405945, -0.27073270082473755, -0.4489825367927551, 0.5223299264907837, -0.3179554045200348, -0.559356689453125, 0.5103228688240051, -0.5965376496315002, 0.027417004108428955, 0.7081940174102783, 0.23963801562786102, -0.3361195921897888, 0.03523671627044678, 0.12322983145713806, 0.182503342628479, -0.19152510166168213, -0.0070149898529052734, -0.2055140733718872, -0.5560295581817627, 0.394765168428421, -0.17108264565467834, -0.146930992603302, -0.1849229335784912, 0.07884402573108673, -0.013813495635986328, -0.1248294785618782, -0.6166789531707764, 0.03640037775039673, -0.13968685269355774, 0.3411513566970825, 0.6665003299713135, -0.27320998907089233, -0.26576998829841614, -0.23481571674346924, -0.5075238943099976, -0.7504645586013794, -0.4132916331291199, 0.2490849494934082, 0.5089665055274963, 0.09942525625228882, -0.2844504117965698, 0.21471863985061646, -0.7529674172401428, 0.10431403666734695, 0.48564109206199646, 0.4577889144420624, -0.4936663508415222, -0.16279643774032593, 0.1707582026720047, 0.690629243850708, 0.18216678500175476], [0.66456139087677, -0.28284570574760437, -0.09482812881469727, -0.5966906547546387, 0.609015941619873, -0.5111640691757202, 0.035668134689331055, 0.35903966426849365, 0.34178483486175537, -0.03704705834388733, -0.39970093965530396, -0.4220067858695984, 0.6724533438682556, -0.41136449575424194, -0.32257574796676636, 0.18446084856987, -0.04018402099609375, -0.27887848019599915, 0.37712177634239197, 0.0327569842338562, 0.23147758841514587, -0.3862139582633972, 0.19539505243301392, -0.4009300470352173, -0.05370427668094635, -0.18531620502471924, -0.8006322383880615, -0.4992174506187439, 0.21703960001468658, -0.914442777633667, -0.3846874535083771, -0.12895792722702026, 0.21551181375980377, 0.15218597650527954, 0.20182736217975616, -0.47333329916000366, -0.11256759613752365, -0.2955474853515625, -0.1445363610982895, -0.2367880642414093, 0.02781468629837036, 0.13670790195465088, 0.27286016941070557, -0.24151821434497833, -0.46970945596694946, 0.31690144538879395, 0.28353607654571533, -0.36373171210289, 0.2579662799835205, -0.35050487518310547, -0.5847254991531372, -0.6658828258514404, -0.09010528028011322, 0.1541961431503296, -0.29424208402633667, 0.09669778496026993, -0.12418679893016815, -0.27523356676101685, -0.17029957473278046, -0.22993016242980957, 0.3333944082260132, -0.20771300792694092, 0.23567147552967072, 0.302001953125], [0.4404401481151581, 0.7526734471321106, 0.47461599111557007, -0.24492622911930084, -0.4731104373931885, 0.7521704435348511, -0.3798356056213379, -0.5453141331672668, -0.44579675793647766, 0.03949233889579773, -0.32579755783081055, -0.2406729757785797, 0.08161535859107971, -0.37379854917526245, -0.07979631423950195, -0.3533064126968384, -0.24910029768943787, 0.18576127290725708, 0.47748100757598877, 0.2830817699432373, 0.20754468441009521, 0.44318562746047974, -0.02494579553604126, -0.04510466754436493, -0.4244602918624878, -0.37581056356430054, 0.16761456429958344, -0.14822886884212494, -0.34067440032958984, -0.06970901787281036, 0.2127842903137207, 0.14844322204589844, -0.4348362684249878, -0.3186686933040619, -0.7451586723327637, 0.13951565325260162, -0.4995555281639099, 0.2859126627445221, -0.09855625033378601, -0.31528568267822266, -0.3133952021598816, -0.150644451379776, 0.18900957703590393, 0.2003837525844574, -0.989111065864563, 0.3320651650428772, -0.5264459848403931, 0.03318598121404648, -0.2160017341375351, 0.40663135051727295, -0.22528371214866638, 0.023829400539398193, 0.23075895011425018, -0.8309918642044067, -0.05134129524230957, -0.010304167866706848, 0.16343897581100464, -0.157892644405365, 0.13987839221954346, 0.1815108358860016, -0.3504507541656494, 0.28116825222969055, 0.03975194692611694, -0.25364938378334045], [-0.09082570672035217, -0.2029571831226349, -0.408943235874176, -0.3453857898712158, 0.4271562397480011, -0.5901311039924622, 0.5679411888122559, -0.24280332028865814, -0.4285285472869873, -0.168492391705513, -0.4783242344856262, 0.24967917799949646, 0.5233782529830933, -0.3495483994483948, 0.08209700882434845, 0.2492566555738449, 0.33073773980140686, -0.47187966108322144, -0.16800850629806519, -0.48865318298339844, 0.2253132462501526, 0.2497984766960144, -0.2538659870624542, 0.08975791931152344, 0.425201952457428, 0.49738752841949463, -0.23519599437713623, -0.6598092317581177, -0.4219096302986145, -0.1522051841020584, -0.3447797894477844, 0.11141854524612427, 0.30523329973220825, 0.1076800525188446, -0.1415778398513794, 0.27036774158477783, 0.05953128635883331, 0.0010155029594898224, -0.28098398447036743, -0.2444600611925125, -0.2372117042541504, -0.8263631463050842, 0.20928198099136353, 0.21955756843090057, 0.3518489599227905, 0.2063153088092804, -0.22158420085906982, -0.04524170607328415, 0.6265435814857483, 0.2114689201116562, -0.13614508509635925, -0.24699927866458893, 0.25113242864608765, 0.20558878779411316, -0.16194270551204681, 0.426300585269928, -0.1438058316707611, -0.14265947043895721, 0.0227578803896904, 0.38693541288375854, -0.463236927986145, -0.1867254674434662, -0.40674906969070435, -0.2264752835035324], [0.35057252645492554, 0.334181547164917, -0.3275788128376007, -0.2005155086517334, -0.4124149680137634, 0.28257372975349426, 0.011568520218133926, 0.14411787688732147, -0.3515609800815582, -0.4945543706417084, -0.32182419300079346, 0.48052161931991577, -0.5456451177597046, -0.6326799392700195, 0.2458849847316742, 0.1907416135072708, 0.4453084468841553, 0.5510532855987549, -0.233631432056427, 0.13588783144950867, 0.16176754236221313, -0.33713871240615845, 0.32327938079833984, -0.06594514846801758, 0.3847116529941559, -0.4026426076889038, -0.6824617981910706, -0.2955900728702545, -0.302511990070343, -0.12488964200019836, 0.1767600178718567, 0.47777408361434937, -0.30288663506507874, -0.07890325784683228, 0.23391705751419067, -0.400535523891449, -0.29603278636932373, 0.22668959200382233, 0.4215771555900574, 0.30235981941223145, 0.392295777797699, -0.29399561882019043, -0.14159585535526276, 0.1834765076637268, 0.5280308127403259, -0.49124082922935486, -0.6126139163970947, -0.5816587209701538, 0.3915211856365204, -0.2300514429807663, 0.40280860662460327, 0.41650527715682983, 0.3123924136161804, -0.1199931651353836, 0.2766457796096802, -0.6046438217163086, -0.3045003414154053, 0.2116692066192627, 0.488541841506958, 0.5139895677566528, 0.5792645215988159, 0.18199333548545837, 0.26633793115615845, -0.5816507339477539], [0.08450132608413696, -0.3203827440738678, -0.0976695567369461, 0.0021981000900268555, -0.4775233268737793, 0.26961058378219604, 0.33296215534210205, 0.26414939761161804, -0.031084485352039337, 0.1617097109556198, -0.17108899354934692, 0.011020094156265259, -0.17229053378105164, 0.6596673727035522, 0.4176636338233948, -0.12907622754573822, -0.27186286449432373, 0.4626661539077759, -0.2996973991394043, 0.288513720035553, -0.3595719337463379, -0.36063218116760254, 0.0008445680141448975, 0.19331340491771698, -0.20520828664302826, -0.1753453016281128, -0.21357157826423645, -0.3361744284629822, 0.03814204782247543, 0.025271650403738022, 0.43888533115386963, -0.4390840530395508, 0.06566634774208069, 0.31381726264953613, -0.4907916188240051, -0.09778255224227905, 0.5250164866447449, -0.3840104937553406, 0.14600244164466858, -0.22515255212783813, 0.08418901264667511, -0.169334277510643, 0.3633957505226135, -0.18618756532669067, 0.20051519572734833, 0.22208556532859802, 0.27918103337287903, -0.4207483232021332, 0.01582466810941696, 0.16125060617923737, -0.37650012969970703, -0.3893703818321228, 0.06697399914264679, -0.3862423896789551, -0.5010945200920105, 0.500015377998352, 0.29628121852874756, 0.3592405319213867, -0.392293781042099, 0.14420229196548462, -0.0850464329123497, -0.36763739585876465, 0.2981056571006775, 0.07954969257116318], [0.14486370980739594, 0.05384337902069092, 0.04001966118812561, 0.4810606837272644, -0.4999416470527649, 0.6858788728713989, -0.038291238248348236, -0.3433328866958618, 0.37442028522491455, 0.3313584327697754, 0.4217901825904846, 0.09166675060987473, -0.6266879439353943, -0.2171725034713745, -0.40172040462493896, -0.2826569378376007, 0.3496183753013611, 0.3718881607055664, 0.06705817580223083, -0.2918514013290405, -0.08730713278055191, -0.22111976146697998, 0.013533040881156921, -0.05028335750102997, -0.01743108034133911, 0.4786831736564636, 0.44505786895751953, -0.1938822716474533, 0.6411809325218201, -0.4354688823223114, 0.17568454146385193, 0.17506533861160278, -0.19734227657318115, 0.3628886938095093, -0.10131245851516724, 0.3599087595939636, 0.019494637846946716, 0.30542153120040894, 0.055485934019088745, 0.35139036178588867, 0.2835800051689148, 0.573759138584137, -0.3645128011703491, 0.49233490228652954, 0.19462960958480835, 0.37023019790649414, 0.33905136585235596, 0.4272063374519348, 0.07452939450740814, 0.3295123875141144, 0.29305535554885864, 0.681600034236908, -0.28187820315361023, 0.09296184778213501, -0.7623049020767212, -0.07659433782100677, -0.10592619329690933, 0.3102269768714905, -0.21091100573539734, 0.20106957852840424, 0.0530213788151741, 0.08716316521167755, -0.1346384882926941, -0.27858126163482666], [0.32962626218795776, -0.06577425450086594, 0.49930888414382935, 0.04015856236219406, -0.31157106161117554, 0.45349985361099243, 0.24095582962036133, 0.29501891136169434, 0.10261894762516022, -0.3728499412536621, 0.0703553855419159, 0.1705314815044403, 0.2269992232322693, 0.483748197555542, -0.3364121913909912, -0.05974617600440979, 0.5092164278030396, 0.0988692194223404, -0.5343335866928101, -0.24257570505142212, -0.12614503502845764, 0.6989494562149048, 0.11562162637710571, 0.018700525164604187, 0.07548725605010986, -0.27079474925994873, 0.18131035566329956, 0.33004286885261536, -0.036839403212070465, -0.1066393256187439, -0.3210657835006714, 0.1804027557373047, 0.04319360852241516, 0.3057098984718323, -0.4142208695411682, -0.43866878747940063, 0.48287925124168396, -0.21199411153793335, -0.2136794775724411, -0.01910652220249176, -0.07220983505249023, 0.43091750144958496, 0.18716569244861603, -0.33777669072151184, -0.21304987370967865, 0.15978026390075684, 0.6807200908660889, 0.09864537417888641, 0.45500656962394714, -0.35313767194747925, -0.39750146865844727, -0.33847159147262573, -0.26943913102149963, -0.496654212474823, -0.3693685531616211, -0.10734448581933975, 0.7069067358970642, 0.05993406102061272, -0.6464354991912842, -0.5692628622055054, -0.42542728781700134, -0.27824681997299194, -0.24632811546325684, -0.10026943683624268], [0.37023910880088806, 0.17253896594047546, 0.08831755816936493, -0.19379691779613495, -0.055514998733997345, 0.35350486636161804, 0.14655885100364685, 0.4281601905822754, -0.33332985639572144, 0.1233283281326294, -0.611045777797699, 0.005094483494758606, 0.5579583048820496, -0.004147559404373169, 0.316980242729187, 0.16816315054893494, 0.21165356040000916, -0.47766053676605225, 0.1634623408317566, -0.5838666558265686, -0.2437673807144165, 0.4826362729072571, -0.44577789306640625, -0.10361365973949432, -0.620550274848938, 0.4967770576477051, 0.4603274166584015, 0.6257909536361694, -0.6921293139457703, 0.021293804049491882, -0.1971186399459839, -0.3637002110481262, 0.4193471074104309, 0.16262979805469513, 0.4154737591743469, -0.15545940399169922, 0.05272214114665985, -0.1943289041519165, 0.0322914756834507, -0.3322579562664032, 0.21137064695358276, -0.08892166614532471, 0.2194482386112213, -0.4669139087200165, -0.1539050191640854, 0.4399418234825134, 0.5851643085479736, -0.2615501880645752, -0.32823726534843445, 0.179153710603714, 0.1488293707370758, 0.2090146839618683, 0.1492331326007843, -0.7526047825813293, -0.17767418920993805, 0.28426483273506165, -0.004623740911483765, -0.35473012924194336, 0.06099975109100342, -0.23927277326583862, 0.28204789757728577, -0.27928322553634644, 0.11634552478790283, 0.0966147780418396], [-0.624847412109375, 0.4275520443916321, 0.5144413113594055, -0.22835493087768555, 0.0543425977230072, -0.47971057891845703, 0.01464814692735672, 0.130917489528656, 0.26783454418182373, -0.6829183101654053, -0.04759351909160614, -0.1554344743490219, 0.2909914255142212, 0.23818859457969666, -0.23861508071422577, 0.17173680663108826, -0.3412661850452423, -0.08976687490940094, 0.3990806043148041, 0.49055275321006775, -0.37683331966400146, -0.12354391813278198, -0.5228580832481384, 0.5146862864494324, -0.1271395981311798, 0.4566076397895813, 0.21271073818206787, 0.3482269048690796, 0.10641491413116455, 0.03229552507400513, 0.1727180927991867, 0.568393349647522, 0.347692608833313, 0.25252765417099, 0.48182862997055054, 0.41844433546066284, 0.3164968490600586, -0.1704292893409729, -0.5695595741271973, 0.4088398516178131, -0.34121790528297424, -0.06267321109771729, -0.2849537432193756, 0.48116743564605713, -0.4604033827781677, 0.19849169254302979, 0.8900516033172607, -0.39015597105026245, 0.36412590742111206, -0.39580217003822327, -0.2279828041791916, -0.19400052726268768, 0.3264831006526947, 0.6981530785560608, 0.430331826210022, 0.12760648131370544, 0.1443774700164795, 0.38410109281539917, 0.3638317883014679, -0.4644838273525238, -0.4577144384384155, -0.10796821117401123, 0.2701968550682068, -0.261882483959198], [-0.45035725831985474, 0.5767805576324463, -0.48122572898864746, 0.33073359727859497, 0.31328922510147095, -0.12103372812271118, -0.4751834273338318, -0.057221829891204834, -0.6303666234016418, -0.09527929127216339, -0.2642040252685547, 0.12106803059577942, -0.5257377624511719, 0.21029213070869446, 0.35383373498916626, -0.5174824595451355, 0.4128643274307251, -0.36994093656539917, 0.22673523426055908, -0.19173389673233032, -0.157242551445961, -0.3280913233757019, 0.09623199701309204, -0.09549662470817566, 0.1188318133354187, -0.36177247762680054, 0.023186426609754562, -0.0485273152589798, -0.43552976846694946, 0.6594261527061462, -0.013227447867393494, 0.2861121594905853, 0.15803012251853943, -0.8026747703552246, 0.11100184917449951, 0.3809838891029358, 0.07722188532352448, 0.510800838470459, -0.21891021728515625, -0.10516407340765, -0.016476094722747803, 0.3055313527584076, 0.3514251112937927, -0.14692836999893188, -0.5136879086494446, 0.6201493740081787, 0.933708906173706, 0.3317334055900574, -0.2285069227218628, 0.5581235289573669, -0.3996376693248749, 0.4615951478481293, -0.3810795545578003, -0.2587120831012726, 0.2790183424949646, -0.7172099351882935, -0.26129987835884094, -0.025161325931549072, -0.5672777891159058, 0.22272038459777832, 0.27730509638786316, -0.2926424443721771, -0.07960277795791626, 0.34339672327041626], [-0.18209534883499146, 0.6550196409225464, 0.3467598259449005, -0.43035322427749634, 0.44940808415412903, -0.1265190839767456, 0.1397477388381958, -0.6077462434768677, 0.5603545904159546, 0.5662233829498291, 0.304166316986084, 0.3329938054084778, -0.171322762966156, -0.4287770986557007, -0.5028240084648132, -0.14895570278167725, 0.37957102060317993, -0.48100894689559937, 0.5101308226585388, -0.1223139613866806, -0.3348625600337982, 0.32330217957496643, -0.30934154987335205, 0.22628140449523926, 0.10440900921821594, 0.17014873027801514, 0.11972398310899734, -0.44605857133865356, -0.4939575791358948, -0.38062402606010437, 0.05693507194519043, 0.3548011779785156, -0.3435003161430359, -0.008084774017333984, -0.5511158108711243, 0.09125447273254395, 0.22441428899765015, -0.4929044544696808, 0.13894784450531006, -0.547290027141571, 0.3403974771499634, -0.09623521566390991, -0.18236568570137024, 0.0007510334253311157, -0.1656913161277771, -0.34061044454574585, 0.9559646844863892, -0.006950318813323975, 0.22001266479492188, 0.10696220397949219, -0.19181287288665771, -0.3167431950569153, 0.1588681936264038, -0.19628825783729553, -0.44539064168930054, 0.6686409115791321, -0.07743974030017853, -0.24734315276145935, -0.21500015258789062, 0.16090555489063263, -0.26064926385879517, -0.32108938694000244, -0.7706006765365601, 0.5264607667922974], [0.21998198330402374, 0.3545745313167572, -0.4714832603931427, -0.060922980308532715, -0.0013491958379745483, 0.2143426537513733, 0.3522402048110962, 0.2284315526485443, 0.22827130556106567, -0.32857629656791687, 0.04826280102133751, 0.3879901170730591, 0.09727746248245239, -0.29781681299209595, -0.5373629927635193, -0.6680921912193298, -0.005234777927398682, -0.06825733184814453, 0.013521075248718262, 0.09626534581184387, 0.17410874366760254, 0.4176751971244812, 0.31633487343788147, 0.25878578424453735, 0.2919465899467468, 0.3300783336162567, 0.4620860517024994, -0.02727876976132393, -0.3394206762313843, -0.5322606563568115, -0.30375051498413086, -0.6170563101768494, -0.2350783348083496, -0.422874391078949, 0.34912109375, 0.0002907998859882355, -0.13701513409614563, -0.6077825427055359, -0.22734567523002625, -0.1788574457168579, 0.17134535312652588, 0.15192911028862, 0.14993047714233398, 0.4472382664680481, 0.8949851989746094, -0.3703141212463379, 0.04312482476234436, -0.016628354787826538, -0.03635808825492859, 0.14713668823242188, -0.05127999931573868, 0.4485342800617218, 0.07766646146774292, 0.03940415382385254, 0.013648215681314468, -0.08218994736671448, -0.42788606882095337, -0.23847699165344238, 0.3204728662967682, -0.07951229810714722, -0.005876898765563965, 0.5393409132957458, 0.3480224013328552, 0.30961376428604126], [0.26803189516067505, 0.4212191104888916, 0.23223257064819336, -0.19100451469421387, 0.10078132897615433, 0.023466773331165314, 0.4302120804786682, 0.20657625794410706, 0.359116792678833, 0.03477372229099274, 0.2586230933666229, -0.0022719204425811768, 0.14199665188789368, 0.3125341832637787, 0.2085469514131546, -0.441983163356781, 0.02229827642440796, 0.3520357608795166, -0.3840751051902771, -0.44272053241729736, -0.2088249772787094, 0.27562111616134644, 0.3088527321815491, -0.08240880817174911, -0.19715021550655365, 0.19998863339424133, -0.06620243936777115, 0.4930124282836914, 0.4314902424812317, 0.06189905107021332, -0.24207806587219238, -0.23342525959014893, 0.08527565002441406, 0.3993695378303528, 0.08711472153663635, 0.39543306827545166, -0.1415547877550125, -0.2649000287055969, -0.3763716220855713, 0.34000957012176514, 0.005580797791481018, -0.4957074522972107, -0.19725464284420013, 0.264764666557312, 0.5567474961280823, 0.2985682487487793, 0.3582497537136078, -0.022934287786483765, -0.3596646189689636, -0.16778278350830078, -0.3157340884208679, 0.0046905577182769775, -0.7380622625350952, 0.004505813121795654, 0.28265243768692017, -0.7230185270309448, 0.35059916973114014, 0.02824057638645172, -0.27176886796951294, 0.6447049379348755, 0.020259439945220947, 0.5105395913124084, 0.16138100624084473, -0.4541105628013611], [0.3381384611129761, 0.24517500400543213, 0.3680270314216614, -0.706608235836029, 0.5740165114402771, -0.20350396633148193, 0.058113664388656616, -0.5432103276252747, 0.14198076725006104, 0.4378666281700134, 0.02912139892578125, -0.26905930042266846, -0.10777749121189117, 0.36089053750038147, -0.3778430223464966, 0.3319205045700073, -0.16258278489112854, 0.2996883988380432, -0.5957862138748169, -0.27615123987197876, -0.39917269349098206, -0.1542035937309265, -0.05789043754339218, 0.3797173798084259, 0.35757166147232056, -0.1766330599784851, -0.3721812963485718, -0.2595234215259552, 0.5006425976753235, 0.42870035767555237, 0.2548053562641144, -0.2638789713382721, -0.3462948799133301, -0.325349360704422, -0.4358348250389099, -0.22061681747436523, -0.326375812292099, 0.37458762526512146, -0.5175264477729797, -0.15576152503490448, 0.12703366577625275, 0.11985638737678528, 0.26544028520584106, 0.13193780183792114, 0.412474662065506, -0.3757164478302002, 0.16638000309467316, -0.3272968530654907, -0.6730313301086426, -0.09744530916213989, -0.42716139554977417, -0.10739350318908691, 0.23216202855110168, 0.03540992736816406, 0.48959311842918396, -0.6942626237869263, -0.572945237159729, 0.260886013507843, -0.3031713366508484, -0.3784886598587036, 0.2542899549007416, -0.25459566712379456, -0.1376868039369583, -0.031228482723236084], [-0.46850576996803284, -0.3074036240577698, -0.43919384479522705, 0.11513255536556244, 0.00696331262588501, 0.3179049491882324, -0.20536020398139954, 0.04932159185409546, 0.4250802993774414, 0.18973064422607422, 0.2504345178604126, -0.6665348410606384, -0.34912171959877014, -0.22400140762329102, -0.3310958743095398, 0.07318806648254395, 0.45216047763824463, 0.16929711401462555, 0.1657269299030304, 0.5034618973731995, -0.11346834897994995, -0.4871513247489929, -0.2465185672044754, 0.6222564578056335, -0.5337205529212952, -0.7438622713088989, 0.35227537155151367, -0.5346267223358154, 0.18593287467956543, 0.04037089645862579, 0.04777967929840088, 0.19047169387340546, -0.7439514398574829, 0.34325629472732544, 0.3750222623348236, -0.24283522367477417, -0.3113320767879486, -0.2368486523628235, -0.1055724173784256, 0.07641097903251648, 0.32409507036209106, 0.13583284616470337, 0.5372317433357239, 1.0756686925888062, -0.3623847961425781, 0.34022757411003113, 0.10316754877567291, -0.5111026763916016, -0.2253345251083374, -0.27230557799339294, -0.5789521336555481, 0.23413151502609253, 0.03237418085336685, 0.3617992699146271, -0.062411196529865265, -0.07032923400402069, -0.38069674372673035, 0.14580130577087402, 0.060169994831085205, 0.4720919728279114, -0.6868191361427307, 0.22700715065002441, 0.4791749119758606, -0.42250579595565796], [-0.4160551428794861, -0.2924068570137024, -0.4728202819824219, -0.16540226340293884, 0.2978980541229248, 0.3817550539970398, 0.7892820239067078, 0.10326850414276123, -0.0047521889209747314, -0.2095927745103836, -0.2922735810279846, -0.34673553705215454, -0.25727730989456177, 0.14868447184562683, -0.18657714128494263, 0.26279574632644653, 0.002716653048992157, -0.4530290961265564, -0.0830976590514183, -0.38101905584335327, 0.4463666081428528, -0.1324152797460556, 0.0810004249215126, -0.5518251657485962, 0.48892518877983093, -0.11706209182739258, -0.4209340810775757, 0.18295355141162872, 0.015412464737892151, -0.20461103320121765, 0.08536571264266968, 0.2188248634338379, 0.0977429747581482, -0.18291397392749786, 0.15084898471832275, -0.35172927379608154, 0.28053417801856995, -0.10454259812831879, 0.26779091358184814, -0.006322197616100311, 0.1570143699645996, -0.9394395351409912, 0.03868657350540161, -0.08268272876739502, -0.2893103361129761, 0.16590821743011475, -0.28107643127441406, -0.09712874889373779, 0.47059959173202515, -0.4069993793964386, 0.7529025673866272, 0.09995219111442566, 0.08109810948371887, 0.430909663438797, 0.30138272047042847, 0.7578409910202026, 0.4065656065940857, -0.47825509309768677, -0.3085366487503052, -0.21209383010864258, 0.09007878601551056, -0.07582731544971466, -0.12573225796222687, 0.35708534717559814], [0.48704224824905396, -0.12816371023654938, 0.25257521867752075, -0.415205180644989, 0.3974272310733795, -0.3802419602870941, -0.1348292976617813, 0.3329790234565735, -0.46777278184890747, 0.2558625340461731, -0.11204731464385986, -0.23937824368476868, -0.06094026565551758, 0.22389723360538483, -0.7873438596725464, 0.04498862475156784, 0.22967451810836792, -0.4445118308067322, -0.09142675995826721, 0.4869658946990967, -0.045971810817718506, 0.08935747295618057, 0.04409432411193848, -0.2751474380493164, -0.3108375072479248, -0.04225936532020569, -0.2540757656097412, 0.04340991750359535, -0.2618429362773895, 0.0989241674542427, 0.014759719371795654, 0.34421396255493164, 0.4673013687133789, 0.05963850021362305, 0.18541687726974487, -0.16860006749629974, 0.17222902178764343, 0.1427132487297058, -0.174223393201828, -0.19563326239585876, 0.17451074719429016, 0.015403904020786285, 0.3083699345588684, 0.09436756372451782, -0.2266901731491089, -0.5025683641433716, -0.25327566266059875, -0.02924095094203949, -0.3787662088871002, -0.12536558508872986, -0.46267807483673096, 0.24741661548614502, 0.11569122970104218, 0.41556328535079956, -0.30013972520828247, 0.05827298387885094, -0.41868364810943604, -0.0025127530097961426, -0.2880038022994995, 0.9623398780822754, 0.30348560214042664, -0.02593614161014557, -0.01922506093978882, 0.1944141983985901], [0.22751036286354065, -0.1579657793045044, -0.024876058101654053, -0.39826422929763794, 0.3905549645423889, -0.22010695934295654, 0.024455998092889786, -0.020895490422844887, -0.17190885543823242, 0.3147182762622833, 0.2782944440841675, 0.9506791830062866, 0.36467409133911133, 0.6249679327011108, 0.24307437241077423, -0.3312802016735077, -0.4296337962150574, 0.43131452798843384, 0.13835185766220093, 0.32166099548339844, -0.09787076711654663, -0.2558864951133728, 0.35071784257888794, -0.29382652044296265, 0.15690018236637115, -0.011985942721366882, -0.4251786470413208, -0.11775544285774231, 0.40455377101898193, -0.4690042734146118, -0.04199066758155823, 0.451418936252594, -0.3869718313217163, -0.6986955404281616, 0.04993128776550293, -0.19169609248638153, -0.07786169648170471, 0.40229806303977966, 0.058469176292419434, 0.5264014005661011, 0.13608217239379883, -0.2705611288547516, -0.11974906921386719, -0.1719442903995514, 0.21926671266555786, 0.0479864776134491, 0.43715226650238037, 0.4230539798736572, 0.10843581706285477, -0.24340173602104187, 0.2796276807785034, -0.28370368480682373, 0.8191245198249817, -0.6791620850563049, -0.20137980580329895, 0.28164011240005493, 0.1578577607870102, -0.042263709008693695, -0.3897095322608948, 0.44341567158699036, -0.14707931876182556, -0.3286649286746979, -0.11365571618080139, -0.22796472907066345], [0.1951088309288025, -0.005660578608512878, 0.23983453214168549, 0.4280198812484741, 0.11809253692626953, -0.11997287720441818, 0.42396312952041626, -0.09607978165149689, -0.04853522777557373, -0.38969355821609497, -0.0991777628660202, 0.6343569755554199, 0.45107054710388184, -0.7797361612319946, 0.2570994794368744, 0.17718172073364258, 0.7391087412834167, -0.008267918601632118, 0.11873885989189148, -0.896889328956604, 0.03226112201809883, 0.1548781841993332, 0.5387760996818542, 0.023859918117523193, -0.5026443004608154, 0.404337078332901, 0.15632572770118713, 0.37828701734542847, -0.13938236236572266, 0.36508774757385254, -0.26328742504119873, -0.07237356901168823, 0.6097123622894287, -0.13190463185310364, -0.3929177522659302, -0.24716699123382568, 0.32418712973594666, 0.45586344599723816, -0.5013642907142639, 0.44554343819618225, -0.03398922085762024, -0.030470114201307297, -0.29791945219039917, -0.047608882188797, 0.27830061316490173, 0.1135721430182457, -0.4172825515270233, 0.10594987124204636, 0.6240655183792114, -0.5491428971290588, 0.1859215497970581, -0.2884729504585266, 0.46018925309181213, -0.036121368408203125, 0.23482751846313477, 0.22394680976867676, 0.28292790055274963, 0.43771761655807495, -0.32889121770858765, -0.3668769896030426, 0.47753989696502686, 0.016688350588083267, -0.09024320542812347, 0.1931096315383911], [0.06532049179077148, -0.2732471823692322, 0.19844156503677368, -0.03760591149330139, -0.054139815270900726, -0.011230513453483582, -0.08103064447641373, -0.3467026948928833, 0.4799136817455292, 0.08741645514965057, 0.20040376484394073, -0.4195514917373657, -0.7078807353973389, 0.4030337333679199, 0.7273932099342346, -0.022456808015704155, -0.08470951020717621, 0.45318377017974854, 0.5831770896911621, 0.3342394232749939, 0.530964732170105, 0.12517166137695312, 0.08990899473428726, -0.3696123957633972, -0.15706685185432434, 0.20763970911502838, -0.4030535817146301, -0.5056697726249695, -0.06377965211868286, -0.1503545194864273, -0.6482404470443726, -0.3259732723236084, 0.16262519359588623, -0.17025446891784668, -0.39237937331199646, 0.8718023300170898, -0.6884797215461731, -0.10224607586860657, 0.413143128156662, -0.04399539530277252, -0.0892624780535698, -0.02078080177307129, -0.029449831694364548, -0.4387109577655792, 0.23576989769935608, 0.30543291568756104, -0.07556687295436859, 0.032628417015075684, -0.5492360591888428, -0.22967909276485443, 0.5351237654685974, -0.1990361213684082, -0.09401774406433105, -0.2905580699443817, 0.4404553472995758, -0.009342476725578308, -0.5351300835609436, 0.3381572961807251, -0.3908610939979553, 0.31000083684921265, -0.17018264532089233, 0.34747081995010376, -0.15530256927013397, -0.6139771938323975], [0.09743011742830276, -0.3861788511276245, -1.0370783805847168, -0.5132473707199097, -0.42960965633392334, 0.07647085189819336, -0.011376440525054932, -0.5308527946472168, -0.2130352258682251, 0.2704337239265442, 0.2073560506105423, -0.7657167315483093, -0.27490130066871643, 0.3578979969024658, -0.5290905833244324, 0.28254759311676025, 0.21211272478103638, 0.5292622447013855, 0.19368255138397217, 0.37704354524612427, 0.47307395935058594, -0.6864546537399292, -0.12830780446529388, 0.24898630380630493, 0.40115439891815186, -0.15582364797592163, 0.23545628786087036, -0.36199861764907837, -0.3813074827194214, 0.1914001703262329, -0.18058426678180695, 0.05557084083557129, -0.7195485234260559, -0.03347548842430115, 0.6256639361381531, 0.36936306953430176, -0.5234101414680481, 0.35646894574165344, -0.5217633247375488, -0.2922177314758301, 0.4498707056045532, -0.5071189999580383, -0.2650577425956726, -0.09916204959154129, -0.43245869874954224, -0.22347301244735718, -0.7592930793762207, 0.25605401396751404, -0.4527224600315094, 0.2608981728553772, 0.4823686480522156, 0.36304524540901184, 0.1425599753856659, -0.2258218228816986, -0.2541564106941223, 0.22263562679290771, -0.269858181476593, 0.24453014135360718, 0.014818951487541199, 0.2319769561290741, -0.10043717920780182, 0.3128291368484497, -0.23887303471565247, 0.15100345015525818], [0.4301912486553192, -0.45519715547561646, 0.14962665736675262, -0.37220680713653564, -0.08445829898118973, -0.19586412608623505, -0.4247890114784241, 0.48581066727638245, -0.4894251227378845, 0.4644899368286133, -0.04548998177051544, 0.4198456108570099, 0.047824859619140625, 0.2654517590999603, -0.16662845015525818, -0.21163052320480347, -0.0074239373207092285, -0.015015900135040283, -0.4518243670463562, 0.3903561234474182, 0.48019829392433167, 0.13549506664276123, 0.22550827264785767, 0.11345532536506653, 0.10035450756549835, -0.017147034406661987, -0.37050431966781616, 0.5037380456924438, 0.4638749957084656, 0.1785346418619156, 0.24394531548023224, -0.5993413925170898, -0.4367016553878784, -0.03214895725250244, -0.3491319417953491, 0.38614922761917114, 0.0027206726372241974, -0.3886263072490692, -0.19641345739364624, 0.0290708988904953, -0.18229538202285767, -0.3157493472099304, -0.36400437355041504, -0.31497159600257874, 0.42989879846572876, -0.43027418851852417, 0.39531761407852173, -0.25624144077301025, 0.058396950364112854, -0.4613132178783417, 0.7034906148910522, -0.17564624547958374, 0.2722474932670593, 0.5207904577255249, -0.11530381441116333, 0.06773954629898071, -0.5073037147521973, -0.17907750606536865, -0.15666162967681885, -0.05403771996498108, -0.09239248186349869, -0.25154760479927063, -0.3601873815059662, -0.0167616605758667], [0.49959689378738403, 0.14346179366111755, -0.35049664974212646, 0.1918720006942749, -0.10470928251743317, -0.7962469458580017, 0.054776594042778015, -0.0730401873588562, -0.12175643444061279, 0.14519357681274414, -0.12553317844867706, -0.5074992179870605, -0.2718554139137268, -0.2856348156929016, -0.4346866011619568, -0.2714877128601074, -0.0354386568069458, 0.2303936630487442, 0.3979390263557434, -0.5007840394973755, 0.6366189122200012, -0.464297354221344, -0.3526883125305176, 0.8040784001350403, 0.2755379378795624, -0.21400046348571777, 0.4360293447971344, 0.4885003864765167, 0.5192720890045166, -0.24067950248718262, 0.04098817706108093, 0.3189128637313843, 0.18740695714950562, 0.20116788148880005, 0.3551695942878723, 0.9986816644668579, -0.24290397763252258, -0.3167836666107178, 0.050251200795173645, -0.285361647605896, -0.1713934689760208, -0.18570564687252045, 0.6139786243438721, 0.3374677300453186, 0.3637555241584778, 0.05542287975549698, 0.5444058179855347, 0.09893923997879028, -0.08696872740983963, -0.34890860319137573, -0.013287962414324284, 0.3219911456108093, 0.20947277545928955, 0.1018114686012268, -0.1797366589307785, 0.5547682046890259, -0.13087797164916992, 0.06271153688430786, 0.06431466341018677, -0.2514285743236542, 0.6439070105552673, 0.27475762367248535, -0.439166784286499, -0.25215837359428406], [0.06246881186962128, -0.49551182985305786, -0.528563380241394, -0.4559045135974884, -0.45466238260269165, 0.4816957116127014, -1.090218186378479, 0.012142807245254517, -0.06756405532360077, -0.44055330753326416, 0.5313282012939453, 0.12388333678245544, 0.46632760763168335, 0.13139867782592773, 0.30968189239501953, 0.7093487977981567, -0.3744533658027649, -0.16216054558753967, -0.39732685685157776, -0.3057844638824463, -0.02872375398874283, 0.4493984580039978, -0.29759711027145386, 0.3646906018257141, 0.27366459369659424, 0.11206473410129547, -0.23950740694999695, 0.3057217001914978, -0.04114338755607605, -0.02285325713455677, 0.34905800223350525, -0.66319739818573, 0.570243775844574, -0.22712600231170654, -0.38411885499954224, -0.12241337448358536, 0.4022608995437622, 0.16068203747272491, -0.1059802770614624, -0.49186933040618896, 0.3752445876598358, -0.45764783024787903, 0.25620144605636597, -0.595466673374176, -0.4525420665740967, 0.4578770697116852, 0.48910200595855713, -0.4426347613334656, -0.18833425641059875, -0.07742805778980255, 0.13175779581069946, 0.17683076858520508, 0.19344577193260193, -0.009321808815002441, -0.7351514101028442, -0.6051443815231323, -0.4477245807647705, -0.08222275972366333, -0.27591919898986816, -0.4881177544593811, 0.4161689877510071, 0.5805500745773315, -0.04991408810019493, -0.17431578040122986], [-0.3087500333786011, -0.3458600640296936, -0.06672805547714233, 0.31566810607910156, -0.3841697573661804, 0.371503084897995, -0.42534393072128296, -0.13456957042217255, 0.38784143328666687, 0.5035092234611511, -0.2786514461040497, -0.3891756236553192, 0.32677534222602844, 0.13335411250591278, 0.023869410157203674, 0.2549082338809967, -0.27628517150878906, -0.39037227630615234, -0.37744981050491333, -0.15900880098342896, 0.3696167469024658, -0.32185953855514526, -0.005577147006988525, 0.30811208486557007, 0.2818673551082611, 0.2025475800037384, 0.16026918590068817, -0.055898189544677734, 0.12162702530622482, 0.4180256128311157, -0.5900654196739197, 0.10137052088975906, -0.6415035724639893, -0.1872507780790329, 0.3128661513328552, 0.26964497566223145, -0.7940889000892639, -0.16644103825092316, 0.5203325748443604, -0.09600746631622314, -0.8683784008026123, -0.08579370379447937, 0.10901510715484619, 0.05551350116729736, -0.4476390480995178, -0.0697791650891304, -0.15470850467681885, 0.08536063134670258, -0.15910041332244873, 0.35167407989501953, -0.16676026582717896, 0.02578487992286682, 0.48686039447784424, -0.21314013004302979, -0.4133109450340271, -0.26806843280792236, 0.13617369532585144, -0.27583467960357666, 0.0906447172164917, -0.014624953269958496, -0.31806284189224243, -0.19175991415977478, 0.011902853846549988, -0.48218172788619995], [0.19866043329238892, -0.14337122440338135, 0.41351890563964844, -0.5358415842056274, 0.3875390887260437, 0.6137651205062866, 0.14659340679645538, 0.23557573556900024, -0.45419183373451233, -0.26067280769348145, -0.31758981943130493, 0.47530943155288696, -0.05569040775299072, 0.5818427205085754, -0.3153201937675476, -0.4292677938938141, 0.2498236447572708, -0.7227423787117004, 0.05329905450344086, -0.03415161371231079, 0.721317708492279, -0.15181851387023926, -0.33477967977523804, -0.0555577278137207, -0.1870097517967224, -0.20922929048538208, -0.2888256013393402, -0.17457348108291626, -0.33419227600097656, 0.03579612821340561, 0.412103533744812, -0.2004537582397461, 0.25520822405815125, -0.11349217593669891, -0.22617457807064056, 0.5266445279121399, 0.2749655544757843, 0.5521612763404846, -0.2675919830799103, -0.3064437508583069, -0.40967684984207153, -0.27712923288345337, 0.4818877577781677, 0.4596533477306366, 0.02017100155353546, -0.39524954557418823, -0.05659151449799538, -0.31020382046699524, -0.15611928701400757, -0.4426833391189575, 0.26562485098838806, 0.45200666785240173, 0.34338873624801636, 0.267600417137146, -0.3578742742538452, 0.4406861364841461, 0.26613786816596985, 0.1688441038131714, 0.22738918662071228, -0.20036989450454712, -0.20947009325027466, -0.04131927341222763, 0.2760346531867981, 0.07867127656936646], [-0.37026435136795044, 0.13005296885967255, -0.3841093182563782, -0.39448875188827515, 0.4135552942752838, 0.2913113236427307, 0.2338700294494629, 0.027538811787962914, 0.9525067806243896, 0.4222601056098938, 0.23817011713981628, 0.47225290536880493, -0.37222886085510254, -0.016974419355392456, -0.4519451856613159, -0.44826358556747437, 0.12618064880371094, -0.07743483781814575, -0.44453132152557373, 0.3193962574005127, -0.29811006784439087, -0.14065250754356384, 0.2891350984573364, -0.24429473280906677, 0.14409923553466797, 0.5374746918678284, -0.29367566108703613, 0.1798190027475357, -0.4175551235675812, 0.3424191176891327, 0.3169684112071991, -0.19586075842380524, 0.24489617347717285, -0.24012528359889984, -0.4355723261833191, -0.11898510158061981, -0.2697962522506714, -0.014298126101493835, -0.005186296999454498, 0.6631758213043213, -0.08919328451156616, 0.10544709116220474, -0.011441424489021301, -0.7199075818061829, 0.2548710107803345, 0.7606335878372192, -0.25583910942077637, -0.6534743309020996, -0.3996952772140503, 0.19427868723869324, 0.3695122003555298, 0.39428555965423584, 0.1281440705060959, 0.12669634819030762, -0.2597772181034088, -0.26623421907424927, 0.17303796112537384, -0.4951413869857788, 0.2970370650291443, -0.23751044273376465, -0.41629278659820557, 0.1549701690673828, -0.15819889307022095, 0.3727615475654602], [0.5732344388961792, -0.10752853751182556, 0.09026879072189331, -0.35573679208755493, 0.47635045647621155, 0.3159310221672058, 0.25155109167099, 0.3308869004249573, -0.027729272842407227, 0.0395054817199707, 0.4969289004802704, -0.07589459419250488, 0.32742536067962646, -0.19195768237113953, 0.05845004320144653, -0.4841149151325226, 0.5337406396865845, -0.021241262555122375, -0.09308847784996033, -0.1083449125289917, 0.4670438766479492, 0.4626179337501526, 0.2930945158004761, -0.08319311589002609, 0.33335787057876587, 0.145951509475708, -0.36251601576805115, 0.03875961899757385, 0.5822685956954956, 0.3364115357398987, 0.030492186546325684, 0.22316968441009521, -0.16036325693130493, 0.2598233222961426, 0.0789380669593811, 0.37470605969429016, -0.13165408372879028, -0.0338059663772583, -0.15392610430717468, -0.03583085536956787, 0.4503493309020996, -0.29073578119277954, 0.18532514572143555, -0.44351857900619507, -0.5415509343147278, -0.08759897947311401, -0.21428410708904266, 0.0294715017080307, 0.4181715250015259, -0.1321428418159485, -0.30468666553497314, -0.11623477935791016, 0.4465674161911011, 0.33833134174346924, 0.4180421829223633, -0.2686232030391693, 0.30612093210220337, -0.0729447603225708, -0.48400193452835083, -0.2121434211730957, -0.10941237211227417, -0.6360595226287842, 0.2716471254825592, 0.07330965995788574], [-0.3021256923675537, 0.5806037783622742, -0.21695028245449066, -0.24264681339263916, -0.18204857409000397, 0.19596987962722778, 0.5355567336082458, -0.18130607903003693, 0.5933164954185486, -0.09811246395111084, -0.6072587370872498, -0.08348485827445984, 0.015595577657222748, 0.19519415497779846, -0.25777095556259155, 0.37336277961730957, -0.8297039270401001, 0.15488137304782867, -0.3261764347553253, 0.0822104886174202, 0.22205954790115356, 0.3775557577610016, -0.3716636896133423, 0.18872633576393127, -0.4628070592880249, 0.2883395552635193, -0.6154704093933105, 0.8397293090820312, 0.16176289319992065, 0.41700783371925354, -0.1996309459209442, -0.5564996600151062, 0.2187836617231369, 0.4141542911529541, -0.14129896461963654, -0.4646584689617157, 0.3075333833694458, 0.13014644384384155, 0.1617720127105713, -0.4771711826324463, -0.10197719931602478, 0.45440417528152466, -0.6349904537200928, -0.462066650390625, 0.20466887950897217, 0.25907301902770996, -0.33441242575645447, 0.2043875902891159, -0.4090750217437744, -0.19667978584766388, 0.23000794649124146, -0.230691060423851, 0.16987615823745728, -0.42249053716659546, 0.007627904415130615, 0.45365408062934875, 0.48085421323776245, 0.395755410194397, -0.45473676919937134, -0.36971116065979004, -0.48531678318977356, 0.4179501533508301, 0.07739236950874329, 0.006735996343195438], [-0.2758150100708008, -0.31771227717399597, -0.364402711391449, -0.3441791832447052, 0.1921459585428238, -0.2633708119392395, -0.03233890235424042, 0.8328562378883362, -0.18777704238891602, -0.0637020617723465, 0.3749143183231354, 0.46149468421936035, -0.4017806351184845, -0.03450706601142883, 0.11925219744443893, -0.03838425874710083, 0.0611230731010437, -0.21873755753040314, 0.7444751262664795, -0.007604733109474182, 0.35892048478126526, 0.061538852751255035, 0.03648974373936653, 0.3278793692588806, -0.6055570840835571, -0.46065640449523926, 0.2313288152217865, -0.6959996223449707, -0.012258544564247131, 0.4280443787574768, -0.1164969801902771, -0.5527775287628174, -0.5385761260986328, 0.39944279193878174, 0.01895815134048462, 0.00816190242767334, 0.0019254684448242188, 0.181912362575531, -0.20433863997459412, -0.49902358651161194, -0.11232560873031616, 0.2966262400150299, 0.3849966526031494, 0.5936442613601685, -0.09578412771224976, 0.14612382650375366, -0.019801050424575806, 0.061532020568847656, 0.4175395965576172, 0.29095450043678284, 0.11999363452196121, -0.3819506764411926, -0.4700106978416443, 0.06315790116786957, 0.36138373613357544, -0.020564928650856018, -0.9243978261947632, 0.1047590970993042, 0.23731780052185059, 0.5801443457603455, 0.4833923578262329, 0.055765390396118164, -0.5631567239761353, 0.4824342727661133], [-0.031603775918483734, 0.25098341703414917, 0.2947191298007965, -0.42993873357772827, 0.2147592306137085, -0.07474833726882935, 0.23231858015060425, 0.09580302238464355, -0.3666899800300598, 0.6149266958236694, 0.7967764735221863, -0.3573339581489563, 0.34145092964172363, 0.02468857169151306, 0.019054360687732697, 0.21771414577960968, 0.3530454635620117, -0.05502106249332428, 0.5090143084526062, 0.6339583396911621, -0.010044103488326073, 0.4182617664337158, -0.33017075061798096, -0.18068987131118774, -0.05288633704185486, 0.4770139455795288, -0.4438144564628601, 0.5003472566604614, -0.029991552233695984, 0.050346262753009796, -0.029905498027801514, -0.33640649914741516, 0.052206605672836304, 0.22748379409313202, 0.26439568400382996, 0.3375730514526367, 0.13992998003959656, -0.11455777287483215, 0.5464684963226318, 0.3464217782020569, 0.22303232550621033, 0.22026413679122925, 0.48486703634262085, -0.41107305884361267, -0.17648422718048096, 0.209433913230896, 0.28681764006614685, -0.4925752282142639, 0.09778374433517456, 0.5344181060791016, 0.39645659923553467, 0.02087271213531494, -0.5518604516983032, -0.7393734455108643, 0.40813156962394714, -0.17199155688285828, -0.09137082099914551, -0.12962615489959717, 0.03549773246049881, 0.2458917498588562, 0.07966858148574829, -0.3164042532444, -0.8808919787406921, -0.05550253391265869], [0.23520340025424957, -0.04284226894378662, 0.33381783962249756, 0.05739617347717285, 0.3203701376914978, -0.10772396624088287, -0.48424944281578064, -0.45348793268203735, -0.37994036078453064, -0.39898160099983215, 0.42474108934402466, -0.19047966599464417, 0.49043405055999756, -0.9943827986717224, 0.3460899889469147, -0.23060102760791779, 0.5977953672409058, -0.37949705123901367, -0.2693237066268921, 0.20540310442447662, 0.5288704633712769, 0.033334776759147644, -0.5111977458000183, 0.4161580801010132, -0.5069050192832947, -0.42435580492019653, 0.5202575325965881, 0.1046154797077179, 0.18612563610076904, -0.13100504875183105, 0.3104746341705322, 0.14922034740447998, -0.3166883587837219, -0.1998884677886963, -0.06116950511932373, 0.25477135181427, -0.48038649559020996, -0.433025598526001, 0.07063645124435425, -0.3659811019897461, 0.06234084069728851, -0.1649288386106491, 0.10329222679138184, 0.7459621429443359, -0.3710142970085144, 0.25583013892173767, -0.07570871710777283, -0.2813457250595093, 0.4536454379558563, 0.2747679650783539, 0.3725743889808655, -0.13987739384174347, 0.17162276804447174, 0.518067479133606, -0.2550613284111023, 0.18063771724700928, 0.19320577383041382, -0.33168840408325195, 0.5156813859939575, -0.20453189313411713, 0.35442909598350525, -0.34049516916275024, 0.5820497870445251, 0.10335433483123779], [0.5912308692932129, -0.1381908357143402, 0.02369004487991333, 0.3299998641014099, 0.21068871021270752, -0.2589205205440521, 0.4376896619796753, -0.15645019710063934, -0.334102988243103, -0.12360888719558716, 0.31481125950813293, -0.13776549696922302, 0.0779079794883728, -0.3050125539302826, -0.016204416751861572, 0.4626782238483429, 0.03697541356086731, 0.14155742526054382, -0.00707167387008667, -0.6369028687477112, 0.25644510984420776, -0.7370859384536743, 0.46541160345077515, -0.049267321825027466, -0.2948280870914459, 0.4911782741546631, 0.23935972154140472, -0.3222154378890991, 0.6830552816390991, -0.678382933139801, -0.016383737325668335, 0.3319924473762512, -0.19309449195861816, -0.6081815958023071, -0.26452237367630005, -0.17590507864952087, -0.13335543870925903, 0.21933366358280182, 0.5043476223945618, 0.15361329913139343, -0.37633568048477173, -0.4122201204299927, -0.23573946952819824, 0.2713066041469574, -0.546144425868988, -0.3430277109146118, 0.4791133403778076, 0.3380846083164215, -0.2974490821361542, 0.46595117449760437, 0.643123209476471, 0.28363585472106934, -0.16303034126758575, 0.3701324462890625, -0.6712100505828857, 0.3588171601295471, -0.24886728823184967, -0.10419732332229614, 0.013325724750757217, -0.1478414088487625, 0.3644864559173584, 0.14514422416687012, 0.0349934920668602, 0.32138651609420776], [-0.16749513149261475, 0.10651759803295135, -0.20055213570594788, 0.22264277935028076, 0.1114504337310791, -0.3726741075515747, -0.5277189016342163, -0.3700581192970276, -0.40079063177108765, -0.03719428926706314, 0.2547498047351837, 0.09308648109436035, -0.06752042472362518, -0.14225441217422485, -0.11996497213840485, -0.3472917675971985, -0.3219619393348694, -0.051189642399549484, -0.25572454929351807, 0.04155891388654709, -0.5347141623497009, 0.677645742893219, 0.3328033685684204, 0.3072928488254547, 0.3915524482727051, 0.41222071647644043, -0.5608944892883301, 0.49033522605895996, -0.21664609014987946, -0.49815285205841064, -0.060688868165016174, -0.3957858681678772, -0.5300838351249695, 0.0764920562505722, 0.08367191255092621, 0.017818212509155273, 0.30857622623443604, 0.34931856393814087, 0.0489080548286438, -0.1835297793149948, -0.372763454914093, 0.15153515338897705, -0.11915107071399689, 0.45571279525756836, 0.24510839581489563, 0.1679844856262207, 0.47095197439193726, -0.15854251384735107, 0.47020214796066284, 0.3713328540325165, 0.253004789352417, 0.412125825881958, -0.36518290638923645, -0.08445398509502411, -0.15769034624099731, -0.18714897334575653, 0.0021355003118515015, 0.3567873239517212, 0.23044544458389282, -0.06406105309724808, 0.1291857659816742, 0.12188619375228882, -0.1956489086151123, -0.3590005338191986], [0.36452239751815796, 0.5571469068527222, -0.18036296963691711, 0.1625566929578781, -0.33537745475769043, -0.18898159265518188, -0.12052309513092041, 0.48914724588394165, -0.04849286377429962, 0.233461394906044, -0.3028298616409302, -0.40436530113220215, -0.032150495797395706, 0.4470326900482178, -0.15818557143211365, 0.3497268557548523, -0.45921891927719116, -0.07102593779563904, 0.28986024856567383, 0.5026974081993103, 0.9497925043106079, 0.005257904529571533, -0.3814398944377899, 0.34954068064689636, 0.39791139960289, -0.42629575729370117, 0.43138808012008667, 0.5880552530288696, 0.171403169631958, 0.27808040380477905, 0.0850420668721199, -0.8928143382072449, -0.6105208396911621, 0.27689069509506226, -0.1023104190826416, 0.06434343755245209, 0.4606565237045288, -0.3049013614654541, 0.07108946144580841, -0.13590583205223083, 0.31732696294784546, -0.5881463289260864, -0.16645950078964233, -0.3733815550804138, 0.3102434575557709, -0.140367791056633, -0.5707727074623108, -0.08385523408651352, -0.1812732219696045, -0.13913601636886597, -0.1629413664340973, -0.10948801040649414, 0.03199318051338196, 0.43241068720817566, -0.3073577284812927, 0.1132039725780487, -0.4019569754600525, -0.23516416549682617, -0.14388394355773926, -0.024138659238815308, 0.31422853469848633, -0.5273804664611816, -0.12093557417392731, 0.35109543800354004], [0.7500100135803223, -0.43954628705978394, 0.47840753197669983, 0.06558600068092346, 0.09933745861053467, 0.5931860208511353, -0.49970972537994385, -0.12241727113723755, -0.6115572452545166, 0.08727936446666718, -0.34731072187423706, -0.3574935793876648, -0.28672081232070923, 0.30107706785202026, 0.16720765829086304, 0.2390064001083374, -0.1274508237838745, -0.06787693500518799, 0.509629487991333, 0.20708757638931274, 0.3886387348175049, 0.396889865398407, -0.3109820783138275, 0.10125497728586197, 0.13007564842700958, 0.14093607664108276, 0.4053405523300171, -0.42063426971435547, 0.18211708962917328, -0.6869651079177856, 0.33900538086891174, -0.32016247510910034, -0.04389411211013794, 0.422626256942749, -0.3719228506088257, 0.4181806147098541, -0.21186977624893188, -0.2127259075641632, 0.21987104415893555, 0.2226698100566864, -0.03405272960662842, -0.21808204054832458, -0.07894042134284973, 0.12264437973499298, -0.6211633086204529, -0.3593393564224243, 0.05667577683925629, -0.3179711401462555, -0.1646459698677063, 0.7401798367500305, -0.3519365191459656, -0.2689128816127777, 0.19216006994247437, 0.4433145523071289, 0.3004664182662964, 0.06750012934207916, 0.31735759973526, -0.15383565425872803, -0.42685163021087646, 0.17760807275772095, 0.5991042256355286, 0.3191089630126953, -0.29728275537490845, 