{"input_weights": [[-0.014453649520874023, 0.1090250015258789, 0.40838682651519775, 0.35297322273254395, -0.40215790271759033, 0.27935343980789185, 0.40413421392440796, -0.026099443435668945, -0.18631064891815186, 0.41728824377059937, -0.47445064783096313, 0.19526392221450806, 0.4948224425315857, 0.0912315845489502, -0.22101736068725586, -0.19861704111099243, -0.4129747748374939, -0.23978155851364136, 0.006857633590698242, -0.3543540835380554, 0.3899000287055969, -0.24627333879470825, -0.31249547004699707, -0.04008758068084717, -0.28702032566070557, -0.14537650346755981, 0.1084941029548645, -0.24413847923278809, -0.23343706130981445, 0.4137337803840637, 0.28399479389190674, 0.15162110328674316, -0.04529350996017456, 0.18144923448562622, 0.2086164355278015, -0.0026987195014953613, -0.019958198070526123, 0.29114627838134766, -0.04714667797088623, -0.187888503074646, -0.18287569284439087, -0.2406817078590393, 0.1207813024520874, 0.014681458473205566, -0.2849302291870117, -0.38427698612213135, 0.23046499490737915, 0.2618080973625183, 0.20493614673614502, 0.39987844228744507, 0.20544278621673584, 0.3012493848800659, 0.08376413583755493, -0.4029701352119446, -0.4774540066719055, -0.19175773859024048, 0.13415300846099854, -0.2264677882194519, -0.05359995365142822, -0.053741514682769775, -0.4445342421531677, 0.4575927257537842, 0.05482637882232666, 0.17418557405471802, -0.14464092254638672, -0.2689703106880188, -0.478390634059906, 0.05921006202697754, -0.40808308124542236, 0.3699193000793457, -0.1521262526512146, 0.43669480085372925, -0.4186438322067261, 0.04694545269012451, 0.2682104706764221, 0.11680984497070312, 0.2591453790664673, -0.4103474020957947, 0.05761826038360596, -0.06352674961090088, 0.07114136219024658, 0.3950532078742981, -0.07157230377197266, 0.3416539430618286, 0.44686073064804077, 0.27709150314331055, -0.34202510118484497, -0.04029887914657593, -0.14633232355117798, 0.2968357801437378, -0.22564059495925903, 0.0752975344657898, 0.406113862991333, 0.08796638250350952, -0.002251267433166504, 0.21328794956207275, 0.3591318726539612, -0.3378719687461853, -0.3100401759147644, -0.33783382177352905, -0.41741669178009033, -0.26008063554763794, -0.23221880197525024, -0.2696712017059326, 0.07856208086013794, -0.278616726398468, 0.38289541006088257, 0.47142136096954346, -0.09501224756240845, -0.49348920583724976, 0.15400725603103638, 0.08583039045333862, -0.33006054162979126, -0.3512575030326843, 0.06954729557037354, -0.005440235137939453, 0.22727543115615845, 0.151622474193573, -0.4992563724517822, 0.42129504680633545, 0.40161603689193726, 0.1656283736228943, -0.10831254720687866, -0.3479304313659668, 0.2786850929260254, 0.43801558017730713, -0.1233367919921875, 0.21126139163970947], [-0.20161038637161255, -0.22911560535430908, 0.49397581815719604, -0.08634591102600098, 0.36427849531173706, -0.3188820481300354, -0.17453956604003906, -0.22541487216949463, -0.07670271396636963, 0.1276531219482422, -4.553794860839844e-05, -0.02144479751586914, 0.31330084800720215, -0.3399485945701599, -0.20373642444610596, 0.20557016134262085, 0.1856892704963684, -0.10209763050079346, 0.08771860599517822, 0.49298959970474243, -0.2571881413459778, 0.0419611930847168, 0.47254276275634766, -0.35298144817352295, 0.23253238201141357, -0.2893441915512085, -0.2918499708175659, 0.23166018724441528, 0.16965866088867188, -0.271356999874115, -0.31229346990585327, 0.11560642719268799, -0.11150771379470825, 0.4361124038696289, 0.3611481189727783, 0.43332135677337646, 0.09523868560791016, 0.44792503118515015, 0.2916966676712036, -0.4817938208580017, -0.19474560022354126, 0.08280658721923828, -0.06951266527175903, 0.07358837127685547, 0.15740633010864258, 0.3892115354537964, 0.23038357496261597, -0.4992328882217407, -0.22477024793624878, 0.05771064758300781, -0.2244439721107483, 0.3484848141670227, -0.325549840927124, -0.08322566747665405, 0.21247267723083496, 0.08971655368804932, -0.45194941759109497, 0.4327412247657776, -0.37928473949432373, -0.2200801968574524, -0.04330718517303467, 0.28067827224731445, -0.04917275905609131, -0.40333014726638794, 0.3396610617637634, -0.3696938157081604, 0.22347044944763184, -0.4235120415687561, 0.34136348962783813, -0.1857420802116394, -0.0348166823387146, 0.0961984395980835, 0.01983863115310669, 0.0747528076171875, 0.11833858489990234, -0.3991670608520508, 0.19058966636657715, -0.028456270694732666, 0.39336442947387695, 0.38221389055252075, 0.16698312759399414, -0.4034211039543152, 0.3650476336479187, -0.23694199323654175, -0.046604037284851074, 0.16654598712921143, 0.4990048408508301, -0.007272839546203613, 0.11545336246490479, 0.05716562271118164, -0.3766680359840393, 0.3264372944831848, 0.09480273723602295, -0.38242095708847046, -0.2148570418357849, -0.2130335569381714, -0.3783736228942871, 0.3711375594139099, 0.3516983389854431, -0.4701751470565796, 0.16331440210342407, 0.11433357000350952, -0.2799522876739502, -0.21696871519088745, -0.14067041873931885, -0.33182471990585327, 0.3574128746986389, -0.2628944516181946, 0.1328914761543274, -0.14738357067108154, -0.06418228149414062, -0.4072800278663635, -0.0740659236907959, 0.45053422451019287, 0.03310471773147583, 0.20875847339630127, -0.3970349431037903, 0.25383657217025757, -0.02044898271560669, -0.05109405517578125, -0.04243779182434082, 0.188113272190094, 0.1070626974105835, 0.37457960844039917, 0.24147766828536987, -0.26774585247039795, -0.018231749534606934, 0.33367830514907837], [0.0894782543182373, 0.4821240305900574, 0.05427742004394531, 0.48224902153015137, 0.4480443000793457, -0.20554035902023315, -0.35725200176239014, -0.07803058624267578, 0.10567456483840942, -0.052000582218170166, -0.16497772932052612, -0.42968517541885376, -0.12631696462631226, -0.3554460406303406, -0.23392587900161743, 0.01595127582550049, -0.044080913066864014, 0.35809630155563354, -0.03055095672607422, 0.3117576837539673, 0.19601041078567505, 0.22854012250900269, -0.33981621265411377, 0.4449755549430847, -0.17081326246261597, 0.43441325426101685, 0.3114476203918457, -0.35879427194595337, 0.41134411096572876, 0.08049720525741577, 0.29058921337127686, -0.13188844919204712, -0.4639715552330017, -0.31897401809692383, 0.3716452717781067, 0.4239689111709595, -0.15270346403121948, -0.48275846242904663, -0.11076313257217407, 0.432303786277771, 0.15130293369293213, -0.06751507520675659, 0.26766735315322876, 0.4423607587814331, 0.4701225757598877, -0.3853490352630615, 0.13433223962783813, 0.06023353338241577, 0.42926979064941406, -0.45014894008636475, -0.1479020118713379, 0.040450990200042725, -0.4176657199859619, 0.43829143047332764, -0.2856560945510864, 0.3862936496734619, 0.18052548170089722, -0.473335862159729, 0.43372559547424316, 0.2550472021102905, -0.16326314210891724, -0.07742887735366821, 0.18312859535217285, -0.15589135885238647, -0.27539628744125366, -0.4461670517921448, 0.3027443289756775, -0.06174015998840332, 0.38052934408187866, -0.45032328367233276, -0.14403468370437622, -0.23841392993927002, -0.4233647584915161, 0.06104421615600586, 0.21967339515686035, 0.05953878164291382, 0.3906635642051697, -0.0077931880950927734, 0.3828909397125244, 0.4758506417274475, 0.33933937549591064, 0.49396252632141113, -0.4368307590484619, 0.15907728672027588, -0.20627427101135254, -0.4125521183013916, -0.1371990442276001, -0.4411669373512268, -0.23513317108154297, 0.31213700771331787, 0.3431262969970703, -0.09410262107849121, 0.0647621750831604, 0.33053821325302124, -0.24427902698516846, 0.40196365118026733, -0.4196484684944153, 0.49649083614349365, -0.2777298092842102, -0.06453913450241089, -0.1487296223640442, -0.08597636222839355, 0.36778414249420166, 0.08472239971160889, -0.19126641750335693, 0.18208801746368408, 0.37580084800720215, 0.01886957883834839, 0.1318337321281433, 0.2948092818260193, -0.3486257791519165, 0.00013959407806396484, -0.23871862888336182, 0.05943673849105835, 0.2771375775337219, 0.10037845373153687, -0.049634575843811035, -0.4165704846382141, 0.14142495393753052, -0.22035634517669678, 0.27670615911483765, 0.16185104846954346, -0.0967024564743042, 0.09773719310760498, -0.05024749040603638, 0.37827587127685547, 0.48703092336654663, 0.16184604167938232], [0.23789268732070923, 0.17390739917755127, -0.32083946466445923, 0.1751386523246765, -0.07768905162811279, -0.3736231327056885, -0.4744151830673218, -0.30785226821899414, -0.3635074496269226, 0.46359968185424805, 0.24433022737503052, 0.4658687710762024, -0.06572657823562622, -0.21259623765945435, 0.25454437732696533, -0.07939833402633667, 0.19879215955734253, -0.2847808599472046, 0.21533602476119995, -0.34573429822921753, 0.04601597785949707, 0.32750970125198364, -0.368449866771698, -0.4759686589241028, -0.23718315362930298, -0.3979732394218445, -0.03948390483856201, 0.1963934302330017, 0.4987643361091614, -0.26229315996170044, 0.3058324456214905, -0.2987881302833557, -0.17299091815948486, 0.26491451263427734, 0.10854107141494751, -0.16051292419433594, -0.2601437568664551, 0.4733697772026062, 0.3870205283164978, 0.28080689907073975, -0.3129212260246277, 0.2056417465209961, -0.4264741539955139, 0.01155465841293335, -0.051003336906433105, 0.270554780960083, 0.27150505781173706, -0.24375224113464355, -0.05641716718673706, 0.16812527179718018, 0.4903606176376343, -0.10217195749282837, -0.0035079121589660645, 0.0560573935508728, -0.304038405418396, 0.4381175637245178, -0.015628159046173096, 0.14655601978302002, 0.0650409460067749, -0.07633590698242188, -0.019288957118988037, -0.3673602342605591, 0.40923207998275757, -0.36922168731689453, 0.14532500505447388, 0.33263611793518066, 0.2758898138999939, 0.0683368444442749, -0.4650830030441284, 0.19610798358917236, 0.43404871225357056, -0.4483375549316406, -0.38363540172576904, 0.2606357932090759, -0.42135894298553467, -0.3417097330093384, -0.08635973930358887, 0.13526874780654907, 0.36912405490875244, -0.11467808485031128, -0.35865384340286255, -0.021452128887176514, -0.4989401698112488, 0.22950148582458496, -0.47857773303985596, 0.08858203887939453, 0.025035858154296875, 0.34252506494522095, 0.34501367807388306, 0.2614591717720032, 0.44438475370407104, 0.29343748092651367, 0.18100988864898682, 0.05539506673812866, -0.23538750410079956, -0.01861196756362915, 0.4561505913734436, -0.04214376211166382, -0.03140580654144287, -0.2990974187850952, 0.0893937349319458, -0.20778900384902954, 0.13889747858047485, 0.09623610973358154, 0.041230082511901855, 0.30684101581573486, 0.2518031597137451, -0.26616448163986206, -0.32055163383483887, -0.48437678813934326, 0.08186167478561401, 0.045176029205322266, 0.39255261421203613, -0.3394315838813782, 0.43811511993408203, 0.3118380308151245, 0.4622230529785156, -0.04640007019042969, -0.1368095874786377, 0.180223286151886, -0.028905212879180908, -0.3860747814178467, -0.12749016284942627, -0.010732293128967285, 0.465070903301239, -0.14322268962860107, -0.15931791067123413, 0.24558526277542114], [-0.13378655910491943, -0.47988247871398926, 0.34357160329818726, -0.26827865839004517, -0.291082501411438, 0.2590232491493225, 0.27825844287872314, -0.3831806778907776, 0.2434237003326416, 0.26916372776031494, -0.3139283061027527, 0.34748274087905884, -0.45694029331207275, 0.11391907930374146, -0.1449878215789795, -0.1154676079750061, 0.48347586393356323, -0.2753921151161194, -0.32144778966903687, -0.4172428250312805, -0.3243623375892639, 0.39207351207733154, 0.16923999786376953, 0.042885005474090576, 0.3818216919898987, 0.1237325668334961, -0.22678756713867188, 0.29385554790496826, -0.027041137218475342, 0.44562971591949463, -0.1788884401321411, 0.32983559370040894, -0.050745368003845215, 0.47587352991104126, -0.10586279630661011, 0.1912238597869873, -0.25916290283203125, -0.21630704402923584, -0.47874802350997925, 0.07433164119720459, 0.12441784143447876, -0.22193282842636108, 0.22097110748291016, 0.3425300717353821, 0.2588741183280945, -0.34684062004089355, -0.16926026344299316, -0.32153332233428955, 0.32325345277786255, 0.0006800293922424316, 0.13684451580047607, -0.38874703645706177, 0.4747536778450012, 0.3198952078819275, -0.21646380424499512, -0.23845267295837402, -0.13878238201141357, -0.30386674404144287, -0.15919500589370728, -0.1430037021636963, -0.3381733298301697, 0.027666091918945312, 0.15052300691604614, -0.13190531730651855, -0.4752774238586426, -0.18521511554718018, 0.15728610754013062, -0.39854341745376587, -0.43594974279403687, -0.4552217125892639, 0.278251588344574, -0.12761259078979492, 0.25363099575042725, -0.19262099266052246, -0.16620367765426636, 0.17608678340911865, 0.4127292037010193, -0.3543328642845154, -0.09077000617980957, -0.35806870460510254, -0.06667965650558472, -0.23717767000198364, -0.2132967710494995, -0.2995569109916687, -0.21475064754486084, 0.04951578378677368, 0.21804451942443848, 0.1489109992980957, -0.046169161796569824, 0.1776466965675354, -0.32688236236572266, -0.1982385516166687, 0.3425854444503784, -0.26769018173217773, -0.3439295291900635, 0.027184486389160156, 0.19614189863204956, 0.3024888038635254, 0.2581574320793152, 0.203935444355011, -0.08260500431060791, 0.3693832755088806, 0.38119953870773315, 0.04130131006240845, -0.10347926616668701, 0.23339706659317017, -0.39629513025283813, 0.491250216960907, -0.47283071279525757, -0.23247498273849487, 0.15508848428726196, -0.4174923896789551, -0.16099369525909424, -0.26192498207092285, 0.2870243191719055, -0.33004093170166016, 0.30348432064056396, -0.4595688581466675, 0.34437239170074463, 0.2911047339439392, -0.3276926875114441, 0.4446603059768677, -0.07772219181060791, 0.1255611777305603, 0.342307448387146, 0.49029284715652466, -0.4235057234764099, -0.24126595258712769], [0.060314178466796875, -0.33487898111343384, -0.32090073823928833, 0.044663071632385254, 0.2254597544670105, -0.4532319903373718, -0.49621230363845825, -0.1872340440750122, 0.30895090103149414, -0.15178006887435913, -0.05420106649398804, 0.1873064637184143, 0.12954437732696533, -0.1530277132987976, 0.447651207447052, 0.2633787989616394, -0.19116061925888062, -0.015366435050964355, 0.30782127380371094, -0.4394761323928833, -0.35788822174072266, -0.44905585050582886, 0.36111336946487427, 0.08702307939529419, 0.41477400064468384, -0.20722883939743042, 0.2890406847000122, -0.0334850549697876, -0.4813717007637024, 0.19945812225341797, 0.4458844065666199, -0.2433733344078064, -0.47842907905578613, -0.13497650623321533, -0.1454143524169922, 0.2848474979400635, 0.29836416244506836, 0.12353140115737915, -0.4480922818183899, -0.3656477928161621, -0.39671170711517334, -0.3126503825187683, 0.2951226830482483, -0.12280774116516113, -0.41265618801116943, -0.18403875827789307, -0.45949625968933105, -0.4459754228591919, -0.27425670623779297, -0.20759636163711548, -0.11056333780288696, 0.4213617444038391, 0.4090942144393921, -0.02390289306640625, 0.3475845456123352, 0.4224371314048767, -0.17916548252105713, 0.3819284439086914, 0.25177091360092163, 0.31796300411224365, 0.48741793632507324, 0.247042715549469, -0.22769087553024292, 0.13405907154083252, -0.001533210277557373, 0.1661931872367859, 0.405495822429657, 0.38405799865722656, -0.4521554112434387, -0.17189770936965942, -0.2535475492477417, -0.3821834921836853, -0.477952778339386, -0.22423475980758667, 0.046808719635009766, 0.3446033000946045, 0.4849022626876831, 0.30307358503341675, -0.4435814619064331, 0.16200482845306396, -0.08869355916976929, -0.4177500009536743, -0.22277003526687622, 0.10696738958358765, -0.448852002620697, 0.02871525287628174, -0.26930004358291626, 0.13111090660095215, 0.260323166847229, 0.3714550733566284, -0.02733433246612549, -0.3827783465385437, -0.3994418978691101, 0.1965872049331665, 0.4274923801422119, -0.20220649242401123, -0.22922712564468384, 0.41627126932144165, 0.4717816710472107, -0.10308748483657837, -0.2826404571533203, 0.45800304412841797, -0.18847227096557617, 0.12000882625579834, 0.2185491919517517, 0.41854697465896606, 0.14402300119400024, -0.23354727029800415, 0.45148253440856934, 0.03896141052246094, -0.06718403100967407, 0.005082845687866211, -0.020205795764923096, 0.06674247980117798, -0.4911333918571472, -0.47488439083099365, 0.15113753080368042, 0.20648455619812012, -0.11518740653991699, -0.47480952739715576, 0.03723859786987305, 0.4275057911872864, 0.2543427348136902, -0.4137725234031677, 0.45372140407562256, -0.0586780309677124, 0.3086026906967163, 0.3679567575454712], [0.220314621925354, -0.13258826732635498, 0.3117792010307312, 0.2603939175605774, -0.034916043281555176, 0.4199748635292053, 0.4146098494529724, -0.03858983516693115, -0.4880402684211731, 0.49698811769485474, -0.3161928057670593, -0.25906866788864136, 0.19064080715179443, -0.4210939407348633, -0.4048731327056885, -0.49398505687713623, -0.37226104736328125, -0.21513211727142334, 0.4999697208404541, -0.13169407844543457, -0.4955413341522217, -0.008069515228271484, -0.4526098370552063, 0.42135685682296753, -0.287769079208374, -0.056522250175476074, -0.33074015378952026, 0.49909698963165283, 0.2385360598564148, -0.36976051330566406, -0.4277927279472351, 0.24549907445907593, 0.21770310401916504, 0.36216259002685547, 0.25484699010849, 0.26765668392181396, -0.3044816255569458, 0.48902571201324463, -0.27369117736816406, -0.2643686532974243, -0.49074602127075195, -0.06468874216079712, -0.35740143060684204, 0.05509060621261597, 0.005642592906951904, 0.07867521047592163, -0.3047710657119751, -0.14400845766067505, -0.21627897024154663, -0.21007174253463745, -0.17379045486450195, -0.2747212052345276, 0.38830631971359253, -0.17943936586380005, 0.4117547869682312, -0.48926103115081787, 0.3898058533668518, -0.28300386667251587, -0.1016271710395813, 0.21738547086715698, -0.44307494163513184, 0.49988681077957153, 0.09685266017913818, -0.0025017261505126953, -0.03368699550628662, -0.13133478164672852, 0.05284029245376587, 0.4481208920478821, -0.4076688885688782, 0.47981345653533936, -0.4252917766571045, 0.13081419467926025, 0.46284109354019165, 0.3585066795349121, -0.0276334285736084, -0.3976101875305176, -0.12457841634750366, 0.27854156494140625, -0.19035297632217407, 0.492068350315094, -0.4760909080505371, 0.4427807927131653, -0.19022881984710693, -0.23590689897537231, -0.015855073928833008, -0.4482957720756531, -0.08973133563995361, 0.47601568698883057, 0.3046303987503052, 0.3730342984199524, 0.422241747379303, 0.39890891313552856, -0.009378254413604736, -0.3843122124671936, 0.352042019367218, 0.05608266592025757, -0.10889875888824463, -0.49526816606521606, -0.24102383852005005, -0.46445709466934204, -0.3469551205635071, 0.14239275455474854, 0.13651317358016968, -0.37805402278900146, 0.3870735168457031, -0.08062881231307983, 0.06705218553543091, -0.32581937313079834, 0.2517123222351074, -0.18539315462112427, -0.13259607553482056, -0.06341385841369629, 0.22566020488739014, 0.4762410521507263, 0.4083390235900879, 0.017720699310302734, 0.06620562076568604, -0.3881205916404724, 0.3793210983276367, -0.33491379022598267, 0.3497955799102783, 0.43471527099609375, -0.03380131721496582, 0.15087515115737915, 0.2522866725921631, 0.04488492012023926, 0.4483155608177185, 0.08106750249862671], [0.40509456396102905, 0.06502038240432739, 0.132246732711792, 0.4399581551551819, 0.21578681468963623, -0.2224690318107605, 0.3335556983947754, -0.17228376865386963, -0.4011741280555725, -0.48781561851501465, -0.05753713846206665, 0.03676259517669678, 0.23342949151992798, 0.0455135703086853, -0.24387311935424805, -0.051305413246154785, 0.07910674810409546, -0.2572483420372009, -0.23575419187545776, -0.0778302550315857, -0.049916744232177734, 0.0333978533744812, 0.12430226802825928, -0.1710614562034607, 0.14781665802001953, -0.40344375371932983, -0.14510709047317505, -0.014528751373291016, 0.2210625410079956, -0.2776947021484375, -0.3053576946258545, -0.1386846899986267, -0.2948552370071411, 0.04807001352310181, -0.12488293647766113, 0.41966891288757324, 0.24781787395477295, 0.10477381944656372, -0.27397626638412476, -0.08910644054412842, -0.44627290964126587, -0.3027530312538147, -0.4447336792945862, -0.14071375131607056, -0.016078948974609375, 0.05434596538543701, -0.2627130150794983, 0.1702125072479248, 0.3188731074333191, 0.35268425941467285, 0.011233150959014893, -0.0021363496780395508, 0.26717835664749146, -0.037202298641204834, -0.15361016988754272, -0.12286573648452759, 0.1381492018699646, -0.4967142939567566, -0.09694415330886841, -0.03297281265258789, -0.3911803364753723, -0.3716307282447815, -0.3274129033088684, 0.10780227184295654, -0.33266162872314453, -0.19230788946151733, 0.21876710653305054, 0.10013478994369507, -0.02192401885986328, -0.06589823961257935, 0.4948934316635132, -0.4133315086364746, -0.3497057557106018, 0.03649061918258667, -0.4678727984428406, -0.20002013444900513, 0.4023732542991638, 0.3069151043891907, -0.18079543113708496, -0.25242894887924194, 0.4983696937561035, -0.06309741735458374, 0.4287569522857666, -0.19762611389160156, -0.1304599642753601, 0.30588817596435547, 0.08357489109039307, -0.4175184369087219, -0.2498013973236084, 0.17141938209533691, 0.02433222532272339, -0.4162708520889282, -0.389682412147522, -0.4407373070716858, 0.12277984619140625, -0.3893499970436096, -0.3838554620742798, -0.27786803245544434, 0.15869659185409546, 0.46902167797088623, 0.053454697132110596, -0.26896923780441284, -0.48181724548339844, -0.24632304906845093, -0.3614698052406311, 0.2178214192390442, -0.4651593565940857, 0.29742634296417236, -0.3414246439933777, -0.03363877534866333, 0.35920852422714233, -0.49032020568847656, 0.4548971652984619, -0.266867995262146, 0.44627970457077026, 0.05702298879623413, -0.08513826131820679, 0.01058804988861084, 0.263893187046051, 0.11177682876586914, 0.023207902908325195, -0.3489360213279724, 0.023463726043701172, 0.21004366874694824, 0.4567607641220093, 0.007807135581970215, 0.13530391454696655, -0.4707251787185669], [-0.12621188163757324, 0.11435794830322266, 0.1791985034942627, 0.10354882478713989, 0.09818726778030396, 0.3465122580528259, -0.3428954482078552, 0.4082295298576355, -0.4785017967224121, 0.25754404067993164, 0.06760406494140625, -0.3911970257759094, 0.46245020627975464, -0.46749067306518555, 0.41241616010665894, -0.23928654193878174, -0.189386785030365, -0.39445000886917114, 0.44784319400787354, -0.4809408187866211, -0.48434871435165405, 0.3027324676513672, 0.0819777250289917, -0.4358496069908142, -0.28422999382019043, 0.1624423861503601, -0.4103717803955078, -0.3687387704849243, -0.13980060815811157, -0.02897500991821289, -0.3686935305595398, 0.04096180200576782, 0.02274644374847412, 0.4589972496032715, -0.302138090133667, 0.47467297315597534, -0.34500521421432495, 0.4374586343765259, 0.05572277307510376, -0.34121042490005493, 0.3685346841812134, 0.15176206827163696, 0.3564525246620178, -0.4108349084854126, 0.15504437685012817, 0.1309962272644043, 0.01284855604171753, 0.18068772554397583, 0.22543853521347046, -0.010053157806396484, 0.2924196720123291, -0.32986629009246826, 0.35724973678588867, -0.13485229015350342, 0.1897096037864685, -0.00813591480255127, -0.33144670724868774, 0.23511314392089844, 0.43440771102905273, -0.49037230014801025, 0.09273707866668701, 0.23473089933395386, 0.3598363995552063, -0.3133648633956909, -0.185283362865448, -0.05267786979675293, -0.26988685131073, -0.35303014516830444, 0.322559118270874, 0.22330552339553833, -0.13873594999313354, 0.1482110619544983, 0.44504737854003906, 0.08064103126525879, -0.3229125738143921, 0.21243220567703247, 0.12908774614334106, 0.09434914588928223, 0.035726726055145264, 0.13489454984664917, -0.17416256666183472, 0.00232619047164917, 0.04978024959564209, 0.1714807152748108, -0.008443117141723633, -0.27721524238586426, -0.22096985578536987, 0.3259785771369934, 0.3751906752586365, 0.08712977170944214, -0.022218763828277588, 0.07096534967422485, 0.04472929239273071, 0.3891755938529968, -0.32493501901626587, 0.23268437385559082, 0.09461957216262817, 0.17971843481063843, 0.31081950664520264, -0.4515279531478882, 0.13335168361663818, -0.23266881704330444, -0.18407952785491943, -0.39873945713043213, 0.21902334690093994, -0.1830284595489502, 0.35715341567993164, 0.1793387532234192, -0.30549609661102295, 0.4940113425254822, 0.038781046867370605, -0.49181216955184937, -0.3424953818321228, -0.2423098087310791, -0.04338252544403076, -0.06615203619003296, 0.3719552159309387, -0.12521064281463623, -0.20531290769577026, -0.17171740531921387, 0.05776876211166382, 0.380391001701355, -0.16632306575775146, 0.12193703651428223, -0.2743226885795593, -0.2508624196052551, 0.21243268251419067, 0.29494935274124146], [-0.4617261290550232, 0.4431808590888977, -0.2963513731956482, 0.22038233280181885, 0.20014506578445435, -0.013689100742340088, 0.2111174464225769, 0.4988018274307251, -0.4373819828033447, -0.3647352457046509, 0.10268884897232056, 0.3565940260887146, 0.015744268894195557, 0.3720663785934448, 0.4167778491973877, -0.3494493365287781, 0.06422674655914307, 0.08687865734100342, 0.36812829971313477, 0.024135172367095947, 0.2569531798362732, 0.06781834363937378, -0.004608213901519775, -0.005316019058227539, -0.14213192462921143, -0.17215180397033691, -0.3538559675216675, -0.32213759422302246, -0.3994004726409912, 0.4582335352897644, -0.23525965213775635, 0.4572151303291321, 0.4638444185256958, -0.35450488328933716, 0.0025044679641723633, -0.3188769817352295, -0.10268384218215942, -0.184390127658844, -0.43799781799316406, -0.0041931867599487305, 0.2154635190963745, -0.37751227617263794, 0.358056902885437, 0.32510197162628174, -0.0022750496864318848, 0.28312772512435913, -0.29718083143234253, 0.3041715621948242, -0.481380820274353, -0.3702741265296936, 0.21200549602508545, -0.23839706182479858, 0.4267837405204773, 0.4179179072380066, -0.2727378010749817, -0.03132987022399902, -0.42093294858932495, 0.1638522744178772, -0.1540752649307251, 0.16579276323318481, 0.19111961126327515, -0.22902917861938477, -0.3034130930900574, -0.19649338722229004, -0.21417343616485596, -0.32138895988464355, -0.3050539493560791, -0.41865867376327515, -0.3415340781211853, 0.38796716928482056, 0.14337158203125, 0.31517869234085083, 0.10230261087417603, -0.21474987268447876, -0.3948163390159607, 0.027127444744110107, -0.13794487714767456, 0.23539197444915771, -0.39411455392837524, 0.2010241150856018, 0.40606844425201416, 0.31542396545410156, -0.21121960878372192, 0.266379714012146, 0.25251173973083496, 0.3164135813713074, -0.34242236614227295, -0.32535475492477417, -0.3273669481277466, -0.08862006664276123, -0.20049649477005005, 0.11482542753219604, 0.07736814022064209, 0.3106335401535034, 0.2102791666984558, 0.21852415800094604, 0.36867719888687134, 0.19319415092468262, -0.11214619874954224, -0.453086256980896, 0.2424030303955078, -0.011873364448547363, 0.3571246862411499, -0.06140565872192383, -0.1287655234336853, 0.2241474986076355, 0.2658604383468628, -0.2745276093482971, -0.06520712375640869, -0.28861892223358154, 0.08562624454498291, 0.3291293978691101, -0.4381917715072632, -0.2068682312965393, 0.09179681539535522, -0.48487991094589233, 0.4235987663269043, -0.4190274477005005, -0.19814550876617432, -0.25096166133880615, 0.19044184684753418, -0.4901215434074402, -0.2977793216705322, -0.25588786602020264, -0.014138102531433105, 0.48597806692123413, -0.2570068836212158, -0.3592326045036316], [-0.07082492113113403, 0.16796529293060303, 0.042173802852630615, -0.4836328625679016, 0.0857161283493042, 0.22119110822677612, -0.36522120237350464, -0.3704190254211426, -0.27182239294052124, -0.0034067630767822266, 0.4273921847343445, -0.39663398265838623, -0.24941885471343994, 0.28605639934539795, 0.008456170558929443, -0.3822914958000183, 0.1929149627685547, -0.23161649703979492, 0.0291287899017334, 0.09287697076797485, 0.357829213142395, -0.22825586795806885, -0.33321845531463623, -0.1291581392288208, -0.2981187105178833, -0.42539727687835693, 0.27139586210250854, 0.4636882543563843, -0.06859081983566284, 0.052209556102752686, -0.3034502863883972, -0.18084663152694702, -0.3123434782028198, 0.20052599906921387, 0.004704117774963379, -0.3808850646018982, -0.27626174688339233, 0.1532459855079651, -0.0038208961486816406, 0.14221149682998657, 0.3598542809486389, 0.3379245400428772, 0.07481366395950317, -0.23368948698043823, 0.07796305418014526, 0.10414272546768188, 0.005311310291290283, 0.44099974632263184, -0.15273135900497437, -0.49729418754577637, -0.08516860008239746, -0.13493621349334717, 0.2660108208656311, -0.4145556092262268, 0.38256096839904785, 0.14470356702804565, 0.12763100862503052, 0.402656614780426, -0.10606217384338379, 0.03991299867630005, 0.3786274194717407, 0.40049225091934204, -0.0613175630569458, -0.047710299491882324, 0.16680628061294556, -0.16299694776535034, 0.4293689727783203, 0.473755419254303, -0.31379663944244385, -0.13371235132217407, -0.023687541484832764, 0.14565527439117432, 0.1343734860420227, 0.4514090418815613, 0.4895932078361511, -0.17421650886535645, 0.3484495282173157, 0.4895557761192322, 0.05605435371398926, -0.16583508253097534, -0.18393373489379883, -0.11108613014221191, 0.39711445569992065, -0.41734641790390015, -0.25112462043762207, -0.4351826310157776, -0.34236955642700195, -0.1283530592918396, -0.18535476922988892, 0.09025609493255615, -0.4268572926521301, 0.2847828269004822, 0.4464036226272583, 0.43453943729400635, 0.3413563370704651, -0.444876492023468, -0.2356589436531067, 0.1781458854675293, -0.37046223878860474, 0.017888963222503662, 0.18254011869430542, -0.4214516282081604, 0.4428172707557678, -0.3376065492630005, 0.4046214818954468, 0.23679900169372559, 0.28083550930023193, -0.31272417306900024, 0.3821919560432434, 0.4733363389968872, 0.20570772886276245, -0.24592483043670654, 0.4567555785179138, -0.299496054649353, 0.43550729751586914, -0.09993082284927368, -0.4452629089355469, 0.08590322732925415, 0.47556090354919434, -0.4295235872268677, -0.3803676962852478, -0.2748892307281494, 0.19608867168426514, 0.46695756912231445, -0.14452093839645386, 0.4894939064979553, -0.06743597984313965, -0.337235689163208], [-0.03622591495513916, 0.30354028940200806, -0.2741283178329468, 0.44996029138565063, -0.15107309818267822, 0.026573359966278076, 0.30445408821105957, -0.14409440755844116, 0.1282399296760559, 0.3651065230369568, 0.06213861703872681, 0.36988890171051025, -0.4595258831977844, -0.18428945541381836, -0.36751729249954224, -0.4866282343864441, 0.43947094678878784, -0.3915197253227234, 0.45854735374450684, 0.4935581684112549, -0.2396494746208191, 0.4138697385787964, -0.010625660419464111, -0.10222983360290527, 0.4290185570716858, 0.49640876054763794, -0.40924543142318726, -0.48702025413513184, -0.4523041248321533, -0.3756869435310364, 0.10393732786178589, 0.47339993715286255, -0.2765169143676758, 0.19039267301559448, 0.4342343807220459, 0.27550244331359863, 0.26723551750183105, -0.16826343536376953, -0.14777052402496338, -0.20676487684249878, 0.13586997985839844, 0.35233986377716064, -0.24235349893569946, 0.4833223223686218, -0.18271273374557495, 0.38588660955429077, -0.1453244686126709, -0.4459255337715149, -0.18797945976257324, -0.45371806621551514, 0.4935718774795532, -0.4798831343650818, 0.10854017734527588, -0.14927637577056885, 0.26871341466903687, 0.04483753442764282, -0.14769130945205688, -0.18672460317611694, -0.16175580024719238, 0.11534637212753296, 0.05666083097457886, 0.45401614904403687, -0.363422691822052, -0.45734095573425293, -0.44801461696624756, 0.045028746128082275, 0.45181167125701904, -0.384458065032959, -0.16698628664016724, -0.2446727752685547, -0.04091465473175049, 0.4118521213531494, 0.3463069796562195, 0.41798514127731323, -0.3281816840171814, 0.41179102659225464, -0.29521507024765015, 0.40960317850112915, 0.33520233631134033, 0.04808574914932251, -0.04134523868560791, 0.42627549171447754, 0.35266607999801636, 0.49993908405303955, -0.2387353777885437, 0.19072580337524414, -0.33801382780075073, -0.4234164357185364, -0.07246249914169312, 0.20387417078018188, 0.18836736679077148, -0.15901994705200195, 0.38258349895477295, -0.29176855087280273, -0.17600476741790771, -0.26820456981658936, 0.12011712789535522, 0.0875043272972107, -0.18709635734558105, -0.0342753529548645, 0.41484713554382324, -0.061599910259246826, -0.4124407172203064, -0.4241448640823364, 0.17542517185211182, 0.19879865646362305, -0.12489724159240723, 0.4421117901802063, 0.33403855562210083, -0.15631979703903198, 0.17343175411224365, 0.33186793327331543, 0.08149361610412598, -0.20208412408828735, 0.3406890034675598, 0.12209433317184448, 0.3529742360115051, -0.17666584253311157, 0.42144477367401123, 0.36511820554733276, -0.19763338565826416, 0.4913119673728943, -0.41057640314102173, 0.019672393798828125, 0.34337860345840454, -0.07780289649963379, 0.04641556739807129, -0.10272938013076782], [-0.15926992893218994, 0.13484901189804077, -0.4074823260307312, -0.47328251600265503, 0.30092257261276245, -0.07578271627426147, -0.40360862016677856, 0.2718092203140259, 0.3437657952308655, 0.3470717668533325, -0.14298981428146362, -0.3418405055999756, 0.18116432428359985, -0.2511180639266968, -0.3956177234649658, -0.1169167160987854, 0.00206601619720459, 0.2423858642578125, 0.3756229281425476, -0.4198353886604309, 0.17067474126815796, 0.24309581518173218, 0.4620717167854309, -0.047641634941101074, -0.043663859367370605, -0.09478265047073364, -0.4881806969642639, 0.27339279651641846, 0.10574203729629517, 0.2617311477661133, -0.43321412801742554, 0.277972936630249, -0.24979877471923828, -0.428436279296875, -0.14877790212631226, -0.030615687370300293, -0.1343705654144287, -0.2626190781593323, 0.009146928787231445, 0.1204838752746582, 0.3643152713775635, -0.4831088185310364, -0.4669736623764038, -0.2710396647453308, -0.49671244621276855, -0.004482150077819824, 0.21414285898208618, -0.3221137523651123, 0.015425443649291992, 0.42081427574157715, -0.36325573921203613, -0.40139079093933105, 0.3213934898376465, -0.2527141571044922, -0.28353363275527954, -0.22017472982406616, -0.18791526556015015, 0.4008825421333313, -0.20650959014892578, 0.3689364790916443, -0.44157135486602783, -0.49409210681915283, -0.4914649724960327, -0.23958748579025269, 0.13604211807250977, -0.03612959384918213, -0.07561194896697998, -0.30894505977630615, 0.09090793132781982, 0.1597350835800171, -0.12285351753234863, -0.4613618850708008, 0.1895647644996643, -0.13380086421966553, -0.011813938617706299, -0.13953393697738647, 0.01580190658569336, 0.47378790378570557, 0.08670687675476074, -0.24694228172302246, -0.3026888370513916, -0.10176986455917358, -0.46416521072387695, -0.05954289436340332, -0.10394984483718872, -0.07309389114379883, 0.4833100438117981, -0.0343623161315918, 0.26671892404556274, -0.3685663342475891, -0.09226751327514648, -0.23546451330184937, -0.2009926438331604, 0.2730552554130554, 0.2866896390914917, 0.19042694568634033, 0.2872556447982788, -0.06022191047668457, -0.1875494122505188, -0.3759707808494568, -0.2108997106552124, 0.42315810918807983, -0.14092081785202026, -0.2947545647621155, 0.10191112756729126, 0.05233579874038696, 0.10015970468521118, 0.2131069302558899, 0.33854854106903076, -0.4920971393585205, -0.4853084683418274, 0.3342812657356262, -0.23192793130874634, -0.28292274475097656, -0.42280787229537964, 0.45267051458358765, 0.4748743176460266, -0.4632450342178345, -0.31340163946151733, 0.4465206265449524, 0.1350598931312561, -0.3562026619911194, -0.16114026308059692, -0.17144960165023804, 0.24478298425674438, 0.45388126373291016, 0.45026201009750366, -0.21161508560180664], [-0.44877690076828003, -0.4660918712615967, -0.05180943012237549, -0.4786737561225891, -0.47059834003448486, -0.12929606437683105, 0.34482836723327637, -0.06838113069534302, 0.14014005661010742, 0.4784572124481201, -0.3621649146080017, 0.19125628471374512, 0.21670401096343994, -0.19657379388809204, 0.42747318744659424, -0.22364884614944458, -0.443085253238678, -0.09555965662002563, 0.31893390417099, 0.4739171862602234, -0.08522975444793701, -0.07409077882766724, 0.218222975730896, -0.10822856426239014, 0.22962725162506104, 0.28073936700820923, -0.08536911010742188, 0.22277617454528809, 0.04315602779388428, -0.0525936484336853, 0.10781699419021606, -0.23565930128097534, -0.4378451108932495, -0.4570993185043335, -0.25269049406051636, 0.2342376708984375, 0.22558629512786865, 0.3501141667366028, 0.028644919395446777, -0.01495349407196045, 0.38955533504486084, -0.17832911014556885, 0.23974478244781494, 0.2604065537452698, 0.14708083868026733, -0.39821380376815796, 0.46506887674331665, -0.42943716049194336, 0.3286411166191101, -0.00926363468170166, -0.496681809425354, 0.21238434314727783, -0.14952898025512695, -0.477813720703125, -0.416323184967041, -0.479944109916687, 0.2519962787628174, 0.22492796182632446, -0.06815481185913086, 0.08182340860366821, -0.3758576512336731, 0.3628942370414734, -0.20935142040252686, 0.3350483179092407, -0.2770575284957886, 0.19635063409805298, 0.21454715728759766, 0.29761803150177, 0.340387761592865, -0.1618977189064026, -0.3563271164894104, 0.3928893208503723, 0.27279627323150635, -0.400473952293396, 0.254962682723999, 0.2459491491317749, -0.44880616664886475, -0.011631429195404053, 0.2835749387741089, -0.03994894027709961, -0.31876111030578613, -0.16764217615127563, 0.26964884996414185, -0.46640610694885254, -0.08773857355117798, -0.3834037184715271, 0.18602031469345093, -0.2615929841995239, -0.14159584045410156, -0.03643518686294556, -0.16665560007095337, -0.48713141679763794, 0.035531461238861084, -0.15192878246307373, 0.06241267919540405, -0.47743773460388184, -0.22725486755371094, -0.24537086486816406, -0.31996655464172363, 0.403971791267395, -0.48531126976013184, -0.06801718473434448, -0.47337979078292847, -0.41980016231536865, -0.20561295747756958, 0.43254899978637695, -0.08589458465576172, -0.4796363115310669, 0.3358994722366333, -0.3185453414916992, 0.14512354135513306, -0.03547346591949463, 0.26200658082962036, 0.0629315972328186, 0.01811438798904419, -0.19093555212020874, 0.1570609211921692, -0.13447344303131104, -0.17807435989379883, -0.41475653648376465, -0.2098519206047058, 0.45330893993377686, 0.1934794783592224, -0.38646358251571655, 0.13467633724212646, 0.15353542566299438, 0.4308916926383972, -0.40798163414001465], [0.3529006838798523, -0.45041465759277344, 0.1549854874610901, -0.22801220417022705, -0.45135921239852905, -0.04901111125946045, 0.16721045970916748, 0.2811660170555115, 0.0027521252632141113, -0.07473838329315186, -0.018323540687561035, -0.26384711265563965, -0.2950264811515808, 0.29325437545776367, -0.14118123054504395, 0.16205072402954102, -0.3063024878501892, -0.3794616460800171, 0.46090394258499146, 0.427310585975647, -0.4985445737838745, -0.14304673671722412, -0.4711758494377136, 0.3978755474090576, -0.35225439071655273, 0.3945711851119995, 0.45611661672592163, -0.2121240496635437, 0.06104618310928345, 0.35624319314956665, 0.3849382996559143, 0.30176985263824463, 0.48515212535858154, -0.40947210788726807, 0.35291802883148193, -0.19428688287734985, -0.4149280786514282, -0.24584805965423584, 0.2292993664741516, 0.24539953470230103, -0.4292392134666443, -0.19805490970611572, 0.18758487701416016, -0.29361170530319214, 0.3847956657409668, 0.4055843949317932, -0.454459011554718, -0.4994879961013794, -0.4485759139060974, -0.4972180724143982, 0.4526146650314331, 0.3162458539009094, 0.23346346616744995, 0.41098713874816895, 0.19245392084121704, -0.018890440464019775, -0.018218159675598145, -0.3984581232070923, 0.40528082847595215, -0.45245397090911865, -0.09186005592346191, -0.227361261844635, 0.08265411853790283, 0.44002389907836914, 0.14473772048950195, 0.288779616355896, -0.38231927156448364, -0.32248401641845703, -0.24583584070205688, 0.26384758949279785, -0.04231542348861694, -0.12268763780593872, -0.07409036159515381, -0.22642356157302856, 0.40334564447402954, -0.2559971809387207, 0.39760714769363403, -0.25709325075149536, -0.40557044744491577, 0.4010844826698303, 0.39631056785583496, -0.2326870560646057, 0.39926648139953613, 0.44756633043289185, -0.4235185980796814, 0.3755412697792053, -0.18552130460739136, 0.15303021669387817, 0.35489797592163086, -0.43489784002304077, -0.06718194484710693, 0.10946464538574219, -0.19125014543533325, -0.01851135492324829, -0.02902698516845703, -0.2623136043548584, -0.231134295463562, -0.0582926869392395, 0.3141828775405884, 0.20063942670822144, -0.04394686222076416, 0.4340130686759949, -0.4288279414176941, 0.33456385135650635, 0.3385336399078369, -0.09306424856185913, -0.0627739429473877, 0.11245352029800415, 0.10224413871765137, -0.17115849256515503, 0.0852324366569519, -0.25155162811279297, 0.13168108463287354, 0.0431705117225647, -0.254863977432251, 0.24919885396957397, -0.3622366786003113, 0.4989227056503296, 0.4382333755493164, -0.31159597635269165, 0.14638382196426392, 0.2763037085533142, 0.41284477710723877, -0.038545429706573486, -0.43878817558288574, -0.02936345338821411, 0.29839229583740234, 0.2607795000076294], [0.2632589340209961, -0.239485502243042, -0.45665258169174194, -0.04998594522476196, 0.44847047328948975, -0.3917016386985779, 0.1072419285774231, 0.4928635358810425, 0.0683126449584961, -0.3660598397254944, 0.2856990098953247, -0.43809545040130615, 0.0033615827560424805, -0.3352430462837219, 0.37197160720825195, -0.17459845542907715, -0.22469383478164673, -0.08440244197845459, -0.21780842542648315, -0.4543805718421936, 0.14977002143859863, -0.016370654106140137, -0.12585395574569702, -0.20785027742385864, 0.273368239402771, 0.2616615891456604, 0.24117249250411987, 0.312997043132782, -0.4860219955444336, 0.161421000957489, -0.16149896383285522, -0.14641398191452026, 0.2647141218185425, -0.27967923879623413, -0.021761715412139893, 0.40371567010879517, -0.21490085124969482, 0.44200700521469116, -0.02607494592666626, 0.20333272218704224, 0.09868144989013672, -0.4060538411140442, -0.15125775337219238, -0.17830902338027954, -0.11027401685714722, 0.13857775926589966, 0.2906773090362549, 0.006355106830596924, -0.20169895887374878, 0.31129807233810425, -0.2028009295463562, 0.12269872426986694, -0.03190380334854126, -0.36039847135543823, -0.2821124196052551, 0.11126047372817993, 0.017674744129180908, -0.2420731782913208, 0.19043070077896118, -0.096000075340271, -0.3582931160926819, 0.3335144519805908, -0.41317611932754517, -0.34313148260116577, 0.39181268215179443, 0.10740631818771362, -0.26541829109191895, -0.43900907039642334, 0.21610736846923828, 0.28793174028396606, -0.3423345685005188, -0.171963632106781, -0.03352200984954834, -0.15957313776016235, 0.4367636442184448, -0.15835124254226685, 0.03519922494888306, -0.3067623972892761, -0.39189863204956055, -0.36008912324905396, 0.2061271071434021, -0.05321359634399414, -0.1493300199508667, 0.09300881624221802, 0.4220549464225769, -0.04164344072341919, 0.463517963886261, 0.0810883641242981, 0.4599774479866028, -0.03509455919265747, -0.34827595949172974, -0.26511532068252563, 0.014278709888458252, -0.32386744022369385, -0.22844421863555908, 0.006777644157409668, 0.3509977459907532, 0.44619059562683105, -0.015659093856811523, -0.29147857427597046, -0.22892379760742188, 0.08977824449539185, -0.4652891159057617, -0.01653754711151123, 0.015288770198822021, 0.2483454942703247, 0.005608797073364258, 0.3695124387741089, 0.3620903491973877, 0.04437762498855591, -0.21202218532562256, 0.25494223833084106, 0.31126832962036133, 0.335559606552124, 0.48278510570526123, -0.41124147176742554, -0.37636691331863403, -0.16438394784927368, -0.467892587184906, -0.002120792865753174, -0.4158317446708679, -0.29473400115966797, -0.47744691371917725, 0.02099090814590454, 0.3656277060508728, 0.23584222793579102, 0.48944056034088135, 0.12207597494125366], [0.009954094886779785, -0.47714513540267944, -0.13389289379119873, 0.33744657039642334, -0.15310341119766235, 0.35976600646972656, -0.0071680545806884766, 0.0830201506614685, 0.2920907139778137, 0.13274812698364258, -0.26734381914138794, -0.04223066568374634, 0.27296221256256104, -0.17248135805130005, 0.13401180505752563, -0.34951597452163696, 0.28514033555984497, 0.09140914678573608, 0.35273802280426025, -0.19559824466705322, -0.4849470257759094, -0.1376006007194519, -0.4122849106788635, -0.09128838777542114, 0.027739346027374268, -0.0735006332397461, -0.46214884519577026, -0.20463049411773682, -0.3506198525428772, -0.39418965578079224, -0.4334070682525635, 0.2311021089553833, 0.39773881435394287, -0.15070515871047974, 0.47760164737701416, -0.07860487699508667, 0.48809587955474854, -0.487861692905426, -0.41807252168655396, -0.21060580015182495, -0.21544814109802246, 0.34545743465423584, 0.09294551610946655, 0.023638248443603516, 0.4769206643104553, -0.40513139963150024, -0.1951504349708557, 0.3806591033935547, 0.03865998983383179, 0.10271698236465454, 0.20533865690231323, -0.36488401889801025, -0.09757387638092041, -0.30794280767440796, 0.3182631731033325, -0.19220280647277832, 0.06298017501831055, 0.11444848775863647, -0.12600046396255493, -0.2325122356414795, 0.15293216705322266, 0.42742687463760376, -0.26538723707199097, 0.1944785714149475, 0.41710638999938965, -0.3170819878578186, 0.2886742353439331, 0.46376943588256836, -0.2831515669822693, -0.37382054328918457, 0.4682820439338684, -0.4773205518722534, -0.4909442663192749, -0.1762148141860962, 0.416145920753479, -0.2473805546760559, 0.2968088984489441, 0.1581985354423523, -0.39034467935562134, 0.47310590744018555, 0.3536792993545532, -0.28193360567092896, 0.2790868878364563, 0.024149954319000244, 0.04922300577163696, -0.2763127088546753, 0.4153990149497986, -0.20778238773345947, -0.422424852848053, -0.07441067695617676, 0.30253273248672485, -0.015330672264099121, 0.4110069274902344, -0.262600839138031, -0.3519648313522339, 0.4056433439254761, 0.49706172943115234, -0.26507872343063354, 0.022856712341308594, 0.49898427724838257, -0.3979529142379761, 0.3283455967903137, -0.4099575877189636, 0.29970037937164307, -0.06010711193084717, -0.05555921792984009, -0.46474015712738037, -0.15525215864181519, -0.034268319606781006, -0.09192752838134766, -0.12381470203399658, 0.4507896304130554, -0.3985227942466736, 0.29125887155532837, 0.4273386597633362, -0.3176371455192566, 0.08422666788101196, 0.40046459436416626, -0.4178726077079773, 0.042471468448638916, 0.08905762434005737, 0.2121349573135376, -0.3730626702308655, -0.20876479148864746, 0.31402963399887085, 0.27053505182266235, 0.09254980087280273, -0.4800437092781067]], "hidden_weights": [[-0.48945289850234985, -0.005325436592102051, 0.14228034019470215, 0.07502388954162598, 0.2526465654373169, -0.2944490313529968, -0.47587066888809204, 0.23540884256362915, 0.07278072834014893, 0.11647921800613403, 0.13833045959472656, 0.2416914701461792, 0.3987043499946594, -0.23872613906860352, -0.44056230783462524, -0.0695238709449768, -0.4642145037651062, 0.030736207962036133, -0.3621429204940796, 0.11930227279663086, -0.10325568914413452, -0.40528666973114014, -0.4947682023048401, 0.47860264778137207, 0.37523895502090454, -0.4834378957748413, -0.24511414766311646, -0.4850817918777466, -0.03183245658874512, -0.16205275058746338, 0.2061787247657776, -0.13829046487808228, 0.33659160137176514, -0.2633410096168518, 0.4571770429611206, -0.45325934886932373, 0.45964187383651733, -0.06943917274475098, -0.376223623752594, 0.4018445611000061, 0.06878381967544556, 0.3115336298942566, -0.3183501958847046, 0.357294499874115, 0.09880220890045166, -0.4344456195831299, -0.16173219680786133, 0.28003376722335815, 0.31310510635375977, -0.3036194443702698, 0.3252714276313782, -0.27554601430892944, 0.12252646684646606, -0.1745193600654602, 0.479336142539978, -0.2767047882080078, 0.2709183692932129, -0.1865566372871399, 0.2579575777053833, 0.20474910736083984, 0.08092266321182251, -0.11597639322280884, -0.48097264766693115, 0.019262075424194336], [-0.4227837920188904, -0.28341585397720337, 0.07194775342941284, -0.47101765871047974, -0.4815864562988281, 0.26591765880584717, 0.16354012489318848, 0.15925896167755127, 0.27423787117004395, 0.27068251371383667, 0.38350391387939453, -0.44175899028778076, 0.198491632938385, -0.11133557558059692, -0.11106979846954346, 0.05668419599533081, -0.416775107383728, -0.19639527797698975, 0.053716957569122314, 0.30890971422195435, 0.14583390951156616, 0.047080397605895996, -0.09029370546340942, -0.43586933612823486, -0.13005989789962769, -0.389957070350647, 0.24273985624313354, 0.10704529285430908, 0.23640847206115723, 0.4999535083770752, 0.34509605169296265, -0.4198349714279175, -0.2988307476043701, -0.2214307188987732, -0.3702681064605713, -0.2952209711074829, 0.24863171577453613, -0.4998176097869873, 0.06663316488265991, 0.07938176393508911, 0.020217955112457275, 0.22786366939544678, -0.4915628433227539, -0.12716853618621826, 0.3711686134338379, 0.09236383438110352, -0.2885492444038391, -0.4442756772041321, -0.3152705430984497, -0.23775672912597656, -0.1417698860168457, -0.36847633123397827, -0.11615210771560669, 0.49162906408309937, -0.011058390140533447, -0.04870426654815674, -0.0011088848114013672, 0.24809294939041138, -0.3024594187736511, -0.3529106378555298, 0.30998724699020386, -0.04890161752700806, 0.0899081826210022, -0.4832407832145691], [-0.12330180406570435, 0.06392836570739746, -0.02927994728088379, 0.29355669021606445, 0.3276880383491516, -0.007959961891174316, 0.11526185274124146, 0.03561711311340332, 0.37102246284484863, -0.054152607917785645, -0.0900261402130127, 0.13906127214431763, 0.4154181480407715, 0.030073821544647217, 0.08909118175506592, -0.1578577756881714, -0.3541123867034912, 0.1490381360054016, -0.11692821979522705, -0.0277787446975708, -0.4419099688529968, -0.39118754863739014, -0.3199719190597534, -0.23516273498535156, -0.22627466917037964, -0.2855638861656189, -0.36803537607192993, -0.41496050357818604, 0.37086397409439087, 0.017884135246276855, 0.2656670808792114, -0.392192542552948, -0.06395119428634644, 0.33120137453079224, 0.1244094967842102, -0.354860782623291, 0.04549926519393921, -0.1491653323173523, -0.38868409395217896, 0.32498377561569214, -0.39702916145324707, -0.4429692029953003, 0.41909801959991455, 0.2377731204032898, 0.17192327976226807, 0.283122718334198, 0.44310569763183594, 0.336342453956604, 0.4372897744178772, 0.49166202545166016, 0.07414311170578003, -0.19767630100250244, 0.4948751926422119, -0.43899744749069214, 0.30818772315979004, -0.4750782251358032, 0.17408090829849243, -0.45290178060531616, 0.13383489847183228, -0.34056735038757324, 0.09957325458526611, -0.4604121446609497, -0.037115395069122314, -0.25996553897857666], [0.3843211531639099, 0.3505910634994507, 0.05847424268722534, -0.2153199315071106, 0.336198627948761, -0.01934283971786499, -0.19786101579666138, -0.0509069561958313, 0.1517062783241272, -0.18157809972763062, -0.3570544719696045, 0.04986560344696045, 0.33617424964904785, 0.3031201958656311, 0.3368242383003235, 0.2641623020172119, 0.2770234942436218, -0.3261939287185669, 0.4034076929092407, 0.07424694299697876, -0.3727998733520508, 0.3572801351547241, -0.17319172620773315, -0.3756622076034546, -0.07053172588348389, 0.31260448694229126, -0.013544440269470215, 0.24429720640182495, -0.06462663412094116, 0.3478696346282959, -0.4000088572502136, 0.104564368724823, -0.35787349939346313, 0.4559708833694458, 0.32260197401046753, -0.2829706072807312, 0.42338383197784424, 0.11806511878967285, -0.29880833625793457, -0.29294222593307495, -0.3409631848335266, -0.42725497484207153, 0.31267428398132324, -0.39635998010635376, 0.3217695951461792, -0.12581074237823486, -0.36084461212158203, 0.009289145469665527, 0.16802942752838135, -0.08856421709060669, 0.061328887939453125, 0.45553719997406006, 0.48804163932800293, 0.32227689027786255, -0.2956225275993347, -0.292807936668396, -0.3375557065010071, -0.43415600061416626, 0.15186917781829834, -0.03300374746322632, -0.4002718925476074, 0.23897027969360352, 0.028101801872253418, -0.17015373706817627], [-0.08119213581085205, -0.12598168849945068, -0.25178825855255127, -0.4748461842536926, 0.2355862259864807, 0.4767497777938843, -0.06944459676742554, -0.002261817455291748, -0.0001195073127746582, -0.2953459620475769, -0.3480849862098694, 0.15596914291381836, 0.3865138292312622, -0.2183915376663208, 0.014492809772491455, -0.04977560043334961, -0.23046588897705078, 0.07790333032608032, 0.3600705862045288, -0.27892571687698364, -0.185022234916687, -0.2404918670654297, -0.27845293283462524, 0.13642221689224243, 0.37132948637008667, -0.4992876648902893, 0.1217232346534729, -0.4852781295776367, 0.1971043348312378, -0.05477297306060791, 0.3242039084434509, -0.17867130041122437, 0.3998521566390991, -0.38065457344055176, 0.30050528049468994, 0.44033944606781006, 0.0033667683601379395, 0.2577894330024719, 0.02022707462310791, 0.08222842216491699, -0.05881577730178833, 0.2540605068206787, -0.4576183557510376, -0.3929901123046875, 0.13484865427017212, 0.4682377576828003, 0.4214830994606018, -0.1652645468711853, -0.3943392038345337, -0.08670580387115479, 0.44370174407958984, -0.17584514617919922, -0.3084116578102112, 0.056457698345184326, -0.379661500453949, 0.03092092275619507, -0.10389655828475952, 0.1675044298171997, 0.3652953505516052, -0.32227808237075806, -0.31174880266189575, -0.22404080629348755, 0.39832520484924316, -0.19108521938323975], [0.2064839005470276, 0.08585518598556519, -0.022855520248413086, -0.49331486225128174, 0.11431735754013062, 0.20759230852127075, -0.03350323438644409, 0.05650746822357178, 0.03629589080810547, 0.04062467813491821, -0.3486388325691223, 0.20738697052001953, 0.12586861848831177, -0.05160033702850342, 0.21416211128234863, 0.2456836700439453, 0.35126882791519165, 0.18319624662399292, -0.40333861112594604, 0.3793907165527344, -0.4821900725364685, 0.348577082157135, 0.11597108840942383, 0.0739063024520874, 0.21161514520645142, 0.11532902717590332, -0.23138999938964844, -0.24773037433624268, 0.218950092792511, 0.1507662534713745, -0.08348351716995239, 0.4516471028327942, 0.4098398685455322, -0.017235636711120605, 0.4468865990638733, -0.004576563835144043, -0.11722493171691895, -0.30501794815063477, 0.21559607982635498, -0.4821242690086365, -0.18890708684921265, 0.2617853879928589, 0.3236362934112549, -0.31855183839797974, -0.2059117555618286, -0.08837485313415527, -0.35520291328430176, -0.4520125389099121, -0.4056602120399475, -0.003750026226043701, 0.243047297000885, -0.3893900513648987, -0.2132728099822998, -0.1942259669303894, 0.16260063648223877, 0.3073071241378784, 0.4527119994163513, -0.0958828330039978, -0.1549152135848999, -0.033895134925842285, 0.17275631427764893, -0.44192588329315186, 0.2482784390449524, -0.31706249713897705], [0.13987964391708374, 0.11947143077850342, 0.10614770650863647, -0.4922313690185547, 0.33705347776412964, 0.32290029525756836, -0.29086750745773315, -0.46736979484558105, -0.3867948055267334, -0.09513431787490845, -0.1560753583908081, 0.1339227557182312, 0.3125782608985901, -0.019691169261932373, 0.27388960123062134, 0.153192400932312, -0.2933739423751831, -0.1135285496711731, 0.03795748949050903, 0.4072566628456116, -0.2476688027381897, -0.4372430443763733, 0.10665291547775269, 0.36385196447372437, 0.03649681806564331, 0.10775023698806763, -0.21543902158737183, -0.33727842569351196, 0.4887586832046509, 0.07843965291976929, -0.2089112401008606, -0.2346431016921997, 0.46014147996902466, 0.10709136724472046, -0.03478282690048218, -0.49885064363479614, 0.4823768138885498, 0.3106237053871155, -0.01524806022644043, -0.32422924041748047, 0.017592906951904297, -0.2731595039367676, -0.44827717542648315, -0.029412269592285156, 0.20111089944839478, 0.4935723543167114, 0.37181103229522705, -0.2089177966117859, 0.16006797552108765, -0.39712435007095337, 0.3669036626815796, 0.20958948135375977, 0.15658646821975708, -0.2067667841911316, 0.13152927160263062, -0.008385837078094482, -0.26986509561538696, -0.4796484708786011, -0.005601644515991211, 0.41745680570602417, -0.05964916944503784, -0.4371582269668579, 0.36134427785873413, 0.2547094225883484], [0.48090875148773193, 0.009460985660552979, -0.01331239938735962, 0.2874172329902649, -0.27113181352615356, 0.04609948396682739, 0.360226035118103, -0.4872243404388428, 0.4665544033050537, 0.27133065462112427, 0.06734848022460938, 0.4597405791282654, -0.4581793546676636, 0.03056180477142334, -0.2690443992614746, -0.07535815238952637, 0.059724509716033936, -0.18820863962173462, -0.29877328872680664, 0.02206188440322876, -0.4853553771972656, -0.22668486833572388, 0.4776403307914734, -0.22012901306152344, 0.18598872423171997, -0.11746442317962646, 0.3131031394004822, -0.25082260370254517, -0.28940796852111816, 0.015517830848693848, -0.4377129077911377, 0.18784135580062866, -0.19614887237548828, 0.4499322175979614, -0.18051600456237793, 0.4998958706855774, -0.41139721870422363, -0.24112504720687866, 0.004188358783721924, 0.12061959505081177, -0.10383325815200806, 0.10629749298095703, -0.3533692955970764, -0.4340342879295349, 0.10566312074661255, 0.3877384662628174, 0.48460495471954346, -0.21979105472564697, -0.23047512769699097, 0.11008977890014648, -0.17006444931030273, -0.213640034198761, 0.058896780014038086, -0.34952449798583984, -0.2820427417755127, 0.36223042011260986, -0.48032140731811523, 0.12670916318893433, -0.21895599365234375, 0.2510819435119629, -0.20019584894180298, -0.023187637329101562, 0.4078831672668457, 0.01999664306640625], [0.431210994720459, -0.4262174963951111, -0.23249632120132446, -0.3345920443534851, -0.2391904592514038, -0.3679935932159424, 0.48801714181900024, -0.1572895646095276, -0.3021842837333679, 0.46326500177383423, -0.42287927865982056, 0.24775779247283936, -0.06180697679519653, -0.2958056330680847, 0.4921407103538513, 0.12097644805908203, 0.39079761505126953, 0.09386575222015381, -0.2845109701156616, -0.11022073030471802, 0.16610336303710938, 0.10646200180053711, -0.41917479038238525, -0.08544909954071045, 0.3059613108634949, -0.4571497440338135, -0.02658480405807495, -0.05067354440689087, -0.41139644384384155, -0.235509991645813, 0.4229313135147095, -0.14229971170425415, 0.4041751027107239, 0.3224748373031616, -0.3003610372543335, 0.4912646412849426, -0.38125163316726685, -0.047044456005096436, 0.265205442905426, -0.15514230728149414, 0.335177481174469, -0.004988968372344971, 0.190588116645813, -0.2313557267189026, -0.31648868322372437, 0.37910354137420654, -0.1286110281944275, 0.20169085264205933, -0.18381285667419434, 0.4396926164627075, -0.22347187995910645, -0.15121322870254517, -0.41560178995132446, 0.3173453211784363, -0.3657712936401367, 0.3194575905799866, 0.008978724479675293, 0.3072493076324463, -0.174951434135437, -0.001272737979888916, -0.18855023384094238, -0.044887542724609375, -0.003199458122253418, -0.149283766746521], [0.47663819789886475, 0.2413221001625061, 0.13022899627685547, 0.4556218385696411, 0.36635756492614746, -0.26474690437316895, 0.4745512008666992, -0.36870312690734863, 0.31486862897872925, -0.259518563747406, -0.46829599142074585, 0.3774503469467163, 0.029338419437408447, 0.24969786405563354, -0.293613076210022, -0.24064719676971436, 0.09594058990478516, 0.4299430251121521, 0.4469083547592163, -0.2668912410736084, -0.31031185388565063, 0.06120234727859497, -0.014099419116973877, 0.07186919450759888, 0.04464221000671387, -0.35520046949386597, 0.2000179886817932, 0.47307366132736206, 0.23198479413986206, -0.43505704402923584, 0.3751838803291321, 0.2960689067840576, 0.16224253177642822, -0.37083059549331665, -0.01768416166305542, 0.2825259566307068, -0.008557915687561035, -0.28802913427352905, 0.036515116691589355, 0.35282033681869507, -0.01193094253540039, 0.496768057346344, 0.37498587369918823, 0.07617062330245972, -0.4427371025085449, 0.012238681316375732, 0.3383781313896179, 0.10961586236953735, 0.3525116443634033, 0.1608591079711914, -0.06753754615783691, 0.06641310453414917, 0.40075981616973877, 0.4603500962257385, 0.36381930112838745, 0.489543080329895, 0.13602840900421143, -0.18998700380325317, 0.1875036358833313, 0.29465538263320923, 0.19874638319015503, 0.38155508041381836, 0.016239583492279053, 0.1993054747581482], [-0.059526681900024414, -0.4721497893333435, -0.1014527678489685, -0.043541669845581055, 0.014265656471252441, -0.3236936926841736, 0.0911361575126648, -0.40965086221694946, 0.1473144292831421, -0.268354594707489, 0.3293834328651428, 0.19083547592163086, -0.01224607229232788, -0.016997873783111572, -0.04540592432022095, 0.03233492374420166, -0.16449826955795288, 0.47466766834259033, 0.48153549432754517, -0.4605916738510132, -0.08656257390975952, 0.36595600843429565, 0.37150973081588745, -0.06212568283081055, -0.4722021222114563, 0.0031551718711853027, 0.00740736722946167, -0.08131664991378784, 0.1035456657409668, -0.12989652156829834, -0.06533533334732056, -0.4909411668777466, -0.04193270206451416, 0.10383909940719604, 0.2071681022644043, 0.2617521286010742, 0.46652305126190186, -0.3031553626060486, -0.297249972820282, -0.04781651496887207, 0.4479379653930664, 0.3626645803451538, -0.2354457974433899, -0.4056972861289978, -0.42592132091522217, 0.408943772315979, -0.25250566005706787, -0.3280133605003357, 0.26727432012557983, 0.08827096223831177, -0.36341482400894165, 0.13504940271377563, 0.4723404049873352, 0.22565865516662598, -0.21007639169692993, 0.3683583736419678, -0.17754805088043213, 0.03549450635910034, -0.15425926446914673, -0.18129825592041016, 0.23389101028442383, 0.12952286005020142, 0.2852324843406677, 0.4377032518386841], [-0.36213696002960205, -0.2800692319869995, -0.46357566118240356, -0.1261841058731079, 0.09524452686309814, 0.2880781888961792, 0.17186099290847778, -0.0622517466545105, -0.23619604110717773, -0.12079554796218872, -0.14118486642837524, -0.09924393892288208, -0.33012866973876953, -0.17106807231903076, -0.15733462572097778, -0.27723217010498047, 0.41014230251312256, -0.11837583780288696, 0.18868297338485718, 0.37189948558807373, -0.4818565249443054, 0.47181499004364014, -0.3769944906234741, 0.4678088426589966, -0.2025342583656311, 0.034219443798065186, -0.20209145545959473, 0.06320637464523315, 0.41660255193710327, 0.1856411099433899, -0.04328799247741699, 0.38418471813201904, -0.2172834277153015, -0.3486359119415283, -0.38421595096588135, 0.1225932240486145, -0.12344592809677124, -0.042991697788238525, -0.108376145362854, -0.4483072757720947, -0.41405367851257324, -0.07176107168197632, 0.1006537675857544, -0.04131627082824707, -0.35672682523727417, 0.4041726589202881, 0.2418716549873352, 0.2428484559059143, 0.27950263023376465, 0.10007423162460327, -0.44008010625839233, 0.09250020980834961, 0.07589489221572876, -0.25712084770202637, 0.3836684226989746, -0.3112260103225708, -0.1317424774169922, -0.10296815633773804, 0.0831071138381958, -0.08911305665969849, -0.3926050066947937, -0.0009965896606445312, -0.3519839644432068, 0.059315264225006104], [-0.344648540019989, 0.22642260789871216, 0.2518596649169922, -0.27020812034606934, 0.3286173939704895, 0.03203248977661133, 0.38346636295318604, 0.01753300428390503, -0.10964375734329224, 0.009321331977844238, -0.4099014401435852, 0.3984770178794861, 0.3753119707107544, -0.37086546421051025, 0.23174673318862915, 0.4929744005203247, -0.30818283557891846, -0.22221165895462036, -0.4339402914047241, -0.4783858060836792, -0.37541311979293823, -0.09491550922393799, 0.2899790406227112, -0.21675413846969604, 0.35197263956069946, 0.45293760299682617, -0.4660739302635193, 0.4128931164741516, 0.13537949323654175, 0.057382285594940186, 0.4841981530189514, 0.39831435680389404, 0.38691437244415283, -0.1350681185722351, -0.234286367893219, -0.10681599378585815, 0.4401090145111084, 0.01901024580001831, -0.36938685178756714, -0.022989213466644287, 0.2511559724807739, -0.33446788787841797, -0.2152675986289978, -0.4339103698730469, 0.08750176429748535, -0.009024262428283691, -0.015069663524627686, 0.21740949153900146, 0.27698826789855957, -0.23584753274917603, -0.06216704845428467, -0.0252077579498291, 0.14574474096298218, 0.3243257403373718, 0.4777899980545044, -0.061623215675354004, -0.48601001501083374, -0.004057168960571289, -0.09793287515640259, 0.2744984030723572, -0.3752342462539673, 0.40785616636276245, 0.2496814727783203, -0.42055267095565796], [-0.477644145488739, -0.0152052640914917, -0.49759620428085327, 0.1545889973640442, 0.29337573051452637, -0.19751209020614624, 0.45766204595565796, -0.06600582599639893, -0.17631536722183228, -0.4228513836860657, -0.3810553550720215, 0.08336251974105835, -0.20153898000717163, 0.23794764280319214, 0.3708915114402771, -0.18667978048324585, -0.3999231457710266, -0.2398943305015564, -0.25688838958740234, 0.10336732864379883, -0.3681100606918335, -0.10481846332550049, -0.2906244993209839, 0.25223058462142944, 0.2107471227645874, -0.3169502019882202, 0.3982303738594055, 0.048322975635528564, 0.4038984775543213, -0.365617036819458, 0.27715206146240234, -0.20030659437179565, -0.21598654985427856, 0.14221519231796265, 0.17535901069641113, 0.38511472940444946, -0.02473241090774536, -0.18930256366729736, 0.20786899328231812, -0.33971619606018066, -0.17624962329864502, -0.31501805782318115, -0.37477701902389526, 0.33507466316223145, -0.40150076150894165, 0.34795689582824707, -0.12991058826446533, -0.2104121446609497, -0.14273923635482788, -0.006436586380004883, -0.20806515216827393, -0.09107059240341187, 0.17666923999786377, 0.03944253921508789, -0.2327367663383484, -0.044332683086395264, 0.4549591541290283, 0.15891456604003906, -0.36677855253219604, -0.4310363531112671, 0.19690442085266113, 0.3303237557411194, 0.2715342044830322, 0.029922842979431152], [-0.2807723879814148, 0.16957366466522217, 0.16101515293121338, 0.000431060791015625, -0.4913156032562256, 0.23701781034469604, 0.13146573305130005, -0.39066940546035767, -0.19254255294799805, -0.33991140127182007, -0.11743301153182983, -0.2125721573829651, 0.12575459480285645, -0.17394214868545532, -0.3221972584724426, 0.12834125757217407, 0.03157317638397217, -0.09003674983978271, 0.06984150409698486, 0.0033519864082336426, -0.10373550653457642, -0.2884536385536194, -0.06255680322647095, -0.2654837369918823, 0.4910074472427368, -0.180078387260437, 0.22216451168060303, -0.37313371896743774, 0.04486912488937378, -0.1540406346321106, -0.18574297428131104, -0.3127434253692627, -0.33223408460617065, 0.07304853200912476, -0.15516507625579834, -0.046406567096710205, 0.4039309620857239, -0.0020348429679870605, -0.0288962721824646, -0.47285860776901245, 0.10412728786468506, 0.3637378215789795, 0.31283509731292725, 0.04904365539550781, 0.08746904134750366, -0.4514949321746826, -0.09588819742202759, 0.28160369396209717, -0.1488419771194458, 0.013414978981018066, 0.4007382392883301, 0.1007959246635437, 0.035868704319000244, 0.10039955377578735, 0.23664742708206177, -0.4935925006866455, -0.1954106092453003, 0.352336049079895, 0.19711285829544067, -0.37171703577041626, -0.058910250663757324, -0.32431691884994507, 0.1177930235862732, -0.11242973804473877], [0.2990184426307678, 0.14615321159362793, 0.005342662334442139, -0.10143578052520752, 0.23807644844055176, -0.2584371566772461, 0.14856302738189697, 0.15553492307662964, -0.18078482151031494, 0.30399781465530396, -0.11775058507919312, -0.298134982585907, -0.17100447416305542, 0.003938257694244385, -0.35362452268600464, -0.303136944770813, -0.07785218954086304, -0.1402651071548462, -0.4705076217651367, 0.2816842198371887, 0.20471704006195068, 0.07601296901702881, 0.1032935380935669, -0.12129926681518555, 0.036764562129974365, 0.1191786527633667, -0.36346012353897095, 0.3784661889076233, -0.2968200445175171, 0.2004404067993164, 0.09038978815078735, -0.36457765102386475, -0.35162365436553955, 0.09464049339294434, 0.09914731979370117, -0.03246575593948364, 0.3133290410041809, 0.12286102771759033, 0.27872443199157715, -0.24344199895858765, -0.47463881969451904, 0.4477234482765198, -0.06868714094161987, -0.4675309658050537, -0.4015848636627197, -0.4709358811378479, 0.2959393858909607, 0.2778199315071106, 0.40016573667526245, -0.14552563428878784, 0.3804614543914795, 0.16644537448883057, -0.33332592248916626, 0.11021167039871216, 0.3624219298362732, -0.048611223697662354, -0.46389710903167725, 0.4272066354751587, 0.32769572734832764, -0.4967067241668701, 0.06484299898147583, 0.3742349147796631, -0.07415157556533813, 0.37426918745040894], [-0.17341583967208862, 0.4370020627975464, -0.0785973072052002, 0.016595840454101562, 0.17490679025650024, 0.2057674527168274, -0.3289657235145569, -0.38346564769744873, -0.317046582698822, 0.4758618474006653, 0.29854291677474976, 0.24363410472869873, 0.1951695680618286, 0.461465060710907, 0.3585798740386963, -0.058162689208984375, -0.4516400098800659, 0.2687678933143616, 0.3376539945602417, 0.4260525107383728, 0.37325549125671387, 0.11751341819763184, 0.14992040395736694, -0.11256062984466553, 0.011988401412963867, 0.14214080572128296, -0.3226991891860962, -0.11323601007461548, 0.09857475757598877, 0.20214229822158813, 0.15765923261642456, 0.29386258125305176, 0.2534220218658447, -0.18982195854187012, -0.1483868956565857, -0.45880812406539917, 0.0031565427780151367, 0.09850931167602539, -0.05183982849121094, 0.290416955947876, 0.00019466876983642578, -0.45253634452819824, 0.15608984231948853, -0.22207313776016235, 0.30509257316589355, 0.33721768856048584, 0.10926753282546997, -0.3497377634048462, 0.49841731786727905, -0.22422879934310913, -0.1398179531097412, -0.3498278260231018, 0.39193958044052124, 0.2986595630645752, 0.17624938488006592, -0.008846044540405273, 0.24609845876693726, 0.27384257316589355, -0.17101365327835083, 0.0657166838645935, 0.13255614042282104, 0.043981850147247314, -0.10685819387435913, -0.2937958240509033], [0.08299481868743896, 0.3659890294075012, 0.02235710620880127, 0.277072012424469, -0.19312524795532227, -0.21308839321136475, 0.37841320037841797, 0.3935014009475708, 0.16741269826889038, 0.15103262662887573, -0.31005537509918213, -0.017219245433807373, 0.1041179895401001, 0.49592477083206177, 0.30511295795440674, -0.030435621738433838, -0.02319657802581787, -0.20297658443450928, -0.235179603099823, -0.0010964274406433105, -0.19243329763412476, 0.11329299211502075, 0.37440210580825806, -0.05188000202178955, -0.32385140657424927, 0.20244687795639038, 0.2898126244544983, -0.21792608499526978, -0.2418224811553955, -0.2291182279586792, 0.37703919410705566, -0.36244094371795654, -0.227624773979187, 0.34575825929641724, 0.03352093696594238, -0.44117796421051025, 0.23586314916610718, -0.2535969018936157, 0.4865682125091553, -0.47095727920532227, 0.08186602592468262, 0.18081414699554443, 0.4698683023452759, -0.07660514116287231, -0.19137966632843018, 0.36876046657562256, -0.45041710138320923, 0.04277074337005615, -0.10686558485031128, 0.28579020500183105, -0.1506463885307312, -0.10465383529663086, -0.06655693054199219, -0.3495497703552246, -0.09903192520141602, 0.2739676833152771, 0.4998115301132202, 0.20298457145690918, -0.04633277654647827, 0.02046811580657959, -0.06232362985610962, -0.24216556549072266, 0.11680901050567627, -0.22445648908615112], [-0.4342421889305115, 0.02135998010635376, -0.1815853714942932, 0.1782131791114807, 0.09216451644897461, 0.04638469219207764, -0.1761971116065979, -0.3967076539993286, 0.15909039974212646, -0.42090922594070435, -0.15056592226028442, -0.3388473391532898, 0.21923035383224487, 0.17979294061660767, 0.24495607614517212, 0.40305447578430176, -0.3413226008415222, 0.09454023838043213, 0.252688467502594, -0.12322813272476196, -0.30811959505081177, -0.330674946308136, 0.36141711473464966, 0.2711644768714905, -0.49269264936447144, 0.11566174030303955, -0.23030167818069458, -0.3477153182029724, 0.34208452701568604, 0.2625054717063904, 0.12412965297698975, -0.01881498098373413, -0.44705021381378174, 0.0642777681350708, -0.12329250574111938, 0.02211850881576538, -0.4042036533355713, 0.0698319673538208, 0.15459012985229492, -0.3561655879020691, -0.41466420888900757, -0.2161487340927124, -0.38331031799316406, -0.3791683316230774, -0.1596519947052002, -0.1771930456161499, -0.29093867540359497, 0.16904962062835693, -0.2676040530204773, 0.4127312898635864, -0.39462363719940186, 0.496404230594635, 0.16559278964996338, 0.06137442588806152, 0.4237369894981384, 0.041613996028900146, -0.1458762288093567, 0.3510538339614868, 0.32849472761154175, -0.1383000612258911, -0.11781466007232666, 0.3234976530075073, -0.4754481315612793, -0.49618691205978394], [-0.09175032377243042, -0.44516026973724365, 0.26032817363739014, -0.17800527811050415, 0.1138572096824646, -0.3920038342475891, -0.39281362295150757, -0.0354960560798645, 0.18410450220108032, -0.25123000144958496, 0.08682906627655029, 0.25463390350341797, -0.4604267477989197, 0.14299988746643066, 0.059515178203582764, -0.04559671878814697, -0.13517600297927856, -0.3846477270126343, -0.4460129737854004, -0.19240063428878784, 0.4807366132736206, 0.20578283071517944, 0.47546303272247314, 0.3522844910621643, -0.4409046769142151, 0.22736763954162598, -0.10624527931213379, -0.08601391315460205, 0.4024958610534668, -0.22615522146224976, -0.3418235778808594, 0.1641203761100769, -0.09089821577072144, 0.24415737390518188, -0.16531211137771606, 0.34721195697784424, 0.09414082765579224, 0.17856299877166748, -0.17186957597732544, 0.0641404390335083, 0.05133122205734253, 0.2578294277191162, -0.42242974042892456, 0.08134007453918457, 0.2144126296043396, -0.09023499488830566, -0.2585650086402893, -0.3514758348464966, 0.391689658164978, 0.4655410051345825, 0.3178555965423584, -0.49023836851119995, 0.07208424806594849, -0.05216813087463379, -0.40266090631484985, 0.26600342988967896, 0.3844835162162781, -0.059330642223358154, 0.05584686994552612, 0.3049130439758301, 0.2187703251838684, -0.21330440044403076, 0.15054434537887573, 0.0037769079208374023], [0.4451040029525757, 0.13646042346954346, 0.27429407835006714, 0.1342824101448059, -0.4247729778289795, -0.41794294118881226, 0.2416616678237915, 0.26233381032943726, 0.0007913708686828613, -0.09963536262512207, -0.34956979751586914, 0.24209469556808472, -0.398071825504303, -0.43980878591537476, -0.40965914726257324, -0.3551405668258667, -0.38110172748565674, 0.39068603515625, -0.2280970811843872, -0.1648961901664734, -0.06699126958847046, -0.2480682134628296, -0.29495561122894287, 0.24265331029891968, -0.32113903760910034, -0.19232994318008423, -0.38807278871536255, -0.07423442602157593, -0.46154510974884033, 0.4336789846420288, -0.07294344902038574, 0.06571459770202637, 0.28079766035079956, 0.07294219732284546, 0.4138776659965515, 0.09592372179031372, 0.36989837884902954, -0.43820297718048096, 0.3278246521949768, -0.40466946363449097, -0.28118544816970825, -0.22380012273788452, -0.051973581314086914, -0.3675084710121155, -0.05593782663345337, -0.18385499715805054, 0.36456406116485596, -0.0771486759185791, 0.32862043380737305, 0.3879363536834717, -0.07854825258255005, 0.0668102502822876, 0.08607691526412964, 0.3700230121612549, 0.4138000011444092, -0.16841304302215576, -0.024767577648162842, 0.4233255982398987, 0.047082722187042236, 0.29310405254364014, -0.08132106065750122, 0.23780697584152222, 0.048731327056884766, 0.06483882665634155], [0.09887689352035522, 0.4340454936027527, -0.033524394035339355, 0.3317737579345703, -0.3789637088775635, 0.21131306886672974, 0.03306633234024048, -0.4319249391555786, 0.4480457305908203, -0.4232606887817383, 0.07853192090988159, 0.386229932308197, 0.05143094062805176, -0.15501749515533447, 0.3737824559211731, -0.3343029022216797, -0.14946770668029785, 0.009139299392700195, -0.2706955671310425, -0.019016563892364502, -0.4960222840309143, -0.25088536739349365, 0.16046983003616333, 0.39859217405319214, -0.13302838802337646, -0.3227519989013672, 0.29160046577453613, 0.29943323135375977, -0.16887390613555908, 0.48997610807418823, -0.27743345499038696, 0.06478220224380493, 0.17581045627593994, 0.39716434478759766, -0.2716805934906006, -0.10929477214813232, 0.4923330545425415, 0.06479257345199585, -0.19441741704940796, -0.17893439531326294, -0.35493987798690796, 0.4866684675216675, -0.301328182220459, 0.29895275831222534, 0.48906034231185913, -0.07017403841018677, -0.3490317463874817, 0.08873903751373291, -0.38772058486938477, -0.1351485252380371, -0.28114378452301025, 0.3176056146621704, 0.18087685108184814, -0.0694044828414917, 0.366713285446167, 0.4251418709754944, 0.18695127964019775, 0.1565811038017273, -0.12283909320831299, 0.07856249809265137, 0.4048353433609009, 0.358991801738739, -0.052402377128601074, -0.39530080556869507], [0.08034342527389526, 0.44929713010787964, -0.2745647430419922, -0.16421198844909668, -0.12260836362838745, -0.24721962213516235, -0.24531793594360352, 0.07404071092605591, -0.14281928539276123, 0.35019052028656006, -0.29301387071609497, 0.0838060975074768, 0.17157161235809326, -0.3649246096611023, -0.3883962035179138, -0.07469421625137329, 0.02216118574142456, -0.11407560110092163, 0.11593079566955566, -0.08940929174423218, -0.0715256929397583, -0.44913309812545776, -0.37776386737823486, -0.3499422073364258, 0.4106598496437073, -0.42825621366500854, -0.4939599633216858, -0.3371930718421936, 0.2913133502006531, -0.4859813451766968, -0.04103177785873413, -0.3292909860610962, -0.376944363117218, -0.12174421548843384, 0.2639225125312805, -0.08160626888275146, -0.4667167663574219, -0.3567160964012146, -0.2909435033798218, 0.021459341049194336, -0.08200889825820923, -0.0882025957107544, -0.0738421082496643, 0.12243533134460449, 0.2809489965438843, -0.43389081954956055, -0.179315447807312, 0.1780165433883667, 0.12660610675811768, 0.12871962785720825, 0.23703300952911377, -0.18668949604034424, -0.2244892120361328, -0.3415023684501648, -0.21942830085754395, 0.18627017736434937, 0.2636752128601074, -0.3421025276184082, -0.18190819025039673, -0.06712919473648071, -0.16749805212020874, 0.2247266173362732, 0.36150890588760376, 0.4178834557533264], [-0.1924501657485962, 0.31201738119125366, -0.4302600026130676, 0.11715030670166016, 0.4797154664993286, -0.29658007621765137, -0.00012755393981933594, 0.1038060188293457, 0.18175160884857178, 0.2429429292678833, -0.47139525413513184, 0.48426198959350586, -0.1253986358642578, 0.3861766457557678, -0.20234918594360352, 0.052053213119506836, -0.24844074249267578, -0.40065479278564453, -0.1833229660987854, -0.10309839248657227, 0.3585662245750427, 0.4446154236793518, 0.3278428316116333, -0.22973603010177612, 0.31781458854675293, -0.35319983959198, 0.13056355714797974, -0.02743762731552124, 0.36841195821762085, 0.03425878286361694, -0.13094985485076904, 0.33008748292922974, -0.34437698125839233, 0.10542166233062744, -0.15173768997192383, 0.0430605411529541, -0.4683082103729248, 0.2707675099372864, -0.3046254515647888, -0.08925926685333252, 0.23701614141464233, -0.3347032070159912, 0.005252420902252197, 0.27001285552978516, 0.22999024391174316, 0.42460018396377563, 0.1352914571762085, 0.399963915348053, -0.16220593452453613, -0.13249021768569946, -0.20779800415039062, -0.48536670207977295, -0.2791299819946289, -0.28310292959213257, -0.038940608501434326, 0.12611758708953857, -0.49988895654678345, 0.23947674036026, 0.016327261924743652, 0.39473724365234375, -0.40089350938796997, -0.2985367178916931, -0.39534687995910645, -0.036053240299224854], [-0.14265090227127075, -0.05074352025985718, -0.01669788360595703, -0.4210505485534668, 0.3293339014053345, 0.3257734179496765, 0.0006482601165771484, 0.15317898988723755, 0.3031642436981201, -0.25088512897491455, -0.10602188110351562, 0.34539783000946045, -0.24053484201431274, 0.04963076114654541, -0.13502436876296997, 0.08673095703125, -0.14914000034332275, 0.4142928719520569, -0.497370183467865, 0.09091180562973022, 0.22183459997177124, 0.05185866355895996, 0.11444514989852905, -0.22976213693618774, 0.26370376348495483, -0.23590999841690063, 0.3542766571044922, 0.2854641079902649, 0.14483118057250977, -0.05801534652709961, 0.029657959938049316, 0.4607882499694824, 0.19047760963439941, 0.262983500957489, -0.2294025421142578, 0.08651900291442871, 0.41607552766799927, -0.1693810224533081, 0.3549039363861084, -0.36637574434280396, -0.2273324728012085, 0.26119959354400635, -0.11678951978683472, -0.39661431312561035, -0.10885947942733765, 0.2755500078201294, 0.20289617776870728, -0.2996026277542114, -0.3906242847442627, -0.06510210037231445, -0.23357868194580078, -0.013702332973480225, 0.3290027976036072, -0.36559367179870605, -0.1536928415298462, -0.2360001802444458, -0.3515508770942688, -0.32782143354415894, -0.15467709302902222, -0.1090516448020935, 0.45233792066574097, 0.4655638337135315, -0.38896965980529785, 0.012732446193695068], [0.3941075801849365, -0.36342668533325195, -0.31203728914260864, 0.22424042224884033, 0.25872230529785156, 0.3456796407699585, 0.3441012501716614, -0.3581300377845764, 0.35839658975601196, -0.26454246044158936, -0.33616042137145996, 0.3769180178642273, 0.22068220376968384, -0.1572943925857544, 0.060796380043029785, 0.002398192882537842, 0.36009418964385986, 0.06499004364013672, 0.4135538935661316, 0.2627614736557007, 0.11676609516143799, -0.010768413543701172, 0.34527379274368286, 0.3177073001861572, -0.44610899686813354, -0.4705035090446472, 0.08755666017532349, 0.4034579396247864, 0.26895278692245483, -0.4296238422393799, -0.12025868892669678, -0.10406506061553955, -0.2932094931602478, -0.41632169485092163, -0.06307721138000488, 0.03484833240509033, 0.47293996810913086, 0.305387020111084, 0.11119955778121948, 0.3686479330062866, 0.0017136931419372559, 0.308649480342865, 0.03249835968017578, 0.025647640228271484, -0.05607795715332031, -0.25349098443984985, 0.3602006435394287, 0.21205049753189087, 0.41358017921447754, -0.023887038230895996, -0.2941092848777771, -0.41597259044647217, -0.25290971994400024, 0.04984849691390991, 0.3328784108161926, 0.009865045547485352, 0.13933199644088745, 0.28839659690856934, 0.43325966596603394, -0.09713101387023926, 0.13407838344573975, 0.07144701480865479, -0.3816821575164795, 0.4395621418952942], [0.30556702613830566, -0.0771263837814331, 0.2793365716934204, -0.2884376049041748, -0.16362535953521729, -0.2111961841583252, -0.48020023107528687, 0.33418798446655273, 0.13951867818832397, 0.14206600189208984, -0.1563892960548401, -0.4345911145210266, -0.29031163454055786, 0.052540719509124756, -0.4125945568084717, 0.13670188188552856, -0.006350517272949219, -0.3897179365158081, 0.4853994846343994, -0.3457911014556885, 0.14456766843795776, -0.25277870893478394, 0.30350369215011597, 0.308144748210907, 0.42378222942352295, -0.3058197498321533, -0.09168744087219238, 0.2962992787361145, -0.3715461492538452, -0.2162022590637207, -0.49772387742996216, -0.28651636838912964, -0.3231227993965149, 0.036252737045288086, -0.37224912643432617, -0.1501142978668213, -0.09105366468429565, 0.48332273960113525, -0.20846933126449585, -0.3541504740715027, -0.21034306287765503, -0.3572654128074646, -0.27908772230148315, 0.053354859352111816, -0.35355865955352783, 0.04198801517486572, 0.33767855167388916, -0.04213839769363403, -0.04878300428390503, 0.4262723922729492, -0.21232962608337402, -0.41007423400878906, 0.016545414924621582, 0.05721694231033325, 0.3197178840637207, -0.4079991579055786, 0.4108507037162781, 0.0016804933547973633, -0.25466597080230713, 0.17557835578918457, 0.2229512333869934, 0.3528410792350769, 0.43263983726501465, -0.055716097354888916], [0.017608165740966797, 0.32240837812423706, 0.16691720485687256, 0.38509422540664673, 0.23257791996002197, 0.3837592601776123, 0.3031185269355774, -0.37191474437713623, 0.2689392566680908, -0.48671436309814453, -0.07021373510360718, 0.07331478595733643, -0.11270391941070557, -0.23568260669708252, 0.05079305171966553, 0.3370479345321655, 0.3946213126182556, -0.3817341923713684, -0.2323935627937317, 0.24868077039718628, -0.19459974765777588, 0.4950225353240967, -0.47553926706314087, 0.46633994579315186, -0.09446173906326294, -0.3014984726905823, -0.28872328996658325, -0.2869570255279541, 0.28024089336395264, -0.34653544425964355, 0.1699123978614807, 0.08562225103378296, 0.06431281566619873, 0.42174792289733887, -0.11652696132659912, -0.3455629348754883, -0.14728718996047974, 0.4411536455154419, 0.024641692638397217, -0.2585632801055908, 0.15372508764266968, 0.05990535020828247, -0.44939303398132324, 0.2356424331665039, 0.08167481422424316, -0.4479665756225586, -0.06903690099716187, -0.1444581151008606, 0.35236281156539917, -0.47725915908813477, 0.027912616729736328, 0.011187970638275146, -0.3713480830192566, -0.13883864879608154, 0.23464161157608032, -0.03182685375213623, 0.3588184714317322, -0.2626911997795105, -0.4270786643028259, 0.08268743753433228, -0.2141982913017273, -0.22235864400863647, 0.0997743010520935, -0.22626501321792603], [0.056037962436676025, -0.07056903839111328, 0.2455316185951233, 0.34761953353881836, -0.16842734813690186, -0.048967599868774414, 0.3463680148124695, -0.06730705499649048, -0.33828359842300415, 0.19630569219589233, 0.23194509744644165, 0.4717709422111511, 0.34991323947906494, -0.30469077825546265, 0.41986262798309326, -0.09465748071670532, -0.15747612714767456, -0.04324823617935181, 0.019787609577178955, -0.11780601739883423, 0.262085497379303, 0.024271070957183838, 0.4874614477157593, 0.26686668395996094, 0.11750882863998413, 0.12791931629180908, 0.4222768545150757, 0.24384689331054688, -0.06974971294403076, -0.2569824457168579, -0.4557592272758484, 0.14219659566879272, -0.28058677911758423, -0.4122788906097412, 0.1647929549217224, 0.05552476644515991, 0.21080368757247925, -0.11236804723739624, 0.33842146396636963, 0.33600443601608276, -0.2739887237548828, 0.3380303382873535, -0.3447059392929077, -0.4623468518257141, 0.2289542555809021, 0.07359397411346436, 0.3702225089073181, -0.026657462120056152, -0.22300207614898682, -0.4355676770210266, 0.3591122627258301, 0.08876776695251465, 0.007296502590179443, 0.04899883270263672, -0.3072819113731384, 0.07743078470230103, -0.44797658920288086, -0.1378488540649414, 0.07987570762634277, 0.33918797969818115, 0.3623965382575989, 0.4622066020965576, 0.16862457990646362, -0.20562636852264404], [0.21277344226837158, -0.4617130160331726, 0.02550196647644043, 0.32403093576431274, -0.4658147096633911, -0.2795429825782776, -0.3394756317138672, 0.3992762565612793, -0.1198192834854126, 0.2076241374015808, -0.0068528056144714355, -0.006092488765716553, 0.4308299422264099, -0.005898952484130859, -0.04838055372238159, 0.22242051362991333, -0.4802588224411011, -0.27172595262527466, -0.12878412008285522, 0.43140894174575806, -0.2674636244773865, -0.06362247467041016, 0.06727081537246704, 0.29686009883880615, -0.16991811990737915, 0.4630888104438782, -0.06754165887832642, 0.13729113340377808, -0.37060093879699707, 0.4044170379638672, -0.34640032052993774, 0.11359059810638428, 0.1450400948524475, 0.4728431701660156, 0.49419546127319336, -0.34805041551589966, 0.3155663013458252, -0.030652761459350586, -0.11935240030288696, -0.005058765411376953, 0.492755651473999, -0.13273221254348755, -0.0995745062828064, 0.05602073669433594, -0.30788207054138184, 0.37851613759994507, -0.4219026565551758, -0.3649028539657593, -0.34328871965408325, 0.1113656759262085, -0.1916065216064453, 0.4628726840019226, -0.39247268438339233, -0.3903575539588928, 0.20435798168182373, 0.44675111770629883, -0.31654345989227295, -0.19017541408538818, -0.29479944705963135, -0.228806734085083, -0.0017805695533752441, 0.4095790982246399, 0.17426204681396484, 0.20390856266021729], [-0.31656283140182495, 0.2925099730491638, 0.18143075704574585, 0.36833131313323975, 0.40042370557785034, 0.4221087098121643, 0.236361563205719, 0.11958968639373779, -0.021725594997406006, 0.2892652750015259, 0.4866129755973816, 0.31399989128112793, 0.28938937187194824, -0.18974024057388306, 0.32205677032470703, -0.2620164752006531, -0.3740692138671875, -0.2942553758621216, 0.2786301374435425, -0.2421938180923462, -0.10004347562789917, -0.31755220890045166, 0.3339419960975647, 0.12841272354125977, 0.11837029457092285, 0.4399986267089844, 0.40727221965789795, -0.31195133924484253, 0.2472509741783142, 0.2694942355155945, 0.3915822505950928, -0.20904260873794556, 0.16126084327697754, -0.22911489009857178, -0.013695061206817627, 0.2370961308479309, 0.3035133481025696, -0.3693590760231018, 0.09300512075424194, -0.08239161968231201, 0.3053179979324341, -0.04407143592834473, -0.014096081256866455, 0.4710499048233032, 0.36750441789627075, 0.46858328580856323, 0.15850049257278442, 0.23574471473693848, 0.2113439440727234, 0.41540342569351196, -0.2864190936088562, 0.016628384590148926, 0.33190393447875977, -0.07393759489059448, 0.30058401823043823, 0.09394150972366333, 0.28109461069107056, -0.4354417324066162, -0.05166047811508179, -0.07955300807952881, 0.0031487345695495605, 0.23317867517471313, -0.06844007968902588, -0.34911954402923584], [-0.01828521490097046, -0.4735872149467468, -0.45527446269989014, 0.33674436807632446, 0.32528257369995117, -0.21025121212005615, 0.12732863426208496, -0.2497037649154663, 0.1407691240310669, 0.22778266668319702, 0.03301459550857544, -0.144237220287323, -0.22986841201782227, -0.28561294078826904, -0.058096349239349365, 0.34428542852401733, -0.008684635162353516, -0.4318435788154602, -0.3716267943382263, 0.18765372037887573, 0.2016158103942871, 0.2876977324485779, 0.2537670135498047, -0.4675055146217346, 0.19447088241577148, -0.29790300130844116, 0.0943763256072998, -0.4015379548072815, 0.2340068817138672, -0.02956753969192505, 0.05848795175552368, 0.22026050090789795, 0.04358315467834473, 0.18018478155136108, 0.3754734992980957, -0.07282894849777222, -0.08875346183776855, -0.4449191093444824, 0.33187925815582275, -0.29462891817092896, 0.17523086071014404, -0.4545590877532959, 0.2449135184288025, -0.3480355143547058, 0.4804620146751404, -0.028019487857818604, -0.4398171901702881, 0.4803772568702698, 0.19863218069076538, -0.4872058629989624, -0.1601431965827942, -0.05832916498184204, 0.18848061561584473, 0.03140658140182495, -0.4238685369491577, 0.32188546657562256, 0.4491755962371826, -0.4070950150489807, -0.4225683808326721, 0.34884339570999146, -0.4091956615447998, 0.028892934322357178, 0.004549562931060791, -0.1355212926864624], [0.1988692283630371, -0.3347246050834656, 0.3333699107170105, 0.21763265132904053, -0.24983078241348267, 0.17094534635543823, -0.42450881004333496, -0.31502723693847656, 0.3108634352684021, 0.1061621904373169, -0.12305682897567749, -0.12214195728302002, -0.3875361680984497, 0.1317598819732666, 0.22381597757339478, -0.44725507497787476, 0.47497886419296265, 0.09250366687774658, -0.08870559930801392, 0.06574451923370361, 0.13343876600265503, 0.24405348300933838, -0.044277966022491455, 0.19118666648864746, 0.03449738025665283, 0.08329790830612183, -0.35800880193710327, -0.2735635042190552, 0.25908803939819336, -0.24873816967010498, -0.40301382541656494, -0.06695961952209473, 0.0522005558013916, -0.10270601511001587, -0.29366105794906616, 0.16179734468460083, -0.16879504919052124, 0.19539159536361694, -0.3827836513519287, 0.3697017431259155, -0.2404026985168457, -0.04772144556045532, 0.2728726267814636, 0.36354100704193115, -0.014352798461914062, 0.4820224642753601, 0.4487510919570923, -0.07089114189147949, -0.44918376207351685, 0.038507282733917236, -0.43237900733947754, -0.09152424335479736, 0.10096585750579834, -0.36302506923675537, -0.15634149312973022, -0.1581108570098877, 0.04717963933944702, 0.24343067407608032, 0.3148590326309204, -0.306349515914917, -0.38320308923721313, 0.06569176912307739, 0.0975867509841919, 0.1603754758834839], [-0.2569400668144226, -0.06148684024810791, -0.37576448917388916, -0.04229545593261719, 0.0284423828125, 0.3519045114517212, -0.37895166873931885, 0.1495411992073059, -0.31702160835266113, 0.1386411190032959, -0.329569935798645, 0.12068802118301392, 0.14359581470489502, 0.47977709770202637, -0.2263885736465454, 0.1590033769607544, -0.38847410678863525, 0.3583848476409912, -0.4932723045349121, -0.19271564483642578, -0.013307750225067139, -0.0197485089302063, 0.3833363652229309, -0.22519618272781372, -0.08456724882125854, 0.2850702404975891, -0.49770331382751465, -0.32780754566192627, 0.38079357147216797, 0.08235788345336914, -0.3973920941352844, 0.49627840518951416, 0.41448402404785156, -0.22689610719680786, -0.1333407759666443, -0.20940864086151123, -0.11834514141082764, -0.37745076417922974, 0.35578131675720215, -0.3967667818069458, 0.4360910654067993, -0.40732336044311523, 0.4690386652946472, -0.21952486038208008, 0.26190251111984253, -0.2975408434867859, 0.16893619298934937, -0.017677366733551025, -0.06344670057296753, 0.13864624500274658, 0.17952722311019897, 0.19298571348190308, -0.47757720947265625, 0.1792117953300476, -0.40916961431503296, 0.3111577033996582, 0.1222602128982544, 0.3697012662887573, -0.07609373331069946, 0.25110411643981934, 0.03450024127960205, 0.29728031158447266, -0.21987992525100708, -0.4442213773727417], [-0.14192742109298706, -0.0410119891166687, 0.28317707777023315, 0.4259710907936096, 0.3176465630531311, -0.252583384513855, -0.1827678084373474, 0.33212995529174805, -0.03984254598617554, -0.4141061305999756, -0.1923782229423523, -0.4433172941207886, 0.44202083349227905, -0.15603697299957275, 0.16939043998718262, -0.4836450219154358, -0.09319514036178589, 0.023621439933776855, -0.22443300485610962, 0.24377691745758057, 0.1432480812072754, 0.05623811483383179, 0.29404711723327637, -0.43826138973236084, 0.46129119396209717, 0.42460232973098755, -0.16833627223968506, -0.13886511325836182, -0.27474695444107056, -0.41415172815322876, 0.1095055341720581, 0.36166054010391235, 0.29825717210769653, -0.2116924524307251, -0.09220606088638306, 0.3411709666252136, 0.22208285331726074, 0.13552480936050415, 0.005650162696838379, -0.3135750889778137, -0.3154933452606201, 0.2677195072174072, 0.4394179582595825, -0.2785531282424927, -0.07257956266403198, 0.25117552280426025, -0.03854560852050781, 0.08663642406463623, -0.4746752381324768, -0.4834340214729309, 0.017129361629486084, 0.0593302845954895, 0.363800048828125, -0.2832925319671631, 0.41629618406295776, 0.04975825548171997, -0.197931706905365, 0.1773841381072998, -0.40816283226013184, 0.20074403285980225, -0.13147979974746704, 0.27531325817108154, 0.01791214942932129, 0.36341631412506104], [-0.49703991413116455, 0.3925744891166687, 0.09011930227279663, -0.13839036226272583, 0.3045217990875244, 0.35020220279693604, -0.4226311445236206, -0.4109032154083252, -0.3961196541786194, 0.11853104829788208, 0.4158569574356079, -0.2908099293708801, 0.17675113677978516, -0.07957017421722412, 0.43407464027404785, -0.2172098159790039, -0.24754464626312256, 0.44628769159317017, -0.4087403416633606, 0.06637173891067505, -0.26392555236816406, 0.21149593591690063, -0.48562610149383545, -0.4639512896537781, -0.04211241006851196, -0.45691460371017456, 0.22966724634170532, 0.42588549852371216, -0.32948654890060425, -0.4915357232093811, 0.011157751083374023, -0.2683681845664978, -0.40209752321243286, -0.3034208416938782, -0.37213432788848877, 0.20788341760635376, -0.004013121128082275, -0.3262965679168701, 0.28987133502960205, -0.007600545883178711, -0.444131076335907, -0.02440410852432251, -0.4203893542289734, 0.26523131132125854, 0.07231175899505615, 0.10738265514373779, 0.17435938119888306, -0.4951794743537903, -0.4606807827949524, -0.47902190685272217, 0.003722071647644043, 0.07444745302200317, -0.20196086168289185, 0.25175046920776367, -0.1295558214187622, -0.36226028203964233, -0.22699636220932007, 0.1775379180908203, -0.16397100687026978, 0.33160752058029175, -0.028313755989074707, -0.4239542484283447, 0.26388776302337646, 0.16269183158874512], [-0.18316960334777832, -0.43375247716903687, 0.3342762589454651, -0.4905160069465637, 0.1343504786491394, 0.38177400827407837, -0.01508474349975586, 0.24315690994262695, 0.09178823232650757, -0.08340007066726685, 0.2645980715751648, -0.4623769521713257, -0.2908952832221985, -0.40468883514404297, -0.19661885499954224, -0.036200642585754395, 0.3155921697616577, 0.3723273277282715, -0.43243706226348877, 0.437308132648468, 0.30734819173812866, -0.13454920053482056, 0.3169502019882202, 0.3734152317047119, 0.24456024169921875, -0.25924646854400635, -0.43265384435653687, -0.16573035717010498, 0.3408631682395935, 0.43399494886398315, 0.42133045196533203, 0.2022600769996643, 0.016634762287139893, 0.3070281147956848, 0.22518205642700195, -0.3662899136543274, 0.4446580410003662, -0.022825181484222412, 0.11518275737762451, -0.24912810325622559, -0.20903116464614868, -0.4159092903137207, -0.4886058568954468, -0.3277539610862732, 0.36988186836242676, -0.3741089105606079, 0.2643519639968872, 0.46623438596725464, -0.18425077199935913, 0.06895279884338379, -0.02971702814102173, 0.2641698122024536, -0.3210299611091614, 0.0009712576866149902, -0.25321435928344727, -0.28204649686813354, 0.36450111865997314, -0.30952876806259155, -0.0799640417098999, -0.4491313695907593, -0.4752463698387146, -0.24712282419204712, 0.1427609920501709, -0.21455788612365723], [0.043138086795806885, -0.14767134189605713, 0.20211762189865112, -0.1387348771095276, -0.14348101615905762, 0.12640666961669922, 0.35165250301361084, 0.06165796518325806, 0.3754294514656067, -0.33340537548065186, -0.47931474447250366, -0.011539876461029053, -0.3573787808418274, -0.06427508592605591, -0.23819732666015625, 0.4566398859024048, -0.37978243827819824, 0.25676900148391724, 0.3386654853820801, -0.14730769395828247, -0.43841415643692017, -0.33045852184295654, 0.3046606183052063, 0.06016474962234497, 0.1350470781326294, -0.11071646213531494, -0.12936288118362427, 0.3860514163970947, 0.19377166032791138, -0.4928070902824402, 0.29112720489501953, 0.45693010091781616, 0.48928219079971313, -0.3825768828392029, 0.07076156139373779, -0.12948548793792725, 0.3773876428604126, 0.3791261911392212, -0.3669092655181885, -0.4793655276298523, 0.26761817932128906, -0.24777495861053467, 0.19247972965240479, 0.0701979398727417, -0.4904627203941345, 0.17820405960083008, 0.45067042112350464, 0.3999168276786804, 0.10695040225982666, -0.28328657150268555, -0.3705400824546814, -0.4819052219390869, 0.17809319496154785, 0.2345644235610962, 0.08592790365219116, 0.13611376285552979, -0.4318940043449402, -0.21713149547576904, -0.12262135744094849, 0.07142162322998047, 0.3403673768043518, -0.3450443148612976, 0.2479710578918457, 0.20335888862609863], [-0.07951158285140991, 0.42869019508361816, -0.4029957056045532, 0.19457566738128662, -0.3779815435409546, -0.49877113103866577, -0.41201531887054443, 0.34458404779434204, -0.38047486543655396, 0.48283451795578003, -0.39004939794540405, 0.2117851972579956, -0.2127254605293274, 0.15415579080581665, 0.022939324378967285, 0.3322276473045349, -0.09925878047943115, -0.2956289052963257, 0.2567317485809326, -0.3917444348335266, -0.40636545419692993, 0.1569330096244812, -0.48209160566329956, -0.3546142578125, 0.27638620138168335, 0.041398704051971436, 0.19686377048492432, -0.2978587746620178, -0.4618324637413025, 0.4867509603500366, -0.2858960032463074, 0.007483124732971191, 0.24667948484420776, -0.3061085343360901, 0.24037784337997437, -0.4012756943702698, 0.2568002939224243, -0.46624839305877686, -0.4831262230873108, -0.38800549507141113, -0.26322269439697266, 0.39751261472702026, 0.13887739181518555, 0.19110417366027832, -0.1756216287612915, 0.0774085521697998, 0.03933835029602051, 0.17508924007415771, 0.017021536827087402, -0.309922456741333, 0.1867924928665161, -0.07798540592193604, 0.4072498679161072, -0.07621902227401733, 0.2886912226676941, -0.2255539894104004, -0.4446370005607605, 0.3645840287208557, 0.39518100023269653, 0.1383070945739746, -0.20701706409454346, 0.18189722299575806, 0.41172438859939575, -0.1374807357788086], [-0.3514130115509033, 0.4687291979789734, 0.1936306357383728, -0.22693902254104614, 0.31168419122695923, 0.4332953691482544, 0.4373658299446106, -0.33143484592437744, -0.17636287212371826, 0.39072316884994507, 0.35317522287368774, 0.17846721410751343, -0.2882962226867676, 0.2946491241455078, -0.4892657995223999, -0.11032038927078247, -0.4396020770072937, 0.24688810110092163, -0.15523076057434082, 0.2732587456703186, -0.1840408444404602, 0.2622831463813782, 0.3323134779930115, 0.31650811433792114, 0.32124269008636475, -0.05502814054489136, -0.2674708962440491, 0.4037063717842102, 0.18760371208190918, -0.18460822105407715, 0.20314711332321167, 0.40382909774780273, -0.11165952682495117, -0.46601980924606323, -0.3501080870628357, -0.2721571922302246, 0.01255345344543457, 0.38442158699035645, 0.26554346084594727, 0.22174835205078125, -0.06210273504257202, -0.2671954035758972, 0.10081857442855835, 0.075741708278656, 0.2563825845718384, 