{"input_weights": [[0.38209372758865356, -0.05417490005493164, 0.16070252656936646, -0.19244110584259033, 0.3823311924934387, -0.18225479125976562, 0.09986776113510132, 0.11850059032440186, 0.26140427589416504, 0.04836088418960571, 0.2576865553855896, -0.37370550632476807, -0.38009244203567505, -0.4751925468444824, -0.008427083492279053, -0.22149008512496948, -0.14585018157958984, 0.13652652502059937, 0.27498936653137207, -0.01994413137435913, 0.3375778794288635, -0.30841338634490967, 0.04224127531051636, 0.08582621812820435, -0.4241904616355896, 0.0930907130241394, -0.08120769262313843, 0.1392245888710022, 0.49782049655914307, 0.47370684146881104, 0.4313027262687683, 0.2728886008262634, -0.10551810264587402, -0.1454734206199646, 0.03859490156173706, 0.43150848150253296, 0.3544272184371948, 0.11945348978042603, 0.31403762102127075, 0.3996155261993408, 0.039123475551605225, -0.20368331670761108, -0.15457826852798462, -0.2487173080444336, 0.012201845645904541, 0.05220842361450195, -0.244778573513031, 0.21738654375076294, 0.03054124116897583, 0.21433418989181519, -0.2379196286201477, -0.07007914781570435, -0.4902358651161194, 0.2991753816604614, 0.15011799335479736, 0.23531800508499146, -0.35647493600845337, 0.153741717338562, -0.1696566343307495, -0.27832627296447754, -0.20640122890472412, -0.3896164298057556, 0.27442437410354614, -0.16928815841674805, 0.03333783149719238, -0.35907524824142456, 0.3525157570838928, 0.09693509340286255, 0.018489718437194824, -0.14925581216812134, -0.4952124357223511, 0.368937611579895, -0.2860953211784363, 0.24567687511444092, -0.2933635711669922, 0.18328803777694702, 0.0036395788192749023, 0.06000065803527832, 0.4116644859313965, -0.012933552265167236, -0.25333845615386963, 0.4759066700935364, 0.10078144073486328, -0.3698185682296753, 0.4507462978363037, -0.19769549369812012, 0.4662972688674927, -0.2389158010482788, -0.3059237003326416, 0.3343268036842346, 0.23281997442245483, 0.014634549617767334, 0.3220897316932678, 0.2779827117919922, -0.33912599086761475, -0.14952462911605835, -0.46840107440948486, 0.40789520740509033, 0.48713797330856323, 0.4775269031524658, 0.38317781686782837, -0.10179972648620605, -0.44652318954467773, -0.09209394454956055, 0.3067553639411926, -0.34790748357772827, 0.21139782667160034, 0.29111140966415405, -0.00774461030960083, -0.2961046099662781, -0.09962064027786255, -0.26795023679733276, 0.4285370111465454, 0.4485725164413452, -0.26188164949417114, 0.4119545817375183, 0.35853445529937744, 0.4042755961418152, -0.40251868963241577, -0.17263048887252808, 0.43018627166748047, 0.11560052633285522, 0.10365140438079834, 0.2783849239349365, -0.051153719425201416, -0.05524742603302002, 0.12223118543624878, -0.2587950825691223], [0.041986048221588135, 0.04822278022766113, -0.12589728832244873, -0.33089178800582886, 0.223463237285614, -0.47688359022140503, -0.34143805503845215, -0.18798470497131348, 0.07243853807449341, -0.02889949083328247, 0.07894325256347656, -0.2792598605155945, -0.48061102628707886, -0.1597859263420105, 0.2372494339942932, 0.2650589942932129, -0.33939939737319946, 0.005348682403564453, 0.11177480220794678, -0.475322425365448, -0.34251588582992554, 0.14370501041412354, 0.37055450677871704, -0.46179187297821045, 0.2118837833404541, 0.20200538635253906, 0.3764722943305969, 0.32193636894226074, -0.003681957721710205, 0.2410888671875, -0.10953265428543091, 0.30345243215560913, -0.29874879121780396, -0.014077305793762207, 0.24995344877243042, -0.21364575624465942, 0.23919463157653809, -0.08187979459762573, 0.22023111581802368, 0.4661867618560791, 0.46735745668411255, -0.35245007276535034, -0.030396997928619385, -0.3861328959465027, -0.18247956037521362, 0.15685677528381348, -0.47672879695892334, 0.03683751821517944, 0.2278919219970703, -0.29251396656036377, 0.3116246461868286, 0.2227787971496582, -0.14372235536575317, 0.47541576623916626, 0.06594210863113403, 0.32723379135131836, -0.20626109838485718, 0.449243426322937, -0.2169082760810852, -0.017100214958190918, -0.12805694341659546, 0.4869470000267029, 0.0941804051399231, 0.268452525138855, 0.18945080041885376, 0.24309301376342773, 0.31382274627685547, -0.4043945074081421, -0.02074974775314331, 0.3977411985397339, -0.0347059965133667, -0.051226794719696045, -0.2309129238128662, 0.0771721601486206, -0.12927860021591187, 0.06795364618301392, -0.13045459985733032, 0.15359193086624146, -0.2626630663871765, -0.2118627429008484, -0.49511516094207764, 0.07972466945648193, -0.0697900652885437, 0.19187688827514648, -0.05527108907699585, 0.3236009478569031, 0.4671896696090698, -0.30357110500335693, 0.07911175489425659, -0.05033212900161743, 0.040212929248809814, -0.06671613454818726, -0.4803921580314636, -0.05616647005081177, 0.08578979969024658, -0.40062618255615234, 0.38305747509002686, -0.0867912769317627, 0.47203749418258667, -0.48842960596084595, 0.27635806798934937, -0.291107177734375, -0.42649519443511963, -0.04151970148086548, 0.12405496835708618, -0.3982502818107605, -0.2768704891204834, 0.32974809408187866, -0.4921238422393799, -0.17079323530197144, 0.41244322061538696, -0.45834124088287354, 0.4316954016685486, 0.21066033840179443, 0.025262892246246338, -0.013589859008789062, -0.39218902587890625, 0.20006287097930908, -0.04715198278427124, 0.3991841673851013, -0.3815406560897827, 0.29559022188186646, -0.47816503047943115, 0.050630152225494385, -0.21757805347442627, 0.007722616195678711, 0.11769711971282959, -0.17715877294540405], [-0.08697468042373657, 0.018181681632995605, 0.35540497303009033, -0.2380792498588562, 0.1210031509399414, -0.17197668552398682, 0.49638694524765015, 0.4380972385406494, -0.3025345206260681, -0.31707900762557983, 0.4091808795928955, -0.07234847545623779, -0.34882688522338867, -0.1760823130607605, -0.3433964252471924, -0.23937278985977173, -0.13879013061523438, -0.10053622722625732, 0.33032965660095215, -0.43948906660079956, -0.02949690818786621, -0.27347975969314575, 0.37360215187072754, -0.03800779581069946, -0.3972262144088745, -0.3493683338165283, 0.18102401494979858, 0.09823006391525269, -0.15896809101104736, 0.2906988859176636, -0.004584908485412598, -0.48619067668914795, -0.07251018285751343, 0.07719886302947998, -0.027754664421081543, 0.07481664419174194, 0.4325639009475708, -0.28201138973236084, 0.3032916188240051, 0.3482620120048523, 0.4602150321006775, -0.20849353075027466, -0.2818524241447449, -0.3721122741699219, 0.19958233833312988, 0.30915093421936035, 0.25673872232437134, -0.43665260076522827, 0.4667426347732544, -0.20349764823913574, -0.3430647850036621, 0.05983179807662964, -0.3726843595504761, 0.008209943771362305, -0.22959744930267334, -0.4553215503692627, 0.22573596239089966, 0.11983281373977661, -0.19022929668426514, -0.3117794990539551, -0.046957314014434814, -0.24055975675582886, 0.06301653385162354, 0.09047544002532959, 0.39480650424957275, 0.3129929304122925, -0.475222647190094, 0.30061423778533936, 0.24580639600753784, -0.2532106637954712, 0.18107843399047852, 0.1759864091873169, 0.11629682779312134, 0.40304791927337646, -0.30452072620391846, 0.14132630825042725, -0.3390161991119385, 0.4128236770629883, -0.17902714014053345, -0.16234731674194336, -0.20637834072113037, 0.11590033769607544, -0.25443553924560547, -0.24024760723114014, -0.004770040512084961, 0.17169147729873657, -0.03173363208770752, 0.2979585528373718, 0.19510126113891602, 0.35863369703292847, -0.4414929747581482, 0.21634769439697266, -0.4255971908569336, 0.3591536283493042, 0.12416940927505493, 0.34283459186553955, -0.035749614238739014, 0.09992259740829468, 0.39555293321609497, -0.34995371103286743, 0.18782591819763184, 0.40687549114227295, 0.225563645362854, 0.08820319175720215, 0.009243309497833252, 0.24875527620315552, 0.21268725395202637, 0.27908408641815186, 0.14575159549713135, 0.29547274112701416, -0.034401774406433105, -0.08592009544372559, -0.2215481996536255, 0.47582823038101196, 0.13870489597320557, 0.01735907793045044, -0.3162984848022461, 0.2628400921821594, 0.10288089513778687, -0.43551647663116455, -0.4870780110359192, 0.15535718202590942, 0.45442748069763184, -0.07724714279174805, -0.446419358253479, 0.31596362590789795, -0.27417808771133423, -0.44688987731933594], [-0.33169031143188477, 0.39905768632888794, -0.40741026401519775, -0.3278352618217468, 0.010021328926086426, -0.0069359540939331055, 0.21613317728042603, -0.33765578269958496, 0.13379228115081787, -0.4122611880302429, 0.03666633367538452, -0.09115332365036011, -0.19221210479736328, -0.0009556412696838379, -0.08385556936264038, 0.2816755771636963, -0.12433987855911255, 0.1116708517074585, -0.05953395366668701, -0.4053506851196289, -0.4071633815765381, 0.44745969772338867, 0.43806183338165283, -0.13513123989105225, 0.42272353172302246, 0.1971590518951416, -0.1682019829750061, -0.3441700339317322, -0.12329322099685669, 0.36602163314819336, -0.4005592465400696, -0.30001193284988403, -0.44732046127319336, -0.027455925941467285, -0.4720274806022644, -0.20358359813690186, 0.4681849479675293, 0.12653249502182007, 0.055708467960357666, -0.043952107429504395, 0.3006841540336609, -0.23368799686431885, -0.23596805334091187, 0.24872469902038574, -0.08576422929763794, 0.20922166109085083, 0.2596045136451721, 0.29054582118988037, -0.3053588271141052, -0.4407747983932495, -0.11412030458450317, 0.4523916244506836, -0.47425979375839233, 0.3226410746574402, 0.19553017616271973, -0.29476237297058105, 0.39844799041748047, -0.2018551230430603, -0.02687513828277588, 0.040148258209228516, 0.3357306122779846, 0.18965160846710205, -0.051512837409973145, 0.022259056568145752, -0.11581927537918091, -0.4361829161643982, -0.06230056285858154, 0.1147347092628479, 0.4771565794944763, -0.15222448110580444, -0.3037114143371582, -0.18510454893112183, 0.18816900253295898, -0.14001262187957764, 0.08896738290786743, 0.36964166164398193, 0.11438822746276855, 0.25122135877609253, -0.011178195476531982, -0.029273033142089844, 0.19443106651306152, -0.4898375868797302, 0.332572877407074, 0.36727482080459595, 0.19302892684936523, 0.11571842432022095, 0.04639101028442383, 0.47573649883270264, -0.0991353988647461, 0.42228978872299194, -0.11130940914154053, -0.20685607194900513, -0.4518989324569702, -0.3448628783226013, -0.28242963552474976, -0.1119462251663208, 0.15391016006469727, 0.2940141558647156, -0.2731766700744629, 0.46626871824264526, -0.43806254863739014, -0.4545952081680298, -0.34581196308135986, -0.3584040403366089, 0.14155083894729614, 0.29353445768356323, -0.3370252251625061, 0.4472509026527405, 0.16062140464782715, 0.09341549873352051, 0.24692106246948242, 0.3685539960861206, 0.11985474824905396, -0.05110204219818115, 0.1745394468307495, 0.05280023813247681, 0.07145065069198608, 0.12362015247344971, 0.39953696727752686, 0.410070538520813, 0.02926570177078247, 0.43863624334335327, 0.4711220860481262, 0.19793111085891724, 0.31976318359375, -0.4638039469718933, -0.18800973892211914, -0.44309669733047485], [-0.39394062757492065, 0.0482487678527832, -0.21081995964050293, -0.06252866983413696, 0.4476413130760193, 0.16589194536209106, 0.4383949637413025, 0.22133862972259521, 0.08865302801132202, -0.16683679819107056, -0.2152080535888672, -0.16716957092285156, 0.4926568269729614, 0.48960286378860474, -0.4937790036201477, 0.21990782022476196, -0.37272995710372925, 0.042935848236083984, 0.4869927763938904, 0.45905590057373047, -0.1399330496788025, 0.3312150239944458, -0.38328421115875244, -0.03280609846115112, -0.46718233823776245, -0.2201594114303589, 0.09318792819976807, -0.12039166688919067, 0.39041584730148315, 0.26204532384872437, -0.21221423149108887, 0.10352462530136108, -0.3805059790611267, 0.3293434977531433, -0.34952718019485474, 0.22092336416244507, 0.02704477310180664, 0.17261183261871338, -0.48582470417022705, 0.3082396984100342, 0.23441487550735474, 0.4474179148674011, -0.18126273155212402, -0.30868297815322876, 0.229436993598938, 0.01212918758392334, -0.2950103282928467, 0.32318365573883057, 0.4392513036727905, -0.03466057777404785, 0.4083552360534668, -0.4896479845046997, 0.2158651351928711, 0.14833009243011475, -0.05080568790435791, 0.331199586391449, 0.3255566358566284, 0.3351810574531555, 0.021122276782989502, -0.33711767196655273, 0.01894909143447876, 0.036059558391571045, -0.31423890590667725, 0.366713285446167, -0.4639151692390442, 0.2353866696357727, -0.26800936460494995, 0.15221816301345825, -0.3369302749633789, 0.0298612117767334, 0.22600847482681274, 0.49157124757766724, -0.06302303075790405, -0.3586031198501587, 0.10826337337493896, 0.4418950080871582, -0.09209579229354858, 0.2905295491218567, -0.3881385326385498, 0.32061052322387695, -0.31478017568588257, 0.21057075262069702, 0.20250600576400757, 0.41467219591140747, 0.3123135566711426, 0.10643768310546875, -0.45632147789001465, -0.4845893979072571, -0.12328130006790161, -0.11328554153442383, -0.3813771605491638, 0.3779774308204651, 0.45901942253112793, -0.11928659677505493, -0.3674057722091675, 0.2266143560409546, 0.14392024278640747, -0.4962553381919861, 0.267325758934021, -0.25913381576538086, 0.4747212529182434, 0.16487634181976318, 0.0017154812812805176, 0.28181374073028564, -0.12271606922149658, -0.270197331905365, 0.4559438228607178, -0.12733900547027588, -0.05296581983566284, 0.06368088722229004, -0.04473447799682617, -0.47317665815353394, 0.34444981813430786, 0.34106141328811646, 0.4608609676361084, -0.4851190447807312, -0.2541276812553406, -0.47617560625076294, 0.43424373865127563, 0.48243266344070435, -0.10594391822814941, 0.422679603099823, 0.1658473014831543, -0.029905617237091064, 0.005211591720581055, 0.21483737230300903, 0.1296905279159546, -0.4212471842765808], [-0.2483643889427185, 0.28663283586502075, -0.24612754583358765, -0.16169089078903198, -0.3785429000854492, 0.47570961713790894, 0.05948132276535034, -0.0418170690536499, -0.34062230587005615, 0.2977600693702698, 0.2368829846382141, 0.10132533311843872, -0.4300479292869568, 0.03561699390411377, -0.2515965700149536, -0.12182056903839111, 0.4606069326400757, -0.3408570885658264, 0.18119007349014282, -0.005135178565979004, 0.07542550563812256, 0.236494779586792, 0.23436379432678223, 0.48130136728286743, 0.026988625526428223, 0.071868896484375, -0.4252917766571045, -0.3421984910964966, -0.05166417360305786, -0.0071936845779418945, -0.23444950580596924, 0.002250373363494873, -0.32582104206085205, -0.4559764266014099, 0.2058907151222229, -0.39808428287506104, -0.24100130796432495, 0.27664679288864136, 0.11915355920791626, -0.4196683168411255, 0.31434255838394165, -0.07338976860046387, -0.4399369955062866, 0.16273605823516846, 0.1589255928993225, 0.4652336835861206, -0.04779702425003052, 0.054789721965789795, -0.11927670240402222, 0.4334492087364197, 0.3546307682991028, 0.24451732635498047, 0.20448923110961914, -0.3444327116012573, 0.17881667613983154, 0.046056926250457764, -0.17579972743988037, -0.4175691604614258, 0.10849809646606445, -0.24170857667922974, -0.07536673545837402, -0.03418266773223877, 0.3208009600639343, -0.4770829677581787, -0.4473987817764282, 0.024258017539978027, -0.46845245361328125, -0.1506587266921997, -0.2758128046989441, 0.09927213191986084, -0.4691537022590637, -0.3007304072380066, -0.030802249908447266, -0.20029115676879883, 0.15897905826568604, 0.4932935833930969, 0.1601930856704712, -0.44017040729522705, 0.06845057010650635, 0.06111443042755127, -0.16367191076278687, -0.001040041446685791, -0.19202005863189697, 0.4670955538749695, 0.41191160678863525, -0.11555337905883789, -0.2488611936569214, 0.060573697090148926, -0.39364850521087646, 0.27408820390701294, -0.48854243755340576, 0.19960296154022217, 0.3295024633407593, -0.3833903670310974, 0.4557464122772217, -0.3776739239692688, -0.3917023539543152, -0.1613626480102539, 0.33588361740112305, 0.4513264298439026, -0.37555330991744995, -0.3780914545059204, -0.21096926927566528, -0.1649673581123352, -0.1673470139503479, -0.4173814058303833, 0.460300087928772, 0.49095582962036133, -0.4752047657966614, 0.2261907458305359, 0.4322035312652588, 0.49769967794418335, 0.30516302585601807, 0.23965156078338623, -0.018040955066680908, -0.2476261854171753, -0.2614145874977112, -0.4622332453727722, -0.29883062839508057, -0.40058040618896484, -0.06440699100494385, -0.08122444152832031, 0.21247559785842896, 0.18352192640304565, 0.4142780900001526, -0.2608691453933716, 0.04919552803039551, 0.32198411226272583], [-0.39116066694259644, 0.10214763879776001, 0.2297685742378235, 0.333918035030365, -0.18938368558883667, 0.21410036087036133, -0.4842700958251953, -0.1783313751220703, 0.4319798946380615, -0.13636958599090576, -0.32736295461654663, 0.15330910682678223, -0.028998911380767822, 0.01703500747680664, 0.3702628016471863, 0.4301571846008301, 0.1431654691696167, -0.1606539487838745, 0.36586427688598633, -0.028648555278778076, -0.3533371090888977, -0.17041391134262085, -0.01161879301071167, 0.36269819736480713, -0.2807789444923401, 0.4896841049194336, 0.030284106731414795, 0.4675130248069763, 0.3322288393974304, -0.013763487339019775, 0.3594772219657898, -0.3461628556251526, -0.01703941822052002, -0.024240612983703613, 0.4045424461364746, -0.4133015275001526, -0.3811855912208557, 0.40253746509552, 0.3818137049674988, 0.3595576286315918, -0.47551649808883667, 0.19537031650543213, -0.2315065860748291, 0.10363304615020752, -0.19371676445007324, -0.29791420698165894, -0.14046883583068848, 0.2156221866607666, 0.3975389003753662, -0.06294381618499756, 0.39349186420440674, 0.3606863021850586, 0.2332371473312378, 0.4489169716835022, -0.003754138946533203, -0.246518075466156, -0.4795096516609192, 0.3410065174102783, -0.21717029809951782, 0.41036659479141235, -0.373409628868103, -0.11870682239532471, -0.4885717034339905, -0.3776317238807678, -0.05999785661697388, -0.09495067596435547, -0.05285412073135376, -0.4105912446975708, -0.330136239528656, -0.14831966161727905, 0.4080948233604431, -0.11494326591491699, 0.4919334650039673, 0.10758596658706665, 0.13531804084777832, 0.2692115306854248, -0.16817212104797363, -0.11318957805633545, -0.4257083535194397, -0.2029551863670349, -0.04671674966812134, -0.47569113969802856, 0.26230037212371826, 0.3988967537879944, -0.044509708881378174, -0.497896671295166, -0.08149611949920654, -0.45222413539886475, -0.08185571432113647, -0.2667497992515564, 0.33639347553253174, -0.07478857040405273, 0.31421351432800293, 0.01991981267929077, 0.4838066101074219, 0.2849121689796448, -0.4921509623527527, -0.02163219451904297, 0.4407602548599243, -0.4102550148963928, -0.2180221676826477, -0.2272356152534485, -0.08263915777206421, -0.37710773944854736, -0.04300034046173096, 0.2559054493904114, 0.35367995500564575, -0.4748579263687134, -0.3827723264694214, -0.14146780967712402, 0.23305195569992065, 0.16541486978530884, -0.49180370569229126, 0.38261955976486206, 0.27261781692504883, 0.2821890711784363, -0.050395965576171875, 0.41345667839050293, 0.19741302728652954, -0.39521270990371704, 0.4547199010848999, 0.10600578784942627, 0.2721344232559204, -0.3041936159133911, -0.3228374123573303, -0.013704538345336914, -0.12668555974960327, 0.2112264633178711], [-0.3884667158126831, 0.24407267570495605, 0.44391995668411255, -0.08902007341384888, -0.4899143576622009, -0.26967036724090576, -0.0669296383857727, 0.29564690589904785, 0.3613676428794861, 0.4495747685432434, -0.1903291940689087, -0.4925222396850586, 0.10575765371322632, -0.31882965564727783, 0.4358488917350769, 0.31837648153305054, 0.3249432444572449, -0.11972475051879883, 0.08453845977783203, -0.44581061601638794, 0.12668222188949585, 0.2767772674560547, -0.2380496859550476, 0.011400699615478516, -0.3623758554458618, 0.13171958923339844, 0.23324650526046753, 0.12816065549850464, -0.314403235912323, -0.17686110734939575, -0.036857545375823975, -0.23534196615219116, -0.3918195962905884, 0.07796162366867065, 0.40697282552719116, -0.177564799785614, 0.2739582061767578, 0.2836468815803528, 0.06400597095489502, -0.38180112838745117, 0.1561639904975891, -0.2737109065055847, 0.18058443069458008, -0.37176626920700073, 0.3105420470237732, 0.1790449619293213, -0.16548216342926025, 0.0624157190322876, -0.29352736473083496, -0.16391724348068237, -0.18316924571990967, 0.17910456657409668, -0.181452214717865, -0.1939002275466919, 0.05270963907241821, -0.10557115077972412, -0.08174729347229004, -0.3307775855064392, 0.011637568473815918, -0.15857726335525513, 0.4650452733039856, -0.08588266372680664, 0.22939461469650269, 0.498870849609375, -0.2998555302619934, 0.24565988779067993, -0.14738589525222778, 0.404072642326355, 0.4709717631340027, -0.40803098678588867, -0.27355319261550903, -0.03760308027267456, 0.25889337062835693, -0.41604065895080566, 0.18351328372955322, 0.2673678398132324, -0.029012620449066162, -0.010417759418487549, 0.4317988157272339, -0.37165480852127075, 0.4098290205001831, -0.29158663749694824, 0.05989360809326172, -0.2894379496574402, 0.37492161989212036, 0.10580110549926758, -0.46979814767837524, -0.0034000277519226074, -0.3998684287071228, 0.31341826915740967, -0.3350175619125366, 0.25577378273010254, 0.174122154712677, 0.48155784606933594, -0.21447348594665527, 0.1525418758392334, 0.08914250135421753, -0.25986140966415405, -0.4954436421394348, -0.09292483329772949, 0.448383629322052, 0.37582600116729736, 0.1754787564277649, -0.3451240658760071, -0.18654471635818481, -0.2325286865234375, 0.1779727339744568, -0.12849748134613037, 0.2777710556983948, -0.4115293622016907, -0.1179807186126709, -0.4418872594833374, -0.21038693189620972, -0.2864360213279724, 0.07273894548416138, 0.21771115064620972, -0.05972689390182495, 0.01108551025390625, -0.43373531103134155, -0.4442330002784729, -0.09001141786575317, 0.018680155277252197, 0.19559305906295776, -0.22891706228256226, -0.10396009683609009, -0.05921202898025513, 0.362080454826355, 0.1915859580039978], [0.21097975969314575, -0.3397626280784607, 0.2574131488800049, -0.1886047124862671, 0.24367165565490723, -0.244509756565094, 0.21081691980361938, 0.14292019605636597, 0.007106184959411621, 0.04521942138671875, -0.04865008592605591, 0.420312762260437, -0.3528008460998535, 0.4588056802749634, -0.08406847715377808, 0.12224745750427246, 0.04657691717147827, 0.4576285481452942, -0.3719472289085388, -0.3648468255996704, -0.12088185548782349, 0.4839954376220703, 0.10283899307250977, 0.35148608684539795, 0.09376531839370728, 0.4499467611312866, 0.4399617314338684, -0.4385690689086914, -0.375008225440979, -0.3942630887031555, 0.1449122428894043, 0.05635631084442139, -0.08711117506027222, -0.10202008485794067, -0.022938668727874756, -0.014339148998260498, -0.0013331770896911621, 0.21468037366867065, 0.18462210893630981, -0.24860292673110962, -0.34987717866897583, -0.16180825233459473, 0.3448728322982788, 0.19369900226593018, -0.4345424175262451, 0.39673304557800293, 0.0037807226181030273, 0.1323246955871582, 0.4761356711387634, -0.007866740226745605, -0.11734622716903687, -0.4967668652534485, 0.4301230311393738, 0.42579740285873413, -0.10966843366622925, -0.39068400859832764, 0.20149695873260498, 0.08366721868515015, -0.19227010011672974, -0.13336032629013062, 0.00781935453414917, -0.38680213689804077, 0.11035311222076416, 0.16204756498336792, 0.04790621995925903, -0.08871644735336304, -0.23814696073532104, 0.3526592254638672, 0.2658420205116272, -0.0034296512603759766, 0.31392133235931396, 0.44181209802627563, -0.4250475764274597, -0.3080092668533325, -0.44869762659072876, 0.3067634105682373, 0.4940894842147827, 0.2967580556869507, -0.05738347768783569, -0.007921576499938965, -0.34436357021331787, 0.4207298755645752, -0.3700253367424011, 0.18694853782653809, 0.4160653352737427, -0.43265020847320557, -0.383508563041687, -0.43919825553894043, 0.03780442476272583, -0.48193246126174927, -0.06737995147705078, 0.4278971552848816, -0.005274593830108643, -0.19841843843460083, -0.23215734958648682, -0.320881187915802, -0.2566700577735901, -0.4318937659263611, -0.4647722840309143, 0.2344881296157837, 0.38074159622192383, 0.37674587965011597, -0.432494580745697, -0.24290788173675537, -0.3092266917228699, -0.1542838215827942, -0.4874263405799866, -0.48703229427337646, -0.44179385900497437, 0.18513882160186768, -0.452239990234375, 0.28416454792022705, -0.4370582103729248, -0.2979479432106018, -0.020097851753234863, 0.4594980478286743, -0.229805588722229, 0.17251169681549072, 0.4442329406738281, 0.23946291208267212, 0.22720539569854736, -0.25410449504852295, 0.10383588075637817, 0.4498765468597412, 0.09742867946624756, -0.002364933490753174, 0.21824651956558228, -0.3319466710090637], [-0.20148801803588867, -0.3881834149360657, 0.08482521772384644, -0.18242394924163818, -0.4643898606300354, 0.252305805683136, -0.19035398960113525, -0.4346845746040344, -0.2786697745323181, -0.3238113522529602, 0.3641393184661865, -0.4993392825126648, 0.019993841648101807, -0.22644281387329102, -0.19508129358291626, 0.05836302042007446, 0.15209299325942993, -0.3477326035499573, 0.3055669665336609, -0.06348860263824463, -0.34283196926116943, -0.2590738534927368, -0.2715988755226135, -0.10878539085388184, -0.01459115743637085, -0.2750852108001709, 0.012980401515960693, -0.3549646735191345, -0.35938405990600586, -0.27549999952316284, -0.23119395971298218, 0.31704336404800415, -0.24259936809539795, 0.17522042989730835, 0.0923507809638977, -0.16427254676818848, 0.08968144655227661, 0.19841033220291138, 0.4654340147972107, 0.4584992527961731, 0.3704928755760193, -0.11546999216079712, 0.22111743688583374, 0.10773211717605591, 0.4904106855392456, 0.12023156881332397, -0.01204138994216919, -0.03254467248916626, 0.3616458773612976, -0.371687114238739, 0.3726784586906433, 0.06372338533401489, -0.2118489146232605, 0.20524126291275024, 0.17466896772384644, -0.3977472186088562, 0.26429319381713867, 0.34447813034057617, 0.18490660190582275, 0.3279505968093872, -0.029734671115875244, 0.40646570920944214, 0.1975201964378357, -0.05083334445953369, -0.24810540676116943, 0.4025711417198181, -0.3081589937210083, -0.46561098098754883, -0.41380828619003296, -0.22670120000839233, 0.07189905643463135, 0.025696098804473877, -0.036739468574523926, -0.15076911449432373, 0.430065393447876, -0.4557020664215088, 0.0866931676864624, -0.21400290727615356, 0.0932801365852356, -0.28946149349212646, 0.23724347352981567, 0.42695313692092896, -0.11198318004608154, 0.32533353567123413, -0.018626868724822998, -0.006972253322601318, 0.3903902769088745, -0.4153442978858948, 0.34155982732772827, -0.17725509405136108, 0.055445075035095215, 0.2670806050300598, 0.4805440306663513, -0.427121639251709, -0.15266722440719604, 0.29935508966445923, -0.3641265630722046, 0.13139104843139648, -0.4903700351715088, -0.06594407558441162, 0.3285219073295593, -0.17219877243041992, 0.37431061267852783, -0.27741920948028564, -0.4258202314376831, 0.02694106101989746, 0.047859787940979004, -0.03256487846374512, -0.07488411664962769, 0.31371331214904785, 0.32727813720703125, -0.4464796781539917, -0.0680127739906311, -0.2426842451095581, -0.4294775128364563, -0.044448256492614746, 0.23882746696472168, -0.020171523094177246, -0.1821855902671814, -0.21358388662338257, 0.48547083139419556, -0.25845426321029663, 0.48232072591781616, -0.4922110438346863, -0.49409663677215576, 0.494903028011322, 0.3174160122871399, -0.4026539921760559], [-0.3766104578971863, 0.006802618503570557, 0.0053640007972717285, -0.1720612645149231, -0.24268847703933716, 0.39756983518600464, 0.3159671425819397, -0.146403968334198, -0.21449953317642212, -0.43469226360321045, 0.27081847190856934, -0.1648373007774353, -0.14793026447296143, 0.09126347303390503, -0.25834012031555176, 0.044931888580322266, 0.023209333419799805, 0.3607262372970581, 0.19204074144363403, -0.11126381158828735, -0.13073474168777466, -0.20333409309387207, 0.32487982511520386, 0.19228971004486084, 0.22135525941848755, 0.4299355745315552, -0.15157806873321533, -0.4843013882637024, 0.1973537802696228, 0.015621066093444824, 0.04325944185256958, -0.2977985739707947, 0.25438743829727173, -0.4806325435638428, -0.34791624546051025, -0.051063477993011475, 0.16739964485168457, 0.09766483306884766, 0.21088379621505737, -0.43875426054000854, 0.4979066252708435, 0.2625577449798584, 0.10066908597946167, -0.19586920738220215, 0.4421156644821167, -0.3070705533027649, 0.3638836145401001, 0.28754478693008423, -0.014417588710784912, 0.058995187282562256, -0.14475595951080322, -0.12259489297866821, 0.051892101764678955, -0.22214031219482422, -0.2893105149269104, 0.08413302898406982, 0.3549342155456543, -0.029309630393981934, 0.13486087322235107, 0.479154109954834, 0.21128088235855103, 0.425437331199646, -0.2969781756401062, 0.3698499798774719, 0.3150625228881836, 0.32540416717529297, -0.39562368392944336, 0.40067774057388306, 0.1863355040550232, 0.3009476065635681, 0.45142608880996704, 0.3576359748840332, 0.21135449409484863, -0.008408904075622559, -0.08408159017562866, -0.3073527216911316, -0.496735155582428, 0.38491904735565186, -0.313101589679718, -0.2051185965538025, 0.060498714447021484, -0.008510947227478027, 0.1401042342185974, -0.11017483472824097, 0.03759145736694336, 0.25108981132507324, -0.41394609212875366, -0.3110986351966858, -0.12776267528533936, 0.41468459367752075, 0.06720972061157227, 0.291634202003479, -0.13860005140304565, 0.0660085678100586, -0.486724317073822, 0.3905928134918213, -0.39972054958343506, 0.058993637561798096, 0.4107300043106079, -0.0901002287864685, -0.13604211807250977, -0.11541301012039185, 0.18460983037948608, 0.04661279916763306, 0.18307411670684814, 0.07021093368530273, 0.4994473457336426, 0.21185100078582764, 0.2352837324142456, -0.10753768682479858, -0.1272369623184204, 0.3015515208244324, -0.0689803957939148, -0.1911107301712036, -0.34460383653640747, -0.13974952697753906, 0.4743625521659851, -0.13117080926895142, 0.2984016537666321, 0.1502004861831665, -0.26474881172180176, 0.4601473808288574, 0.14335834980010986, 0.48478013277053833, 0.42208266258239746, -0.17430847883224487, -0.26559317111968994, -0.37036263942718506], [0.3860235810279846, -0.10504448413848877, -0.4171122908592224, -0.4798194169998169, -0.3608614206314087, 0.47862565517425537, -0.3797597885131836, -0.49548953771591187, 0.021113336086273193, 0.3634818196296692, -0.04216259717941284, 0.3475964069366455, 0.38127267360687256, -0.06380939483642578, -0.019604742527008057, 0.45229220390319824, 0.24996936321258545, -0.36474865674972534, -0.4090178608894348, -0.188099205493927, -0.4877748489379883, -0.11795729398727417, 0.0021957755088806152, 0.3061606287956238, 0.22429323196411133, -0.47680050134658813, 0.33520013093948364, -0.3220252990722656, 0.4514259099960327, -0.005109667778015137, 0.07188737392425537, -0.2574097514152527, 0.4513471722602844, 0.07561320066452026, -0.1343003511428833, 0.2090715765953064, 0.24610251188278198, -0.15738368034362793, 0.19862592220306396, -0.19798308610916138, 0.038684070110321045, 0.18291985988616943, -0.3498046398162842, 0.22860264778137207, 0.20701706409454346, -0.2730668783187866, 0.03540927171707153, 0.34101325273513794, 0.3718559145927429, -0.0336727499961853, -0.18400776386260986, -0.21617960929870605, -0.285533607006073, 0.15675628185272217, 0.4511013627052307, -0.3252047300338745, -0.1668338179588318, -0.4905356764793396, -0.0900193452835083, -0.23206675052642822, 0.1764962077140808, -0.2186909317970276, -0.2747758626937866, -0.27575504779815674, 0.40489721298217773, -0.1341465711593628, -0.25841301679611206, -0.08557999134063721, 0.09415930509567261, -0.25803810358047485, -0.09884041547775269, 0.2415306568145752, 0.23988819122314453, -0.015057086944580078, -0.03391379117965698, -0.10607415437698364, 0.23121213912963867, 0.10657459497451782, -0.18748587369918823, 0.29912179708480835, -0.3597761392593384, 0.4503542184829712, -0.00507742166519165, -0.19044458866119385, 0.18540668487548828, 0.3710479736328125, -0.08986806869506836, 0.31710708141326904, 0.22982650995254517, 0.3351435661315918, -0.3336814045906067, 0.32056665420532227, 0.3295232057571411, 0.0315699577331543, 0.08882647752761841, 0.45389777421951294, 0.3299376964569092, -0.27943217754364014, -0.12160629034042358, 0.07578611373901367, -0.27961134910583496, 0.38773268461227417, -0.15833789110183716, -0.11675125360488892, -0.4585421681404114, 0.37393224239349365, -0.37357741594314575, 0.30687379837036133, -0.16916358470916748, 0.062954843044281, 0.10003495216369629, -0.23233544826507568, -0.4078434109687805, -0.19009876251220703, 0.00360029935836792, -0.4174196124076843, 0.25884050130844116, -0.4235649108886719, -0.17520523071289062, -0.3416496515274048, -0.40523457527160645, 0.4914966821670532, -0.4469088912010193, -0.1364002227783203, 0.2814174294471741, -0.46663081645965576, -0.4196661710739136, -0.32198822498321533], [-0.2633967399597168, -0.23213744163513184, -0.38774925470352173, -0.13156098127365112, 0.4236449599266052, -0.28972405195236206, 0.19427043199539185, 0.4216576814651489, -0.04494059085845947, 0.3084486722946167, -0.43868589401245117, -0.2988036274909973, -0.42481428384780884, -0.25070834159851074, 0.4471580386161804, 0.4165840148925781, 0.20363497734069824, 0.1469230055809021, 0.3855118155479431, -0.35578978061676025, -0.42858725786209106, 0.31069231033325195, 0.012175142765045166, -0.03776359558105469, -0.43857866525650024, -0.2785465121269226, 0.0041751861572265625, 0.13301515579223633, -0.18724167346954346, 0.468755304813385, -0.3700636625289917, -0.2967001795768738, 0.3995888829231262, -0.11586320400238037, 0.34880155324935913, 0.43253612518310547, 0.394107460975647, -0.39987754821777344, -0.45782262086868286, -0.08050745725631714, 0.05931752920150757, 0.4452866315841675, 0.24474996328353882, -0.17955780029296875, 0.17580735683441162, -0.38350778818130493, 0.23380517959594727, 0.3740803003311157, 0.2838360667228699, 0.029728353023529053, 0.2809754014015198, 0.29030388593673706, 0.49611639976501465, 0.07907676696777344, -0.013352513313293457, -0.3504003882408142, 0.3175113797187805, -0.05272334814071655, 0.3114188313484192, -0.4136391282081604, -0.16351240873336792, -0.20864838361740112, 0.10576522350311279, 0.007905066013336182, -0.25614219903945923, 0.22207152843475342, -0.1680610179901123, 0.10016381740570068, -0.3584403395652771, -0.30655986070632935, -0.2541053295135498, -0.34920352697372437, -0.1799944043159485, 0.1967325210571289, -0.014310479164123535, -0.28806817531585693, -0.29961591958999634, 0.20266491174697876, -0.16690605878829956, -0.2656177878379822, 0.08399474620819092, -0.4217863082885742, -0.4681217074394226, -0.3486722707748413, 0.2940303087234497, 0.19796830415725708, 0.10052371025085449, -0.34398019313812256, -0.24198389053344727, 0.022358238697052002, 0.20107126235961914, 0.49306756258010864, -0.3528509736061096, 0.019108593463897705, 0.4477307200431824, -0.3343707323074341, 0.37913888692855835, 0.45806050300598145, 0.1634318232536316, 0.2702637314796448, 0.18132662773132324, 0.19532334804534912, 0.0898888111114502, -0.298650860786438, -0.25490695238113403, -0.38852936029434204, -0.3826499581336975, -0.07595312595367432, -0.4837913513183594, 0.08374696969985962, -0.21894747018814087, -0.49720609188079834, -0.4893236756324768, 0.1055644154548645, 0.3920791745185852, -0.4038141965866089, 0.40929800271987915, 0.42622315883636475, 0.28096914291381836, 0.2134164571762085, -0.11034268140792847, 0.35002726316452026, 0.13618290424346924, 0.03188735246658325, 0.2270328402519226, 0.024627864360809326, 0.14245980978012085, 0.04989016056060791], [-0.46068650484085083, -0.32806462049484253, -0.11778569221496582, 0.22209900617599487, 0.24280059337615967, -0.13987064361572266, 0.46295034885406494, -0.42788249254226685, -0.02453690767288208, -0.13508033752441406, 0.02682781219482422, 0.1266079545021057, 0.023932814598083496, 0.46538740396499634, -0.020229697227478027, -0.10740423202514648, 0.29993975162506104, 0.3408387303352356, 0.05121791362762451, 0.029851555824279785, 0.47927093505859375, 0.2649223804473877, 0.039394497871398926, -0.13197070360183716, -0.26824772357940674, -0.47977566719055176, 0.1535009741783142, -0.19201815128326416, 0.3455393314361572, 0.3901185393333435, 0.0875931978225708, -0.12462633848190308, 0.4691741466522217, 0.16077888011932373, 0.3793063759803772, -0.32498252391815186, -0.4547584056854248, -0.3929957151412964, -0.057560741901397705, -0.3672516345977783, 0.13777881860733032, 0.3027452826499939, -0.09283983707427979, 0.21716225147247314, -0.37968742847442627, 0.015726983547210693, -0.35950809717178345, 0.0616268515586853, 0.2984156608581543, -0.0569075345993042, -0.15073633193969727, 0.2956376075744629, -0.3868370056152344, -0.09696048498153687, -0.4959498643875122, 0.12229329347610474, 0.20471924543380737, -0.09695857763290405, 0.26274996995925903, -0.24402838945388794, 0.22438722848892212, -0.3395807147026062, 0.3030441403388977, -0.3219110369682312, 0.22387468814849854, -0.40326350927352905, 0.4954068660736084, 0.10480368137359619, 0.27651333808898926, 0.46641337871551514, -0.007519662380218506, -0.25950324535369873, 0.06638425588607788, 0.19705241918563843, -0.31475991010665894, -0.4115947484970093, 0.36279863119125366, -0.017890095710754395, -0.16265738010406494, -0.060625433921813965, 0.16326850652694702, -0.33705002069473267, -0.2980486750602722, 0.4732198715209961, 0.43238019943237305, 0.17500823736190796, -0.055522382259368896, -0.07132762670516968, -0.4418162703514099, 0.23336368799209595, -0.2211923599243164, -0.19922465085983276, 0.07036525011062622, 0.4206462502479553, 0.011261343955993652, 0.4928863048553467, -0.1520419716835022, 0.2351551651954651, -0.28258073329925537, 0.27775031328201294, -0.2851724624633789, 0.2636011838912964, 0.334688663482666, -0.4920538663864136, 0.20249569416046143, -0.27915990352630615, 0.09376800060272217, 0.13904011249542236, 0.2873225212097168, 0.44044923782348633, -0.4232543706893921, -0.07547736167907715, 0.09753984212875366, -0.2498125433921814, -0.38563525676727295, -0.467909574508667, 0.32587987184524536, -0.038331031799316406, 0.46927326917648315, -0.23780417442321777, 0.2537153959274292, -0.2898387312889099, -0.2071819305419922, -0.04972982406616211, 0.1408962607383728, -0.3391256332397461, -0.3474726676940918, 0.06447476148605347], [0.2263447642326355, 0.2512122392654419, -0.38665199279785156, 0.25110888481140137, 0.3958977460861206, -0.21010476350784302, 0.45312362909317017, -0.47727125883102417, 0.42717695236206055, -0.38327550888061523, 0.4752517342567444, 0.112468421459198, -0.3310324549674988, 0.005164921283721924, -0.4141705632209778, -0.10084128379821777, 0.3168010115623474, -0.22663819789886475, 0.4790886640548706, 0.09434664249420166, 0.3081417679786682, -0.0937609076499939, 0.24780529737472534, -0.33571070432662964, 0.4063084125518799, -0.39489442110061646, -0.31376731395721436, -0.2648654580116272, 0.11112254858016968, -0.20862162113189697, 0.4747329354286194, -0.33826255798339844, -0.22059941291809082, 0.3654351830482483, -0.13439303636550903, 0.4683159589767456, 0.35303980112075806, 0.23199641704559326, -0.02890855073928833, -0.2483622431755066, 0.012270510196685791, -0.23114854097366333, 0.23486590385437012, -0.04679614305496216, -0.18833673000335693, -0.12784868478775024, 0.4893243908882141, 0.38553231954574585, 0.05967479944229126, -0.4216591715812683, 0.35104870796203613, -0.4593435525894165, 0.08379775285720825, 0.18102902173995972, -0.15089142322540283, 0.15568262338638306, 0.16653728485107422, 0.11023873090744019, -0.08372122049331665, -0.14320474863052368, 0.04460155963897705, 0.4186477065086365, -0.4550231099128723, 0.04056572914123535, 0.010549426078796387, -0.33126020431518555, 0.21008801460266113, 0.15429365634918213, 0.0053490400314331055, 0.24493718147277832, -0.3986867070198059, 0.039707958698272705, 0.14864617586135864, -0.16143900156021118, -0.1205400824546814, -0.060369908809661865, 0.16120177507400513, -0.07800924777984619, 0.29423779249191284, -0.22417736053466797, 0.32655858993530273, 0.4545595645904541, 0.018272042274475098, -0.27250558137893677, -0.366563081741333, 0.2164250612258911, 0.058126866817474365, 0.004416048526763916, -0.3486946225166321, 0.19518381357192993, -0.2613382339477539, -0.4797271490097046, -0.31416475772857666, -0.013972342014312744, -0.26243162155151367, 0.20254218578338623, 0.45014989376068115, 0.4610276222229004, 0.44379889965057373, -0.3943949341773987, -0.4612732529640198, -0.07937568426132202, -0.017104923725128174, -0.36963093280792236, -0.4465811848640442, -0.45586174726486206, -0.43778669834136963, -0.43279123306274414, 0.18560129404067993, 0.34491604566574097, 0.23945140838623047, 0.3734508156776428, -0.42125844955444336, -0.46025168895721436, 0.03067910671234131, -0.3129163980484009, 0.3276057839393616, 0.29807329177856445, 0.3704455494880676, -0.10613059997558594, 0.05139237642288208, -0.17219722270965576, -0.18810313940048218, -0.31862741708755493, 0.17944437265396118, 0.27356094121932983, -0.20039880275726318, -0.41287755966186523], [0.23266631364822388, -0.0026332736015319824, -0.4711803197860718, -0.03104102611541748, 0.4303660988807678, 0.49384331703186035, 0.05602449178695679, -0.29594260454177856, -0.07046067714691162, -0.04508548974990845, 0.2518627643585205, -0.3829911947250366, 0.47435885667800903, -0.1115344762802124, -0.3175731301307678, 0.2718265652656555, -0.2787945866584778, 0.39670997858047485, -0.3914158344268799, 0.2967337965965271, 0.4259180426597595, 0.38729214668273926, 0.09125471115112305, -0.01116180419921875, -0.366826593875885, -0.11337494850158691, -0.018186211585998535, 0.16158223152160645, -0.3098371624946594, 0.026392102241516113, 0.4959239959716797, 0.4679844379425049, 0.250546932220459, 0.39264386892318726, 0.3386821746826172, 0.20013463497161865, 0.13800758123397827, -0.47757232189178467, -0.4216020107269287, -0.0020263195037841797, 0.452650785446167, -0.06076282262802124, 0.212532639503479, 0.2915791869163513, 0.4395575523376465, -0.2521638870239258, 0.024945378303527832, 0.009021937847137451, 0.14954864978790283, 0.03255593776702881, -0.37063825130462646, -0.07337164878845215, -0.24815517663955688, 0.38659679889678955, 0.2566681504249573, 0.10105472803115845, -0.28446704149246216, 0.0030999183654785156, 0.4023092985153198, -0.0877874493598938, -0.49124687910079956, 0.2617943286895752, 0.05711942911148071, 0.10776007175445557, 0.35881125926971436, 0.07695293426513672, -0.0494384765625, 0.4227370023727417, -0.20559585094451904, 0.2409740686416626, -0.2539673447608948, -0.4457470774650574, 0.49483722448349, -0.4206887483596802, -0.09862053394317627, -0.11655151844024658, -0.18589574098587036, 0.02425217628479004, -0.1284225583076477, -0.1079060435295105, 0.3345910906791687, 0.26129859685897827, -0.323850154876709, 0.4347403645515442, 0.23854249715805054, -0.1268322467803955, 0.06979435682296753, 0.16455930471420288, -0.41247183084487915, 0.31493914127349854, -0.08665859699249268, -0.25497907400131226, -0.2559288740158081, 0.4558809995651245, -0.4595683217048645, 0.46160268783569336, -0.3766959309577942, -0.11190694570541382, -0.07841026782989502, 0.3900710344314575, -0.14566057920455933, 0.08724957704544067, -0.2315794825553894, -0.4734870195388794, -0.4301372170448303, 0.4849170446395874, -0.34217894077301025, 0.4282037019729614, 0.007954061031341553, 0.3376612067222595, 0.4626474380493164, 0.3670199513435364, -0.09842592477798462, 0.22623223066329956, 0.02303856611251831, -0.27999478578567505, -0.4259074330329895, -0.4273071885108948, -0.2948552966117859, 0.3322315216064453, -0.0413205623626709, 0.1029919981956482, 0.131403386592865, 0.39967209100723267, -0.16722363233566284, 0.2460716962814331, 0.4526383876800537, 0.39806467294692993], [-0.12949293851852417, 0.22984784841537476, 0.16044217348098755, -0.0614284873008728, -0.09385275840759277, 0.25530850887298584, 0.20672428607940674, -0.0717058777809143, -0.21605008840560913, -0.32647836208343506, -0.3248341679573059, -0.26875096559524536, -0.19150453805923462, -0.29467499256134033, -0.40066689252853394, 0.20468449592590332, 0.25036442279815674, -0.00701904296875, -0.016332805156707764, 0.436363160610199, -0.2596493363380432, 0.3729453682899475, 0.019226133823394775, 0.30417031049728394, -0.16323596239089966, -0.22879654169082642, 0.013501882553100586, -0.2795065641403198, -0.27291393280029297, 0.44174015522003174, -0.4954533576965332, 0.36585360765457153, 0.39113086462020874, 0.2666208744049072, 0.3458753824234009, 0.05559825897216797, -0.038541972637176514, -0.24506717920303345, 0.11978679895401001, -0.3708941340446472, -0.25920557975769043, 0.17397427558898926, -0.020193874835968018, -0.2235061526298523, -0.1095273494720459, -0.13744521141052246, 0.37367933988571167, -0.19788521528244019, -0.06873339414596558, -0.2812073826789856, -0.1441209316253662, -0.2703862190246582, 0.4426565170288086, 0.06635481119155884, 0.010741233825683594, -0.4936431050300598, 0.46715211868286133, -0.33154356479644775, -0.16872882843017578, -0.39923107624053955, -0.26830506324768066, -0.3177890181541443, -0.218417227268219, 0.2633477449417114, -0.1230352520942688, 0.2050449252128601, 0.182015061378479, 0.30092984437942505, -0.015185296535491943, 0.07951778173446655, 0.24070805311203003, 0.09560877084732056, -0.25840646028518677, -0.22870749235153198, 0.2783074975013733, 0.05107837915420532, 0.17403268814086914, 0.27800875902175903, -0.07328730821609497, 0.36106252670288086, -0.0964745283126831, -0.44247931241989136, 0.044445157051086426, -0.00026047229766845703, 0.20297199487686157, -0.16828036308288574, 0.3117566704750061, -0.009929239749908447, -0.4075523614883423, -0.3465893864631653, 0.34481972455978394, -0.13164079189300537, 0.4310484528541565, -0.1512243151664734, -0.21091967821121216, -0.23782914876937866, -0.4233902096748352, 0.2699151039123535, -0.4346720576286316, 0.02434086799621582, -0.07117205858230591, -0.4437735676765442, 0.49743491411209106, -0.30341464281082153, 0.1320696473121643, 0.4902321696281433, 0.35314667224884033, -0.1803569793701172, 0.3044900894165039, -0.4868331551551819, -0.3523445725440979, 0.11105817556381226, 0.3265116810798645, 0.06788402795791626, -0.393246054649353, 0.33462631702423096, -0.1459391713142395, 0.45848435163497925, -0.3035241961479187, -0.2934700846672058, 0.22215157747268677, 0.34685027599334717, -0.3681681156158447, -0.2200515866279602, -0.26311784982681274, 0.37069326639175415, 0.1546136736869812, 0.4398948550224304]], "hidden_weights": [[0.1440739631652832, -0.06573474407196045, 0.12268209457397461, 0.024271368980407715, -0.19886445999145508, 0.24627292156219482, 0.05229896306991577, -0.44625890254974365, -0.037880539894104004, 0.4505589008331299, 0.2331254482269287, 0.18578755855560303, -0.0522039532661438, 0.4949358105659485, -0.01804792881011963, 0.13645613193511963, -0.2279578447341919, 0.3619093894958496, -0.4034990668296814, 0.13101929426193237, 0.3742685317993164, -0.3674314618110657, 0.13872265815734863, -0.4249441623687744, 0.29589223861694336, -0.40057384967803955, 0.24882662296295166, -0.19961196184158325, 0.13996487855911255, -0.21034491062164307, 0.19749224185943604, -0.07676160335540771, -0.045852482318878174, -0.17505943775177002, 0.34795039892196655, -0.19481217861175537, 0.42725586891174316, 0.2619354724884033, -0.21557724475860596, 0.08584457635879517, 0.1269134283065796, 0.10038304328918457, -0.10451442003250122, -0.0861426591873169, 0.31921273469924927, 0.13833779096603394, 0.1286572813987732, 0.30687814950942993, 0.3453819155693054, -0.02140599489212036, 0.13710814714431763, 0.4080353379249573, 0.1068497896194458, 0.32999294996261597, -0.18562304973602295, -0.058956682682037354, -0.3920744061470032, 0.0483279824256897, -0.21835875511169434, 0.3995782732963562, -0.4611435532569885, 0.44840294122695923, -0.21065151691436768, 0.23737281560897827], [0.30550116300582886, 0.4038500189781189, 0.12252539396286011, -0.09249937534332275, 0.11578506231307983, -0.189569354057312, -0.34224027395248413, -0.07801264524459839, -0.2198660969734192, 0.13931697607040405, 0.1645243763923645, -0.22847795486450195, -0.3945770263671875, -0.34354084730148315, -0.22535210847854614, -0.4833080768585205, -0.4565669894218445, 0.003536999225616455, 0.14364874362945557, 0.4797026515007019, 0.14447695016860962, -0.116752028465271, -0.08476501703262329, 0.012321710586547852, -0.3094387650489807, -0.26669418811798096, -0.14651840925216675, -0.12865936756134033, -0.19547557830810547, -0.04289454221725464, 0.04062265157699585, -0.3020581007003784, -0.36978769302368164, 0.22285252809524536, 0.2538038492202759, -0.1925208568572998, 0.4343526363372803, 0.4979889988899231, 0.40351778268814087, 0.49698853492736816, 0.09738314151763916, 0.08474630117416382, -0.09703880548477173, 0.041274964809417725, 0.13494402170181274, -0.3282107710838318, -0.22322410345077515, -0.24991244077682495, -0.053765714168548584, -0.27622711658477783, -0.18965911865234375, -0.4480733275413513, -0.41829681396484375, -0.1476331353187561, 0.008907914161682129, -0.3756251335144043, -0.39347684383392334, 0.27462100982666016, 0.09373337030410767, -0.07083851099014282, 0.1420750617980957, -0.33320921659469604, -0.48392361402511597, 0.4852212071418762], [-0.4160240888595581, 0.38499438762664795, 0.3204619288444519, 0.318805456161499, -0.4560396671295166, 0.0012457966804504395, 0.14944100379943848, 0.3836989998817444, -0.11339229345321655, 0.24964755773544312, 0.13786786794662476, -0.43915170431137085, -0.4913747310638428, -0.16613376140594482, 0.3655849099159241, -0.232649028301239, -0.34800904989242554, 0.21671539545059204, -0.042067110538482666, 0.2065114974975586, -0.45575928688049316, 0.13588982820510864, 0.07552433013916016, -0.34945791959762573, 0.44795334339141846, -0.3823509216308594, -0.30969327688217163, 0.4085966944694519, -0.46979790925979614, 0.11017829179763794, 0.47860509157180786, -0.49629414081573486, -0.04913371801376343, 0.0546451210975647, 0.44791048765182495, -0.4777645468711853, 0.05439358949661255, -0.05192166566848755, 0.29381418228149414, -0.24511784315109253, -0.3533366322517395, -0.0214652419090271, 0.25350773334503174, 0.03840780258178711, -0.4253495931625366, -0.08910059928894043, 0.3874063491821289, 0.3415038585662842, 0.11764311790466309, -0.24909967184066772, -0.3731192946434021, -0.3102991580963135, 0.23877620697021484, 0.49656152725219727, -0.1321415901184082, 0.16992437839508057, 0.3755267262458801, -0.29928964376449585, -0.3493686318397522, -0.13179153203964233, -0.2858882546424866, -0.3880881071090698, -0.2923286557197571, -0.4677935242652893], [0.43478721380233765, 0.37464916706085205, 0.45610493421554565, 0.036386311054229736, 0.2013798952102661, 0.2478020191192627, 0.37813353538513184, 0.2088339924812317, 0.1915982961654663, -0.01795405149459839, 0.36429160833358765, -0.15093719959259033, 0.2927374243736267, 0.27241605520248413, 0.4039819836616516, -0.09068918228149414, -0.3185628056526184, -0.08266794681549072, 0.2608405351638794, 0.43729519844055176, -0.3597449064254761, 0.4955623745918274, 0.20022791624069214, -0.21700429916381836, 0.298794686794281, 0.4626450538635254, 0.09599125385284424, -0.36063152551651, -0.49024325609207153, -0.15266966819763184, 0.16981971263885498, 0.3704172968864441, 0.41617393493652344, 0.21685290336608887, -0.4859750270843506, 0.49610960483551025, -0.22852909564971924, -0.11006426811218262, 0.028923332691192627, 0.4762112498283386, -0.31728482246398926, -0.10773730278015137, -0.40120476484298706, 0.3398633599281311, -0.45160776376724243, 0.2269742488861084, 0.18276792764663696, -0.30044025182724, 0.34816527366638184, -0.4949082136154175, -0.09382885694503784, -0.054369449615478516, 0.38211387395858765, -0.07982313632965088, 0.2408725619316101, -0.11968624591827393, -0.038436830043792725, 0.23292779922485352, 0.4910907745361328, 0.048904359340667725, -0.2382250428199768, 0.46225351095199585, -0.03391540050506592, 0.20596528053283691], [0.050758957862854004, -0.17230641841888428, -0.45800089836120605, 0.4397679567337036, -0.23670321702957153, 0.04086446762084961, 0.016152560710906982, -0.1882561445236206, 0.35728883743286133, -0.013113617897033691, 0.014549732208251953, -0.23269373178482056, -0.3925591707229614, -0.22223323583602905, -0.45709359645843506, 0.40923333168029785, -0.28420305252075195, -0.47279828786849976, -0.2007865309715271, -0.19460076093673706, -0.46421390771865845, 0.18127727508544922, 0.3304789662361145, -0.020267605781555176, -0.25628662109375, 0.2563999891281128, -0.47748273611068726, -0.3351028561592102, -0.4288390278816223, -0.23815929889678955, -0.09965324401855469, 0.029297351837158203, 0.39634639024734497, 0.4496331214904785, -0.4865792393684387, -0.4645407795906067, -0.4704090356826782, -0.4070884585380554, -0.2590027451515198, 0.12022745609283447, -0.45284008979797363, 0.1722184419631958, 0.31433337926864624, -0.46972930431365967, -0.17602252960205078, -0.4302688241004944, 0.4205741882324219, 0.05063784122467041, -0.18807142972946167, 0.18497252464294434, -0.4682794213294983, 0.07247138023376465, -0.2646137475967407, 0.19239765405654907, -0.23670226335525513, 0.3167518973350525, 0.15385472774505615, 0.27599644660949707, -0.49041712284088135, -0.3856847882270813, -0.46374815702438354, 0.20217055082321167, -0.1808621883392334, 0.059773802757263184], [0.14334845542907715, -0.4302751421928406, 0.17718613147735596, 0.19324195384979248, -0.3909996747970581, 0.1377597451210022, 0.10996270179748535, -0.28140079975128174, -0.41751718521118164, 0.23189067840576172, -0.25745677947998047, -0.26517075300216675, -0.4698942303657532, -0.3968575596809387, 0.06820535659790039, -0.49696844816207886, -0.18636155128479004, 0.4674542546272278, 0.34217333793640137, 0.38914602994918823, 0.34112101793289185, 0.40690314769744873, 0.3330729603767395, -0.28731703758239746, -0.4943011403083801, -0.2534853219985962, -0.3436616063117981, -0.37155288457870483, 0.03374123573303223, -0.26526761054992676, -0.17417055368423462, -0.37289297580718994, -0.2565731406211853, -0.39477676153182983, 0.4644971489906311, 0.33428406715393066, 0.447809636592865, 0.2937653064727783, 0.375812828540802, 0.09885060787200928, 0.44235676527023315, 0.4316049814224243, -0.05633699893951416, 0.40521693229675293, -0.3120385408401489, 0.17447620630264282, -0.42926639318466187, 0.18772244453430176, 0.20701998472213745, 0.1337258219718933, -0.2142481803894043, 0.10745137929916382, -0.35999345779418945, 0.1143600344657898, -0.11063110828399658, 0.1007070541381836, 0.4561017155647278, -0.040604472160339355, -0.3077002763748169, -0.19502592086791992, 0.37545245885849, -0.42519819736480713, 0.12178754806518555, -0.4270036220550537], [0.25307905673980713, -0.37229400873184204, 0.46166831254959106, 0.07426345348358154, 0.3010043501853943, 0.1707373857498169, -0.21230626106262207, 0.4597752094268799, -0.05943673849105835, -0.19086098670959473, -0.021418333053588867, 0.45668649673461914, -0.08727049827575684, -0.1910281777381897, -0.09305834770202637, 0.3697092533111572, -0.08788073062896729, -0.2922545075416565, 0.35708731412887573, -0.27098309993743896, 0.07491046190261841, -0.4902767539024353, 0.45780324935913086, -0.2161385416984558, 0.41351163387298584, 0.3273220658302307, 0.45132362842559814, 0.23107343912124634, -0.20267438888549805, 0.07020682096481323, -0.21564745903015137, -0.2576989531517029, -0.032939791679382324, 0.4544774889945984, -0.11051595211029053, -0.2793983817100525, 0.27051639556884766, 0.24075555801391602, 0.09668481349945068, -0.012879669666290283, 0.35445404052734375, -0.13505786657333374, -0.2901872992515564, -0.48134613037109375, -0.4002566933631897, -0.06426507234573364, -0.25784581899642944, 0.06667309999465942, -0.4426518678665161, -0.04790174961090088, 0.20971566438674927, 0.10129201412200928, 0.14277398586273193, 0.38116276264190674, 0.16433370113372803, -0.24613630771636963, 0.15274518728256226, 0.44135767221450806, -0.48250579833984375, -0.44271963834762573, 0.038846731185913086, -0.4762292504310608, -0.4423331022262573, 0.15740126371383667], [0.2696729302406311, 0.4043891429901123, -0.18008148670196533, -0.4071913957595825, -0.13273745775222778, -0.2905603051185608, 0.04454261064529419, 0.24178814888000488, 0.4898841977119446, -0.3861203193664551, 0.04505300521850586, 0.21376729011535645, -0.1714739203453064, 0.029635846614837646, -0.37205415964126587, 0.08135837316513062, -0.4139636754989624, 0.08612662553787231, -0.2787591218948364, 0.01669490337371826, 0.3918556571006775, -0.018807828426361084, 0.03108280897140503, -0.3805351257324219, -0.2978518009185791, 0.07456296682357788, -0.3994467258453369, 0.4762759208679199, 0.042532265186309814, -0.3742804527282715, 0.07939720153808594, -0.2612364888191223, 0.053727805614471436, 0.3291405439376831, 0.10144096612930298, -0.19819188117980957, -0.48794782161712646, 0.10682588815689087, 0.028949081897735596, 0.32133162021636963, -0.11493974924087524, 0.08555316925048828, -0.33384495973587036, -0.04828441143035889, 0.007419168949127197, 0.2816530466079712, 0.09800750017166138, -0.23998993635177612, -0.31128382682800293, 0.08075040578842163, -0.20282042026519775, 0.10893994569778442, -0.37924259901046753, 0.459261417388916, -0.10200947523117065, 0.284909188747406, 0.19683116674423218, 0.4042959213256836, 0.4543272852897644, 0.2013552188873291, 0.20439976453781128, 0.3384245038032532, -0.11099982261657715, 0.2350650429725647], [-0.2938362956047058, -0.3512234687805176, -0.0893506407737732, -0.10159701108932495, 0.32125651836395264, 0.2633444666862488, -0.022796988487243652, -0.14955246448516846, 0.25635826587677, 0.37892091274261475, -0.33597463369369507, 0.360564649105072, 0.16250109672546387, 0.2852966785430908, 0.22413325309753418, 0.2821817398071289, -0.03614401817321777, -0.44076454639434814, 0.18716400861740112, -0.19957083463668823, -0.20705139636993408, -0.44577598571777344, 0.0835983157157898, -0.13771039247512817, 0.24825739860534668, 0.47193872928619385, -0.23026394844055176, -0.4223267436027527, 0.06765276193618774, 0.4866310954093933, 0.26185643672943115, 0.340088427066803, -0.3394433259963989, 0.031292617321014404, 0.253814160823822, 0.4091625213623047, -0.13527268171310425, 0.28314608335494995, -0.009352684020996094, -0.24663788080215454, 0.0787469744682312, 0.011394023895263672, 0.05873370170593262, -0.05003541707992554, -0.038536667823791504, -0.37133312225341797, 0.19520753622055054, -0.023899972438812256, -0.46505206823349, -0.1721782088279724, -0.35450536012649536, 0.14543378353118896, -0.2102583646774292, -0.3970615267753601, -0.010684609413146973, -0.043988049030303955, -0.21826833486557007, -0.4086942672729492, -0.37050026655197144, -0.48964768648147583, -0.07220172882080078, 0.2476453185081482, 0.06140071153640747, 0.3309773802757263], [0.3516923189163208, -0.47326982021331787, 0.0353701114654541, 0.3634225130081177, -0.2840760350227356, -0.020984768867492676, -0.12195706367492676, -0.32611989974975586, -0.38545840978622437, 0.05172395706176758, 0.08011066913604736, 0.4526333212852478, 0.12185251712799072, -0.09722578525543213, -0.17797130346298218, -0.19277417659759521, -0.03963792324066162, -0.4856436252593994, 0.3923327326774597, -0.3909077048301697, 0.1746862530708313, 0.32320040464401245, -0.24380624294281006, -0.2150617241859436, 0.4398247003555298, -0.27158719301223755, -0.29565614461898804, -0.16481941938400269, 0.16775697469711304, 0.4255944490432739, -0.4778628945350647, 0.1027073860168457, -0.06818634271621704, 0.0299835205078125, 0.1998557448387146, -0.16872066259384155, 0.11263954639434814, 0.41152727603912354, -0.3804159164428711, -0.09828394651412964, 0.422939658164978, 0.30510467290878296, 0.2346758246421814, 0.3572007417678833, 0.4271649718284607, -0.04905301332473755, -0.21876126527786255, 0.016056418418884277, -0.05764693021774292, -0.09066134691238403, -0.19202595949172974, -0.3788081407546997, -0.04448753595352173, 0.22997480630874634, -0.3965502977371216, 0.3124617338180542, 0.357951819896698, 0.46430784463882446, -0.41231322288513184, 0.1889737844467163, 0.3068518042564392, 0.25749796628952026, -0.2893890142440796, -0.4441109895706177], [-0.4421423077583313, -0.2818272113800049, -0.43422967195510864, -0.23672890663146973, 0.20557725429534912, 0.22101753950119019, -0.39781641960144043, 0.37223494052886963, 0.09039866924285889, 0.3976532220840454, 0.354361891746521, 0.22638481855392456, -0.09845757484436035, 0.07869261503219604, 0.114132821559906, -0.0891534686088562, -0.3037256598472595, 0.4974971413612366, 0.2494480013847351, 0.0729941725730896, 0.13710784912109375, 0.0045465826988220215, 0.4687129259109497, 0.14730364084243774, -0.13722151517868042, 0.3388528823852539, -0.20544064044952393, 0.48328709602355957, -0.02047330141067505, 0.051010191440582275, 0.17346173524856567, 0.2632296681404114, -0.2650962471961975, 0.4211428165435791, 0.21681976318359375, -0.40021252632141113, 0.37735188007354736, -0.30066943168640137, -0.1477603316307068, -0.1447443962097168, -0.3842153549194336, 0.49084532260894775, 0.16738200187683105, -0.1056181788444519, 0.48206108808517456, -0.28104716539382935, 0.3308219909667969, 0.19232559204101562, -0.4980015754699707, -0.2183714509010315, 0.23339998722076416, -0.17457044124603271, 0.030559122562408447, 0.4970051646232605, -0.12992465496063232, 0.1240537166595459, 0.4215008020401001, 0.20297342538833618, 0.01592552661895752, 0.32052505016326904, -0.15577685832977295, 0.3541877865791321, 0.26000213623046875, 0.28778141736984253], [-0.13048315048217773, 0.044949471950531006, 0.4401814341545105, 0.35110294818878174, 0.06645143032073975, 0.2199162244796753, 0.09375011920928955, 0.3103752136230469, 0.03557276725769043, -0.07017290592193604, -0.11898458003997803, -0.381985604763031, 0.011060476303100586, 0.40833836793899536, -0.2579461336135864, -0.2851297855377197, 0.291299045085907, 0.1591852307319641, -0.3492346405982971, 0.17487430572509766, 0.12054449319839478, 0.22045552730560303, 0.12467527389526367, -0.053015172481536865, 0.43978339433670044, 0.23043227195739746, 0.22880345582962036, 0.4797182083129883, -0.3645942211151123, 0.3568427562713623, 0.09097206592559814, -0.47829508781433105, 0.2801704406738281, -0.3137269616127014, -0.13761663436889648, -0.34543782472610474, 0.02540069818496704, 0.42882418632507324, 0.004654109477996826, 0.3721405267715454, 0.061782896518707275, -0.26967740058898926, 0.2723129987716675, -0.4313894510269165, -0.2608736753463745, 0.03607141971588135, 0.312095582485199, 0.29664838314056396, 0.3562118411064148, 0.13587164878845215, -0.377988338470459, 0.23437315225601196, 0.3886755704879761, -0.031635582447052, -0.31066638231277466, 0.3270583152770996, -0.03267174959182739, 0.10165464878082275, -0.4644342064857483, 0.09450042247772217, -0.3551250696182251, -0.0522991418838501, -0.4486495852470398, -0.4153282046318054], [0.13882869482040405, 0.006669223308563232, -0.40460658073425293, -0.10863810777664185, -0.24979430437088013, -0.49300074577331543, 0.3094683885574341, 0.323483943939209, -0.26577824354171753, 0.2790380120277405, -0.30181580781936646, -0.2436543107032776, 0.16949999332427979, 0.14713847637176514, 0.1629210114479065, 0.410317063331604, -0.2593887448310852, 0.24188250303268433, 0.4401897192001343, -0.2988877296447754, -0.3523719906806946, -0.39260053634643555, 0.15218091011047363, 0.2372668981552124, 0.2802903652191162, -0.005786538124084473, 0.35043787956237793, 0.229683518409729, -0.01169276237487793, -0.12181848287582397, -0.059458136558532715, 0.30742865800857544, 0.19198822975158691, 0.15517204999923706, -0.09096574783325195, 0.4127407670021057, -0.2742915749549866, -0.1524134874343872, 0.05865663290023804, -0.17851948738098145, 0.3214637041091919, 0.029184043407440186, -0.13848239183425903, 0.4205937385559082, 0.009665071964263916, 0.4744342565536499, -0.025993704795837402, -0.015636146068572998, -0.4912722110748291, 0.37266165018081665, -0.15372604131698608, -0.0021486878395080566, -0.37393420934677124, -0.3850589394569397, -0.18235117197036743, -0.31136852502822876, -0.3009384274482727, 0.1272713541984558, -0.16580551862716675, -0.26207953691482544, 0.022755801677703857, -0.01885932683944702, -0.39130455255508423, 0.09219932556152344], [-0.018198013305664062, -0.48824799060821533, 0.16865313053131104, 0.028194904327392578, -0.3389313817024231, 0.13130736351013184, -0.4187037944793701, 0.29055309295654297, -0.40853792428970337, -0.21249920129776, -0.4312535524368286, 0.18463915586471558, -0.29703187942504883, -0.10358273983001709, 0.11934018135070801, -0.07900941371917725, -0.4408976435661316, -0.06535369157791138, 0.28567540645599365, -0.29216468334198, -0.22661882638931274, 0.07950252294540405, 0.2606789469718933, -0.4971432089805603, 0.17978161573410034, 0.2556419372558594, 0.09803706407546997, -0.08111715316772461, -0.24959874153137207, -0.27708566188812256, 0.06780225038528442, 0.45975905656814575, -0.3851444125175476, -0.4269564151763916, -0.4752579927444458, -0.3543311357498169, 0.1307048201560974, -0.11195844411849976, 0.20792168378829956, -0.4965922236442566, 0.10117489099502563, 0.21196895837783813, 0.13105881214141846, 0.32012081146240234, -0.11203271150588989, 0.20942705869674683, -0.11061042547225952, 0.1456194519996643, -0.14396679401397705, -0.10510575771331787, -0.03727024793624878, -0.2101495862007141, 0.3597381114959717, -0.41393035650253296, -0.34636104106903076, 0.1708124279975891, 0.060545921325683594, -0.32718753814697266, 0.3162681460380554, 0.2792620062828064, 0.2696819305419922, 0.39043480157852173, 0.29165881872177124, -0.006544589996337891], [0.0330958366394043, -0.02497243881225586, -0.4321950674057007, -0.4517383575439453, -0.24680501222610474, 0.2886337637901306, -0.45682233572006226, -0.4741842746734619, 0.10695028305053711, 0.339358925819397, 0.2975935935974121, 0.4446699619293213, -0.37831467390060425, -0.27310770750045776, 0.033427417278289795, -0.47228556871414185, -0.044800639152526855, 0.176097571849823, -0.3984886407852173, -0.15700870752334595, -0.21124011278152466, -0.46453583240509033, 0.2322605848312378, -0.22225433588027954, -0.34946727752685547, -0.1679401397705078, -0.08445882797241211, 0.2956657409667969, 0.4198411703109741, 0.21925407648086548, 0.19562780857086182, 0.0333896279335022, -0.06093430519104004, 0.35152316093444824, -0.4118185043334961, -0.07247298955917358, -0.2128584384918213, 0.04914236068725586, 0.29180943965911865, -0.38906222581863403, 0.2732769250869751, 0.33531349897384644, 0.3461288809776306, -0.12096261978149414, 0.30156373977661133, -0.09726792573928833, -0.20604950189590454, -0.023055970668792725, -0.11776292324066162, 0.26109814643859863, 0.06333810091018677, -0.05419880151748657, 0.3023555278778076, 0.03375750780105591, -0.08028173446655273, 0.013538837432861328, 0.17615538835525513, 0.3977113366127014, -0.27366214990615845, 0.16125595569610596, 0.237437903881073, 0.3170643448829651, -0.14855492115020752, -0.4802541732788086], [-0.3097285032272339, -0.2156175971031189, -0.35996049642562866, -0.4527672529220581, 0.25505250692367554, -0.43863028287887573, -0.2544183135032654, -0.09448784589767456, 0.26421940326690674, -0.34145355224609375, 0.4708753824234009, -0.47940295934677124, -0.151963472366333, 0.15819120407104492, 0.39345765113830566, -0.15379470586776733, -0.050989508628845215, -0.3581453561782837, -0.3153119683265686, 0.47555917501449585, -0.32859110832214355, -0.05447310209274292, -0.02099752426147461, -0.045257568359375, -0.3619127869606018, -0.13711470365524292, -0.46484774351119995, -0.48295217752456665, 0.10244959592819214, 0.0912245512008667, -0.20251232385635376, -0.39234787225723267, -0.12426841259002686, -0.06301355361938477, -0.15621411800384521, -0.4746958017349243, -0.14786440134048462, -0.0893024206161499, -0.05311894416809082, -0.4146793484687805, 0.25904959440231323, 0.18799430131912231, -0.47504180669784546, -0.3082837462425232, -0.4574792981147766, -0.3354533910751343, -0.010838925838470459, -0.3954886198043823, -0.12869226932525635, 0.4823646545410156, 0.3095387816429138, 0.27148544788360596, -0.11124128103256226, 0.036715924739837646, 0.4755972623825073, 0.042790770530700684, 0.2899819612503052, -0.10931539535522461, -0.23407965898513794, -0.4610981345176697, 0.2649179697036743, 0.20042181015014648, 0.23630112409591675, 0.2553260326385498], [-0.31266629695892334, 0.1107437014579773, -0.005166828632354736, -0.06683093309402466, -0.4711490869522095, -0.3258312940597534, -0.35527801513671875, -0.022667348384857178, 0.037766993045806885, -0.41552937030792236, 0.4319136142730713, 0.12680643796920776, -0.2599082589149475, 0.046556293964385986, 0.11726969480514526, 0.4629818797111511, 0.35944366455078125, 0.020423710346221924, -0.44009244441986084, 0.40957963466644287, 0.2843593955039978, -0.3716002106666565, 0.361314594745636, 0.24968409538269043, 0.4570438265800476, -0.08359509706497192, 0.054031431674957275, 0.24227237701416016, 0.12801682949066162, 0.1392916440963745, 0.46772074699401855, 0.10296934843063354, 0.12861502170562744, -0.1925709843635559, 0.3489763140678406, -0.10787439346313477, 0.0018907785415649414, 0.41670161485671997, 0.3997613787651062, -0.35059821605682373, 0.2598792314529419, 0.004340648651123047, 0.22593414783477783, -0.4945089817047119, -0.29047471284866333, -0.4419960379600525, 0.3553406596183777, 0.3953257203102112, 0.2427005171775818, -0.16450965404510498, 0.124156653881073, 0.23027700185775757, -0.35956162214279175, -0.21951830387115479, -0.2818518280982971, -0.10474598407745361, 0.41505706310272217, 0.3001258373260498, 0.3732510805130005, -0.48788750171661377, 0.4769904613494873, 0.3437904119491577, -0.23059970140457153, 0.03906106948852539], [0.44677305221557617, -0.3933921456336975, 0.3729129433631897, 0.14698821306228638, -0.05425649881362915, -0.4280295968055725, 0.46299266815185547, 0.08174192905426025, 0.37237370014190674, 0.2503701448440552, -0.29276496171951294, -0.3655664324760437, 0.20151716470718384, -0.17656445503234863, -0.07141709327697754, 0.048354923725128174, -0.26501530408859253, 0.2974599003791809, 0.27664411067962646, -0.380212664604187, 0.4361650347709656, 0.02838766574859619, -0.19464510679244995, -0.28315043449401855, -0.06858611106872559, 0.115847647190094, -0.042065322399139404, 0.485901415348053, -0.1407179832458496, 0.4131320118904114, -0.12108492851257324, -0.06760221719741821, -0.10118937492370605, -0.1888415813446045, -0.1347143054008484, -0.2143372893333435, -0.25606614351272583, 0.1674414873123169, 0.4961816072463989, 0.4862241744995117, 0.22802728414535522, 0.23437398672103882, -0.03357386589050293, 0.21765762567520142, -0.40702545642852783, 0.40944284200668335, 0.3860575556755066, -0.427173912525177, -0.448026180267334, 0.2638919949531555, 0.12940174341201782, 0.47012025117874146, -0.4655027985572815, -0.41588646173477173, -0.21585720777511597, 0.29384100437164307, 0.19841426610946655, -0.21274572610855103, 0.23228693008422852, 0.13041412830352783, 0.3641324043273926, 0.3308461904525757, 0.43886125087738037, -0.02420288324356079], [0.08952164649963379, 0.42148518562316895, 0.3190774917602539, -0.0002703666687011719, -0.2929168939590454, -0.4632399082183838, -0.054820239543914795, -0.1085430383682251, 0.3360064625740051, 0.45803016424179077, 0.09419363737106323, 0.22010701894760132, -0.4171781539916992, 0.29763561487197876, -0.33547037839889526, 0.33081555366516113, 0.11921215057373047, 0.3971036672592163, 0.2799612283706665, -0.2857838273048401, 0.21616506576538086, -0.15761977434158325, 0.15185308456420898, 0.48627203702926636, -0.09360074996948242, -0.18732595443725586, -0.3042495846748352, 0.41372156143188477, -0.06900131702423096, -0.394569456577301, -0.012881278991699219, 0.26198387145996094, 0.47790098190307617, -0.4120425581932068, 0.05069857835769653, 0.16329646110534668, -0.4690447449684143, 0.06650549173355103, -0.09750372171401978, 0.059666454792022705, -0.4881455898284912, 0.10453265905380249, 0.2162972092628479, -0.2843869924545288, -0.13530749082565308, -0.17788249254226685, 0.1996799111366272, -0.4183170795440674, -0.24530941247940063, 0.3085300922393799, -0.2868899703025818, 0.18793922662734985, 0.08130282163619995, 0.1033782958984375, 0.08443957567214966, 0.3983688950538635, -0.05064672231674194, 0.3672568202018738, -0.11874628067016602, -0.06875640153884888, -0.3287612199783325, 0.10381978750228882, 0.20665156841278076, 0.4151380658149719], [-0.2986454367637634, 0.32137352228164673, -0.02636241912841797, 0.48695892095565796, 0.2889295816421509, 0.04471743106842041, 0.04335445165634155, 0.4010406732559204, 0.3461509346961975, 0.42502713203430176, 0.19959843158721924, 0.12360137701034546, -0.084872305393219, -0.10208785533905029, -0.30876070261001587, -0.3789844512939453, 0.3268253803253174, 0.4033498167991638, -0.4543943405151367, 0.0475459098815918, 0.03284865617752075, -0.4351581335067749, 0.30303680896759033, 0.0205191969871521, -0.05963027477264404, -0.28785276412963867, -0.1262502670288086, -0.2882653474807739, 0.16614842414855957, -0.28736644983291626, -0.44747722148895264, -0.21520942449569702, -0.28676557540893555, -0.27867060899734497, -0.1379757523536682, -0.001854240894317627, -0.28210121393203735, -0.007591366767883301, 0.06209731101989746, -0.22538608312606812, -0.1224547028541565, -0.30602097511291504, -0.18011432886123657, 0.49936044216156006, -0.4807189702987671, 0.13065695762634277, -0.3437405228614807, -0.3761211633682251, 0.22779661417007446, 0.3937682509422302, 0.3194301724433899, 0.2580496072769165, 0.25613969564437866, -0.11887258291244507, -0.32129955291748047, 0.4482458233833313, -0.34457075595855713, 0.02722752094268799, -0.07879579067230225, 0.332306444644928, -0.15755420923233032, -0.16138017177581787, -0.11848330497741699, 0.052703261375427246], [0.0728602409362793, -0.38537168502807617, -0.4095403552055359, -0.10715639591217041, 0.41831260919570923, 0.4235353469848633, 0.10369938611984253, 0.31251829862594604, -0.37704163789749146, 0.30264031887054443, 0.04663252830505371, -0.09133589267730713, 0.2104170322418213, -0.31547802686691284, 0.46953684091567993, -0.3290538787841797, 0.10139906406402588, 0.22729426622390747, -0.318397581577301, -0.46991032361984253, -0.06430667638778687, 0.4362790584564209, -0.12261450290679932, 0.3119771480560303, -0.329753041267395, 0.07764369249343872, 0.26395273208618164, 0.22270208597183228, 0.2645290493965149, -0.41653233766555786, -0.1900862455368042, -0.1321987509727478, 0.3802379369735718, 0.1410871148109436, -0.16961568593978882, 0.21680480241775513, -0.1340625286102295, 0.31617122888565063, -0.4828910827636719, 0.10230326652526855, -0.02603280544281006, 0.4663095474243164, -0.4924849271774292, -0.1187812089920044, -0.035864174365997314, -0.09395039081573486, -0.21569091081619263, 0.4133763313293457, -0.4851718544960022, 0.2626264691352844, -0.06111711263656616, 0.12274914979934692, 0.22730493545532227, 0.04518359899520874, 0.10413855314254761, 0.34437137842178345, 0.04113757610321045, 0.11234235763549805, 0.3121386170387268, -0.34319430589675903, 0.05166906118392944, 0.46822625398635864, 0.33715546131134033, 0.1301373839378357], [-0.04276561737060547, -0.26314109563827515, -0.13033592700958252, -0.19586730003356934, 0.1733294129371643, 0.41000497341156006, -0.16160601377487183, 0.3350493907928467, -0.35867494344711304, 0.4522467255592346, 0.2824045419692993, -0.33603596687316895, -0.2718113660812378, 0.4521826505661011, -0.32132744789123535, -0.05315500497817993, 0.4593009352684021, -0.3366180658340454, -0.19269084930419922, 0.48398542404174805, -0.22715866565704346, -0.26619064807891846, 0.14351153373718262, -0.4798967242240906, 0.2616226077079773, 0.2927057147026062, 0.22772443294525146, 0.13550353050231934, -0.4643285870552063, -0.05457562208175659, 0.43150341510772705, -0.42201656103134155, 0.12172168493270874, 0.19201231002807617, 0.4583980441093445, 0.06930822134017944, 0.06763988733291626, 0.14541572332382202, -0.29166531562805176, 0.25908786058425903, -0.11345523595809937, -0.03287416696548462, 0.061160147190093994, -0.4919968843460083, -0.3352653384208679, -0.07125228643417358, 0.07249265909194946, -0.47715359926223755, -0.06531709432601929, 0.3658170700073242, 0.1597195863723755, -0.048992693424224854, -0.19596201181411743, -0.37539833784103394, -0.057125985622406006, -0.19947654008865356, 0.022716164588928223, -0.16705214977264404, 0.040943145751953125, -0.26401638984680176, 0.4074852466583252, 0.246293306350708, 0.10642504692077637, -0.021593332290649414], [-0.011139869689941406, -0.15407347679138184, 0.3207687735557556, 0.23116660118103027, 0.46889668703079224, -0.20828473567962646, -0.08497804403305054, 0.38636261224746704, -0.39797884225845337, -0.10211551189422607, -0.20078623294830322, -0.24213361740112305, 0.05845534801483154, 0.32767975330352783, 0.1665601134300232, 0.05467492341995239, 0.3979281783103943, 0.4723045229911804, -0.4926120638847351, -0.11631762981414795, 0.2852821350097656, -0.08678621053695679, -0.47083044052124023, -0.3181525468826294, 0.022994637489318848, 0.15135806798934937, -0.10962963104248047, 0.17822521924972534, 0.1289120316505432, -0.1174047589302063, 0.063720703125, 0.18601709604263306, 0.053731441497802734, 0.25906115770339966, 0.4756622910499573, 0.21917307376861572, -0.18253326416015625, -0.49821698665618896, 0.11140215396881104, -0.3652759790420532, -0.4096658229827881, 0.06134307384490967, 0.38286733627319336, -0.2121230959892273, 0.047140538692474365, 0.13669955730438232, 0.47989875078201294, -0.3854844570159912, 0.121501624584198, -0.04348093271255493, 0.35427165031433105, 0.4486439824104309, 0.23969519138336182, -0.38391512632369995, 0.18228864669799805, -0.19501733779907227, 0.11253035068511963, 0.23747313022613525, -0.027441740036010742, -0.2125731110572815, 0.2994779944419861, -0.048953354358673096, 0.10200810432434082, 0.46007925271987915], [0.10761237144470215, 0.3320263624191284, 0.24612492322921753, 0.46407878398895264, -0.2847318649291992, -9.906291961669922e-05, -0.24260473251342773, -0.04110825061798096, -0.41648930311203003, 0.08283156156539917, -0.46903514862060547, 0.4920600652694702, 0.08772510290145874, 0.0906292200088501, 0.06670290231704712, 0.4907221794128418, -0.4310604929924011, -0.05504995584487915, -0.17188650369644165, -0.4910890460014343, 0.4486374258995056, 0.48500996828079224, -0.07246142625808716, -0.19585931301116943, 0.032536983489990234, 0.06817638874053955, 0.07604259252548218, -0.2033652663230896, 0.16000884771347046, -0.1398058533668518, 0.1326737403869629, 0.4389244318008423, -0.3116801977157593, 0.25232362747192383, 0.07779884338378906, 0.23909610509872437, -0.3542032241821289, 0.38039374351501465, -0.0464443564414978, 0.27136051654815674, 0.1172056794166565, 0.07636511325836182, -0.22116494178771973, -0.19392168521881104, 0.06575733423233032, 0.38135790824890137, -0.2768263816833496, 0.09223181009292603, 0.4870716333389282, 0.10774028301239014, -0.0939863920211792, 0.43722426891326904, -0.017275869846343994, 0.35282814502716064, 0.1802229881286621, 0.31479644775390625, 0.3970351815223694, -0.16043007373809814, 0.11248666048049927, -0.054955482482910156, 0.34654319286346436, 0.22612369060516357, 0.284116268157959, -0.4657588005065918], [0.4918127655982971, -0.24336904287338257, -0.38252967596054077, 0.3821922540664673, -0.2638063430786133, 0.09831249713897705, -0.160009503364563, 0.47101694345474243, 0.4491006135940552, 0.48021596670150757, -0.35976630449295044, 0.09319442510604858, 0.3749523162841797, 0.09985202550888062, -0.14184874296188354, 0.4326837658882141, 0.3232054114341736, -0.04300510883331299, -0.4641241431236267, -0.17985552549362183, -0.16987919807434082, 0.1962248682975769, 0.03227698802947998, -0.4894407391548157, -0.34280824661254883, -0.23977774381637573, 0.3463893532752991, -0.31081312894821167, 0.26070135831832886, 0.3167240619659424, 0.28162169456481934, -0.1091734766960144, 0.14744442701339722, 0.171417236328125, 0.26599282026290894, -0.05786949396133423, 0.03047919273376465, 0.20844918489456177, -0.49248063564300537, -0.3501712679862976, -0.45327287912368774, 0.27931904792785645, 0.002688169479370117, 0.4098673462867737, 0.2359299659729004, 0.3553544282913208, -0.340188205242157, -0.07570689916610718, -0.49224382638931274, -0.2753732204437256, -0.1553136706352234, 0.4513740539550781, -0.1462094783782959, -0.3554789423942566, 0.3465675711631775, 0.34283125400543213, -0.04021120071411133, -0.08555722236633301, -0.42191195487976074, 0.2093425989151001, 0.2607541084289551, 0.45708054304122925, -0.016178786754608154, 0.2633143663406372], [0.2294483780860901, -0.12897968292236328, 0.34091806411743164, -0.19703412055969238, 0.08001476526260376, 0.11452209949493408, 0.15106844902038574, 0.33657944202423096, 0.27813541889190674, 0.390741765499115, -0.4970749020576477, 0.10693049430847168, -0.16506367921829224, -0.4640691876411438, -0.45503878593444824, 0.3131011724472046, -0.4990127682685852, -0.437896728515625, -0.01671844720840454, -0.20461004972457886, 0.26936620473861694, -0.4383562207221985, 0.16945284605026245, 0.44295835494995117, 0.43572789430618286, 0.41548556089401245, 0.442691445350647, -0.253701388835907, 0.4613286256790161, -0.21125346422195435, 0.19594842195510864, 0.38099849224090576, 0.15467530488967896, 0.4522738456726074, 0.4573807120323181, 0.3069882392883301, -0.424846887588501, 0.2312328815460205, 0.26314878463745117, 0.02693098783493042, -0.20519572496414185, 0.1781003475189209, 0.08461570739746094, 0.053137242794036865, 0.026381075382232666, 0.03049647808074951, -0.37449413537979126, 0.24655210971832275, -0.2701185941696167, 0.11512118577957153, -0.25578540563583374, -0.3087139129638672, -0.033787429332733154, 0.18232792615890503, -0.4227616786956787, -0.13955014944076538, -0.4972725510597229, -0.44739311933517456, -0.42496412992477417, 0.17474061250686646, 0.04701340198516846, -0.2798435091972351, 0.030161023139953613, -0.4286848306655884], [-0.46230900287628174, -0.25638115406036377, -0.22133421897888184, 0.463611364364624, 0.08919966220855713, 0.27185600996017456, 0.21832513809204102, 0.3538430333137512, 0.03617405891418457, 0.09557020664215088, -0.3657192587852478, 0.19594013690948486, 0.11135435104370117, 0.04032248258590698, -0.3592516779899597, -0.45439255237579346, -0.3296051025390625, 0.07432013750076294, -0.3459275960922241, -0.3398975133895874, 0.34136635065078735, -0.22846472263336182, 0.053897321224212646, -0.360423743724823, 0.4953937530517578, -0.12112069129943848, -0.11832064390182495, 0.34935975074768066, -0.14701515436172485, 0.16057389974594116, 0.044659316539764404, -0.2807181477546692, 0.1896672248840332, 0.4097942113876343, -0.4084024429321289, -0.29450464248657227, 0.24074018001556396, 0.33143138885498047, 0.11389011144638062, 0.28453898429870605, 0.3243979811668396, -0.3392796516418457, 0.1254628300666809, 0.23350799083709717, -0.002443253993988037, -0.1173255443572998, -0.21436989307403564, -0.013990461826324463, -0.25280898809432983, 0.21917277574539185, 0.07710814476013184, 0.33985209465026855, -0.46572017669677734, 0.06848198175430298, -0.2554047107696533, 0.2176564335823059, 0.31235891580581665, 0.0838579535484314, -0.22507888078689575, -0.18490362167358398, 0.20325034856796265, -0.06741935014724731, -0.1981884241104126, 0.4343348741531372], [-0.16056114435195923, 0.1970280408859253, 0.3890135884284973, -0.22512900829315186, -0.050361573696136475, -0.11591136455535889, -0.3339043855667114, -0.15862160921096802, -0.15856057405471802, 0.3868942856788635, -0.13225942850112915, 0.46419835090637207, -0.407789409160614, 0.30836057662963867, 0.32196444272994995, 0.15339726209640503, 0.020825743675231934, 0.4066953659057617, 0.3885849118232727, -0.037099480628967285, -0.0513606071472168, 0.0513232946395874, -0.03420603275299072, 0.15916556119918823, -0.312126100063324, -0.4147547483444214, 0.2179175615310669, 0.2125391960144043, 0.04576653242111206, 0.14894312620162964, -0.4695538282394409, 0.20220041275024414, 0.471527636051178, 0.16297918558120728, 0.04273134469985962, 0.4898413419723511, -0.3463067412376404, 0.4250487685203552, 0.17833781242370605, 0.1050456166267395, 0.16868311166763306, -0.11888980865478516, -0.22530537843704224, 0.3305719494819641, -0.042786359786987305, -0.46102404594421387, -0.45572733879089355, -0.25539445877075195, 0.042195141315460205, 0.022432386875152588, -0.4221935272216797, 0.06200575828552246, -0.2776806950569153, 0.03139352798461914, -0.2859051823616028, 0.11850446462631226, -0.2607533931732178, -0.013456344604492188, 0.4018741846084595, -0.3733639121055603, 0.2552366852760315, 0.05870330333709717, 0.41557568311691284, 0.4341331720352173], [-0.12229067087173462, -0.07185125350952148, -0.35618942975997925, 0.3695625066757202, -0.23140686750411987, -0.30714237689971924, 0.11087191104888916, -0.09259945154190063, 0.1267942190170288, 0.35213911533355713, -0.456088662147522, -0.3818821310997009, -0.10673332214355469, -0.040255188941955566, -0.3713129758834839, -0.43885910511016846, -0.12748384475708008, 0.055150389671325684, 0.2864381670951843, -0.049131155014038086, -0.03171849250793457, 0.058844685554504395, 0.4402235746383667, 0.3107830286026001, -0.05531501770019531, 0.03076261281967163, 0.09050041437149048, 0.0814664363861084, -0.36836862564086914, -0.052554190158843994, -0.49916398525238037, -0.43423759937286377, 0.28691333532333374, -0.016824543476104736, 0.032912373542785645, 0.1107398271560669, -0.2084270715713501, -0.27395182847976685, -0.26902884244918823, 0.16201359033584595, 0.4084601402282715, 0.0244295597076416, 0.2558292746543884, -0.23436683416366577, 0.058564186096191406, 0.20615237951278687, -0.49801063537597656, -0.13768279552459717, -0.1584104299545288, -0.0558774471282959, -0.2888062596321106, 0.3783392310142517, -0.10923159122467041, 0.12259078025817871, 0.4481288194656372, 0.3497104048728943, -0.33264559507369995, -0.46100544929504395, -0.2922654151916504, 0.4702717661857605, -0.35521721839904785, 0.12037712335586548, 0.38053375482559204, 0.1264733076095581], [-0.06043010950088501, 0.45348525047302246, 0.4754708409309387, -0.29113656282424927, 0.1428157091140747, 0.04868125915527344, 0.38675379753112793, -0.16468793153762817, -0.28659844398498535, -0.4158087968826294, 0.4236751198768616, -0.06818747520446777, 0.3630688786506653, -0.45011717081069946, 0.41415560245513916, -0.34923917055130005, 0.07248455286026001, -0.38128018379211426, -0.42981988191604614, -0.13587725162506104, 0.1957024335861206, -0.3575000762939453, 0.03718245029449463, 0.1870442032814026, 0.07039332389831543, -0.059107065200805664, -0.30478107929229736, 0.473102867603302, 0.4034898281097412, -0.4454130530357361, -0.432123064994812, 0.1254938840866089, -0.30712437629699707, -0.05809098482131958, 0.1288975477218628, -0.3357333540916443, 0.2444387674331665, -0.41559046506881714, -0.4148862361907959, 0.4671976566314697, 0.4424322843551636, -0.39185893535614014, -0.36466050148010254, -0.11273682117462158, -0.015043497085571289, -0.4137442708015442, -0.21173346042633057, 0.3723573088645935, -0.03984957933425903, -0.3290466070175171, 0.4634140729904175, -0.3209943175315857, 0.09093958139419556, 0.29950040578842163, -0.45311588048934937, -0.18616324663162231, 0.1336553692817688, -0.291171669960022, -0.47405850887298584, -0.26431918144226074, 0.15453022718429565, -0.11293774843215942, 0.23710298538208008, -0.41506850719451904], [-0.2518235445022583, 0.18354707956314087, -0.4561021327972412, 0.39533209800720215, -0.047833800315856934, -0.11084538698196411, -0.3835432529449463, -0.49422961473464966, 0.18315976858139038, -0.14477574825286865, -0.1773688793182373, 0.0623401403427124, 0.4026651978492737, 0.014453232288360596, -0.029386520385742188, 0.3853469491004944, 0.1106787919998169, -0.022365570068359375, -0.438934862613678, -0.08705157041549683, -0.10604304075241089, 0.20465636253356934, -0.008097052574157715, -0.4325268268585205, -0.1517459750175476, 0.4121466279029846, 0.3205341696739197, 0.03035259246826172, 0.2805919647216797, -0.10337173938751221, -0.18865400552749634, -0.058257341384887695, 0.015589654445648193, 0.3971020579338074, 0.2759144902229309, -0.027422010898590088, -0.035558879375457764, 0.14006704092025757, 0.4808155298233032, -0.33954089879989624, -0.057788312435150146, 0.09714949131011963, 0.3181096315383911, 0.24786221981048584, 0.004350185394287109, -0.014131307601928711, -0.15957266092300415, 0.13211625814437866, 0.1947329044342041, 0.36265021562576294, -0.05692410469055176, -0.3714974522590637, 0.19896084070205688, 0.2733493447303772, 0.21930748224258423, -0.09109532833099365, -0.24827992916107178, -0.3329627513885498, -0.22866374254226685, -0.49205952882766724, -0.32619398832321167, -0.16308492422103882, -0.20634090900421143, 0.23640429973602295], [0.19460391998291016, -0.002618551254272461, 0.02818906307220459, -0.33305293321609497, 0.13877451419830322, 0.4212138056755066, -0.06591528654098511, 0.11074244976043701, 0.12466782331466675, -0.19135898351669312, -0.017670750617980957, -0.4689868688583374, -0.24771904945373535, 0.07349985837936401, -0.21717619895935059, 0.15329986810684204, -0.06844669580459595, -0.36482375860214233, 0.06878083944320679, 0.34739387035369873, -0.4706283211708069, -0.41021013259887695, 0.47850191593170166, 0.05584996938705444, 0.3350003957748413, -0.27083730697631836, 0.4606000781059265, -0.049500226974487305, -0.44433945417404175, -0.3000485897064209, -0.042157888412475586, -0.42627382278442383, 0.06547033786773682, -0.4746119976043701, 0.19175058603286743, -0.07464057207107544, -0.2905994653701782, -0.3152455687522888, -0.06049102544784546, -0.18792515993118286, -0.15945929288864136, 0.18234145641326904, -0.36876410245895386, 0.20841526985168457, -0.11825984716415405, 0.07424616813659668, -0.16041547060012817, 0.08864033222198486, -0.4055139422416687, 0.08478772640228271, 0.04549688100814819, -0.0983191728591919, 0.005349218845367432, -0.4292445182800293, 0.18100899457931519, -0.1902952790260315, -0.14900529384613037, 0.3503512144088745, 0.4089297652244568, -0.41511160135269165, 0.19860029220581055, -0.1305227279663086, -0.3616567850112915, 0.07096904516220093], [-0.3833702802658081, 0.015731096267700195, -0.16431891918182373, -0.006630301475524902, 0.017664432525634766, 0.23387587070465088, 0.17792445421218872, 0.2879868745803833, 0.1937187910079956, 0.19079464673995972, 0.4689638614654541, 0.09567070007324219, -0.04170823097229004, -0.4361342787742615, 0.4147104024887085, -0.49386173486709595, 0.4329168200492859, 0.1684907078742981, 0.053833723068237305, -0.12121695280075073, -0.31186580657958984, -0.17716187238693237, 0.1594315767288208, 0.4076039791107178, -0.007430374622344971, -0.29803550243377686, -0.3130834102630615, -0.12561023235321045, 0.040200114250183105, 0.14085298776626587, 0.10561341047286987, -0.09558093547821045, 0.48949819803237915, 0.3135848045349121, 0.44148337841033936, 0.17598259449005127, -0.37987738847732544, -0.23043668270111084, -0.029731452465057373, -0.13904839754104614, 0.370144784450531, -0.37779486179351807, 0.2975909113883972, 0.4837682843208313, -0.11995553970336914, 0.2616225481033325, -0.4329506754875183, -0.010607719421386719, -0.40919893980026245, -0.4251156449317932, 0.21002328395843506, 0.2251274585723877, 0.04906880855560303, 0.15912485122680664, 0.06998515129089355, 0.14445799589157104, -0.48262155055999756, 0.04514187574386597, -0.17711859941482544, -0.3483080267906189, 0.44424402713775635, 0.3291042447090149, 0.3174174427986145, -0.16515254974365234], [0.4354839324951172, -0.0023171305656433105, -0.3888006806373596, 0.04647672176361084, -0.033815205097198486, 6.091594696044922e-05, -0.39535611867904663, 0.18241041898727417, -0.4301086664199829, -0.4128500819206238, -0.32828980684280396, 0.14790701866149902, 0.007361888885498047, -0.061292171478271484, -0.2172876000404358, -0.3696928024291992, -0.08573579788208008, -0.30772149562835693, -0.3501112461090088, 0.27650368213653564, -0.021901369094848633, 0.49107539653778076, 0.11998158693313599, -0.3009132146835327, -0.10912120342254639, -0.38796359300613403, -0.13437968492507935, -0.11448419094085693, -0.08340674638748169, -0.08835303783416748, -0.10709476470947266, -0.011105179786682129, -0.4898219704627991, -0.15208077430725098, 0.48880016803741455, 0.04817545413970947, 0.4164067506790161, -0.49140745401382446, 0.24877697229385376, 0.13690459728240967, 0.01358407735824585, -0.40028810501098633, -0.3554460406303406, -0.05781286954879761, 0.18575704097747803, -0.06774437427520752, -0.13979732990264893, 0.38500159978866577, -0.4745466113090515, -0.32942235469818115, -0.03919577598571777, 0.4654955267906189, 0.09540003538131714, -0.1936262845993042, 0.33836203813552856, 0.30097395181655884, -0.15856480598449707, 0.12328922748565674, -0.4190967082977295, -0.014243721961975098, 0.22170138359069824, -0.30522048473358154, -0.41337502002716064, 0.2623210549354553], [-0.3354632258415222, 0.09887880086898804, -0.0561680793762207, -0.3031860589981079, 0.406069278717041, 0.23564648628234863, -0.3058445453643799, 0.08178877830505371, 0.13413381576538086, -0.06982660293579102, -0.4185028672218323, -0.00955665111541748, -0.05415534973144531, -0.14877331256866455, 0.05653738975524902, 0.11006683111190796, 0.49369001388549805, 0.3147355318069458, -0.24472129344940186, 0.4032420516014099, -0.45340389013290405, -0.29819339513778687, 0.06621867418289185, 0.0378565788269043, 0.145399272441864, -0.1830088496208191, -0.17473554611206055, -0.24646472930908203, -0.060495853424072266, 0.11565440893173218, 0.44479602575302124, -0.007877469062805176, -0.25327354669570923, -0.4489701986312866, -0.19644039869308472, 0.36421269178390503, -0.18686288595199585, 0.37244367599487305, -0.4130881428718567, 0.1568666696548462, 0.01712048053741455, 0.45704901218414307, -0.35742461681365967, 0.2844153642654419, -0.23212671279907227, -0.3869284391403198, 0.2039455771446228, 0.43239688873291016, -0.09826582670211792, 0.18178480863571167, -0.08894658088684082, -0.30802643299102783, 0.4641675353050232, -0.05519455671310425, 0.2699214816093445, -0.27991288900375366, 0.01563417911529541, 0.17116153240203857, 0.07809048891067505, -0.4360849857330322, -0.2742747664451599, 0.08385562896728516, 0.44771504402160645, -0.09455209970474243], [-0.1602938175201416, 0.34170156717300415, -0.06095701456069946, 0.05402195453643799, -0.27350932359695435, -0.01890575885772705, 0.10455971956253052, -0.2635384798049927, 0.4441520571708679, -0.0442274808883667, 0.06253653764724731, -0.10606914758682251, -0.3496513366699219, -0.08217817544937134, -0.349107563495636, 0.07501548528671265, -0.007387399673461914, 0.3035927414894104, 0.13385552167892456, -0.30386149883270264, -0.4003838896751404, 0.4385274052619934, -0.1491847038269043, 0.238475501537323, -0.49392086267471313, 0.2902112603187561, -0.44004321098327637, 0.021033287048339844, -0.12295877933502197, -0.4526181221008301, -0.18339753150939941, 0.1920580267906189, -0.1492747664451599, 0.2691391110420227, -0.49553555250167847, 0.02370452880859375, -0.16935008764266968, 0.3906315565109253, 0.012418150901794434, 0.32836592197418213, -0.20364117622375488, -0.3596575856208801, 0.2999715805053711, -0.22533977031707764, 0.36284834146499634, 0.4307294487953186, 0.4161975383758545, 0.4022611379623413, -0.2528642416000366, -0.035838425159454346, 0.3961119055747986, -0.19327569007873535, 0.1006782054901123, 0.2783467769622803, -0.09226948022842407, -0.4446374773979187, 0.1251147985458374, 0.05304640531539917, -0.07166367769241333, 0.45814549922943115, 0.39587724208831787, 0.14568907022476196, 0.4823625683784485, -0.187208890914917], [0.2729840874671936, -0.06025886535644531, 0.37501251697540283, -0.4622458219528198, 0.08780688047409058, 0.22166574001312256, 0.02972400188446045, 0.09786391258239746, 0.4127603769302368, -0.13118797540664673, -0.06742346286773682, -0.01575911045074463, 0.28566455841064453, -0.3050060272216797, -0.1281476616859436, -0.25119853019714355, -0.26636016368865967, -0.3036137819290161, 0.3030185103416443, 0.39853739738464355, 0.34471601247787476, -0.01799553632736206, -0.4483519196510315, -0.3717345595359802, 0.37425071001052856, 0.37052732706069946, 0.33104169368743896, -0.07553964853286743, 0.18633252382278442, 0.4257499575614929, -0.32378947734832764, 0.13557171821594238, 0.4765435457229614, -0.4414626359939575, 0.1344481110572815, 0.010774314403533936, 0.2457372546195984, -0.16053837537765503, -0.19477587938308716, 0.432391881942749, 0.0882941484451294, 0.4209456443786621, 0.23495864868164062, -0.47024643421173096, -0.27546894550323486, 0.0008766055107116699, -0.15631502866744995, 0.27105432748794556, -0.07556110620498657, -0.2545011043548584, -0.03122192621231079, -0.1933155655860901, -0.20351600646972656, -0.3825507164001465, -0.2559271454811096, 0.04273718595504761, 0.022710144519805908, -0.26656532287597656, -0.04592478275299072, -0.10769802331924438, 0.16274279356002808, -0.024015843868255615, -0.08889240026473999, -0.21519464254379272], [0.261399507522583, -0.3666384816169739, -0.31272566318511963, -0.4006155729293823, -0.43320339918136597, 0.10448205471038818, -0.2121182680130005, 0.38165509700775146, 0.2970041036605835, 0.22301620244979858, -0.19828802347183228, 0.291415274143219, 0.1901983618736267, -0.066256582736969, 0.17081409692764282, 0.08144110441207886, -0.2483510971069336, 0.41681021451950073, -0.4931751489639282, 0.18284428119659424, -0.06779426336288452, 0.34532713890075684, 0.34530144929885864, -0.36814212799072266, 0.3628493547439575, 0.06943017244338989, 0.06458920240402222, 0.35252487659454346, 0.28780680894851685, -0.20170444250106812, 0.2326224446296692, 0.19235706329345703, 0.48691797256469727, 0.004071235656738281, -0.18144595623016357, -0.466312050819397, 0.11424225568771362, 0.20485037565231323, 0.34135693311691284, -0.3632490634918213, 0.3467175364494324, 0.24788898229599, 0.14532285928726196, 0.4257909059524536, 0.22872799634933472, 0.3981100916862488, 0.12534266710281372, -0.2531437873840332, -0.2931658625602722, 0.1909177303314209, 0.2785821557044983, -0.11246174573898315, -0.3506876230239868, 0.18684566020965576, 0.4227239489555359, 0.07457786798477173, -0.20262235403060913, 0.14958536624908447, -0.16290897130966187, -0.3304483890533447, -0.4219684600830078, 0.23233836889266968, 0.2743324637413025, 0.01507723331451416], [-0.08488219976425171, -0.4317489266395569, 0.49094265699386597, 0.12775373458862305, 0.43203508853912354, -0.10184872150421143, -0.45776593685150146, -0.1029900312423706, -0.03069406747817993, -0.06670838594436646, -0.11092394590377808, -0.35501986742019653, -0.3757047653198242, 0.4437987208366394, -0.35495156049728394, 0.18966901302337646, 0.20262515544891357, -0.024275481700897217, 0.15561532974243164, -0.205699622631073, 0.16954898834228516, 0.11140060424804688, -0.4839094281196594, 0.48836833238601685, -0.35920649766921997, -0.1220664381980896, 0.0375676155090332, -0.3229307532310486, 0.10969918966293335, -0.42111366987228394, -0.35507088899612427, -0.10542052984237671, -0.38258033990859985, 0.128156840801239, 0.495233416557312, 0.014005064964294434, 0.26210498809814453, -0.15514934062957764, -0.11280173063278198, -0.13191986083984375, -0.3380277156829834, 0.17664968967437744, -0.24377232789993286, 0.35906851291656494, -0.23861360549926758, -0.16154122352600098, -0.241286039352417, 0.3442727327346802, 0.23029106855392456, 0.09385734796524048, 0.45055824518203735, -0.14743757247924805, -0.2440393567085266, 0.361932635307312, 0.3351583480834961, -0.4250296354293823, -0.34578824043273926, -0.009523391723632812, -0.11364305019378662, 0.19535177946090698, 0.47282856702804565, 0.39755386114120483, -0.20298534631729126, 0.08908873796463013], [-0.06823182106018066, -0.3315925598144531, -0.38240736722946167, -0.09652388095855713, 0.4504907727241516, 0.43866848945617676, -0.3681004047393799, -0.4990376830101013, -0.17000949382781982, -0.13297414779663086, 0.4559401869773865, -0.32554352283477783, -0.1359967589378357, -0.34726566076278687, -0.19329535961151123, 0.4841366410255432, -0.4386802911758423, 0.47532719373703003, -0.3913252353668213, 0.4881592392921448, -0.22787463665008545, -0.0006093382835388184, -0.41976743936538696, -0.4943459630012512, -0.006497800350189209, -0.017333984375, 0.3722302317619324, 0.35877513885498047, 0.3374482989311218, 0.3350633382797241, 0.09846735000610352, -0.4408189058303833, -0.254763662815094, -0.04629474878311157, 0.1980152726173401, 0.20677411556243896, -0.32802581787109375, -0.33423537015914917, 0.2785491347312927, 0.3441883325576782, 0.2800982594490051, 0.2538377046585083, 0.4011330008506775, 0.3115975260734558, -0.39043599367141724, 0.47599220275878906, 