{"input_weights": [[-0.056681692600250244, 0.3788279891014099, -0.45274198055267334, 0.1460179090499878, -0.4124351143836975, -0.1689940094947815, 0.48062413930892944, 0.06286889314651489, 0.33216047286987305, -0.44912058115005493, -0.188923180103302, -0.17057228088378906, -0.05665868520736694, 0.4072619080543518, 0.04020899534225464, 0.1771067976951599, -0.1440657377243042, -0.13579046726226807, -0.3983645439147949, -0.32866156101226807, -0.37631016969680786, 0.08068615198135376, 0.32496005296707153, 0.4108842611312866, 0.19282370805740356, 0.005794703960418701, 0.40529555082321167, 0.28871244192123413, 0.4372621774673462, 0.46979832649230957, 0.18471574783325195, -0.33160221576690674, 0.3808234930038452, -0.2842285633087158, 0.05697047710418701, 0.379922091960907, 0.33206433057785034, -0.09984683990478516, -0.4745691418647766, -0.16917645931243896, -0.2718891501426697, 0.2797778844833374, -0.45213717222213745, -0.037867844104766846, -0.42674243450164795, -0.4507102966308594, 0.3035370111465454, -0.06794285774230957, 0.1294851303100586, -0.13271570205688477, 0.20958763360977173, -0.13604134321212769, 0.3365594744682312, 0.1049497127532959, 0.00795358419418335, 0.16914933919906616, -0.23448973894119263, 0.3604246973991394, 0.04206663370132446, -0.025146126747131348, 0.18845999240875244, -0.36695319414138794, -0.30963122844696045, 0.18758434057235718, -0.39353400468826294, -0.28046345710754395, -0.29542750120162964, 0.08283793926239014, 0.2875029444694519, 0.07897412776947021, -0.2286158800125122, -0.4965646266937256, 0.422960102558136, -0.4109433889389038, 0.35991382598876953, 0.15217798948287964, 0.12231910228729248, 0.31586211919784546, 0.39363616704940796, -0.4866998791694641, -0.4302312731742859, -0.3384454846382141, -0.2913362383842468, -0.42413973808288574, 0.383364737033844, 0.2119637131690979, -0.4237511157989502, -0.3570300340652466, -0.36759090423583984, 0.35153329372406006, -0.10634958744049072, 0.3648526668548584, 0.05678987503051758, -0.3995565176010132, -0.294111430644989, -0.45562970638275146, 0.1685388684272766, 0.238766610622406, -0.0276910662651062, -0.08760052919387817, -0.1896812915802002, -0.11640173196792603, -0.26993614435195923, -0.3648034930229187, -0.11184746026992798, 0.32302165031433105, 0.448650062084198, -0.06609326601028442, -0.2032296061515808, 0.052626609802246094, 0.4868934154510498, -0.10087275505065918, -0.3350951075553894, -0.11238259077072144, -0.29707539081573486, 0.0035830140113830566, 0.15299272537231445, -0.17203116416931152, -0.03568774461746216, -0.08901357650756836, 0.25670886039733887, 0.488244891166687, 0.40342599153518677, 0.08185547590255737, 0.08446937799453735, 0.20924103260040283, 0.25836408138275146, 0.019891023635864258], [-0.07277512550354004, 0.15703558921813965, 0.29818981885910034, 0.36331164836883545, 0.4140382409095764, -0.3395397663116455, 0.07749044895172119, -0.33146166801452637, 0.4056053161621094, 0.00859212875366211, 0.23498094081878662, 0.43622303009033203, 0.4966146945953369, -0.21256905794143677, -0.256819486618042, -0.13534820079803467, -0.4804263710975647, -0.46869492530822754, -0.09285414218902588, 0.45937424898147583, -0.3340608477592468, -0.08826017379760742, 0.1589699387550354, 0.45424652099609375, -0.023191094398498535, -0.4991033673286438, 0.0365791916847229, 0.40661323070526123, -0.24488019943237305, 0.4769665598869324, -0.112163245677948, -0.48286259174346924, 0.15030938386917114, 0.3827529549598694, 0.3201587200164795, 0.3664456009864807, 0.23287397623062134, -0.03952968120574951, 0.29054975509643555, -0.34811127185821533, -0.04168659448623657, 0.07676482200622559, -0.2884109616279602, 0.10627442598342896, -0.00024396181106567383, -0.39618605375289917, 0.38438159227371216, 0.42458677291870117, -0.2098727822303772, -0.2475329041481018, -0.27213484048843384, -0.25328898429870605, 0.3751699924468994, 0.15052467584609985, -0.15984350442886353, 0.48828405141830444, 0.07251483201980591, 0.3453788161277771, -0.26353150606155396, -0.024844050407409668, -0.2502642273902893, 0.2464061975479126, -0.29108887910842896, 0.14647728204727173, 0.16343843936920166, -0.23544782400131226, -0.3836534023284912, -0.3942318558692932, -0.07771062850952148, 0.22224485874176025, 0.1914200782775879, -0.42395299673080444, -0.145544171333313, 0.03709131479263306, 0.3303260803222656, 0.30552196502685547, -0.06067240238189697, -0.38323724269866943, 0.3536205291748047, -0.0554044246673584, -0.4472310543060303, 0.30781787633895874, -0.18730419874191284, 0.1577731966972351, -0.20129698514938354, 0.0814623236656189, -0.3553094267845154, -0.46257346868515015, 0.21230798959732056, -0.0062522292137146, -0.49585646390914917, -0.4498898386955261, 0.3073047995567322, -0.1967986822128296, 0.4127904176712036, 0.1444239616394043, 0.2796153426170349, 0.46480792760849, 0.3771478533744812, -0.1607493758201599, 0.06581830978393555, 0.4441556930541992, 0.4102652668952942, -0.37699300050735474, 0.2862730026245117, -0.37833696603775024, -0.35808265209198, 0.24290883541107178, 0.27137982845306396, 0.39679819345474243, -0.48223966360092163, -0.240928053855896, 0.3637453317642212, -0.396629273891449, -0.06399655342102051, -0.12688398361206055, -0.1856522560119629, -0.24638086557388306, 0.36810237169265747, -0.39398902654647827, -0.11259955167770386, -0.009822666645050049, 0.4231521487236023, -0.03661757707595825, 0.031093895435333252, -0.33863258361816406, -0.4835554361343384, 0.2750895619392395], [0.17450690269470215, -0.08760535717010498, 0.37452465295791626, 0.31543636322021484, 0.26626378297805786, -0.2306814193725586, 0.15148109197616577, 0.13196206092834473, 0.11054062843322754, 0.049594223499298096, -0.09146833419799805, -0.07872062921524048, -0.1018596887588501, 0.19692462682724, 0.2364410161972046, -0.4248037338256836, 0.09388351440429688, 0.3864351511001587, 0.304507851600647, 0.2281140685081482, -0.3260425925254822, 0.012296140193939209, 0.10810697078704834, 0.09483546018600464, -0.30413293838500977, 0.14801687002182007, 0.015047669410705566, 0.30826330184936523, 0.0678396224975586, 0.2726532816886902, 0.10229182243347168, 0.49759405851364136, 0.0870434045791626, 0.14718413352966309, 0.2900300621986389, 0.21803992986679077, 0.30356353521347046, 0.10122138261795044, -0.034884631633758545, 0.0449213981628418, 0.06820660829544067, 0.4192221760749817, 0.0017126202583312988, 0.33340543508529663, 0.02166217565536499, -0.12278324365615845, -0.14848798513412476, 0.43227720260620117, -0.32704704999923706, -0.06444132328033447, 0.38897818326950073, 0.3148183822631836, 0.035682499408721924, 0.3978344798088074, -0.3154117465019226, 0.029811322689056396, -0.1548250913619995, 0.060345470905303955, -0.36812275648117065, 0.12460535764694214, -0.035112857818603516, 0.2883543372154236, -0.4560742974281311, -0.13890355825424194, -0.3678094148635864, -0.2786502242088318, 0.25810712575912476, 0.17654430866241455, 0.1672039031982422, 0.09371691942214966, -0.3236452341079712, -0.040206313133239746, 0.07326710224151611, 0.27675795555114746, -0.2552584409713745, 0.4002692699432373, 0.36688488721847534, -0.4401071071624756, -0.1464422345161438, 0.3620601296424866, 0.26425331830978394, 0.08536279201507568, 0.18340259790420532, 0.3163207173347473, -0.3542761206626892, -0.19875013828277588, -0.12693262100219727, -0.06308120489120483, 0.4607515335083008, -0.053412556648254395, -0.4468567371368408, 0.37084245681762695, -0.29334503412246704, -0.1461944580078125, -0.28571343421936035, 0.12223750352859497, -0.3490559458732605, -0.1378963589668274, 0.4727545976638794, -0.3630804419517517, 0.0690237283706665, -0.18099474906921387, 0.32765108346939087, 0.4338757395744324, -0.39950090646743774, 0.048084914684295654, 0.4233130216598511, -0.0796518325805664, 0.12515997886657715, 0.17946839332580566, -0.44054609537124634, -0.3414837121963501, 0.07210582494735718, -0.2903968095779419, -0.12606161832809448, 0.4702145457267761, 0.17322766780853271, -0.495292603969574, -0.2771121859550476, -0.44060641527175903, 0.08940386772155762, -0.008092343807220459, -0.04304009675979614, 0.061029255390167236, 0.23889172077178955, 0.00966787338256836, 0.16927999258041382, 0.4573756456375122], [0.44422388076782227, 0.20718854665756226, 0.47311580181121826, 0.06597036123275757, -0.4459678530693054, 0.2899860739707947, 0.019670724868774414, 0.4308011531829834, 0.07389956712722778, 0.4720589518547058, 0.28502553701400757, 0.33077096939086914, 0.2811681628227234, -0.43054401874542236, -0.4615780711174011, -0.11072796583175659, -0.1023988127708435, -0.4348685145378113, 0.04996991157531738, 0.2454661726951599, -0.01814335584640503, -0.38223040103912354, -0.26606428623199463, -0.3628541827201843, -0.45397454500198364, -0.4463736414909363, 0.28875505924224854, -0.38109290599823, 0.15483695268630981, -0.36732637882232666, -0.49804621934890747, 0.09240996837615967, 0.24666738510131836, 0.23709529638290405, -0.19314038753509521, 0.3433551788330078, -0.3739706873893738, -0.06102079153060913, -0.43734169006347656, 0.03273123502731323, 0.4430971145629883, -0.12919247150421143, 0.1410619616508484, 0.10142821073532104, -0.0778765082359314, 0.2065485715866089, -0.32098764181137085, -0.3248829245567322, 0.2757682204246521, -0.39118075370788574, -0.05320620536804199, 0.2955915927886963, 0.4270417094230652, 0.3686257600784302, 0.41555625200271606, -0.47768986225128174, 0.12758678197860718, 0.24453479051589966, 0.0750766396522522, -0.24478775262832642, 0.0990714430809021, -0.2990449070930481, -0.07554781436920166, 0.4125968813896179, 0.4755564332008362, -0.3331511616706848, -0.03516268730163574, 0.36557137966156006, -0.02367156744003296, -0.4307591915130615, -0.37663763761520386, 0.43400394916534424, -0.3687589168548584, 0.18720728158950806, 0.44221651554107666, 0.42618322372436523, -0.1538969874382019, 0.297651469707489, -0.49838030338287354, 0.041789710521698, 0.08961498737335205, -0.01999509334564209, -0.4356844425201416, -0.025471031665802002, -0.4536616802215576, -0.093788743019104, 0.282218873500824, 0.11062544584274292, 0.47932738065719604, 0.013414561748504639, 0.1261478066444397, 0.4732094407081604, 0.4742981195449829, -0.2257257103919983, 0.47806769609451294, 0.04673248529434204, -0.16726255416870117, -0.12541258335113525, -0.07695674896240234, -0.01706063747406006, -0.014110982418060303, 0.14788925647735596, -0.12964177131652832, 0.3863416314125061, -0.07981032133102417, -0.13853055238723755, 0.20996177196502686, 0.41041427850723267, 0.15353381633758545, -0.1943608522415161, 0.4595106840133667, 0.3980519771575928, 0.30552637577056885, 0.10711753368377686, 0.1353399157524109, 0.00026541948318481445, -0.052037954330444336, -0.33553701639175415, -0.33729517459869385, 0.054286062717437744, 0.4528757333755493, -0.37782949209213257, 0.07773417234420776, 0.1898503303527832, 0.32493317127227783, -0.25438880920410156, 0.1533825397491455, -0.0904499888420105], [0.22467690706253052, -0.15551960468292236, -0.06632012128829956, 0.26962804794311523, 0.12466573715209961, 0.13233423233032227, -0.29736632108688354, 0.42161786556243896, -0.4753808379173279, 0.3130205273628235, -0.15919649600982666, 0.06291824579238892, -0.47461873292922974, -0.16313546895980835, -0.3922700881958008, -0.45482057332992554, -0.27306389808654785, 0.2714585065841675, 0.353410005569458, -0.16086852550506592, 0.24024593830108643, 0.21480631828308105, -0.23189449310302734, -0.24521160125732422, -0.08681648969650269, 0.14224398136138916, -0.37425899505615234, -0.1553855538368225, 0.09816080331802368, 0.43240052461624146, -0.09207302331924438, -0.1537582278251648, -0.3607657551765442, -0.19679397344589233, -0.15271645784378052, 0.056130051612854004, 0.19957047700881958, -0.10334163904190063, -0.013266682624816895, -0.48367804288864136, 0.3351236581802368, -0.02843576669692993, -0.24942970275878906, 0.08053261041641235, -0.042264342308044434, 0.05824059247970581, -0.43034791946411133, 0.31127631664276123, -0.44415557384490967, 0.12040400505065918, 0.02593398094177246, 0.11358553171157837, 0.4035971164703369, -0.4165716767311096, 0.03988194465637207, 0.3510512113571167, -0.46772146224975586, 0.2610185146331787, -0.4380284547805786, 0.30879783630371094, 0.23966127634048462, -0.07407432794570923, -0.053404271602630615, 0.3442986011505127, 0.1670026183128357, 0.4403175115585327, -0.48349326848983765, -0.4364932179450989, 0.1076892614364624, -0.4588161110877991, 0.13230925798416138, -0.0772896409034729, -0.4193282723426819, -0.41760849952697754, -0.31336599588394165, 0.39560627937316895, 0.08863168954849243, 0.14272773265838623, 0.3210844397544861, -0.3725321292877197, 0.35614657402038574, -0.36944955587387085, 0.4184897541999817, 0.4547393321990967, 0.25238603353500366, -0.26179933547973633, -0.4610974192619324, -0.09412693977355957, -0.42642587423324585, -0.3532780408859253, -0.10974913835525513, 0.25261807441711426, 0.0020704269409179688, -0.3310818076133728, -0.2967047691345215, 0.2015373706817627, 0.32686561346054077, -0.2757023572921753, 0.155958890914917, 0.2894821763038635, -0.2825731039047241, -0.4771451950073242, -0.28541529178619385, -0.2080962061882019, -0.3183807134628296, 0.3831196427345276, -0.38049548864364624, -0.49264007806777954, 0.4612201452255249, 0.47614020109176636, 0.0477486252784729, 0.2319691777229309, 0.03320950269699097, -0.4297400116920471, -0.13393688201904297, 0.0677483081817627, 0.2556212544441223, 0.292125940322876, 0.3398171067237854, 0.11488550901412964, -0.3604450821876526, 0.1393764615058899, 0.13933074474334717, -0.4996190667152405, -0.2748519778251648, 0.16099613904953003, 0.4462505578994751, 0.13626331090927124], [-0.37772315740585327, 0.4648333191871643, 0.09719526767730713, -0.2876586318016052, 0.32623493671417236, -0.36350488662719727, 0.12572449445724487, 0.44866591691970825, 0.4476776123046875, 0.04714268445968628, -0.21246927976608276, -0.33371269702911377, -0.060433387756347656, 0.17330509424209595, 0.111910879611969, -0.05507272481918335, 0.1601400375366211, 0.4047916531562805, 0.0077522993087768555, -0.08053618669509888, -0.4725848436355591, -0.48114675283432007, -0.36397403478622437, 0.24770474433898926, -0.24628078937530518, -0.45617854595184326, -0.015561938285827637, 0.4666876792907715, 0.42750221490859985, 0.4140831232070923, 0.08850288391113281, -0.11528944969177246, 0.34665292501449585, -0.3544212579727173, -0.49535655975341797, -0.21846872568130493, 0.10852205753326416, -0.04180419445037842, 0.15953779220581055, 0.1470719575881958, -0.17589318752288818, 0.19120639562606812, -0.09274637699127197, 0.17773133516311646, -0.0909685492515564, 0.22799772024154663, -0.06477659940719604, 0.4607711434364319, 0.21748095750808716, -0.33722037076950073, 0.17189878225326538, 0.4854757785797119, 0.38482075929641724, -0.1859821081161499, 0.4466997981071472, -0.49544262886047363, 0.12549740076065063, -0.19837874174118042, 0.06573081016540527, -0.4480060338973999, 0.1915987730026245, -0.44255566596984863, -0.4962702989578247, -0.15626543760299683, 0.26989614963531494, -0.14403557777404785, 0.08768880367279053, 0.023623943328857422, 0.032384634017944336, 0.3138171434402466, 0.15923577547073364, 0.2695704698562622, -0.16811805963516235, -0.3192239999771118, 0.26586753129959106, -0.1612725853919983, -0.20532894134521484, -0.3272222876548767, -0.23899561166763306, 0.008781731128692627, -0.4036334156990051, 0.056081295013427734, 0.3952054977416992, -0.4118993878364563, -0.16984325647354126, -0.3284875750541687, 0.03759312629699707, 0.09219759702682495, -0.20708167552947998, 0.014845788478851318, -0.2952030301094055, -0.4946281313896179, -0.49032461643218994, -0.3611646890640259, -0.4258962869644165, -0.40221792459487915, -0.3748630881309509, 0.2920879125595093, 0.20510733127593994, -0.12561529874801636, 0.3215482831001282, -0.33074861764907837, 0.05462568998336792, 0.46872931718826294, -0.22716325521469116, 0.339898943901062, 0.45109403133392334, 0.4392654299736023, 0.49072128534317017, 0.3703674077987671, -0.00019598007202148438, 0.44373685121536255, 0.3230477571487427, 0.38990604877471924, -0.2221437692642212, -0.40359705686569214, 0.09626257419586182, 0.3157969117164612, 0.13238388299942017, -0.22679656744003296, 0.43082135915756226, -0.48186802864074707, 0.41061246395111084, 0.4287548065185547, 0.17720705270767212, -0.23657387495040894, -0.18562042713165283, -0.011386752128601074], [-0.38337528705596924, 0.2926797866821289, 0.0163041353225708, -0.07648122310638428, -0.4161592721939087, 0.4196740984916687, 0.36976486444473267, -0.31417280435562134, 0.0625373125076294, -0.022571682929992676, 0.3458314538002014, 0.38834255933761597, 0.03630208969116211, 0.27652257680892944, -0.20291179418563843, 0.24640047550201416, 0.4761351943016052, 0.37848860025405884, 0.3691006302833557, 0.1288527250289917, 0.2549917697906494, 0.045011162757873535, -0.15961742401123047, -0.35802364349365234, -0.07253813743591309, 0.2883979082107544, -0.14065158367156982, 0.03367650508880615, -0.3982425928115845, -0.15560221672058105, -0.16868507862091064, 0.18544381856918335, -0.28084200620651245, -0.11987942457199097, -0.45295971632003784, -0.2482212781906128, -0.3592485189437866, -0.2096954584121704, 0.37760061025619507, -0.026623785495758057, 0.2860523462295532, 0.23834162950515747, 0.4513300657272339, -0.4180413484573364, 0.3341563940048218, -0.008909404277801514, 0.08549833297729492, -0.2333318591117859, 0.15955853462219238, 0.06671708822250366, -0.299208402633667, -0.4111395478248596, -0.23321092128753662, -0.41650861501693726, 0.4033457636833191, 0.32100045680999756, -0.3599100708961487, 0.26206231117248535, 0.3012932538986206, -0.012280046939849854, 0.11625880002975464, -0.17268013954162598, -0.1410260796546936, 0.27772533893585205, -0.2143433690071106, -0.4516521692276001, -0.22594857215881348, -0.25229012966156006, -0.3417898416519165, 0.11975425481796265, -0.26192134618759155, -0.05506104230880737, 0.46958404779434204, -0.40847349166870117, -0.427977979183197, 0.4512079954147339, 0.3573266267776489, 0.49348145723342896, 0.49181175231933594, -0.005629360675811768, -0.1201428771018982, -0.4669458270072937, 0.035133957862854004, -0.1785510778427124, -0.15706342458724976, -0.22495883703231812, 0.1267663836479187, 0.4982706904411316, 0.34571725130081177, 0.22070735692977905, 0.4680674076080322, 0.01674443483352661, -0.05077093839645386, -0.47680479288101196, -0.08340209722518921, 0.4290141463279724, 0.4797719120979309, 0.09016138315200806, -0.07088172435760498, -0.3057376742362976, 0.18025118112564087, 0.2101287841796875, -0.09096235036849976, 0.2700098156929016, 0.14318645000457764, 0.35126161575317383, 0.1362210512161255, -0.46681904792785645, -0.06511598825454712, -0.2682655453681946, 0.2933714985847473, 0.49307161569595337, 0.1150822639465332, 0.22705739736557007, -0.4350054860115051, -0.1390618085861206, 0.34263044595718384, 0.08437752723693848, -0.40952712297439575, 0.17520403861999512, 0.15498840808868408, 0.396273136138916, 0.04776233434677124, -0.2784610986709595, -0.33430391550064087, -0.478299081325531, 0.2659544348716736, 0.28042370080947876], [-0.20875632762908936, 0.27164226770401, -0.2926930785179138, 0.16671526432037354, -0.2987980842590332, -0.20529299974441528, 0.23881816864013672, 0.0709187388420105, -0.02636939287185669, 0.1694391369819641, -0.44888758659362793, 0.15881675481796265, -0.3421790599822998, -0.0287247896194458, 0.36119353771209717, -0.23711174726486206, 0.4280223846435547, -0.1076124906539917, -0.21939557790756226, 0.2505756616592407, -0.471868097782135, 0.06852388381958008, 0.42951470613479614, 0.1423511505126953, 0.4899744391441345, -0.47243547439575195, -0.4286024570465088, 0.045975685119628906, -0.3440808653831482, -0.019838571548461914, -0.32211339473724365, -0.14954030513763428, 0.2423161268234253, -0.38702458143234253, -0.38679808378219604, -0.0742369294166565, -0.015598475933074951, 0.3473762273788452, -0.3727782964706421, 0.18168675899505615, -0.223358154296875, -0.35526371002197266, -0.31902676820755005, -0.20217591524124146, 0.4205067753791809, -0.10656219720840454, -0.48419517278671265, -0.2688561677932739, -0.16138595342636108, -0.11261647939682007, 0.37988853454589844, 0.06195420026779175, -0.10781174898147583, -0.05758178234100342, 0.31796795129776, 0.4727843999862671, 0.48456138372421265, 0.12345737218856812, -0.1942669153213501, -0.29321229457855225, 0.4094075560569763, -0.41314977407455444, 0.09988433122634888, 0.10859900712966919, -0.3959212303161621, 0.11800128221511841, -0.06462037563323975, -0.4036880135536194, -0.2209191918373108, 0.34442079067230225, 0.22466301918029785, -0.2664021849632263, -0.10938471555709839, -0.10294872522354126, -0.22064459323883057, -0.25716811418533325, 0.22971385717391968, -0.046234190464019775, -0.03799331188201904, 0.4073945879936218, 0.3821074366569519, -0.49907582998275757, 0.4054737687110901, -0.24472707509994507, -0.04382050037384033, 0.03032708168029785, -0.10408389568328857, 0.03792017698287964, 0.02661418914794922, 0.47454190254211426, -0.468822181224823, 0.08090317249298096, -0.35714471340179443, 0.4202408790588379, 0.3465868830680847, 0.11106562614440918, -0.39930427074432373, 0.10056883096694946, 0.032256901264190674, 0.4039105772972107, -0.11705625057220459, -0.24020373821258545, 0.4922258257865906, 0.27403104305267334, 0.24615693092346191, -0.4079725742340088, 0.16695070266723633, 0.3346627354621887, -0.4170936942100525, 0.23597633838653564, -0.05196046829223633, -0.12918812036514282, -0.13883447647094727, -0.2696807384490967, -0.38524681329727173, 0.055776894092559814, -0.44884246587753296, -0.4378247857093811, 0.1426694393157959, 0.1106993556022644, -0.20665258169174194, -0.3262767791748047, -0.13741248846054077, -0.15961205959320068, -0.3964594602584839, -0.47489798069000244, -0.4152423143386841, 0.20772457122802734], [-0.2428491711616516, 0.28028780221939087, 0.3502437472343445, 0.466930091381073, 0.38238978385925293, -0.4908941388130188, 0.3073393702507019, -0.3432440757751465, -0.44337624311447144, -0.2570946216583252, -0.2372611165046692, -0.26569175720214844, 0.43179452419281006, -0.3199707865715027, -0.30901747941970825, -0.0968751311302185, 0.1934276819229126, 0.09063464403152466, -0.4094041585922241, 0.093991219997406, 0.24044865369796753, -0.3033043146133423, -0.2144903540611267, 0.19547319412231445, 0.07059121131896973, -0.04213082790374756, 0.11756742000579834, 0.3814786672592163, 0.38670897483825684, -0.4525822401046753, 0.14351797103881836, 0.032763004302978516, -0.4043651223182678, -0.0724073052406311, -0.15456920862197876, 0.12449347972869873, -0.17168748378753662, 0.4926603436470032, -0.12806200981140137, -0.3575051426887512, 0.04051244258880615, 0.4668567180633545, 0.2496945858001709, 0.002639472484588623, 0.3036211133003235, 0.2447865605354309, -0.3334423899650574, 0.4418596029281616, 0.3333081603050232, 0.4005318880081177, -0.39758527278900146, -0.30914509296417236, 0.23890644311904907, -0.02125108242034912, -0.48534953594207764, 0.3612092137336731, 0.42808234691619873, -0.33690154552459717, 0.34893912076950073, -0.4014355540275574, 0.3161957859992981, 0.03550916910171509, 0.41612643003463745, -0.01327204704284668, 0.1719721555709839, 0.4185521602630615, -0.18591678142547607, -0.28106987476348877, 0.3139990568161011, -0.332439124584198, -0.18361860513687134, -0.19534075260162354, -0.32823091745376587, 0.05000877380371094, -0.13009428977966309, 0.4242967963218689, 0.015493214130401611, 0.1327943205833435, -0.3125743865966797, -0.19773483276367188, -0.3392249345779419, 0.07316011190414429, 0.39358407258987427, -0.15706825256347656, -0.39406853914260864, -0.0461651086807251, -0.29922574758529663, 0.04161381721496582, -0.31757164001464844, -0.383054256439209, 0.01735776662826538, -0.2995474338531494, -0.17466145753860474, 0.05743443965911865, -0.18271076679229736, 0.4353386163711548, 0.3139162063598633, 0.44880807399749756, -0.46384042501449585, -0.2489754557609558, -0.04028803110122681, 0.08328187465667725, -0.25193411111831665, -0.3729172945022583, 0.0470271110534668, -0.4066280722618103, 0.4192156195640564, 0.30663180351257324, 0.43963176012039185, 0.42053717374801636, 0.3912755250930786, -0.47377216815948486, -0.13077431917190552, -0.3803519606590271, -0.4131442904472351, 0.3163905739784241, 0.049382686614990234, -0.173414409160614, 0.22222578525543213, 0.2185302972793579, 0.4847172498703003, 0.029705464839935303, -0.22863590717315674, -0.4610241651535034, 0.01841515302658081, -0.21648496389389038, -0.11853110790252686, 0.26769351959228516], [0.2843097448348999, 0.029116153717041016, 0.023544728755950928, -0.045785725116729736, 0.37400180101394653, -0.33966201543807983, 0.3266492486000061, -0.35341525077819824, -0.004765152931213379, 0.16172391176223755, -0.41069698333740234, 0.4799116253852844, -0.3403472304344177, 0.08995360136032104, -0.4213099479675293, -0.4307301640510559, 0.01503145694732666, -0.31644201278686523, -0.03727191686630249, 0.22952526807785034, -0.2855685353279114, -0.1818406581878662, -0.3630743622779846, 0.420280396938324, 0.29456162452697754, -0.19842684268951416, -0.373630166053772, 0.07670921087265015, 0.4247536063194275, 0.25635308027267456, 0.36003577709198, 0.38249045610427856, -0.46430569887161255, 0.25940728187561035, 0.2172839641571045, -0.07725363969802856, -0.11287081241607666, -0.051959097385406494, -0.11745905876159668, -0.3390735983848572, 0.22045278549194336, 0.04893767833709717, 0.08404123783111572, 0.2803584337234497, 0.3441828489303589, 0.2730553150177002, -0.43595021963119507, -0.00432276725769043, 0.38386863470077515, 0.3054842948913574, 0.22998815774917603, -0.43052589893341064, -0.3292989730834961, -0.4624287486076355, 0.35793566703796387, -0.3244737982749939, -0.26363855600357056, 0.3755769729614258, -0.16575270891189575, -0.12112313508987427, 0.4675796627998352, 0.2140955924987793, 0.20387893915176392, -0.37302690744400024, 0.4727292060852051, -0.07212257385253906, -0.18573147058486938, -0.301974356174469, -0.17692327499389648, -0.24959152936935425, -0.05586814880371094, -0.1652987003326416, 0.006533980369567871, -0.4992043972015381, -0.44914400577545166, 0.45688003301620483, 0.3283265233039856, 0.24222123622894287, 0.15711820125579834, -0.4335756301879883, -0.34209728240966797, 0.009577155113220215, 0.2813464403152466, 0.025494396686553955, 0.11808139085769653, -0.163726806640625, 0.490247905254364, -0.4218135476112366, 0.31538844108581543, -0.044313013553619385, -0.10149627923965454, -0.20411652326583862, 0.3680097460746765, -0.09006184339523315, 0.2994757294654846, -0.05685490369796753, 0.3710063099861145, -0.2407822608947754, 0.2748172879219055, 0.015597343444824219, -0.16560471057891846, 0.06411278247833252, 0.24087917804718018, -0.3957948684692383, 0.4885839819908142, -0.20145177841186523, 0.38555002212524414, 0.4572746157646179, 0.44050687551498413, 0.2932792901992798, -0.4930986762046814, 0.0922321081161499, -0.24258798360824585, -0.08570945262908936, -0.027553975582122803, -0.2846975326538086, -0.3044154644012451, -0.2870405912399292, 0.38481736183166504, -0.037421345710754395, 0.3590698838233948, -0.3885577321052551, 0.05485183000564575, 0.11144781112670898, -0.15358728170394897, -0.4263339638710022, -0.173780620098114, 0.4274842143058777], [0.38571566343307495, 0.15287870168685913, 0.2100939154624939, 0.47957849502563477, 0.37903571128845215, -0.2154291868209839, 0.07656246423721313, -0.3417828679084778, -0.1008375883102417, 0.3817775249481201, -0.05810326337814331, 0.021455109119415283, -0.4177848696708679, -0.04062962532043457, -0.2693060636520386, -0.3291206359863281, -0.24726176261901855, -0.4212130308151245, -0.02218186855316162, -0.49117010831832886, -0.46609359979629517, -0.4682202935218811, 0.05386620759963989, 0.26925569772720337, -0.06459790468215942, 0.23986685276031494, -0.17269867658615112, -0.35185688734054565, 0.49431556463241577, 0.19357693195343018, 0.3464512228965759, 0.22940599918365479, -0.24524444341659546, -0.39719176292419434, -0.22396141290664673, -0.16322791576385498, 0.054271399974823, -0.16403913497924805, -0.35852110385894775, -0.45471423864364624, -0.16019845008850098, 0.17466425895690918, -0.22960519790649414, -0.43460553884506226, 0.2614786624908447, 0.11536425352096558, -0.12228339910507202, 0.12730127573013306, -0.04590517282485962, 0.1515914797782898, 0.06265991926193237, -0.40818649530410767, 0.0252227783203125, -0.0137595534324646, -0.06032460927963257, 0.3379817008972168, 0.4451618194580078, -0.10831749439239502, 0.3359495997428894, -0.11163604259490967, 0.3673973083496094, 0.4059334397315979, 0.3569786548614502, 0.45951443910598755, -0.42808979749679565, 0.03783106803894043, 0.09606820344924927, 0.23247873783111572, 0.08496266603469849, 0.23890960216522217, -0.0833895206451416, -0.0038955211639404297, -0.4367050528526306, 0.3400956988334656, -0.3619656562805176, 0.3443111181259155, 0.3005900979042053, -0.3280640244483948, 0.4509481191635132, 0.46403956413269043, 0.014935672283172607, -0.19738703966140747, 0.340728223323822, 0.06421929597854614, -0.3829454183578491, 0.2932049632072449, 0.03442251682281494, -0.36680155992507935, -0.09364855289459229, 0.009782791137695312, -0.2622585892677307, 0.43800634145736694, -0.004095971584320068, 0.1243545413017273, 0.44928812980651855, 0.17705363035202026, -0.14538472890853882, 0.10600370168685913, -0.40147000551223755, 0.18876975774765015, -0.14229178428649902, -0.04316741228103638, 0.4901401996612549, 0.1328921914100647, 0.16417020559310913, 0.02988213300704956, -0.3324649930000305, -0.2262369990348816, -0.4358367919921875, 0.4899557828903198, 0.49461716413497925, -0.4676052927970886, -0.3456321358680725, -0.329353392124176, 0.0018476247787475586, -0.12257564067840576, -0.20830130577087402, 0.4206843376159668, -0.4992991089820862, -0.3190537095069885, -0.01657158136367798, -0.3452143669128418, 0.29550307989120483, 0.41310030221939087, -0.2309473752975464, -0.07900190353393555, 0.30670851469039917, -0.3523294925689697], [0.195470929145813, 0.47622519731521606, -0.18238955736160278, 0.30022192001342773, -0.3292769193649292, -0.3634108304977417, -0.10315728187561035, 0.13622146844863892, 0.046124935150146484, -0.24557173252105713, 0.461810827255249, 0.06004458665847778, -0.08291208744049072, -0.19388151168823242, 0.24694287776947021, -0.4279009699821472, -0.19512271881103516, 0.2771991491317749, 0.04943329095840454, 0.13298451900482178, -0.08736026287078857, -0.44653087854385376, 0.1916407346725464, -0.08353918790817261, 0.13049137592315674, -0.1646142601966858, -0.1352328658103943, 0.02223879098892212, -0.3395322561264038, 0.12434089183807373, 0.29698699712753296, 0.29449963569641113, 0.10236060619354248, -0.45473039150238037, 0.4759976863861084, -0.2781546115875244, -0.09463781118392944, -0.12479144334793091, 0.1397167444229126, 0.07155865430831909, 0.1510223150253296, -0.3207359313964844, 0.3892577290534973, 0.46208053827285767, 0.2034599781036377, -0.31611305475234985, 0.44161123037338257, 0.3396468758583069, -0.38791149854660034, 0.15707874298095703, 0.164295494556427, -0.4808342456817627, 0.37945306301116943, 0.13853949308395386, 0.029955387115478516, -0.478792667388916, -0.05806887149810791, 0.34391623735427856, -0.290441632270813, 0.2185729742050171, 0.4456685781478882, 0.28082942962646484, 0.42846930027008057, 0.3172786831855774, -0.32992589473724365, 0.14590966701507568, 0.1428316831588745, 0.38090234994888306, 0.4006936550140381, -0.17044281959533691, 0.410614013671875, 0.2728809714317322, -0.08006376028060913, -0.19649630784988403, -0.19652396440505981, 0.41646063327789307, -0.4617849588394165, -0.3295820355415344, 0.14532828330993652, 0.258354127407074, 0.023335635662078857, -0.3104367256164551, 0.0736922025680542, -0.04187154769897461, 0.05573010444641113, -0.36916619539260864, -0.20680522918701172, 0.04137086868286133, -0.40876835584640503, 0.42268818616867065, 0.168359637260437, 0.431790292263031, 0.2038678526878357, -0.45112144947052, 0.02823925018310547, -0.05252140760421753, 0.4057556390762329, -0.48667722940444946, -0.1575232744216919, 0.15001249313354492, 0.3745747208595276, -0.16971629858016968, 0.32127809524536133, -0.23117971420288086, -0.35977786779403687, -0.06650519371032715, -0.30043601989746094, -0.07118159532546997, 0.2791517376899719, 0.4148283004760742, 0.40234142541885376, 0.20935797691345215, 0.02841782569885254, -0.48795825242996216, 0.3778425455093384, -0.1414756178855896, 0.24154210090637207, 0.3608573079109192, -0.26716774702072144, -0.3540307283401489, -0.3714691400527954, 0.4514579772949219, -0.4991183876991272, -0.4925185441970825, 0.018523991107940674, 0.04578584432601929, 0.1516326665878296, -0.015459418296813965], [0.49190688133239746, -0.04895418882369995, 0.16773003339767456, -0.3265089988708496, -0.1714644432067871, 0.4099329710006714, -0.3908226490020752, -0.12018561363220215, -0.20418435335159302, -0.45564550161361694, 0.03129768371582031, -0.0576900839805603, -0.20207619667053223, -0.030379891395568848, -0.2787320613861084, -0.43899399042129517, -0.09412169456481934, 0.1434057354927063, 0.20481246709823608, 0.0317879319190979, -0.1916140913963318, -0.025184571743011475, -0.211189866065979, 0.11259502172470093, -0.1278669834136963, 0.3139336109161377, 0.2837170958518982, -0.04145491123199463, 0.07240086793899536, -0.21173089742660522, 0.28429603576660156, 0.40721625089645386, 0.3590471148490906, -0.42951756715774536, -0.29657357931137085, -0.022554755210876465, -0.22760671377182007, -0.20616060495376587, 0.33017945289611816, 0.35847532749176025, 0.4099346995353699, 0.36465752124786377, 0.1088528037071228, -0.019120633602142334, -0.03577566146850586, 0.08591675758361816, -0.03212857246398926, 0.20876842737197876, -0.4656788110733032, -0.09687697887420654, -0.21603089570999146, 0.2859917879104614, -0.28551316261291504, 0.421164333820343, 0.4969167709350586, -0.47981178760528564, -0.3257448077201843, -0.009294688701629639, 0.008147776126861572, -0.3787909150123596, -0.06517201662063599, -0.1203533411026001, -0.31288450956344604, -0.0011596083641052246, 0.23247063159942627, 0.01775723695755005, 0.05304592847824097, -0.4504377245903015, -0.06972450017929077, -0.06257706880569458, -0.1430356502532959, 0.2455018162727356, -0.009128272533416748, -0.04042315483093262, 0.04142385721206665, -0.12513864040374756, -0.2670409679412842, 0.4833436608314514, 0.3746270537376404, 0.20431864261627197, -0.05889713764190674, -0.12318074703216553, -0.41183990240097046, 0.2865784168243408, 0.4239124655723572, 0.2589106559753418, 0.4741710424423218, 0.278661847114563, -0.1630423665046692, 0.0602758526802063, 0.4508572220802307, 0.38221681118011475, 0.300678014755249, 0.3185064196586609, -0.05977445840835571, 0.0697946548461914, -0.37858957052230835, -0.04842489957809448, -0.3195521831512451, -0.2239621877670288, -0.23707860708236694, 0.16297852993011475, -0.4441133141517639, 0.3674105405807495, 0.34914207458496094, -0.26365822553634644, 0.4306719899177551, -0.46691495180130005, 0.2463456392288208, -0.2934841513633728, -0.02877199649810791, -0.49223828315734863, -0.37514328956604004, -0.00269240140914917, 0.17737674713134766, 0.07989054918289185, 0.13475364446640015, -0.08559006452560425, 0.4620629549026489, -0.4776681661605835, 0.2531178593635559, -0.1148558259010315, 0.13226133584976196, 0.33375221490859985, -0.32694679498672485, 0.06356292963027954, -0.337041437625885, -0.31817626953125], [0.31348830461502075, -0.3171076774597168, -0.49753791093826294, 0.43933385610580444, -0.07236391305923462, 0.004669129848480225, -0.19098889827728271, -0.3477887511253357, -0.3966537117958069, 0.3183221220970154, -0.35051584243774414, 0.4239448308944702, -0.37323176860809326, -0.42815732955932617, 0.2725873589515686, 0.03272980451583862, -0.4101330041885376, -0.005830943584442139, -0.34798479080200195, 0.4207252860069275, -0.49781501293182373, 0.4046568274497986, -0.1434982419013977, -0.3716985583305359, 0.39288389682769775, -0.3297727704048157, 0.08135366439819336, 0.35571014881134033, -0.11290037631988525, 0.38175082206726074, 0.019885003566741943, -0.22310125827789307, 0.43383491039276123, 0.4286978244781494, 0.20751744508743286, 0.1239960789680481, 0.21506643295288086, -0.09687811136245728, -0.16494959592819214, -0.45853686332702637, -0.19185316562652588, 0.24503368139266968, -0.2931717038154602, -0.4517173171043396, 0.30676668882369995, 0.2145591378211975, -0.3077964782714844, -0.13651752471923828, -0.31610673666000366, 0.32215940952301025, -0.1632598638534546, -0.3666921854019165, -0.08876800537109375, -0.1774323582649231, -0.005776405334472656, -0.3096241354942322, -0.2521445155143738, 0.1652098298072815, 0.47059983015060425, -0.02416706085205078, -0.2107377052307129, -0.16206049919128418, -0.25607001781463623, -0.36829519271850586, -0.3895779848098755, 0.4694903492927551, 0.2741032838821411, -0.04203677177429199, -0.02896660566329956, 0.4807717204093933, 0.23629504442214966, -0.4662551283836365, 0.22291499376296997, -0.09890776872634888, 0.3627251982688904, -0.18947070837020874, 0.158686101436615, -0.23282712697982788, 0.030260562896728516, -0.4752407670021057, 0.35691505670547485, 0.24101299047470093, 0.020096004009246826, -0.04619932174682617, -0.4283800721168518, -0.2228001356124878, -0.29999107122421265, -0.37593740224838257, 0.38562893867492676, 0.4886370897293091, -0.2602277398109436, -0.19028759002685547, -0.4525673985481262, -0.31959909200668335, -0.09316718578338623, -0.27030467987060547, 0.373596727848053, 0.00797569751739502, 0.20722472667694092, -0.033090412616729736, 0.466616690158844, 0.4915006160736084, -0.283336877822876, 0.21099615097045898, 0.2907145619392395, -0.07191473245620728, -0.20292580127716064, -0.21018940210342407, 0.3713105320930481, 0.48992353677749634, 0.13854962587356567, -0.3233567476272583, 0.11883270740509033, 0.1845375895500183, -0.22901040315628052, 0.4154866933822632, -0.03144925832748413, 0.48890984058380127, -0.31094884872436523, -0.14953136444091797, 0.414753794670105, 0.42851001024246216, -0.49260324239730835, 0.1061100959777832, -0.23752295970916748, -0.10966664552688599, 0.23797529935836792, 0.11514109373092651], [0.05836302042007446, 0.4902118444442749, 0.14204609394073486, -0.4284990429878235, 0.19248545169830322, 0.2689284086227417, -0.45074814558029175, 0.4654592275619507, -0.027557790279388428, 0.11615854501724243, -0.0251234769821167, 0.2248135209083557, 0.34543126821517944, 0.48536747694015503, -0.49575138092041016, -0.21942633390426636, 0.2665387988090515, 0.19356656074523926, 0.035405516624450684, 0.2971615791320801, -0.3354182243347168, -0.026200711727142334, 0.22601550817489624, 0.2482646107673645, 0.08792805671691895, 0.47204577922821045, -0.3935498595237732, -0.02906632423400879, 0.21236687898635864, -0.36386382579803467, 0.4061782956123352, -0.0740201473236084, 0.2958488464355469, -0.2888781428337097, -0.42594969272613525, 0.3970051407814026, -0.09829431772232056, 0.10875952243804932, 0.4665800929069519, -0.15613818168640137, -0.31269317865371704, -0.2913646101951599, -0.24446451663970947, 0.060625553131103516, -0.4923895001411438, 0.2971283793449402, -0.3710251450538635, -0.3039657473564148, 0.14322149753570557, 0.2020595669746399, -0.058685123920440674, 0.26824837923049927, 0.36354249715805054, -0.2688028812408447, 0.32649266719818115, -0.019114911556243896, 0.2619386911392212, -0.07431119680404663, 0.4883418679237366, 0.04866105318069458, 0.3065186142921448, 0.11063551902770996, 0.2953423857688904, -0.43216806650161743, 0.36057913303375244, 0.223038911819458, 0.4519861936569214, -0.38982439041137695, -0.22687089443206787, 0.46745944023132324, 0.13800591230392456, 0.21581554412841797, 0.3760366439819336, 0.4924437999725342, -0.4424991011619568, 0.14309096336364746, -0.1937747597694397, -0.08567589521408081, -0.279255211353302, -0.4618454575538635, 0.03080850839614868, 0.1690571904182434, -0.11726826429367065, -0.09820044040679932, 0.3449334502220154, -0.2150917649269104, 0.4860851764678955, -0.23665320873260498, -0.38295865058898926, 0.1296481490135193, -0.3906896710395813, -0.0682712197303772, -0.25241780281066895, -0.3075827956199646, 0.33924436569213867, 0.20877361297607422, 0.19762969017028809, 0.38068097829818726, 0.023106396198272705, -0.11388897895812988, -0.12053555250167847, 0.29472243785858154, -0.2611376643180847, 0.39808595180511475, -0.28239601850509644, -0.24444139003753662, -0.3752269744873047, -0.23774755001068115, 0.11687779426574707, 0.06366491317749023, 0.1954975724220276, 0.04129195213317871, -0.4974861741065979, 0.34782809019088745, -0.49023711681365967, 0.4254375696182251, -0.2063121199607849, -0.03251296281814575, -0.032660484313964844, -0.16420304775238037, -0.32171785831451416, 0.3833012580871582, -0.11353695392608643, 0.2561711072921753, -0.2789989709854126, -0.3843352198600769, -0.2686554193496704, -0.040456295013427734], [0.04287368059158325, 0.08274275064468384, 0.3175780773162842, -0.1012951135635376, 0.4193471670150757, -0.2790054678916931, -0.12331181764602661, -0.4869222640991211, 0.1529219150543213, 0.4675724506378174, 0.22159093618392944, -0.3911910653114319, 0.12761104106903076, 0.4740191102027893, -0.046428382396698, -0.21692097187042236, 0.35152357816696167, 0.2937172055244446, -0.49736422300338745, -0.13376706838607788, -0.05477112531661987, 0.20649075508117676, -0.18152767419815063, -0.195601224899292, 0.49845045804977417, -0.11095273494720459, 0.12504279613494873, 0.356589674949646, -0.0003515481948852539, 0.3066290616989136, 0.17934948205947876, 0.13892948627471924, -0.2033597230911255, 0.23808979988098145, 0.3270599842071533, -0.24681377410888672, -0.4334115982055664, -0.18956148624420166, 0.03510880470275879, -0.3647449016571045, -0.2567119002342224, -0.4772273898124695, -0.23107540607452393, -0.3260077238082886, 0.16975712776184082, -0.004735052585601807, 0.18844503164291382, 0.19690608978271484, -0.04540044069290161, 0.2248154878616333, -0.15068751573562622, -0.3219485282897949, 0.42416346073150635, 0.48753970861434937, -0.369046688079834, 0.05103147029876709, 0.46751856803894043, -0.4815714359283447, -0.09212321043014526, -0.18337130546569824, -0.048648715019226074, -0.48790717124938965, -0.4367390275001526, -0.4310137629508972, -0.27729982137680054, -0.1711680293083191, -0.15836870670318604, 0.366665244102478, -0.1544603705406189, 0.2855084538459778, 0.20657265186309814, 0.46098607778549194, 0.005285859107971191, 0.03492081165313721, -0.3436533212661743, 0.07784062623977661, 0.0910307765007019, -0.3195033669471741, 0.24501025676727295, -0.4433148503303528, -0.2842952013015747, -0.47315847873687744, -0.41984057426452637, -0.16441673040390015, -0.06911897659301758, 0.35995155572891235, -0.4890586733818054, 0.11859416961669922, -0.09004342555999756, -0.38030779361724854, -0.024591803550720215, -0.21396613121032715, 0.026552557945251465, -0.21745538711547852, 0.3287367820739746, 0.0878329873085022, -0.0504876971244812, -0.4754553437232971, -0.20680171251296997, 0.49548661708831787, 0.385009765625, -0.15322285890579224, -0.25008612871170044, -0.48681575059890747, -0.07247042655944824, -0.0013083219528198242, 0.2972385883331299, 0.16819173097610474, -0.20323920249938965, -0.39366990327835083, 0.24396860599517822, 0.3660240173339844, 0.3387324810028076, 0.4742007255554199, 0.360564649105072, 0.3361307382583618, 0.3850005269050598, -0.30880486965179443, -0.44780588150024414, 0.20317810773849487, 0.12785983085632324, -0.14578062295913696, -0.3550992012023926, 0.11177778244018555, -0.26562434434890747, -0.10682809352874756, -0.18725067377090454, -0.09918588399887085], [-0.41149306297302246, -0.047267138957977295, 0.3236725926399231, -0.11277925968170166, -0.3992035388946533, -0.36837518215179443, -0.3215670585632324, -0.047551751136779785, -0.16145414113998413, -0.36969685554504395, 0.0678524374961853, 0.23194706439971924, -0.18421292304992676, 0.01467210054397583, 0.12040841579437256, -0.2007749080657959, -0.11889529228210449, 0.03135281801223755, -0.18916213512420654, -0.35386383533477783, -0.029376089572906494, -0.020784318447113037, 0.3574202060699463, -0.12176144123077393, 0.37560880184173584, 0.17752593755722046, 0.17731988430023193, -0.47213608026504517, 0.38902121782302856, -0.07978314161300659, -0.2440299391746521, 0.04541492462158203, -0.3291699290275574, 0.303288996219635, 0.1781739592552185, -0.06427663564682007, 0.2313365936279297, 0.12370729446411133, -0.40241116285324097, -0.41969239711761475, -0.12458556890487671, -0.03983265161514282, -0.29396122694015503, 0.35703152418136597, -0.43852901458740234, -0.10977011919021606, -0.03220480680465698, -0.22764796018600464, 0.344047486782074, 0.15603488683700562, -0.1695525050163269, -0.19668859243392944, 0.03566700220108032, 0.35631024837493896, 0.4809194803237915, 0.0011351704597473145, 0.3657216429710388, -0.02858632802963257, 0.05331230163574219, 0.17311632633209229, 0.05835247039794922, -0.024109363555908203, 0.44221770763397217, -0.3894374370574951, 0.04797101020812988, -0.03738665580749512, -0.37831252813339233, 0.08376163244247437, -0.4466938376426697, -0.03315013647079468, 0.3209359645843506, 0.4633793830871582, 0.11155951023101807, 0.3741869330406189, 0.12555813789367676, 0.14830589294433594, 0.3055829405784607, -0.2090741991996765, -0.1581496000289917, -0.36823827028274536, -0.10598886013031006, 0.2592464089393616, 0.4688645005226135, 0.06400394439697266, 0.2716614603996277, -0.07786804437637329, -0.23031014204025269, -0.04349863529205322, -0.32122790813446045, -0.24658572673797607, -0.05154979228973389, -0.13657021522521973, -0.021060824394226074, 0.01658809185028076, 0.08990210294723511, 0.4386800527572632, 0.48540639877319336, 0.04104578495025635, -0.4410211443901062, -0.31334447860717773, 0.04208791255950928, 0.050652384757995605, 0.1808685064315796, 0.007899940013885498, -0.10142040252685547, -0.31658971309661865, 0.4032253623008728, 0.44646257162094116, -0.403627872467041, -0.27048635482788086, 0.16089820861816406, -0.43017327785491943, -0.1676672101020813, -0.3950358033180237, 0.037701964378356934, 0.4327964782714844, 0.21199989318847656, 0.30964726209640503, 0.3040820360183716, 0.3922595977783203, 0.4657333493232727, 0.33405154943466187, -0.16246795654296875, -0.44894689321517944, -0.007507801055908203, 0.43146276473999023, 0.4221529960632324, 0.48823362588882446]], "hidden_weights": [[-0.4569680094718933, 0.2127634882926941, -0.4381546974182129, -0.42739003896713257, 0.2786925435066223, 0.26720064878463745, -0.25579649209976196, 0.34873855113983154, 0.1282646656036377, -0.0794609785079956, -0.18661707639694214, -0.05068314075469971, -0.18436288833618164, 0.4727831482887268, 0.3645135760307312, -0.2022477388381958, 0.17513322830200195, -0.28594011068344116, 0.017150819301605225, 0.41080933809280396, 0.03567695617675781, -0.39552342891693115, 0.496099591255188, 0.17747706174850464, -0.37015998363494873, -0.11791223287582397, 0.2594379782676697, -0.11839562654495239, -0.13116586208343506, -0.15464210510253906, -0.486471951007843, -0.04297441244125366, 0.4096676707267761, 0.017395615577697754, -0.21354705095291138, 0.04797005653381348, -0.08022356033325195, -0.16212034225463867, -0.2572159171104431, 0.050667643547058105, -0.4147966504096985, -0.0387149453163147, -0.07737898826599121, 0.02808558940887451, 0.3147679567337036, 0.37913787364959717, -0.20646452903747559, 0.25107342004776, -0.09814155101776123, 0.34387606382369995, -0.15633857250213623, -0.19441074132919312, -0.3569353222846985, -0.13480478525161743, -0.11292648315429688, -0.4324968457221985, -0.07524675130844116, 0.24039191007614136, 0.20026850700378418, 0.05040210485458374, 0.11830025911331177, -0.43936049938201904, 0.451570987701416, 0.3173195719718933], [0.02248305082321167, 0.4922163486480713, 0.16226130723953247, 0.05332690477371216, -0.1771741509437561, 0.056126534938812256, -0.0816425085067749, -0.39595645666122437, -0.12632155418395996, -0.05693018436431885, -0.4660884141921997, -0.18733811378479004, 0.46761906147003174, 0.21150273084640503, 0.42419183254241943, -0.47955965995788574, 0.08821344375610352, 0.3891722559928894, 0.19021260738372803, 0.41787779331207275, -0.31536996364593506, 0.4132876992225647, 0.16204839944839478, -0.08022618293762207, 0.45576560497283936, 0.22196978330612183, -0.46768832206726074, -0.05599743127822876, -0.1891021728515625, 0.01998591423034668, -0.40875744819641113, -0.24838542938232422, -0.4488663077354431, 0.3645954132080078, -0.35541629791259766, 0.22900772094726562, 0.16395306587219238, -0.206157386302948, -0.44417470693588257, 0.3021317720413208, -0.10266590118408203, 0.3715353012084961, 0.2037702202796936, 0.33431142568588257, 0.31414544582366943, 0.21383428573608398, -0.2047508955001831, -0.36972230672836304, -0.18298238515853882, 0.35464727878570557, -0.1593378782272339, 0.4767775535583496, 0.21920722723007202, 0.4278711676597595, 0.04019409418106079, -0.0022107362747192383, 0.2962203621864319, -0.04528003931045532, 0.047634243965148926, 0.1573525071144104, 0.20725387334823608, -0.16234034299850464, -0.08279746770858765, -0.4997084140777588], [0.21443194150924683, -0.12108278274536133, 0.2630641460418701, -0.039920151233673096, 0.4485478401184082, -0.38860559463500977, -0.18397974967956543, 0.2385859489440918, 0.12487441301345825, -0.21915268898010254, -0.022888004779815674, -0.29225146770477295, -0.4043165445327759, -0.40244197845458984, -0.48161184787750244, 0.26093578338623047, 0.32137441635131836, -0.4429072141647339, -0.24317383766174316, -0.2679717540740967, -0.02912461757659912, 0.29715102910995483, -0.3214377164840698, 0.15878164768218994, -0.30491822957992554, -0.4933260679244995, -0.10832422971725464, 0.0047727227210998535, -0.4566422700881958, 0.18070685863494873, -0.1939549446105957, -0.11222660541534424, -0.007995247840881348, -0.307550847530365, 0.47704803943634033, 0.4010393023490906, 0.09563064575195312, -0.1822025179862976, 0.11690843105316162, -0.04526937007904053, 0.3397653102874756, 0.11381226778030396, -0.3801586627960205, -0.04754519462585449, 0.494900643825531, 0.18941009044647217, 0.11338603496551514, -0.04593390226364136, -0.1545712947845459, 0.2781146764755249, 0.11919790506362915, -0.32547539472579956, -0.4960240125656128, -0.13283371925354004, -0.21208679676055908, 0.3102600574493408, -0.2915945053100586, -0.3848429322242737, -0.2992314100265503, 0.26040834188461304, 0.39558136463165283, 0.14268457889556885, -0.4869344234466553, -0.14828366041183472], [0.44760268926620483, 0.03188586235046387, -0.2078421711921692, -0.28472524881362915, -0.21211940050125122, -0.36661356687545776, -0.052017390727996826, 0.3866335153579712, -0.15103644132614136, 0.0880730152130127, 0.3967687487602234, 0.311889111995697, -0.13134324550628662, 0.2678900957107544, -0.25886666774749756, -0.477294385433197, 0.09448051452636719, -0.4749181866645813, 0.31596827507019043, 0.15776938199996948, 0.21094924211502075, 0.20229774713516235, -0.2536788582801819, -0.32733553647994995, 0.27847015857696533, -0.23131000995635986, 0.4834921360015869, 0.4089304804801941, 0.41222846508026123, -0.34672170877456665, 0.09951823949813843, 0.0692148208618164, -0.43820810317993164, 0.1828942894935608, 0.028453826904296875, -0.41361063718795776, -0.10957765579223633, 0.07498764991760254, -0.13661378622055054, -0.2916772961616516, -0.18110746145248413, 0.03885430097579956, -0.21688532829284668, -0.026388943195343018, 0.21135282516479492, -0.3487773537635803, 0.22419685125350952, -0.021602988243103027, 0.11817151308059692, 0.34731948375701904, 0.0234641432762146, -0.3700218200683594, -0.2893787622451782, -0.15170985460281372, -0.10511863231658936, 0.48423612117767334, 0.01283496618270874, -0.02730536460876465, -0.4581100344657898, -0.1376185417175293, -0.38477057218551636, -0.013154029846191406, 0.30949628353118896, 0.2824901342391968], [0.2231643795967102, -0.10449451208114624, -0.08873069286346436, 0.2403077483177185, 0.4081498980522156, 0.05422866344451904, 0.20133769512176514, -0.35747700929641724, -0.4357914328575134, -0.14373958110809326, 0.3779919147491455, 0.2947767376899719, -0.4734650254249573, -0.37127798795700073, 0.2631097435951233, -0.08960026502609253, -0.14974373579025269, -0.3284943103790283, 0.08172607421875, -0.4341609477996826, -0.35646092891693115, 0.2857006788253784, 0.029472529888153076, -0.2647450566291809, -0.2364831566810608, -0.349575400352478, -0.45589202642440796, -0.26457858085632324, -0.006076931953430176, 0.3085503578186035, 0.24070614576339722, 0.06987416744232178, 0.26446962356567383, -0.34859931468963623, -0.3887115716934204, 0.4865579605102539, -0.3838154673576355, 0.14868253469467163, 0.26045823097229004, -0.12169462442398071, 0.42904728651046753, 0.33857858180999756, 0.06439429521560669, -0.09833031892776489, -0.160999596118927, -0.18611109256744385, 0.23874825239181519, -0.2996642589569092, 0.15047943592071533, -0.18423646688461304, 0.43118196725845337, 0.49847352504730225, -0.4139004945755005, 0.18548345565795898, -0.3196799159049988, 0.46503210067749023, 0.4714529514312744, -0.17282253503799438, -0.36804693937301636, 0.387789249420166, 0.38635122776031494, -0.2554563283920288, -0.1784314513206482, 0.009188354015350342], [0.14810723066329956, -0.29476630687713623, -0.290727436542511, 0.29229336977005005, -0.085254967212677, 0.07448816299438477, -0.1375846266746521, 0.3018641471862793, -0.03620427846908569, -0.441097617149353, 0.47960519790649414, 0.09298539161682129, -0.004900097846984863, -0.23421937227249146, -0.49820780754089355, -0.48897629976272583, 0.0893784761428833, 0.21960210800170898, -0.4976123571395874, 0.3402366042137146, -0.2595241069793701, 0.24970942735671997, -0.17262333631515503, -0.2746294140815735, -0.425609290599823, 0.44966012239456177, 0.1827029585838318, -0.15117144584655762, -0.4253978729248047, -0.11885321140289307, -0.4678083658218384, 0.2905668616294861, -0.30325180292129517, -0.4459633231163025, -0.20440632104873657, 0.3101942539215088, -0.3813554644584656, 0.4833109378814697, 0.0015750527381896973, -0.059668123722076416, 0.49289804697036743, -0.29249244928359985, 0.08258366584777832, 0.09998321533203125, 0.12272757291793823, 0.3340928554534912, -0.4655519127845764, -0.3997490406036377, -0.08870995044708252, 0.28165775537490845, -0.3556286096572876, -0.47414618730545044, -0.21049779653549194, 0.12665081024169922, 0.11301928758621216, 0.14714348316192627, -0.2582569718360901, -0.13253837823867798, -0.39579588174819946, -0.3617311120033264, 0.20313024520874023, -0.031282663345336914, -0.4000816345214844, -0.08884543180465698], [0.22284871339797974, -0.0747867226600647, 0.017997026443481445, 0.411099374294281, 0.2714095115661621, -0.41927433013916016, -0.338644802570343, 0.4640558362007141, -0.2786966562271118, 0.24503403902053833, -0.4124024510383606, -0.24573057889938354, -0.01929938793182373, -0.33688443899154663, 0.25852376222610474, 0.49100494384765625, -0.4145868420600891, -0.07540309429168701, 0.45224982500076294, 0.366783082485199, -0.21059095859527588, -0.4840499758720398, 0.02004861831665039, -0.12152361869812012, -0.21182596683502197, 0.0902675986289978, 0.4950326085090637, 0.24175244569778442, 0.007449686527252197, 0.19303816556930542, -0.4741325378417969, -0.3141065835952759, 0.41942209005355835, 0.13591015338897705, 0.21327489614486694, 0.10736870765686035, -0.16525280475616455, 0.2512059807777405, 0.3026682138442993, -0.3362826108932495, -0.3231353759765625, -0.39825743436813354, 0.33453071117401123, -0.39708930253982544, 0.11750912666320801, 0.20249336957931519, -0.16159725189208984, -0.400346040725708, -0.07427453994750977, 0.3116363286972046, 0.3783875107765198, 0.3390687108039856, -0.29741495847702026, 0.42847704887390137, -0.3161624073982239, -0.463260293006897, -0.02515774965286255, -0.461098849773407, -0.20475053787231445, -0.24933356046676636, -0.22201818227767944, 0.20803582668304443, -0.22051310539245605, 0.2413884997367859], [-0.026618778705596924, 0.19052577018737793, -0.28826195001602173, 0.3959594964981079, -0.42967700958251953, 0.04283595085144043, 0.17380857467651367, -0.015294194221496582, -0.42151135206222534, 0.37114202976226807, -0.16135120391845703, 0.4754652976989746, -0.00011998414993286133, 0.08184981346130371, 0.11359238624572754, 0.12437069416046143, -0.12076807022094727, -0.34671467542648315, -0.30887001752853394, -0.09876692295074463, 0.2985568046569824, -0.37897950410842896, -0.0037673115730285645, -0.062308311462402344, -0.04684215784072876, -0.1472998857498169, 0.3379210829734802, 0.4923015832901001, -0.11131143569946289, -0.1900196671485901, -0.09154373407363892, 0.39783036708831787, 0.27698636054992676, 0.18294471502304077, 0.35060906410217285, -0.009928584098815918, -0.25662827491760254, 0.055104196071624756, -0.4484061598777771, -0.45091909170150757, 0.021177351474761963, 0.052586138248443604, -0.49797940254211426, -0.29161155223846436, -0.3855661153793335, -0.44897037744522095, 0.42341184616088867, 0.05302315950393677, 0.23861896991729736, -0.3750157952308655, 0.008370935916900635, 0.01170724630355835, -0.04489690065383911, -0.10311007499694824, 0.4266732931137085, 0.14367151260375977, -0.020780563354492188, 0.020178914070129395, -0.23870933055877686, 0.4350452423095703, -0.2332141399383545, -0.0013214945793151855, 0.402710497379303, -0.07049202919006348], [0.2826470732688904, 0.16421210765838623, -0.023127615451812744, -0.04859280586242676, 0.4019315838813782, -0.3830462098121643, -0.2817639708518982, 0.24681919813156128, 0.42959803342819214, 0.026224255561828613, 0.18026584386825562, -0.4254058599472046, 0.15778815746307373, 0.2453693151473999, 0.2786751985549927, -0.3105847239494324, 0.4330098628997803, -0.15853726863861084, -0.16897916793823242, -0.31379711627960205, 0.2654969096183777, -0.45264244079589844, -0.39310067892074585, -0.4674834609031677, 0.3893016576766968, 0.0627521276473999, -0.490930438041687, -0.4632558226585388, 0.14730751514434814, 0.014729738235473633, -0.18541324138641357, 0.1928359866142273, -0.26658982038497925, 0.40744107961654663, -0.0896877646446228, 0.21649467945098877, -0.028936386108398438, 0.3223634362220764, 0.07915693521499634, -0.28499358892440796, -0.13156914710998535, 0.32219141721725464, -0.3012319803237915, -0.10245537757873535, 0.2532745599746704, -0.11017143726348877, -0.1255512833595276, 0.49839621782302856, -0.11415725946426392, -0.17461979389190674, 0.05440092086791992, 0.38182133436203003, 0.05866515636444092, 0.35095930099487305, 0.2454293966293335, -0.2469283938407898, -0.1170271635055542, -0.4243115186691284, 0.433269202709198, -0.06645411252975464, -0.4586946368217468, -0.15792065858840942, -0.4622141718864441, 0.345708966255188], [-0.2708547115325928, -0.441520631313324, -0.27763795852661133, -0.3470660448074341, 0.1902303695678711, -0.1717914342880249, -0.43173038959503174, 0.16724324226379395, 0.12482762336730957, 0.38099998235702515, 0.2351885437965393, 0.4446175694465637, -0.3740817904472351, -0.4447021484375, -0.31973928213119507, 0.030596673488616943, 0.12903809547424316, 0.4689781665802002, 0.4435204267501831, 0.0033940672874450684, 0.09167814254760742, -0.2088034749031067, -0.43125230073928833, 0.37986940145492554, -0.48085737228393555, -0.429351270198822, 0.005573451519012451, 0.4808201789855957, -0.3829328417778015, -0.47575968503952026, 0.4588277339935303, -0.18063867092132568, -0.18373483419418335, 0.3983314037322998, -0.16468679904937744, -0.22437208890914917, 0.18532437086105347, 0.3733822703361511, -0.30963921546936035, 0.19063740968704224, -0.44589293003082275, -0.4410867691040039, 0.10919225215911865, 0.33947932720184326, -0.39024752378463745, -0.4919806122779846, -0.24919307231903076, -0.321058988571167, -0.3594083786010742, -0.25675928592681885, 0.4237064719200134, -0.01346433162689209, 0.41667330265045166, -0.16684073209762573, -0.4652109742164612, -0.3144683241844177, 0.1313791275024414, 0.07322502136230469, 0.19138240814208984, -0.14537787437438965, -0.3013538718223572, -0.439627468585968, 0.22250044345855713, 0.030813753604888916], [-0.4420068860054016, 0.016540884971618652, 0.07682293653488159, -0.13292008638381958, 0.14546895027160645, 0.40000468492507935, 0.3652964234352112, 0.2006298303604126, -0.2136927843093872, -0.12097012996673584, -0.012211143970489502, 0.12834858894348145, -0.013137459754943848, -0.4295545816421509, 0.010405182838439941, -0.2095775008201599, 0.20155417919158936, -0.02204996347427368, -0.49453067779541016, -0.3802759647369385, -0.01395338773727417, 0.03464031219482422, -0.35022222995758057, 0.44718921184539795, 0.019898533821105957, -0.2336980104446411, -0.34387290477752686, -0.11218410730361938, -0.25768786668777466, 0.10564178228378296, 0.15784472227096558, -0.26603972911834717, -0.1807997226715088, -0.3336760401725769, -0.0341913104057312, 0.12101399898529053, 0.0015676021575927734, 0.23369169235229492, -0.4637663960456848, 0.4693750739097595, -0.10696029663085938, 0.2588897943496704, -0.35696297883987427, 0.013375580310821533, -0.01929652690887451, -0.49943071603775024, 0.25147825479507446, -0.13691836595535278, 0.21748501062393188, 0.09936732053756714, -0.3368932604789734, -0.3211544156074524, -0.13024401664733887, -0.4714932441711426, -0.3869395852088928, -0.3219532370567322, -0.1565205454826355, 0.40725183486938477, 0.2803792953491211, -0.06565052270889282, -0.24897795915603638, 0.10056078433990479, -0.23375564813613892, -0.36831772327423096], [-0.06021064519882202, -0.03496098518371582, -0.4639017581939697, -0.19268518686294556, -0.4140729308128357, 0.3234935998916626, 0.04066735506057739, -0.32086706161499023, -0.23753678798675537, 0.3298051357269287, 0.44606512784957886, -0.026508450508117676, 0.3628184199333191, -0.49524545669555664, 0.20707809925079346, 0.4292275309562683, 0.1130528450012207, -0.04160815477371216, 0.14066463708877563, -0.26820439100265503, -0.1351330280303955, 0.26941728591918945, -0.17890626192092896, -0.20223277807235718, -0.08793520927429199, 0.21174728870391846, 0.15722310543060303, -0.021403253078460693, 0.41045302152633667, 0.3848077654838562, -0.008322715759277344, 0.37533509731292725, 0.1467493176460266, -0.4303598999977112, 0.3047856092453003, 0.12455171346664429, 0.2718002200126648, 0.3788912892341614, -0.23399728536605835, 0.3177798390388489, 0.3682839274406433, 0.3197512626647949, 0.16046875715255737, -0.24454182386398315, -0.3662334680557251, -0.0029529333114624023, 0.08675891160964966, -0.45965665578842163, -0.2559305429458618, 0.1417902112007141, 0.28000181913375854, 0.059016644954681396, 0.0062757134437561035, 0.3806722164154053, -0.3191172480583191, -0.013984382152557373, -0.2935671806335449, 0.23126834630966187, 0.43069398403167725, 0.3610987663269043, 0.35572999715805054, -0.003178238868713379, -0.1468636393547058, -0.06186723709106445], [0.09823673963546753, 0.35613858699798584, -0.15926754474639893, -0.3405812382698059, -0.44785284996032715, -0.031893134117126465, -0.23783403635025024, 0.33941197395324707, 0.08415412902832031, -0.4267628788948059, -0.07044154405593872, -0.16083335876464844, 0.10899412631988525, -0.02219247817993164, 0.027794301509857178, -0.09268784523010254, 0.30633825063705444, 0.16321682929992676, 0.4648734927177429, 0.3838661313056946, -0.1965290904045105, -0.0286405086517334, 0.028711795806884766, 0.38910341262817383, -0.027505159378051758, -0.1323918104171753, -0.1621052622795105, 0.18301963806152344, 0.23713213205337524, -0.429928719997406, 0.2792152166366577, 0.2913496494293213, -0.19299942255020142, 0.22835367918014526, 0.08562314510345459, -0.1486208438873291, -0.13284724950790405, 0.005632877349853516, 0.0058901309967041016, 0.09082359075546265, 0.42654281854629517, -0.06275284290313721, 0.15299087762832642, -0.32251662015914917, 0.30393344163894653, 0.043345868587493896, 0.16891354322433472, 0.10690820217132568, 0.012405633926391602, 0.09945821762084961, -0.11682039499282837, 0.19400668144226074, -0.10956281423568726, -0.05903446674346924, 0.157001793384552, -0.1870099902153015, -0.33429133892059326, -0.28382545709609985, -0.2588304281234741, -0.34897148609161377, -0.38403308391571045, 0.1427149772644043, 0.4530991315841675, -0.4340898394584656], [-0.02122628688812256, -0.2866939902305603, -0.4135352373123169, -0.30527037382125854, -0.48994553089141846, 0.4695897698402405, -0.30398738384246826, -0.2865602970123291, 0.03555870056152344, 0.18244165182113647, 0.3729233145713806, 0.2965538501739502, 0.350793719291687, 0.4024701714515686, 0.005475103855133057, -0.008021831512451172, -0.40884143114089966, -0.2665989398956299, -0.2532145380973816, 0.24091804027557373, -0.0007616281509399414, 0.13412511348724365, 0.2478082776069641, 0.40110790729522705, -0.47754257917404175, 0.3134424090385437, -0.4889099597930908, -0.1251503825187683, -0.18990367650985718, -0.19537866115570068, 0.32605916261672974, 0.20449614524841309, -0.21538883447647095, -0.2864738702774048, 0.10505121946334839, 0.4619307518005371, -0.42812132835388184, 0.3928018808364868, -0.32810384035110474, 0.22810322046279907, -0.31820428371429443, 0.04769390821456909, 0.34202224016189575, 0.1479473114013672, -0.42121219635009766, 0.16393929719924927, -0.19411110877990723, 0.3341953754425049, -0.2533576488494873, -0.30608779191970825, 0.23767924308776855, 0.29533839225769043, 0.18815529346466064, 0.07461190223693848, -0.06720227003097534, 0.2552335262298584, 0.06250643730163574, -0.05922722816467285, -0.12999045848846436, 0.48115265369415283, 0.4171684980392456, 0.25813716650009155, -0.4245888590812683, 0.3315434455871582], [0.3136586546897888, -0.09880572557449341, -0.2593081593513489, -0.46894168853759766, 0.48182958364486694, 0.4811614751815796, -0.320279061794281, -0.19089096784591675, 0.29318928718566895, 0.27709561586380005, -0.34274017810821533, -0.14077383279800415, -0.13734668493270874, -0.17426800727844238, -0.46147310733795166, -0.26355844736099243, -0.17663484811782837, 0.2970362901687622, 0.35782986879348755, 0.3871791958808899, -0.2771134376525879, -0.09485602378845215, -0.14268279075622559, -0.4844292402267456, -0.2977229952812195, -0.10661548376083374, -0.2374945878982544, 0.24142694473266602, -0.357441782951355, 0.006833195686340332, -0.0034662485122680664, -0.20811766386032104, -0.4645797610282898, -0.17559295892715454, 0.4530767798423767, 0.17809981107711792, 0.331376850605011, 0.30694741010665894, -0.4548298716545105, 0.12615537643432617, -0.2780752182006836, 0.1727122664451599, 0.34188026189804077, 0.2970619201660156, -0.24065333604812622, 0.37658435106277466, 0.25063449144363403, 0.44639354944229126, -0.02531147003173828, -0.08876639604568481, 0.27451127767562866, -0.41399651765823364, 0.030606329441070557, 0.3543970584869385, -0.30379897356033325, -0.22888684272766113, -0.05134105682373047, 0.38297581672668457, 0.1467573046684265, -0.17136222124099731, -0.07748669385910034, 0.10417324304580688, 0.1546878218650818, -0.0500408411026001], [-0.016742825508117676, -0.28842031955718994, -0.1008952260017395, 0.270540714263916, -0.3455883264541626, 0.3764512538909912, 0.009520411491394043, -0.13251179456710815, 0.09634745121002197, -0.4618377089500427, 0.08477717638015747, -0.2061421275138855, 0.039372026920318604, -0.42942148447036743, -0.27808094024658203, -0.17654240131378174, -0.36632293462753296, -0.39305752515792847, 0.07334113121032715, -0.2388574481010437, 0.21780037879943848, -0.34985268115997314, 0.3228881359100342, 0.1250132918357849, 0.021964550018310547, -0.16740548610687256, -0.18010157346725464, 0.35976266860961914, -0.11755150556564331, -0.11503851413726807, 0.011129975318908691, 0.29133135080337524, -0.16204357147216797, -0.4320497512817383, 0.041172146797180176, -0.07682663202285767, -0.31038898229599, 0.3717082142829895, -0.36033934354782104, -0.3142831325531006, -0.042276203632354736, 0.46955376863479614, 0.22784805297851562, 0.31634968519210815, 0.03667336702346802, -0.2725679278373718, -0.41795283555984497, -0.2558029294013977, -0.2132648229598999, 0.2821310758590698, 0.23347389698028564, 0.2240113615989685, 0.11318796873092651, 0.29094845056533813, 0.09921663999557495, -0.00929039716720581, 0.3222593069076538, 0.4038042426109314, -0.07672280073165894, -0.0873761773109436, -0.3572816252708435, -0.49503618478775024, -0.3545839190483093, 0.2784154415130615], [0.0778091549873352, 0.15923410654067993, 0.1415230631828308, -0.12189209461212158, -0.48644953966140747, -0.08364176750183105, -0.1448730230331421, 0.3271518349647522, -0.4892849326133728, 0.15122270584106445, -0.29075872898101807, -0.32714295387268066, 0.4375118017196655, -0.48528236150741577, -0.3667129874229431, -0.3070998191833496, 0.054545044898986816, -0.2506195306777954, -0.39422523975372314, -0.1487937569618225, 0.488633930683136, -0.3470690846443176, -0.30168241262435913, 0.21590620279312134, 0.18573832511901855, -0.4510621428489685, 0.32101935148239136, -0.2993451952934265, 0.1502857804298401, -0.49917900562286377, 0.3427780866622925, 0.4441065788269043, 0.2558823823928833, -0.41429072618484497, 0.4518435597419739, 0.3026818633079529, 0.1044626235961914, 0.09502768516540527, -0.30654871463775635, 0.12042891979217529, -0.2801738381385803, -0.009507894515991211, -0.4548923373222351, 0.2384340763092041, 0.1552606225013733, -0.19616788625717163, 0.013882219791412354, 0.4377952814102173, -0.26047998666763306, -0.1315787434577942, 0.2791532874107361, -0.4433518648147583, 0.24051249027252197, 0.19729554653167725, 0.17921936511993408, -0.1633855700492859, -0.03454470634460449, 0.14512115716934204, -0.026507019996643066, 0.06636184453964233, 0.1624588966369629, 0.015106439590454102, -0.3180617094039917, -0.17853599786758423], [0.41159993410110474, 0.35738247632980347, -0.23349815607070923, -0.09799903631210327, 0.0990675687789917, 0.007338404655456543, -0.1532595157623291, 0.36010992527008057, -0.20989394187927246, -0.30923032760620117, 0.360601544380188, -0.3951312303543091, 0.09076321125030518, -0.010423660278320312, 0.01731771230697632, -0.23500454425811768, 0.4446137547492981, 0.2851570248603821, -0.15548032522201538, 0.28826385736465454, -0.2276773452758789, 0.43677234649658203, 0.0251883864402771, 0.316261887550354, -0.4771735668182373, 0.4065977931022644, -0.2679755687713623, 0.0018467307090759277, 0.3163451552391052, -0.17591190338134766, -0.16885769367218018, -0.2713438868522644, 0.4450961947441101, 0.3187427520751953, 0.3335045576095581, -0.2524769902229309, 0.29236310720443726, -0.18865728378295898, 0.2722492218017578, -0.42502152919769287, 0.4468405246734619, 0.4570726156234741, 0.379280686378479, 0.4912463426589966, 0.17746317386627197, -0.054063260555267334, 0.24330836534500122, 0.2094133496284485, 0.15849357843399048, -0.39549386501312256, 0.13855266571044922, 0.15838736295700073, -0.1674475073814392, -0.2209174633026123, 0.10346841812133789, -0.023822546005249023, -0.057460248470306396, -0.3648821711540222, -0.22245335578918457, 0.4948585033416748, 0.10049736499786377, 0.3691682815551758, 0.03226137161254883, 0.03243410587310791], [0.29929059743881226, -0.14665693044662476, -0.15605050325393677, 0.1974862813949585, -0.3958207964897156, -0.3728613257408142, 0.31908684968948364, 0.37476593255996704, 0.4564516544342041, 0.4084632396697998, 0.49691861867904663, -0.31908082962036133, -0.15394830703735352, -0.4346572756767273, 0.3827974796295166, 0.031003892421722412, 0.0504949688911438, -0.4555855393409729, -0.1694374680519104, -0.4803146719932556, 0.12887847423553467, -0.49679726362228394, -0.3625866770744324, -0.12261790037155151, 0.316478967666626, -0.23925286531448364, -0.0573657751083374, 0.4099275469779968, 0.04438471794128418, -0.40637195110321045, 0.30413150787353516, -0.4438718557357788, -0.22312533855438232, -0.37301671504974365, -0.18735897541046143, -0.300798237323761, 0.2044234275817871, 0.04273253679275513, -0.21847504377365112, 0.26981890201568604, -0.3696490526199341, 0.3536558747291565, -0.3983626961708069, 0.4974988102912903, -0.0028882622718811035, 0.3994561433792114, 0.1557520031929016, 0.41666775941848755, 0.3950473666191101, -0.0797615647315979, 0.2408580183982849, 0.37157583236694336, 0.3762052059173584, 0.45479440689086914, 0.4664663076400757, -0.3056942820549011, -0.3839145302772522, 0.452678382396698, 0.2913227677345276, 0.10670113563537598, -0.3132326602935791, 0.12175047397613525, 0.3315742611885071, 0.14683693647384644], [0.45097148418426514, 0.0789254903793335, -0.1730489730834961, 0.03015536069869995, -0.4829186797142029, 0.2792459726333618, -0.22718346118927002, 0.21649104356765747, -0.11514633893966675, 0.20666980743408203, 0.002868473529815674, -0.3745640516281128, 0.31945228576660156, -0.247930645942688, -0.4397886395454407, -0.28781843185424805, -0.07220542430877686, -0.1577056646347046, -0.26994919776916504, 0.1294599175453186, 0.1368681788444519, -0.39835482835769653, -0.189750075340271, -0.26063817739486694, -0.4447293281555176, -0.16200828552246094, -0.0805361270904541, -0.43583136796951294, 0.07237076759338379, 0.21910911798477173, -0.2502400875091553, 0.2002406120300293, 0.14865314960479736, 0.39024895429611206, -0.24808508157730103, -0.08121812343597412, -0.3190929889678955, -0.4111514091491699, -0.31542062759399414, 0.4668928384780884, 0.091461181640625, 0.16549307107925415, -0.34647536277770996, -0.26317334175109863, 0.1284947395324707, -0.22916311025619507, 0.4380286931991577, 0.2786175608634949, -0.44013309478759766, -0.2538022994995117, 0.012512147426605225, -0.21791714429855347, -0.12541437149047852, 0.14317810535430908, 0.3635128140449524, 0.3257752060890198, 0.477947473526001, 0.2491626739501953, -0.09283304214477539, -0.2809154987335205, 0.32833045721054077, 0.28571414947509766, -0.18889129161834717, -0.3525114059448242], [-0.32448649406433105, -0.10732156038284302, -0.3861241936683655, 0.23596936464309692, 0.1881810426712036, -0.49926382303237915, -0.10057806968688965, -0.264984130859375, 0.317078173160553, 0.3899177312850952, -0.0316084623336792, 0.038521766662597656, -0.49310243129730225, 0.4050503969192505, 0.085357666015625, -0.3096923232078552, 0.08434057235717773, 0.19550257921218872, -0.38583654165267944, -0.1481938362121582, -0.15051889419555664, 0.30370479822158813, -0.11472314596176147, -0.29687756299972534, 0.18097573518753052, 0.38129496574401855, 0.1355968713760376, -0.11666262149810791, 0.2973949909210205, 0.08391410112380981, 0.1486709713935852, -0.15820997953414917, 0.29786044359207153, -0.05141693353652954, -0.15950852632522583, 0.21187657117843628, -0.05677485466003418, -0.09527075290679932, -0.26693642139434814, -0.44988328218460083, 0.01574796438217163, -0.4740828275680542, 0.3934561014175415, 0.021765410900115967, 0.388067364692688, -0.44047611951828003, -0.03537088632583618, -0.4294885993003845, 0.30924302339553833, -0.18581700325012207, 0.2640953063964844, -0.1412813663482666, -0.19332683086395264, 0.4434426426887512, -0.2613350749015808, 0.21808671951293945, -0.40541553497314453, -0.4209911823272705, 0.3294503092765808, -0.21348190307617188, -0.20549547672271729, -0.28656911849975586, -0.035413146018981934, 0.3215485215187073], [-0.28469932079315186, 0.22105389833450317, -0.08810830116271973, 0.23685574531555176, -0.3119308352470398, 0.22174543142318726, 0.3067309260368347, -0.48847657442092896, 0.264786958694458, -0.47855859994888306, 0.3718165159225464, -0.3069157004356384, 0.3738865852355957, -0.3313032388687134, 0.30700260400772095, -0.14499109983444214, 0.24773633480072021, 0.26589423418045044, -0.08686643838882446, -0.37379777431488037, -0.18919557332992554, 0.10530084371566772, 0.38885021209716797, 0.027187466621398926, -0.29975855350494385, 0.3467378616333008, -0.03316140174865723, -0.3701556921005249, -0.2573127746582031, 0.000652611255645752, -0.3432859778404236, 0.11410653591156006, 0.016305267810821533, -0.46260207891464233, 0.3726203441619873, 0.04833096265792847, -0.3585583567619324, 0.15671920776367188, 0.4094265103340149, -0.36090368032455444, -0.21494877338409424, 0.0001653432846069336, 0.4725651144981384, -0.3495895266532898, 0.35450154542922974, -0.30554890632629395, -0.3850818872451782, 0.12786823511123657, -0.21422463655471802, 0.0309486985206604, -0.3054274320602417, -0.24475592374801636, 0.4927067756652832, 0.060612618923187256, -0.22544997930526733, 0.3884999752044678, -0.09683406352996826, -0.25739461183547974, -0.09884798526763916, -0.35239893198013306, 0.17433804273605347, 0.2565005421638489, 0.15647083520889282, -0.1386204957962036], [-0.45284491777420044, 0.3088507056236267, -0.16418558359146118, -0.4711613059043884, -0.051187336444854736, 0.01676785945892334, -0.05990588665008545, 0.49353712797164917, 0.16180074214935303, -0.11392319202423096, -0.15652930736541748, -0.37415117025375366, -0.18946945667266846, 0.10645133256912231, -0.17609429359436035, -0.13716578483581543, 0.22041434049606323, 0.10447847843170166, -0.39172762632369995, -0.37717896699905396, 0.20069772005081177, -0.24239379167556763, 0.4353039264678955, 0.4964901804924011, -0.09790098667144775, -0.30717194080352783, -0.038023531436920166, -0.3829309344291687, 0.1307719349861145, 0.051779747009277344, -0.0601726770401001, 0.40271544456481934, 0.07439416646957397, -0.4901779294013977, -0.0525394082069397, -0.19756627082824707, 0.2646414637565613, -0.04997217655181885, 0.05291014909744263, -0.2688802480697632, -0.46598029136657715, 0.3522936701774597, -0.1592341661453247, 0.3716740608215332, 0.27018433809280396, -0.39575129747390747, -0.4758010506629944, -0.07783722877502441, -0.18321174383163452, -0.16220951080322266, 0.16818273067474365, -0.2830093502998352, 0.2692263722419739, 0.38501912355422974, -0.3605313301086426, 0.18635421991348267, -0.14761441946029663, -0.25569355487823486, 0.1707128882408142, -0.15319103002548218, 0.24585789442062378, 0.03913813829421997, 0.44526147842407227, 0.28203994035720825], [0.2826088070869446, 0.29624539613723755, 0.2587736248970032, 0.11779218912124634, -0.1813983917236328, 0.2645210027694702, 0.2651188373565674, -0.36710143089294434, -0.43072211742401123, -0.40991878509521484, 0.11068969964981079, -0.03388381004333496, 0.10365396738052368, 0.3247244358062744, 0.48835259675979614, 0.16341209411621094, -0.27388274669647217, -0.4845055937767029, 0.12854725122451782, -0.4843801259994507, -0.48674261569976807, 0.19823729991912842, 0.4913593530654907, 0.4799824357032776, -0.002118527889251709, -0.4795640707015991, 0.06922465562820435, -0.13578087091445923, 0.15539813041687012, -0.44454634189605713, -0.0825495719909668, -0.27202844619750977, 0.20083975791931152, 0.32915759086608887, -0.46677130460739136, -0.4122278690338135, -0.4896591305732727, 0.267971932888031, -0.17865508794784546, -0.15646040439605713, 0.17879754304885864, 0.3972319960594177, -0.07255297899246216, -0.47415071725845337, -0.1260460615158081, -0.11813175678253174, 0.32501131296157837, 0.007943034172058105, -0.30184853076934814, -0.2973235845565796, -0.31497013568878174, -0.0240553617477417, -0.04701751470565796, 0.32812249660491943, -0.3472287058830261, 0.34461510181427, -0.2722352147102356, -0.09522140026092529, 0.0692596435546875, 0.4019232392311096, -0.07642441987991333, -0.30882424116134644, -0.17157584428787231, -0.2688462734222412], [0.2680630683898926, 0.2335156798362732, -0.2671663761138916, -0.38389527797698975, -0.1408599615097046, -0.325178861618042, -0.02396005392074585, 0.3402864933013916, 0.3441896438598633, -0.21563982963562012, 0.14398306608200073, -0.22758609056472778, 0.13372719287872314, -0.07449501752853394, -0.022280573844909668, -0.4423161745071411, -0.005673885345458984, 0.2519892454147339, 0.35480064153671265, -0.48835164308547974, -0.3865559697151184, -0.4715641736984253, 0.14669674634933472, -0.49920517206192017, 0.16764599084854126, 0.1609959602355957, -0.47801607847213745, 0.279274582862854, -0.1049267053604126, -0.3102268576622009, 0.22280585765838623, 0.004028916358947754, -0.45932918787002563, 0.30846327543258667, 0.14966720342636108, -0.1355080008506775, 0.14996016025543213, 0.0026390552520751953, -0.47391241788864136, -0.3451552987098694, -0.15907889604568481, 0.3588162660598755, 0.26627039909362793, -0.40153050422668457, 0.06582236289978027, -0.015018224716186523, 0.37933212518692017, -0.13439077138900757, 0.39939165115356445, -0.36563146114349365, -0.3908553123474121, 0.47033268213272095, 0.003815591335296631, 0.44459712505340576, -0.15375447273254395, -0.34874409437179565, -0.17348450422286987, -0.2850295901298523, 0.3184579014778137, -0.3062213659286499, -0.3821832537651062, 0.1210361123085022, 0.2503589987754822, 0.23861217498779297], [-0.07680714130401611, 0.4489036798477173, -0.46552205085754395, 0.49086564779281616, 0.2987014055252075, 0.16534501314163208, -0.27580469846725464, -0.1986297369003296, 0.4698563814163208, 0.3117395043373108, 0.16786932945251465, 0.44785159826278687, -0.2207006812095642, -0.17135047912597656, 0.03895801305770874, -0.13636451959609985, -0.4550561308860779, 0.37306493520736694, 0.13317620754241943, 0.43021678924560547, 0.2328108549118042, 0.17451751232147217, 0.21973687410354614, -0.27474749088287354, -0.31399834156036377, -0.07040613889694214, -0.015897035598754883, 0.48901617527008057, -0.2213456630706787, -0.2785511612892151, -0.3217533230781555, 0.12629103660583496, 0.15044939517974854, 0.4034584164619446, 0.12310165166854858, -0.01879286766052246, 0.31255942583084106, 0.06214725971221924, 0.4293593168258667, -0.21116089820861816, 0.04358929395675659, 0.2116129994392395, 0.4305272102355957, -0.37865692377090454, 0.10676330327987671, 0.33432966470718384, 0.26119035482406616, 0.1926124095916748, -0.3704763650894165, 0.34878432750701904, 0.05531418323516846, -0.09974241256713867, 0.3166917562484741, 0.0949774980545044, 0.43871158361434937, -0.4302797317504883, 0.20892328023910522, -0.4860934019088745, -0.29708611965179443, 0.31573522090911865, 0.12824714183807373, -0.2377709150314331, 0.109829843044281, 0.34495866298675537], [0.22263199090957642, 0.458631694316864, -0.1650843620300293, -0.467521607875824, -0.2475765347480774, -0.1831517219543457, -0.4294116497039795, 0.447923481464386, 0.21370166540145874, -0.46903109550476074, 0.1919885277748108, -0.02521538734436035, 0.1606607437133789, 0.30254530906677246, -0.4324941635131836, 0.3371654152870178, -0.17550861835479736, 0.2651258707046509, 0.1861201524734497, -0.025501728057861328, 0.3584417700767517, 0.41320914030075073, 0.30957794189453125, 0.4096113443374634, -0.2908918857574463, -0.09686100482940674, 0.06773680448532104, 0.1079903244972229, 0.27243566513061523, -0.11608785390853882, 0.29693448543548584, -0.2807868719100952, -0.2877657413482666, -0.13783305883407593, -0.10234874486923218, -0.42352956533432007, 0.2681571841239929, -0.49713796377182007, -0.4355383515357971, -0.21834170818328857, 0.09775829315185547, -0.17704981565475464, -0.43121957778930664, -0.37714290618896484, 0.4057577848434448, 0.22372078895568848, 0.19361573457717896, -0.3851965069770813, -0.46192193031311035, -0.29770827293395996, 0.011999785900115967, -0.1746537685394287, -0.49969351291656494, -0.18277782201766968, 0.47228968143463135, -0.12968522310256958, 0.16388380527496338, -0.2758498191833496, 0.37690699100494385, -0.13370215892791748, 0.3482901453971863, 0.19073641300201416, -0.39783143997192383, 0.41713058948516846], [-0.2517983317375183, 0.04020369052886963, 0.22875338792800903, 0.20357346534729004, 0.42357051372528076, 0.22311633825302124, 0.00494992733001709, -0.4171020984649658, -0.37991899251937866, 0.056046128273010254, -0.017756998538970947, 0.17949342727661133, -0.11620301008224487, -0.2695387601852417, -0.07132863998413086, 0.3579433560371399, 0.20209366083145142, -0.17795532941818237, -0.2855767607688904, 0.284382700920105, 0.28071707487106323, -0.23555296659469604, -0.45677417516708374, -0.4184095859527588, -0.05856543779373169, 0.06848245859146118, 0.12518614530563354, -0.1523764729499817, 0.3679456114768982, 0.20854073762893677, 0.24834954738616943, 0.4286124110221863, -0.362035870552063, -0.39861464500427246, -0.035861849784851074, 0.275932252407074, -0.4808371663093567, 0.1874006986618042, -0.12722069025039673, -0.1708114743232727, 0.09114629030227661, 0.4899338483810425, -0.06852799654006958, -0.32719528675079346, -0.07454979419708252, -0.4099271893501282, 3.522634506225586e-05, 0.3870561122894287, -0.31457239389419556, 0.35535722970962524, 0.07999396324157715, 0.094715416431427, 0.4174692630767822, 0.05522048473358154, 0.21013116836547852, -0.20628535747528076, -0.4199783205986023, -0.21269410848617554, -0.0817573070526123, 0.3436642289161682, 0.05668330192565918, -0.20968341827392578, 0.264481782913208, -0.024499475955963135], [-0.49882441759109497, 0.42409366369247437, 0.2094542384147644, 0.24441909790039062, -0.12553757429122925, -0.35583966970443726, 0.28769248723983765, 0.363788902759552, -0.06920963525772095, 0.47115182876586914, -0.08520883321762085, 0.26461082696914673, 0.15222495794296265, 0.26168227195739746, 0.11130291223526001, 0.2595982551574707, -0.3445013761520386, -0.4102358818054199, -0.30308985710144043, 0.15085476636886597, 0.17053043842315674, 0.26989537477493286, -0.10365474224090576, 0.48240673542022705, -0.12664473056793213, 0.3213343024253845, -0.37954097986221313, -0.23337626457214355, 0.0008371472358703613, 0.1349121332168579, 0.029855012893676758, 0.15182530879974365, -0.3422046899795532, -0.31447523832321167, 0.1718965768814087, 0.02824246883392334, 0.05387777090072632, -0.49499350786209106, 0.29144662618637085, 0.34660857915878296, -0.41718626022338867, -0.290319561958313, -0.15266716480255127, -0.4971995949745178, -0.4424797296524048, -0.004429519176483154, -0.038353025913238525, 0.26512622833251953, -0.06345474720001221, 0.14372485876083374, -0.19938457012176514, 0.11530375480651855, -0.02998286485671997, 0.46987950801849365, -0.39122575521469116, -0.40483373403549194, 0.4937503933906555, 0.3232450485229492, 0.43860721588134766, -0.10326391458511353, 0.20079255104064941, -0.1085236668586731, 0.3402138948440552, -0.2437695860862732], [0.3835057020187378, -0.03603100776672363, -0.22992920875549316, -0.27834099531173706, -0.0749216079711914, 0.10802954435348511, 0.04137176275253296, -0.38708674907684326, -0.40035074949264526, 0.14276254177093506, 0.16106045246124268, -0.11665433645248413, -0.3796164393424988, 0.07756912708282471, 0.3060779571533203, 0.06094157695770264, 0.3512932062149048, -0.48357295989990234, -0.35480260848999023, -0.042466163635253906, 0.45562803745269775, 0.46918195486068726, -0.04273998737335205, 0.24314439296722412, -0.395487904548645, 0.45810467004776, -0.22060465812683105, 0.33393043279647827, 0.03568077087402344, -0.3656381368637085, 0.41157227754592896, -0.22310787439346313, -0.4547167420387268, 0.19061344861984253, -0.4884294271469116, 0.4627531170845032, -0.23182708024978638, 0.3096391558647156, -0.16159558296203613, 0.32009565830230713, 0.25806725025177, -0.05597090721130371, -0.3170779347419739, -0.27704739570617676, -0.4242134094238281, 0.036225199699401855, 0.4968920350074768, -0.03209203481674194, -0.4648723006248474, 0.20415925979614258, 0.4518423080444336, -0.10277193784713745, 0.004641294479370117, -0.4531232714653015, 0.025304794311523438, -0.2987293004989624, 0.33253782987594604, 0.017266511917114258, 0.3142412304878235, -0.1972690224647522, 0.32252681255340576, 0.2598145604133606, 0.12254232168197632, 0.22009998559951782], [0.09043121337890625, 0.10172182321548462, -0.07628870010375977, 0.4530397653579712, -0.08421891927719116, -0.12259554862976074, -0.4132864475250244, 0.2918807864189148, 0.34149348735809326, 0.039320528507232666, 0.24269485473632812, 0.11067020893096924, -0.4154278635978699, 0.4444972276687622, 0.021229922771453857, 0.2783935070037842, -0.04053527116775513, 0.3176311254501343, -0.4266456365585327, -0.36172664165496826, 0.3380100131034851, 0.09867310523986816, -0.12023067474365234, -0.38023096323013306, 0.2406831979751587, -0.03658103942871094, -0.1172037124633789, 0.05549323558807373, 0.3606950640678406, -0.35508430004119873, -0.18821239471435547, 0.2960500717163086, 0.16189342737197876, 0.25151246786117554, 0.20851612091064453, 0.012649238109588623, 0.3407869338989258, -0.20414036512374878, 0.46373021602630615, 0.041583359241485596, 0.10680550336837769, 0.17820662260055542, -0.2483314871788025, 0.11730736494064331, -0.3510388135910034, -0.279063880443573, -0.016938745975494385, 0.20023196935653687, 0.1353633999824524, -0.4600008726119995, 0.2871124744415283, -0.3279128670692444, 0.11782681941986084, -0.08562833070755005, -0.4985344409942627, 0.19867068529129028, -0.2831317186355591, 0.30818724632263184, -0.3253936171531677, -0.23344039916992188, -0.34905558824539185, 0.04199153184890747, 0.0013294816017150879, -0.41291141510009766], [0.344257116317749, 0.2169608473777771, 0.18837475776672363, -0.15238040685653687, 0.3328944444656372, -0.31051456928253174, 0.2829744815826416, 0.2699078321456909, 0.17693161964416504, -0.21348315477371216, 0.18421918153762817, 0.27560657262802124, 0.11009812355041504, 0.07122975587844849, 0.3556863069534302, -0.25738662481307983, 0.4847033619880676, -0.48260724544525146, 0.23984044790267944, -0.4231329560279846, 0.48638612031936646, 0.13550299406051636, 0.06353199481964111, -0.008983194828033447, 0.22446966171264648, 0.42875874042510986, -0.075775146484375, -0.48122280836105347, 0.3074384331703186, -0.1656821370124817, 0.17213046550750732, -0.3033178448677063, 0.14101898670196533, 0.2172645926475525, -0.17115485668182373, -0.4471229314804077, -0.4074207544326782, 0.18386411666870117, 0.48333895206451416, -0.46015089750289917, 0.1985265016555786, 0.12566155195236206, -0.36299705505371094, 0.16450440883636475, 0.1451743245124817, 0.3115239143371582, 0.3652559518814087, 0.12064868211746216, 0.23242908716201782, 0.40390127897262573, 0.2826842665672302, 0.3984510898590088, 0.09207028150558472, 0.29225611686706543, 0.3406081199645996, 0.3995022177696228, 0.013463437557220459, 0.11705487966537476, 0.3944735527038574, -0.22079575061798096, -0.0640377402305603, 0.16511672735214233, 0.21980249881744385, 0.3252195715904236], [0.26161932945251465, -0.013889849185943604, -0.29497575759887695, 0.3997151851654053, 0.3341583013534546, -0.42724502086639404, 0.287719190120697, -0.060881733894348145, 0.2559143304824829, 0.17085659503936768, 0.09400331974029541, -0.11992967128753662, 0.07352584600448608, 0.23794329166412354, 0.3438073992729187, 0.049007534980773926, 0.11051923036575317, 0.03573495149612427, -0.46992069482803345, 0.40549802780151367, -0.01236027479171753, 0.2682548761367798, 0.20075541734695435, 0.0020903944969177246, 0.03133893013000488, -0.10881215333938599, -0.33241069316864014, 0.02459549903869629, 0.37096530199050903, -0.4988117814064026, -0.3092913031578064, 0.05777961015701294, -0.046781718730926514, 0.08760911226272583, -0.33336466550827026, 0.21557432413101196, -0.4823111295700073, -0.12739497423171997, 0.1599317193031311, 0.16704857349395752, 0.22870367765426636, 0.40688806772232056, -0.17990458011627197, -0.03228449821472168, -0.4325374960899353, 0.2858615517616272, -0.08843183517456055, 0.05292785167694092, 0.042386651039123535, 0.04709947109222412, -0.38962841033935547, -0.162187397480011, -0.27793192863464355, 0.3041362762451172, 0.3721778392791748, 0.21436166763305664, 0.29470062255859375, 0.2733781337738037, 0.14890319108963013, -0.2921014428138733, 0.07248926162719727, -0.033230721950531006, -0.13111156225204468, -0.26085031032562256], [-0.4059264063835144, 0.1912781000137329, 0.16715049743652344, -0.1036110520362854, 0.07952558994293213, 0.3638095259666443, -0.21143794059753418, 0.14065313339233398, -0.32193005084991455, -0.4386199116706848, 0.4571830630302429, -0.26972496509552, 0.35864758491516113, 0.4389827251434326, -0.02628380060195923, -0.057875096797943115, 0.33312731981277466, -0.34430354833602905, -0.21674907207489014, 0.27342289686203003, 0.14377367496490479, 0.3742602467536926, 0.03730762004852295, 0.004772543907165527, 0.19561147689819336, -0.3884621858596802, 0.2969195246696472, -0.10840201377868652, -0.09271019697189331, -0.4726274609565735, -0.0036814212799072266, 0.06861013174057007, 0.10957390069961548, -0.3745439648628235, 0.18110054731369019, -0.4861946702003479, 0.1498340368270874, 0.3165602684020996, -0.3871772885322571, 0.38208436965942383, 0.21383744478225708, -0.11622655391693115, 0.17331737279891968, -0.21330755949020386, -0.3114345669746399, -0.07320290803909302, -0.0697554349899292, -0.23531842231750488, 0.1083412766456604, 0.4563993215560913, -0.020015418529510498, -0.11221170425415039, 0.15788787603378296, -0.02584177255630493, -0.04947429895401001, -0.2360817790031433, 0.3063899278640747, 0.45778322219848633, -0.17777246236801147, 0.23994147777557373, -0.36692601442337036, -0.17829781770706177, 0.07986485958099365, 0.11760950088500977], [-0.26575976610183716, 0.04139906167984009, 0.15945392847061157, 0.11208736896514893, -0.2517332434654236, 0.20926958322525024, 0.2558637261390686, 0.3679167628288269, -0.20715636014938354, 0.41916078329086304, -0.4573916792869568, 0.2762719988822937, 0.09012877941131592, -0.4186975955963135, -0.3563575744628906, -0.3966131806373596, -0.1263411045074463, -0.008001744747161865, 0.45611292123794556, 0.07855749130249023, 0.2832403779029846, 0.4623854160308838, 0.2621995210647583, -0.04930955171585083, -0.3546646237373352, -0.03508096933364868, 0.39046937227249146, -0.20457857847213745, -0.3254484534263611, 0.25068199634552, -0.3514183759689331, 0.2563883066177368, -0.18863314390182495, -0.22425228357315063, -0.4011507034301758, -0.0987502932548523, 0.07258689403533936, 0.36579006910324097, 0.43209707736968994, 0.4800787568092346, 0.09880185127258301, -0.43385398387908936, -0.4573169946670532, 0.25633496046066284, -0.13729238510131836, -0.28943580389022827, -0.14643442630767822, 0.24470371007919312, -0.47751033306121826, -0.29707396030426025, -0.19875073432922363, 0.24062705039978027, 0.10224044322967529, -0.21860206127166748, 0.12240266799926758, -0.4917885661125183, 0.11310338973999023, 0.09269338846206665, -0.23894470930099487, 0.16062217950820923, -0.1895717978477478, -0.3564762473106384, 0.030096769332885742, 0.02923595905303955], [0.007630050182342529, 0.009436249732971191, 0.18522077798843384, -0.06340742111206055, -0.04265427589416504, -0.029675006866455078, -0.35721319913864136, -0.41808050870895386, 0.34681737422943115, -0.31228727102279663, 0.2741163372993469, -0.4203271269798279, 0.1794639229774475, -0.4526931047439575, -0.06547945737838745, 0.032290875911712646, -0.2852551341056824, 0.01746392250061035, -0.07403826713562012, 0.4592972993850708, 0.0418553352355957, -0.40753495693206787, 0.08654344081878662, -0.022284269332885742, -0.2876635789871216, 0.2737639546394348, 0.4694996476173401, -0.09584814310073853, -0.08530664443969727, 0.33835428953170776, 0.1575629711151123, 0.1964312195777893, -0.03343170881271362, -0.17394495010375977, -0.023716211318969727, 0.32070499658584595, -0.37829941511154175, 0.11608827114105225, -0.22486835718154907, -0.08957672119140625, -0.13732188940048218, 0.2367238998413086, -0.06936931610107422, 0.3224361538887024, 0.4048677086830139, 0.2650957703590393, 0.19061988592147827, -0.3531154990196228, 0.09844183921813965, 0.3219703435897827, -0.10407352447509766, 0.3509657382965088, -0.47996610403060913, -0.35423195362091064, 0.11320626735687256, -0.18847870826721191, 0.2809768319129944, 0.3947226405143738, 0.36818844079971313, -0.3330497145652771, -0.20422369241714478, -0.44792360067367554, -0.037319302558898926, -0.395688533782959], [0.21961432695388794, -0.035830676555633545, 0.3258419632911682, 0.014805793762207031, 0.39513278007507324, 0.2010594606399536, 0.37862616777420044, -0.2590457797050476, -0.39766979217529297, -0.49770158529281616, 0.07826507091522217, 0.31084173917770386, 0.2688879370689392, 0.02085590362548828, -0.13813281059265137, 0.06931352615356445, -0.4520168900489807, -0.08712434768676758, 0.03558379411697388, 0.22134345769882202, -0.34465235471725464, 0.3605654835700989, 0.48507314920425415, -0.3800831437110901, 0.4811973571777344, -0.06573253870010376, -0.03721123933792114, -0.07909899950027466, -0.13777124881744385, 0.34958285093307495, -0.25209248065948486, 0.450680673122406, -0.10555070638656616, 0.2725406885147095, -0.4901964068412781, -0.09612458944320679, -0.26797592639923096, -0.07078057527542114, 0.3702627420425415, 0.4403974413871765, -0.36398011445999146, 0.2970884442329407, 0.101063072681427, 0.39863502979278564, -0.40254563093185425, 0.07229971885681152, -0.12404221296310425, -0.27384471893310547, -0.3241930603981018, 0.4602527618408203, 0.1929958462715149, 0.24832844734191895, 0.2762916088104248, 0.4955351948738098, 0.284443199634552, -0.20794761180877686, 0.060242414474487305, 0.03913414478302002, 0.10181188583374023, 0.10885363817214966, -0.2779683470726013, 0.07578921318054199, -0.09258633852005005, -0.378744900226593], [0.24899935722351074, -0.15102893114089966, -0.10426872968673706, 0.06434738636016846, 0.02691483497619629, -0.09200012683868408, 0.22815823554992676, 0.3761194348335266, 0.20012205839157104, 0.05899161100387573, -0.07487982511520386, -0.02987891435623169, -0.42620813846588135, 0.3438863158226013, -0.2876051068305969, -0.12026947736740112, -0.39957815408706665, -0.35325300693511963, -0.07652992010116577, 0.2901964783668518, 0.047512173652648926, 0.48964810371398926, -0.4380344748497009, 0.4998987913131714, 0.1726786494255066, -0.13099336624145508, 0.38078248500823975, -0.2467411756515503, 0.218455970287323, 0.4498862028121948, 0.4597843885421753, -0.35554027557373047, -0.07624059915542603, -0.1554531455039978, -0.34394848346710205, -0.35769498348236084, -0.1295861005783081, -0.004420816898345947, 0.1678541898727417, 0.12442046403884888, -0.07275974750518799, -0.48043352365493774, 0.14604508876800537, 0.49510329961776733, -0.35106295347213745, -0.1337938904762268, 0.35822778940200806, -0.051313698291778564, 0.467018723487854, 0.14593809843063354, 0.04800969362258911, 0.07745260000228882, 0.2749234437942505, 0.23716974258422852, -0.4430747628211975, -0.22204846143722534, -0.02744835615158081, -0.2512897849082947, -0.34904325008392334, 0.17548316717147827, 0.1217767596244812, -0.1591860055923462, -0.42576611042022705, 0.2846238613128662], [0.28031325340270996, -0.4333036541938782, -0.16657215356826782, 0.1560903787612915, 0.18387287855148315, -0.13334107398986816, 0.17121177911758423, 0.020183265209197998, -0.22350049018859863, 0.49336761236190796, 0.2668212056159973, 0.35749930143356323, -0.35293543338775635, 0.26571935415267944, -0.23578095436096191, -0.2329539656639099, 0.4020780920982361, -0.37949806451797485, 0.10980486869812012, 0.4358476996421814, 0.3223921060562134, -0.2858507037162781, -0.17265182733535767, 0.04608607292175293, -0.4866218566894531, -0.3325996398925781, 0.2635148763656616, 0.027656853199005127, -0.1913025975227356, 0.0072443485260009766, 0.2527849078178406, 0.4460490345954895, 0.21013224124908447, -0.4462820291519165, -0.3890042304992676, 0.1908157467842102, 0.35251808166503906, 0.25689369440078735, 0.17458266019821167, 0.3281267285346985, 0.09423840045928955, 0.4066086411476135, -0.08384847640991211, -0.4321603775024414, -0.10973519086837769, 0.2613319754600525, -0.400532066822052, 0.20375043153762817, -0.26186639070510864, 0.3309529423713684, -0.04772824048995972, 0.278309166431427, -0.11248123645782471, -0.323431134223938, 0.34596604108810425, 0.42859965562820435, -0.4964895248413086, -0.12704509496688843, -0.14323759078979492, 0.27054470777511597, -0.05257302522659302, 0.3083674907684326, -0.40628451108932495, -0.43880897760391235], [-0.208970308303833, -0.4707413911819458, -0.2574149966239929, -0.07079023122787476, 0.11207354068756104, -0.4732897877693176, 0.1073574423789978, 0.09393692016601562, -0.17259609699249268, -0.09948939085006714, 0.3514125943183899, 0.3847593665122986, 0.37523168325424194, -0.030852854251861572, -0.37006741762161255, -0.15080547332763672, 0.4721648693084717, 0.39879310131073, -0.1504698395729065, 0.3180825114250183, 0.21134841442108154, 0.47842854261398315, -0.17358875274658203, 0.14886999130249023, -0.49349623918533325, -0.47755002975463867, 0.05795788764953613, 0.2912665009498596, -0.408719539642334, 0.2705555558204651, -0.43694251775741577, -0.4904314875602722, 0.32998305559158325, 0.08909034729003906, 0.174280047416687, 0.4746543765068054, -0.2896984815597534, 0.1017257571220398, 0.3158067464828491, 0.26758426427841187, -0.11036652326583862, -0.3861156105995178, -0.2883068919181824, -0.2862392067909241, 0.41735225915908813, -0.055210888385772705, 0.40101158618927, 0.20193582773208618, 0.14599722623825073, -0.44858503341674805, 