{"input_weights": [[0.3238593339920044, -0.5665057301521301, -0.2461189329624176, -0.17390918731689453, 0.017675399780273438, -0.08522999286651611, -0.024364590644836426, 0.4236055612564087, 0.41862720251083374, 0.2505340576171875, -0.015664994716644287, 0.013533055782318115, 0.310940146446228, 0.07134610414505005, -0.2284238040447235, 0.2964627742767334, 0.4053857922554016, -0.3244801163673401, -0.5305625200271606, -0.457359254360199, 0.13650310039520264, -0.28213822841644287, -0.03759068250656128, 0.26418423652648926, 0.07591480016708374, -0.34362852573394775, 0.2994793653488159, -0.3746413588523865, -0.5053631067276001, -0.34688371419906616, 0.26034802198410034, 0.19849714636802673, -0.6880710124969482, -0.10908989608287811, 0.305098295211792, -0.26500868797302246, 0.15179568529129028, 0.3229302763938904, 0.3898378014564514, 0.16060888767242432, -0.1587420254945755, -0.057463254779577255, 0.4380524158477783, 0.26356709003448486, -0.11828267574310303, -0.08817422389984131, 0.31488367915153503, -0.40564388036727905, -0.634073793888092, -0.053930461406707764, -0.2065993696451187, 0.1891966462135315, 0.05671690031886101, 0.29261136054992676, -0.217237651348114, -0.3331543505191803, -0.5798619389533997, -0.3252987861633301, 0.3064413070678711, 0.06613662838935852, -0.4700104594230652, 0.042687416076660156, 0.0669562816619873, -0.2947307229042053, 0.2989354729652405, 0.3205699324607849, 0.4137004017829895, -0.11045829951763153, -0.10788261890411377, 0.14406299591064453, -0.3199372887611389, -0.10906627774238586, 0.22750896215438843, 0.3511050343513489, -0.44197651743888855, 0.3707370162010193, -0.38809528946876526, -0.21285736560821533, -0.5108024477958679, -0.0021189451217651367, 0.32864266633987427, 0.04121624678373337, -0.05271953344345093, 0.285473108291626, -0.34877437353134155, 0.03282938897609711, 0.13428504765033722, -0.08237630128860474, 0.06364450603723526, 0.19636279344558716, 0.31974369287490845, 0.40054434537887573, -0.06566312909126282, -0.2253395915031433, -0.4536803364753723, 0.021664783358573914, -0.12038837373256683, -0.4937759041786194, -0.3131102919578552, 0.23710846900939941, -0.25693273544311523, 0.013177216053009033, -0.2503310441970825, 0.18422824144363403, -0.3871040940284729, -0.23427581787109375, -0.13268470764160156, 0.08360892534255981, 0.10637396574020386, 0.22037196159362793, -0.410819947719574, -0.3787458539009094, 0.20318818092346191, 0.025013267993927002, -0.07835918664932251, 0.1457839012145996, -0.4324435591697693, -0.2907170355319977, -0.40746384859085083, -0.1638047695159912, 0.26429855823516846, -0.5132142305374146, 0.07600212097167969, 0.056153737008571625, -0.4860473871231079, 0.04252445697784424, -0.44222891330718994, -0.24974918365478516], [0.12848307192325592, -0.3472391963005066, -0.2611338496208191, 0.2631920576095581, -0.11796040832996368, 0.4212973713874817, -0.22461140155792236, 0.43874847888946533, 0.03564995527267456, 0.320036917924881, -0.1478678584098816, 0.41904914379119873, -0.3004416823387146, -0.2829117178916931, 0.25730466842651367, 0.37595850229263306, -0.8993355631828308, -0.05908326804637909, -0.45521605014801025, 0.09447968006134033, 0.31255215406417847, -0.06335601210594177, -0.553913414478302, -0.41571640968322754, -0.1271177977323532, 0.24377840757369995, 0.00718998908996582, -0.43402907252311707, 0.04369622468948364, -0.014860473573207855, 0.22609469294548035, -0.4616483449935913, 0.2363138347864151, 0.3382795453071594, -0.09609287977218628, 0.44450294971466064, -0.09073245525360107, 0.49759912490844727, 0.037847042083740234, 0.14854568243026733, 0.32989752292633057, -0.4210372269153595, -0.26578009128570557, -0.540386438369751, -0.16457581520080566, 0.03049647808074951, 0.19458258152008057, 0.18499112129211426, -0.1113993376493454, -0.1332075595855713, -0.20542316138744354, -0.18898367881774902, -0.2028702050447464, -0.5750516653060913, 0.3684534430503845, -0.4681251049041748, -0.46827811002731323, 0.2717680037021637, 0.6532478332519531, 0.3504514694213867, 0.37977075576782227, -0.15435418486595154, -0.4841347932815552, -0.004631757736206055, 0.08203332126140594, 0.5909280180931091, -0.19652903079986572, -0.4181596040725708, -0.04930257797241211, 0.4600522518157959, 0.046665750443935394, 0.08379090577363968, -0.3128087520599365, -0.2252362221479416, 0.5994011163711548, -0.009676516056060791, 0.20372271537780762, -0.2326076477766037, 0.38412368297576904, -0.302793025970459, -0.23938429355621338, -0.1703033447265625, -0.10273623466491699, 0.41883695125579834, 0.05493966490030289, 0.4829460382461548, 0.04403483867645264, -0.45967215299606323, -0.1706448346376419, 0.421001136302948, 0.25888609886169434, 0.34616684913635254, 0.051821090281009674, 0.36075350642204285, -0.25380033254623413, 0.40571969747543335, -0.38860970735549927, -0.13344556093215942, 0.045127056539058685, -0.14064186811447144, -0.12989570200443268, 0.4038110375404358, -0.10104987025260925, 0.05172860622406006, 0.1001410186290741, -0.20081718266010284, -0.18272393941879272, -0.18492186069488525, -0.38336455821990967, 0.40836524963378906, -0.16573238372802734, 0.18068842589855194, 0.06310410797595978, -0.002172306180000305, -0.20450450479984283, 0.26350924372673035, 0.4318540096282959, -0.2167770266532898, -0.025220006704330444, 0.26653382182121277, -0.06272982060909271, 0.13614434003829956, 0.26910215616226196, -0.2805327773094177, -0.36092209815979004, -0.43211817741394043, 0.4878693222999573, -0.10917846858501434], [0.5680950284004211, 0.07631397992372513, 0.4162154197692871, 0.2138800024986267, 0.1535956859588623, -0.3596619665622711, -0.013291537761688232, -0.08260679244995117, 0.3160494565963745, 0.2429126799106598, 0.09000176191329956, -0.35554611682891846, -0.05565015971660614, -0.1857699155807495, 0.18824166059494019, -0.02047252655029297, 0.10858669877052307, 0.1248789131641388, -0.0656282901763916, 0.3860774040222168, -0.4641296863555908, 0.22623682022094727, 0.1277218610048294, -0.12321972846984863, 0.11359447240829468, -0.2369154691696167, 0.044315069913864136, -0.4451252818107605, 0.42777425050735474, 0.06343717873096466, -0.38449421525001526, -0.07488342374563217, 0.24675774574279785, 0.2976725697517395, -0.3476255238056183, -0.49160975217819214, 0.04886507987976074, -0.208939790725708, 0.2723451256752014, 0.08569785952568054, -0.4186599552631378, 0.1022348403930664, 0.03764700889587402, 0.4633011817932129, 0.4615449905395508, 0.18170465528964996, 0.20112387835979462, 0.22013795375823975, -0.49218928813934326, -0.28505343198776245, -0.021996378898620605, -0.09842078387737274, 0.42847079038619995, 0.18888872861862183, 0.5034750699996948, 0.4875200092792511, 0.378753125667572, 0.49380454421043396, 0.5812494158744812, -0.3967009484767914, -0.1254340410232544, -0.5831412672996521, -0.41942524909973145, -0.18576329946517944, -0.04255920648574829, -0.27014535665512085, 0.31135690212249756, -0.3256757855415344, -0.36320292949676514, 0.22912319004535675, -0.3766157031059265, 0.3967723846435547, 0.11892449855804443, -0.006023511290550232, -0.16314570605754852, -0.17214417457580566, 0.5631787776947021, 0.22300809621810913, -0.2511850595474243, 0.007676899433135986, 0.1826825737953186, -0.02815917134284973, 0.35473161935806274, -0.08917337656021118, 0.14141011238098145, -0.25394880771636963, 0.06264293938875198, -0.3409879505634308, -0.029458999633789062, -0.428406298160553, -0.3909326195716858, -0.02800959348678589, -0.24516132473945618, 0.007230401039123535, -0.14287477731704712, 0.5739481449127197, 0.386168897151947, 0.024873793125152588, 0.09019599854946136, -0.14541739225387573, -0.10239696502685547, -0.08926206827163696, -0.4933106303215027, -0.4672764539718628, 0.4667015075683594, -0.35429883003234863, 0.010883688926696777, -0.46794402599334717, -0.036546289920806885, 0.2221830189228058, 0.41302990913391113, 0.47354644536972046, -0.14759217202663422, -0.46218881011009216, 0.20230382680892944, 0.42610520124435425, -0.3461872637271881, 0.09378176927566528, 0.07854464650154114, -0.20675447583198547, 0.469454824924469, 0.22274434566497803, 0.01140868291258812, -0.3479309678077698, 0.21587532758712769, 0.12436326593160629, 0.3216681480407715, 0.0991772711277008], [-0.5592837929725647, 0.5931212306022644, -0.06543344259262085, -0.019681870937347412, 0.0354936420917511, 0.18277519941329956, 0.10528618097305298, -0.4438776969909668, -0.30103814601898193, 0.4790058732032776, 0.16275645792484283, 0.0015038251876831055, -0.02597200870513916, -0.01838076114654541, -0.3354704976081848, -0.03749091178178787, 0.20672518014907837, 0.3190762996673584, -0.38646399974823, -0.2135518491268158, -0.383968323469162, 0.05615931749343872, 0.14326012134552002, -0.45225709676742554, -0.38691991567611694, -0.47361451387405396, -0.44423988461494446, 0.25705575942993164, 0.06900957971811295, 0.299867182970047, -0.48577940464019775, 0.4081801772117615, -0.01772601529955864, 0.4185439348220825, -0.21306604146957397, -0.03889249265193939, -0.2735057473182678, 0.19677042961120605, 0.3581409454345703, 0.45673418045043945, -0.7185289859771729, -0.01404505968093872, -0.37515789270401, -0.04825681447982788, -0.2041161060333252, 0.10906350612640381, -0.12520474195480347, 0.022548258304595947, 0.49648380279541016, 0.48706740140914917, 0.13649362325668335, -0.5805641412734985, 0.09755384922027588, -0.5050826668739319, 0.2604125142097473, -0.24240684509277344, -0.24686434864997864, -0.18352100253105164, -0.3160147964954376, -0.17107674479484558, 0.09252005815505981, -0.08942574262619019, -0.2808838486671448, 0.5918309092521667, -0.48953163623809814, 0.15327860414981842, 0.20130890607833862, 0.2689019441604614, -0.47549349069595337, -0.1345403790473938, 0.5205332040786743, 0.28907036781311035, 0.3555193543434143, -0.4421638250350952, 0.15846022963523865, -0.29714930057525635, -0.0211065411567688, -0.11001522094011307, 0.24751392006874084, -0.23172098398208618, 0.011025547981262207, -0.31234800815582275, -0.4445210099220276, -0.09190255403518677, -0.436007559299469, 0.12174281477928162, -0.07008248567581177, 0.1694013476371765, -0.28203070163726807, 0.12611646950244904, 0.20012807846069336, 0.32998955249786377, -0.2939901053905487, 0.13796713948249817, 0.17397302389144897, -0.345366507768631, 0.02938520908355713, 0.23556041717529297, -0.26059794425964355, -0.4556769132614136, -0.2692973017692566, 0.17666053771972656, -0.20821726322174072, 0.32936230301856995, 0.16845422983169556, 0.4546056091785431, 0.22469449043273926, 0.4198152422904968, -0.11925292015075684, 0.23080530762672424, -0.2081562578678131, 0.07818937301635742, -0.7480542063713074, -0.3185877799987793, 0.17855587601661682, 0.17913204431533813, 0.3824675977230072, 0.2568768858909607, -0.42838454246520996, 0.33159807324409485, 0.029914304614067078, 0.11140701174736023, 0.23152166604995728, 0.12110209465026855, -0.33382338285446167, 0.09362936019897461, -0.17181254923343658, -0.18042044341564178], [0.05397997796535492, 0.15397831797599792, -0.25478655099868774, -0.1637858748435974, 0.277588427066803, -0.066758893430233, -0.6021343469619751, 0.24499103426933289, 0.39107316732406616, 0.375560998916626, 0.09187757968902588, -0.26787638664245605, -0.1370822787284851, 0.06114882230758667, -0.35344523191452026, -0.14822842180728912, -0.3503597378730774, 0.059863924980163574, 0.02787470817565918, 0.020624101161956787, -0.4166085720062256, 0.44743287563323975, -0.02005816623568535, -0.4605828523635864, -0.49497097730636597, 0.10109362006187439, -0.05477648973464966, -0.12350323051214218, 0.1790812611579895, 0.4143833518028259, 0.3624041974544525, -0.2135075181722641, 0.09890347719192505, -0.31214505434036255, -0.5396208167076111, 0.21632549166679382, 0.4048912525177002, -0.22967654466629028, -0.23747038841247559, 0.30383187532424927, -0.19049298763275146, 0.5370959043502808, 0.202042818069458, 0.05072483420372009, -0.49494144320487976, -0.32076072692871094, 0.34789979457855225, 0.04427337646484375, -0.4356778860092163, -0.1583200991153717, 0.04961085319519043, 0.002531111240386963, -0.010409832000732422, 0.44775259494781494, -0.09599417448043823, 0.020757555961608887, -0.3798829913139343, 0.3693861961364746, 0.3031160235404968, 0.24436965584754944, -0.12400037050247192, 0.2660454511642456, 0.25821512937545776, -0.22547784447669983, -0.38388413190841675, 0.3215981721878052, 0.24716287851333618, 0.48548975586891174, -0.45396119356155396, -0.03386145830154419, -0.48969751596450806, 0.18151453137397766, 0.3961639404296875, -0.4255306124687195, -0.5999065637588501, -0.266277015209198, -0.25921669602394104, 0.10719034075737, 0.1876671314239502, -0.024648219347000122, -0.1206575334072113, 0.20166516304016113, -0.16761022806167603, 0.07718545198440552, 0.35561591386795044, 0.4086564779281616, 0.3339390158653259, -0.1406966745853424, 0.45126616954803467, 0.5248863697052002, 0.413834810256958, -0.40504980087280273, 0.12350255250930786, -0.14841079711914062, 0.3003339171409607, 0.16249656677246094, -0.24415969848632812, 0.10542473942041397, 0.2597845792770386, -0.49122154712677, -0.28580987453460693, 0.039531342685222626, -0.11512266844511032, 0.2305293083190918, 0.2616174817085266, -0.032423242926597595, -0.31629040837287903, 0.2085934579372406, 0.12863761186599731, -0.12682953476905823, 0.015388969331979752, -0.0016755461692810059, 0.1634168028831482, -0.028707563877105713, -0.08219140768051147, -0.3993304967880249, 0.369344025850296, 0.4269861876964569, -0.4419766068458557, 0.054701268672943115, -0.13821667432785034, 0.10901153087615967, 0.19032889604568481, 0.19053012132644653, -0.229062020778656, 0.09480717033147812, -0.47991064190864563, -0.1801411509513855], [-0.04124152660369873, -0.37520837783813477, -0.5637447237968445, 0.09511721134185791, 0.18229329586029053, 0.18260905146598816, 0.42076385021209717, -0.4556283950805664, 0.473141074180603, 0.6088276505470276, -0.11708801984786987, -0.0923459529876709, -0.24394114315509796, 0.2684985101222992, -0.27559971809387207, 0.36584585905075073, 0.08408214151859283, 0.18895089626312256, 0.39595043659210205, -0.44149500131607056, 0.24991589784622192, -0.3416398763656616, 0.42292582988739014, -0.2177249789237976, -0.19361144304275513, 0.2818756103515625, -0.3730962872505188, -0.004356443881988525, 0.42503786087036133, -0.10467606782913208, -0.04708373546600342, 0.3479730486869812, 0.13440698385238647, 0.3259891867637634, -0.25400859117507935, -0.5571346282958984, 0.32740896940231323, 0.4342758357524872, -0.3062438368797302, 0.00840848684310913, -0.09116309881210327, -0.32543402910232544, 0.10444575548171997, -0.06563061475753784, 0.3848130702972412, -0.05182379484176636, 0.15515315532684326, -0.5819196701049805, 0.04547548294067383, 0.43683409690856934, 0.7003054618835449, 0.19583135843276978, -0.0470813512802124, 0.026716534048318863, 0.47647494077682495, -0.15689361095428467, -0.20888912677764893, 0.39078012108802795, -0.11526766419410706, -0.3833213448524475, 0.5746126174926758, 0.03794730827212334, 0.13991135358810425, 0.4723290205001831, 0.28934597969055176, -0.038200974464416504, 0.34970271587371826, -0.3233441710472107, 0.09359502792358398, 0.2765830159187317, -0.29065370559692383, 0.02446514368057251, -0.21866005659103394, -0.23647397756576538, 0.5670526027679443, -0.3077619671821594, 0.49295008182525635, -0.49288463592529297, 0.04352337121963501, -0.19711799919605255, 0.3866661489009857, -0.39721500873565674, 0.4594171941280365, 0.2350596934556961, 0.18263250589370728, 0.367454469203949, 0.0649261474609375, 0.22763970494270325, 0.139681875705719, 0.006154656410217285, 0.243974506855011, 0.08724707365036011, 0.4936758577823639, 0.6213854551315308, -0.036109089851379395, -0.05390286445617676, -0.3035794794559479, -0.1853421926498413, 0.10801367461681366, 0.21584956347942352, 0.04261195659637451, 0.37193596363067627, 0.03145599365234375, -0.10709226131439209, -0.13399046659469604, -0.31499892473220825, -0.32738661766052246, 0.035326361656188965, -0.3013996481895447, 0.22039955854415894, 0.1792970895767212, 0.2313295602798462, 0.04561510682106018, -0.003629326820373535, -0.0114518404006958, -0.010432600975036621, 0.4492279291152954, 0.45174700021743774, 0.18150150775909424, -0.09351378679275513, -0.19793884456157684, -0.009888112545013428, 0.06550109386444092, 0.1365298628807068, 0.2486770749092102, -0.15566952526569366, 0.17130383849143982, 0.04733206331729889], [0.14460575580596924, -0.2456032633781433, -0.14363834261894226, 0.2202216237783432, 0.1732628345489502, 0.45922011137008667, -0.10801219940185547, 0.7237326502799988, -0.3173424005508423, -0.3288249969482422, 0.06881701946258545, 0.19929563999176025, -0.12890857458114624, -0.03127282112836838, -0.15921348333358765, -0.44327110052108765, 0.018326640129089355, -0.01174837350845337, 0.3810793161392212, -0.221125066280365, 0.4500313997268677, -0.31497669219970703, -0.2598159909248352, 0.09781497716903687, 0.03696244955062866, 0.1347639560699463, -0.18983078002929688, -0.0034885406494140625, 0.46023470163345337, -0.44081419706344604, -0.1809239238500595, 0.3574730157852173, -0.4281173050403595, -0.39659368991851807, 0.44553714990615845, 0.18956226110458374, -0.11801990866661072, 0.2005542516708374, 0.2869225740432739, 0.23404736816883087, -0.18560703098773956, -0.028105096891522408, -0.4946403503417969, -0.21111640334129333, -0.6213666796684265, -0.10262614488601685, -0.38805967569351196, 0.008845038712024689, -0.49808236956596375, 0.20674532651901245, 0.2293938398361206, 0.33993101119995117, 0.45597147941589355, 0.30988559126853943, 0.43818697333335876, 0.390319287776947, 0.03877028822898865, 0.35253626108169556, 0.25232285261154175, 0.1490272581577301, -0.05278700590133667, -0.26390254497528076, 0.17930705845355988, 0.24470090866088867, -0.22709470987319946, 0.3256942629814148, 0.435363233089447, 0.10281574726104736, -0.05188626050949097, -0.3677840828895569, -0.09326094388961792, 0.43713265657424927, -0.4843476414680481, 0.4683881402015686, -0.24091710150241852, 0.4015170931816101, 0.07195931673049927, -0.3632773160934448, 0.19027021527290344, -0.14076030254364014, 0.034142643213272095, -0.2047017216682434, -0.2445138692855835, 0.05647188425064087, -0.2665155529975891, 0.34463822841644287, -0.30068570375442505, 0.3969869017601013, 0.01005333662033081, -0.3874325752258301, -0.14637404680252075, -0.3746371269226074, -0.33682864904403687, 0.15248054265975952, -0.3049302101135254, 0.10071486234664917, 0.4767954349517822, 0.351962149143219, 0.07264336198568344, 0.19836783409118652, 0.5266969203948975, -0.3862268626689911, 0.39296114444732666, -0.004180729389190674, -0.036605000495910645, 0.033371731638908386, -0.08847377449274063, 0.2518457770347595, 0.3335648775100708, 0.22262126207351685, -0.46665582060813904, 0.22049374878406525, 0.25079238414764404, 0.1729182004928589, 0.47913020849227905, -0.15572954714298248, -0.3916408121585846, 0.010568559169769287, -0.025554567575454712, -0.2701236605644226, 0.5834473967552185, -0.008140742778778076, -0.030873000621795654, 0.05320468544960022, -0.37623172998428345, 0.09046374261379242, 0.4442759156227112, -0.04223275184631348], [0.36077189445495605, 0.19005323946475983, -0.16254198551177979, 0.06268230080604553, -0.07552437484264374, 0.02712234854698181, -0.36663973331451416, 0.4735434651374817, 0.20577166974544525, 0.31985411047935486, 0.15753382444381714, 0.25926363468170166, -0.20551525056362152, -0.3991142213344574, 0.32916325330734253, 0.0963239073753357, -0.06991839408874512, -0.31853654980659485, 0.4983561635017395, 0.3852028250694275, 0.3451409935951233, -0.08221316337585449, -0.4978933036327362, 0.5521013736724854, 0.4588582515716553, 0.49792906641960144, -0.728607177734375, 0.5417487025260925, 0.05301637947559357, -0.09202630817890167, -0.1299058198928833, -0.11827022582292557, 0.20183217525482178, 0.13367867469787598, -0.19028526544570923, -0.15597081184387207, -0.2635607123374939, 0.032600343227386475, 0.5355072021484375, -0.2815062403678894, -0.5246157050132751, 0.4983769655227661, -0.24205103516578674, -0.17850738763809204, 0.16022104024887085, 0.2549475431442261, 0.6538395881652832, -0.09655183553695679, -0.3260945677757263, 0.3647778630256653, -0.2950458526611328, 0.40522992610931396, -0.2874261736869812, 0.17882129549980164, 0.0293005108833313, 0.3412158489227295, 0.2687495946884155, 0.29433923959732056, -0.3816004991531372, 0.46674996614456177, 0.1185390055179596, 0.09327095746994019, -0.34403717517852783, -0.4901147484779358, 0.19150280952453613, 0.3516899049282074, -0.20554886758327484, -0.12794208526611328, 0.19282329082489014, 0.2217283695936203, 0.20255643129348755, 0.17693154513835907, -0.36533045768737793, 0.290533185005188, -0.4564754366874695, 0.2265177220106125, 0.1897904872894287, 0.2937820255756378, 0.2645556330680847, 0.35192060470581055, 0.21662162244319916, -0.076366126537323, -0.14835909008979797, -0.49683845043182373, 0.2686672508716583, -0.48594847321510315, -0.15896350145339966, 0.4722292423248291, -0.03840607404708862, -0.5015673041343689, -0.5731303691864014, 0.2801423668861389, 0.3539199233055115, 0.2106841802597046, -0.44940054416656494, -0.3709293007850647, 0.025799214839935303, -0.006121635437011719, -0.10744524002075195, 0.23621350526809692, -0.26397258043289185, -0.3244999051094055, 0.47392356395721436, -0.2538515031337738, 0.3838276267051697, -0.049504995346069336, -0.21515566110610962, -0.49377280473709106, 0.18974924087524414, -0.09387660026550293, -0.3106614053249359, -0.2965835928916931, -0.4080444574356079, -0.16182029247283936, 0.4998137354850769, 0.41731423139572144, -0.22993630170822144, 0.3238481879234314, 0.008007325232028961, 0.30960601568222046, 0.2313712239265442, 0.3747711181640625, -0.09094178676605225, 0.6273102760314941, -0.26458001136779785, -0.23993372917175293, -0.41421762108802795, 0.2385181188583374], [0.4443421959877014, -0.6853961944580078, -0.1563689112663269, -0.06634952127933502, -0.45039117336273193, 0.18637758493423462, 0.11148558557033539, -0.06468173861503601, -0.10179350525140762, -0.4235401153564453, 0.026711445301771164, 0.05183345079421997, -0.29837748408317566, 0.45842745900154114, 0.37220263481140137, 0.4920656681060791, 0.3368825316429138, -0.22313737869262695, -0.43891024589538574, -0.4264824390411377, -0.08628452569246292, 0.3363683223724365, 0.4342343211174011, -0.6488792300224304, 0.4096459746360779, -0.21005091071128845, 0.23472678661346436, -0.02010291814804077, 0.3341171145439148, -0.5041811466217041, -0.22679203748703003, 0.36274248361587524, -0.0817064642906189, -0.31630581617355347, -0.2654169797897339, 0.1963104009628296, 0.6145604848861694, 0.4121088981628418, 0.22462552785873413, 0.1506333351135254, 0.08634811639785767, 0.1144258975982666, 0.026941418647766113, 0.2313036024570465, -0.3523239493370056, 0.24521522223949432, 0.3672899603843689, 0.33240509033203125, -0.23411202430725098, 0.9050607085227966, -0.4414385259151459, -0.07591314613819122, 0.6614611744880676, 0.30552375316619873, 0.31688350439071655, 0.12843409180641174, -0.043438732624053955, -0.1174471378326416, 0.34727606177330017, -0.33170539140701294, 0.4615384340286255, -0.46421927213668823, -0.30231186747550964, -0.22380608320236206, 0.2960405945777893, -0.03495675325393677, -0.13082966208457947, -0.36848604679107666, 0.07320886850357056, -0.4723242521286011, -0.2621781826019287, 0.06740058958530426, -0.4550982713699341, -0.16721820831298828, 0.41635406017303467, 0.2147168517112732, 0.18250033259391785, -0.443243145942688, 0.41500455141067505, 0.03625369071960449, -0.26561009883880615, -0.111949622631073, -0.21567541360855103, 0.3810906410217285, -0.5355451107025146, -0.47245073318481445, -0.36847084760665894, -0.17405962944030762, -0.08008255064487457, -0.18389159440994263, -0.13824841380119324, -0.09356629848480225, 0.37483033537864685, 0.4638012647628784, -0.05651730298995972, -0.5177382826805115, -0.45685744285583496, -0.1404682993888855, 0.03535205125808716, -0.20169420540332794, 0.29109007120132446, 0.15060752630233765, 0.3315501809120178, -0.13763511180877686, 0.4409157633781433, -0.497239351272583, 0.04372376203536987, -0.0048896074295043945, -0.39473968744277954, -0.013805031776428223, 0.2886587977409363, 0.27939867973327637, 0.20546306669712067, 0.07843920588493347, 0.48455142974853516, -0.3889043927192688, 0.585628867149353, -0.13941997289657593, -0.2305622696876526, 0.29815077781677246, 0.08734166622161865, -0.3637482523918152, -0.5169677734375, 0.4892004132270813, -0.20332074165344238, 0.36588847637176514, 0.2977885901927948, 0.4350183606147766], [-0.2720809578895569, -0.09777934104204178, -0.643132746219635, -0.40203142166137695, 0.3860534429550171, -0.1963597536087036, -0.3437367081642151, 0.18059176206588745, 0.3220018744468689, 0.34372979402542114, -0.4779815673828125, -0.1691531538963318, -0.15215636789798737, 0.44770777225494385, -0.6736115217208862, 0.418060302734375, 0.22314618527889252, 0.21188408136367798, 0.1785808503627777, 0.02947254478931427, -0.2639423608779907, 0.14676842093467712, 0.4921960234642029, 0.16397497057914734, 0.14784973859786987, 0.4470651149749756, 0.45750224590301514, 0.19690841436386108, -0.2712397575378418, 0.42597073316574097, 0.4064072370529175, 0.31411558389663696, 0.7663566470146179, 0.11357149481773376, -0.3453463315963745, 0.3949028253555298, 0.31874585151672363, -0.1616620421409607, -0.2881454825401306, -0.4055982232093811, -0.2536140978336334, -0.2736280858516693, -0.4368879497051239, 0.027168484404683113, 0.18442082405090332, 0.13354170322418213, -0.1845760941505432, -0.03741613030433655, -0.1311633586883545, -0.3114302158355713, 0.4573025703430176, 0.048985838890075684, 0.22563906013965607, -0.11847710609436035, 0.6167112588882446, 0.2526231110095978, 0.15828359127044678, 0.06353569030761719, 0.2545514702796936, 0.31988146901130676, -0.3823365569114685, -0.25597870349884033, 0.0929306149482727, 0.4026472270488739, 0.4698803424835205, 0.4815952777862549, -0.66872239112854, 0.13137151300907135, -0.027188166975975037, -0.1754269003868103, 0.6751244068145752, 0.2146472930908203, -0.4604361653327942, 0.20652860403060913, -0.055652305483818054, -0.24251830577850342, 0.0988801121711731, 0.30794578790664673, -0.3943400979042053, 0.4707918167114258, -0.06862068176269531, 0.31685566902160645, 0.4007541239261627, -0.12718802690505981, -0.18147534132003784, -0.08125865459442139, 0.194706529378891, 0.34063124656677246, -0.31244510412216187, -0.23030376434326172, 0.17613711953163147, 0.1282406747341156, 0.03297393023967743, 0.5093755125999451, 0.061825692653656006, -0.18006426095962524, 0.4851965308189392, -0.4288943409919739, 0.2832833230495453, -0.34551626443862915, 0.16518735885620117, -0.009759485721588135, 0.2969050407409668, -0.3643089532852173, -0.3965863585472107, -0.45096808671951294, 0.05994349718093872, 0.2860066890716553, 0.5041258335113525, -0.032036006450653076, 0.4436386227607727, -0.4447531998157501, 0.40740251541137695, -0.038351356983184814, 0.6080125570297241, 0.009539008140563965, -0.12061738967895508, -0.16016703844070435, -0.6731384992599487, -0.10449562966823578, 0.3056284785270691, -0.20684951543807983, 0.3106386661529541, -0.13886010646820068, -0.45059508085250854, -0.0467534214258194, -0.39306309819221497, -0.263896107673645], [0.06613963842391968, 0.29898858070373535, -0.1527206003665924, -0.35741126537323, -0.43931978940963745, 0.46584802865982056, 0.3710916042327881, 0.08983196318149567, -0.4291191101074219, 0.3041260838508606, -0.120562344789505, 0.03744920343160629, 0.3645602762699127, -0.29886120557785034, -0.48453372716903687, 0.41194039583206177, 0.44007569551467896, 0.44611281156539917, 0.3056206703186035, -0.18150931596755981, 0.0479205846786499, -0.49503037333488464, 0.4077260494232178, 0.007970452308654785, -0.06440490484237671, -0.39975082874298096, -0.03032061457633972, -0.41962629556655884, -0.41219356656074524, -0.3703974485397339, -0.04095780849456787, -0.10759705305099487, -0.04703551530838013, 0.13495959341526031, -0.29287004470825195, 0.22639507055282593, 0.2756415605545044, 0.4554787278175354, 0.010462604463100433, 0.03939926624298096, 0.19622480869293213, -0.09704256057739258, -0.4111456871032715, 0.1671607494354248, -0.24613255262374878, -0.5275300741195679, -0.10920912027359009, 0.15331901609897614, -0.36004936695098877, 0.016869433224201202, -0.3197072744369507, -0.25817400217056274, 0.010082438588142395, 0.29164958000183105, -0.1651332974433899, -0.693618893623352, -0.02555900812149048, 0.2991899251937866, 0.21442224085330963, 0.4726617932319641, -0.40306025743484497, -0.4061327576637268, 0.2784308195114136, -0.3850419223308563, 0.20545542240142822, 0.2934885621070862, -0.03653150796890259, 0.04580259323120117, 0.40600305795669556, -0.13095194101333618, 0.33066850900650024, -0.22335684299468994, -0.045207902789115906, 0.08841836452484131, -0.011384308338165283, -0.11155819892883301, -0.5601410269737244, 0.42935431003570557, -0.15396195650100708, -0.06545180082321167, -0.3964615762233734, -0.2586476802825928, 0.7776205539703369, 0.2462995946407318, -0.46841078996658325, 0.4957902431488037, 0.4738481640815735, -0.07550002634525299, 0.3348314166069031, 0.5740301609039307, 0.282974511384964, 0.48123669624328613, 0.19735054671764374, 0.4542725086212158, -0.18103384971618652, -0.3073139190673828, 0.016720175743103027, -0.026471465826034546, -0.12009894102811813, 0.25945717096328735, -0.27349719405174255, -0.43572312593460083, 0.12823766469955444, -0.2771011292934418, -0.453279972076416, -0.36444801092147827, 0.05846935510635376, -0.2203252613544464, 0.16058823466300964, 0.05428135395050049, -0.30774015188217163, -0.3874903917312622, 0.3067511320114136, -0.1314677596092224, -0.39416494965553284, -0.5617136359214783, -0.4525921940803528, -0.3543277382850647, -0.12122835218906403, 0.06706291437149048, -0.4586535394191742, -0.18300861120224, -0.3617580533027649, -0.7231338024139404, -0.22256898880004883, -0.4985800087451935, -0.45389899611473083, -0.06863534450531006], [-0.094504714012146, 0.023476719856262207, 0.0379677414894104, 0.4059889018535614, -0.19600573182106018, -0.06536231189966202, 0.06250011920928955, 0.02223166823387146, 0.20431828498840332, 0.1890612244606018, -0.08045243471860886, -0.1856679916381836, 0.4607747197151184, 0.03613626956939697, -0.3719221353530884, -0.30291885137557983, -0.39986541867256165, 0.04451632499694824, 0.23581379652023315, -0.029635168612003326, 0.09728919714689255, 0.04854989051818848, -0.3345591127872467, 0.06716305017471313, -0.1447995901107788, -0.3425837457180023, 0.24057704210281372, -0.11560247838497162, 0.22947445511817932, -0.40482354164123535, -0.0672406554222107, -0.4671364426612854, 0.33275535702705383, 0.039995551109313965, 0.006988108158111572, -0.42694514989852905, 0.4193771481513977, -0.12809908390045166, 0.3077998161315918, 0.13147296011447906, 0.22047656774520874, 0.4911385774612427, 0.2578808665275574, -0.057723820209503174, -0.024906575679779053, -0.20977210998535156, 0.407953679561615, -0.7883104681968689, 0.4835062623023987, 0.020021915435791016, 0.47346287965774536, 0.4707629680633545, 0.1710856556892395, -0.05593375861644745, 0.44819849729537964, -0.10445445775985718, 0.4161348044872284, 0.33345866203308105, 0.4858744740486145, 0.1574665755033493, 0.3205256462097168, 0.4197118282318115, 0.4719339609146118, 0.02632361650466919, 0.038182660937309265, 0.22709055244922638, -0.5598242282867432, 0.35227465629577637, -0.11491328477859497, -0.48136794567108154, 0.18298384547233582, 0.15401172637939453, 0.18260455131530762, 0.06555908918380737, 0.4070282578468323, 0.3240400552749634, 0.2667020559310913, 0.13661885261535645, 0.15359820425510406, -0.5766811370849609, -0.0912821888923645, 0.2937513589859009, 0.40335574746131897, -0.30514490604400635, -0.6396076679229736, 0.059770941734313965, -0.4496746063232422, -0.010208576917648315, -0.07180622220039368, -0.14684727787971497, 0.2886433005332947, -0.18539434671401978, 0.4363475441932678, -0.3432958126068115, 0.0526198148727417, -0.17390935122966766, -0.15298771858215332, -0.30538156628608704, 0.3240184783935547, 0.3670485019683838, 0.29308798909187317, 0.14390379190444946, -0.23107361793518066, -0.049591124057769775, 0.46941429376602173, -0.6512184739112854, -0.3522647023200989, 0.09032344818115234, -0.3399694561958313, -0.04664468765258789, -0.49290987849235535, 0.324743390083313, -0.2566796541213989, 0.1924351453781128, 0.674773097038269, -0.3003302812576294, -0.0015671774744987488, 0.44833576679229736, 0.29436206817626953, 0.6004103422164917, 0.4472234845161438, -0.47186654806137085, -0.6128448843955994, -0.36300039291381836, 0.33569103479385376, -0.06591856479644775, 0.18653512001037598, -0.17434287071228027], [-0.22315526008605957, 0.2859928011894226, -0.3219205439090729, -0.09163838624954224, 0.1280953288078308, -0.4900769591331482, -0.2919197082519531, -0.37252604961395264, -0.1457412838935852, -0.060207828879356384, -0.21957984566688538, -0.39206087589263916, -0.23870334029197693, -0.11089158058166504, 0.05728088319301605, 0.39873701333999634, -0.32486990094184875, 0.293849915266037, 0.3541370630264282, -0.6046708226203918, 0.5359066128730774, 0.35751235485076904, -0.2214655876159668, -0.3286864161491394, 0.3249923586845398, 0.018320083618164062, -0.470951646566391, -0.1253746747970581, 0.39223307371139526, -0.006480172276496887, 0.39186716079711914, -0.3809487521648407, -0.22902023792266846, 0.25615227222442627, 0.4930917024612427, 0.5814186334609985, 0.37172555923461914, 0.2860252261161804, 0.35569465160369873, 0.12663547694683075, -0.27192819118499756, 0.4884963631629944, 0.38778918981552124, -0.4621109366416931, -0.048523783683776855, 0.1579015552997589, 0.2816292345523834, 0.0749681144952774, -0.2856341004371643, -0.14140790700912476, 0.2126656174659729, -0.19129222631454468, 0.6962149739265442, -0.034087538719177246, -0.08895444869995117, -0.47952836751937866, -0.21086740493774414, -0.04956698790192604, 0.27404630184173584, -0.11434424668550491, -0.3190593123435974, -0.39459502696990967, -0.23237323760986328, 0.2828032970428467, 0.32754194736480713, 0.3745446801185608, 0.1726667284965515, 0.48445284366607666, -0.41997474431991577, -0.03838080167770386, 0.6135019063949585, 0.25534480810165405, -0.25617215037345886, -0.31620579957962036, 0.38942408561706543, 0.6825816035270691, 0.20317524671554565, 0.47382062673568726, 0.1921314001083374, -0.271744966506958, 0.4836726188659668, 0.20968972146511078, -0.4566408395767212, 0.25808843970298767, -0.5664206743240356, 0.1633855104446411, -0.1087268590927124, 0.17291682958602905, 0.12779605388641357, 0.010622262954711914, -0.13921403884887695, 0.18935096263885498, 0.2959556579589844, 0.39602383971214294, 0.49460017681121826, 0.34936898946762085, 0.5233955979347229, 0.26841285824775696, 0.43050146102905273, 0.0617641806602478, -0.21112170815467834, -0.36556002497673035, 0.0007658004760742188, 0.00029183924198150635, -0.07553601264953613, -0.4001147150993347, -0.4120120406150818, -0.4571850299835205, 0.2592441141605377, -0.059473633766174316, -0.055310189723968506, 0.09680956602096558, -0.40681126713752747, -0.14355343580245972, -0.6988263130187988, 0.10343562066555023, -0.21728253364562988, 0.22509540617465973, -0.1174364686012268, -0.17703765630722046, -0.16822437942028046, -0.18745923042297363, -0.29969149827957153, -0.4601603150367737, -0.08050009608268738, -0.49108773469924927, -0.02338707447052002, -0.3241427540779114], [0.36854854226112366, 0.007797345519065857, -0.46689659357070923, -0.20976561307907104, -0.0033927559852600098, -0.32392895221710205, 0.1311996579170227, 0.045830726623535156, -0.10346627235412598, 0.3518679141998291, -0.6743621826171875, -0.338198184967041, -0.3495730757713318, 0.0783199667930603, 0.0056563615798950195, -0.447162389755249, 0.2227124273777008, 0.0790395438671112, -0.11202480643987656, 0.013763941824436188, -0.24547886848449707, -0.07192322611808777, 0.15049871802330017, -0.14968515932559967, -0.1528177261352539, 0.2061370611190796, -0.005430359393358231, -0.08157604187726974, 0.4037293791770935, 0.1504250466823578, -0.16849233210086823, -0.1202469989657402, 0.4817126393318176, 0.07776214927434921, 0.306949257850647, 0.15971499681472778, 0.05210277438163757, 0.17943313717842102, -0.25275349617004395, 0.2833617329597473, -0.4282796382904053, 0.018469512462615967, 0.08587449789047241, 0.4464442729949951, 0.3775821328163147, 0.40375834703445435, 0.4046291708946228, -0.04594818875193596, -0.19431373476982117, 0.08240246772766113, 0.0144997239112854, 0.5800747871398926, -0.5682364106178284, 0.34966909885406494, -0.0033951401710510254, 0.31090158224105835, -0.418857216835022, 0.1219225525856018, -0.11560912430286407, 0.13360604643821716, 0.6073184013366699, 0.060845136642456055, -0.0032489895820617676, -0.13938063383102417, -0.12214460968971252, 0.1559397578239441, -0.41375815868377686, -0.49619060754776, 0.385479211807251, -0.18951688706874847, 0.41300857067108154, -0.1627989411354065, -0.40755295753479004, -0.30927515029907227, 0.2323085069656372, 0.33054137229919434, 0.33774834871292114, 0.4081025719642639, -0.14288407564163208, -0.47530317306518555, 0.054788995534181595, 0.18158024549484253, 0.33087217807769775, 0.15393096208572388, 0.4837579131126404, -0.44897520542144775, -0.19580554962158203, -0.4789949655532837, 0.3292713761329651, -0.30101513862609863, -0.19844013452529907, 0.20764440298080444, -0.4490598440170288, 0.19238708913326263, -0.2521447539329529, -0.2121376395225525, 0.20414476096630096, 0.04035896062850952, -0.4190080761909485, -0.2379223108291626, 0.055636703968048096, -0.23127275705337524, 0.11599492281675339, -0.2488970309495926, 0.0256047323346138, 0.1361125409603119, -0.17575165629386902, -0.24038010835647583, 0.32556354999542236, -0.6864823698997498, -0.2442057728767395, 0.23704084753990173, 0.07413703203201294, 0.09010414779186249, 0.1316925585269928, 0.3001469075679779, -0.20407646894454956, -0.42293620109558105, -0.22778406739234924, -0.2845321297645569, 0.07943171262741089, -0.11038838326931, 0.31825655698776245, 0.041189491748809814, -0.21120238304138184, 0.19201542437076569, -0.25438129901885986, 0.038429420441389084], [-0.12568438053131104, 0.3018665313720703, -0.3163064420223236, 0.1557605266571045, 0.022079214453697205, 0.469894140958786, -0.19906330108642578, 0.009248614311218262, 0.482183575630188, 0.2750832438468933, 0.006400578655302525, 0.16058145463466644, -0.3335246443748474, 0.43440353870391846, 0.08624845743179321, 0.28039252758026123, 0.43940412998199463, -0.06202780455350876, 0.3486616611480713, -0.21412473917007446, -0.001955851912498474, -0.38332730531692505, 0.2571229338645935, 0.06666505336761475, 0.4392585754394531, 0.284035325050354, -0.4609021246433258, 0.35297781229019165, -0.42415833473205566, 0.08674949407577515, 0.056255750358104706, 0.6236017942428589, 0.1559787392616272, -0.49739891290664673, 0.17175599932670593, 0.39735132455825806, -0.1082163006067276, -0.25812816619873047, -0.34796446561813354, 0.006213024258613586, -0.02695019729435444, 0.2043442726135254, -0.08055195957422256, -0.22992992401123047, 0.20377106964588165, 0.15149104595184326, 0.3291693329811096, 0.05513139069080353, 0.10236863791942596, 0.08591854572296143, -0.3610420823097229, -0.14163720607757568, 0.2823271155357361, -0.039779484272003174, -0.3708314895629883, 0.28312772512435913, -0.0756109356880188, 0.23656582832336426, 0.28831133246421814, 0.009480834007263184, 0.5251574516296387, -0.47676587104797363, -0.27083706855773926, -0.4182361364364624, 0.2454446405172348, -0.28645139932632446, -0.32993215322494507, 0.1702408790588379, 0.10773388296365738, -0.3987464904785156, 0.42802369594573975, 0.1467248797416687, 0.2101449817419052, -0.042840421199798584, 0.1708284467458725, 0.39402133226394653, -0.34245386719703674, -0.49529141187667847, -0.005685299634933472, -0.16410551965236664, -0.43019208312034607, 0.5556730031967163, 0.26394709944725037, 0.4378775954246521, -0.3409287929534912, 0.20408856868743896, -0.10111278295516968, -0.45924049615859985, 0.06482124328613281, 0.4021129608154297, 0.21503019332885742, 0.38654690980911255, -0.34079501032829285, 0.24121910333633423, -0.24300798773765564, -0.4157562255859375, 0.19167864322662354, -0.06980389356613159, 1.8715858459472656e-05, 0.036401718854904175, -0.2725622355937958, -0.17311453819274902, -0.3612658977508545, -0.30085939168930054, -0.258302241563797, 0.5204377174377441, 0.06845957040786743, -0.4005202651023865, 0.3018230199813843, -0.6747279167175293, 0.2389867901802063, -0.3599676489830017, 0.41345280408859253, 0.20571178197860718, 0.03054565191268921, -0.0855870246887207, 0.3924221992492676, 0.41856375336647034, 0.018026351928710938, 0.058957673609256744, 0.0022740066051483154, 0.4670912027359009, -0.48004698753356934, -0.21318677067756653, 0.265392541885376, 0.28309425711631775, -0.3655969500541687, -0.07777166366577148], [0.6885859370231628, 0.06627410650253296, -0.47773608565330505, -0.38314634561538696, 0.1356777548789978, 0.4069738984107971, 0.07895560562610626, -0.2609025239944458, -0.11356478929519653, 0.22734922170639038, -0.41845518350601196, 0.07458406686782837, -0.3324955105781555, -0.026655256748199463, -0.0671657994389534, -0.32464540004730225, -0.39805853366851807, -0.3136671781539917, 0.03484123945236206, 0.21903441846370697, -0.372352659702301, -0.5860771536827087, -0.025204479694366455, -0.36820584535598755, -0.21769535541534424, -0.4230636656284332, 0.3361806273460388, -0.13316971063613892, -0.16767394542694092, 0.016122400760650635, 0.3540099263191223, 0.4890632629394531, -0.5025804042816162, 0.047161638736724854, -0.26106131076812744, -0.2464776635169983, -0.27980077266693115, -0.35599827766418457, -0.266512930393219, 0.4041867256164551, -0.24227690696716309, 0.13069874048233032, -0.31038540601730347, -0.3598775267601013, 0.09490311145782471, 0.21396389603614807, -0.18252378702163696, 0.040397003293037415, -0.5349680781364441, 0.10267964005470276, -0.2807895541191101, -0.18333587050437927, 0.5168707370758057, -0.05543118715286255, -0.07947170734405518, 0.49823319911956787, 0.5812050104141235, 0.08132243156433105, 0.4195924401283264, -0.04435744881629944, -0.25702208280563354, -0.5673468112945557, -0.059250131249427795, -0.33080652356147766, -0.37809276580810547, 0.5443667769432068, -0.20594656467437744, -0.13939988613128662, -0.2008061408996582, 0.47296828031539917, -0.4810943007469177, 0.4790300726890564, 0.12642192840576172, -0.36324626207351685, 0.2539829611778259, 0.4200230836868286, 0.2022712230682373, 0.3633732795715332, -0.15588724613189697, -0.5183510780334473, -0.37221312522888184, 0.10249662399291992, 0.1968153417110443, -0.373363733291626, -0.06389224529266357, -0.35360968112945557, 0.2825629711151123, -0.004120051860809326, -0.06006162613630295, 0.23172247409820557, -0.4875144958496094, -0.36055171489715576, -0.3564356565475464, -0.28161460161209106, 0.4336184859275818, 0.16137157380580902, -0.2888335883617401, 0.43900564312934875, -0.21764223277568817, 0.05639004707336426, 0.16348111629486084, 0.47425156831741333, -0.0977528989315033, -0.3173408508300781, -0.3991854190826416, -0.20772987604141235, -0.13251930475234985, 0.5288590788841248, 0.0311926007270813, -0.03485512733459473, -0.1810498833656311, -0.13647568225860596, 0.19725121557712555, -0.09695139527320862, 0.6114826202392578, -0.32979142665863037, 0.29370176792144775, -0.03532255440950394, -0.08771296590566635, 0.2811492085456848, -0.06112505495548248, -0.1157488226890564, 0.053380608558654785, -0.35401538014411926, -0.4810614585876465, -0.12634825706481934, -0.10726648569107056, -0.2204267978668213], [-0.4124305844306946, -0.47412991523742676, -0.2109859585762024, 0.5799862146377563, -0.1773592233657837, -0.19159972667694092, -0.7381230592727661, 0.0033795833587646484, 0.1259416937828064, -0.15383723378181458, 0.3123832941055298, -0.4468972086906433, -0.4091232419013977, -0.08540764451026917, -0.1383875012397766, -0.3089732229709625, -0.3892858028411865, 0.08321595191955566, -0.10806737095117569, 0.3452525734901428, -0.2725815176963806, 0.08732836693525314, 0.16176781058311462, -0.06502985209226608, 0.029373347759246826, 0.28809502720832825, 0.044583797454833984, 0.02357572317123413, 0.12148281931877136, 0.2468535602092743, -0.2014995813369751, 0.3219625949859619, -0.08388033509254456, 0.1836027354001999, -0.35522693395614624, 0.2882116436958313, 0.47233378887176514, -0.27300384640693665, -0.416538804769516, 0.4586973488330841, -0.18881192803382874, 0.7760586738586426, -0.026943564414978027, 0.6637076139450073, 0.3364880084991455, -0.48697638511657715, 0.17124724388122559, 0.24186009168624878, 0.2844700515270233, 0.29864394664764404, -0.03375089168548584, 0.1510441154241562, 0.3854217529296875, 0.2750309109687805, -0.3985942006111145, -0.36289334297180176, 0.13049226999282837, 0.48467111587524414, -0.42014795541763306, 0.1980609893798828, -0.1965084671974182, 0.13286209106445312, 0.46726638078689575, 0.40815722942352295, 0.40211665630340576, -0.3663225471973419, -0.09167169779539108, -0.0035551637411117554, -0.09013628959655762, 0.13804447650909424, 0.0719253420829773, -0.10583722591400146, 0.3776422142982483, -0.26093006134033203, -0.08285510540008545, -0.46330946683883667, 0.22188329696655273, 0.3044891953468323, -0.24758684635162354, -0.07618409395217896, -0.23777452111244202, 0.511061429977417, -0.294572114944458, -0.06612074375152588, -0.21189093589782715, 0.489149272441864, -0.08117324113845825, -0.4580804705619812, 0.24514859914779663, 0.31977027654647827, 0.2396215796470642, -0.10498154163360596, 0.003257572650909424, -0.04112740233540535, -0.17622852325439453, -0.2218310832977295, -0.3838743269443512, 0.15768052637577057, -0.4065697193145752, -0.28695401549339294, -0.3912337124347687, 0.07724662125110626, -0.029083192348480225, -0.22081461548805237, 0.3503759503364563, 0.09711050987243652, -0.10738396644592285, -0.2682672142982483, 0.4862302243709564, -0.2332448959350586, 0.4228745102882385, -0.2625531256198883, -0.19636905193328857, 0.04357963800430298, -0.4873530864715576, -0.027352750301361084, 0.4550424814224243, 0.11081522703170776, 0.47507816553115845, -0.4246039390563965, 0.4413160979747772, -0.2206510305404663, -0.40015101432800293, -0.1861138939857483, 0.044065773487091064, -0.4662468731403351, 0.27153390645980835, 0.39757099747657776]], "hidden_weights": [[0.11508971452713013, -0.11690688133239746, 0.006192654371261597, 0.6649254560470581, 0.4190112054347992, 0.49299120903015137, -0.4166967272758484, -0.46536505222320557, 0.49463075399398804, 0.22545292973518372, -0.34324389696121216, -0.1985035538673401, 0.03149336576461792, 0.0184403657913208, 0.3204103708267212, -0.2240888476371765, -0.046037137508392334, -0.28210175037384033, -0.4097878932952881, -0.04457920789718628, 0.2994998097419739, 0.43393537402153015, -0.4672074615955353, 0.3038419485092163, -0.17356714606285095, -0.4840620160102844, 0.06536537408828735, -0.2286950945854187, -0.26587557792663574, 0.38295161724090576, 0.2906152307987213, 0.09629112482070923, 0.4689883291721344, -0.4911275804042816, 0.5885190963745117, -0.42717796564102173, -0.18068373203277588, 0.29674583673477173, 0.34747353196144104, -0.10628455877304077, 0.11544746160507202, 0.13419963419437408, 0.4955449104309082, -0.4257658123970032, -0.06894439458847046, -0.04346543550491333, -0.08410048484802246, 0.04259037971496582, -0.19001901149749756, 0.23611420392990112, -0.4075261950492859, 0.014116406440734863, 0.11520391702651978, 0.27512794733047485, 0.1996329426765442, -0.7259129881858826, -0.37956440448760986, 0.30890053510665894, -0.36847010254859924, -0.807344913482666, 0.12580040097236633, -0.5476707816123962, 0.39640891551971436, -0.23702284693717957], [-0.2869050204753876, 0.4737110733985901, -0.27490630745887756, -0.1227986216545105, 0.1070510745048523, 0.30209195613861084, -0.24591535329818726, 0.12739837169647217, 0.24614202976226807, 0.3401303291320801, -0.30037885904312134, -0.4064422845840454, 0.009600844234228134, -0.27419352531433105, -0.4457438588142395, 0.056255798786878586, -0.4742688536643982, 0.3248816132545471, 0.10486584901809692, -0.2862510085105896, -0.07775193452835083, 0.21655386686325073, 0.22538162767887115, -0.032008424401283264, -0.303256094455719, 0.3797380328178406, -0.35110074281692505, 0.1627395749092102, -0.40457379817962646, 0.6150684952735901, 0.47217100858688354, -0.29312047362327576, 0.3109589219093323, -0.45369434356689453, 0.6496390700340271, 0.44812995195388794, 0.19337230920791626, -0.24352625012397766, 0.3103078007698059, -0.10818952322006226, 0.3546873927116394, -0.38073670864105225, -0.3199029564857483, 0.19892936944961548, 0.14451047778129578, -0.22022631764411926, 0.21583861112594604, 0.10834306478500366, 0.256336510181427, -0.09635218977928162, -0.4887378215789795, 0.47933265566825867, -0.6691431403160095, -0.397367000579834, 0.019724830985069275, 0.40112578868865967, -0.2953122854232788, -0.19718772172927856, 0.26147469878196716, -0.13718047738075256, -0.29435598850250244, 0.38574355840682983, 0.16175305843353271, -0.241083562374115], [0.48006027936935425, 0.4063020944595337, 0.7078977823257446, 0.196183443069458, 0.10928255319595337, -0.6628836989402771, 0.0029264092445373535, -0.07605540752410889, 0.46011146903038025, 0.4763380289077759, 0.8043640851974487, 0.11142343282699585, -0.20985673367977142, 0.49419474601745605, 0.14538852870464325, 0.6587142944335938, 0.07902795076370239, -0.47566771507263184, -0.28655147552490234, 0.41720134019851685, 0.2691234350204468, -0.1327306628227234, -0.3146281838417053, -0.1391693353652954, -0.391743540763855, 0.05825459957122803, 0.32913464307785034, -0.22652596235275269, -0.3377711772918701, -0.10920524597167969, 0.15338079631328583, -0.030522421002388, 0.2153700739145279, 0.10079807043075562, 0.09144368767738342, -0.268065869808197, -0.21073633432388306, -0.013244621455669403, -0.4170060157775879, -0.15501709282398224, 0.24099990725517273, -0.25325077772140503, 0.1464482545852661, -0.12526974081993103, 0.20069003105163574, 0.5748077630996704, 0.32800182700157166, -0.1376485824584961, 0.31521040201187134, 0.17490553855895996, 0.19210362434387207, 0.1511797308921814, -0.47313839197158813, -0.4300934076309204, 0.19169503450393677, -0.35693472623825073, 0.22890879213809967, -0.43076545000076294, 0.41740310192108154, -0.22653156518936157, 0.5367432236671448, -0.32999420166015625, 0.2658300995826721, -0.44855475425720215], [-0.4205988049507141, -0.40222644805908203, -0.4534909427165985, -0.46268439292907715, -0.04315388202667236, 0.0543251633644104, 0.2174052745103836, 0.18754678964614868, 0.16838175058364868, -0.32977622747421265, 0.10582917928695679, -0.6338647603988647, 0.3582819700241089, 0.3173484206199646, 0.4756367802619934, 0.3865559697151184, 0.30525633692741394, -0.1090444028377533, -0.3345329463481903, -0.499397873878479, -0.4694840610027313, 0.31835436820983887, 0.15860596299171448, 0.20591746270656586, 0.3174808621406555, 0.32999885082244873, -0.3422425389289856, -0.3744716942310333, -0.4279363751411438, 0.19217632710933685, 0.16738516092300415, -0.41210073232650757, 0.07010620832443237, 0.0808529406785965, 0.1648695468902588, -0.3653690814971924, 0.04622960090637207, -0.050594329833984375, 0.12537115812301636, 0.36459141969680786, 0.01716136932373047, 0.005448132753372192, 0.39570146799087524, 0.19132602214813232, 0.0066826194524765015, 0.27051466703414917, 0.23394817113876343, 0.03852814435958862, 0.4819658398628235, 0.4838181138038635, -0.2660960555076599, -0.3797561824321747, 0.28604191541671753, -0.053320109844207764, 0.006849825382232666, -0.31895333528518677, 0.2604908347129822, 0.33137935400009155, 0.4166845679283142, 0.32591724395751953, -0.17099785804748535, -0.45510244369506836, -0.24497228860855103, -0.23651307821273804], [-0.16121229529380798, -0.23136690258979797, 0.010290145874023438, 0.282559335231781, -0.2809494137763977, -0.4378802180290222, -0.16299091279506683, -0.16826283931732178, -0.33409303426742554, 0.01251232624053955, 0.11495473980903625, -0.41536617279052734, -0.5330860614776611, 0.43718820810317993, 0.19134633243083954, 0.0548630952835083, -0.025802932679653168, 0.06229525804519653, 0.6796825528144836, 0.23131613433361053, -0.11690270900726318, 0.0680641382932663, 0.3837634325027466, 0.22296392917633057, -0.23533186316490173, 0.23476611077785492, 0.2966804802417755, 0.4678395390510559, -0.19586342573165894, 0.0612030103802681, -0.16616171598434448, -0.5297108292579651, 0.25916051864624023, -0.16186672449111938, -0.09731890261173248, -0.21604716777801514, 0.2904828190803528, 0.11743587255477905, -0.3558086156845093, -0.4107024073600769, -0.13960173726081848, 0.3952435255050659, -0.20475640892982483, 0.3271685540676117, -0.26048579812049866, 0.438886821269989, 0.4385085105895996, -0.023040279746055603, -0.01268315315246582, -0.07484054565429688, 0.24643480777740479, 0.4471098780632019, 0.4244130849838257, 0.4667873978614807, 0.1946934461593628, 0.11440455913543701, -0.20679613947868347, -0.1469266414642334, 0.15460041165351868, -0.39751046895980835, 0.1997244954109192, -0.20275597274303436, 0.4760896563529968, -0.42342448234558105], [-0.25284069776535034, -0.46535390615463257, -0.30901938676834106, -0.06395095586776733, -0.058240681886672974, -0.5841144323348999, -0.3475010395050049, 0.01950491964817047, -0.2850983142852783, -0.37699270248413086, -0.33970481157302856, 0.27442148327827454, 0.28333377838134766, 0.33932924270629883, 0.05853158235549927, -0.3605470657348633, 0.1994388997554779, 0.055895984172821045, 0.1733555793762207, 0.08180230855941772, -0.19395828247070312, -0.002427518367767334, -0.18071705102920532, 0.157655730843544, -0.5307467579841614, 0.14950740337371826, 0.2786361873149872, 0.437743604183197, -0.2085919976234436, -0.3634703755378723, 0.4322338104248047, -0.40098512172698975, 0.3269869089126587, -0.3729889988899231, 0.07720732688903809, -0.11373087763786316, 0.17068588733673096, 0.3637821674346924, -0.3275696039199829, -0.3860127329826355, 0.20050674676895142, 0.2253577709197998, -0.1815534234046936, 0.2706233859062195, -0.28645575046539307, -0.10242447257041931, -0.17507947981357574, 0.2552574574947357, 0.2902687191963196, -0.13442832231521606, -0.451854944229126, 0.4930143356323242, -0.40696263313293457, -0.49777257442474365, -0.4201992154121399, 0.030052542686462402, -0.2953997254371643, 0.41396987438201904, -0.23754453659057617, -0.17396074533462524, -0.26485535502433777, 0.3466349244117737, 0.09164857864379883, 0.3108333945274353], [-0.07675331830978394, 0.3066868782043457, 0.011983483098447323, -0.05662280321121216, -0.19739621877670288, 0.40409958362579346, -0.2647431492805481, -0.24569672346115112, 0.29052966833114624, -0.37671685218811035, -0.3233751058578491, 0.22595681250095367, 0.18763577938079834, 0.22890247404575348, -0.2571464478969574, -0.11271423101425171, 0.36512356996536255, -0.10359793901443481, 0.3945428133010864, -0.2667653560638428, -0.33254706859588623, -0.1409967541694641, -0.043351829051971436, 0.14994463324546814, 0.03463605046272278, -0.3102765679359436, -0.42043447494506836, -0.4751027226448059, 0.0558469295501709, -0.4264823794364929, -0.26330482959747314, 0.05006200075149536, 0.44535619020462036, -0.32131844758987427, -0.15589302778244019, -0.10207843780517578, 0.21742311120033264, 0.031275685876607895, -0.08673757314682007, -0.4905776381492615, 0.22065138816833496, 0.2633957266807556, 0.023311078548431396, -0.44104069471359253, -0.13377630710601807, -0.3904660940170288, -0.1344168782234192, -0.048959143459796906, -0.061681270599365234, -0.03536355495452881, -0.1756753772497177, -0.3763830065727234, -0.6275844573974609, 0.6203446388244629, 0.13062196969985962, 0.32063257694244385, 0.16467952728271484, -0.13505017757415771, 0.5153474807739258, -0.489837110042572, -0.30616897344589233, -0.45822352170944214, 0.4135119915008545, 0.3910267949104309], [-0.46520543098449707, 0.6220585703849792, 0.06930458545684814, -0.23028668761253357, -0.36958664655685425, 0.4367753267288208, -0.3407445549964905, 0.3073580861091614, 0.09515482187271118, -0.47266465425491333, 0.35325872898101807, -0.4023705720901489, -0.22992870211601257, -0.1313343048095703, 0.4640149176120758, -0.14736145734786987, -0.046700477600097656, 0.27103787660598755, 0.28468406200408936, -0.32548630237579346, -0.10632383823394775, -0.09087198972702026, -0.4025488495826721, 0.06959915161132812, -0.099545419216156, -0.20392870903015137, -0.27221590280532837, -0.1654142588376999, -0.21843838691711426, -0.4489326775074005, -0.1561187505722046, 0.10734248161315918, -0.4324842393398285, -0.6149340867996216, 0.3821864128112793, -0.3292016386985779, 0.31475841999053955, 0.0007757842540740967, -0.44614386558532715, -0.18183016777038574, 0.11355876922607422, -0.42298775911331177, -0.36212754249572754, 0.13488750159740448, -0.24254381656646729, 0.46574467420578003, 0.34850966930389404, -0.21741461753845215, -0.32625001668930054, -0.35126471519470215, 0.26809924840927124, 0.12722241878509521, -0.4173015356063843, 0.11353439092636108, -0.42363983392715454, 0.07775208353996277, 0.16501110792160034, 0.09569388628005981, -0.3104251027107239, 0.37011611461639404, -0.29049885272979736, 0.06553107500076294, 0.3599522113800049, -0.25549936294555664], [-0.46381276845932007, -0.563704252243042, 0.22216784954071045, 0.5024635791778564, 0.2463269829750061, -0.18131954967975616, -0.08919371664524078, -0.45244401693344116, 0.042150139808654785, -0.32244956493377686, -0.3358399569988251, -0.3393715023994446, -0.3786652088165283, 0.5534168481826782, -0.26964378356933594, 0.25103074312210083, 0.1794458031654358, -0.049902379512786865, 0.1457139253616333, -0.034503888338804245, 0.1466776728630066, -0.20977897942066193, 0.1974506974220276, 0.36547449231147766, -0.3521137833595276, 0.009230628609657288, -0.846069872379303, -0.8033217191696167, 0.3549309968948364, -0.2718687653541565, -0.0350346714258194, -0.06740665435791016, -0.4644815921783447, -0.15414375066757202, 0.23792508244514465, 0.4477075934410095, 0.27428722381591797, -0.1826690435409546, 0.6158010959625244, -0.41814130544662476, -0.1990298479795456, -0.5936833620071411, -0.0014971494674682617, -0.2703203558921814, -0.012462198734283447, -0.07817405462265015, -0.23371237516403198, 0.24056392908096313, 0.37424778938293457, 0.5995619297027588, -0.07783034443855286, -0.27749890089035034, 0.07620218396186829, 0.1298847496509552, 0.3704339265823364, 0.504248321056366, -0.10909393429756165, 0.25902941823005676, -0.33004796504974365, -0.053918033838272095, 0.22096937894821167, -0.39936715364456177, -0.28521496057510376, -0.14582228660583496], [-0.20173436403274536, 0.3611705005168915, 0.0498274564743042, 0.2635188102722168, -0.21897825598716736, -0.41137075424194336, 0.4711077809333801, -0.3227582573890686, 0.18846169114112854, 0.1021234393119812, 0.3018141984939575, 0.1200512945652008, -0.026635661721229553, 0.09215489029884338, -0.32567542791366577, 0.494870662689209, 0.028783120214939117, 0.31119105219841003, -0.41415470838546753, -0.0662834644317627, -0.4353141784667969, -0.03463095426559448, 0.6208047866821289, -0.09716647863388062, 0.0036395788192749023, -0.4928086996078491, -0.15748174488544464, 0.35848313570022583, 0.32045453786849976, -0.31043243408203125, -0.2640420198440552, 0.41633710265159607, 0.3788987994194031, -0.15501409769058228, -0.1782331019639969, 0.06692367792129517, -0.44276782870292664, 0.09645980596542358, -0.15572404861450195, -0.4335554242134094, 0.09290170669555664, -0.2005118727684021, 0.020444106310606003, 0.07643115520477295, -0.30159640312194824, 0.32783833146095276, -0.3052603006362915, 0.10746622085571289, 0.28097617626190186, 0.00980667769908905, -0.28474411368370056, 0.11741185188293457, 0.47949039936065674, -0.17095881700515747, 0.011644363403320312, -0.03158444166183472, -0.425665020942688, 0.19154036045074463, 0.03491652011871338, -0.27507269382476807, 0.29754388332366943, -0.07468634843826294, -0.22903358936309814, -0.4005625247955322], [0.34837615489959717, 0.3360656499862671, 0.16783951222896576, -0.05913197994232178, -0.04706650972366333, 0.4880892038345337, -0.2639577388763428, -0.03253961354494095, -0.5532557964324951, -0.3160586357116699, -0.4435914158821106, 0.28521090745925903, -0.2616826295852661, -0.5295994281768799, -0.1736956238746643, -0.6554232835769653, -0.24291567504405975, 0.22116273641586304, -0.21622496843338013, 0.34498131275177, 0.3174067735671997, 0.30946677923202515, -0.2534838318824768, 0.31287336349487305, 0.19792690873146057, -0.10360310971736908, 0.005542099475860596, 0.4297969341278076, 0.23029229044914246, -0.22811192274093628, -0.4590788781642914, -0.1581600308418274, 0.10354095697402954, 0.32143479585647583, 0.27329230308532715, 0.023411907255649567, 0.045628488063812256, -0.5747162699699402, 0.20876049995422363, -0.00598675012588501, 0.18804419040679932, 0.45816075801849365, -0.1313340961933136, 0.26844239234924316, 0.2082568109035492, -0.20071494579315186, -0.33116716146469116, -0.19995200634002686, 0.12476493418216705, -0.4729272723197937, 0.42465871572494507, -0.4749329090118408, -0.35092103481292725, 0.012600570917129517, -0.17333759367465973, 0.11806231737136841, -0.044449254870414734, -0.010226346552371979, -0.1362885683774948, 0.19670230150222778, 0.2648378014564514, -0.09925419837236404, 0.2118593454360962, 0.26999425888061523], [0.052017152309417725, -0.041178107261657715, -0.329750120639801, 0.2964908480644226, 0.48916375637054443, 0.00105971097946167, -0.09229540824890137, 0.19214415550231934, -0.3470780849456787, -0.0024443939328193665, -0.2625872492790222, 0.7925684452056885, 0.4565996825695038, -0.2568739652633667, -0.06708544492721558, -0.17192590236663818, -0.4785526394844055, -0.42980271577835083, 0.27698180079460144, -0.19140872359275818, 0.3468668758869171, -0.3349524438381195, -0.41778433322906494, -0.18083679676055908, 0.042447686195373535, -0.024307221174240112, 0.7422040700912476, -0.5294522047042847, -0.0524558424949646, -0.10303086042404175, -0.14247320592403412, -0.04874715209007263, -0.30781930685043335, 0.23848718404769897, -0.2764139771461487, 0.3508569598197937, 0.038726806640625, -0.40051108598709106, -0.361174613237381, 0.2854076027870178, -0.27982035279273987, 0.477885901927948, 0.4508143365383148, 0.04644228518009186, 0.4175165295600891, -0.3186717927455902, 0.44793426990509033, 0.49024054408073425, -0.10002464056015015, -0.29020678997039795, -0.3014066219329834, -0.5588406324386597, -0.36016204953193665, 0.39433419704437256, -0.188640296459198, -0.4581098258495331, -0.15377087891101837, 0.3773619532585144, -0.1791178584098816, 0.05050915479660034, 0.05099165439605713, 0.48892712593078613, -0.0779644250869751, -0.4934636354446411], [0.489202082157135, -0.11150020360946655, -0.10320359468460083, -0.15813246369361877, 0.4814057946205139, 0.040258027613162994, 0.39625221490859985, 0.14319086074829102, -0.22894054651260376, 0.2332063913345337, -0.10627204179763794, 0.20800012350082397, 0.1490718126296997, 0.32755720615386963, -0.48152589797973633, -0.39614564180374146, -0.41446399688720703, 0.16769370436668396, 0.45716559886932373, 0.47220736742019653, 0.036346226930618286, 0.17634105682373047, -0.2039731740951538, -0.11183023452758789, 0.48030155897140503, -0.1981978863477707, -0.538135290145874, -0.5491436719894409, 0.13821399211883545, 0.19469988346099854, 0.14075317978858948, 0.6753391623497009, 0.02783048152923584, -0.03780388832092285, -0.43884342908859253, 0.3835756182670593, 0.2935119867324829, 0.0785369873046875, -0.3686716854572296, -0.30347710847854614, 0.20909637212753296, -0.3719058632850647, -0.3931119441986084, -0.39787477254867554, -0.21141670644283295, 0.11953926086425781, 0.28626692295074463, 0.12580370903015137, 0.21944451332092285, -0.038562238216400146, -0.44460129737854004, -0.10826533287763596, -0.2958551049232483, 0.3484988510608673, -0.38193655014038086, -0.1508128046989441, 0.10814660787582397, 0.36954841017723083, -0.2934078872203827, -0.46088463068008423, 0.19222939014434814, -0.38466116786003113, 0.17327016592025757, -0.07239007949829102], [0.22490930557250977, 0.34204936027526855, -0.10803091526031494, -0.13050633668899536, -0.23610275983810425, 0.3172088861465454, 0.0880172848701477, 0.3531641960144043, 0.4086607098579407, 0.40649664402008057, -0.15600088238716125, 0.14717745780944824, -0.47608262300491333, 0.26257044076919556, 0.3761187493801117, 0.0022486448287963867, 0.21166345477104187, -0.5588448643684387, 0.428244411945343, -0.4939786195755005, -0.1894645094871521, -0.07839459180831909, -0.4223009943962097, 0.4035831689834595, 0.09739750623703003, 0.1196521520614624, -0.3441881537437439, 0.06174004077911377, -0.26712554693222046, 0.2810927629470825, 0.03383868932723999, -0.3129088878631592, 0.24661308526992798, -0.35128355026245117, 0.17845509946346283, 0.14005032181739807, 0.04564779996871948, 0.5661996006965637, -0.20913481712341309, 0.40453797578811646, -0.4366459250450134, -0.2252907156944275, -0.06197613477706909, -0.10540378093719482, -0.2807297110557556, -0.442997545003891, 0.16289521753787994, 0.41326552629470825, -0.33062267303466797, -0.38586682081222534, -0.3575749397277832, -0.2975335121154785, -0.08337217569351196, -0.40760332345962524, 0.1076955795288086, -0.5437450408935547, -0.03154408931732178, -0.16222232580184937, -0.17030024528503418, -0.5595301985740662, 0.3108676075935364, 0.24999019503593445, 0.004093587398529053, -0.020817875862121582], [-0.27677562832832336, 0.22603416442871094, 0.34621989727020264, 0.2832590937614441, -0.09864020347595215, 0.24623531103134155, -0.01430058479309082, 0.08891525864601135, -0.1974872350692749, 0.2838287949562073, 0.25238901376724243, 0.7921146154403687, 0.04905945062637329, 0.36775386333465576, 0.31373846530914307, -0.263399600982666, 0.43150198459625244, 0.27806270122528076, -0.2699938416481018, -0.16061007976531982, 0.21399319171905518, 0.22594279050827026, -0.01755577325820923, 0.5194829702377319, -0.35712718963623047, -0.1707085371017456, -0.08419013023376465, 0.4928629994392395, 0.3889249563217163, -0.24393482506275177, -0.10369217395782471, 0.28628116846084595, 0.10571908950805664, 0.1788933277130127, -0.2797893285751343, 0.030171632766723633, -0.3129173815250397, 0.043713927268981934, 0.35477113723754883, 0.06529638916254044, -0.1337723731994629, 0.2581494450569153, 0.19497640430927277, 0.001576066017150879, -0.33046454191207886, 0.38864225149154663, -0.31219810247421265, 0.48075610399246216, -0.08088773488998413, 0.04198575019836426, -0.24614471197128296, -0.3721582293510437, -0.40466445684432983, -0.5329035520553589, -0.5971245765686035, -0.45887356996536255, -0.2668943405151367, 0.3286760151386261, -0.03903208673000336, 0.26610440015792847, 0.35594573616981506, 0.3413422703742981, 0.03367537260055542, 0.0825996845960617], [0.15618501603603363, -0.03218591585755348, -0.3967675566673279, 0.26660555601119995, 0.2234768271446228, 0.37060296535491943, 0.13934803009033203, 0.1741548776626587, 0.3354222774505615, 0.1651281714439392, 0.28001654148101807, 0.21521717309951782, -0.11126413941383362, -0.08468111604452133, 0.3493604063987732, 0.4466908574104309, 0.4519035220146179, -0.1250929981470108, -0.2256215214729309, 0.3042632043361664, 0.28432512283325195, 0.47397637367248535, -0.10310322046279907, 0.049450963735580444, 0.3437657356262207, 0.11971217393875122, 0.1597573161125183, 0.15792310237884521, -0.25969788432121277, -0.46224504709243774, -0.14446914196014404, 0.2093176245689392, -0.13974414765834808, -0.24481575191020966, -0.3658353090286255, -0.4772951006889343, 0.6814121007919312, 0.05263497680425644, 0.4805797338485718, -0.3741523325443268, -0.013731956481933594, -0.3727514147758484, -0.14702528715133667, 0.36771631240844727, 0.4409947991371155, -0.04663743078708649, 0.43099942803382874, -0.4826415181159973, -0.13512247800827026, -0.11225247383117676, -0.1539515256881714, 0.36334145069122314, 0.5757906436920166, -0.16778725385665894, 0.572356641292572, 0.21560043096542358, 0.2830273509025574, 0.5965077877044678, -0.08515340089797974, 0.09164145588874817, -0.09547382593154907, -0.4789343774318695, 0.4366816282272339, -0.2865208387374878], [0.4180801510810852, 0.32133644819259644, -0.22615176439285278, -0.0059722065925598145, -0.30981558561325073, -0.4849351644515991, -0.18032030761241913, 0.39893800020217896, 0.12111073732376099, 0.20293310284614563, 0.48855990171432495, 0.13951009511947632, -0.5184059143066406, 0.0630989670753479, 0.03979673236608505, 0.02412635087966919, 0.1949249804019928, 0.11970990896224976, -0.01825183629989624, -0.15484893321990967, -0.3777875304222107, -0.25368398427963257, -0.4905720353126526, -0.2638237476348877, -0.20699656009674072, -0.5934200286865234, -0.7537788152694702, 0.07054591178894043, -0.35620570182800293, 0.11545278131961823, 0.08970916271209717, 0.471652626991272, 0.25042057037353516, -0.27119266986846924, 0.327736496925354, -0.06828634440898895, 0.25090333819389343, -0.1840648651123047, 0.3917781114578247, -0.10620252043008804, 0.09104688465595245, -0.46300435066223145, -0.4107970595359802, -0.029103845357894897, 0.36146798729896545, 0.45098358392715454, -0.17274434864521027, -0.20376385748386383, 0.19987094402313232, -0.14975714683532715, 0.4054785370826721, -0.4024721384048462, 0.44790899753570557, 0.45382755994796753, 0.42117834091186523, -0.2989884912967682, -0.0385967493057251, 0.4933406114578247, -0.3739680349826813, -0.2754928767681122, -0.3974968194961548, 0.04888886213302612, -0.06698539108037949, 0.31708353757858276], [-0.02786734700202942, 0.2070409655570984, -0.13722890615463257, 0.15371710062026978, 0.17292152345180511, -0.302412748336792, 0.17543697357177734, -0.5078961253166199, 0.08923669159412384, 0.3342447876930237, -0.006033957004547119, 0.32513272762298584, -0.18416067957878113, 0.16032840311527252, -0.24443835020065308, -0.08065957576036453, -0.4679316282272339, 0.016052067279815674, 0.4208090901374817, 0.12564535439014435, -0.3801661431789398, 0.4979665279388428, -0.24675455689430237, -0.23464816808700562, 0.4525728225708008, -0.08400774002075195, 0.3341466188430786, 0.16511036455631256, 0.3642483949661255, 0.2310483604669571, 0.36367401480674744, 0.18675529956817627, -0.3862965703010559, -0.4558795392513275, 0.07283244282007217, -0.2884777784347534, -0.21188569068908691, 0.16751134395599365, 0.10984951257705688, 0.0012882202863693237, -0.643322765827179, 0.5297083854675293, -0.059389613568782806, -0.405742347240448, -0.03692126274108887, 0.03363609313964844, -0.2949221730232239, 0.5596294403076172, 0.28984564542770386, -0.26579463481903076, 0.24060291051864624, 0.3863484859466553, -0.05251592397689819, 0.4350482225418091, -0.34618380665779114, -0.4307911992073059, -0.22657465934753418, -0.01934695988893509, 0.24081623554229736, -0.009109005331993103, -0.017876505851745605, -0.2941676378250122, -0.2610384523868561, 0.2875405550003052], [-0.13391917943954468, -0.14249520003795624, -0.48866006731987, 0.34536105394363403, -0.15348395705223083, -0.34034430980682373, 0.07623817771673203, -0.10512235760688782, -0.042915910482406616, -0.17854958772659302, -0.24599041044712067, -0.38492321968078613, 0.5520197749137878, -0.19371770322322845, -0.14575207233428955, 0.4132736325263977, 0.31151801347732544, 0.24970775842666626, -0.16629397869110107, 0.26362764835357666, 0.4109881520271301, 0.16520822048187256, 0.02962660789489746, 0.21756961941719055, 0.1168820858001709, 0.33748170733451843, -0.1166425347328186, 0.32139164209365845, -0.2395825982093811, -0.24857935309410095, 0.566483199596405, 0.3412994146347046, 0.029513075947761536, 0.41690391302108765, 0.05706757307052612, -0.04443842172622681, -0.6032087802886963, -0.5658255815505981, -0.36389005184173584, 0.5048767924308777, 0.40565070509910583, -0.44348210096359253, -0.20629346370697021, -0.5177486538887024, 0.22061395645141602, 0.17572617530822754, -0.29901939630508423, 0.37104177474975586, 0.36815810203552246, 0.09330719709396362, -0.3702922463417053, -0.21339988708496094, 0.12330279499292374, -0.49584800004959106, -0.12456698715686798, 0.3690672516822815, 0.13407999277114868, 0.05040469020605087, -0.010657191276550293, 0.07335478067398071, 0.15105752646923065, 0.6796360611915588, 0.005891203880310059, -0.17855679988861084], [0.17095308005809784, -0.25456637144088745, -0.29108816385269165, 0.36637789011001587, 0.47050559520721436, -0.10169827938079834, 0.30274033546447754, 0.24680006504058838, 0.473666787147522, -0.20445623993873596, 0.19814671576023102, 0.17065387964248657, 0.2872784733772278, 0.2493724226951599, 0.4753851294517517, -0.07426720857620239, -0.30394864082336426, -0.37705308198928833, 0.07641962915658951, 0.2870854139328003, 0.5077013969421387, 0.2887805998325348, -0.5868076086044312, 0.11757469177246094, -0.5646952390670776, 0.278719961643219, 0.3864709734916687, 0.6405149698257446, 0.1502562165260315, 0.3111521005630493, -0.4569658041000366, 0.092012420296669, -0.083271324634552, 0.0306013822555542, 0.40691250562667847, -0.11765877902507782, -0.5303151607513428, 0.4249610900878906, -0.4341004490852356, 0.6042150855064392, -0.4932623505592346, -0.12169760465621948, -0.04817324876785278, 0.2603200376033783, 0.09378936886787415, 0.1954812854528427, -0.28013432025909424, -0.08790147304534912, -0.30267471075057983, 0.3380015194416046, -0.1002875342965126, 0.1721937656402588, -0.40835291147232056, -0.4989524483680725, 0.17216098308563232, -0.3917333483695984, 0.2897458076477051, -0.10508650541305542, -0.14798027276992798, -0.24329790472984314, 0.28402483463287354, -0.1753881871700287, 0.5136901140213013, 0.22476457059383392], [0.10317057371139526, -0.35643529891967773, -0.05575094372034073, 0.06662195920944214, -0.32339662313461304, 0.3506893217563629, 0.04338802397251129, 0.2578039765357971, -0.20748305320739746, -0.15817683935165405, 0.36535781621932983, -0.09246568381786346, -0.11376267671585083, -0.09833677113056183, -0.4682418704032898, -0.10666751861572266, -0.10522821545600891, -0.49086490273475647, 0.21252506971359253, 0.3449975252151489, -0.256185919046402, -0.3399500250816345, -0.11219209432601929, -0.342166543006897, 0.426447331905365, 0.37154310941696167, -0.26756107807159424, -0.35720986127853394, 0.14831823110580444, 0.3972572088241577, -0.3074307143688202, 0.4956246614456177, 0.4980795383453369, -0.42714813351631165, -0.15130382776260376, 0.31553107500076294, -0.16165822744369507, -0.4915653467178345, -0.06152033060789108, -0.25315040349960327, -0.16641420125961304, -0.2553035616874695, -0.05460435152053833, -0.47329697012901306, -0.3362175226211548, -0.08595007658004761, 0.13208091259002686, 0.21050721406936646, -0.1718054562807083, 0.07564175128936768, -0.4324822425842285, 0.04464951902627945, -0.42597270011901855, -0.14269226789474487, 0.050155460834503174, -0.14539045095443726, -0.3355627655982971, -0.1622428447008133, 0.3146696984767914, 0.20931363105773926, -0.5245200395584106, -0.09356260299682617, -0.42923206090927124, 0.11857330799102783], [0.0883062481880188, -0.17762725055217743, 0.24299180507659912, -0.8402050733566284, 0.3169187009334564, 0.4908598065376282, 0.3701595664024353, -0.3987101912498474, -0.24864041805267334, 0.3120219111442566, 0.12804841995239258, -0.0688929557800293, -0.0630180761218071, 0.20004791021347046, 0.33346009254455566, -0.2496452033519745, -0.13244956731796265, 0.15189999341964722, -0.2093396782875061, 0.49451178312301636, -0.4593433737754822, -0.41783565282821655, -0.8076371550559998, 0.41035908460617065, 0.3228759169578552, -0.8175254464149475, -0.733923077583313, 0.1743021011352539, 0.15239489078521729, -0.22931993007659912, -0.6227599382400513, 0.45461124181747437, -0.3426440358161926, 0.3969002366065979, 0.010190248489379883, -0.0836951732635498, 0.10716903209686279, -0.11721271276473999, -0.14508534967899323, -0.40031278133392334, -0.23508469760417938, -0.08042600750923157, -0.07588732242584229, -0.2496112436056137, -0.17066027224063873, 0.17607936263084412, -0.10154340416193008, 0.30920690298080444, -0.3660565912723541, -0.18400156497955322, 0.39760392904281616, -0.23719820380210876, 0.2330467700958252, 0.4769575595855713, 0.11180429905653, -0.09594699740409851, 0.27940863370895386, -0.12366026639938354, 0.0471116304397583, 0.3053845763206482, -0.14049769937992096, -0.24413836002349854, 0.32921427488327026, 0.5815278887748718], [0.44145894050598145, -0.37652337551116943, -0.39340370893478394, -0.31152111291885376, 0.4982808828353882, 0.20469021797180176, 0.08155536651611328, 0.37071043252944946, -0.14768743515014648, -0.5762754678726196, -0.23445028066635132, -0.09846034646034241, 0.26316481828689575, -0.2283729612827301, 0.47272318601608276, 0.32723426818847656, 0.39688432216644287, -0.31269213557243347, -0.3870459198951721, 0.22133569419384003, -0.08937875926494598, -0.04210737347602844, 0.3338783383369446, -0.29178470373153687, 0.23929309844970703, 0.348740816116333, -0.03266078233718872, 0.46288615465164185, -0.4548729658126831, -0.017257163301110268, -0.13847386837005615, -0.4393935203552246, 0.34732726216316223, -0.06833082437515259, -0.2711237967014313, 0.2835428714752197, 0.284525603055954, 0.04836690425872803, 0.10580092668533325, -0.16256919503211975, 0.07143986225128174, 0.13898099958896637, 0.046148061752319336, -0.2991858720779419, 0.18587422370910645, 0.15075021982192993, 0.3651965260505676, -0.08916014432907104, 0.08433115482330322, 0.17725253105163574, 0.37094536423683167, -0.4846615791320801, -0.010348856449127197, -0.14045602083206177, -0.2747647166252136, 0.3861081004142761, -0.14209038019180298, -0.4449731111526489, -0.03118056058883667, -0.158283531665802, 0.01812654733657837, -0.44090765714645386, 0.37737908959388733, -0.12680725753307343], [0.044646382331848145, -0.24357837438583374, -0.07155817747116089, 0.07146412134170532, -0.3482551574707031, -0.4193241596221924, -0.2996782064437866, -0.4486171007156372, 0.4683329463005066, 0.40251046419143677, -0.1450502872467041, 0.1915355920791626, -0.48820364475250244, -0.013895317912101746, 0.4155425429344177, -0.2736819386482239, -0.4445194602012634, -0.45683157444000244, -0.10294026136398315, 0.44953060150146484, -0.056627631187438965, -0.22425425052642822, 0.14857763051986694, -0.405035138130188, -0.16792842745780945, -0.2025548815727234, 0.05724567174911499, 0.08180218935012817, -0.2940099239349365, 0.2043464183807373, -0.009228408336639404, -0.3853987455368042, 0.11216230690479279, 0.23558750748634338, 0.10359185934066772, 0.26357942819595337, -0.18177980184555054, -0.20725864171981812, -0.33363449573516846, -0.45498836040496826, 0.46932339668273926, 0.13644500076770782, 0.12803322076797485, -0.4051892161369324, 0.5891104340553284, -0.19473421573638916, 0.26756465435028076, -0.3151690363883972, -0.38979893922805786, 0.37954139709472656, 0.4003009796142578, -0.3523143231868744, 0.43843984603881836, -0.31329792737960815, 0.19304192066192627, -0.06864994764328003, -0.11394590139389038, 0.4635581970214844, 0.19115734100341797, -0.060741424560546875, 0.37816333770751953, 0.19402843713760376, -0.021405696868896484, -0.17871655523777008], [-0.16505539417266846, -0.18297451734542847, -0.3632529675960541, -0.09501761198043823, -0.17964839935302734, 0.08715428411960602, 0.42878642678260803, -0.17526775598526, 0.2105262577533722, -0.03355628252029419, 0.028300244361162186, -0.1668052077293396, -0.1249428391456604, -0.4729387164115906, 0.4324992299079895, -0.21241170167922974, -0.053887687623500824, -0.3522452414035797, 0.22129704058170319, 0.03703141212463379, 0.2858794331550598, -0.03406427055597305, 0.1442287564277649, 0.7102832794189453, 0.06787367165088654, -0.23956790566444397, -0.03209209442138672, -0.08421730995178223, 0.2146800309419632, 0.15959882736206055, 0.13118360936641693, 0.15727916359901428, 0.4641221761703491, 0.160677969455719, -0.07633626461029053, -0.7438277006149292, 0.29025110602378845, 0.14022117853164673, 0.07645581662654877, 0.2922322154045105, -0.3224356174468994, -0.33700913190841675, 0.01907932758331299, 0.24833619594573975, -0.17779994010925293, 0.15447330474853516, 0.420165479183197, -0.1255652755498886, 0.17348122596740723, -0.04275614023208618, 0.3697064220905304, -0.2584765553474426, 0.4532245397567749, -0.40824681520462036, -0.13156776130199432, -0.2190881371498108, 0.4836170971393585, -0.44174546003341675, 0.4501916170120239, 0.050918638706207275, 0.15553420782089233, 0.32685986161231995, -0.13365721702575684, 0.20423436164855957], [0.06461334228515625, 0.20938432216644287, 0.44008252024650574, 0.042038679122924805, 0.27324378490448, -0.12436994910240173, -0.059844970703125, 0.4638614058494568, 0.09257207810878754, -0.14848124980926514, -0.16122454404830933, -0.0349084734916687, 0.4652330279350281, -0.060129642486572266, 0.24170345067977905, 0.05915015935897827, 0.09576349705457687, 0.3031648099422455, -0.07059943675994873, -0.3594323396682739, -0.18045774102210999, -0.21657371520996094, 0.34268656373023987, 0.19908452033996582, -0.2150026112794876, -0.01617729663848877, -0.42180073261260986, -0.5174916982650757, -0.08831614255905151, -0.1631074696779251, 0.07940137386322021, 0.22193437814712524, -0.07263141870498657, 0.14642861485481262, 0.28190770745277405, 0.1738894134759903, 0.08872679620981216, -0.0766112208366394, -0.3450031876564026, -0.32349783182144165, 0.0336269736289978, 0.47015440464019775, 0.2911226153373718, 0.15616701543331146, 0.009732484817504883, 0.19603577256202698, 0.5523677468299866, 0.5547561049461365, 0.46953284740448, -0.030851900577545166, -0.06710923463106155, -0.2796887755393982, -0.18564440310001373, -0.24864721298217773, -0.26715904474258423, 0.3118349313735962, -0.1680828332901001, 0.11606979370117188, -0.0571916401386261, -0.3822227120399475, 0.24629056453704834, -0.05474650859832764, -0.4362698495388031, -0.04662410914897919], [-0.25866037607192993, -0.6948374509811401, -0.056560397148132324, -0.3763924241065979, 0.1710588037967682, -0.02148859202861786, 0.08781743049621582, -0.19371825456619263, -0.02183699607849121, 0.23458290100097656, 0.4632522761821747, -0.7898614406585693, -0.3360707759857178, 0.47953009605407715, -0.45326125621795654, -0.34687089920043945, 0.0022127479314804077, -0.32323646545410156, 0.12270843982696533, 0.526052713394165, 0.42489874362945557, 0.25668805837631226, -0.4358071982860565, 0.45578455924987793, -0.33074554800987244, -0.30527275800704956, -0.48310306668281555, 0.3840559720993042, -0.010090649127960205, 0.15692955255508423, -0.2407820224761963, -0.3041346073150635, -0.023123614490032196, -0.12085965275764465, 0.2495826929807663, 0.09613913297653198, -0.4373933672904968, -0.05581402778625488, -0.008970081806182861, 0.05512815713882446, 0.11218579113483429, 0.2451375126838684, -0.323736310005188, 0.2526334524154663, 0.03915930911898613, -0.16810983419418335, 0.1784430742263794, 0.3269014358520508, -0.0764356255531311, 0.04992973804473877, -0.060001738369464874, -0.33341991901397705, -0.12199735641479492, 0.36153092980384827, 0.09088575839996338, -0.46135371923446655, 0.049814701080322266, 0.4200825095176697, -0.2899794578552246, 0.21231186389923096, -0.0464363694190979, 0.019914433360099792, 0.34858614206314087, -0.21508392691612244], [0.08592075109481812, -0.09712474048137665, -0.2052331566810608, -0.6652328968048096, 0.2587195634841919, -0.43863362073898315, 0.42657744884490967, 0.4809170961380005, 0.12219487875699997, 0.2998352646827698, -0.5151057839393616, 0.1135297566652298, 0.4202330410480499, -0.27107417583465576, 0.5743792057037354, 0.10681876540184021, 0.09493249654769897, -0.27467915415763855, 0.6994099617004395, -0.015423178672790527, 0.044229984283447266, 0.3661370873451233, 0.15175452828407288, 0.35893213748931885, -0.7231707572937012, 0.16149115562438965, -0.09118463099002838, 0.03771907091140747, 0.33931827545166016, 0.34976378083229065, -0.17892277240753174, -0.3847103714942932, -0.44868773221969604, -0.40547484159469604, 0.42856645584106445, -0.4962443709373474, -0.4358181953430176, 0.0032525062561035156, -0.8047934174537659, 0.22172600030899048, 0.05027955770492554, -0.3045780658721924, -0.46004217863082886, 0.14668741822242737, 0.40998375415802, -0.008752763271331787, 0.3334451913833618, 0.12317031621932983, -0.18395882844924927, 0.11890552937984467, 0.09156987816095352, -0.08217097818851471, -0.40272796154022217, -0.0548461377620697, 0.3840932250022888, -0.23387885093688965, -0.2751196026802063, 0.15269482135772705, 0.17178583145141602, -0.011516466736793518, 0.14783155918121338, -0.23078715801239014, 0.36032313108444214, -0.33722633123397827], [0.1510036587715149, 0.588880181312561, -0.03534805774688721, 0.42685216665267944, -0.32501423358917236, -0.48345184326171875, 0.347372829914093, 0.4623340368270874, 0.12625205516815186, 0.06563446670770645, -0.5069090127944946, 0.12432493269443512, -0.12303116917610168, -0.1446576714515686, 0.015535950660705566, 0.30082619190216064, 0.2722030282020569, -0.2507774233818054, 0.05972474813461304, -0.17672069370746613, -0.31959837675094604, 0.4763150215148926, 0.4065861701965332, 0.0705479234457016, 0.6080102324485779, -0.12983055412769318, -0.09759333729743958, -0.43114668130874634, 0.36065468192100525, 0.46357643604278564, -0.3948330879211426, 0.13381147384643555, 0.38177573680877686, 0.04664796590805054, 0.010626405477523804, 0.40472275018692017, -0.7254961729049683, 0.45623305439949036, 0.4255303144454956, 0.16832388937473297, 0.04040458798408508, -0.0341387614607811, -0.18896013498306274, 0.46559590101242065, 0.06014305353164673, -0.42887842655181885, 0.05158257484436035, -0.16634678840637207, 0.4245133399963379, 0.03420025110244751, -0.1905234158039093, 0.09973122924566269, 0.26495280861854553, 0.12503743171691895, 0.19027775526046753, -0.2678166627883911, -0.39980459213256836, -0.04579278826713562, -0.017636578530073166, -0.23095834255218506, -0.14198434352874756, -0.4777411222457886, -0.19162605702877045, 0.31466764211654663], [-0.005480766296386719, -0.29270297288894653, -0.3495708107948303, 0.2942238748073578, 0.09969315677881241, 0.20490244030952454, 0.11585068702697754, 0.2781431972980499, -0.09991830587387085, 0.20390185713768005, 0.13854992389678955, 0.4096198081970215, -0.1648356318473816, 0.27424508333206177, -0.46327221393585205, 0.3460550308227539, -0.24389921128749847, -0.1318495273590088, -0.49282383918762207, -0.2752765417098999, -0.026901841163635254, 0.25164347887039185, 0.25322097539901733, -0.046190857887268066, 0.04447297751903534, 0.386499285697937, 0.37348663806915283, 0.015600200742483139, 0.25421589612960815, -0.060679078102111816, 0.2991665005683899, -0.07793503999710083, -0.31876158714294434, 0.33861225843429565, 0.41330236196517944, -0.29627084732055664, 0.043432898819446564, -0.2023581862449646, 0.7934439182281494, -0.7616903185844421, -0.05450892448425293, 0.06649619340896606, 0.4809566140174866, 0.49054110050201416, 0.36705482006073, 0.663354754447937, 0.59989333152771, -0.1483210027217865, 0.4221339821815491, -0.11134487390518188, 0.15511846542358398, 0.39636772871017456, -0.18730837106704712, 0.33760201930999756, 0.25470060110092163, -0.3696025013923645, 0.10356278717517853, 0.48544347286224365, -0.238381490111351, -0.49065446853637695, 0.1945149302482605, 0.37261325120925903, -0.47333499789237976, -0.33328402042388916], [0.1930234581232071, 0.4216374158859253, 0.7256366014480591, -0.1604042947292328, 0.2502519488334656, -0.009498000144958496, -0.11129474639892578, 0.1112818792462349, -0.08874177932739258, -0.2569335103034973, 0.13087326288223267, -0.46790218353271484, -0.15552425384521484, -0.23599398136138916, -0.010649561882019043, -0.4304870665073395, 0.09825536608695984, -0.4788341522216797, -0.013616546988487244, -0.15391039848327637, -0.32603734731674194, 0.3598054051399231, 0.21723049879074097, 0.0021174103021621704, 0.08338671922683716, -0.7424159646034241, 0.06522740423679352, -0.3005983233451843, -0.2056286484003067, -0.23906737565994263, -0.050768256187438965, -0.23407220840454102, 0.05115431547164917, 0.31677937507629395, -0.3151327967643738, 0.12205803394317627, 0.30203425884246826, 0.5068090558052063, -0.024485290050506592, -0.24375295639038086, 0.023267976939678192, 0.257389634847641, 0.3471102714538574, 0.4930339455604553, -0.3438052833080292, -0.08775722235441208, -0.01615011692047119, 0.1366804838180542, -0.4830823540687561, -0.3868269920349121, 0.29407379031181335, 0.2941385507583618, -0.44849884510040283, -0.028341947123408318, 0.0839623361825943, -0.37411054968833923, 0.27156537771224976, -0.4280603528022766, -0.34694066643714905, 0.2365415096282959, -0.5039193034172058, 0.11314666271209717, -0.3182019293308258, 0.35893815755844116], [0.3696027398109436, 0.3411330282688141, -0.4859234690666199, 0.4266771972179413, -0.24111223220825195, -0.3371797502040863, -0.2581798732280731, -0.4786105751991272, 0.2529839277267456, 0.028781354427337646, -0.108814537525177, 0.18292468786239624, 0.09119212627410889, -0.4874579906463623, -0.3367224335670471, 0.3137412965297699, -0.2633645534515381, 0.2838316559791565, 0.21586912870407104, 0.3133489489555359, -0.5697661638259888, -0.3950551152229309, -0.0433315634727478, -0.2577422857284546, 0.5126945972442627, 0.04428678750991821, 0.26825597882270813, 0.33488279581069946, -0.4387914538383484, 0.16477203369140625, -0.2906090021133423, -0.09734570980072021, -0.34081172943115234, 0.43622374534606934, -0.23693746328353882, 0.3905677795410156, -0.3069998621940613, 0.6983864307403564, 0.1396021842956543, -0.418904572725296, 0.019613265991210938, -0.46135425567626953, -0.056190311908721924, -0.5415367484092712, -0.3127722144126892, 0.06386208534240723, -0.059370458126068115, -0.16861401498317719, 0.47224846482276917, -0.03718334436416626, -0.2574727237224579, 0.45779603719711304, 0.2674983739852905, 0.320590615272522, 0.2351837456226349, 0.256475567817688, 0.32081228494644165, 0.4302230477333069, -0.10768872499465942, -0.1417909860610962, -0.2719483971595764, 0.10351622104644775, -0.24976538121700287, 0.0009682178497314453], [-0.532866895198822, 0.6178532838821411, -0.1910523772239685, 0.20125696063041687, 0.23373544216156006, 0.032665133476257324, 0.2798672318458557, -0.30496925115585327, 0.4623560309410095, 0.1888037919998169, -0.25014668703079224, 0.016620919108390808, -0.432669997215271, -0.6977748274803162, -0.2652794122695923, 0.16020184755325317, 0.3460288941860199, -0.22887496650218964, -0.23924444615840912, -0.43625447154045105, 0.21987688541412354, -0.49257010221481323, -0.6550910472869873, -0.508910059928894, 0.49327927827835083, 0.42806053161621094, -0.04328760504722595, -0.19404476881027222, -0.16072160005569458, -0.4133520722389221, -0.2947349548339844, 0.40847718715667725, 0.1953832507133484, 0.12929517030715942, -0.1039658784866333, 0.3649808168411255, -0.47636979818344116, 0.352780282497406, -0.1549251675605774, -0.31615784764289856, 0.10570141673088074, -0.13632231950759888, 0.4997067451477051, -0.16762763261795044, -0.25103166699409485, 0.5099412798881531, -0.06924998760223389, -0.04579535126686096, 0.23620492219924927, -0.13810300827026367, -0.002791658043861389, 0.11318564414978027, 0.4406174123287201, 0.34880077838897705, 0.5421299934387207, 0.22777840495109558, -0.19557082653045654, -0.26099732518196106, 0.3724651336669922, 0.18332505226135254, 0.14872759580612183, -0.18341124057769775, 0.16337132453918457, -0.2317247986793518], [-0.0603901669383049, 0.11620895564556122, -0.3718760907649994, 0.1603710651397705, -0.21798253059387207, -0.0097738578915596, -0.2536890506744385, 0.1512448787689209, -0.3931739926338196, 0.45225220918655396, 0.3203621804714203, -0.4053160548210144, -0.08947340399026871, -0.4950133264064789, -0.02080586552619934, -0.4838882088661194, -0.1301659643650055, -0.08397811651229858, 0.18458861112594604, -0.07087961584329605, -0.4744449257850647, -0.31833064556121826, -0.03411698341369629, -0.20672300457954407, -0.12666840851306915, -0.3950214385986328, -0.4102274775505066, -0.4869663119316101, 0.2097530961036682, 0.17355376482009888, -0.09605938196182251, -0.14427930116653442, 0.45996659994125366, 0.023040466010570526, -0.36861109733581543, -0.38473397493362427, 0.20009273290634155, -0.30279797315597534, 0.19124680757522583, 0.3000829815864563, 0.25867146253585815, 0.5780951380729675, 0.34506532549858093, 0.4726526737213135, 0.2284684181213379, -0.307608425617218, -0.20539523661136627, 0.2918103039264679, -0.40472322702407837, -0.09189420938491821, 0.32576990127563477, 0.03513316810131073, 0.3358629643917084, -0.2974681556224823, 0.2902066707611084, -0.25671103596687317, 0.036055147647857666, 0.010072767734527588, -0.04046376422047615, 0.21023830771446228, 0.6199243068695068, 0.37719854712486267, -0.016169488430023193, 0.08598378300666809], [0.5519621968269348, -0.12593747675418854, 0.1451340764760971, -0.09884140640497208, 0.11375313997268677, 0.622471809387207, -0.5232754945755005, 0.47354936599731445, -0.16116678714752197, 0.4194006323814392, -0.12360888719558716, -0.3208737373352051, -0.7010091543197632, 0.09173638373613358, 0.16870233416557312, 0.25373566150665283, -0.3118100166320801, 0.10405373573303223, 0.5115334391593933, -0.006795406341552734, -0.2464538812637329, -0.17438837885856628, -0.559587299823761, -0.37685418128967285, 0.3035014271736145, -0.0803687572479248, -0.15693938732147217, 0.46567845344543457, 0.03861279785633087, 0.2974379062652588, -0.24325616657733917, 0.07089576125144958, 0.47202184796333313, -0.3191722631454468, -0.2938596308231354, -0.13793694972991943, -0.12261223793029785, -0.23377245664596558, -0.0575435608625412, -0.14814108610153198, 0.040498435497283936, -0.10447800159454346, 0.20060282945632935, -0.18842434883117676, -0.2997708320617676, 0.2255776971578598, 0.23783260583877563, 0.0919298604130745, -0.3027517795562744, -0.33857691287994385, 0.1986316442489624, 0.05437835305929184, 0.03799128532409668, 0.07328468561172485, 0.014633595943450928, 0.164737731218338, -0.47324538230895996, -0.30950653553009033, -0.4902673363685608, -0.4155336916446686, 0.34827232360839844, -0.3048648238182068, 0.10581977665424347, -0.11759889125823975], [-0.39169424772262573, 0.20901943743228912, 0.19466710090637207, -0.454388290643692, -0.25201743841171265, 0.5872559547424316, -0.2522231936454773, 0.22602424025535583, 0.0758347287774086, 0.21219617128372192, -0.20906944572925568, -0.07419142127037048, 0.08295940607786179, 0.2820514738559723, 0.46690940856933594, -0.2488105297088623, -0.213999941945076, 0.1907203644514084, -0.37441664934158325, 0.07126021385192871, -0.314430832862854, 0.3956325352191925, 0.04734160006046295, -0.49709513783454895, 0.39656534790992737, -0.47243672609329224, 0.2640105187892914, -0.4940255284309387, 0.11923575401306152, 0.5272548198699951, -0.3629012405872345, 0.25014233589172363, 0.5593681335449219, -0.41628313064575195, 0.016469597816467285, 0.366110622882843, 0.24692422151565552, 0.38176828622817993, -0.6344168186187744, -0.050694797188043594, 0.09418699145317078, -0.32826560735702515, 0.2695172429084778, 0.07460373640060425, 0.4292437434196472, 0.47969573736190796, 0.45872557163238525, 0.40098851919174194, 0.14048455655574799, 0.4304192066192627, 0.25691962242126465, 0.19174978137016296, -0.34009885787963867, -0.4157788157463074, -0.3450920581817627, -0.28729623556137085, -0.20980265736579895, 0.2431645393371582, 0.03956747055053711, 0.2269890308380127, -0.26824820041656494, 0.3724316954612732, 0.29150301218032837, -0.4098355770111084], [0.29447296261787415, 0.32932204008102417, -0.2196292281150818, 0.1982254981994629, -0.29362058639526367, -0.42271894216537476, 0.7152010202407837, 0.2861988842487335, -0.19674871861934662, 0.16653823852539062, 0.14739030599594116, 0.08598804473876953, 0.19451427459716797, 0.129982128739357, 0.3140483498573303, 0.2850579023361206, 0.31837183237075806, -0.0033580027520656586, 0.07253468036651611, 0.23702241480350494, 0.1160241961479187, 0.26320308446884155, 0.08012217283248901, -0.45529085397720337, -0.4092363715171814, 0.22081458568572998, -0.18884244561195374, -0.32172322273254395, 0.1326645463705063, -0.19835013151168823, -0.17601007223129272, 0.06447601318359375, -0.21596413850784302, 0.11274516582489014, 0.15079297125339508, 0.2608951926231384, 0.22162187099456787, 0.02192072570323944, -0.12908297777175903, -0.23829632997512817, 0.12704682350158691, -0.16272926330566406, 0.11920982599258423, -0.17848330736160278, 0.08102868497371674, -0.7050207853317261, -0.12026278674602509, 0.06039923429489136, 0.4615932106971741, 0.043509602546691895, -0.08215111494064331, 0.4423946738243103, -0.23834002017974854, 0.0870327278971672, -0.1189250648021698, -0.38581234216690063, 0.34057188034057617, 0.3242921829223633, -0.41946941614151, -0.31300902366638184, 0.011226952075958252, -0.19006231427192688, 0.12044382095336914, -0.3707950711250305], [-0.08483368158340454, 0.14114397764205933, -0.32182228565216064, 0.3307226002216339, -0.3546517491340637, 0.16270524263381958, 0.03094962239265442, 0.12399286031723022, -0.13822072744369507, -0.3534681797027588, -0.32246243953704834, -0.05666083097457886, 0.18029043078422546, -0.13132640719413757, -0.29723113775253296, -0.08117961883544922, 0.30628249049186707, 0.3058466911315918, 0.4173172116279602, -0.24593690037727356, -0.5127992630004883, 0.019252434372901917, 0.3682814836502075, 0.05785248428583145, -0.23808899521827698, -0.2734544277191162, 0.08913254737854004, 0.1638452708721161, 0.4433366060256958, -0.40163660049438477, 0.3496617078781128, -0.3112991452217102, 0.2844323515892029, -0.4548189043998718, 0.5186609029769897, 0.01543968915939331, -0.5324926376342773, 0.6481519937515259, -0.1046476736664772, -0.0047588050365448, -0.7779803276062012, 0.1700378656387329, 0.25721973180770874, 0.14320242404937744, -0.3767263889312744, -0.39523476362228394, -0.28656667470932007, 0.3799093961715698, -0.11047476530075073, -0.6596617698669434, 0.16102230548858643, 0.17276102304458618, -0.31750938296318054, 0.13209837675094604, 0.44968926906585693, 0.2570260167121887, -0.13619303703308105, -0.1250220537185669, -0.4321344792842865, -0.3195965886116028, -0.3488995432853699, 0.4873034358024597, -0.06346720457077026, 0.38964492082595825], [0.12995684146881104, -0.2836790084838867, 0.24328437447547913, -0.3387073278427124, -0.39369329810142517, -0.5974106788635254, 0.11475247144699097, 0.47880926728248596, -0.49450451135635376, 0.37688231468200684, 0.28616267442703247, -0.08699242770671844, -0.3025156259536743, 0.3355259299278259, -0.15507936477661133, 0.41060298681259155, 0.0728369951248169, 0.0078058429062366486, -0.19150882959365845, 0.3601546287536621, -0.21063369512557983, 0.06922119855880737, 0.395077109336853, -0.30215996503829956, 0.43666380643844604, -0.45296210050582886, 0.1411668360233307, -0.4093148708343506, -0.2662798762321472, -0.2014593780040741, 0.015790998935699463, 0.6878077387809753, 0.28919410705566406, -0.18257620930671692, 0.19216513633728027, 0.2219480276107788, 0.19665271043777466, -0.2229185700416565, -0.39249128103256226, 0.03682374954223633, 0.1279287338256836, -0.005606599152088165, 0.3082866668701172, 0.47150951623916626, -0.5400394797325134, -0.14582937955856323, -0.2878715395927429, 0.2148323953151703, 0.15296584367752075, 0.2813901901245117, -0.10964792966842651, 0.3026272654533386, 0.3966284394264221, 0.6038858890533447, -0.08258384466171265, 0.23231077194213867, -0.06376487016677856, -0.4765011668205261, 0.38894206285476685, 0.02541518211364746, 0.32778406143188477, 0.25137776136398315, 0.19543612003326416, 0.2818288207054138], [-0.09867213666439056, 0.4251432418823242, 0.314992219209671, 0.15451902151107788, 0.4791759252548218, 0.21194839477539062, -0.10940718650817871, 0.14796960353851318, 0.11815571784973145, -0.09995287656784058, 0.11323273926973343, -0.40861427783966064, 0.3262905478477478, 0.0015004053711891174, -0.40493810176849365, 0.2983289361000061, 0.06822056323289871, 0.00011652708053588867, -0.04562090337276459, 0.2679745554924011, 0.4408266544342041, 0.3242632746696472, -0.20947284996509552, -0.4695323705673218, -0.027641121298074722, -0.37278780341148376, -0.3867550194263458, -0.27021294832229614, 0.020759806036949158, 0.19639736413955688, 0.22014355659484863, -0.19433386623859406, 0.562633752822876, 0.07818621397018433, -0.30012190341949463, 0.13593345880508423, 0.2080550193786621, -0.33690735697746277, 0.30786770582199097, 0.012005031108856201, -0.445073664188385, -0.33984094858169556, 0.2410871982574463, 0.10415204614400864, 0.30410236120224, 0.19471189379692078, -0.18266189098358154, -0.26210474967956543, 0.09197497367858887, -0.04042544215917587, -0.24447423219680786, -0.030480682849884033, 